seqid,AA_A,AA_C,AA_D,AA_E,AA_F,AA_G,AA_H,AA_I,AA_K,AA_L,AA_M,AA_N,AA_P,AA_Q,AA_R,AA_S,AA_T,AA_V,AA_W,AA_Y,CLV_C14_Caspase3-7,DEG_APCC_KENBOX_2,DEG_Kelch_Keap1_1,DEG_SCF_TRCP1_1,DOC_ANK_TNKS_1,DOC_CYCLIN_RxL_1,DOC_MAPK_JIP1_4,DOC_MAPK_MEF2A_6,DOC_MAPK_NFAT4_5,DOC_MAPK_gen_1,DOC_PP1_RVXF_1,DOC_PP2A_B56_1,DOC_PP4_FxxP_1,DOC_WW_Pin1_4,D_repeats,ED_ratio,ELASTIN_LIKE,E_repeats,FG_repeats,FG_rich,FGxF,FRG,G_repeats,KAP_repeats,KL_hydropathy,K_repeats,LIG_14-3-3_CanoR_1,LIG_CaM_IQ_9,LIG_CtBP_PxDLS_1,LIG_EF_ALG2_ABM_1,LIG_EH_1,LIG_HCF-1_HBM_1,LIG_HOMEOBOX,LIG_KEPE_2,LIG_KLC1_WD_1,LIG_LIR_Gen_1,LIG_PAM2_1,LIG_PCNA_PIPBox_1,LIG_PDZ_Class_1,LIG_PDZ_Wminus1_1,LIG_PTAP_UEV_1,LIG_PTB_Apo_2,LIG_PTB_Phospho_1,LIG_Rb_LxCxE_1,LIG_SH2_CRK,LIG_SH2_GRB2like,LIG_SH2_NCK_1,LIG_SH2_SRC,LIG_SH2_STAP1,LIG_SH2_STAT5,LIG_SH3_2,LIG_SUMO_SIM_anti_2,LIG_SUMO_SIM_par_1,MOD_CDK_SPK_2,MOD_CDK_SPxK_1,MOD_CDK_SPxxK_3,MOD_CK1_1,MOD_CK2_1,MOD_DYRK1A_RPxSP_1,MOD_GSK3_1,MOD_N-GLC_1,MOD_NMyristoyl,MOD_PIKK_1,MOD_PKA_1,MOD_PKA_2,MOD_PKB_1,MOD_Plk_1,MOD_ProDKin_1,MOD_SUMO_for_1,MOD_SUMO_rev_2,N_repeats,PG_rich,PR_repeats,PTS_repeats,PY,P_repeats,QN_repeats,Q_repeats,REP_RGG,RG_repeats,RK_ratio,R_plus_Y,R_repeats,SGFYSG,SG_repeats,SR_repeats,S_repeats,TRG_ER_FFAT_1,TRG_ER_diArg_1,TRG_LysEnd_APsAcLL_1,TRG_NES_CRM1_1,TRG_NLS_MonoExtN_4,acidic,aliphatic,aromatic,basic,chain_expanding,complexity,custom_kappa,custom_omega,disorder_promoting,fcr,isoelectric_point,net_charge,polar_fraction,scd,srpipi,lrpipi,Water,Carbon,ssH,ssE,disL,disS,srELEC,lrELEC,sr_hb,lr_hb,srCATPI,lrCATPI,larkSIM,larkFAR
A0A024R2Q3_HUMAN,0.10115236875800256,0.014084507042253521,0.05377720870678617,0.06145966709346991,0.016645326504481434,0.07170294494238157,0.034571062740076826,0.04225352112676056,0.03329065300896287,0.1203585147247119,0.03841229193341869,0.03969270166453265,0.04481434058898848,0.06274007682458387,0.0499359795134443,0.05377720870678617,0.06145966709346991,0.06914212548015365,0.008962868117797696,0.02176696542893726,2.0,0.0,0.0,1.0,0.0,1.0,0.0,3.0,0.0,1.0,1.0,1.0,0.0,3.0,42.0,0.13062018241706422,0.0,48.0,69.0,0.0,0.0,2.0,56.0,140.0,-0.17503201024327786,26.0,5.0,0.0,0.0,0.0,0.0,0.0,0.0,0.0,0.0,2.0,0.0,0.0,1.0,0.0,0.0,0.0,0.0,0.0,1.0,0.0,1.0,1.0,2.0,2.0,0.0,1.0,2.0,0.0,0.0,0.0,4.0,5.0,0.0,11.0,5.0,0.0,7.0,2.0,4.0,0.0,1.0,3.0,0.0,2.0,31.0,10.0,74.0,125.0,0.0,35.0,80.0,49.0,0.0,95.0,0.3930425881096072,56.0,39.0,6.0,98.0,81.0,42.0,0.0,0.0,3.0,1.0,0.0,0.11523687580025609,0.3713188220230474,0.04737516005121639,0.08322663252240717,0.24327784891165172,2.7874509245538786,0.3029623091258241,0.3602821902183793,0.6286811779769527,0.19846350832266324,5.528057098388672,-25.0,0.3380281690140845,4.685074941973316,0.05807467535517184,0.07917416002992773,4.381568663102292,14.953690862668969,0.45263059580822007,0.16738868986126923,0.0677779285433186,0.23603560757699069,-0.04244878212693223,-0.34418130211517156,0.1912789959809822,0.213937348443673,-0.07432280844257583,-0.19725076718394965,0.1309341760728762,0.2964323740674494
NBDY_HUMAN,0.10294117647058823,0.029411764705882353,0.029411764705882353,0.04411764705882353,0.0,0.10294117647058823,0.014705882352941176,0.0,0.07352941176470588,0.07352941176470588,0.014705882352941176,0.029411764705882353,0.23529411764705882,0.014705882352941176,0.058823529411764705,0.08823529411764706,0.058823529411764705,0.0,0.014705882352941176,0.014705882352941176,0.0,0.0,0.0,0.0,0.0,0.0,0.0,0.0,0.0,0.0,0.0,0.0,0.0,1.0,2.0,0.28768207245178085,0.0,3.0,7.0,0.0,0.0,0.0,7.0,28.0,-1.0058823529411764,5.0,1.0,0.0,0.0,0.0,0.0,0.0,0.0,0.0,0.0,0.0,0.0,0.0,0.0,0.0,1.0,0.0,0.0,0.0,0.0,0.0,0.0,0.0,0.0,0.0,1.0,0.0,0.0,0.0,0.0,0.0,1.0,0.0,0.0,2.0,0.0,0.0,0.0,0.0,1.0,0.0,0.0,1.0,0.0,0.0,2.0,0.0,20.0,26.0,0.0,16.0,3.0,1.0,0.0,11.0,-0.1823215567939546,5.0,4.0,0.0,13.0,10.0,6.0,0.0,0.0,0.0,0.0,1.0,0.07352941176470588,0.19117647058823528,0.029411764705882353,0.1323529411764706,0.4411764705882353,2.174304641496189,-0.6533617868280712,-1.0979473866371094,0.8235294117647058,0.20588235294117646,9.510684967041016,4.0,0.3382352941176471,0.06346452149783254,0.07117891953974599,0.09065022918440264,5.253558637880329,13.247944649417802,0.19921690523754745,0.1207952064270006,0.21654901248818775,0.3688815173948244,0.16268477934361622,-0.35611088411079006,0.16029758538568878,0.23848479079470744,-0.0931544856587373,-0.2398469794132443,0.20102698204521083,0.08317291449491666
RCCD1_HUMAN,0.13031914893617022,0.018617021276595744,0.03723404255319149,0.0851063829787234,0.026595744680851064,0.13031914893617022,0.018617021276595744,0.010638297872340425,0.02127659574468085,0.10372340425531915,0.007978723404255319,0.013297872340425532,0.061170212765957445,0.0398936170212766,0.06914893617021277,0.05851063829787234,0.0425531914893617,0.06914893617021277,0.031914893617021274,0.023936170212765957,0.0,0.0,0.0,0.0,0.0,2.0,0.0,0.0,0.0,0.0,0.0,0.0,1.0,2.0,14.0,0.7884573603642703,0.0,32.0,59.0,4.0,0.0,12.0,49.0,80.0,-0.25132978723404253,8.0,1.0,0.0,0.0,0.0,0.0,0.0,0.0,0.0,0.0,0.0,0.0,0.0,0.0,0.0,0.0,0.0,0.0,0.0,2.0,0.0,0.0,1.0,1.0,6.0,0.0,0.0,0.0,1.0,1.0,0.0,1.0,0.0,0.0,4.0,1.0,0.0,1.0,0.0,2.0,0.0,1.0,2.0,0.0,0.0,5.0,0.0,49.0,61.0,0.0,23.0,20.0,15.0,3.0,75.0,1.0986122886681098,35.0,26.0,6.0,71.0,48.0,22.0,0.0,2.0,1.0,0.0,0.0,0.12234042553191489,0.32180851063829785,0.08244680851063829,0.09042553191489362,0.27393617021276595,2.6287738476353413,0.3422565042195667,-0.053242090597252024,0.6941489361702128,0.2127659574468085,5.183536529541016,-12.0,0.32180851063829785,0.20871480071789278,0.06941670431051158,0.10645374734377804,4.630514890807469,14.582080090633843,0.36441136200816965,0.20223202453111036,0.08803913833688463,0.26672000535922386,0.017972654545662176,-0.3932741368237132,0.1522385736307943,0.2292643429023004,-0.1268938342997302,-0.2811344069301926,0.16398434703448786,0.2212000467304695
MEI4_HUMAN,0.04155844155844156,0.015584415584415584,0.04415584415584416,0.08051948051948052,0.04935064935064935,0.033766233766233764,0.02857142857142857,0.046753246753246755,0.06493506493506493,0.15064935064935064,0.012987012987012988,0.03636363636363636,0.02857142857142857,0.06233766233766234,0.03896103896103896,0.12727272727272726,0.05194805194805195,0.04415584415584416,0.012987012987012988,0.02857142857142857,1.0,0.0,0.0,1.0,0.0,0.0,0.0,2.0,2.0,3.0,0.0,2.0,0.0,1.0,17.0,0.5753641449035618,0.0,31.0,32.0,0.0,0.0,0.0,13.0,52.0,-0.3031168831168831,25.0,1.0,1.0,0.0,0.0,0.0,0.0,0.0,0.0,0.0,2.0,0.0,0.0,0.0,0.0,0.0,1.0,1.0,0.0,1.0,1.0,1.0,1.0,2.0,7.0,0.0,2.0,0.0,0.0,0.0,0.0,7.0,6.0,0.0,11.0,4.0,0.0,3.0,1.0,2.0,0.0,8.0,1.0,0.0,2.0,14.0,0.0,26.0,80.0,0.0,11.0,38.0,24.0,0.0,28.0,-0.48550781578170077,26.0,15.0,0.0,62.0,64.0,49.0,0.0,0.0,2.0,0.0,0.0,0.12467532467532468,0.2961038961038961,0.09090909090909091,0.1038961038961039,0.2571428571428571,2.688143115053965,1.273582657664921,-0.1452014169932663,0.6025974025974026,0.22857142857142856,5.823390960693359,-8.0,0.35584415584415585,-0.3490970388860855,0.06475005009415236,0.07583981777835878,4.399213181677887,15.28341514988569,0.4857252124698791,0.1564853204284984,0.07242958995094677,0.22844822091524336,-0.04783935133948636,-0.32425092350121004,0.21069531842802194,0.19931603318060612,-0.14210413566266802,-0.2687177424403278,0.12281789739891924,0.33342552640869483
SYNEM_HUMAN,0.08370607028753993,0.0038338658146964857,0.05047923322683706,0.12587859424920128,0.021725239616613417,0.08242811501597444,0.021725239616613417,0.02939297124600639,0.043450479233226834,0.07667731629392971,0.012779552715654952,0.01597444089456869,0.043450479233226834,0.0536741214057508,0.08562300319488818,0.09456869009584665,0.058146964856230034,0.06964856230031949,0.009584664536741214,0.017252396166134186,5.0,0.0,0.0,0.0,2.0,1.0,0.0,5.0,2.0,6.0,4.0,0.0,4.0,15.0,79.0,0.9062403960206536,0.0,197.0,163.0,0.0,0.0,20.0,129.0,267.0,-0.7736741214057509,68.0,14.0,0.0,0.0,0.0,0.0,0.0,0.0,0.0,0.0,4.0,0.0,0.0,0.0,0.0,0.0,1.0,1.0,1.0,7.0,1.0,0.0,2.0,4.0,10.0,0.0,1.0,3.0,2.0,1.0,2.0,25.0,22.0,0.0,28.0,5.0,0.0,14.0,1.0,15.0,3.0,18.0,14.0,2.0,9.0,25.0,5.0,202.0,307.0,0.0,68.0,109.0,84.0,0.0,263.0,0.6711682738411701,161.0,134.0,12.0,277.0,282.0,148.0,0.0,15.0,3.0,3.0,0.0,0.17635782747603834,0.2722044728434505,0.04856230031948882,0.129073482428115,0.3488817891373802,2.728913457837443,-1.8636671289406561,-0.013489550452121178,0.7431309904153355,0.30543130990415335,5.084095001220703,-74.0,0.3303514376996805,33.29085149290232,0.06909533075816693,0.08626486829134522,4.728196196870521,14.632379862492412,0.40904121884236133,0.2014373579494257,0.08187764419238394,0.2518832362297114,-0.03211816323829781,-0.4020847551653178,0.19062308356883195,0.2268571849935809,-0.08146123598415538,-0.20505246452834464,0.15563608839983087,0.2634974907665748
NKRF_HUMAN,0.06086956521739131,0.017391304347826087,0.04927536231884058,0.07391304347826087,0.02608695652173913,0.06521739130434782,0.021739130434782608,0.05507246376811594,0.0927536231884058,0.06231884057971015,0.021739130434782608,0.04927536231884058,0.050724637681159424,0.059420289855072465,0.050724637681159424,0.07681159420289856,0.059420289855072465,0.059420289855072465,0.007246376811594203,0.04057971014492753,1.0,0.0,0.0,0.0,0.0,1.0,0.0,2.0,1.0,7.0,0.0,1.0,0.0,2.0,34.0,0.3958956570920137,0.0,51.0,63.0,0.0,0.0,4.0,45.0,141.0,-0.7391304347826085,64.0,3.0,0.0,1.0,0.0,0.0,0.0,0.0,0.0,0.0,2.0,1.0,0.0,0.0,0.0,0.0,1.0,1.0,0.0,2.0,1.0,1.0,2.0,4.0,9.0,0.0,1.0,1.0,1.0,0.0,0.0,4.0,11.0,0.0,12.0,8.0,0.0,7.0,1.0,4.0,0.0,4.0,2.0,2.0,2.0,34.0,10.0,70.0,129.0,2.0,35.0,75.0,41.0,0.0,80.0,-0.5908683314395271,63.0,35.0,6.0,98.0,88.0,53.0,0.0,4.0,2.0,0.0,1.0,0.12318840579710146,0.2594202898550725,0.07391304347826087,0.14347826086956522,0.3173913043478261,2.8214543666707974,0.7674886313770881,0.4672155306700791,0.6608695652173913,0.26666666666666666,8.942928314208984,14.0,0.3492753623188406,-0.16304608379507443,0.06849620246988813,0.08563360800239765,4.714100073468786,14.769723038012188,0.35479369984108944,0.21400130751947294,0.1032999784400478,0.2662301722605303,0.042957177286840925,-0.4078428402153396,0.19700224858287185,0.23212064662414042,-0.13158965809719306,-0.26907133212932566,0.16584810715461612,0.21997858951913116
ZN185_HUMAN,0.08853410740203194,0.023222060957910014,0.047895500725689405,0.08272859216255443,0.018867924528301886,0.0841799709724238,0.008708272859216255,0.036284470246734396,0.055152394775036286,0.04354136429608128,0.011611030478955007,0.020319303338171262,0.0899854862119013,0.04354136429608128,0.07402031930333818,0.12772133526850507,0.06531204644412192,0.05370101596516691,0.005805515239477504,0.018867924528301886,1.0,0.0,0.0,0.0,0.0,1.0,0.0,2.0,0.0,2.0,1.0,0.0,2.0,11.0,33.0,0.5340824859302579,0.0,57.0,71.0,0.0,0.0,10.0,58.0,161.0,-0.7654571843251088,38.0,8.0,0.0,0.0,0.0,0.0,1.0,0.0,0.0,0.0,1.0,0.0,0.0,0.0,0.0,0.0,0.0,0.0,1.0,2.0,2.0,1.0,2.0,1.0,6.0,1.0,0.0,2.0,2.0,1.0,1.0,18.0,11.0,1.0,22.0,4.0,0.0,5.0,5.0,15.0,2.0,3.0,9.0,0.0,6.0,14.0,0.0,113.0,195.0,4.0,62.0,44.0,30.0,6.0,109.0,0.28768207245178085,64.0,51.0,3.0,146.0,139.0,88.0,0.0,4.0,0.0,0.0,0.0,0.13062409288824384,0.23367198838896952,0.04354136429608128,0.12917271407837447,0.3497822931785196,2.706545942392754,-1.0141728783701809,0.20297205331769858,0.7677793904208998,0.2597968069666183,6.734653472900391,-1.0,0.37300435413642963,-2.1909970103232044,0.06571670533179268,0.08845441968318607,4.94121724329015,14.059829711415448,0.28662770095701867,0.20483871712022253,0.14105096949624701,0.3033202318785305,0.0886767704451523,-0.4149787474519089,0.20870636589651934,0.24549687021279407,-0.08454279125150158,-0.21722060007422497,0.18733544045382775,0.15245224868234136
NPHP1_HUMAN,0.0546448087431694,0.01366120218579235,0.050546448087431695,0.10382513661202186,0.03551912568306011,0.056010928961748634,0.017759562841530054,0.04918032786885246,0.05191256830601093,0.11748633879781421,0.02185792349726776,0.036885245901639344,0.04781420765027322,0.0546448087431694,0.06420765027322405,0.07923497267759563,0.0546448087431694,0.05327868852459016,0.017759562841530054,0.01912568306010929,2.0,0.0,0.0,0.0,0.0,1.0,0.0,3.0,2.0,4.0,1.0,3.0,1.0,4.0,37.0,0.706219262127298,0.0,76.0,67.0,0.0,0.0,4.0,41.0,113.0,-0.4852459016393441,38.0,7.0,0.0,0.0,0.0,0.0,0.0,0.0,0.0,1.0,7.0,0.0,0.0,0.0,0.0,0.0,0.0,0.0,0.0,2.0,0.0,0.0,2.0,1.0,5.0,0.0,3.0,3.0,0.0,0.0,1.0,6.0,7.0,0.0,9.0,4.0,0.0,4.0,0.0,7.0,1.0,4.0,4.0,0.0,2.0,27.0,0.0,82.0,133.0,4.0,35.0,67.0,40.0,0.0,88.0,0.20763936477824455,61.0,47.0,0.0,99.0,105.0,58.0,0.0,7.0,4.0,1.0,1.0,0.15437158469945356,0.296448087431694,0.07240437158469945,0.11612021857923498,0.31830601092896177,2.790920145141608,1.8654472631132832,-0.12929416654984707,0.6352459016393442,0.27049180327868855,5.112346649169922,-28.0,0.3128415300546448,-1.2500016285694655,0.06451256439242806,0.08026642813660925,4.499216513289096,15.016086881574735,0.43279299977186714,0.1778462639179526,0.07266660182599818,0.2427313624854679,-0.0009322102253570108,-0.3684614594464414,0.19707079759582719,0.2109382890468129,-0.11140788269135038,-0.2501376386744517,0.13833531468788332,0.2816775365430769
MSH4_HUMAN,0.0673076923076923,0.0202991452991453,0.03739316239316239,0.06623931623931624,0.03632478632478633,0.042735042735042736,0.014957264957264958,0.07585470085470085,0.05876068376068376,0.09829059829059829,0.023504273504273504,0.053418803418803416,0.0438034188034188,0.045940170940170943,0.04487179487179487,0.10256410256410256,0.07371794871794872,0.04700854700854701,0.002136752136752137,0.04487179487179487,0.0,0.0,1.0,0.0,0.0,1.0,0.0,1.0,0.0,2.0,3.0,6.0,0.0,11.0,35.0,0.5596157879354227,0.0,62.0,74.0,4.0,0.0,20.0,40.0,159.0,-0.23995726495726502,55.0,7.0,0.0,1.0,0.0,0.0,0.0,0.0,0.0,0.0,11.0,0.0,1.0,0.0,0.0,1.0,6.0,4.0,0.0,3.0,1.0,0.0,2.0,3.0,16.0,0.0,3.0,4.0,0.0,0.0,2.0,15.0,6.0,0.0,21.0,11.0,0.0,5.0,0.0,8.0,0.0,11.0,11.0,0.0,5.0,50.0,0.0,83.0,206.0,0.0,41.0,93.0,43.0,0.0,82.0,-0.26415157504158676,84.0,42.0,9.0,136.0,138.0,96.0,0.0,1.0,2.0,0.0,0.0,0.10363247863247864,0.31196581196581197,0.08333333333333333,0.10363247863247864,0.25106837606837606,2.802129102854832,-1.153941496425809,-0.0967561039381353,0.5982905982905983,0.20726495726495728,7.241207122802734,0.0,0.35363247863247865,-1.2251883486950204,0.05943311808700856,0.08005335889088244,4.464175278728374,15.0427110883848,0.41724467572013546,0.1902465918555888,0.08335339770374152,0.24612468101663923,0.016915768425947067,-0.35913789701969323,0.2017279589507505,0.2166106197973954,-0.1223300280815988,-0.2690995033833538,0.14544721643649192,0.2691129229841487
RRP8_HUMAN,0.09429824561403509,0.02850877192982456,0.05263157894736842,0.06798245614035088,0.039473684210526314,0.05043859649122807,0.019736842105263157,0.015350877192982455,0.08991228070175439,0.08552631578947369,0.008771929824561403,0.02631578947368421,0.08552631578947369,0.06140350877192982,0.07894736842105263,0.08552631578947369,0.03289473684210526,0.05921052631578947,0.008771929824561403,0.008771929824561403,0.0,0.0,0.0,0.0,0.0,1.0,1.0,0.0,0.0,2.0,1.0,1.0,2.0,2.0,24.0,0.2468600779315258,0.0,31.0,41.0,0.0,0.0,4.0,23.0,123.0,-0.7550438596491228,41.0,4.0,0.0,0.0,0.0,0.0,0.0,0.0,0.0,0.0,1.0,0.0,0.0,0.0,0.0,0.0,1.0,0.0,0.0,1.0,1.0,0.0,0.0,0.0,1.0,0.0,0.0,0.0,1.0,0.0,1.0,3.0,3.0,0.0,5.0,0.0,0.0,3.0,1.0,1.0,1.0,1.0,2.0,0.0,0.0,12.0,0.0,75.0,93.0,0.0,39.0,40.0,28.0,0.0,59.0,-0.1267517056391439,40.0,36.0,0.0,62.0,75.0,39.0,0.0,3.0,1.0,0.0,6.0,0.1206140350877193,0.2631578947368421,0.05701754385964912,0.16885964912280702,0.375,2.706203211946989,3.605512572373888,-0.7009194985340894,0.7192982456140351,0.2894736842105263,9.508548736572266,22.0,0.3048245614035088,3.913142234381812,0.0692988413883951,0.08003949092999912,4.743576827746156,14.641394438907705,0.4127807637221798,0.15067705714990245,0.10115870058250624,0.2656509564495219,-0.024699609169181912,-0.370991170154416,0.18822617584452403,0.2156909785468901,-0.11923117574553461,-0.23768074695515634,0.1460136706116036,0.26093440161622333
U3IP2_HUMAN,0.1031578947368421,0.023157894736842106,0.04842105263157895,0.08421052631578947,0.023157894736842106,0.09263157894736843,0.031578947368421054,0.04421052631578947,0.061052631578947365,0.09473684210526316,0.008421052631578947,0.014736842105263158,0.035789473684210524,0.042105263157894736,0.07578947368421053,0.09473684210526316,0.02736842105263158,0.06315789473684211,0.018947368421052633,0.01263157894736842,0.0,0.0,0.0,0.0,0.0,1.0,0.0,0.0,0.0,4.0,0.0,4.0,0.0,1.0,23.0,0.5355182363563621,0.0,40.0,55.0,0.0,0.0,14.0,44.0,95.0,-0.4174736842105263,29.0,1.0,0.0,0.0,0.0,0.0,0.0,0.0,0.0,0.0,0.0,0.0,0.0,0.0,0.0,0.0,0.0,0.0,0.0,0.0,0.0,0.0,0.0,0.0,4.0,0.0,1.0,1.0,0.0,0.0,0.0,3.0,3.0,0.0,7.0,0.0,0.0,1.0,1.0,2.0,0.0,5.0,1.0,0.0,3.0,7.0,5.0,53.0,75.0,0.0,17.0,27.0,20.0,0.0,80.0,0.2097205309820691,42.0,36.0,0.0,89.0,81.0,45.0,0.0,4.0,5.0,0.0,1.0,0.13263157894736843,0.3136842105263158,0.05473684210526316,0.1368421052631579,0.30526315789473685,2.7097283413769335,1.5005846157930287,-0.34550984161302684,0.6968421052631579,0.2694736842105263,8.012439727783203,2.0,0.3263157894736842,-1.4184841814473526,0.0625633213592085,0.08895830743752149,4.523384478640151,14.708917982680356,0.40752024520320335,0.20100846244955645,0.07071606884075357,0.249951961663141,-3.564531560750025e-05,-0.41376679056237786,0.17706940525380985,0.22235021966588597,-0.09095365536985278,-0.22635537765044664,0.14978674162818847,0.26478780247088174
PGRP1_HUMAN,0.09183673469387756,0.03571428571428571,0.025510204081632654,0.030612244897959183,0.015306122448979591,0.08673469387755102,0.04591836734693878,0.030612244897959183,0.015306122448979591,0.10714285714285714,0.030612244897959183,0.05102040816326531,0.061224489795918366,0.061224489795918366,0.0663265306122449,0.08163265306122448,0.03571428571428571,0.05612244897959184,0.030612244897959183,0.04081632653061224,0.0,0.0,0.0,0.0,0.0,0.0,0.0,0.0,0.0,0.0,1.0,0.0,0.0,4.0,5.0,0.15415067982725836,0.0,6.0,20.0,0.0,0.0,2.0,17.0,33.0,-0.2617346938775511,3.0,1.0,0.0,0.0,0.0,0.0,0.0,0.0,0.0,0.0,1.0,0.0,0.0,0.0,0.0,0.0,0.0,0.0,0.0,2.0,0.0,0.0,0.0,0.0,2.0,0.0,0.0,0.0,0.0,0.0,0.0,2.0,0.0,1.0,3.0,1.0,0.0,0.0,0.0,1.0,0.0,0.0,4.0,0.0,0.0,10.0,0.0,25.0,35.0,0.0,12.0,22.0,12.0,0.0,30.0,1.252762968495368,21.0,13.0,0.0,33.0,29.0,16.0,0.0,0.0,2.0,0.0,0.0,0.05612244897959184,0.3163265306122449,0.08673469387755102,0.08163265306122448,0.1989795918367347,2.682848442251736,-0.5666526614366302,-0.3878684094759058,0.6020408163265306,0.1377551020408163,8.92220687866211,5.0,0.3979591836734694,0.13000727507493193,0.0794289672478596,0.11592888054439665,4.530156478778486,15.123921310921176,0.3568027395813624,0.20661013501987305,0.10384396164827508,0.26572868010925527,0.06519986205488451,-0.38044469674648673,0.1801135115694489,0.2599882807616251,-0.12885784309104453,-0.30720400281878496,0.1667684443220106,0.22684734639005677
RPP40_HUMAN,0.03856749311294766,0.030303030303030304,0.03856749311294766,0.07713498622589532,0.05509641873278237,0.046831955922865015,0.04132231404958678,0.046831955922865015,0.06611570247933884,0.12396694214876033,0.01928374655647383,0.05509641873278237,0.05509641873278237,0.030303030303030304,0.03305785123966942,0.07713498622589532,0.05234159779614325,0.05234159779614325,0.01652892561983471,0.0440771349862259,0.0,0.0,0.0,0.0,0.0,2.0,0.0,2.0,0.0,2.0,3.0,1.0,3.0,3.0,14.0,0.659245628884264,0.0,28.0,37.0,0.0,0.0,2.0,17.0,58.0,-0.28236914600550966,24.0,2.0,0.0,0.0,0.0,0.0,1.0,0.0,0.0,0.0,4.0,0.0,0.0,0.0,0.0,0.0,1.0,1.0,0.0,1.0,1.0,1.0,0.0,1.0,5.0,0.0,2.0,2.0,0.0,0.0,0.0,4.0,4.0,0.0,3.0,0.0,0.0,1.0,1.0,2.0,0.0,3.0,3.0,0.0,3.0,20.0,0.0,32.0,67.0,2.0,20.0,31.0,11.0,0.0,29.0,-0.6539264674066639,28.0,12.0,0.0,45.0,40.0,28.0,0.0,1.0,4.0,1.0,0.0,0.11570247933884298,0.2809917355371901,0.11570247933884298,0.09917355371900827,0.2699724517906336,2.7798894428992047,-0.8357352713948724,-2.162818382413415,0.5564738292011019,0.21487603305785125,6.216617584228516,-6.0,0.3333333333333333,-1.3797909421505314,0.07543237928359495,0.08846301581597339,4.488136305917889,15.194816251446879,0.3683850449487296,0.20694246162860527,0.08451205346157369,0.26650280900799056,0.07685814953666058,-0.36591808863322883,0.1944281313202585,0.20939187245582927,-0.17493453867564915,-0.32823865046909934,0.1568128691226507,0.220724316390191
PIAS1_HUMAN,0.055299539170506916,0.026113671274961597,0.053763440860215055,0.0445468509984639,0.029185867895545316,0.03686635944700461,0.03533026113671275,0.047619047619047616,0.053763440860215055,0.11674347158218126,0.02304147465437788,0.03533026113671275,0.07987711213517665,0.0445468509984639,0.041474654377880185,0.12442396313364056,0.0706605222734255,0.05222734254992319,0.004608294930875576,0.02457757296466974,0.0,0.0,0.0,0.0,0.0,0.0,0.0,5.0,0.0,2.0,0.0,0.0,0.0,9.0,35.0,-0.1823215567939546,0.0,29.0,43.0,0.0,0.0,2.0,24.0,123.0,-0.29308755760368665,35.0,7.0,0.0,0.0,0.0,0.0,0.0,0.0,0.0,0.0,1.0,0.0,1.0,0.0,0.0,0.0,0.0,0.0,0.0,0.0,1.0,0.0,1.0,2.0,6.0,1.0,0.0,3.0,0.0,0.0,1.0,9.0,4.0,0.0,17.0,7.0,0.0,2.0,2.0,8.0,0.0,9.0,9.0,1.0,1.0,23.0,5.0,79.0,179.0,6.0,52.0,52.0,29.0,0.0,51.0,-0.25131442828090605,43.0,27.0,0.0,105.0,108.0,81.0,0.0,1.0,3.0,1.0,0.0,0.09831029185867896,0.29493087557603687,0.05837173579109063,0.09523809523809523,0.27342549923195086,2.7682386107138246,1.4175569047101966,0.7540904300363686,0.6405529953917051,0.1935483870967742,6.940746307373047,-2.0,0.37327188940092165,-3.252491705853987,0.06113442880729791,0.07803829693214562,4.664571997451407,14.606546966652221,0.32904917599355094,0.19384587462435746,0.12424043806102346,0.2862509527257318,0.0937434997897096,-0.36332273339195426,0.21124141395069782,0.22288793955791916,-0.11031687550586211,-0.2377758437329522,0.16576337434354346,0.19696496842812794
RL1D1_HUMAN,0.06938775510204082,0.00816326530612245,0.030612244897959183,0.08163265306122448,0.026530612244897958,0.03877551020408163,0.018367346938775512,0.044897959183673466,0.15918367346938775,0.08163265306122448,0.006122448979591836,0.03469387755102041,0.0673469387755102,0.0326530612244898,0.061224489795918366,0.10408163265306122,0.0653061224489796,0.05102040816326531,0.00816326530612245,0.01020408163265306,0.0,0.0,0.0,0.0,0.0,2.0,0.0,3.0,0.0,4.0,1.0,1.0,1.0,12.0,15.0,0.9409833444645266,0.0,40.0,32.0,0.0,0.0,6.0,19.0,145.0,-0.8987755102040816,78.0,4.0,0.0,0.0,0.0,0.0,0.0,0.0,0.0,0.0,2.0,0.0,0.0,0.0,0.0,0.0,0.0,0.0,0.0,2.0,0.0,0.0,0.0,1.0,0.0,0.0,0.0,2.0,4.0,6.0,2.0,7.0,4.0,0.0,15.0,5.0,0.0,1.0,1.0,2.0,0.0,2.0,12.0,3.0,2.0,17.0,0.0,63.0,116.0,0.0,33.0,33.0,16.0,0.0,49.0,-0.9354606479818753,35.0,30.0,0.0,70.0,81.0,51.0,0.0,3.0,3.0,0.0,4.0,0.11224489795918367,0.2530612244897959,0.044897959183673466,0.22040816326530613,0.4,2.6434096221485235,0.2839796908012455,0.06427126020781876,0.7285714285714285,0.3326530612244898,10.134464263916016,53.0,0.3020408163265306,30.096246342542965,0.052794350550900586,0.06239405543424828,4.698070622180882,14.494862242548736,0.4184655438078201,0.1664693724690656,0.0846865989520348,0.25460110541680603,-0.008624928103199155,-0.3912989824846965,0.18836353824896884,0.19834940815394098,-0.09886291356423353,-0.21388382728708347,0.14380456718771936,0.2683075765526107
NOL4_HUMAN,0.05956112852664577,0.0109717868338558,0.0768025078369906,0.07993730407523511,0.025078369905956112,0.06583072100313479,0.0219435736677116,0.032915360501567396,0.05956112852664577,0.0768025078369906,0.032915360501567396,0.05172413793103448,0.03605015673981191,0.05172413793103448,0.06896551724137931,0.12539184952978055,0.045454545454545456,0.04231974921630094,0.003134796238244514,0.032915360501567396,5.0,0.0,0.0,2.0,0.0,2.0,0.0,2.0,0.0,3.0,0.0,2.0,0.0,4.0,49.0,0.03922071315328133,0.0,51.0,58.0,0.0,0.0,8.0,42.0,99.0,-0.900156739811912,38.0,2.0,0.0,1.0,0.0,0.0,0.0,0.0,0.0,0.0,2.0,0.0,0.0,0.0,0.0,0.0,0.0,0.0,0.0,5.0,1.0,0.0,2.0,3.0,3.0,0.0,0.0,0.0,0.0,0.0,0.0,12.0,9.0,0.0,17.0,7.0,0.0,3.0,0.0,2.0,1.0,6.0,4.0,1.0,3.0,33.0,10.0,67.0,132.0,0.0,23.0,66.0,33.0,3.0,86.0,0.14310084364067324,65.0,44.0,3.0,122.0,124.0,80.0,0.0,4.0,2.0,1.0,1.0,0.15673981191222572,0.2445141065830721,0.061128526645768025,0.12852664576802508,0.3213166144200627,2.76422619874822,1.092224335734372,-0.2947840315026647,0.6912225705329154,0.2852664576802508,5.416011810302734,-18.0,0.3730407523510972,-1.4000893002830723,0.073413103289067,0.08888462034990235,4.773867163468269,14.738545401076319,0.3943770553810291,0.18491675478252567,0.10129397585595978,0.2708223543491522,0.007186428321377067,-0.40427588006289955,0.23032348738560238,0.2431741725792184,-0.10956631062189442,-0.2359333963295749,0.15142811651950594,0.24764421505284548
RPP14_HUMAN,0.08870967741935484,0.03225806451612903,0.04032258064516129,0.056451612903225805,0.04032258064516129,0.056451612903225805,0.008064516129032258,0.04032258064516129,0.07258064516129033,0.16129032258064516,0.016129032258064516,0.024193548387096774,0.04032258064516129,0.03225806451612903,0.03225806451612903,0.08870967741935484,0.03225806451612903,0.08064516129032258,0.008064516129032258,0.04838709677419355,0.0,0.0,0.0,0.0,0.0,1.0,0.0,0.0,0.0,0.0,0.0,0.0,0.0,1.0,5.0,0.28768207245178085,0.0,7.0,12.0,0.0,0.0,2.0,7.0,25.0,0.27580645161290324,9.0,1.0,0.0,0.0,0.0,0.0,0.0,0.0,0.0,0.0,2.0,0.0,0.0,0.0,0.0,0.0,0.0,0.0,0.0,2.0,0.0,0.0,0.0,1.0,0.0,0.0,1.0,2.0,0.0,0.0,0.0,2.0,1.0,0.0,1.0,0.0,0.0,0.0,0.0,0.0,0.0,1.0,1.0,0.0,1.0,3.0,0.0,9.0,20.0,0.0,5.0,7.0,4.0,0.0,11.0,-0.6931471805599453,10.0,4.0,0.0,18.0,15.0,11.0,0.0,0.0,1.0,1.0,0.0,0.0967741935483871,0.3870967741935484,0.0967741935483871,0.10483870967741936,0.24193548387096775,2.5308187936328914,0.6515372963175062,-0.2064198935624681,0.5483870967741935,0.20161290322580644,7.816333770751953,1.0,0.27419354838709675,-0.6926970212713756,0.05325283462128974,0.07445590359159858,4.159921242105683,15.170810786785685,0.44844420881242975,0.1995048511362825,0.05372346683444625,0.22147978835734472,0.0020680715422193283,-0.3565426323207443,0.1715901982016788,0.18257243477862597,-0.12839027386499946,-0.2888011056074195,0.13600976415088906,0.2973576411121488
LC7L3_HUMAN,0.03935185185185185,0.016203703703703703,0.06712962962962964,0.1412037037037037,0.013888888888888888,0.04398148148148148,0.023148148148148147,0.023148148148148147,0.09953703703703703,0.0625,0.018518518518518517,0.023148148148148147,0.011574074074074073,0.04398148148148148,0.1712962962962963,0.11342592592592593,0.034722222222222224,0.034722222222222224,0.0023148148148148147,0.016203703703703703,0.0,0.0,0.0,0.0,0.0,0.0,0.0,0.0,0.0,1.0,0.0,1.0,0.0,0.0,29.0,0.7259370033829363,0.0,61.0,25.0,0.0,0.0,4.0,19.0,65.0,-1.698611111111111,43.0,3.0,0.0,0.0,0.0,0.0,0.0,0.0,0.0,0.0,1.0,0.0,1.0,0.0,0.0,0.0,0.0,0.0,0.0,1.0,0.0,0.0,0.0,1.0,2.0,0.0,1.0,0.0,0.0,0.0,0.0,5.0,4.0,0.0,7.0,1.0,0.0,2.0,7.0,9.0,4.0,0.0,0.0,3.0,8.0,10.0,5.0,79.0,69.0,0.0,5.0,29.0,19.0,0.0,93.0,0.5332984796180493,81.0,74.0,0.0,68.0,123.0,49.0,0.0,7.0,1.0,0.0,2.0,0.20833333333333334,0.17824074074074073,0.032407407407407406,0.2708333333333333,0.49074074074074076,2.5439109792103713,-1.8390734870003544,-2.1669359042380045,0.7893518518518519,0.4791666666666667,9.805164337158203,27.0,0.2986111111111111,-0.3171798379575318,0.07782469064650067,0.0794221914425275,4.921996837588352,14.827104437488908,0.5347191727244723,0.1300618868864158,0.07174682784295999,0.2221710621825233,-0.2385229222730328,-0.4035525145654637,0.2139895157868397,0.23213154650706272,-0.09353500851319359,-0.190816859723385,0.11516560776214167,0.370918751129617
RPP29_HUMAN,0.06818181818181818,0.013636363636363636,0.045454545454545456,0.05454545454545454,0.045454545454545456,0.04090909090909091,0.022727272727272728,0.06818181818181818,0.12727272727272726,0.1,0.013636363636363636,0.00909090909090909,0.04090909090909091,0.06818181818181818,0.07727272727272727,0.07727272727272727,0.045454545454545456,0.045454545454545456,0.004545454545454545,0.031818181818181815,1.0,0.0,0.0,0.0,0.0,1.0,0.0,1.0,1.0,3.0,0.0,0.0,0.0,1.0,10.0,0.16705408466316624,0.0,12.0,19.0,0.0,0.0,0.0,9.0,52.0,-0.5704545454545455,28.0,1.0,0.0,0.0,0.0,0.0,0.0,0.0,0.0,0.0,1.0,0.0,0.0,0.0,0.0,0.0,0.0,0.0,0.0,1.0,0.0,0.0,1.0,1.0,4.0,0.0,0.0,1.0,1.0,0.0,1.0,1.0,1.0,0.0,3.0,1.0,0.0,2.0,0.0,2.0,0.0,0.0,1.0,1.0,1.0,2.0,0.0,26.0,36.0,0.0,9.0,17.0,15.0,0.0,26.0,-0.4769240720903093,24.0,17.0,0.0,26.0,34.0,17.0,0.0,1.0,0.0,0.0,2.0,0.1,0.29545454545454547,0.08181818181818182,0.20454545454545456,0.34545454545454546,2.6343066671805206,-0.08707156872656466,0.04617553025480302,0.6681818181818182,0.30454545454545456,10.076358795166016,23.0,0.2772727272727273,8.338775896848754,0.06309743350733404,0.07283353691119568,4.502683736248091,15.17068689926349,0.48896003858055165,0.17273351015396102,0.060136152317003276,0.22037120744508118,-0.08404591384269725,-0.38245040183921375,0.17149125032387366,0.19815972913069768,-0.13276203483289586,-0.27456524580056235,0.12289985569411907,0.3443543761671723
IF2A_HUMAN,0.06984126984126984,0.015873015873015872,0.06666666666666667,0.12063492063492064,0.022222222222222223,0.04126984126984127,0.009523809523809525,0.06984126984126984,0.06666666666666667,0.07936507936507936,0.031746031746031744,0.044444444444444446,0.031746031746031744,0.022222222222222223,0.07936507936507936,0.05396825396825397,0.044444444444444446,0.08888888888888889,0.0031746031746031746,0.0380952380952381,2.0,0.0,0.0,0.0,0.0,0.0,0.0,1.0,0.0,3.0,0.0,2.0,0.0,2.0,21.0,0.5725191927713306,0.0,38.0,20.0,0.0,0.0,2.0,13.0,53.0,-0.45333333333333337,21.0,1.0,0.0,0.0,0.0,0.0,0.0,0.0,0.0,0.0,3.0,0.0,0.0,0.0,0.0,0.0,0.0,0.0,0.0,2.0,0.0,1.0,0.0,0.0,4.0,0.0,2.0,1.0,0.0,0.0,0.0,3.0,5.0,0.0,3.0,1.0,0.0,1.0,0.0,0.0,1.0,0.0,2.0,2.0,2.0,14.0,0.0,35.0,41.0,0.0,10.0,21.0,7.0,0.0,38.0,0.16705408466316624,37.0,25.0,3.0,30.0,42.0,17.0,0.0,3.0,2.0,1.0,0.0,0.1873015873015873,0.3396825396825397,0.06349206349206349,0.14603174603174604,0.36507936507936506,2.6857866180631604,-0.25262254854981775,-0.9608024683649978,0.6063492063492063,0.3333333333333333,5.011035919189453,-13.0,0.23174603174603176,-0.25155324935344975,0.060830875462447004,0.07019441716329886,4.427735498494244,15.139618032291892,0.45549757715078126,0.19174184997867666,0.05351686413475126,0.22604566046507843,-0.0414329169751605,-0.40374018112725973,0.1845367005021741,0.2047287270219595,-0.11034684608513151,-0.22889085003965487,0.13546292195839638,0.298309233454149
PERE_HUMAN,0.09090909090909091,0.023776223776223775,0.05454545454545454,0.02937062937062937,0.04755244755244755,0.057342657342657345,0.013986013986013986,0.04195804195804196,0.027972027972027972,0.12167832167832168,0.02097902097902098,0.05454545454545454,0.06433566433566433,0.043356643356643354,0.11608391608391608,0.06013986013986014,0.046153846153846156,0.04755244755244755,0.015384615384615385,0.022377622377622378,1.0,0.0,0.0,0.0,0.0,4.0,0.0,3.0,1.0,6.0,2.0,3.0,2.0,7.0,39.0,-0.5978370007556204,0.0,21.0,75.0,4.0,0.0,16.0,41.0,131.0,-0.3148251748251749,20.0,8.0,0.0,0.0,0.0,0.0,0.0,0.0,0.0,0.0,1.0,0.0,0.0,0.0,0.0,0.0,0.0,0.0,0.0,1.0,0.0,0.0,1.0,0.0,3.0,2.0,0.0,0.0,1.0,3.0,1.0,6.0,0.0,0.0,5.0,6.0,0.0,4.0,0.0,6.0,2.0,5.0,7.0,0.0,1.0,39.0,0.0,129.0,122.0,0.0,46.0,70.0,31.0,0.0,124.0,1.3862943611198906,99.0,83.0,0.0,84.0,126.0,43.0,0.0,8.0,6.0,0.0,0.0,0.08391608391608392,0.3230769230769231,0.08531468531468532,0.14405594405594405,0.2923076923076923,2.7668755048826283,-0.04241559874569925,0.018021827083865637,0.6041958041958042,0.22797202797202798,10.308780670166016,43.0,0.2993006993006993,16.29480243481922,0.07337453700783961,0.09792375395878793,4.632930109114023,15.211551823946717,0.42634449974058297,0.1557742965483152,0.09449462763325761,0.2515234612716366,-0.053471686102302046,-0.3759838382661182,0.18372481883083203,0.2495831703444,-0.1568856047468702,-0.3016121260695715,0.13927197138434266,0.27027922748426103
GRAA_HUMAN,0.04961832061068702,0.03816793893129771,0.04961832061068702,0.04198473282442748,0.019083969465648856,0.08396946564885496,0.026717557251908396,0.06870229007633588,0.07251908396946564,0.10305343511450382,0.030534351145038167,0.05725190839694656,0.04961832061068702,0.015267175572519083,0.05725190839694656,0.06870229007633588,0.04961832061068702,0.07633587786259542,0.015267175572519083,0.026717557251908396,0.0,0.0,0.0,0.0,0.0,0.0,0.0,2.0,0.0,2.0,1.0,2.0,1.0,2.0,13.0,-0.15415067982725836,0.0,11.0,27.0,0.0,0.0,8.0,22.0,45.0,-0.13396946564885495,19.0,2.0,1.0,0.0,0.0,0.0,0.0,0.0,0.0,0.0,1.0,0.0,0.0,0.0,0.0,0.0,0.0,0.0,0.0,2.0,0.0,1.0,1.0,0.0,2.0,0.0,1.0,2.0,0.0,0.0,1.0,1.0,2.0,0.0,2.0,1.0,0.0,1.0,0.0,3.0,0.0,1.0,2.0,1.0,3.0,15.0,0.0,28.0,44.0,4.0,13.0,19.0,4.0,3.0,37.0,-0.2231435513142097,22.0,15.0,3.0,40.0,33.0,18.0,0.0,0.0,0.0,0.0,0.0,0.0916030534351145,0.3282442748091603,0.061068702290076333,0.1297709923664122,0.27099236641221375,2.7316875349853302,-1.4478080890179796,-0.9923026206976174,0.5648854961832062,0.22137404580152673,9.144481658935547,10.0,0.33969465648854963,1.3705523564555098,0.061071558051721264,0.087010955157348,4.4475681991939595,14.731776758002237,0.3172011616179744,0.24709627296090472,0.10284533387598987,0.2695667143521629,0.08276674828983065,-0.42162573075907667,0.1872962932273359,0.2306222440170628,-0.10288884975345836,-0.2599988210952991,0.17973420779893706,0.19513566657979434
EPCAM_HUMAN,0.09554140127388536,0.03821656050955414,0.054140127388535034,0.07006369426751592,0.025477707006369428,0.050955414012738856,0.009554140127388535,0.05732484076433121,0.08598726114649681,0.07961783439490445,0.028662420382165606,0.054140127388535034,0.025477707006369428,0.04777070063694268,0.041401273885350316,0.04777070063694268,0.05732484076433121,0.08917197452229299,0.006369426751592357,0.03503184713375796,0.0,0.0,0.0,0.0,1.0,1.0,0.0,2.0,0.0,2.0,0.0,1.0,0.0,0.0,17.0,0.2451224580329849,0.0,22.0,24.0,0.0,0.0,2.0,16.0,65.0,-0.20605095541401275,27.0,2.0,0.0,0.0,0.0,0.0,0.0,0.0,0.0,0.0,1.0,0.0,0.0,0.0,0.0,0.0,0.0,0.0,1.0,0.0,1.0,1.0,0.0,1.0,2.0,0.0,1.0,2.0,0.0,0.0,0.0,2.0,1.0,0.0,4.0,3.0,0.0,1.0,0.0,1.0,0.0,2.0,0.0,4.0,2.0,17.0,0.0,21.0,41.0,2.0,8.0,32.0,15.0,0.0,29.0,-0.6931471805599453,24.0,13.0,0.0,31.0,28.0,15.0,0.0,1.0,0.0,0.0,1.0,0.12420382165605096,0.3503184713375796,0.06687898089171974,0.12738853503184713,0.2770700636942675,2.734757729255053,0.17815008106629143,0.3175526828105807,0.5859872611464968,0.2515923566878981,7.563137054443359,1.0,0.3057324840764331,-0.9000859705608408,0.05660123285503559,0.0745617983923001,4.382289086449355,14.887220236104481,0.4019684982269895,0.22589329719884424,0.07238288482709739,0.23250065708226794,0.029014425683534996,-0.39658135307487935,0.1836243097583875,0.20725928261872964,-0.11141989956508684,-0.24069005937197802,0.151083406068023,0.2651874786814473
UBF1_HUMAN,0.04842931937172775,0.007853403141361256,0.07853403141361257,0.13350785340314136,0.02356020942408377,0.03534031413612566,0.015706806282722512,0.024869109947643978,0.13743455497382198,0.07984293193717278,0.032722513089005235,0.03664921465968586,0.051047120418848166,0.051047120418848166,0.05366492146596859,0.09162303664921466,0.031413612565445025,0.02225130890052356,0.017015706806282723,0.0274869109947644,5.0,0.0,0.0,0.0,0.0,1.0,0.0,1.0,1.0,6.0,4.0,1.0,0.0,5.0,60.0,0.5238551240563246,0.0,102.0,45.0,0.0,0.0,4.0,27.0,181.0,-1.3752617801047125,105.0,6.0,0.0,0.0,0.0,0.0,0.0,0.0,0.0,1.0,3.0,0.0,1.0,0.0,0.0,0.0,0.0,0.0,1.0,2.0,0.0,0.0,1.0,3.0,8.0,2.0,2.0,2.0,1.0,1.0,3.0,9.0,12.0,0.0,7.0,4.0,0.0,6.0,1.0,5.0,0.0,2.0,5.0,0.0,5.0,28.0,5.0,80.0,133.0,4.0,39.0,67.0,39.0,0.0,68.0,-0.9257694758286987,62.0,41.0,3.0,97.0,111.0,70.0,0.0,0.0,4.0,1.0,4.0,0.21204188481675393,0.2081151832460733,0.06806282722513089,0.19109947643979058,0.45418848167539266,2.7026213451471053,2.660230615580536,-0.2977880015568904,0.7277486910994765,0.4031413612565445,5.636150360107422,-16.0,0.2696335078534031,-24.178240467015232,0.06513696310449343,0.06905646395056524,4.77054114974982,14.84780757387413,0.5046134469586235,0.10910901594013646,0.09028177167341642,0.23702508689298904,-0.14369752860238438,-0.34980544282176007,0.203522593580984,0.19726322192612955,-0.1507635246877199,-0.24836491919143266,0.11681265243262003,0.33852719479463
MMP8_HUMAN,0.06423982869379015,0.006423982869379015,0.057815845824411134,0.047109207708779445,0.07922912205567452,0.07066381156316917,0.021413276231263382,0.05353319057815846,0.047109207708779445,0.07708779443254818,0.017130620985010708,0.05353319057815846,0.06638115631691649,0.055674518201284794,0.05139186295503212,0.07066381156316917,0.05139186295503212,0.04068522483940043,0.017130620985010708,0.05139186295503212,3.0,0.0,0.0,0.0,0.0,0.0,0.0,2.0,0.0,1.0,1.0,0.0,3.0,5.0,27.0,-0.19671029424605427,0.0,22.0,70.0,0.0,0.0,8.0,33.0,83.0,-0.45139186295503214,22.0,3.0,0.0,0.0,0.0,0.0,0.0,0.0,0.0,0.0,7.0,0.0,0.0,0.0,0.0,0.0,3.0,0.0,0.0,4.0,1.0,1.0,0.0,1.0,4.0,0.0,0.0,0.0,1.0,0.0,0.0,4.0,3.0,0.0,4.0,6.0,0.0,1.0,0.0,3.0,0.0,4.0,5.0,1.0,0.0,25.0,5.0,55.0,88.0,0.0,31.0,51.0,26.0,0.0,57.0,0.083381608939051,48.0,24.0,0.0,66.0,57.0,33.0,0.0,2.0,0.0,0.0,0.0,0.10492505353319058,0.25267665952890794,0.14775160599571735,0.09850107066381156,0.2698072805139186,2.802676831340784,-0.49768115520562506,-0.6248781518356272,0.6038543897216274,0.20342612419700215,6.404872894287109,-3.0,0.3297644539614561,-1.8330074696949277,0.09052265326135486,0.11651418885699492,4.753752747701303,15.304371638856162,0.34215325846642297,0.2066556465365575,0.11803319723549688,0.27090292297874613,0.06151201173236161,-0.3917826192568804,0.19480830220442572,0.24904586651649369,-0.2407469776846183,-0.4070436014656866,0.16993335584663036,0.20739096464708337
CMA1_HUMAN,0.06882591093117409,0.032388663967611336,0.032388663967611336,0.04048582995951417,0.048582995951417005,0.08502024291497975,0.03643724696356275,0.048582995951417005,0.05668016194331984,0.1214574898785425,0.020242914979757085,0.03643724696356275,0.06882591093117409,0.03643724696356275,0.06072874493927125,0.06072874493927125,0.06072874493927125,0.05263157894736842,0.012145748987854251,0.020242914979757085,0.0,0.0,0.0,0.0,0.0,0.0,0.0,1.0,1.0,1.0,0.0,1.0,2.0,0.0,8.0,0.20067069546215124,0.0,10.0,33.0,0.0,0.0,0.0,21.0,48.0,-0.11295546558704457,14.0,2.0,0.0,0.0,0.0,0.0,0.0,0.0,0.0,0.0,2.0,0.0,0.0,0.0,0.0,0.0,0.0,0.0,0.0,0.0,0.0,0.0,1.0,0.0,1.0,0.0,1.0,1.0,0.0,0.0,0.0,0.0,3.0,0.0,3.0,2.0,0.0,1.0,0.0,2.0,0.0,2.0,0.0,0.0,3.0,9.0,5.0,32.0,47.0,2.0,17.0,18.0,9.0,0.0,36.0,0.06453852113757116,20.0,15.0,3.0,36.0,30.0,15.0,0.0,1.0,0.0,0.0,1.0,0.0728744939271255,0.3117408906882591,0.08097165991902834,0.11740890688259109,0.2591093117408907,2.7244651624715353,0.5651885826045439,-0.21393307954846694,0.6072874493927125,0.1902834008097166,9.440135955810547,11.0,0.3481781376518219,1.4500688721978172,0.06707116822669193,0.09605818122004471,4.486661921176353,14.8067462419929,0.33368601056167685,0.22587161678296064,0.1024864001179424,0.2722447635004899,0.09328981806612481,-0.4060002381025979,0.17313048015116525,0.2268155987132864,-0.14184380767618793,-0.28989395362576525,0.17384344925284054,0.20748387079908742
RPB9_HUMAN,0.064,0.072,0.072,0.096,0.032,0.04,0.048,0.048,0.04,0.048,0.024,0.048,0.056,0.056,0.056,0.032,0.056,0.048,0.008,0.056,0.0,1.0,0.0,0.0,0.0,0.0,0.0,0.0,0.0,1.0,0.0,0.0,0.0,0.0,9.0,0.26236426446749106,0.0,12.0,9.0,0.0,0.0,0.0,5.0,20.0,-0.7336000000000001,5.0,0.0,0.0,0.0,0.0,0.0,0.0,0.0,0.0,0.0,0.0,0.0,0.0,0.0,0.0,0.0,0.0,0.0,0.0,0.0,1.0,0.0,1.0,0.0,2.0,0.0,0.0,0.0,0.0,0.0,0.0,0.0,0.0,0.0,1.0,0.0,0.0,2.0,0.0,0.0,0.0,2.0,0.0,0.0,0.0,6.0,0.0,14.0,18.0,0.0,7.0,13.0,7.0,0.0,12.0,0.28768207245178085,14.0,7.0,0.0,9.0,11.0,4.0,0.0,0.0,1.0,0.0,0.0,0.168,0.232,0.096,0.096,0.32,2.659460747123618,-1.0219961573100302,-0.9797608055822936,0.616,0.264,5.000995635986328,-9.0,0.352,1.3702168634210299,0.08848158257761861,0.10070815832814159,4.605338082404587,15.19400936598366,0.35258585855378893,0.20003705792493884,0.10783443353137637,0.26923171224807013,0.04050798074143945,-0.38626500571838385,0.21125329898440182,0.2320162322832561,-0.13584234574856027,-0.29951654971980357,0.16097254525004495,0.22189028969403282
NOP2_HUMAN,0.0812807881773399,0.007389162561576354,0.054187192118226604,0.07881773399014778,0.02832512315270936,0.07512315270935961,0.01600985221674877,0.029556650246305417,0.09236453201970443,0.08374384236453201,0.013546798029556651,0.03571428571428571,0.07512315270935961,0.05541871921182266,0.06403940886699508,0.07881773399014778,0.05295566502463054,0.05541871921182266,0.0049261083743842365,0.017241379310344827,3.0,0.0,0.0,0.0,0.0,2.0,0.0,0.0,0.0,4.0,1.0,1.0,2.0,8.0,44.0,0.36772478012531734,0.0,64.0,84.0,0.0,0.0,12.0,61.0,202.0,-0.8075123152709361,75.0,4.0,0.0,0.0,0.0,0.0,0.0,0.0,0.0,0.0,1.0,0.0,0.0,0.0,0.0,0.0,0.0,0.0,0.0,0.0,1.0,0.0,0.0,1.0,3.0,0.0,0.0,1.0,2.0,2.0,1.0,3.0,5.0,0.0,15.0,4.0,0.0,7.0,4.0,3.0,0.0,2.0,8.0,2.0,3.0,29.0,10.0,113.0,168.0,0.0,61.0,74.0,45.0,0.0,113.0,-0.3604414267342093,66.0,52.0,3.0,125.0,116.0,64.0,0.0,4.0,3.0,1.0,6.0,0.1330049261083744,0.26354679802955666,0.050492610837438424,0.1564039408866995,0.3645320197044335,2.7524125497218774,3.9970001623230167,0.31911062063565215,0.7241379310344828,0.2894088669950739,9.271747589111328,19.0,0.32142857142857145,-9.146420712251816,0.06338943401907994,0.07881133421357422,4.825777235897213,14.424100965907353,0.3768300538996681,0.16995692507546245,0.10292197489339251,0.2752898632016516,0.04890891437551371,-0.40180479539436953,0.18655735963676265,0.22350985949909088,-0.1002202953138413,-0.2225803014559692,0.15769241696835465,0.22899212614194028
GRAK_HUMAN,0.04924242424242424,0.03409090909090909,0.041666666666666664,0.022727272727272728,0.041666666666666664,0.08712121212121213,0.041666666666666664,0.05303030303030303,0.09090909090909091,0.07575757575757576,0.026515151515151516,0.030303030303030304,0.04924242424242424,0.03787878787878788,0.030303030303030304,0.0946969696969697,0.07954545454545454,0.07575757575757576,0.011363636363636364,0.026515151515151516,1.0,0.0,0.0,0.0,0.0,0.0,0.0,1.0,0.0,1.0,0.0,0.0,0.0,2.0,11.0,-0.5389965007326869,0.0,6.0,34.0,0.0,0.0,0.0,23.0,50.0,-0.19242424242424244,24.0,2.0,1.0,0.0,0.0,0.0,0.0,0.0,0.0,0.0,1.0,0.0,0.0,0.0,0.0,0.0,0.0,0.0,0.0,1.0,1.0,0.0,0.0,0.0,1.0,0.0,2.0,1.0,0.0,0.0,1.0,5.0,2.0,0.0,5.0,0.0,0.0,1.0,0.0,3.0,0.0,1.0,2.0,0.0,1.0,8.0,5.0,21.0,59.0,0.0,13.0,18.0,10.0,0.0,31.0,-1.0216512475319814,15.0,8.0,3.0,48.0,33.0,25.0,0.0,0.0,0.0,0.0,0.0,0.06439393939393939,0.2803030303030303,0.07954545454545454,0.12121212121212122,0.23484848484848486,2.7271672661907393,-0.9568098379193362,0.6526094990092047,0.625,0.1856060606060606,9.48227310180664,15.0,0.4053030303030303,2.9881173838881927,0.06389776000084005,0.0950841387865334,4.5149818471062915,14.581972695757708,0.2828964973691174,0.2808082828061261,0.10807781563638148,0.27920514509351335,0.15186901495067384,-0.43574400599763047,0.19256460059309258,0.2252125696058187,-0.13680908629894914,-0.28233802749815196,0.19534718019319436,0.1722586147943749
GRAM_HUMAN,0.0933852140077821,0.03501945525291829,0.03501945525291829,0.01556420233463035,0.019455252918287938,0.08949416342412451,0.0311284046692607,0.0311284046692607,0.042801556420233464,0.13229571984435798,0.023346303501945526,0.019455252918287938,0.0622568093385214,0.038910505836575876,0.07782101167315175,0.0933852140077821,0.042801556420233464,0.08949416342412451,0.01556420233463035,0.011673151750972763,0.0,0.0,0.0,0.0,0.0,3.0,0.0,2.0,0.0,2.0,1.0,0.0,1.0,2.0,9.0,-0.6931471805599453,0.0,4.0,28.0,0.0,0.0,2.0,23.0,51.0,0.1058365758754864,11.0,3.0,0.0,0.0,0.0,0.0,0.0,0.0,0.0,0.0,0.0,0.0,0.0,0.0,0.0,0.0,0.0,0.0,0.0,1.0,0.0,0.0,0.0,0.0,1.0,0.0,2.0,1.0,0.0,0.0,0.0,2.0,0.0,0.0,4.0,3.0,0.0,1.0,1.0,2.0,0.0,1.0,2.0,0.0,0.0,5.0,5.0,36.0,51.0,4.0,16.0,15.0,10.0,0.0,43.0,0.5596157879354227,23.0,20.0,6.0,47.0,44.0,24.0,0.0,0.0,0.0,1.0,0.0,0.05058365758754864,0.36964980544747084,0.04669260700389105,0.12062256809338522,0.23346303501945526,2.63506322859539,-0.20124354290115662,-0.3281251015138069,0.622568093385214,0.17120622568093385,10.162609100341797,18.0,0.35019455252918286,4.719120343527427,0.05137565440551115,0.08792065153076563,4.408706303375714,14.601980787819969,0.35501521397720454,0.21217432990407456,0.09055388831041321,0.26502855354114513,0.0661895684667352,-0.39502352300652765,0.16435428666558038,0.22436880570075637,-0.0885340011271804,-0.22604455876955457,0.1665496127324927,0.22124527981245024
AFF2_HUMAN,0.06636155606407322,0.011441647597254004,0.04424103737604882,0.07093821510297482,0.028985507246376812,0.038901601830663615,0.02288329519450801,0.03813882532418002,0.07856598016781083,0.07704042715484363,0.02212051868802441,0.05873379099923722,0.09382151029748284,0.043478260869565216,0.04042715484363082,0.10678871090770405,0.08771929824561403,0.043478260869565216,0.009916094584286803,0.016018306636155607,4.0,0.0,0.0,0.0,0.0,3.0,0.0,4.0,0.0,5.0,2.0,2.0,6.0,19.0,58.0,0.46575733836428446,0.0,93.0,89.0,4.0,0.0,18.0,51.0,313.0,-0.7464530892448513,103.0,7.0,0.0,0.0,0.0,0.0,0.0,0.0,0.0,1.0,2.0,0.0,1.0,0.0,0.0,1.0,2.0,1.0,0.0,2.0,1.0,1.0,1.0,4.0,7.0,3.0,3.0,3.0,2.0,2.0,2.0,24.0,22.0,1.0,38.0,15.0,0.0,9.0,2.0,5.0,1.0,13.0,19.0,1.0,7.0,77.0,5.0,176.0,378.0,4.0,123.0,134.0,57.0,0.0,104.0,-0.6554068525770982,74.0,53.0,6.0,191.0,193.0,140.0,0.0,4.0,3.0,0.0,2.0,0.11517925247902365,0.2471395881006865,0.05491990846681922,0.11899313501144165,0.32799389778794813,2.7925686491639503,2.94679515065261,0.5510651107169248,0.6941266209000763,0.2341723874904653,8.238880157470703,5.0,0.3699466056445461,-8.378461694910955,0.06691862599462295,0.07947012088600383,4.892606529002486,14.421361429904284,0.3259266017434471,0.1935424143977901,0.13312978466062728,0.2870682086986256,0.09300986206587125,-0.37510562362423866,0.21231334738133767,0.231015767125134,-0.10439143340593214,-0.2382485055856869,0.17116198770704516,0.18858070673064967
HNRPM_HUMAN,0.08082191780821918,0.00684931506849315,0.03424657534246575,0.0863013698630137,0.03287671232876712,0.1780821917808219,0.0136986301369863,0.05342465753424658,0.0547945205479452,0.057534246575342465,0.0863013698630137,0.04246575342465753,0.052054794520547946,0.019178082191780823,0.07397260273972603,0.043835616438356165,0.019178082191780823,0.05342465753424658,0.00410958904109589,0.00684931506849315,2.0,0.0,0.0,0.0,0.0,1.0,0.0,0.0,0.0,5.0,1.0,1.0,3.0,1.0,25.0,0.9007865453381899,0.0,63.0,154.0,16.0,0.0,22.0,130.0,137.0,-0.3416438356164384,40.0,3.0,0.0,0.0,0.0,0.0,0.0,0.0,0.0,0.0,2.0,0.0,0.0,0.0,0.0,0.0,3.0,1.0,0.0,1.0,1.0,1.0,2.0,0.0,1.0,0.0,1.0,0.0,0.0,0.0,0.0,0.0,8.0,0.0,3.0,0.0,0.0,0.0,0.0,0.0,0.0,4.0,1.0,5.0,3.0,31.0,55.0,92.0,84.0,2.0,38.0,45.0,14.0,3.0,184.0,0.29376111852816317,59.0,54.0,9.0,162.0,86.0,32.0,0.0,0.0,1.0,1.0,1.0,0.12054794520547946,0.3315068493150685,0.043835616438356165,0.12876712328767123,0.3013698630136986,2.652762095671349,-3.2632706725350262,-1.5177558795229174,0.6561643835616439,0.2493150684931507,8.847171783447266,6.0,0.3232876712328767,-0.14797241576493272,0.05832589044722261,0.09607953819898554,4.394210838720034,14.36623424860376,0.3697791664063203,0.19915282465919934,0.09597606739426467,0.262425293870769,-0.02758671920371915,-0.39927376338426296,0.14130792402273562,0.2240957365762148,-0.08806104259892711,-0.21279277451332443,0.16298353426702825,0.22086713902736704
RPAB3_HUMAN,0.05333333333333334,0.006666666666666667,0.12,0.07333333333333333,0.05333333333333334,0.07333333333333333,0.013333333333333334,0.05333333333333334,0.05333333333333334,0.10666666666666667,0.03333333333333333,0.02666666666666667,0.02666666666666667,0.02,0.06,0.06,0.04,0.06666666666666667,0.0,0.06,0.0,0.0,0.0,0.0,0.0,0.0,0.0,1.0,1.0,0.0,0.0,0.0,0.0,0.0,18.0,-0.4595323293784402,0.0,11.0,19.0,0.0,0.0,0.0,11.0,20.0,-0.33600000000000013,8.0,1.0,0.0,1.0,0.0,0.0,0.0,0.0,0.0,0.0,1.0,0.0,0.0,0.0,0.0,0.0,0.0,0.0,0.0,2.0,0.0,0.0,1.0,0.0,3.0,0.0,0.0,1.0,0.0,0.0,0.0,0.0,2.0,0.0,1.0,0.0,0.0,0.0,0.0,3.0,0.0,0.0,0.0,0.0,2.0,4.0,0.0,13.0,19.0,0.0,4.0,7.0,3.0,0.0,20.0,0.10536051565782635,18.0,9.0,3.0,20.0,18.0,9.0,0.0,0.0,1.0,0.0,0.0,0.19333333333333333,0.31333333333333335,0.11333333333333333,0.11333333333333333,0.3333333333333333,2.5787474730265685,0.9992468981123238,-0.17382816868242998,0.5933333333333334,0.30666666666666664,4.495456695556641,-12.0,0.24,1.8499725167974308,0.07717417732565747,0.09194913591930995,4.555722979353819,15.153627468021336,0.3610424756074015,0.22620973713202172,0.09033547878530356,0.2579917511486732,0.02318895655628379,-0.44225046978124233,0.2124856539074405,0.22684319749482265,-0.13499153334199585,-0.3138106547065756,0.16004624250330093,0.21974943628737825
RRP1_HUMAN,0.0824295010845987,0.008676789587852495,0.04772234273318872,0.10845986984815618,0.03036876355748373,0.06724511930585683,0.010845986984815618,0.039045553145336226,0.06724511930585683,0.10412147505422993,0.02386117136659436,0.02386117136659436,0.049891540130151846,0.07158351409978309,0.11279826464208242,0.0455531453362256,0.04338394793926247,0.04121475054229935,0.010845986984815618,0.010845986984815618,2.0,0.0,0.0,0.0,0.0,3.0,0.0,3.0,0.0,2.0,0.0,1.0,1.0,3.0,22.0,0.7963314167951762,0.0,50.0,45.0,0.0,0.0,14.0,31.0,92.0,-0.8377440347071584,31.0,2.0,0.0,0.0,0.0,0.0,0.0,0.0,0.0,0.0,4.0,0.0,0.0,0.0,0.0,0.0,1.0,0.0,0.0,1.0,0.0,1.0,0.0,1.0,2.0,0.0,1.0,1.0,1.0,0.0,0.0,2.0,3.0,0.0,3.0,2.0,0.0,6.0,1.0,2.0,0.0,1.0,3.0,0.0,1.0,11.0,5.0,75.0,64.0,0.0,23.0,44.0,33.0,0.0,83.0,0.5045560107523953,57.0,52.0,0.0,52.0,73.0,21.0,0.0,6.0,2.0,1.0,4.0,0.1561822125813449,0.29067245119305857,0.052060737527114966,0.18004338394793926,0.38611713665943603,2.6887144661464735,2.2903208080051503,1.2005242411440802,0.7071583514099783,0.3362255965292842,9.386783599853516,11.0,0.27114967462039047,-5.367540897101616,0.0668778693190858,0.07711741213571974,4.622736325291557,15.002097167510593,0.5268874327474823,0.11085038460167114,0.06778361876438553,0.22440002535001377,-0.132438567748496,-0.37124891035718305,0.17205380134184145,0.214518449695727,-0.10541188774631889,-0.21385614368149808,0.1115877592403853,0.35739477672150216
NOP14_HUMAN,0.07001166861143523,0.014002333722287048,0.056009334889148193,0.11201866977829639,0.03150525087514586,0.05367561260210035,0.026837806301050177,0.028004667444574097,0.09918319719953325,0.12135355892648775,0.024504084014002333,0.029171528588098017,0.043173862310385065,0.046674445740956826,0.06884480746791131,0.06884480746791131,0.038506417736289385,0.045507584597432905,0.005834305717619603,0.01633605600933489,6.0,0.0,0.0,0.0,0.0,2.0,0.0,3.0,0.0,2.0,2.0,2.0,2.0,7.0,48.0,0.6828906803927562,0.0,96.0,73.0,0.0,0.0,12.0,46.0,182.0,-0.7610268378063011,85.0,6.0,0.0,1.0,0.0,1.0,0.0,0.0,0.0,0.0,3.0,0.0,2.0,0.0,0.0,0.0,0.0,0.0,0.0,1.0,0.0,0.0,0.0,2.0,5.0,0.0,3.0,3.0,2.0,2.0,1.0,8.0,18.0,0.0,8.0,1.0,0.0,7.0,2.0,3.0,2.0,2.0,7.0,4.0,8.0,25.0,10.0,96.0,129.0,2.0,37.0,65.0,40.0,3.0,105.0,-0.36000273403140703,73.0,59.0,0.0,105.0,118.0,59.0,0.0,4.0,7.0,0.0,3.0,0.16802800466744458,0.2893815635939323,0.05367561260210035,0.16802800466744458,0.3792298716452742,2.7475251217846255,3.0399084508234293,-0.39122538546469754,0.6837806301050176,0.33605600933488916,7.396297454833984,0.0,0.2777129521586931,-10.232882229653494,0.059713175603056556,0.06967791447563264,4.534575258054651,14.936874943888014,0.513174629213532,0.12527450019625877,0.06481700820849208,0.22527507189081217,-0.14739702986180894,-0.34038165118261726,0.19045799319804865,0.19252308476328595,-0.09432162708582646,-0.20695686923608406,0.11530255899056799,0.34396316077434724
RPP38_HUMAN,0.0706713780918728,0.014134275618374558,0.045936395759717315,0.0706713780918728,0.0176678445229682,0.028268551236749116,0.01060070671378092,0.0636042402826855,0.12014134275618374,0.12014134275618374,0.01060070671378092,0.03180212014134275,0.07420494699646643,0.04240282685512368,0.0706713780918728,0.07773851590106007,0.04946996466431095,0.06713780918727916,0.01060070671378092,0.0035335689045936395,0.0,0.0,0.0,0.0,2.0,0.0,0.0,5.0,2.0,4.0,0.0,0.0,0.0,3.0,13.0,0.4054651081081644,0.0,20.0,13.0,0.0,0.0,2.0,8.0,75.0,-0.47243816254416976,34.0,2.0,0.0,0.0,0.0,0.0,0.0,0.0,0.0,0.0,1.0,0.0,0.0,0.0,0.0,0.0,0.0,0.0,0.0,0.0,0.0,0.0,0.0,0.0,1.0,1.0,1.0,1.0,1.0,0.0,1.0,1.0,2.0,0.0,4.0,2.0,0.0,1.0,2.0,3.0,0.0,1.0,2.0,1.0,1.0,9.0,0.0,41.0,57.0,2.0,21.0,21.0,12.0,0.0,28.0,-0.5108256237659907,21.0,20.0,0.0,30.0,42.0,22.0,0.0,0.0,2.0,0.0,2.0,0.1166077738515901,0.3321554770318021,0.03180212014134275,0.19081272084805653,0.38162544169611307,2.6154431818786215,1.1436505681308238,-0.41431396350315913,0.6607773851590106,0.30742049469964666,9.937664031982422,21.0,0.254416961130742,6.3499908243033545,0.04780534758694459,0.0574337366801465,4.529426562032901,14.691383096432833,0.448198590809092,0.15234544534486336,0.06698369271394532,0.24541741775343232,-0.053896503638445135,-0.35736083071959485,0.17503616653066653,0.1898522715989678,-0.06996338886301082,-0.19054546322118082,0.13096735383241462,0.28978375434674064
RPP30_HUMAN,0.10074626865671642,0.026119402985074626,0.05223880597014925,0.055970149253731345,0.03731343283582089,0.048507462686567165,0.022388059701492536,0.07462686567164178,0.07835820895522388,0.1044776119402985,0.011194029850746268,0.026119402985074626,0.05223880597014925,0.011194029850746268,0.05970149253731343,0.07462686567164178,0.05970149253731343,0.08208955223880597,0.0,0.022388059701492536,1.0,0.0,0.0,0.0,0.0,0.0,0.0,2.0,0.0,3.0,1.0,2.0,1.0,1.0,14.0,0.06453852113757116,0.0,15.0,23.0,0.0,0.0,10.0,13.0,62.0,0.06119402985074622,21.0,3.0,0.0,0.0,0.0,0.0,0.0,0.0,0.0,0.0,1.0,0.0,0.0,0.0,0.0,0.0,0.0,0.0,0.0,2.0,0.0,3.0,0.0,2.0,2.0,0.0,2.0,2.0,0.0,0.0,1.0,1.0,2.0,0.0,2.0,0.0,0.0,0.0,1.0,5.0,0.0,1.0,1.0,2.0,2.0,7.0,0.0,30.0,50.0,2.0,14.0,10.0,3.0,0.0,29.0,-0.2578291093020998,22.0,16.0,3.0,33.0,36.0,20.0,0.0,2.0,0.0,0.0,1.0,0.10820895522388059,0.373134328358209,0.05970149253731343,0.13805970149253732,0.29850746268656714,2.656921881855248,-0.8451168994803397,-0.41993305384572954,0.6156716417910447,0.2462686567164179,9.108646392822266,8.0,0.26865671641791045,0.42884855184487597,0.0473063335614711,0.06960273015855645,4.347327063788373,14.829399314068029,0.38721074389633675,0.21571118250740182,0.0644787683557618,0.24271872334781988,0.026630374175995373,-0.39991744791614103,0.17635380224839103,0.20038296677015321,-0.08999927750016036,-0.22333740450572248,0.15332161222232438,0.2350561163149373
AK17A_HUMAN,0.0618705035971223,0.015827338129496403,0.04892086330935252,0.11510791366906475,0.025899280575539568,0.050359712230215826,0.030215827338129497,0.031654676258992806,0.0920863309352518,0.08776978417266187,0.017266187050359712,0.02302158273381295,0.04748201438848921,0.05467625899280575,0.1251798561151079,0.08345323741007195,0.031654676258992806,0.04028776978417266,0.0057553956834532375,0.011510791366906475,0.0,0.0,0.0,0.0,1.0,1.0,0.0,3.0,0.0,2.0,2.0,3.0,0.0,5.0,34.0,0.8391010931830252,0.0,80.0,53.0,4.0,0.0,10.0,35.0,140.0,-1.1689208633093524,64.0,4.0,1.0,0.0,0.0,0.0,0.0,0.0,0.0,1.0,1.0,0.0,0.0,0.0,0.0,0.0,1.0,0.0,0.0,0.0,0.0,0.0,0.0,0.0,2.0,0.0,0.0,0.0,1.0,3.0,2.0,7.0,6.0,2.0,12.0,4.0,0.0,0.0,5.0,8.0,5.0,3.0,5.0,1.0,8.0,16.0,5.0,120.0,113.0,2.0,33.0,54.0,38.0,0.0,122.0,0.3029495445825694,95.0,87.0,6.0,93.0,145.0,58.0,0.0,10.0,3.0,0.0,0.0,0.16402877697841728,0.23884892086330936,0.04316546762589928,0.21726618705035972,0.4287769784172662,2.7074269760672,-0.7189593914392182,-0.4548048411432488,0.7410071942446043,0.381294964028777,9.756298065185547,37.0,0.2892086330935252,8.07736391163621,0.07446180766174036,0.0826028695085157,4.8066399625356215,14.86514104241461,0.47206125273059907,0.14492249242255564,0.0899590481211843,0.23419566006534193,-0.16942035842227005,-0.3811342400298413,0.18564493921507197,0.22681986735282503,-0.09809918801867647,-0.21433213727437622,0.1321680475367243,0.32653761101205003
SRSF4_HUMAN,0.030364372469635626,0.004048582995951417,0.044534412955465584,0.0728744939271255,0.010121457489878543,0.0708502024291498,0.018218623481781375,0.01417004048582996,0.10931174089068826,0.02834008097165992,0.006072874493927126,0.024291497975708502,0.024291497975708502,0.024291497975708502,0.19635627530364372,0.2408906882591093,0.016194331983805668,0.03441295546558704,0.0020242914979757085,0.02834008097165992,4.0,0.0,0.0,0.0,0.0,0.0,0.0,0.0,0.0,1.0,0.0,2.0,0.0,4.0,22.0,0.4754236967150748,0.0,36.0,40.0,0.0,0.0,10.0,35.0,81.0,-1.8384615384615388,54.0,6.0,0.0,0.0,0.0,0.0,0.0,0.0,0.0,0.0,2.0,0.0,0.0,0.0,0.0,0.0,0.0,0.0,0.0,3.0,0.0,0.0,1.0,0.0,1.0,0.0,0.0,1.0,0.0,4.0,0.0,6.0,6.0,0.0,28.0,1.0,0.0,5.0,4.0,8.0,14.0,2.0,4.0,1.0,3.0,12.0,0.0,109.0,139.0,0.0,12.0,24.0,12.0,0.0,132.0,0.5776342934381009,111.0,97.0,18.0,154.0,216.0,119.0,0.0,4.0,1.0,0.0,3.0,0.11740890688259109,0.11336032388663968,0.04048582995951417,0.305668016194332,0.4473684210526316,2.347154497187323,1.7853822110866018,1.0317245419300152,0.8481781376518218,0.4230769230769231,11.517192840576172,93.0,0.39878542510121456,85.6789764365257,0.07950930071255947,0.09999057519469721,5.162776283388596,14.148263128378526,0.3502197034111767,0.20276311300257635,0.11884174594281956,0.29616047311987653,0.029677206717353452,-0.5017559360556805,0.22814343604050644,0.280675350503913,-0.11732318133209438,-0.256394602983392,0.16783979986602598,0.2045680690819316
BRME1_HUMAN,0.08682634730538923,0.014970059880239521,0.0658682634730539,0.08383233532934131,0.016467065868263474,0.12275449101796407,0.019461077844311378,0.016467065868263474,0.0374251497005988,0.08083832335329341,0.01347305389221557,0.016467065868263474,0.11676646706586827,0.061377245508982034,0.05239520958083832,0.09580838323353294,0.04790419161676647,0.040419161676646706,0.005988023952095809,0.004491017964071856,4.0,0.0,0.0,1.0,3.0,1.0,0.0,0.0,0.0,0.0,0.0,1.0,1.0,10.0,44.0,0.23638877806423034,10.0,56.0,93.0,0.0,4.0,12.0,82.0,161.0,-0.7812874251497007,25.0,2.0,0.0,0.0,0.0,0.0,0.0,0.0,0.0,0.0,0.0,0.0,0.0,0.0,0.0,0.0,0.0,0.0,0.0,0.0,0.0,0.0,0.0,0.0,0.0,2.0,0.0,2.0,1.0,3.0,1.0,12.0,11.0,0.0,12.0,0.0,0.0,7.0,0.0,6.0,0.0,1.0,9.0,1.0,3.0,11.0,35.0,113.0,174.0,2.0,78.0,52.0,41.0,0.0,117.0,0.32542240043462795,38.0,35.0,3.0,146.0,99.0,64.0,0.0,1.0,1.0,0.0,1.0,0.1497005988023952,0.23802395209580837,0.02694610778443114,0.08982035928143713,0.3562874251497006,2.646407877125944,1.2316968696052892,-0.3504336519950759,0.7904191616766467,0.23952095808383234,4.713459014892578,-40.0,0.3787425149700599,10.049335248663166,0.067199050047947,0.09001797165754355,4.940636873002292,13.866306960705453,0.29223087437704004,0.15970505869556853,0.1596127835942718,0.30945421587579813,0.08809446740132901,-0.38134639203536286,0.19688933027375685,0.2375036760541703,-0.07033713541421435,-0.17681463096636782,0.1842222137915788,0.15374254935522508
CGNL1_HUMAN,0.0576036866359447,0.007680491551459293,0.05606758832565284,0.1282642089093702,0.013824884792626729,0.041474654377880185,0.019969278033794162,0.027649769585253458,0.07987711213517665,0.11597542242703533,0.018433179723502304,0.04685099846390169,0.03763440860215054,0.07987711213517665,0.07757296466973887,0.08678955453149001,0.04531490015360983,0.041474654377880185,0.002304147465437788,0.015360983102918587,3.0,1.0,0.0,0.0,0.0,5.0,1.0,5.0,1.0,8.0,0.0,3.0,2.0,6.0,73.0,0.8198988861990891,0.0,167.0,72.0,4.0,0.0,8.0,54.0,228.0,-1.0772657450076806,104.0,8.0,0.0,0.0,0.0,0.0,0.0,0.0,0.0,0.0,2.0,0.0,1.0,1.0,0.0,0.0,0.0,0.0,0.0,3.0,0.0,1.0,1.0,2.0,6.0,1.0,0.0,1.0,0.0,1.0,0.0,18.0,12.0,0.0,21.0,7.0,0.0,10.0,4.0,9.0,3.0,7.0,6.0,6.0,10.0,61.0,5.0,150.0,221.0,6.0,49.0,165.0,104.0,0.0,155.0,-0.028987536873252298,121.0,101.0,6.0,167.0,214.0,113.0,0.0,10.0,7.0,2.0,3.0,0.18433179723502305,0.261136712749616,0.0314900153609831,0.15745007680491552,0.3794162826420891,2.709984566135772,-0.11610695037154611,0.5401119522654434,0.7104454685099847,0.34178187403993854,5.515293121337891,-35.0,0.3279569892473118,2.9700700181657824,0.06376147994293643,0.07041641147044089,4.695118566898241,14.937948153305065,0.5172702584586899,0.13144981952098425,0.07819452227157829,0.21889188003553928,-0.17016243411084814,-0.33902234485831906,0.20049827316470428,0.21380304133766787,-0.07262330403611991,-0.17480479546220995,0.11893824092588563,0.36966835601362114
NEXN_HUMAN,0.054814814814814816,0.005925925925925926,0.045925925925925926,0.20592592592592593,0.03111111111111111,0.037037037037037035,0.0044444444444444444,0.045925925925925926,0.12,0.05925925925925926,0.028148148148148148,0.02962962962962963,0.028148148148148148,0.05333333333333334,0.10074074074074074,0.05185185185185185,0.037037037037037035,0.034074074074074076,0.005925925925925926,0.02074074074074074,1.0,0.0,0.0,0.0,0.0,0.0,1.0,3.0,1.0,2.0,2.0,0.0,2.0,3.0,31.0,1.4759065198095778,0.0,139.0,46.0,0.0,0.0,4.0,25.0,137.0,-1.4379259259259258,81.0,2.0,0.0,0.0,0.0,0.0,0.0,0.0,0.0,0.0,6.0,0.0,0.0,0.0,0.0,0.0,0.0,0.0,0.0,1.0,0.0,0.0,1.0,1.0,5.0,0.0,0.0,1.0,0.0,2.0,0.0,2.0,13.0,0.0,7.0,4.0,0.0,2.0,3.0,5.0,0.0,4.0,3.0,3.0,5.0,20.0,5.0,87.0,79.0,0.0,19.0,56.0,36.0,0.0,93.0,-0.17261274266699378,82.0,68.0,0.0,60.0,103.0,35.0,0.0,8.0,3.0,0.0,0.0,0.2518518518518518,0.2222222222222222,0.057777777777777775,0.22074074074074074,0.5007407407407407,2.6003922225312213,2.7280218915130257,-1.1029529606534323,0.7392592592592593,0.4725925925925926,5.308826446533203,-21.0,0.21925925925925926,-0.3964962689950093,0.07304564563138191,0.06660860001688805,4.742286567830618,15.131309837778073,0.5831311360977836,0.12402460514849138,0.051467494555507684,0.18955029164018686,-0.2341646101024062,-0.36956672444083216,0.17420284290934052,0.1949131367193498,-0.11702755996344998,-0.2113567884389385,0.10543790434080968,0.4267371855128895
NU160_HUMAN,0.07242339832869081,0.028551532033426183,0.04665738161559889,0.07103064066852367,0.034122562674094706,0.05083565459610028,0.026462395543175487,0.05222841225626741,0.035515320334261836,0.13579387186629527,0.025069637883008356,0.037604456824512536,0.04387186629526462,0.052924791086350974,0.04944289693593315,0.06963788300835655,0.05083565459610028,0.06406685236768803,0.014623955431754874,0.0383008356545961,2.0,0.0,0.0,0.0,0.0,3.0,1.0,2.0,1.0,5.0,5.0,5.0,6.0,9.0,67.0,0.415221283053529,0.0,102.0,122.0,0.0,0.0,16.0,73.0,218.0,-0.05417827298050134,51.0,8.0,0.0,1.0,0.0,0.0,1.0,0.0,0.0,0.0,11.0,0.0,0.0,0.0,0.0,0.0,3.0,2.0,0.0,4.0,4.0,3.0,5.0,7.0,20.0,0.0,4.0,9.0,2.0,2.0,1.0,13.0,15.0,0.0,14.0,5.0,0.0,12.0,0.0,4.0,0.0,14.0,9.0,1.0,2.0,54.0,0.0,134.0,236.0,8.0,63.0,130.0,76.0,0.0,144.0,0.32542240043462795,126.0,71.0,0.0,173.0,171.0,100.0,0.0,3.0,9.0,5.0,0.0,0.11768802228412256,0.34958217270194986,0.08704735376044569,0.08495821727019498,0.24651810584958217,2.847456552281014,0.4704400717669757,-0.12716199556885988,0.5696378830083565,0.20264623955431754,5.313739776611328,-47.0,0.3168523676880223,11.44739698575816,0.06309007284912996,0.08192585300422424,4.323198906141126,15.290439746416045,0.4496784854839928,0.17558021063560542,0.06591523757905235,0.23515717844700115,-0.027337999543267023,-0.3404674838284508,0.1885151142160421,0.2045474380599022,-0.11938932244033723,-0.2694782730178948,0.13370805391655866,0.2947581691308126
SNTA1_HUMAN,0.11287128712871287,0.011881188118811881,0.047524752475247525,0.06534653465346535,0.02574257425742574,0.0891089108910891,0.01782178217821782,0.031683168316831684,0.04554455445544554,0.12079207920792079,0.011881188118811881,0.015841584158415842,0.07128712871287128,0.04356435643564356,0.061386138613861385,0.08316831683168317,0.06336633663366337,0.055445544554455446,0.013861386138613862,0.011881188118811881,0.0,0.0,0.0,0.0,1.0,1.0,1.0,5.0,0.0,4.0,2.0,2.0,0.0,7.0,24.0,0.3074846997479607,0.0,33.0,58.0,0.0,0.0,2.0,45.0,116.0,-0.2403960396039604,23.0,6.0,0.0,0.0,0.0,0.0,0.0,0.0,0.0,0.0,2.0,0.0,0.0,0.0,0.0,0.0,0.0,0.0,0.0,0.0,0.0,0.0,1.0,1.0,4.0,0.0,1.0,3.0,2.0,0.0,3.0,6.0,6.0,0.0,10.0,2.0,0.0,1.0,1.0,1.0,0.0,1.0,7.0,2.0,4.0,8.0,10.0,67.0,110.0,4.0,36.0,30.0,22.0,0.0,76.0,0.28768207245178085,37.0,31.0,0.0,87.0,73.0,42.0,0.0,1.0,4.0,0.0,0.0,0.11287128712871287,0.3326732673267327,0.05148514851485148,0.10693069306930693,0.29108910891089107,2.689767594953445,0.10217568322710009,-0.5766842819727577,0.700990099009901,0.2198019801980198,6.374111175537109,-3.0,0.32475247524752476,-0.6072335353551056,0.05596046846802114,0.08332412706347578,4.571486123825042,14.581946238527333,0.39439961783722227,0.17938336315691567,0.09524674346957322,0.2546776203782677,-0.006021869677788958,-0.37197224346297536,0.1873330010349788,0.21299896522291348,-0.08634497683974246,-0.2173591068406286,0.1481417169079188,0.25385830879594146
TCOF_HUMAN,0.1478494623655914,0.002688172043010753,0.038306451612903226,0.09408602150537634,0.0020161290322580645,0.07661290322580645,0.004704301075268817,0.010080645161290322,0.11290322580645161,0.041666666666666664,0.009408602150537635,0.013440860215053764,0.09206989247311828,0.05510752688172043,0.033602150537634407,0.1364247311827957,0.06653225806451613,0.05712365591397849,0.002688172043010753,0.002688172043010753,13.0,0.0,0.0,1.0,0.0,0.0,0.0,2.0,0.0,2.0,0.0,1.0,1.0,31.0,57.0,0.8883168798317489,0.0,140.0,117.0,0.0,0.0,4.0,114.0,525.0,-0.9094758064516129,168.0,5.0,0.0,0.0,0.0,0.0,0.0,0.0,0.0,0.0,0.0,0.0,0.0,0.0,0.0,0.0,0.0,0.0,0.0,1.0,0.0,0.0,0.0,0.0,2.0,6.0,0.0,2.0,9.0,12.0,8.0,38.0,32.0,0.0,43.0,6.0,0.0,17.0,4.0,7.0,1.0,6.0,29.0,4.0,5.0,20.0,30.0,187.0,439.0,0.0,137.0,102.0,82.0,0.0,164.0,-1.1980730821987478,54.0,50.0,0.0,317.0,253.0,203.0,0.0,1.0,3.0,0.0,8.0,0.13239247311827956,0.2661290322580645,0.00739247311827957,0.14650537634408603,0.3709677419354839,2.514630129757554,6.356540922832117,-0.8052060128117431,0.8581989247311828,0.27889784946236557,9.063251495361328,21.0,0.35551075268817206,-4.166983141071614,0.04806182040129071,0.06600866833245836,4.9814621019644045,13.69839833385091,0.3684608608108447,0.15107904353006293,0.11468822635694274,0.28931114069980596,0.07478191579212093,-0.3887054889804101,0.20610167785153402,0.2108930263095455,-0.03855094598934128,-0.13285644465783963,0.1631894287005073,0.20821837195152768
SHRM2_HUMAN,0.08787128712871287,0.012995049504950494,0.05631188118811881,0.08044554455445545,0.02103960396039604,0.07363861386138613,0.03217821782178218,0.021658415841584157,0.053217821782178217,0.08663366336633663,0.008044554455445545,0.013613861386138614,0.10086633663366337,0.053217821782178217,0.07735148514851485,0.10952970297029703,0.04764851485148515,0.037747524752475246,0.011757425742574257,0.014232673267326733,3.0,1.0,0.0,0.0,0.0,3.0,0.0,3.0,0.0,4.0,1.0,2.0,1.0,22.0,91.0,0.3534087461521113,0.0,130.0,153.0,0.0,0.0,18.0,119.0,391.0,-0.8620049504950495,86.0,20.0,0.0,0.0,0.0,0.0,0.0,0.0,0.0,1.0,2.0,0.0,0.0,0.0,0.0,0.0,0.0,0.0,0.0,0.0,0.0,1.0,0.0,2.0,5.0,3.0,0.0,5.0,4.0,0.0,1.0,25.0,18.0,2.0,29.0,4.0,0.0,7.0,3.0,21.0,1.0,13.0,22.0,4.0,6.0,22.0,40.0,288.0,417.0,0.0,163.0,108.0,86.0,0.0,244.0,0.37037378829689427,148.0,125.0,9.0,296.0,302.0,177.0,0.0,7.0,7.0,1.0,0.0,0.13675742574257427,0.24195544554455445,0.04702970297029703,0.13056930693069307,0.3681930693069307,2.742267473112058,-2.3119466930232475,-0.28588874748034393,0.7722772277227723,0.26732673267326734,6.646907806396484,-10.0,0.34282178217821785,-1.5391598681150533,0.07108194041985796,0.09130453115938708,4.925295346361581,14.385382852042454,0.3603749643681211,0.15186279662503308,0.138413049850786,0.28019895075066226,-0.007428678457597042,-0.37487689082596765,0.20148513153195982,0.2349304020406556,-0.10227725882226828,-0.22607115623193427,0.16091331188157987,0.2125909447475613
NOG2_HUMAN,0.0533515731874145,0.005471956224350205,0.05471956224350205,0.09575923392612859,0.03146374829001368,0.05198358413132695,0.016415868673050615,0.049247606019151846,0.1094391244870041,0.06429548563611491,0.017783857729138167,0.04514363885088919,0.05198358413132695,0.0560875512995896,0.06703146374829001,0.06976744186046512,0.0506155950752394,0.07523939808481532,0.01094391244870041,0.023255813953488372,0.0,0.0,0.0,0.0,0.0,0.0,1.0,2.0,0.0,6.0,2.0,1.0,2.0,2.0,40.0,0.5491078103370076,0.0,70.0,61.0,0.0,0.0,14.0,38.0,157.0,-0.8837209302325582,80.0,1.0,0.0,0.0,0.0,1.0,0.0,0.0,0.0,0.0,2.0,0.0,0.0,0.0,0.0,0.0,0.0,0.0,0.0,1.0,0.0,0.0,0.0,0.0,3.0,0.0,1.0,1.0,0.0,0.0,0.0,4.0,8.0,0.0,7.0,2.0,0.0,2.0,3.0,5.0,0.0,1.0,2.0,4.0,1.0,33.0,0.0,87.0,126.0,2.0,38.0,74.0,41.0,0.0,87.0,-0.4824261492442928,66.0,49.0,3.0,89.0,100.0,51.0,0.0,6.0,3.0,2.0,4.0,0.15047879616963064,0.25991792065663477,0.06566347469220246,0.17647058823529413,0.3789329685362517,2.7757226522175107,4.6144752056684535,0.7460840215372158,0.6771545827633378,0.32694938440492477,9.273242950439453,19.0,0.2954856361149111,-3.4575650051110616,0.06541095641557766,0.07500565317101382,4.70154084147419,14.790813002104876,0.4016423476230046,0.19611747647556357,0.07609779161558482,0.25923434717732696,0.03777674380776892,-0.4176086693238452,0.19047592553089845,0.2201489888141778,-0.12766123638672394,-0.2488055622660733,0.1514463591652675,0.2543511295421573
SNTB1_HUMAN,0.10037174721189591,0.011152416356877323,0.04460966542750929,0.06319702602230483,0.026022304832713755,0.09293680297397769,0.02973977695167286,0.05762081784386617,0.06133828996282528,0.09107806691449814,0.01486988847583643,0.022304832713754646,0.05762081784386617,0.03717472118959108,0.05762081784386617,0.08550185873605948,0.055762081784386616,0.05762081784386617,0.013011152416356878,0.020446096654275093,1.0,1.0,0.0,0.0,0.0,0.0,0.0,7.0,1.0,6.0,2.0,3.0,0.0,8.0,24.0,0.3364722366212129,0.0,34.0,64.0,0.0,0.0,6.0,50.0,118.0,-0.2972118959107807,33.0,1.0,0.0,0.0,0.0,0.0,0.0,0.0,0.0,0.0,3.0,0.0,0.0,0.0,0.0,0.0,0.0,0.0,0.0,1.0,1.0,0.0,1.0,0.0,4.0,0.0,0.0,3.0,1.0,0.0,3.0,7.0,3.0,0.0,8.0,2.0,0.0,2.0,0.0,2.0,0.0,2.0,8.0,1.0,4.0,12.0,10.0,62.0,107.0,4.0,31.0,32.0,20.0,0.0,81.0,-0.060624621816434854,42.0,31.0,6.0,96.0,77.0,46.0,0.0,1.0,2.0,0.0,0.0,0.10780669144981413,0.3215613382899628,0.05947955390334572,0.11895910780669144,0.2843866171003718,2.7542199624370585,-1.1761497199928235,-0.2664131800278667,0.6858736059479554,0.22676579925650558,8.81320571899414,6.0,0.3345724907063197,-0.20306382710276016,0.059244243456646604,0.087745129771815,4.539627030291837,14.62950345396105,0.3657811206124733,0.2049236339348237,0.09240287618336271,0.2577713988762306,0.015156585153439706,-0.3890212617786693,0.18396391786509297,0.21821195010671873,-0.09639197241110514,-0.24170660467283767,0.158748369940097,0.2260459029946312
CDK13_HUMAN,0.07936507936507936,0.008597883597883597,0.04828042328042328,0.061507936507936505,0.01917989417989418,0.07605820105820106,0.023148148148148147,0.032407407407407406,0.07407407407407407,0.08664021164021164,0.011904761904761904,0.027116402116402115,0.08664021164021164,0.046957671957671955,0.07738095238095238,0.12632275132275134,0.046957671957671955,0.036375661375661374,0.005952380952380952,0.02513227513227513,1.0,0.0,1.0,0.0,0.0,5.0,0.0,4.0,1.0,7.0,1.0,3.0,2.0,25.0,73.0,0.23922968906583406,0.0,93.0,144.0,0.0,0.0,26.0,115.0,363.0,-0.8271825396825397,112.0,11.0,0.0,0.0,0.0,0.0,0.0,0.0,0.0,0.0,5.0,0.0,0.0,0.0,0.0,0.0,1.0,1.0,0.0,2.0,3.0,2.0,2.0,2.0,8.0,0.0,1.0,3.0,0.0,1.0,4.0,36.0,12.0,4.0,36.0,6.0,0.0,10.0,4.0,14.0,4.0,5.0,25.0,4.0,6.0,41.0,15.0,248.0,393.0,18.0,131.0,112.0,71.0,6.0,232.0,0.04329680575332426,155.0,117.0,12.0,306.0,308.0,191.0,0.0,17.0,7.0,1.0,6.0,0.10978835978835978,0.2466931216931217,0.05026455026455026,0.15145502645502645,0.3478835978835979,2.7513524235428397,0.6203583161085224,-0.8068961461639435,0.7466931216931217,0.2612433862433862,9.70620346069336,63.0,0.3551587301587302,1.0866529995730623,0.0687627581965836,0.08787697260166415,4.880103114361374,14.344086241117584,0.3546954959610022,0.17151003151408875,0.13398525448221885,0.27969826766868894,0.025720090687302632,-0.3883941524402676,0.1976117824574539,0.23600272947566897,-0.10390739282669234,-0.2354486565004264,0.16383279847761612,0.21777753074484116
RBM39_HUMAN,0.09056603773584905,0.009433962264150943,0.04905660377358491,0.06792452830188679,0.03962264150943396,0.06415094339622641,0.016981132075471698,0.0509433962264151,0.06792452830188679,0.06981132075471698,0.02830188679245283,0.03207547169811321,0.04339622641509434,0.03962264150943396,0.10943396226415095,0.10566037735849057,0.04150943396226415,0.0509433962264151,0.0037735849056603774,0.018867924528301886,4.0,0.0,0.0,0.0,0.0,0.0,0.0,3.0,0.0,3.0,0.0,1.0,0.0,4.0,26.0,0.31508104663989545,0.0,36.0,55.0,0.0,0.0,10.0,34.0,107.0,-0.648867924528302,36.0,0.0,0.0,0.0,0.0,0.0,0.0,0.0,0.0,0.0,4.0,0.0,0.0,0.0,0.0,0.0,0.0,0.0,0.0,3.0,1.0,0.0,0.0,0.0,5.0,0.0,0.0,1.0,0.0,2.0,2.0,4.0,4.0,1.0,8.0,2.0,0.0,4.0,7.0,4.0,5.0,3.0,4.0,0.0,5.0,17.0,5.0,81.0,101.0,4.0,23.0,38.0,21.0,0.0,92.0,0.46661953126149497,68.0,58.0,3.0,90.0,114.0,56.0,0.0,5.0,0.0,0.0,4.0,0.1169811320754717,0.29056603773584905,0.062264150943396226,0.17735849056603772,0.33773584905660375,2.7355478658686323,1.9310778082476066,-1.3890078889914408,0.6962264150943396,0.2943396226415094,10.10049819946289,32.0,0.30943396226415093,-2.5352273236768075,0.0699364621070141,0.08701837062755824,4.644075238975802,14.810059197211396,0.43013623974930715,0.17741148775384916,0.07773128257168344,0.2533827175040566,-0.03726654240369792,-0.4036720125920247,0.1967217757780437,0.22602575543557546,-0.11157370025882679,-0.24267786647063003,0.14237508587775896,0.27894086287286957
BMS1_HUMAN,0.06318252730109204,0.01170046801872075,0.0748829953198128,0.0998439937597504,0.039781591263650544,0.06396255850234009,0.0265210608424337,0.046801872074883,0.1029641185647426,0.08580343213728549,0.0265210608424337,0.033541341653666144,0.0436817472698908,0.042901716068642744,0.056162246489859596,0.06396255850234009,0.0390015600624025,0.0499219968798752,0.0078003120124804995,0.02106084243369735,6.0,0.0,0.0,1.0,0.0,3.0,0.0,3.0,0.0,8.0,1.0,1.0,2.0,4.0,96.0,0.28510142585828924,0.0,128.0,133.0,0.0,0.0,10.0,82.0,269.0,-0.7755070202808113,132.0,8.0,1.0,0.0,0.0,0.0,0.0,0.0,0.0,0.0,6.0,0.0,0.0,0.0,0.0,0.0,1.0,0.0,0.0,7.0,1.0,1.0,1.0,1.0,9.0,0.0,1.0,4.0,0.0,0.0,0.0,7.0,16.0,0.0,14.0,5.0,0.0,6.0,4.0,5.0,0.0,10.0,4.0,5.0,8.0,43.0,10.0,128.0,188.0,4.0,56.0,98.0,55.0,0.0,154.0,-0.5998896870733625,99.0,72.0,3.0,164.0,154.0,82.0,0.0,5.0,2.0,3.0,9.0,0.1747269890795632,0.27223088923556943,0.0686427457098284,0.15912636505460218,0.37753510140405616,2.8120924897418536,5.9143700668729835,-0.9012055887867326,0.6770670826833073,0.3338533541341654,6.038028717041016,-20.0,0.28159126365054604,-37.15117184785871,0.0660094233897121,0.07814270061204463,4.639333715557173,14.861993031977562,0.4344377160803248,0.17169137106643162,0.07458138695971225,0.25306887925053806,0.013559251388898626,-0.4120080000854488,0.1899963230051127,0.21115116253173452,-0.11245356356533887,-0.24789191480423406,0.14254135250126068,0.2769304877309918
RRS1_HUMAN,0.07671232876712329,0.0027397260273972603,0.03287671232876712,0.08493150684931507,0.019178082191780823,0.10136986301369863,0.010958904109589041,0.01643835616438356,0.1095890410958904,0.10136986301369863,0.019178082191780823,0.03561643835616438,0.07397260273972603,0.07397260273972603,0.11232876712328767,0.03287671232876712,0.038356164383561646,0.038356164383561646,0.01643835616438356,0.0027397260273972603,0.0,0.0,0.0,0.0,0.0,1.0,0.0,0.0,0.0,2.0,0.0,0.0,0.0,1.0,12.0,0.9007865453381899,0.0,31.0,44.0,0.0,4.0,4.0,37.0,95.0,-1.138904109589041,40.0,1.0,0.0,0.0,0.0,0.0,0.0,0.0,0.0,0.0,0.0,0.0,1.0,0.0,0.0,0.0,0.0,0.0,0.0,0.0,0.0,0.0,0.0,0.0,0.0,0.0,0.0,0.0,0.0,0.0,0.0,1.0,2.0,0.0,1.0,0.0,0.0,3.0,2.0,3.0,2.0,1.0,1.0,3.0,0.0,13.0,15.0,68.0,53.0,0.0,27.0,40.0,27.0,0.0,78.0,0.024097551579060524,42.0,41.0,0.0,49.0,53.0,12.0,0.0,2.0,2.0,0.0,4.0,0.1178082191780822,0.25205479452054796,0.038356164383561646,0.2219178082191781,0.4136986301369863,2.597048260387188,2.2811047832574673,-0.4931532224953169,0.7479452054794521,0.33972602739726027,10.693302154541016,38.0,0.2958904109589041,11.46259359052558,0.06519575026551754,0.08272355311475002,4.834090949379084,14.602961810398128,0.45666120349655837,0.12402462429026888,0.1030233478291074,0.2511445361484989,-0.12121984474060496,-0.3851583885255259,0.1613873311380702,0.2300997617231434,-0.11558869413406803,-0.2221982056538077,0.13525536968387172,0.30809998729361354
PGM5_HUMAN,0.07407407407407407,0.01763668430335097,0.06172839506172839,0.047619047619047616,0.047619047619047616,0.10052910052910052,0.01763668430335097,0.07583774250440917,0.03880070546737213,0.08112874779541446,0.02292768959435626,0.026455026455026454,0.0564373897707231,0.03350970017636684,0.06878306878306878,0.07231040564373897,0.04585537918871252,0.06701940035273368,0.007054673721340388,0.037037037037037035,0.0,0.0,0.0,0.0,0.0,1.0,0.0,3.0,0.0,5.0,2.0,1.0,1.0,5.0,35.0,-0.25131442828090605,0.0,27.0,84.0,4.0,0.0,16.0,57.0,96.0,-0.09947089947089953,22.0,6.0,0.0,0.0,0.0,0.0,0.0,0.0,0.0,0.0,5.0,0.0,0.0,0.0,0.0,1.0,0.0,0.0,0.0,1.0,1.0,1.0,3.0,2.0,8.0,0.0,2.0,1.0,0.0,0.0,0.0,5.0,4.0,0.0,6.0,2.0,0.0,2.0,2.0,3.0,0.0,6.0,5.0,0.0,2.0,15.0,15.0,71.0,99.0,6.0,32.0,34.0,19.0,0.0,96.0,0.5533852381847866,60.0,39.0,9.0,98.0,80.0,41.0,0.0,1.0,2.0,0.0,0.0,0.10934744268077601,0.32098765432098764,0.09171075837742504,0.10758377425044091,0.27336860670194,2.784276897056173,0.3029152759249177,0.27939607076988826,0.6172839506172839,0.21693121693121692,6.870357513427734,-1.0,0.31393298059964725,-0.6827981894001618,0.06959169440004202,0.0979956142916859,4.473524931233334,14.91536966124619,0.342970179742214,0.2255420437740306,0.09485608126672256,0.2665809447526978,0.03468980261180803,-0.41096509051116853,0.17964295332183206,0.22924541572512144,-0.14285674158680736,-0.300403128706714,0.1701166846579573,0.20675038009567553
LIN41_HUMAN,0.0944700460829493,0.029953917050691243,0.05069124423963134,0.04953917050691244,0.04608294930875576,0.10023041474654378,0.038018433179723504,0.03456221198156682,0.04032258064516129,0.09216589861751152,0.012672811059907835,0.03225806451612903,0.06451612903225806,0.056451612903225805,0.06105990783410138,0.07834101382488479,0.02880184331797235,0.07142857142857142,0.004608294930875576,0.013824884792626729,1.0,0.0,0.0,0.0,0.0,2.0,0.0,3.0,1.0,3.0,3.0,1.0,7.0,6.0,44.0,-0.02247285585205863,0.0,43.0,127.0,0.0,0.0,22.0,87.0,173.0,-0.25944700460829484,35.0,1.0,1.0,0.0,0.0,0.0,0.0,0.0,0.0,0.0,4.0,0.0,0.0,0.0,0.0,0.0,1.0,0.0,2.0,0.0,0.0,0.0,1.0,0.0,8.0,1.0,0.0,2.0,1.0,1.0,0.0,8.0,3.0,0.0,5.0,3.0,0.0,1.0,0.0,4.0,0.0,2.0,6.0,0.0,4.0,28.0,25.0,109.0,149.0,0.0,56.0,77.0,49.0,0.0,140.0,0.4054651081081644,65.0,53.0,9.0,155.0,121.0,68.0,0.0,4.0,4.0,1.0,0.0,0.10023041474654378,0.3052995391705069,0.06451612903225806,0.10138248847926268,0.2661290322580645,2.7829579199838785,-1.2974476576351948,-0.6154400873242563,0.6624423963133641,0.20161290322580644,7.614780426025391,1.0,0.3640552995391705,-0.5396541994995908,0.06970544699292489,0.09965770289520569,4.565235264052774,14.569163306130472,0.34479729219261457,0.21016145618571053,0.11202780227885763,0.2698327599216232,0.05145247758280283,-0.39649297348091356,0.17630390069192653,0.22976554969323182,-0.10263781372148448,-0.24198012335838376,0.1692906128763528,0.21921879094129235
UVSSA_HUMAN,0.0846262341325811,0.019746121297602257,0.06346967559943582,0.11142454160789844,0.031029619181946404,0.05782792665726375,0.02679830747531735,0.023977433004231313,0.06064880112834979,0.09167842031029619,0.01692524682651622,0.021156558533145273,0.06488011283497884,0.0535966149506347,0.09590973201692525,0.06205923836389281,0.0380818053596615,0.04936530324400564,0.00846262341325811,0.018335684062059238,0.0,0.0,0.0,0.0,0.0,3.0,0.0,2.0,1.0,1.0,2.0,1.0,1.0,2.0,45.0,0.5533852381847866,0.0,79.0,63.0,0.0,0.0,4.0,41.0,149.0,-0.8779971791255289,43.0,5.0,0.0,0.0,0.0,0.0,0.0,0.0,0.0,0.0,3.0,0.0,0.0,0.0,0.0,0.0,0.0,0.0,0.0,3.0,0.0,0.0,1.0,1.0,1.0,1.0,2.0,2.0,0.0,1.0,1.0,5.0,7.0,1.0,9.0,0.0,0.0,4.0,1.0,7.0,2.0,1.0,2.0,1.0,1.0,15.0,10.0,114.0,117.0,2.0,46.0,53.0,38.0,0.0,109.0,0.44991687067899816,81.0,68.0,0.0,85.0,112.0,44.0,0.0,6.0,4.0,0.0,1.0,0.17489421720733428,0.26657263751763044,0.05782792665726375,0.15655853314527504,0.39633286318758815,2.7554414744923337,1.6951368712994308,-0.10401723986917825,0.7193229901269393,0.3314527503526093,5.936985015869141,-13.0,0.27926657263751764,-5.3525318088442315,0.07394124377864987,0.0824090677721768,4.719088908701492,14.914038536712704,0.4703483492981935,0.13001047715579783,0.09539896801580879,0.2376327035060727,-0.11276162444769375,-0.36936060076587773,0.1889637053183988,0.21720182530812807,-0.11136478341489568,-0.22299047369280564,0.12924746637730553,0.3169431166564093
AMOT_HUMAN,0.1282287822878229,0.007380073800738007,0.026752767527675275,0.08025830258302583,0.01107011070110701,0.046125461254612546,0.03413284132841329,0.02859778597785978,0.046125461254612546,0.07933579335793357,0.023985239852398525,0.033210332103321034,0.09225092250922509,0.09225092250922509,0.05996309963099631,0.08487084870848709,0.05350553505535055,0.048892988929889296,0.0018450184501845018,0.021217712177121772,1.0,0.0,0.0,0.0,0.0,1.0,0.0,2.0,0.0,6.0,0.0,1.0,0.0,16.0,29.0,1.076139432816051,0.0,87.0,62.0,0.0,0.0,6.0,50.0,289.0,-0.71190036900369,50.0,7.0,0.0,0.0,0.0,0.0,0.0,0.0,0.0,0.0,3.0,0.0,0.0,0.0,0.0,0.0,0.0,0.0,0.0,3.0,1.0,2.0,4.0,3.0,5.0,1.0,0.0,2.0,1.0,1.0,0.0,18.0,11.0,0.0,22.0,4.0,0.0,7.0,0.0,10.0,1.0,5.0,15.0,1.0,4.0,36.0,10.0,165.0,250.0,0.0,100.0,136.0,100.0,0.0,115.0,0.25782910930209985,88.0,65.0,0.0,142.0,157.0,92.0,0.0,2.0,2.0,0.0,0.0,0.1070110701107011,0.30904059040590404,0.03413284132841329,0.10608856088560886,0.3053505535055351,2.7217381583212656,-1.0563203725646568,0.8265735467246754,0.7444649446494465,0.21309963099630996,7.326869964599609,-1.0,0.3514760147601476,-0.690368613609538,0.06856187836015289,0.0789811859562301,4.76592660202456,14.63126298561631,0.45553178825559937,0.12553114049313574,0.10855993778725584,0.24144078637313726,-0.09644152007767125,-0.2955657332197708,0.18372466072681448,0.2108505249028479,-0.07751960556276809,-0.18154358252910405,0.13477295817503054,0.3139977527005565
TAF1B_HUMAN,0.04081632653061224,0.027210884353741496,0.05102040816326531,0.08333333333333333,0.04931972789115646,0.03741496598639456,0.025510204081632654,0.03231292517006803,0.1054421768707483,0.10034013605442177,0.02040816326530612,0.03741496598639456,0.03741496598639456,0.04251700680272109,0.03741496598639456,0.07653061224489796,0.05952380952380952,0.06292517006802721,0.023809523809523808,0.04931972789115646,0.0,0.0,0.0,0.0,0.0,3.0,0.0,2.0,0.0,1.0,1.0,3.0,0.0,1.0,30.0,0.47803580094299974,0.0,49.0,51.0,4.0,0.0,6.0,22.0,108.0,-0.5651360544217687,62.0,3.0,0.0,0.0,0.0,0.0,0.0,0.0,0.0,0.0,6.0,0.0,0.0,0.0,0.0,0.0,1.0,1.0,0.0,1.0,1.0,1.0,5.0,3.0,12.0,0.0,1.0,1.0,0.0,0.0,0.0,7.0,7.0,0.0,9.0,5.0,0.0,6.0,2.0,1.0,0.0,5.0,1.0,0.0,1.0,22.0,0.0,44.0,102.0,2.0,22.0,47.0,25.0,0.0,44.0,-1.0076405104623831,51.0,22.0,0.0,67.0,67.0,45.0,0.0,1.0,2.0,0.0,2.0,0.13435374149659865,0.2568027210884354,0.12244897959183673,0.14285714285714285,0.31462585034013607,2.8097475973630632,1.680087104989285,-0.8254409856017881,0.5969387755102041,0.27721088435374147,8.275623321533203,5.0,0.30612244897959184,-4.500196595863045,0.07235592701788542,0.0879613537620033,4.602351282705793,15.226354471514469,0.4199080754725532,0.19029374994428422,0.08439108706596078,0.24853438123023325,0.011829284619920864,-0.3809794989903962,0.19046163441314007,0.21097204461610697,-0.21518853324437479,-0.34878701553300295,0.14807727692607345,0.26832258367152356
PAN3_HUMAN,0.09244644870349493,0.014656144306651634,0.04509582863585118,0.03494926719278467,0.03720405862457723,0.08004509582863585,0.02367531003382187,0.040586245772266064,0.04509582863585118,0.0935738444193912,0.030439684329199548,0.05073280721533258,0.08455467869222097,0.036076662908680945,0.046223224351747465,0.09131905298759865,0.05749718151071026,0.05749718151071026,0.007891770011273957,0.030439684329199548,3.0,0.0,0.0,0.0,0.0,0.0,0.0,3.0,0.0,3.0,0.0,3.0,4.0,11.0,40.0,-0.2478361639045812,0.0,31.0,104.0,0.0,0.0,6.0,71.0,197.0,-0.2261555806087937,40.0,6.0,0.0,1.0,0.0,0.0,0.0,0.0,0.0,0.0,6.0,1.0,1.0,0.0,0.0,1.0,0.0,0.0,0.0,4.0,0.0,0.0,0.0,2.0,10.0,1.0,2.0,3.0,1.0,0.0,1.0,11.0,7.0,1.0,20.0,5.0,0.0,6.0,1.0,4.0,0.0,6.0,11.0,0.0,3.0,45.0,40.0,116.0,207.0,4.0,75.0,77.0,32.0,0.0,112.0,0.024097551579060524,68.0,41.0,3.0,152.0,122.0,81.0,0.0,3.0,6.0,0.0,2.0,0.08004509582863585,0.314543404735062,0.07553551296505073,0.09131905298759865,0.25591882750845546,2.806639045379593,0.6144748764930946,-0.6681733649639451,0.636978579481398,0.1713641488162345,8.803112030029297,10.0,0.35400225479143177,-0.5504771542024447,0.06517158302859198,0.09536488159586898,4.652943109327708,14.61070043022646,0.33281228782853567,0.19625794508947014,0.12568331687039752,0.28070737609918395,0.07499085904453127,-0.37216045450623225,0.18718938860285922,0.23165158223011934,-0.1261319768630671,-0.2778305744545129,0.17132720929635045,0.1956911498725215
NOM1_HUMAN,0.08372093023255814,0.011627906976744186,0.053488372093023255,0.1058139534883721,0.03488372093023256,0.07325581395348837,0.023255813953488372,0.03488372093023256,0.08255813953488372,0.10930232558139535,0.023255813953488372,0.026744186046511628,0.03488372093023256,0.03372093023255814,0.08139534883720931,0.07906976744186046,0.04186046511627907,0.047674418604651166,0.005813953488372093,0.012790697674418604,1.0,0.0,0.0,0.0,0.0,5.0,0.0,7.0,1.0,7.0,6.0,2.0,0.0,1.0,46.0,0.6716409753389817,0.0,91.0,93.0,0.0,0.0,10.0,63.0,173.0,-0.6372093023255813,71.0,5.0,0.0,0.0,0.0,1.0,0.0,0.0,0.0,1.0,7.0,0.0,0.0,0.0,0.0,0.0,2.0,1.0,0.0,1.0,0.0,0.0,1.0,2.0,2.0,1.0,5.0,1.0,0.0,1.0,1.0,4.0,13.0,0.0,16.0,3.0,0.0,3.0,0.0,6.0,0.0,6.0,1.0,0.0,2.0,23.0,20.0,100.0,134.0,0.0,30.0,52.0,29.0,3.0,133.0,-0.01398624197473984,81.0,70.0,3.0,131.0,138.0,68.0,0.0,8.0,3.0,2.0,6.0,0.15930232558139534,0.2988372093023256,0.053488372093023255,0.16395348837209303,0.3581395348837209,2.741441174954996,2.9937455488880778,-0.8129577058965959,0.6930232558139535,0.32325581395348835,8.29538345336914,4.0,0.2895348837209302,-7.170354670738699,0.060752428949079326,0.07661361506385364,4.5060892471575995,14.840895052678917,0.4979215334946188,0.1396560101819712,0.07264459279345357,0.2285917876543699,-0.10177228616561984,-0.37161219441855226,0.18536444531989457,0.20354860028892868,-0.09474990975187651,-0.2089620374408785,0.12246758722328477,0.3373665965498547
FA76B_HUMAN,0.0471976401179941,0.05014749262536873,0.029498525073746312,0.07374631268436578,0.02359882005899705,0.038348082595870206,0.05604719764011799,0.035398230088495575,0.12979351032448377,0.07964601769911504,0.011799410029498525,0.038348082595870206,0.035398230088495575,0.08849557522123894,0.04129793510324484,0.11209439528023599,0.058997050147492625,0.02359882005899705,0.0058997050147492625,0.02064896755162242,1.0,0.0,0.0,0.0,1.0,0.0,0.0,0.0,0.0,0.0,1.0,0.0,1.0,3.0,10.0,0.8602012652231116,0.0,25.0,21.0,0.0,0.0,2.0,13.0,72.0,-1.0519174041297936,44.0,3.0,1.0,0.0,0.0,0.0,0.0,0.0,0.0,0.0,1.0,0.0,0.0,0.0,0.0,0.0,0.0,0.0,0.0,3.0,0.0,0.0,1.0,0.0,2.0,0.0,0.0,0.0,2.0,1.0,1.0,6.0,4.0,0.0,8.0,4.0,0.0,3.0,1.0,3.0,0.0,2.0,3.0,2.0,3.0,13.0,0.0,26.0,70.0,0.0,12.0,43.0,30.0,0.0,27.0,-1.0986122886681098,21.0,14.0,0.0,51.0,52.0,38.0,0.0,0.0,1.0,0.0,1.0,0.10324483775811209,0.1976401179941003,0.05014749262536873,0.1710914454277286,0.30973451327433627,2.6829173392688253,-1.1362721613770692,0.12186533501863762,0.7109144542772862,0.2743362831858407,9.384593963623047,23.0,0.4424778761061947,6.956521564061612,0.07040203424233732,0.07822665701780944,4.699563251161125,14.558908287666336,0.43265971622036675,0.15180440794060426,0.11055581058667319,0.2559712641106866,-0.04214307720483729,-0.32911771982005184,0.21591904274744486,0.20650404956636073,-0.10860600671763473,-0.21713012607409904,0.13925551544249667,0.29382395431889263
NU188_HUMAN,0.06918238993710692,0.024585477415666093,0.046883933676386505,0.0577472841623785,0.030874785591766724,0.04974271012006861,0.029159519725557463,0.04516866781017725,0.04345340194396798,0.15208690680388792,0.02801600914808462,0.022870211549456832,0.04288164665523156,0.058319039451114926,0.050314465408805034,0.08061749571183534,0.06289308176100629,0.06403659233847914,0.012006861063464836,0.029159519725557463,7.0,0.0,0.0,0.0,0.0,6.0,0.0,6.0,2.0,8.0,1.0,7.0,2.0,15.0,82.0,0.20613220548767314,0.0,101.0,141.0,0.0,0.0,12.0,87.0,272.0,-0.009491137793024573,76.0,11.0,0.0,0.0,0.0,0.0,0.0,0.0,0.0,0.0,15.0,0.0,3.0,0.0,0.0,0.0,2.0,2.0,1.0,10.0,0.0,1.0,1.0,2.0,15.0,0.0,3.0,8.0,1.0,1.0,1.0,21.0,16.0,0.0,27.0,2.0,0.0,14.0,2.0,12.0,0.0,16.0,15.0,1.0,1.0,40.0,0.0,163.0,326.0,2.0,75.0,142.0,102.0,0.0,175.0,0.14483094787845605,139.0,88.0,12.0,228.0,229.0,141.0,0.0,5.0,15.0,3.0,0.0,0.10463121783876501,0.3584905660377358,0.07204116638078903,0.09376786735277301,0.24128073184676957,2.8206472212794766,1.4297654633553234,-0.3253302636643316,0.5911949685534591,0.198399085191538,6.274135589599609,-19.0,0.32818753573470555,0.2880968867037594,0.055455094960890905,0.07490355590110011,4.272311509335894,15.186736060385657,0.476778707039991,0.16066029445332847,0.06687982460447199,0.2250327166915451,-0.058989439953185785,-0.3248092051691035,0.18699996919964817,0.19776666480340885,-0.10935886368738924,-0.240244844588945,0.12461174801691581,0.3205922353784729
PPR26_HUMAN,0.10504549214226634,0.015715467328370553,0.06120760959470637,0.06617038875103391,0.026468155500413565,0.10339123242349049,0.01902398676592225,0.01488833746898263,0.06120760959470637,0.07196029776674938,0.009925558312655087,0.010752688172043012,0.08850289495450786,0.04714640198511166,0.07775020678246485,0.12324234904880066,0.043010752688172046,0.04466501240694789,0.005789909015715467,0.0041356492969396195,8.0,0.0,0.0,1.0,2.0,1.0,0.0,2.0,0.0,2.0,2.0,0.0,5.0,17.0,74.0,0.0769610411361284,5.0,80.0,157.0,4.0,0.0,40.0,125.0,308.0,-0.7708023159636064,74.0,3.0,0.0,0.0,0.0,1.0,0.0,0.0,0.0,0.0,1.0,0.0,0.0,0.0,0.0,0.0,0.0,0.0,1.0,0.0,0.0,0.0,0.0,0.0,2.0,4.0,0.0,4.0,2.0,3.0,3.0,20.0,12.0,1.0,24.0,2.0,0.0,11.0,2.0,12.0,0.0,7.0,17.0,0.0,3.0,13.0,25.0,201.0,308.0,0.0,107.0,70.0,57.0,6.0,219.0,0.23638877806423034,99.0,94.0,6.0,274.0,243.0,149.0,0.0,5.0,3.0,1.0,4.0,0.1273779983457403,0.24648469809760132,0.036393713813068655,0.13895781637717122,0.3548387096774194,2.675867529488029,2.050493457420592,-0.46717383800753903,0.7956989247311828,0.2663358147229115,8.846050262451172,14.0,0.36228287841191065,-1.8469305713317348,0.06371855835649282,0.09075240635987077,4.916333304978856,14.035376236396033,0.3454169566936768,0.15701818412428317,0.13719301802492395,0.2940138000947139,0.030876442797709968,-0.3989528733976366,0.1963499388002012,0.23686278727823992,-0.08327923689048526,-0.20084486640722798,0.1684446959049159,0.19766345916496852
UT14C_HUMAN,0.07702349869451697,0.0026109660574412533,0.033942558746736295,0.13446475195822455,0.0195822454308094,0.033942558746736295,0.022193211488250653,0.037859007832898174,0.10704960835509138,0.09660574412532637,0.016971279373368148,0.0391644908616188,0.06005221932114883,0.07049608355091384,0.057441253263707574,0.07441253263707572,0.0391644908616188,0.0587467362924282,0.009138381201044387,0.009138381201044387,2.0,0.0,0.0,0.0,0.0,0.0,0.0,4.0,0.0,4.0,1.0,3.0,0.0,6.0,26.0,1.3485540331370436,0.0,103.0,41.0,0.0,0.0,0.0,26.0,187.0,-0.9204960835509141,82.0,4.0,0.0,0.0,0.0,0.0,0.0,0.0,0.0,0.0,3.0,0.0,0.0,0.0,0.0,0.0,0.0,0.0,0.0,1.0,0.0,0.0,0.0,2.0,0.0,1.0,0.0,2.0,1.0,0.0,3.0,10.0,14.0,0.0,9.0,0.0,0.0,8.0,2.0,3.0,0.0,4.0,6.0,1.0,4.0,30.0,5.0,90.0,133.0,2.0,46.0,84.0,54.0,0.0,70.0,-0.6121781180262782,51.0,44.0,0.0,83.0,101.0,57.0,0.0,1.0,7.0,1.0,2.0,0.16840731070496084,0.28720626631853785,0.037859007832898174,0.16449086161879894,0.39295039164490864,2.689664899007196,1.1788086516708436,1.21835357826993,0.7101827676240209,0.3328981723237598,6.723491668701172,-3.0,0.2819843342036554,-5.073473518405404,0.05960991660837438,0.06366767370714257,4.660536191362232,14.884037856359143,0.5124635559316097,0.12467824870078843,0.06964127407500502,0.22365339374118295,-0.10528092745339387,-0.3394034751094763,0.17694153783939334,0.19452310299995224,-0.08363673853067063,-0.18269881821340928,0.11878639875335281,0.3540787726714595
SHOC1_HUMAN,0.035318559556786706,0.025623268698060944,0.05263157894736842,0.09002770083102493,0.04778393351800554,0.030470914127423823,0.023545706371191136,0.06509695290858726,0.07063711911357341,0.12188365650969529,0.015235457063711912,0.05055401662049862,0.045013850415512466,0.05124653739612189,0.030470914127423823,0.10110803324099724,0.05678670360110803,0.04778393351800554,0.011772853185595568,0.027008310249307478,2.0,1.0,0.0,0.0,0.0,3.0,1.0,6.0,0.0,2.0,3.0,7.0,2.0,15.0,76.0,0.5313919013474677,0.0,130.0,113.0,0.0,4.0,14.0,44.0,218.0,-0.34695290858725764,102.0,7.0,0.0,0.0,0.0,1.0,0.0,0.0,0.0,0.0,12.0,0.0,0.0,0.0,0.0,0.0,0.0,0.0,0.0,3.0,0.0,3.0,0.0,2.0,16.0,1.0,3.0,5.0,0.0,0.0,2.0,18.0,25.0,0.0,24.0,8.0,0.0,13.0,3.0,6.0,0.0,22.0,15.0,3.0,13.0,73.0,0.0,109.0,293.0,6.0,65.0,147.0,74.0,0.0,88.0,-0.8280664984593161,83.0,44.0,3.0,190.0,190.0,146.0,0.0,3.0,11.0,2.0,1.0,0.14265927977839335,0.2853185595567867,0.0865650969529086,0.10110803324099724,0.28878116343490307,2.8096812702739924,-0.8008010494403602,0.2391697176114753,0.5872576177285319,0.24376731301939059,5.100864410400391,-60.0,0.33933518005540164,20.53493251726184,0.06340322903397581,0.07432341280172187,4.49190967209336,15.092747138281814,0.41910502813741746,0.18273816197264614,0.0766242395243158,0.2539823788287046,0.01311016938359847,-0.3462652410137086,0.21104673883190378,0.20177767436729294,-0.1273723082566899,-0.2670214549389396,0.14023556096312867,0.26613991508399293
OBI1_HUMAN,0.0371900826446281,0.03168044077134986,0.05785123966942149,0.09504132231404959,0.027548209366391185,0.03581267217630854,0.01928374655647383,0.03305785123966942,0.09090909090909091,0.10055096418732783,0.01652892561983471,0.06198347107438017,0.04132231404958678,0.04269972451790634,0.03856749311294766,0.15426997245179064,0.049586776859504134,0.0440771349862259,0.008264462809917356,0.013774104683195593,3.0,0.0,0.0,0.0,0.0,3.0,0.0,1.0,0.0,2.0,1.0,1.0,1.0,9.0,42.0,0.4872951263557966,0.0,69.0,46.0,0.0,4.0,4.0,26.0,123.0,-0.784573002754821,66.0,2.0,0.0,1.0,0.0,0.0,0.0,0.0,0.0,0.0,2.0,0.0,1.0,0.0,0.0,0.0,1.0,0.0,0.0,1.0,0.0,1.0,0.0,2.0,3.0,1.0,3.0,3.0,1.0,2.0,1.0,15.0,12.0,0.0,18.0,11.0,0.0,5.0,1.0,4.0,1.0,6.0,9.0,2.0,7.0,45.0,0.0,58.0,178.0,2.0,30.0,76.0,31.0,0.0,54.0,-0.8373967894044921,38.0,28.0,0.0,138.0,140.0,112.0,0.0,0.0,3.0,0.0,2.0,0.15289256198347106,0.23140495867768596,0.049586776859504134,0.12947658402203857,0.3236914600550964,2.715991269025092,0.20439137240980854,0.4211356765952093,0.662534435261708,0.28236914600550966,5.528430938720703,-17.0,0.3953168044077135,-0.1382232311342133,0.06172813370239474,0.07250097013508039,4.704007889052047,14.533084565755397,0.40040348076168797,0.17530726846617475,0.10219913814890351,0.2711815008116766,0.025812226476129716,-0.3626120800463063,0.23155781995098496,0.21638783863543995,-0.09192257642963146,-0.21281091556320528,0.14901359993585866,0.25013325618211624
USPL1_HUMAN,0.056776556776556776,0.028388278388278388,0.05036630036630037,0.07051282051282051,0.03205128205128205,0.048534798534798536,0.03021978021978022,0.045787545787545784,0.07417582417582418,0.10256410256410256,0.013736263736263736,0.06043956043956044,0.05952380952380952,0.046703296703296704,0.024725274725274724,0.10805860805860806,0.06501831501831502,0.05402930402930403,0.008241758241758242,0.020146520146520148,3.0,1.0,0.0,0.0,0.0,1.0,0.0,2.0,0.0,3.0,1.0,0.0,3.0,12.0,55.0,0.33135713595444244,0.0,77.0,88.0,0.0,4.0,6.0,53.0,208.0,-0.4638278388278389,81.0,10.0,0.0,1.0,0.0,0.0,1.0,0.0,0.0,0.0,7.0,0.0,0.0,0.0,0.0,0.0,0.0,0.0,0.0,1.0,1.0,1.0,0.0,4.0,7.0,1.0,0.0,4.0,2.0,3.0,2.0,21.0,9.0,0.0,22.0,5.0,0.0,12.0,4.0,6.0,0.0,9.0,12.0,4.0,5.0,66.0,0.0,92.0,254.0,2.0,65.0,117.0,51.0,0.0,80.0,-1.074514737089049,49.0,27.0,6.0,171.0,145.0,118.0,0.0,0.0,2.0,0.0,2.0,0.12087912087912088,0.27289377289377287,0.06043956043956044,0.0989010989010989,0.2793040293040293,2.8091843108138597,1.4588976786479884,0.043515882264857225,0.6346153846153846,0.21978021978021978,5.803043365478516,-24.0,0.3873626373626374,2.5331429533822876,0.061490015736016604,0.0790139347140122,4.649068234045649,14.643216700800297,0.36073469130505004,0.19329427396669072,0.10318370530069808,0.27787028020007354,0.08697447881387085,-0.36679472201933866,0.21526379655376005,0.22069290205769984,-0.09776972225219775,-0.22778874395991722,0.1623447681960139,0.21587547651182776
SLIP_HUMAN,0.07160804020100503,0.018844221105527637,0.04773869346733668,0.09673366834170855,0.026381909547738693,0.05025125628140704,0.016331658291457288,0.06155778894472362,0.0829145728643216,0.10678391959798995,0.022613065326633167,0.02512562814070352,0.032663316582914576,0.052763819095477386,0.07788944723618091,0.06658291457286432,0.05025125628140704,0.05402010050251256,0.011306532663316583,0.02763819095477387,2.0,0.0,0.0,0.0,1.0,3.0,0.0,0.0,0.0,0.0,0.0,3.0,0.0,1.0,38.0,0.6931471805599453,0.0,77.0,61.0,0.0,0.0,12.0,40.0,149.0,-0.5087939698492462,66.0,4.0,0.0,0.0,0.0,0.0,0.0,0.0,0.0,1.0,4.0,0.0,0.0,1.0,0.0,0.0,1.0,1.0,0.0,2.0,0.0,2.0,1.0,4.0,7.0,0.0,3.0,4.0,0.0,1.0,0.0,4.0,8.0,0.0,11.0,3.0,0.0,5.0,2.0,4.0,1.0,7.0,1.0,1.0,4.0,20.0,0.0,88.0,119.0,2.0,26.0,62.0,42.0,0.0,102.0,-0.06155789299943332,84.0,62.0,0.0,93.0,115.0,53.0,0.0,7.0,7.0,1.0,5.0,0.1444723618090452,0.3165829145728643,0.06532663316582915,0.16080402010050251,0.3379396984924623,2.785408695140651,0.11318957739714869,0.771632926868977,0.6457286432160804,0.30527638190954776,8.849254608154297,13.0,0.28015075376884424,-0.05047741905448299,0.05926048038485293,0.07164995122409368,4.435017926934245,15.176013600038576,0.5254341829899383,0.14756191368557767,0.053268738068843746,0.21009801348916982,-0.14254443148756507,-0.35719649369895584,0.17308902613455932,0.20054896001861278,-0.10717707241972926,-0.23406573773936404,0.11648439653991996,0.37041948528172214
UTP25_HUMAN,0.04894179894179894,0.007936507936507936,0.05555555555555555,0.09391534391534391,0.0582010582010582,0.047619047619047616,0.03042328042328042,0.04894179894179894,0.06481481481481481,0.09788359788359788,0.018518518518518517,0.04894179894179894,0.04365079365079365,0.051587301587301584,0.05555555555555555,0.0873015873015873,0.042328042328042326,0.056878306878306875,0.007936507936507936,0.03306878306878307,5.0,0.0,0.0,0.0,0.0,2.0,1.0,2.0,0.0,3.0,1.0,2.0,1.0,4.0,42.0,0.5154660033224929,0.0,71.0,80.0,0.0,0.0,10.0,36.0,119.0,-0.5764550264550262,49.0,5.0,0.0,0.0,0.0,0.0,0.0,0.0,0.0,0.0,7.0,0.0,0.0,0.0,0.0,0.0,1.0,0.0,0.0,2.0,0.0,3.0,1.0,2.0,8.0,0.0,1.0,1.0,0.0,0.0,1.0,8.0,9.0,0.0,11.0,5.0,0.0,6.0,3.0,6.0,1.0,8.0,4.0,2.0,2.0,37.0,5.0,75.0,131.0,0.0,33.0,76.0,39.0,0.0,78.0,-0.15082288973458366,67.0,42.0,0.0,102.0,108.0,66.0,0.0,3.0,2.0,1.0,0.0,0.14947089947089948,0.27116402116402116,0.0992063492063492,0.12037037037037036,0.3134920634920635,2.8060183708462216,2.8899202084647304,-1.2397255875766924,0.6216931216931217,0.2698412698412698,5.602931976318359,-22.0,0.31613756613756616,-7.7347946478254865,0.0752652829765114,0.0862281706238811,4.5578569201109325,15.192109789594978,0.42377970579441143,0.1788366936274259,0.08214301004835717,0.24900601026299515,0.02035348609596081,-0.37746596420672796,0.2032973636963861,0.21827019050035804,-0.16627545745924252,-0.29030473269100454,0.14208542491539022,0.2648183445660403
TENS3_HUMAN,0.07058823529411765,0.01453287197231834,0.05467128027681661,0.04913494809688582,0.035986159169550176,0.0837370242214533,0.03183391003460208,0.032525951557093424,0.04913494809688582,0.08858131487889273,0.01730103806228374,0.02837370242214533,0.09411764705882353,0.04775086505190312,0.044290657439446365,0.11764705882352941,0.04913494809688582,0.06228373702422145,0.006228373702422145,0.022145328719723183,6.0,0.0,0.0,1.0,0.0,2.0,0.0,1.0,0.0,1.0,3.0,3.0,3.0,29.0,79.0,-0.10536051565782628,0.0,71.0,173.0,0.0,0.0,24.0,121.0,309.0,-0.42795847750865057,71.0,7.0,1.0,0.0,0.0,0.0,1.0,0.0,0.0,0.0,5.0,0.0,0.0,0.0,0.0,0.0,0.0,0.0,0.0,2.0,3.0,0.0,1.0,2.0,8.0,3.0,3.0,4.0,3.0,4.0,2.0,24.0,10.0,0.0,28.0,7.0,0.0,8.0,5.0,8.0,1.0,8.0,29.0,0.0,3.0,41.0,20.0,200.0,377.0,6.0,136.0,110.0,69.0,3.0,185.0,-0.10227884912041818,96.0,64.0,18.0,291.0,234.0,170.0,0.0,1.0,7.0,4.0,1.0,0.10380622837370242,0.271280276816609,0.0643598615916955,0.09342560553633218,0.29134948096885815,2.794682776987139,0.8469504433503462,0.15760879574908418,0.6920415224913494,0.1972318339100346,6.345966339111328,-15.0,0.37301038062283737,-0.38495335530923436,0.06760495377946704,0.09407734582656269,4.775772031553272,14.361736818792258,0.29038726534798165,0.21155124609617043,0.1361853424851638,0.29863592298383546,0.12373408804744457,-0.398393348367416,0.19773852572769843,0.23689773322984062,-0.11639543145005912,-0.2547589527543349,0.18326349636619413,0.16265160338577586
