seqid,srpipi,lrpipi,Water,Carbon,ssH,ssE,disL,disS,srELEC,lrELEC,sr_hb,lr_hb,srCATPI,lrCATPI,larkSIM,larkFAR,sequence,label,entry
A0A024R2Q3_HUMAN,0.3468581932058002,0.446984126984127,7.334619745334031,22.035574958201742,0.9571779677628504,0.78756339048539,0.4534178706302186,0.6396511540485678,0.928189854866922,-0.0241876792670919,0.9752846379629456,0.7572922559215584,0.2440891880521666,0.0615061001262095,0.3005266025059016,0.8197436413663512,MATQADLMELDMAMEPDRKAAVSHWQQQSYLDSGIHSGATTTAPSLSGKGNPEEEDVDTSQVLYEWEQGFSQSFTQEQVADIDGQYAMTRAQRVRAAMFPETLDEGMQIPSTQFDAAHPTNVQRLAEPSQMLKHAVVNLINYQDDAELATRAIPELTKLLNDEDQVVVNKAAVMVHQLSKKEASRHAIMRSPQMVSAIVRTMQNTNDVETARCTAGTLHNLSHHREGLLAIFKSGGIPALVKMLGSPVDSVLFYAITTLHNLLLHQEGAKMAVRLAGGLQKMVALLNKTNVKFLAITTDCLQILAYGNQESKLIILASGGPQALVNIMRTYTYEKLLWTTSRVLKVLSVCSSNKPAIVEAGGMQALGLHLTDPSQRLVQNCLWTLRNLSDAATKQEGMEGLLGTLVQLLGSDDINVVTCAAGILSNLTCNNYKNKMMVCQVGGIEALVRTVLRAGDREDITEPAICALRHLTSRHQEAEMAQNAVRLHYGLPVVVKLLHPPSHWPLIKATVGLIRNLALCPANHAPLREQGAIPRLVQLLVRAHQDTQRRTSMGGTQQQFVEGVRMEEIVEGCTGALHILARDVHNRIVIRGLNTIPLFVQLLYSPIENIQRVAAGVLCELAQDKEAAEAIEAEGATAPLTELLHSRNEGVATYAAAVLFRMSEDKPQDYKKRLSVELTSSLFRTEPMAWNETADLGLDIGAQGEPLGYRQDDPSYRSFHSGGYGQDALGMDPMMEHEMGGHHPGADYPVDGLPDLGHAQDLMDGLPPGDSNQLAWFDTDL,cell_junction,A0A024R2Q3_HUMAN
NBDY_HUMAN,0.3833870967741935,0.4787096774193548,7.38800480939246,19.25409260991581,0.6056599534834549,0.442440067827644,0.4648065219887473,0.5677777777777778,0.9162016427362216,-0.0334951456310679,0.6070203467882148,0.8124738590232501,0.1931863727454909,0.0116515126467184,0.2922260380892912,0.4117720060278344,MGDQPCASGRSTLPPGNAREAKPPKKRCLLAPRWDYPEGTPNGGSTTLPSAPPPASAGLKSHPPPPEK,p-body,NBDY_HUMAN
RCCD1_HUMAN,0.2929331101873346,0.5428321253101134,7.563304981773998,22.430603236880824,0.9214886787542292,0.7591377564467132,0.2909542022339063,0.6504904491481672,0.7880397180096116,-0.0310516167309403,0.8681359931359931,0.7783541367927705,0.1961224362570912,0.0515214251939321,0.3465783664459161,0.8252789166178592,MAEERPGAWFGFGFCGFGQELGSGRGRQVHSPSPLRAGVDICRVSASWSYTAFVTRGGRLELSGSASGAAGRCKDAWASEGLLAVLRAGPGPEALLQVWAAESALRGEPLWAQNVVPEAEGEDDPAGEAQAGRLPLLPCARAYVSPRAPFYRPLAPELRARQLELGAEHALLLDAAGQVFSWGGGRHGQLGHGTLEAELEPRLLEALQGLVMAEVAAGGWHSVCVSETGDIYIWGWNESGQLALPTRNLAEDGETVAREATELNEDGSQVKRTGGAEDGAPAPFIAVQPFPALLDLPMGSDAVKASCGSRHTAVVTRTGELYTWGWGKYGQLGHEDTTSLDRPRRVEYFVDKQLQVKAVTCGPWNTYVYAVEKGKS,chromosomes,RCCD1_HUMAN
MEI4_HUMAN,0.2475700400228702,0.389787824408487,7.041936318923117,22.588254873989538,0.9129248747771096,0.5533944668946223,0.4976497346474602,0.5899459107027617,0.696996087770029,-0.0255586423481096,0.8672386157605697,0.7030800591996873,0.3254565549181622,0.0597621647858269,0.2774153854296223,0.8263931211344094,MDVQKWYLRTSKLALALAIIRSKPADKSSREYTEHLAMLLSEEQSKWRSKVEILEAEVMQLRQKLLVSRLCSGSFKSGYVSSQLEAQEPKSSESTLTSMEDSGCDLSNEQRTESSDLSQHFVESCTPTHFPPLPLVKRPCAILQNPLSSHMQFLQYLLELKNLTESGNLKRDLTHFEKDSSTVSDSVFQLLDGLITFYRNPKLPFSRFWTEAVGTLASLISDYNLSSHILKKCSKKLEEFEKTLLHAILGNNHINQFQVQHYVSQSLVTLGNCSLLRKSIISLLLSEVNGFADDLGAINQEQASYDVSRYENIFYLFWVLEQLLQKETEEGNTSSIGHDDQEIKKFLQKHDETIFQLSDAFPLFTFYLWRVGILLSSAQIETLRK,chromosomes,MEI4_HUMAN
SYNEM_HUMAN,0.292247354529982,0.4915992532669571,7.726137789814387,22.563817097415505,0.9400247533262284,0.8008488148622678,0.4734413563687091,0.6594096501442965,0.9120598485758924,-0.0244121629939677,0.9853420721273368,0.7830100125156445,0.3206158926135956,0.0917012215622548,0.3575438326668717,0.8598038786499146,MLSWRLQTGPEKAELQELNARLYDYVCRVRELERENLLLEEELRGRRGREGLWAEGQARCAEEARSLRQQLDELSWATALAEGERDALRRELRELQRLDAEERAARGRLDAELGAQQRELQEALGARAALEALLGRLQAERRGLDAAHERDVRELRARAASLTMHFRARATGPAAPPPRLREVHDSYALLVAESWRETVQLYEDEVRELEEALRRGQESRLQAEEETRLCAQEAEALRREALGLEQLRARLEDALLRMREEYGIQAEERQRVIDCLEDEKATLTLAMADWLRDYQDLLQVKTGLSLEVATYRALLEGESNPEIVIWAEHVENMPSEFRNKSYHYTDSLLQRENERNLFSRQKAPLASFNHSSALYSNLSGHRGSQTGTSIGGDARRGFLGSGYSSSATTQQENSYGKAVSSQTNVRTFSPTYGLLRNTEAQVKTFPDRPKAGDTREVPVYIGEDSTIARESYRDRRDKVAAGASESTRSNERTVILGKKTEVKATREQERNRPETIRTKPEEKMFDSKEKASEERNLRWEELTKLDKEARQRESQQMKEKAKEKDSPKEKSVREREVPISLEVSQDRRAEVSPKGLQTPVKDAGGGTGREAEARELRFRLGTSDATGSLQGDSMTETVAENIVTSILKQFTQSPETEASADSFPDTKVTYVDRKELPGERKTKTEIVVESKLTEDVDVSDEAGLDYLLSKDIKEVGLKGKSAEQMIGDIINLGLKGREGRAKVVNVEIVEEPVSYVSGEKPEEFSVPFKVEEVEDVSPGPWGLVKEEEGYGESDVTFSVNQHRRTKQPQENTTHVEEVTEAGDSEGEQSYFVSTPDEHPGGHDRDDGSVYGQIHIEEESTIRYSWQDEIVQGTRRRTQKDGAVGEKVVKPLDVPAPSLEGDLGSTHWKEQARSGEFHAEPTVIEKEIKIPHEFHTSMKGISSKEPRQQLVEVIGQLEETLPERMREELSALTREGQGGPGSVSVDVKKVQGAGGSSVTLVAEVNVSQTVDADRLDLEELSKDEASEMEKAVESVVRESLSRQRSPAPGSPDEEGGAEAPAAGIRFRRWATRELYIPSGESEVAGGASHSSGQRTPQGPVSATVEVSSPTGFAQSQVLEDVSQAARHIKLGPSEVWRTERMSYEGPTAEVVEVSAGGDLSQAASPTGASRSVRHVTLGPGQSPLSREVIFLGPAPACPEAWGSPEPGPAESSADMDGSGRHSTFGCRQFHAEKEIIFQGPISAAGKVGDYFATEESVGTQTSVRQLQLGPKEGFSGQIQFTAPLSDKVELGVIGDSVHMEGLPGSSTSIRHISIGPQRHQTTQQIVYHGLVPQLGESGDSESTVHGEGSADVHQATHSHTSGRQTVMTEKSTFQSVVSESPQEDSAEDTSGAEMTSGVSRSFRHIRLGPTETETSEHIAIRGPVSRTFVLAGSADSPELGKLADSSRTLRHIAPGPKETSFTFQMDVSNVEAIRSRTQEAGALGVSDRGSWRDADSRNDQAVGVSFKASAGEGDQAHREQGKEQAMFDKKVQLQRMVDQRSVISDEKKVALLYLDNEEEENDGHWF,cell_junction,SYNEM_HUMAN
NKRF_HUMAN,0.2826867816091954,0.4231741086881274,7.442243391584127,21.597242859501403,0.9179201196797676,0.8496669216846112,0.4928409947249434,0.6458892220293514,0.756040853607905,-0.0319740500463392,0.9277114386889566,0.7588483844241922,0.4323866044934294,0.0728768681250333,0.3348167699957031,0.8371635106361677,MEKILQMAEGIDIGEMPSYDLVLSKPSKGQKRHLSTCDGQNPPKKQAGSKFHARPRFEPVHFVASSSKDERQEDPYGPQTKEVNEQTHFASMPRDIYQDYTQDSFSIQDGNSQYCDSSGFILTKDQPVTANMYFDSGNPAPSTTSQQANSQSTPEPSPSQTFPESVVAEKQYFIEKLTATIWKNLSNPEMTSGSDKINYTYMLTRCIQACKTNPEYIYAPLKEIPPADIPKNKKLLTDGYACEVRCQNIYLTTGYAGSKNGSRDRATELAVKLLQKRIEVRVVRRKFKHTFGEDLVVCQIGMSSYEFPPALKPPEDLVVLGKDASGQPIFNASAKHWTNFVITENANDAIGILNNSASFNKMSIEYKYEMMPNRTWRCRVFLQDHCLAEGYGTKKTSKHAAADEALKILQKTQPTYPSVKSSQCHTGSSPRGSGKKKDIKDLVVYENSSNPVCTLNDTAQFNRMTVEYVYERMTGLRWKCKVILESEVIAEAVGVKKTVKYEAAGEAVKTLKKTQPTVINNLKKGAVEDVISRNEIQGRSAEEAYKQQIKEDNIGNQLLRKMGWTGGGLGKSGEGIREPISVKEQHKREGLGLDVERVNKIAKRDIEQIIRNYARSESHTDLTFSRELTNDERKQIHQIAQKYGLKSKSHGVGHDRYLVVGRKRRKEDLLDQLKQEGQVGHYELVMPQAN,nucleolus,NKRF_HUMAN
ZN185_HUMAN,0.289287434690777,0.4639398062915232,7.813651361011823,23.153944155430512,0.8914836227481601,0.8779514996809189,0.5906591082155851,0.656940441882805,0.9492989020930136,-0.0422679008984481,0.9796166033665192,0.8909668313338038,0.3671655753040224,0.1290926099158091,0.3433380217894009,0.7498673054153,MSISALGGRTKGKPLPPGEEERNNVLKQMKVRTTLKGDKSWITKQDESEGRTIELPSGRSRATSFSSAGEVPKPRPPSTRAPTGYIIRGVFTKPIDSSSQPQQQFPKANGTPKSAASLVRTANAGPPRPSSSGYKMTTEDYKKLAPYNIRRSSTSGDTEEEEEEEVVPFSSDEQKRRSEAASGVLRRTAPREHSYVLSAAKKSTGPTQETQAPFIAKRVEVVEEDGPSEKSQDPPALARSTPGSNSADGGRTKASRAIWIECLPSMPSPAGSQELSSRGEEIVRLQILTPRAGLRLVAPDVEGMRSSPGNKDKEAPCSRELQRDLAGEEAFRAPNTDAARSSAQLSDGNVGSGATGSRPEGLAAVDIGSERGSSSATSVSAVPADRKSNSTAAQEDAKADPKGALADYEGKDVATRVGEAWQERPGAPRGGQGDPAVPAQQPADPSTPERQSSPSGSEQLVRRESCGSSVLTDFEGKDVATKVGEAWQDRPGAPRGGQGDPAVPTQQPADPSTPEQQNSPSGSEQFVRRESCTSRVRSPSSCMVTVTVTATSEQPHIYIPAPASELDSSSTTKGILFVKEYVNASEVSSGKPVSARYSNVSSIEDSFAMEKKPPCGSTPYSERTTGGICTYCNREIRDCPKITLEHLGICCHEYCFKCGICSKPMGDLLDQIFIHRDTIHCGKCYEKLF,cell_junction,ZN185_HUMAN
NPHP1_HUMAN,0.3155538821954484,0.5440926476838079,7.271971190945726,21.625133120340788,0.9254434351775392,0.8036299726231115,0.3982642237222758,0.6667277055484343,0.8770395997942868,-0.0354844126042424,0.9325726141078838,0.8175732869999109,0.3380404331036571,0.1158551504771225,0.3324608673338465,0.8087343618082738,MLARRQRDPLQALRRRNQELKQQVDSLLSESQLKEALEPNKRQHIYQRCIQLKQAIDENKNALQKLSKADESAPVANYNQRKEEEHTLLDKLTQQLQGLAVTISRENITEVGAPTEEEEESESEDSEDSGGEEEDAEEEEEEKEENESHKWSTGEEYIAVGDFTAQQVGDLTFKKGEILLVIEKKPDGWWIAKDAKGNEGLVPRTYLEPYSEEEEGQESSEEGSEEDVEAVDETADGAEVKQRTDPHWSAVQKAISEAGIFCLVNHVSFCYLIVLMRNRMETVEDTNGSETGFRAWNVQSRGRIFLVSKPVLQINTVDVLTTMGAIPAGFRPSTLSQLLEEGNQFRANYFLQPELMPSQLAFRDLMWDATEGTIRSRPSRISLILTLWSCKMIPLPGMSIQVLSRHVRLCLFDGNKVLSNIHTVRATWQPKKPKTWTFSPQVTRILPCLLDGDCFIRSNSASPDLGILFELGISYIRNSTGERGELSCGWVFLKLFDASGVPIPAKTYELFLNGGTPYEKGIEVDPSISRRAHGSVFYQIMTMRRQPQLLVKLRSLNRRSRNVLSLLPETLIGNMCSIHLLIFYRQILGDVLLKDRMSLQSTDLISHPMLATFPMLLEQPDVMDALRSSWAGKESTLKRSEKRDKEFLKSTFLLVYHDCVLPLLHSTRLPPFRWAEEETETARWKVITDFLKQNQENQGALQALLSPDGVHEPFDLSEQTYDFLGEMRKNAV,cell_junction,NPHP1_HUMAN
MSH4_HUMAN,0.2804671312864946,0.4538990393671124,7.524105685677738,21.36837713808928,0.9368439110325216,0.8854843135461447,0.5227177990829512,0.6559211150090073,0.8486988529361411,-0.0250912711583139,0.9248257863158178,0.8868718175780386,0.4141644232760406,0.0516774891774891,0.3203404834865509,0.874762014479221,MLRPEISSTSPSAPAVSPSSGETRSPQGPRYNFGLQETPQSRPSVQVVSASTCPGTSGAAGDRSSSSSSLPCPAPNSRPAQGSYFGNKRAYAENTVASNFTFGASSSSARDTNYPQTLKTPLSTGNPQRSGYKSWTPQVGYSASSSSAISAHSPSVIVAVVEGRGLARGEIGMASIDLKNPQIILSQFADNTTYAKVITKLKILSPLEIIMSNTACAVGNSTKLFTLITENFKNVNFTTIQRKYFNETKGLEYIEQLCIAEFSTVLMEVQSKYYCLAAVAALLKYVEFIQNSVYAPKSLKICFQGSEQTAMIDSSSAQNLELLINNQDYRNNHTLFGVLNYTKTPGGSRRLRSNILEPLVDIETINMRLDCVQELLQDEELFFGLQSVISRFLDTEQLLSVLVQIPKQDTVNAAESKITNLIYLKHTLELVDPLKIAMKNCNTPLLRAYYGSLEDKRFGIILEKIKTVINDDARYMKGCLNMRTQKCYAVRSNINEFLDIARRTYTEIVDDIAGMISQLGEKYSLPLRTSFSSARGFFIQMTTDCIALPSDQLPSEFIKISKVKNSYSFTSADLIKMNERCQESLREIYHMTYMIVCKLLSEIYEHIHCLYKLSDTVSMLDMLLSFAHACTLSDYVRPEFTDTLAIKQGWHPILEKISAEKPIANNTYVTEGSNFLIITGPNMSGKSTYLKQIALCQIMAQIGSYVPAEYSSFRIAKQIFTRISTDDDIETNSSTFMKEMKEIAYILHNANDKSLILIDELGRGTNTEEGIGICYAVCEYLLSLKAFTLFATHFLELCHIDALYPNVENMHFEVQHVKNTSRNKEAILYTYKLSKGLTEEKNYGLKAAEVSSLPPSIVLDAKEITTQITRQILQNQRSTPEMERQRAVYHLATRLVQTARNSQLDPDSLRIYLSNLKKKYKEDFPRTEQVPEKTEE,chromosomes,MSH4_HUMAN
RRP8_HUMAN,0.2897820911920893,0.4112710891264022,7.766977850997621,21.605847639484978,0.9223944207671444,0.7540619655308513,0.5040590405904058,0.6579545454545455,0.8440512133296737,-0.0277161862527716,0.9416018378321934,0.7790263305152675,0.2228891556622649,0.0597456869580763,0.30433330151761,0.8459170704583366,MFEEPEWAEAAPVAAGLGPVISRPPPAASSQNKGSKRRQLLATLRALEAASLSQHPPSLCISDSEEEEEERKKKCPKKASFASASAEVGKKGKKKCQKQGPPCSDSEEEVERKKKCHKQALVGSDSAEDEKRKRKCQKHAPINSAQHLDNVDQTGPKAWKGSTTNDPPKQSPGSTSPKPPHTLSRKQWRNRQKNKRRCKNKFQPPQVPDQAPAEAPTEKTEVSPVPRTDSHEARAGALRARMAQRLDGARFRYLNEQLYSGPSSAAQRLFQEDPEAFLLYHRGFQSQVKKWPLQPVDRIARDLRQRPASLVVADFGCGDCRLASSIRNPVHCFDLASLDPRVTVCDMAQVPLEDESVDVAVFCLSLMGTNIRDFLEEANRVLKPGGLLKVAEVSSRFEDVRTFLRAVTKLGFKIVSKDLTNSHFFLFDFQKTGPPLVGPKAQLSGLQLQPCLYKRR,nucleolus,RRP8_HUMAN
U3IP2_HUMAN,0.2635828461632803,0.4413991934748097,7.509811616954474,22.44953478964401,0.9522541373406886,0.7931632104225184,0.3758771483779111,0.6166863351962771,0.7433071930773391,-0.0377042767732962,0.9417297927245484,0.7524208592292622,0.0628593831677992,0.0399203311304497,0.2962896090999368,0.8333416411616338,MSATAAARKRGKPASGAGAGAGAGKRRRKADSAGDRGKSKGGGKMNEEISSDSESESLAPRKPEEEEEEELEETAQEKKLRLAKLYLEQLRQQEEEKAEARAFEEDQVAGRLKEDVLEQRGRLQKLVAKEIQAPASADIRVLRGHQLSITCLVVTPDDSAIFSAAKDCSIIKWSVESGRKLHVIPRAKKGAEGKPPGHSSHVLCMAISSDGKYLASGDRSKLILIWEAQSCQHLYTFTGHRDAVSGLAFRRGTHQLYSTSHDRSVKVWNVAENSYVETLFGHQDAVAALDALSRECCVTAGGRDGTVRVWKIPEESQLVFYGHQGSIDCIHLINEEHMVSGADDGSVALWGLSKKRPLALQREAHGLRGEPGLEQPFWISSVAALLNTDLVATGSHSSCVRLWQCGEGFRQLDLLCDIPLVGFINSLKFSSSGDFLVAGVGQEHRLGRWWRIKEARNSVCIIPLRRVPVPPAAGS,nucleolus,U3IP2_HUMAN
PGRP1_HUMAN,0.3314849044978435,0.6487900588620014,7.213915040183697,21.802120141342755,0.909539076363311,0.8683748512572421,0.329216038933559,0.5917460126753371,0.8207323764692293,-0.044166086391838,0.7258920488246495,0.7881816327665807,0.346582087565985,0.0368299477540175,0.316450745538988,0.8051922126024638,MSRRSMLLAWALPSLLRLGAAQETEDPACCSPIVPRNEWKALASECAQHLSLPLRYVVVSHTAGSSCNTPASCQQQARNVQHYHMKTLGWCDVGYNFLIGEDGLVYEGRGWNFTGAHSGHLWNPMSIGISFMGNYMDRVPTPQAIRAAQGLLACGVAQGALRSNYVLKGHRDVQRTLSPGNQLYHLIQNWPHYRSP,stress_granule,PGRP1_HUMAN
RPP40_HUMAN,0.2523268881652883,0.4373445501097293,6.986606530858444,22.83139050791008,0.8766372162977183,0.7085866997172625,0.3138640199078973,0.6435408175867605,0.7565050172517489,-0.0375,0.8951911220715166,0.7215635916133519,0.1505392699115044,0.0873917671087075,0.2776384450467214,0.7701310829510365,MATLRRLREAPRHLLVCEKSNFGNHKSRHRHLVQTHYYNYRVSFLIPECGILSEELKNLVMNTGPYYFVKNLPLHELITPEFISTFIKKGSCYALTYNTHIDEDNTVALLPNGKLILSLDKDTYEETGLQGHPSQFSGRKIMKFIVSIDLMELSLNLDSKKYERISWSFKEKKPLKFDFLLAWHKTGSEESTMMSYFSKYQIQEHQPKVALSTLRDLQCPVLQSSELEGTPEVSCRALELFDWLGAVFSNVDLNNEPNNFISTYCCPEPSTVVAKAYLCTITGFILPEKICLLLEHLCHYFDEPKLAPWVTLSVQGFADSPVSWEKNEHGFRKGGEHLYNFVIFNNQDYWLQMAVGANDHCPP,nucleolus,RPP40_HUMAN
PIAS1_HUMAN,0.3457259308217669,0.4695290270522784,7.347588910907968,21.46808026184716,0.9305198033475116,0.8389312503874528,0.5164505466564964,0.6219966671716407,0.8311088295687885,-0.0301116976289772,0.8764393268379097,0.8043056683875364,0.3320068220579875,0.0385234934202834,0.3082343114272627,0.8381261942485669,MADSAELKQMVMSLRVSELQVLLGYAGRNKHGRKHELLTKALHLLKAGCSPAVQMKIKELYRRRFPQKIMTPADLSIPNVHSSPMPATLSPSTIPQLTYDGHPASSPLLPVSLLGPKHELELPHLTSALHPVHPDIKLQKLPFYDLLDELIKPTSLASDNSQRFRETCFAFALTPQQVQQISSSMDISGTKCDFTVQVQLRFCLSETSCPQEDHFPPNLCVKVNTKPCSLPGYLPPTKNGVEPKRPSRPINITSLVRLSTTVPNTIVVSWTAEIGRNYSMAVYLVKQLSSTVLLQRLRAKGIRNPDHSRALIKEKLTADPDSEIATTSLRVSLLCPLGKMRLTIPCRALTCSHLQCFDATLYIQMNEKKPTWVCPVCDKKAPYEHLIIDGLFMEILKYCTDCDEIQFKEDGTWAPMRSKKEVQEVSASYNGVDGCLSSTLEHQVASHHQSSNKNKKVEVIDLTIDSSSDEEEEEPSAKRTCPSLSPTSPLNNKGILSLPHQASPVSRTPSLPAVDTSYINTSLIQDYRHPFHMTPMPYDLQGLDFFPFLSGDNQHYNTSLLAAAAAAVSDDQDLLHSSRFFPYTSSQMFLDQLSAGGSTSLPTTNGSSSGSNSSLVSSNSLRESHSHTVTNRSSTDTASIFGIIPDIISLD,nuclear_speckle,PIAS1_HUMAN
RL1D1_HUMAN,0.2570119470731812,0.3474827649694167,7.177939712601138,22.002012252381164,0.914405836300242,0.7155999150562752,0.4237672119571613,0.644435403104657,0.8138727896932334,-0.0258751902587519,0.8214418926839665,0.7543643574648874,0.4777864380358534,0.0501978475713493,0.2914452411795306,0.8038562329706184,MEDSASASLSSAAATGTSTSTPAAPTARKQLDKEQVRKAVDALLTHCKSRKNNYGLLLNENESLFLMVVLWKIPSKELRVRLTLPHSIRSDSEDICLFTKDEPNSTPEKTEQFYRKLLNKHGIKTVSQIISLQTLKKEYKSYEAKLRLLSSFDFFLTDARIRRLLPSLIGRHFYQRKKVPVSVNLLSKNLSREINDCIGGTVLNISKSGSCSAIRIGHVGMQIEHIIENIVAVTKGLSEKLPEKWESVKLLFVKTEKSAALPIFSSFVSNWDEATKRSLLNKKKKEARRKRRERNFEKQKERKKKRQQARKTASVLSKDDVAPESGDTTVKKPESKKEQTPEHGKKKRGRGKAQVKATNESEDEIPQLVPIGKKTPANEKVEIQKHATGKKSPAKSPNPSTPRGKKRKALPASETPKAAESETPGKSPEKKPKIKEEAVKEKSPSLGKKDARQTPKKPEAKFFTTPSKSVRKASHTPKKWPKKPKVPQST,nucleolus,RL1D1_HUMAN
NOL4_HUMAN,0.3178778910446125,0.4060067960100844,7.482054074530044,22.62219387755102,0.9205203608632808,0.7928453559641678,0.3948811700182815,0.6370716276267229,1.0058114507102884,-0.0357242497972425,0.9393558788242352,0.7474329143377425,0.4218812756044662,0.114199730735725,0.3141939262703892,0.8176966292134832,MESERDMYRQFQDWCLRTYGDSGKTKTVTRKKYERIVQLLNGSESSSTDNAKFKFWVKSKGFQLGQPDEVRGGGGGAKQVLYVPVKTTDGVGVDEKLSLRRVAVVEDFFDIIYSMHVETGPNGEQIRKHAGQKRTYKAISESYAFLPREAVTRFLMSCSECQKRMHLNPDGTDHKDNGKPPTLVTSMIDYNMPITMAYMKHMKLQLLNSQQDEDESSIESDEFDMSDSTRMSAVNSDLSSNLEERMQSPQNLHGQQDDDSAAESFNGNETLGHSSIASGGTHSREMGDSNSDGKTGLEQDEQPLNLSDSPLSAQLTSEYRIDDHNSNGKNKYKNLLISDLKMEREARENGSKSPAHSYSSYDSGKNESVDRGAEDLSLNRGDEDEDDHEDHDDSEKVNETDGVEAERLKAFNMFVRLFVDENLDRMVPISKQPKEKIQAIIDSCRRQFPEYQERARKRIRTYLKSCRRMKRSGFEMSRPIPSHLTSAVAESILASACESESRNAAKRMRLERQQDESAPADKQCKPEATQATYSTSAVPGSQDVLYINGNGTYSYHSYRGLGGGLLNLNDASSSGPTDLSMKRQLATSSGSSSSSNSRPQLSPTEINAVRQLVAGYRESAAFLLRSADELENLILQQN,nucleolus,NOL4_HUMAN
RPP14_HUMAN,0.2621082621082621,0.3763175906913073,6.674352366743523,21.346771037181995,0.9234658830712869,0.5891891366094705,0.197318492284341,0.6133748349368043,0.5957380327459068,-0.0612512030798845,0.7613334871380782,0.6960936729787734,0.2150688424273329,0.0219913309535951,0.2539222596392304,0.8488401217679473,MPAPAATYERVVYKNPSEYHYMKVCLEFQDCGVGLNAAQFKQLLISAVKDLFGEVDAALPLDILTYEEKTLSAILRICSSGLVKLWSSLTLLGSYKGKKCAFRVIQVSPFLLALSGNSRELVLD,nucleolus,RPP14_HUMAN
LC7L3_HUMAN,0.2442061256021085,0.3714940329321718,7.148992401717872,21.17277021014443,0.925143936985624,0.7431570272422542,0.2604031707554924,0.616098294884654,0.6641046286192539,0.0106344410876132,0.810135249207451,0.6738793070818456,0.1146071439857583,0.0706210692835003,0.2852323990408713,0.8369890228973932,MISAAQLLDELMGRDRNLAPDEKRSNVRWDHESVCKYYLCGFCPAELFTNTRSDLGPCEKIHDENLRKQYEKSSRFMKVGYERDFLRYLQSLLAEVERRIRRGHARLALSQNQQSSGAAGPTGKNEEKIQVLTDKIDVLLQQIEELGSEGKVEEAQGMMKLVEQLKEERELLRSTTSTIESFAAQEKQMEVCEVCGAFLIVGDAQSRVDDHLMGKQHMGYAKIKATVEELKEKLRKRTEEPDRDERLKKEKQEREEREKEREREREERERKRRREEEEREKERARDRERRKRSRSRSRHSSRTSDRRCSRSRDHKRSRSRERRRSRSRDRRRSRSHDRSERKHRSRSRDRRRSKSRDRKSYKHRSKSRDREQDRKSKEKEKRGSDDKKSSVKSGSREKQSEDTNTESKESDTKNEVNGTSEDIKSEGDTQSN,nuclear_speckle,LC7L3_HUMAN
RPP29_HUMAN,0.2680215638566862,0.2952986406010503,7.317275317275317,22.820202808112324,0.911740203988202,0.7621790163392175,0.3092206366630077,0.6651678175686526,0.6763623392836876,-0.0347613298965708,0.753122186466514,0.6721745811355078,0.121148284357482,0.0313805713744105,0.2875423523717328,0.8053189404332947,MKSVIYHALSQKEANDSDVQPSGAQRAEAFVRAFLKRSTPRMSPQAREDQLQRKAVVLEYFTRHKRKEKKKKAKGLSARQRRELRLFDIKPEQQRYSLFLPLHELWKQYIRDLCSGLKPDTQPQMIQAKLLKADLHGAIISVTKSKCPSYVGITGILLQETKHIFKIITKEDRLKVIPKLNCVFTVETDGFISYIYGSKFQLRSSERSAKKFKAKGTIDL,nucleolus,RPP29_HUMAN
IF2A_HUMAN,0.2613393130160024,0.4520882836775726,7.641968757255149,20.661292538817385,0.923814535461615,0.9274308525805532,0.2446255585344057,0.6302392178415435,0.7881952231442028,-0.0354249611854949,0.9234835837506956,0.7627361070211602,0.0794119293867332,0.0699542997102661,0.3135618753192994,0.8462631011852287,MPGLSCRFYQHKFPEVEDVVMVNVRSIAEMGAYVSLLEYNNIEGMILLSELSRRRIRSINKLIRIGRNECVVVIRVDKEKGYIDLSKRRVSPEEAIKCEDKFTKSKTVYSILRHVAEVLEYTKDEQLESLFQRTAWVFDDKYKRPGYGAYDAFKHAVSDPSILDSLDLNEDEREVLINNINRRLTPQAVKIRADIEVACYGYEGIDAVKEALRAGLNCSTENMPIKINLIAPPRYVMTTTTLERTEGLSVLSQAMAVIKEKIEEKRGVFNVQMEPKVVTDTDETELARQMERLERENAEVDGDDDAEEMEAKAED,stress_granule,IF2A_HUMAN
PERE_HUMAN,0.3643916913946587,0.4590742207184508,7.483759430008382,23.208995664739884,0.9464692028262344,0.7039098475755651,0.4713627386438446,0.645246946362188,0.7513018495241516,-0.0360803032430155,0.954882747990752,0.7788438366068201,0.3816830785960249,0.0682425703653231,0.3205061488318589,0.8096284424223624,MHLLPALAGVLATLVLAQPCEGTDPASPGAVETSVLRDCIAEAKLLVDAAYNWTQKSIKQRLRSGSASPMDLLSYFKQPVAATRTVVRAADYMHVALGLLEEKLQPQRSGPFNVTDVLTEPQLRLLSQASGCALRDQAERCSDKYRTITGRCNNKRRPLLGASNQALARWLPAEYEDGLSLPFGWTPSRRRNGFLLPLVRAVSNQIVRFPNERLTSDRGRALMFMQWGQFIDHDLDFSPESPARVAFTAGVDCERTCAQLPPCFPIKIPPNDPRIKNQRDCIPFFRSAPSCPQNKNRVRNQINALTSFVDASMVYGSEVSLSLRLRNRTNYLGLLAINQRFQDNGRALLPFDNLHDDPCLLTNRSARIPCFLAGDTRSTETPKLAAMHTLFMREHNRLATELRRLNPRWNGDKLYNEARKIMGAMVQIITYRDFLPLVLGKARARRTLGHYRGYCSNVDPRVANVFTLAFRFGHTMLQPFMFRLDSQYRASAPNSHVPLSSAFFASWRIVYEGGIDPILRGLMATPAKLNRQDAMLVDELRDRLFRQVRRIGLDLAALNMQRSRDHGLPGYNAWRRFCGLSQPRNLAQLSRVLKNQDLARKFLNLYGTPDNIDIWIGAIAEPLLPGARVGPLLACLFENQFRRARDGDRFWWQKRGVFTKRQRKALSRISLSRIICDNTGITTVSRDIFRANIYPRGFVNCSRIPRLNLSAWRGT,stress_granule,PERE_HUMAN
GRAA_HUMAN,0.3226575809199318,0.569989432898908,7.574619919329817,21.232713563533544,0.8779770052012045,0.7934715664134675,0.3891785059578369,0.6431391058096627,0.8835215812827754,-0.0291902454911859,0.9594130594277328,0.8147664856007041,0.312130518234165,0.0347734792568083,0.3187843856431753,0.7653122550928664,MRNSYRFLASSLSVVVSLLLIPEDVCEKIIGGNEVTPHSRPYMVLLSLDRKTICAGALIAKDWVLTAAHCNLNKRSQVILGAHSITREEPTKQIMLVKKEFPYPCYDPATREGDLKLLQLMEKAKINKYVTILHLPKKGDDVKPGTMCQVAGWGRTHNSASWSDTLREVNITIIDRKVCNDRNHYNFNPVIGMNMVCAGSLRGGRDSCNGDSGSPLLCEGVFRGVTSFGLENKCGDPRGPGVYILLSKKHLNWIIMTIKGAV,stress_granule,GRAA_HUMAN
EPCAM_HUMAN,0.3135710770056826,0.5229453035509737,7.135022740551501,22.319099108077133,0.8848802232450259,0.898911910003476,0.3357364982121851,0.6461618622898564,0.9493414387031408,-0.0314843993244582,0.9552932761087268,0.7521362423013257,0.2911511446792253,0.0504129859361546,0.2836662145095655,0.7955962743872137,MAPPQVLAFGLLLAAATATFAAAQEECVCENYKLAVNCFVNNNRQCQCTSVGAQNTVICSKLAAKCLVMKAEMNGSKLGRRAKPEGALQNNDGLYDPDCDESGLFKAKQCNGTSMCWCVNTAGVRRTDKDTEITCSERVRTYWIIIELKHKAREKPYDSKSLRTALQKEITTRYQLDPKFITSILYENNVITIDLVQNSSQKTQNDVDIADVAYYFEKDVKGESLFHSKKMDLTVNGEQLDLDPGQTLIYYVDEKAPEFSMQGLKAGVIAVIVVVVIAVVAGIVVLVISRKKRMAKYEKAEIKEMGEMHRELNA,cell_junction,EPCAM_HUMAN
UBF1_HUMAN,0.2532160283897678,0.4582757719448904,7.137962609690958,22.7539169604387,0.9381498624807136,0.6314620629361846,0.5969980175587652,0.6429013963684888,1.0179948586118253,-0.028564570331253,0.8649205414949971,0.735991348805082,0.3602678816490092,0.0981882234524408,0.2882573075756043,0.8385813542603813,MNGEADCPTDLEMAAPKGQDRWSQEDMLTLLECMKNNLPSNDSSKFKTTESHMDWEKVAFKDFSGDMCKLKWVEISNEVRKFRTLTELILDAQEHVKNPYKGKKLKKHPDFPKKPLTPYFRFFMEKRAKYAKLHPEMSNLDLTKILSKKYKELPEKKKMKYIQDFQREKQEFERNLARFREDHPDLIQNAKKSDIPEKPKTPQQLWYTHEKKVYLKVRPDATTKEVKDSLGKQWSQLSDKKRLKWIHKALEQRKEYEEIMRDYIQKHPELNISEEGITKSTLTKAERQLKDKFDGRPTKPPPNSYSLYCAELMANMKDVPSTERMVLCSQQWKLLSQKEKDAYHKKCDQKKKDYEVELLRFLESLPEEEQQRVLGEEKMLNINKKQATSPASKKPAQEGGKGGSEKPKRPVSAMFIFSEEKRRQLQEERPELSESELTRLLARMWNDLSEKKKAKYKAREAALKAQSERKPGGEREERGKLPESPKRAEEIWQQSVIGDYLARFKNDRVKALKAMEMTWNNMEKKEKLMWIKKAAEDQKRYERELSEMRAPPAATNSSKKMKFQGEPKKPPMNGYQKFSQELLSNGELNHLPLKERMVEIGSRWQRISQSQKEHYKKLAEEQQKQYKVHLDLWVKSLSPQDRAAYKEYISNKRKSMTKLRGPNPKSSRTTLQSKSESEEDDEEDEDDEDEDEEEEDDENGDSSEDGGDSSESSSEDESEDGDENEEDDEDEDDDEDDDEDEDNESEGSSSSSSSSGDSSDSDSN,nucleolus,UBF1_HUMAN
MMP8_HUMAN,0.3521996174578334,0.4408798469831333,7.594179592260207,22.05238161754435,0.9097877722253068,0.7118456662745325,0.500709219858156,0.6315215997948981,0.7152469385008747,-0.0382766097859903,0.9881397892797512,0.8355496178462686,0.2655007542635064,0.0564129309595492,0.3701167097630862,0.8033557209122536,MFSLKTLPFLLLLHVQISKAFPVSSKEKNTKTVQDYLEKFYQLPSNQYQSTRKNGTNVIVEKLKEMQRFFGLNVTGKPNEETLDMMKKPRCGVPDSGGFMLTPGNPKWERTNLTYRIRNYTPQLSEAEVERAIKDAFELWSVASPLIFTRISQGEADINIAFYQRDHGDNSPFDGPNGILAHAFQPGQGIGGDAHFDAEETWTNTSANYNLFLVAAHEFGHSLGLAHSSDPGALMYPNYAFRETSNYSLPQDDIDGIQAIYGLSSNPIQPTGPSTPKPCDPSLTFDAITTLRGEILFFKDRYFWRRHPQLQRVEMNFISLFWPSLPTGIQAAYEDFDRDLIFLFKGNQYWALSGYDILQGYPKDISNYGFPSSVQAIDAAVFYRSKTYFFVNDQFWRYDNQRQFMEPGYPKSISGAFPGIESKVDAVFQQEHFFHVFSGPRYYAFDLIAQRVTRVARGNKWLNCRYG,stress_granule,MMP8_HUMAN
CMA1_HUMAN,0.3031588402614901,0.4407308579440098,7.65893308080808,21.83491137925062,0.8933037208311783,0.8533051004986544,0.3825611725251521,0.6381517137035274,0.7723967598749547,-0.0506776664702416,0.8004005778828474,0.8328424153166422,0.0810105606806321,0.0794133505877278,0.2952550872793905,0.721150493898896,MLLLPLPLLLFLLCSRAEAGEIIGGTECKPHSRPYMAYLEIVTSNGPSKFCGGFLIRRNFVLTAAHCAGRSITVTLGAHNITEEEDTWQKLEVIKQFRHPKYNTSTLHHDIMLLKLKEKASLTLAVGTLPFPSQFNFVPPGRMCRVAGWGRTGVLKPGSDTLQEVKLRLMDPQACSHFRDFDHNLQLCVGNPRKTKSAFKGDSGGPLLCAGVAQGIVSYGRSDAKPPAVFTRISHYRPWINQILQAN,stress_granule,CMA1_HUMAN
RPB9_HUMAN,0.2381099444101297,0.3877144988808754,7.118370124622517,21.732649442755825,0.8143415406008008,0.6534253492678,0.3920680512593902,0.587229877268278,0.6556971656838501,-0.052059943375964,0.904218682737839,0.6806634814748039,0.1275202354672553,0.0522594528127881,0.3200765340986743,0.7394913935950762,MEPDGTYEPGFVGIRFCQECNNMLYPKEDKENRILLYACRNCDYQQEADNSCIYVNKITHEVDELTQIIADVSQDPTLPRTEDHPCQKCGHKEAVFFQSHSARAEDAMRLYYVCTAPHCGHRWTE,nucleolus,RPB9_HUMAN
NOP2_HUMAN,0.3528302776075788,0.4897822535286713,7.599118942731278,21.90581516095535,0.9321119519171585,0.8365501814918496,0.5812261863526151,0.6498653677427162,0.990658362989324,-0.0313136456211812,1.0148998399646818,0.7777714964101984,0.1512080205993535,0.0673082991479962,0.3168880455407969,0.8283259110581447,MGRKLDPTKEKRGPGRKARKQKGAETELVRFLPAVSDENSKRLSSRARKRAAKRRLGSVEAPKTNKSPEAKPLPGKLPKGISAGAVQTAGKKGPQSLFNAPRGKKRPAPGSDEEEEEEDSEEDGMVNHGDLWGSEDDADTVDDYGADSNSEDEEEGEALLPIERAARKQKAREAAAGIQWSEEETEDEEEEKEVTPESGPPKVEEADGGLQINVDEEPFVLPPAGEMEQDAQAPDLQRVHKRIQDIVGILRDFGAQREEGRSRSEYLNRLKKDLAIYYSYGDFLLGKLMDLFPLSELVEFLEANEVPRPVTLRTNTLKTRRRDLAQALINRGVNLDPLGKWSKTGLVVYDSSVPIGATPEYLAGHYMLQGASSMLPVMALAPQEHERILDMCCAPGGKTSYMAQLMKNTGVILANDANAERLKSVVGNLHRLGVTNTIISHYDGRQFPKVVGGFDRVLLDAPCSGTGVISKDPAVKTNKDEKDILRCAHLQKELLLSAIDSVNATSKTGGYLVYCTCSITVEENEWVVDYALKKRNVRLVPTGLDFGQEGFTRFRERRFHPSLRSTRRFYPHTHNMDGFFIAKFKKFSNSIPQSQTGNSETATPTNVDLPQVIPKSENSSQPAKKAKGAAKTKQQLQKQQHPKKASFQKLNGISKGADSELSTVPSVTKTQASSSFQDSSQPAGKAEGIREPKVTGKLKQRSPKLQSSKKVAFLRQNAPPKGTDTQTPAVLSPSKTQATLKPKDHHQPLGRAKGVEKQQLPEQPFEKAAFQKQNDTPKGPQPPTVSPIRSSRPPPAKRKKSQSRGNSQLLLS,nucleolus,NOP2_HUMAN
GRAK_HUMAN,0.3329565306751618,0.5812116706931797,7.105514250309789,21.357308584686773,0.8576926447135521,0.8191039541877989,0.3373121131741821,0.6179618949305447,0.7559204132780932,-0.0478674062070584,1.014609358458607,0.8627766599597585,0.0525688378182955,0.0247941700336788,0.3287805861452007,0.7398658771919311,MTKFSSFSLFFLIVGAYMTHVCFNMEIIGGKEVSPHSRPFMASIQYGGHHVCGGVLIDPQWVLTAAHCQYRFTKGQSPTVVLGAHSLSKNEASKQTLEIKKFIPFSRVTSDPQSNDIMLVKLQTAAKLNKHVKMLHIRSKTSLRSGTKCKVTGWGATDPDSLRPSDTLREVTVTVLSRKLCNSQSYYNGDPFITKDMVCAGDAKGQKDSCKGDSGGPLICKGVFHAIVSGGHECGVATKPGIYTLLTKKYQTWIKSNLVPPHTN,stress_granule,GRAK_HUMAN
GRAM_HUMAN,0.287690624798919,0.5006760449929518,7.4896028584817245,21.242346489573112,0.8988268127551812,0.6830804565701559,0.389782853187992,0.5848250192270436,0.6886178861788618,-0.0420541852001617,0.7403179483450794,0.7796153309206499,0.042288677782086,0.0348641018359198,0.3167735959103853,0.8523776983245677,MEACVSSLLVLALGALSVGSSFGTQIIGGREVIPHSRPYMASLQRNGSHLCGGVLVHPKWVLTAAHCLAQRMAQLRLVLGLHTLDSPGLTFHIKAAIQHPRYKPVPALENDLALLQLDGKVKPSRTIRPLALPSKRQVVAAGTRCSMAGWGLTHQGGRLSRVLRELDLQVLDTRMCNNSRFWNGSLSPSMVCLAADSKDQAPCKGDSGGPLVCGKGRVLARVLSFSSRVCTDIFKPPVATAVAPYVSWIRKVTGRSA,stress_granule,GRAM_HUMAN
AFF2_HUMAN,0.3156512605042016,0.5144558639900105,7.621949835432981,22.24336509888308,0.9335557746265262,0.8699008434157689,0.5921266968325792,0.6774962096599524,0.9197283277180598,-0.0329492564422749,1.037094064949608,0.7962477856092872,0.4719678714859437,0.1026825767091333,0.3338019989607849,0.8334245525696459,MDLFDFFRDWDLEQQCHYEQDRSALKKREWERRNQEVQQEDDLFSSGFDLFGEPYKVAEYTNKGDALANRVQNTLGNYDEMKNLLTNHSNQNHLVGIPKNSVPQNPNNKNEPSFFPEQKNRIIPPHQDNTHPSAPMPPPSVVILNSTLIHSNRKSKPEWSRDSHNPSTVLASQASGQPNKMQTLTQDQSQAKLEDFFVYPAEQPQIGEVEESNPSAKEDSNPNSSGEDAFKEIFQSNSPEESEFAVQAPGSPLVASSLLAPSSGLSVQNFPPGLYCKTSMGQQKPTAYVRPMDGQDQAPDISPTLKPSIEFENSFGNLSFGTLLDGKPSAASSKTKLPKFTILQTSEVSLPSDPSCVEEILREMTHSWPTPLTSMHTAGHSEQSTFSIPGQESQHLTPGFTLQKWNDPTTRASTKSVSFKSMLEDDLKLSSDEDDLEPVKTLTTQCTATELYQAVEKAKPRNNPVNPPLATPQPPPAVQASGGSGSSSESESSSESDSDTESSTTDSESNEAPRVATPEPEPPSTNKWQLDKWLNKVTSQNKSFICGQNETPMETISLPPPIIQPMEVQMKVKTNASQVPAEPKERPLLSLIREKARPRPTQKIPETKALKHKLSTTSETVSQRTIGKKQPKKVEKNTSTDEFTWPKPNITSSTPKEKESVELHDPPRGRNKATAHKPAPRKEPRPNIPLAPEKKKYRGPGKIVPKSREFIETDSSTSDSNTDQEETLQIKVLPPCIISGGNTAKSKEICGASLTLSTLMSSSGSNNNLSISNEEPTFSPIPVMQTEILSPLRDHENLKNLWVKIDLDLLSRVPGHSSLHAAPAKPDHKETATKPKRQTAVTAVEKPAPKGKRKHKPIEVAEKIPEKKQRLEEATTICLLPPCISPAPPHKPPNTRENNSSRRANRRKEEKLFPPPLSPLPEDPPRRRNVSGNNGPFGQDKNIAMTGQITSTKPKRTEGKFCATFKGISVNEGDTPKKASSATITVTNTAIATATVTATAIVTTTVTATATATATTTTTTTTISTITSTITTGLMDSSHLEMTSWAALPLLSSSSTNVRRPKLTFDDSVHNADYYMQEAKKLKHKADALFEKFGKAVNYADAALSFTECGNAMERDPLEAKSPYTMYSETVELLRYAMRLKNFASPLASDGDKKLAVLCYRCLSLLYLRMFKLKKDHAMKYSRSLMEYFKQNASKVAQIPSPWVSNGKNTPSPVSLNNVSPINAMGNCNNGPVTIPQRIHHMAASHVNITSNVLRGYEHWDMADKLTRENKEFFGDLDTLMGPLTQHSSMTNLVRYVRQGLCWLRIDAHLL,nuclear_speckle,AFF2_HUMAN
HNRPM_HUMAN,0.2986516983970835,0.4304670912951168,7.683319995427004,21.54904149342858,0.9060316516427228,0.782132212862842,0.4750040709982087,0.6395616539276177,0.7378589872986329,-0.0338147948164146,0.9120808869298968,0.7818645434534663,0.1271512009245088,0.072912367588389,0.3464170238363787,0.7896995146710621,MAAGVEAAAEVAATEIKMEEESGAPGVPSGNGAPGPKGEGERPAQNEKRKEKNIKRGGNRFEPYANPTKRYRAFITNIPFDVKWQSLKDLVKEKVGEVTYVELLMDAEGKSRGCAVVEFKMEESMKKAAEVLNKHSLSGRPLKVKEDPDGEHARRAMQKVMATTGGMGMGPGGPGMITIPPSILNNPNIPNEIIHALQAGRLGSTVFVANLDYKVGWKKLKEVFSMAGVVVRADILEDKDGKSRGIGTVTFEQSIEAVQAISMFNGQLLFDRPMHVKMDERALPKGDFFPPERPQQLPHGLGGIGMGLGPGGQPIDANHLNKGIGMGNIGPAGMGMEGIGFGINKMGGMEGPFGGGMENMGRFGSGMNMGRINEILSNALKRGEIIAKQGGGGGGGSVPGIERMGPGIDRLGGAGMERMGAGLGHGMDRVGSEIERMGLVMDRMGSVERMGSGIERMGPLGLDHMASSIERMGQTMERIGSGVERMGAGMGFGLERMAAPIDRVGQTIERMGSGVERMGPAIERMGLSMERMVPAGMGAGLERMGPVMDRMATGLERMGANNLERMGLERMGANSLERMGLERMGANSLERMGPAMGPALGAGIERMGLAMGGGGGASFDRAIEMERGNFGGSFAGSFGGAGGHAPGVARKACQIFVRNLPFDFTWKMLKDKFNECGHVLYADIKMENGKSKGCGVVKFESPEVAERACRMMNGMKLSGREIDVRIDRNA,nucleolus,HNRPM_HUMAN
RPAB3_HUMAN,0.3208999407933688,0.3843074459567654,7.368985187229736,21.704248366013072,0.8987380831759775,0.7607027860892253,0.3937426210153483,0.5367605428751678,0.7699588372802114,-0.0304914744232698,0.9079257930513596,0.7075614395039911,0.5539011316259679,0.0775253995987834,0.2809565017188132,0.726165634727876,MAGILFEDIFDVKDIDPEGKKFDRVSRLHCESESFKMDLILDVNIQIYPVDLGDKFRLVIASTLYEDGTLDDGEYNPTDDRPSRADQFEYVMYGKVYRIEGDETSTEAATRLSAYVSYGGLLMRLQGDANNLHGFEVDSRVYLLMKKLAF,nucleolus,RPAB3_HUMAN
RRP1_HUMAN,0.3096622152395915,0.3618981187042241,7.266318537859008,22.203813141972702,0.9447576099210824,0.6032969315807267,0.5022398782858591,0.6392461270269382,0.9294423120343192,-0.0288543796308379,0.9253653970768234,0.6662217596848938,0.2812312066043409,0.061929924574636,0.2694700460829493,0.8432457004318509,MVSRVQLPPEIQLAQRLAGNEQVTRDRAVRKLRKYIVARTQRAAGGFTHDELLKVWKGLFYCMWMQDKPLLQEELGRTISQLVHAFQTTEAQHLFLQAFWQTMNREWTGIDRLRLDKFYMLMRMVLNESLKVLKMQGWEERQIEELLELLMTEILHPSSQAPNGVKSHFIEIFLEELTKVGAEELTADQNLKFIDPFCRIAARTKDSLVLNNITRGIFETIVEQAPLAIEDLLNELDTQDEEVASDSDESSEGGERGDALSQKRSEKPPAGSICRAEPEAGEEQAGDDRDSGGPVLQFDYEAVANRLFEMASRQSTPSQNRKRLYKVIRKLQDLAGGIFPEDEIPEKACRRLLEGRRQKKTKKQKRLLRLQQERGKGEKEPPSPGMERKRSRRRGVGADPEARAEAGEQPGTAERALLRDQPRGRGQRGARQRRRTPRPLTSARAKAANVQEPEKKKKRRE,nucleolus,RRP1_HUMAN
NOP14_HUMAN,0.2685397744285857,0.4099369268273807,7.455216535433071,21.92007487462033,0.9461647905594844,0.6140041562575995,0.3133371215196038,0.6310127796084175,0.9050437629872174,-0.0257930304706476,0.9946070878274268,0.7048886024673172,0.3458333333333333,0.0638983847188244,0.3052588440590132,0.8404635888639365,MAKAKKVGARRKASGAPAGARGGPAKANSNPFEVKVNRQKFQILGRKTRHDVGLPGVSRARALRKRTQTLLKEYKERDKSNVFRDKRFGEYNSNMSPEEKMMKRFALEQQRHHEKKSIYNLNEDEELTHYGQSLADIEKHNDIVDSDSDAEDRGTLSAELTAAHFGGGGGLLHKKTQQEGEEREKPKSRKELIEELIAKSKQEKRERQAQREDALELTEKLDQDWKEIQTLLSHKTPKSENRDKKEKPKPDAYDMMVRELGFEMKAQPSNRMKTEAELAKEEQEHLRKLEAERLRRMLGKDEDENVKKPKHMSADDLNDGFVLDKDDRRLLSYKDGKMNVEEDVQEEQSKEASDPESNEEEGDSSGGEDTEESDSPDSHLDLESNVESEEENEKPAKEQRQTPGKGLISGKERAGKATRDELPYTFAAPESYEELRSLLLGRSMEEQLLVVERIQKCNHPSLAEGNKAKLEKLFGFLLEYVGDLATDDPPDLTVIDKLVVHLYHLCQMFPESASDAIKFVLRDAMHEMEEMIETKGRAALPGLDVLIYLKITGLLFPTSDFWHPVVTPALVCLSQLLTKCPILSLQDVVKGLFVCCLFLEYVALSQRFIPELINFLLGILYIATPNKASQGSTLVHPFRALGKNSELLVVSAREDVATWQQSSLSLRWASRLRAPTSTEANHIRLSCLAVGLALLKRCVLMYGSLPSFHAIMGPLQALLTDHLADCSHPQELQELCQSTLTEMESQKQLCRPLTCEKSKPVPLKLFTPRLVKVLEFGRKQGSSKEEQERKRLIHKHKREFKGAVREIRKDNQFLARMQLSEIMERDAERKRKVKQLFNSLATQEGEWKALKRKKFKK,nucleolus,NOP14_HUMAN
RPP38_HUMAN,0.3379545807252599,0.3997723863224872,7.44616234124793,21.56271676300578,0.91021906669094,0.6641563271598122,0.3232311389882173,0.6115706341417824,0.7211775483797849,-0.0414424410540915,0.8026807182687881,0.7472026356495711,0.1251088101892151,0.0608112305112118,0.2732387162766909,0.8184611694015913,MAAAPQAPGRGSLRKTRPLVVKTSLNNPYIIRWSALESEDMHFILQTLEDRLKAIGLQKIEDKKKKNKTPFLKKESREKCSIAVDISENLKEKKTDAKQQVSGWTPAHVRKQLAIGVNEVTRALERRELLLVLVCKSVKPAMITSHLIQLSLSRSVPACQVPRLSERIAPVIGLKCVLALAFKKNTTDFVDEVRAIIPRVPSLSVPWLQDRIEDSGENLETEPLESQDRELLDTSFEDLSKPKRKLADGRQASVTLQPLKIKKLIPNPNKIRKPPKSKKATPK,nucleolus,RPP38_HUMAN
RPP30_HUMAN,0.2389037108901285,0.3438866902728598,7.264907470870459,19.982324080051647,0.8417746043330562,0.8129023553448209,0.4012890094979647,0.6310168294692244,0.7850628119084495,-0.0552055800293685,1.0236872016367355,0.7611720533019215,0.0590085954655027,0.0885318311301731,0.3295475270671331,0.784317577161132,MAVFADLDLRAGSDLKALRGLVETAAHLGYSVVAINHIVDFKEKKQEIEKPVAVSELFTTLPIVQGKSRPIKILTRLTIIVSDPSHCNVLRATSSRARLYDVVAVFPKTEKLFHIACTHLDVDLVCITVTEKLPFYFKRPPINVAIDRGLAFELVYSPAIKDSTMRRYTISSALNLMQICKGKNVIISSAAERPLEIRGPYDVANLGLLFGLSESDAKAAVSTNCRAALLHGETRKTAFGIISTVKKPRPSEGDEDCLPASKKAKCEG,nucleolus,RPP30_HUMAN
AK17A_HUMAN,0.3540972684876748,0.4774330042313117,7.204398343585414,22.72807608777054,0.936039655622228,0.7708258848766536,0.543823584376752,0.6723245496101102,0.8075835978605905,0.0232297340595962,0.962429489702217,0.7591264071946675,0.3551803091013165,0.0402651644643945,0.3140995446694928,0.8348941766033444,MAAATIVHDTSEAVELCPAYGLYLKPITKMTISVALPQLKQPGKSISNWEVMERLKGMVQNHQFSTLRISKSTMDFIRFEGEVENKSLVKSFLACLDGKTIKLSGFSDILKVRAAEFKIDFPTRHDWDSFFRDAKDMNETLPGERPDTIHLEGLPCKWFALKESGSEKPSEDVLVKVFEKFGEIRNVDIPMLDPYREEMTGRNFHTFSFGGHLNFEAYVQYREYMGFIQAMSALRGMKLMYKGEDGKAVACNIKVSFDSTKHLSDASIKKRQLERQKLQELEQQREEQKRREKEAEERQRAEERKQKELEELERERKREEKLRKREQKQRDRELRRNQKKLEKLQAEEQKQLQEKIKLEERKLLLAQRNLQSIRLIAELLSRAKAVKLREQEQKEEKLRLQQQEERRRLQEAELRRVEEEKERALGLQRKERELRERLLSILLSKKPDDSHTHDELGVAHADLLQPVLDILQTVSSGCVSATTLHPLGGQPPAGAPKESPAHPEADGAPKSVNGSVAEEAPCKEVQSSCRVVPEDGSPEKRCPGGVLSCIPDNNQQPKGIPACEQNVSRKDTRSEQDKCNREPSKGRGRATGDGLADRHKRERSRARRASSREDGRPRKERRPHKKHAYKDDSPRRRSTSPDHTRSRRSHSKDRHRRERSRERRGSASRKHSRHRRRSERSRSRSPSRHRSTWNR,nuclear_speckle,AK17A_HUMAN
SRSF4_HUMAN,0.2700646322506749,0.4679259056483256,7.5740110971899055,21.18437895431789,0.8529896734876865,0.8176672143630025,0.4442060085836909,0.6595213791539072,0.7063428418681025,-0.0330951763965498,0.7915583024814123,0.7831108578145454,0.3154791154791155,0.0858416945373467,0.3444456750470706,0.8240733268000231,MPRVYIGRLSYQARERDVERFFKGYGKILEVDLKNGYGFVEFDDLRDADDAVYELNGKDLCGERVIVEHARGPRRDGSYGSGRSGYGYRRSGRDKYGPPTRTEYRLIVENLSSRCSWQDLKDYMRQAGEVTYADAHKGRKNEGVIEFVSYSDMKRALEKLDGTEVNGRKIRLVEDKPGSRRRRSYSRSRSHSRSRSRSRHSRKSRSRSGSSKSSHSKSRSRSRSGSRSRSKSRSRSQSRSRSKKEKSRSPSKEKSRSRSHSAGKSRSKSKDQAEEKIQNNDNVGKPKSRSPSRHKSKSKSRSRSQERRVEEEKRGSVSRGRSQEKSLRQSRSRSRSKGGSRSRSRSRSKSKDKRKGRKRSREESRSRSRSRSKSERSRKRGSKRDSKAGSSKKKKKEDTDRSQSRSPSRSVSKEREHAKSESSQREGRGESENAGTNQETRSRSRSNSKSKPNLPSESRSRSKSASKTRSRSKSRSRSASRSPSRSRSRSHSRS,nuclear_speckle,SRSF4_HUMAN
BRME1_HUMAN,0.2942198431703995,0.4650043490866918,7.680766062602966,20.865591397849464,0.9086954789353452,0.8346108431564833,0.6198561725928885,0.6479171163393049,1.1582978723404256,-0.0413689850808993,1.0835630463889108,0.8637380756094688,0.1687950550862186,0.1053276437534327,0.3468267890073314,0.7745929182759653,MTKRKKLRTSGEGLCPPKPLKNPRLGDFYGDPQSSMLGCLHHPEEPEGKLGPVPSTQQHGEEPGKAVSSSPDEETGSPCRLLRQPEKEPAPLPPSQNSFGRFVPQFAKSRKTVTRKEEMKDEDRGSGAFSLETIAESSAQSPGCQLLVETLGVPLQEATELGDPTQADSARPEQSSQSPVQAVPGSGDSQPDDPPDRGTGLSASQRASQDHLSEQGADDSKPETDRVPGDGGQKEHLPSIDSEGEKPDRGAPQEGGAQRTAGAGLPGGPQEEGDGVPCTPASAPTSGPAPGLGPASWCLEPGSVAQGSPDPQQTPSRMGREGEGTHSSLGCSSLGMVVIADLSTDPTELEERALEVAGPDGQASAISPASPRRKAADGGHRRALPGCTSLTGETTGESGEAGQDGKPPGDVLVGPTASLALAPGSGESMMGAGDSGHASPDTGPCVNQKQEPGPAQEEAELGGQNLERDLEGFRVSPQASVVLEHREIADDPLQEPGAQQGIPDTTSELAGQRDHLPHSADQGTWADSLAVELDFLLDSQIQDALDASDFEAPPEQLFPSGNKPGPCWPGPSSHANGDPVAVAKAQPRTFVGIQASEASRMEDATNVVRGLIVELSNLNRLIMGTHRDLEAFKRLNYRKTKLGGKAPLPYPSKGPGNIPRGDPPWREL,chromosomes,BRME1_HUMAN
CGNL1_HUMAN,0.2852062588904694,0.4531741421102185,7.866507177033493,22.1161838513692,0.9477607864554888,0.8523301873575077,0.6252369347414026,0.6727761485826002,1.1120976692563818,-0.0235344458707745,0.9165933485834946,0.8126852311534354,0.4172055653537135,0.0721985540924348,0.3086106268475707,0.8431941775360837,MELYFGEYQHVQQEYGVHLRLASDDTQKSRSSQNSKAGSYGVSIRVQGIDGHPYIVLNNTERCLAGTSFSENGPPFPPPVINNLPLHSSNGSVPKENSEELQLPENPYAQPSPIRNLKQPLLHEGKNGVLDRKDGSVKPSHLLNFQRHPELLQPYDPEKNELNLQNHQPSESNWLKTLTEEGINNKKPWTCFPKPSNSQPTSPSLEDPAKSGVTAIRLCSSVVIEDPKKQTSVCVNVQSCTKERVGEEALFTSGRPLTAHSPHAHPETKKTRPDVLPFRRQDSAGPVLDGARSRRSSSSSTTPTSANSLYRFLLDDQECAIHADNVNRHENRRYIPFLPGTGRDIDTGSIPGVDQLIEKFDQKPGLQRRGRSGKRNRINTDDRKRSRSVDSAFPFGLQGNSEYLIEFSRNLGKSSEHLLRPSQVCPQRPLSQERRGKQSVGRTFAKLQGAAHGASCAHSRPPQPNIDGKVLETEGSQESTVIRAPSLGAQSKKEEEVKTATATLMLQNRATATSPDSGAKKISVKTFPSASNTQATPDLLKGQQELTQQTNEETAKQILYNYLKEGSTDNDDATKRKVNLVFEKIQTLKSRAAGSAQGNNQACNSTSEVKDLLEQKSKLTIEVAELQRQLQLEVKNQQNIKEERERMRANLEELRSQHNEKVEENSTLQQRLEESEGELRKNLEELFQVKMEREQHQTEIRDLQDQLSEMHDELDSAKRSEDREKGALIEELLQAKQDLQDLLIAKEEQEDLLRKRERELTALKGALKEEVSSHDQEMDKLKEQYDAELQALRESVEEATKNVEVLASRSNTSEQDQAGTEMRVKLLQEENEKLQGRSEELERRVAQLQRQIEDLKGDEAKAKETLKKYEGEIRQLEEALVHARKEEKEAVSARRALENELEAAQGNLSQTTQEQKQLSEKLKEESEQKEQLRRLKNEMENERWHLGKTIEKLQKEMADIVEASRTSTLELQNQLDEYKEKNRRELAEMQRQLKEKTLEAEKSRLTAMKMQDEMRLMEEELRDYQRAQDEALTKRQLLEQTLKDLEYELEAKSHLKDDRSRLVKQMEDKVSQLEMELEEERNNSDLLSERISRSREQMEQLRNELLQERAARQDLECDKISLERQNKDLKSRIIHLEGSYRSSKEGLVVQMEARIAELEDRLESEERDRANLQLSNRRLERKVKELVMQVDDEHLSLTDQKDQLSLRLKAMKRQVEEAEEEIDRLESSKKKLQRELEEQMDMNEHLQGQLNSMKKDLRLKKLPSKVLDDMDDDDDLSTDGGSLYEAPVSYTFSKDSTVASQI,cell_junction,CGNL1_HUMAN
NEXN_HUMAN,0.3843183843183843,0.453733160520011,7.254614118615176,21.313357561373586,0.93632320938594,0.7952802901611496,0.3288147859488949,0.6356626506024097,0.902975978873597,-0.0266297076660551,0.9264214046822744,0.7044659465178587,0.376673594663831,0.0852976428286056,0.3353225640497994,0.8945780916648275,MNDISQKAEILLSSSKPVPKTYVPKLGKGDVKDKFEAMQRAREERNQRRSRDEKQRRKEQYIREREWNRRKQEIKEMLASDDEEDVSSKVEKAYVPKLTGTVKGRFAEMEKQRQEEQRKRTEEERKRRIEQDMLEKRKIQRELAKRAEQIEDINNTGTESASEEGDDSLLITVVPVKSYKTSGKMKKNFEDLEKEREEKERIKYEEDKRIRYEEQRPSLKEAKCLSLVMDDEIESEAKKESLSPGKLKLTFEELERQRQENRKKQAEEEARKRLEEEKRAFEEARRQMVNEDEENQDTAKIFKGYRPGKLKLSFEEMERQRREDEKRKAEEEARRRIEEEKKAFAEARRNMVVDDDSPEMYKTISQEFLTPGKLEINFEELLKQKMEEEKRRTEEERKHKLEMEKQEFEQLRQEMGEEEEENETFGLSREYEELIKLKRSGSIQAKNLKSKFEKIGQLSEKEIQKKIEEERARRRAIDLEIKEREAENFHEEDDVDVRPARKSEAPFTHKVNMKARFEQMAKAREEEEQRRIEEQKLLRMQFEQREIDAALQKKREEEEEEEGSIMNGSTAEDEEQTRSGAPWFKKPLKNTSVVDSEPVRFTVKVTGEPKPEITWWFEGEILQDGEDYQYIERGETYCLYLPETFPEDGGEYMCKAVNNKGSAASTCILTIESKN,cell_junction,NEXN_HUMAN
NU160_HUMAN,0.4299249195566678,0.4854986606222954,7.639250191277735,22.804623068881405,0.9409397075735172,0.7805500265104434,0.4035867237687366,0.6437840100460444,0.8456152977933359,-0.0309013123663062,0.9757506824385804,0.7884888720965798,0.4086294416243655,0.0903560565396314,0.328869887876099,0.8660443969536021,MLHLSAAPPAPPPEVTATARPCLCSVGRRGDGGKMAAAGALERSFVELSGAERERPRHFREFTVCSIGTANAVAGAVKYSESAGGFYYVESGKLFSVTRNRFIHWKTSGDTLELMEESLDINLLNNAIRLKFQNCSVLPGGVYVSETQNRVIILMLTNQTVHRLLLPHPSRMYRSELVVDSQMQSIFTDIGKVDFTDPCNYQLIPAVPGISPNSTASTAWLSSDGEALFALPCASGGIFVLKLPPYDIPGMVSVVELKQSSVMQRLLTGWMPTAIRGDQSPSDRPLSLAVHCVEHDAFIFALCQDHKLRMWSYKEQMCLMVADMLEYVPVKKDLRLTAGTGHKLRLAYSPTMGLYLGIYMHAPKRGQFCIFQLVSTESNRYSLDHISSLFTSQETLIDFALTSTDIWALWHDAENQTVVKYINFEHNVAGQWNPVFMQPLPEEEIVIRDDQDPREMYLQSLFTPGQFTNEALCKALQIFCRGTERNLDLSWSELKKEVTLAVENELQGSVTEYEFSQEEFRNLQQEFWCKFYACCLQYQEALSHPLALHLNPHTNMVCLLKKGYLSFLIPSSLVDHLYLLPYENLLTEDETTISDDVDIARDVICLIKCLRLIEESVTVDMSVIMEMSCYNLQSPEKAAEQILEDMITIDVENVMEDICSKLQEIRNPIHAIGLLIREMDYETEVEMEKGFNPAQPLNIRMNLTQLYGSNTAGYIVCRGVHKIASTRFLICRDLLILQQLLMRLGDAVIWGTGQLFQAQQDLLHRTAPLLLSYYLIKWGSECLATDVPLDTLESNLQHLSVLELTDSGALMANRFVSSPQTIVELFFQEVARKHIISHLFSQPKAPLSQTGLNWPEMITAITSYLLQLLWPSNPGCLFLECLMGNCQYVQLQDYIQLLHPWCQVNVGSCRFMLGRCYLVTGEGQKALECFCQAASEVGKEEFLDRLIRSEDGEIVSTPRLQYYDKVLRLLDVIGLPELVIQLATSAITEAGDDWKSQATLRTCIFKHHLDLGHNSQAYEALTQIPDSSRQLDCLRQLVVVLCERSQLQDLVEFPYVNLHNEVVGIIESRARAVDLMTHNYYELLYAFHIYRHNYRKAGTVMFEYGMRLGREVRTLRGLEKQGNCYLAALNCLRLIRPEYAWIVQPVSGAVYDRPGASPKRNHDGECTAAPTNRQIEILELEDLEKECSLARIRLTLAQHDPSAVAVAGSSSAEEMVTLLVQAGLFDTAISLCQTFKLPLTPVFEGLAFKCIKLQFGGEAAQAEAWAWLAANQLSSVITTKESSATDEAWRLLSTYLERYKVQNNLYHHCVINKLLSHGVPLPNWLINSYKKVDAAELLRLYLNYDLLEEAVDLVSEYVDAVLGKGHQYFGIEFPLSATAPMVWLPYSSIDQLLQALGENSANSHNIALSQKILDKLEDYQQKVDKATRDLLYRRTL,nuclear_pore_complex,NU160_HUMAN
SNTA1_HUMAN,0.3668795232013623,0.5429409607627429,7.273941329195142,22.254113028921086,0.9152144621603412,0.8254416961130742,0.5814315999501185,0.629783053187817,0.7687007874015748,-0.0277180760394278,0.9999180103853512,0.7168927689684136,0.1550352352807456,0.0512632858944334,0.3297961798742642,0.8800101330757844,MASGRRAPRTGLLELRAGAGSGAGGERWQRVLLSLAEDVLTVSPADGDPGPEPGAPREQEPAQLNGAAEPGAGPPQLPEALLLQRRRVTVRKADAGGLGISIKGGRENKMPILISKIFKGLAADQTEALFVGDAILSVNGEDLSSATHDEAVQVLKKTGKEVVLEVKYMKDVSPYFKNSTGGTSVGWDSPPASPLQRQPSSPGPTPRNFSEAKHMSLKMAYVSKRCTPNDPEPRYLEICSADGQDTLFLRAKDEASARSWATAIQAQVNTLTPRVKDELQALLAATSTAGSQDIKQIGWLTEQLPSGGTAPTLALLTEKELLLYLSLPETREALSRPARTAPLIATRLVHSGPSKGSVPYDAELSFALRTGTRHGVDTHLFSVESPQELAAWTRQLVDGCHRAAEGVQEVSTACTWNGRPCSLSVHIDKGFTLWAAEPGAARAVLLRQPFEKLQMSSDDGASLLFLDFGGAEGEIQLDLHSCPKTIVFIIHSFLSAKVTRLGLLA,cell_junction,SNTA1_HUMAN
TCOF_HUMAN,0.2463290662650602,0.4780057730923694,7.656616947000952,21.24681637683144,0.9561091697794916,0.7847957486511703,0.6070866141732284,0.6404820716050053,0.94863327829756,-0.0214811298362212,0.9312789309732452,0.8568203873254293,0.107154829749533,0.1150211020626523,0.3635192127460169,0.8928911792735872,MAEARKRRELLPLIYHHLLRAGYVRAAREVKEQSGQKCFLAQPVTLLDIYTHWQQTSELGRKRKAEEDAALQAKKTRVSDPISTSESSEEEEEAEAETAKATPRLASTNSSVLGADLPSSMKEKAKAETEKAGKTGNSMPHPATGKTVANLLSGKSPRKSAEPSANTTLVSETEEEGSVPAFGAAAKPGMVSAGQADSSSEDTSSSSDETDVEGKPSVKPAQVKASSVSTKESPARKAAPAPGKVGDVTPQVKGGALPPAKRAKKPEEESESSEEGSESEEEAPAGTRSQVKASEKILQVRAASAPAKGTPGKGATPAPPGKAGAVASQTKAGKPEEDSESSSEESSDSEEETPAAKALLQAKASGKTSQVGAASAPAKESPRKGAAPAPPGKTGPAVAKAQAGKREEDSQSSSEESDSEEEAPAQAKPSGKAPQVRAASAPAKESPRKGAAPAPPRKTGPAAAQVQVGKQEEDSRSSSEESDSDREALAAMNAAQVKPLGKSPQVKPASTMGMGPLGKGAGPVPPGKVGPATPSAQVGKWEEDSESSSEESSDSSDGEVPTAVAPAQEKSLGNILQAKPTSSPAKGPPQKAGPVAVQVKAEKPMDNSESSEESSDSADSEEAPAAMTAAQAKPALKIPQTKACPKKTNTTASAKVAPVRVGTQAPRKAGTATSPAGSSPAVAGGTQRPAEDSSSSEESDSEEEKTGLAVTVGQAKSVGKGLQVKAASVPVKGSLGQGTAPVLPGKTGPTVTQVKAEKQEDSESSEEESDSEEAAASPAQVKTSVKKTQAKANPAAARAPSAKGTISAPGKVVTAAAQAKQRSPSKVKPPVRNPQNSTVLARGPASVPSVGKAVATAAQAQTGPEEDSGSSEEESDSEEEAETLAQVKPSGKTHQIRAALAPAKESPRKGAAPTPPGKTGPSAAQAGKQDDSGSSSEESDSDGEAPAAVTSAQVIKPPLIFVDPNRSPAGPAATPAQAQAASTPRKARASESTARSSSSESEDEDVIPATQCLTPGIRTNVVTMPTAHPRIAPKASMAGASSSKESSRISDGKKQEGPATQVSKKNPASLPLTQAALKVLAQKASEAQPPVARTQPSSGVDSAVGTLPATSPQSTSVQAKGTNKLRKPKLPEVQQATKAPESSDDSEDSSDSSSGSEEDGEGPQGAKSAHTLGPTPSRTETLVEETAAESSEDDVVAPSQSLLSGYMTPGLTPANSQASKATPKLDSSPSVSSTLAAKDDPDGKQEAKPQQAAGMLSPKTGGKEAASGTTPQKSRKPKKGAGNPQASTLALQSNITQCLLGQPWPLNEAQVQASVVKVLTELLEQERKKVVDTTKESSRKGWESRKRKLSGDQPAARTPRSKKKKKLGAGEGGEASVSPEKTSTTSKGKAKRDKASGDVKEKKGKGSLGSQGAKDEPEEELQKGMGTVEGGDQSNPKSKKEKKKSDKRKKDKEKKEKKKKAKKASTKDSESPSQKKKKKKKKTAEQTV,nucleolus,TCOF_HUMAN
SHRM2_HUMAN,0.3931806073521577,0.598910310142498,7.805262088581877,22.937001209189845,0.933334904743104,0.7610501965747243,0.6580935251798561,0.6571304724750758,0.956814270067282,-0.0202771898682324,1.0088214923632122,0.8416159761276254,0.3619600352630032,0.0759483598893994,0.3414781906300485,0.8385489438645517,MEGAEPRARPERLAEAETRAADGGRLVEVQLSGGAPWGFTLKGGREHGEPLVITKIEEGSKAAAVDKLLAGDEIVGINDIGLSGFRQEAICLVKGSHKTLKLVVKRRSELGWRPHSWHATKFSDSHPELAASPFTSTSGCPSWSGRHHASSSSHDLSSSWEQTNLQRTLDHFSSLGSVDSLDHPSSRLSVAKSNSSIDHLGSHSKRDSAYGSFSTSSSTPDHTLSKADTSSAENILYTVGLWEAPRQGGRQAQAAGDPQGSEEKLSCFPPRVPGDSGKGPRPEYNAEPKLAAPGRSNFGPVWYVPDKKKAPSSPPPPPPPLRSDSFAATKSHEKAQGPVFSEAAAAQHFTALAQAQPRGDRRPELTDRPWRSAHPGSLGKGSGGPGCPQEAHADGSWPPSKDGASSRLQASLSSSDVRFPQSPHSGRHPPLYSDHSPLCADSLGQEPGAASFQNDSPPQVRGLSSCDQKLGSGWQGPRPCVQGDLQAAQLWAGCWPSDTALGALESLPPPTVGQSPRHHLPQPEGPPDARETGRCYPLDKGAEGCSAGAQEPPRASRAEKASQRLAASITWADGESSRICPQETPLLHSLTQEGKRRPESSPEDSATRPPPFDAHVGKPTRRSDRFATTLRNEIQMHRAKLQKSRSTVALTAAGEAEDGTGRWRAGLGGGTQEGPLAGTYKDHLKEAQARVLRATSFKRRDLDPNPGDLYPESLEHRMGDPDTVPHFWEAGLAQPPSSTSGGPHPPRIGGRRRFTAEQKLKSYSEPEKMNEVGLTRGYSPHQHPRTSEDTVGTFADRWKFFEETSKPVPQRPAQKQALHGIPRDKPERPRTAGRTCEGTEPWSRTTSLGDSLNAHSAAEKAGTSDLPRRLGTFAEYQASWKEQRKPLEARSSGRCHSADDILDVSLDPQERPQHVHGRSRSSPSTDHYKQEASVELRRQAGDPGEPREELPSAVRAEEGQSTPRQADAQCREGSPGSQQHPPSQKAPNPPTFSELSHCRGAPELPREGRGRAGTLPRDYRYSEESTPADLGPRAQSPGSPLHARGQDSWPVSSALLSKRPAPQRPPPPKREPRRYRATDGAPADAPVGVLGRPFPTPSPASLDVYVARLSLSHSPSVFSSAQPQDTPKATVCERGSQHVSGDASRPLPEALLPPKQQHLRLQTATMETSRSPSPQFAPQKLTDKPPLLIQDEDSTRIERVMDNNTTVKMVPIKIVHSESQPEKESRQSLACPAEPPALPHGLEKDQIKTLSTSEQFYSRFCLYTRQGAEPEAPHRAQPAEPQPLGTQVPPEKDRCTSPPGLSYMKAKEKTVEDLKSEELAREIVGKDKSLADILDPSVKIKTTMDLMEGIFPKDEHLLEEAQQRRKLLPKIPSPRSTEERKEEPSVPAAVSLATNSTYYSTSAPKAELLIKMKDLQEQQEHEEDSGSDLDHDLSVKKQELIESISRKLQVLREARESLLEDVQANTVLGAEVEAIVKGVCKPSEFDKFRMFIGDLDKVVNLLLSLSGRLARVENALNNLDDGASPGDRQSLLEKQRVLIQQHEDAKELKENLDRRERIVFDILANYLSEESLADYEHFVKMKSALIIEQRELEDKIHLGEEQLKCLLDSLQPERGK,cell_junction,SHRM2_HUMAN
NOG2_HUMAN,0.2998886457013401,0.4057386602023216,7.14357023035064,21.784887468096624,0.9137249494392352,0.8588603843874354,0.3855903133011567,0.686695141141334,0.8826481140308349,-0.0348187938437615,0.893779915991013,0.8172079075089769,0.2138128335381173,0.0681061338489633,0.3271120040180814,0.8136339584398347,MVKPKYKGRSTINPSKASTNPDRVQGAGGQNMRDRATIRRLNMYRQKERRNSRGKIIKPLQYQSTVASGTVARVEPNIKWFGNTRVIKQSSLQKFQEEMDTVMKDPYKVVMKQSKLPMSLLHDRIRPHNLKVHILDTESFETTFGPKSQRKRPNLFASDMQSLIENAEMSTESYDQGKDRDLVTEDTGVRNEAQEEIYKKGQSKRIWGELYKVIDSSDVVVQVLDARDPMGTRSPHIETYLKKEKPWKHLIFVLNKCDLVPTWATKRWVAVLSQDYPTLAFHASLTNPFGKGAFIQLLRQFGKLHTDKKQISVGFIGYPNVGKSSVINTLRSKKVCNVAPIAGETKVWQYITLMRRIFLIDCPGVVYPSEDSETDIVLKGVVQVEKIKSPEDHIGAVLERAKPEYISKTYKIDSWENAEDFLEKLAFRTGKLLKGGEPDLQTVGKMVLNDWQRGRIPFFVKPPNAEPLVAPQLLPSSSLEVVPEAAQNNPGEEVTETAGEGSESIIKEETEENSHCDANTEMQQILTRVRQNFGKINVVPQFSGDDLVPVEVSDLEEELESFSDEEEEEQEQQRDDAEESSSEPEEENVGNDTKAVIKALDEKIAKYQKFLDKAKAKKFSAVRISKGLSEKIFAKPEEQRKTLEEDVDDRAPSKKGKKRKAQREEEQEHSNKAPRALTSKERRRAVRQQRPKKVGVRYYETHNVKNRNRNKKKTNDSEGQKHKRKKFRQKQ,nucleolus,NOG2_HUMAN
SNTB1_HUMAN,0.2643006888289907,0.5501215246902602,7.702982349360925,22.50251741499413,0.920259636021008,0.8386273397617697,0.5551426182291183,0.6077520047051398,0.7708571428571429,-0.0234519892312294,0.9902507506921968,0.8030928770791259,0.2071778528278552,0.0397880899518586,0.3470529183995411,0.8218726720531775,MAVAAAAAAAGPAGAGGGRAQRSGLLEVLVRDRWHKVLVNLSEDALVLSSEEGAAAYNGIGTATNGSFCRGAGAGHPGAGGAQPPDSPAGVRTAFTDLPEQVPESISNQKRGVKVLKQELGGLGISIKGGKENKMPILISKIFKGLAADQTQALYVGDAILSVNGADLRDATHDEAVQALKRAGKEVLLEVKYMREATPYVKKGSPVSEIGWETPPPESPRLGGSTSDPPSSQSFSFHRDRKSIPLKMCYVTRSMALADPENRQLEIHSPDAKHTVILRSKDSATAQAWFSAIHSNVNDLLTRVIAEVREQLGKTGIAGSREIRHLGWLAEKVPGESKKQWKPALVVLTEKDLLIYDSMPRRKEAWFSPVHTYPLLATRLVHSGPGKGSPQAGVDLSFATRTGTRQGIETHLFRAETSRDLSHWTRSIVQGCHNSAELIAEISTACTYKNQECRLTIHYENGFSITTEPQEGAFPKTIIQSPYEKLKMSSDDGIRMLYLDFGGKDGEIQLDLHSCPKPIVFIIHSFLSAKITRLGLVA,cell_junction,SNTB1_HUMAN
CDK13_HUMAN,0.3314146557449635,0.5169199072881793,7.672922252010724,22.773493975903616,0.9184757747874814,0.8338870130341648,0.6298918387413963,0.656912209889001,0.7878136038402319,-0.0227479526842584,0.9692257325257816,0.7820718889361635,0.4877320247493066,0.135593220338983,0.3488985815342887,0.8752469229600365,MPSSSDTALGGGGGLSWAEKKLEERRKRRRFLSPQQPPLLLPLLQPQLLQPPPPPPPLLFLAAPGTAAAAAAAAAASSSCFSPGPPLEVKRLARGKRRAGGRQKRRRGPRAGQEAEKRRVFSLPQPQQDGGGGASSGGGVTPLVEYEDVSSQSEQGLLLGGASAATAATAAGGTGGSGGSPASSSGTQRRGEGSERRPRRDRRSSSGRSKERHREHRRRDGQRGGSEASKSRSRHSHSGEERAEVAKSGSSSSSGGRRKSASATSSSSSSRKDRDSKAHRSRTKSSKEPPSAYKEPPKAYREDKTEPKAYRRRRSLSPLGGRDDSPVSHRASQSLRSRKSPSPAGGGSSPYSRRLPRSPSPYSRRRSPSYSRHSSYERGGDVSPSPYSSSSWRRSRSPYSPVLRRSGKSRSRSPYSSRHSRSRSRHRLSRSRSRHSSISPSTLTLKSSLAAELNKNKKARAAEAARAAEAAKAAEATKAAEAAAKAAKASNTSTPTKGNTETSASASQTNHVKDVKKIKIEHAPSPSSGGTLKNDKAKTKPPLQVTKVENNLIVDKATKKAVIVGKESKSAATKEESVSLKEKTKPLTPSIGAKEKEQHVALVTSTLPPLPLPPMLPEDKEADSLRGNISVKAVKKEVEKKLRCLLADLPLPPELPGGDDLSKSPEEKKTATQLHSKRRPKICGPRYGETKEKDIDWGKRCVDKFDIIGIIGEGTYGQVYKARDKDTGEMVALKKVRLDNEKEGFPITAIREIKILRQLTHQSIINMKEIVTDKEDALDFKKDKGAFYLVFEYMDHDLMGLLESGLVHFNENHIKSFMRQLMEGLDYCHKKNFLHRDIKCSNILLNNRGQIKLADFGLARLYSSEESRPYTNKVITLWYRPPELLLGEERYTPAIDVWSCGCILGELFTKKPIFQANQELAQLELISRICGSPCPAVWPDVIKLPYFNTMKPKKQYRRKLREEFVFIPAAALDLFDYMLALDPSKRCTAEQALQCEFLRDVEPSKMPPPDLPLWQDCHELWSKKRRRQKQMGMTDDVSTIKAPRKDLSLGLDDSRTNTPQGVLPSSQLKSQGSSNVAPVKTGPGQHLNHSELAILLNLLQSKTSVNMADFVQVLNIKVNSETQQQLNKINLPAGILATGEKQTDPSTPQQESSKPLGGIQPSSQTIQPKVETDAAQAAVQSAFAVLLTQLIKAQQSKQKDVLLEERENGSGHEASLQLRPPPEPSTPVSGQDDLIQHQDMRILELTPEPDRPRILPPDQRPPEPPEPPPVTEEDLDYRTENQHVPTTSSSLTDPHAGVKAALLQLLAQHQPQDDPKREGGIDYQAGDTYVSTSDYKDNFGSSSFSSAPYVSNDGLGSSSAPPLERRSFIGNSDIQSLDNYSTASSHSGGPPQPSAFSESFPSSVAGYGDIYLNAGPMLFSGDKDHRFEYSHGPIAVLANSSDPSTGPESTHPLPAKMHNYNYGGNLQENPSGPSLMHGQTWTSPAQGPGYSQGYRGHISTSTGRGRGRGLPY,nuclear_speckle,CDK13_HUMAN
RBM39_HUMAN,0.2838675086381508,0.4304677129694698,7.505919416348864,20.979101288642585,0.954777501100504,0.8936972772786503,0.4024901728450789,0.6311258635578584,0.7822890622084562,-0.0314799473709858,0.9981173517414496,0.8678952272491977,0.2765109925184485,0.1116271620755925,0.3154401402768962,0.8785448192214393,MADDIDIEAMLEAPYKKDENKLSSANGHEERSKKRKKSKSRSRSHERKRSKSKERKRSRDRERKKSKSRERKRSRSKERRRSRSRSRDRRFRGRYRSPYSGPKFNSAIRGKIGLPHSIKLSRRRSRSKSPFRKDKSPVREPIDNLTPEERDARTVFCMQLAARIRPRDLEEFFSTVGKVRDVRMISDRNSRRSKGIAYVEFVDVSSVPLAIGLTGQRVLGVPIIVQASQAEKNRAAAMANNLQKGSAGPMRLYVGSLHFNITEDMLRGIFEPFGRIESIQLMMDSETGRSKGYGFITFSDSECAKKALEQLNGFELAGRPMKVGHVTERTDASSASSFLDSDELERTGIDLGTTGRLQLMARLAEGTGLQIPPAAQQALQMSGSLAFGAVAEFSFVIDLQTRLSQQTEASALAAAASVQPLATQCFQLSNMFNPQTEEEVGWDTEIKDDVIEECNKHGGVIHIYVDKNSAQGNVYVKCPSIAAAIAAVNALHGRWFAGKMITAAYVPLPTYHNLFPDSMTATQLLVPSRR,nuclear_speckle,RBM39_HUMAN
BMS1_HUMAN,0.3597414857308837,0.4720703309135476,7.367285102318014,22.20179722602071,0.9387336737700088,0.9467441860465116,0.3943234164101945,0.6767400290470339,1.1728555514296324,0.0135913724331511,0.8608490566037735,0.8229116945107399,0.3097999158805504,0.0982638888888888,0.3943238731218698,0.9110145739910314,MEAKDQKKHRKKNSGPKAAKKKKRLLQDLQLGDEEDARKRNPKAFAVQSAVRMARSFHRTQDLKTKKHHIPVVDRTPLEPPPIVVVVMGPPKVGKSTLIQCLIRNFTRQKLTEIRGPVTIVSGKKRRLTIIECGCDINMMIDLAKVADLVLMLIDASFGFEMETFEFLNICQVHGFPKIMGVLTHLDSFKHNKQLKKTKKRLKHRFWTEVYPGAKLFYLSGMVHGEYQNQEIHNLGRFITVMKFRPLTWQTSHPYILADRMEDLTNPEDIRTNIKCDRKVSLYGYLRGAHLKNKSQIHMPGVGDFAVSDISFLPDPCALPEQQKKRCLNEKEKLVYAPLSGVGGVLYDKDAVYVDLGGSHVFQDEVGPTHELVQSLISTHSTIDAKMASSRVTLFSDSKPLGSEDIDNQGLMMPKEEKQMDLNTGRMRRKAIFGDEDESGDSDDEEDDEMSEDDGLENGSSDEEAEEEENAEMTDQYMAVKGIKRRKLELEEDSEMDLPAFADSDDDLERSSAEEGEAEEADESSEEEDCTAGEKGISGSKAAGEGSKAGLSPANCQSDRVNLEKSLLMKKAALPTFDSGHCTAEEVFASEDESEESSSLSAEEEDSENEEAIRKKLSKPSQVSSGQKLGPQNFIDETSDIENLLKEEEDYKEENNDSKETSGALKWKEDLSRKAAEAFLRQQQAAPNLRKLIYGTVTEDNEEEDDDTLEELGGLFRVNQPDRECKHKADSLDCSRFLVEAPHDWDLEEVMNSIRDCFVTGKWEDDKDAAKVLAEDEELYGDFEDLETGDVHKGKSGPNTQNEDIEKEVKEEIDPDEEESAKKKHLDKKRKLKEMFDAEYDEGESTYFDDLKGEMQKQAQLNRAEFEDQDDEARVQYEGFRPGMYVRIEIENVPCEFVQNFDPHYPIILGGLGNSEGNVGYVQMRLKKHRWYKKILKSRDPIIFSVGWRRFQTIPLYYIEDHNGRQRLLKYTPQHMHCGAAFWGPITPQGTGFLAIQSVSGIMPDFRIAATGVVLDLDKSIKIVKKLKLTGFPYKIFKNTSFIKGMFNSALEVAKFEGAVIRTVSGIRGQIKKALRAPEGAFRASFEDKLLMSDIVFMRTWYPVSIPAFYNPVTSLLKPVGEKDTWSGMRTTGQLRLAHGVRLKANKDSLYKPILRQKKHFNSLHIPKALQKALPFKNKPKTQAKAGKVPKDRRRPAVIREPHERKILALLDALSTVHSQKMKKAKEQRHLHNKEHFRAKQKEEEEKLKRQKDLRKKLFRIQGQKERRNQKSSLKGAEGQLQ,nucleolus,BMS1_HUMAN
RRS1_HUMAN,0.3371773750686436,0.4666392092257002,7.44579478417846,22.130844265052136,0.9358404960854264,0.6950774975550484,0.4585035221689457,0.6768315638882614,0.7034011495144292,-0.0345211951820057,0.8906292195517148,0.7447800469080716,0.1808936312104034,0.0346524794446499,0.3276893928002165,0.8621977074693631,MEGQSVEELLAKAEQDEAEKLQRITVHKELELQFDLGNLLASDRNPPTGLRCAGPTPEAELQALARDNTQLLINQLWQLPTERVEEAIVARLPEPTTRLPREKPLPRPRPLTRWQQFARLKGIRPKKKTNLVWDEVSGQWRRRWGYQRARDDTKEWLIEVPGNADPLEDQFAKRIQAKKERVAKNELNRLRNLARAHKMQLPSAAGLHPTGHQSKEELGRAMQVAKVSTASVGRFQERLPKEKVPRGSGKKRKFQPLFGDFAAEKKNQLELLRVMNSKKPQLDVTRATNKQMREEDQEEAAKRRKMSQKGKRKGGRQGPGGKRKGGPPSQGGKRKGGLGGKMNSGPPGLGGKRKGGQRPGGKRRK,nucleolus,RRS1_HUMAN
PGM5_HUMAN,0.3186569917599311,0.4895675689086263,7.73524487233152,22.485361811821026,0.8745820258243737,0.8477523539536297,0.4387409200968523,0.6314934437009244,0.8045012911256014,-0.0438740340520043,1.0147315964329429,0.8148354605566661,0.3852366641622839,0.0509984639016897,0.3212832732767639,0.7472433171324423,MEGSPIPVLTVPTAPYEDQRPAGGGGLRRPTGLFEGQRNYLPNFIQSVLSSIDLRDRQGCTMVVGSDGRYFSRTAIEIVVQMAAANGIGRLIIGQNGILSTPAVSCIIRKIKAAGGIILTASHCPGGPGGEFGVKFNVANGGPAPDVVSDKIYQISKTIEEYAICPDLRIDLSRLGRQEFDLENKFKPFRVEIVDPVDIYLNLLRTIFDFHAIKGLLTGPSQLKIRIDAMHGVMGPYVRKVLCDELGAPANSAINCVPLEDFGGQHPDPNLTYATTLLEAMKGGEYGFGAAFDADGDRYMILGQNGFFVSPSDSLAIIAANLSCIPYFRQMGVRGFGRSMPTSMALDRVAKSMKVPVYETPAGWRFFSNLMDSGRCNLCGEESFGTGSDHLREKDGLWAVLVWLSIIAARKQSVEEIVRDHWAKFGRHYYCRFDYEGLDPKTTYYIMRDLEALVTDKSFIGQQFAVGSHVYSVAKTDSFEYVDPVDGTVTKKQGLRIIFSDASRLIFRLSSSSGVRATLRLYAESYERDPSGHDQEPQAVLSPLIAIALKISQIHERTGRRGPTVIT,cell_junction,PGM5_HUMAN
LIN41_HUMAN,0.3099850968703427,0.465017972681524,7.9363469761759315,22.12300945243976,0.9174514304322022,0.8948691666505502,0.6231831831831832,0.6632052076875388,0.80615462227267,-0.0232201113030128,0.8991403601911219,0.8335768692678377,0.1696107360847245,0.0535718641008755,0.3186077424225019,0.8630506221615035,MASFPETDFQICLLCKEMCGSPAPLSSNSSASSSSSQTSTSSGGGGGGPGAAARRLHVLPCLHAFCRPCLEAHRLPAAGGGAAGEPLKLRCPVCDQKVVLAEAAGMDALPSSAFLLSNLLDAVVATADEPPPKNGRAGAPAGAGGHSNHRHHAHHAHPRASASAPPLPQAPQPPAPSRSAPGGPAASPSALLLRRPHGCSSCDEGNAASSRCLDCQEHLCDNCVRAHQRVRLTKDHYIERGPPGPGAAAAAQQLGLGPPFPGPPFSILSVFPERLGFCQHHDDEVLHLYCDTCSVPICRECTMGRHGGHSFIYLQEALQDSRALTIQLLADAQQGRQAIQLSIEQAQTVAEQVEMKAKVVQSEVKAVTARHKKALEERECELLWKVEKIRQVKAKSLYLQVEKLRQNLNKLESTISAVQQVLEEGRALDILLARDRMLAQVQELKTVRSLLQPQEDDRVMFTPPDQALYLAIKSFGFVSSGAFAPLTKATGDGLKRALQGKVASFTVIGYDHDGEPRLSGGDLMSAVVLGPDGNLFGAEVSDQQNGTYVVSYRPQLEGEHLVSVTLCNQHIENSPFKVVVKSGRSYVGIGLPGLSFGSEGDSDGKLCRPWGVSVDKEGYIIVADRSNNRIQVFKPCGAFHHKFGTLGSRPGQFDRPAGVACDASRRIVVADKDNHRIQIFTFEGQFLLKFGEKGTKNGQFNYPWDVAVNSEGKILVSDTRNHRIQLFGPDGVFLNKYGFEGALWKHFDSPRGVAFNHEGHLVVTDFNNHRLLVIHPDCQSARFLGSEGTGNGQFLRPQGVAVDQEGRIIVADSRNHRVQMFESNGSFLCKFGAQGSGFGQMDRPSGIAITPDGMIVVVDFGNNRILVF,p-body,LIN41_HUMAN
UVSSA_HUMAN,0.4145249783424776,0.3997054491899853,7.760086067778375,21.650608205621605,0.9445063421323278,0.6390863251123371,0.4855164570511105,0.5861708570200629,1.120695652173913,0.0434412265758092,1.074961188733644,0.7897837434750187,0.3344510014306152,0.0576515528112817,0.3772326744462967,0.8386839057712887,MDQKLSKLVEELTTSGEPRLNPEKMKELKKICKSSEEQLSRAYRLLIAQLTQEHAEIRLSAFQIVEELFVRSHQFRMLVVSNFQEFLELTLGTDPAQPLPPPREAAQRLRQATTRAVEGWNEKFGEAYKKLALGYHFLRHNKKVDFQDTNARSLAERKREEEKQKHLDKIYQERASQAEREMQEMSGEIESCLTEVESCFRLLVPFDFDPNPETESLGMASGMSDALRSSCAGQVGPCRSGTPDPRDGEQPCCSRDLPASAGHPRAGGGAQPSQTATGDPSDEDEDSDLEEFVRSHGLGSHKYTLDVELCSEGLKVQENEDNLALIHAARDTLKLIRNKFLPAVCSWIQRFTRVGTHGGCLKRAIDLKAELELVLRKYKELDIEPEGGERRRTEALGDAEEDEDDEDFVEVPEKEGYEPHIPDHLRPEYGLEAAPEKDTVVRCLRTRTRMDEEVSDPTSAAAQLRQLRDHLPPPSSASPSRALPEPQEAQKLAAERARAPVVPYGVDLHYWGQELPTAGKIVKSDSQHRFWKPSEVEEEVVNADISEMLRSRHITFAGKFEPVQHWCRAPRPDGRLCERQDRLKCPFHGKIVPRDDEGRPLDPEDRAREQRRQLQKQERPEWQDPELMRDVEAATGQDLGSSRYSGKGRGKKRRYPSLTNLKAQADTARARIGRKVFAKAAVRRVVAAMNRMDQKKHEKFSNQFNYALN,chromosomes,UVSSA_HUMAN
AMOT_HUMAN,0.3425447919829942,0.375968992248062,7.611907129071875,21.39450731314577,0.9264108512661884,0.7731250083749849,0.6726511071214841,0.6641414141414141,0.7333063581286499,-0.0217928974753838,1.0120294916569654,0.8429200661623952,0.3820932062603829,0.0667938064750488,0.3412256686422575,0.8369517526041244,MRNSEEQPSGGTTVLQRLLQEQLRYGNPSENRSLLAIHQQATGNGPPFPSGSGNPGPQSDVLSPQDHHQQLVAHAARQEPQGQEIQSENLIMEKQLSPRMQNNEELPTYEEAKVQSQYFRGQQHASVGAAFYVTGVTNQKMRTEGRPSVQRLNPGKMHQDEGLRDLKQGHVRSLSERLMQMSLATSGVKAHPPVTSAPLSPPQPNDLYKNPTSSSEFYKAQGPLPNQHSLKGMEHRGPPPEYPFKGMPPQSVVCKPQEPGHFYSEHRLNQPGRTEGQLMRYQHPPEYGAARPAQDISLPLSARNSQPHSPTSSLTSGGSLPLLQSPPSTRLSPARHPLVPNQGDHSAHLPRPQQHFLPNQAHQGDHYRLSQPGLSQQQQQQQQQHHHHHHHQQQQQQQPQQQPGEAYSAMPRAQPSSASYQPVPADPFAIVSRAQQMVEILSDENRNLRQELEGCYEKVARLQKVETEIQRVSEAYENLVKSSSKREALEKAMRNKLEGEIRRMHDFNRDLRERLETANKQLAEKEYEGSEDTRKTISQLFAKNKESQREKEKLEAELATARSTNEDQRRHIEIRDQALSNAQAKVVKLEEELKKKQVYVDKVEKMQQALVQLQAACEKREQLEHRLRTRLERELESLRIQQRQGNCQPTNVSEYNAAALMELLREKEERILALEADMTKWEQKYLEENVMRHFALDAAATVAAQRDTTVISHSPNTSYDTALEARIQKEEEEILMANKRCLDMEGRIKTLHAQIIEKDAMIKVLQQRSRKEPSKTEQLSCMRPAKSLMSISNAGSGLLSHSSTLTGSPIMEEKRDDKSWKGSLGILLGGDYRAEYVPSTPSPVPPSTPLLSAHSKTGSRDCSTQTERGTESNKTAAVAPISVPAPVAAAATAAAITATAATITTTMVAAAPVAVAAAAAPAAAAAPSPATAAATAAAVSPAAAGQIPAAASVASAAAVAPSAAAAAAVQVAPAAPAPVPAPALVPVPAPAAAQASAPAQTQAPTSAPAVAPTPAPTPTPAVAQAEVPASPATGPGPHRLSIPSLTCNPDKTDGPVFHSNTLERKTPIQILGQEPDAEMVEYLI,cell_junction,AMOT_HUMAN
TAF1B_HUMAN,0.3397932816537468,0.5444118771505034,7.351311206719934,23.011109347722584,0.9124462454515382,0.7365297552097758,0.3904839764551995,0.6195923235389786,0.8725074886119925,-0.0344330325660452,0.8501243335618751,0.7587815198754149,0.2823151704272683,0.0796265229695152,0.2912855196574542,0.8484463086837953,MDLEEAEEFKERCTQCAAVSWGLTDEGKYYCTSCHNVTERYQEVTNTDLIPNTQIKALNRGLKKKNNTEKGWDWYVCEGFQYILYQQAEALKNLGVGPELKNDVLHNFWKRYLQKSKQAYCKNPVYTTGRKPTVLEDNLSHSDWASEPELLSDVSCPPFLESGAESQSDIHTRKPFPVSKASQSETSVCSGSLDGVEYSQRKEKGIVKMTMPQTLAFCYLSLLWQREAITLSDLLRFVEEDHIPYINAFQHFPEQMKLYGRDRGIFGIESWPDYEDIYKKTVEVGTFLDLPRFPDITEDCYLHPNILCMKYLMEVNLPDEMHSLTCHVVKMTGMGEVDFLTFDPIAKMAKTVKYDVQAVAIIVVVLKLLFLLDDSFEWSLSNLAEKHNEKNKKDKPWFDFRKWYQIMKKAFDEKKQKWEEARAKYLWKSEKPLYYSFVDKPVAYKKREMVVNLQKQFSTLVESTATAGKKSPSSFQFNWTEEDTDRTCFHGHSLQGVLKEKGQSLLTKNSLYWLSTQKFCRCYCTHVTTYEESNYSLSYQFILNLFSFLLRIKTSLLHEEVSLVEKKLFEKKYSVKRKKSRSKKVRRH,nucleolus,TAF1B_HUMAN
PAN3_HUMAN,0.3863517060367454,0.4370556462755935,7.458199871877002,21.72795555903294,0.9252175357713952,0.8727676505968354,0.6584789796882381,0.6381285881035756,0.7736035296775958,-0.0345260091439977,0.8436265498494152,0.8330939449706001,0.3071842200506696,0.0688563155989866,0.3378420887071406,0.8373194805194806,MNSGGGLPPPSAAASPSSSSLAAAVAVVAPPGVGGVPGGAAVGVKLKYCRYYAKDKTCFYGEECQFLHEDPAAGAAPGLGLHSNSVPLALAGAPVAGFPPGAVAGGGAGPPPGPKKPDLGDPGTGAAAGGGGSSGGLDGPRLAIPGMDGGALTDTSLTDSYFSTSFIGVNGFGSPVETKYPLMQRMTNSSSSPSLLNDSAKPYSAHDPLTSPASSLFNDFGALNISQRRKPRKYRLGMLEERLVPMGSKARKAKNPIGCLADRCKSGVPINMVWWNRVTENNLQTPNPTASEFIPKGGSTSRLSNVSQSNMSAFSQVFSHPSMGSPATAGLAPGMSLSAGSSPLHSPKITPHTSPAPRRRSHTPNPASYMVPSSASTSVNNPVSQTPSSGQVIQKETVGGTTYFYTDTTPAPLTGMVFPNYHIYPPTAPHVAYMQPKANAPSFFMADELRQELINRHLITMAQIDQADMPAVPTEVDSYHSLFPLEPLPPPNRIQKSSNFGYITSCYKAVNSKDDLPYCLRRIHGFRLVNTKCMVLVDMWKKIQHSNIVTLREVFTTKAFAEPSLVFAYDFHAGGETMMSRHFNDPNADAYFTKRKWGQHEGPLPRQHAGLLPESLIWAYIVQLSSALRTIHTAGLACRVMDPTKILITGKTRLRVNCVGVFDVLTFDNSQNNNPLALMAQYQQADLISLGKVVLALACNSLAGIQRENLQKAMELVTINYSSDLKNLILYLLTDQNRMRSVNDIMPMIGARFYTQLDAAQMRNDVIEEDLAKEVQNGRLFRLLAKLGTINERPEFQKDPTWSETGDRYLLKLFRDHLFHQVTEAGAPWIDLSHIISCLNKLDAGVPEKISLISRDEKSVLVVTYSDLKRCFENTFQELIAAANGQL,p-body,PAN3_HUMAN
NOM1_HUMAN,0.3120231877717317,0.5011886244240308,7.663291139240506,22.293465389169985,0.9355988824556016,0.8668896082258295,0.5542794640415641,0.6512065386611313,1.2968248305387085,-0.0236020909234912,0.9270274898246816,0.7562241161515214,0.2971570717839374,0.0740404564315352,0.33379582298817,0.8608621851676194,MAASRSAGEAGPGGSQGRVVRMKRRGGRGPRRGPAGGGEKALKRLKLAVEEFVHATSEGEAPGGCEGRGAPVSFRPGGRKSRKELRKEKRHLRKARRLQRTAGPEQGPGLGGRSGAEEASGHRQDTEERARPAPSRDPSPPRKPRPSRVKAKATAATAKTRPSAAATAAARKRALLAANEEEDREIRKLERCLGLNKRKKKDGSSSVPLSFARDGLDYILGALESGKNSGLYDSSGEEEEDAGQTLPESDLESDSQDESEEEEEGDVEKEKKAQEAEAQSEDDDEDTEEEQGEEKEKGAQEKRRGKRVRFAEDEEKSENSSEDGDITDKSLCGSGEKYIPPHVRQAEETVDFKKKEELERLKKHVKGLLNRLSEPNMASISGQLEELYMAHSRKDMNDTLTSALMGACVTASAMPSRLMMEHVLLVSILHHTVGIEVGAHFLEAVVRKFDAIYKYGSEGKECDNLFTVIAHLYNFHVVQSLLIFDILKKLIGTFTEKDIELILLMLKNVGFSLRKDDALSLKELITEAQTKASGAGSEFQDQTRIRFMLETMLALKNNDMRKIPGYDPEPVEKLRKLQRALVRNAGSGSETQLRVSWDSVLSAEQTGRWWIVGSAWSGAPMIDNSHHTHLQKQLVGTVSSKILELARKQRMNTDIRRNIFCTIMTSEDFLDAFEKLLKLGLKDQQEREIIHVLMDCCLQEKTYNPFYAFLASKFCEYERRFQMTFQFSIWDKFRDLENLPATNFSNLVHLVAHLLKTKSLSLSILKVVEFSELDKPRVRFLRKVLSILLMETEVEDLSLIFTRVSDNPKLGVLREGLKLFISHFLLKNAQAHRSADEANVLREKADLATKCLQGKASLRM,nucleolus,NOM1_HUMAN
FA76B_HUMAN,0.372015081692501,0.4613969032913106,7.060538718894234,21.766076716965166,0.9149029896673468,0.7306583104045654,0.5221674876847291,0.645246649312652,0.6031746031746031,-0.0323435843054082,0.9604474630443468,0.7369002005964826,0.3545213448541364,0.0461117289759603,0.2941867293012331,0.8252304305956802,MAASALYACTKCTQRYPFEELSQGQQLCKECRIAHPIVKCTYCRSEFQQESKTNTICKKCAQNVKQFGTPKPCQYCNIIAAFIGTKCQRCTNSEKKYGPPQTCEQCKQQCAFDRKEEGRRKVDGKLLCWLCTLSYKRVLQKTKEQRKSLGSSHSNSSSSSLTEKDQHHPKHHHHHHHHHHRHSSSHHKISNLSPEEEQGLWKQSHKSSATIQNETPKKKPKLESKPSNGDSSSINQSADSGGTDNFVLISQLKEEVMSLKRLLQQRDQTILEKDKKLTELKADFQYQESNLRTKMNSMEKAHKETVEQLQAKNRELLKQVAALSKGKKFDKSGSILTSP,nuclear_speckle,FA76B_HUMAN
NU188_HUMAN,0.3169350145489816,0.4588404753330932,7.914318181818182,22.720707343412528,0.9292110683263186,0.846215286311133,0.4632070224651174,0.6727944900232958,1.0366677054118625,-0.0293931109896118,0.9865456418179476,0.7932798818440764,0.3622084721561161,0.1089957163255592,0.2867180535892192,0.8263276604469961,MAAAAGGPCVRSSRELWTILLGRSALRELSQIEAELNKHWRRLLEGLSYYKPPSPSSAEKVKANKDVASPLKELGLRISKFLGLDEEQSVQLLQCYLQEDYRGTRDSVKTVLQDERQSQALILKIADYYYEERTCILRCVLHLLTYFQDERHPYRVEYADCVDKLEKELVSKYRQQFEELYKTEAPTWETHGNLMTERQVSRWFVQCLREQSMLLEIIFLYYAYFEMAPSDLLVLTKMFKEQGFGSRQTNRHLVDETMDPFVDRIGYFSALILVEGMDIESLHKCALDDRRELHQFAQDGLICQDMDCLMLTFGDIPHHAPVLLAWALLRHTLNPEETSSVVRKIGGTAIQLNVFQYLTRLLQSLASGGNDCTTSTACMCVYGLLSFVLTSLELHTLGNQQDIIDTACEVLADPSLPELFWGTEPTSGLGIILDSVCGMFPHLLSPLLQLLRALVSGKSTAKKVYSFLDKMSFYNELYKHKPHDVISHEDGTLWRRQTPKLLYPLGGQTNLRIPQGTVGQVMLDDRAYLVRWEYSYSSWTLFTCEIEMLLHVVSTADVIQHCQRVKPIIDLVHKVISTDLSIADCLLPITSRIYMLLQRLTTVISPPVDVIASCVNCLTVLAARNPAKVWTDLRHTGFLPFVAHPVSSLSQMISAEGMNAGGYGNLLMNSEQPQGEYGVTIAFLRLITTLVKGQLGSTQSQGLVPCVMFVLKEMLPSYHKWRYNSHGVREQIGCLILELIHAILNLCHETDLHSSHTPSLQFLCICSLAYTEAGQTVINIMGIGVDTIDMVMAAQPRSDGAEGQGQGQLLIKTVKLAFSVTNNVIRLKPPSNVVSPLEQALSQHGAHGNNLIAVLAKYIYHKHDPALPRLAIQLLKRLATVAPMSVYACLGNDAAAIRDAFLTRLQSKIEDMRIKVMILEFLTVAVETQPGLIELFLNLEVKDGSDGSKEFSLGMWSCLHAVLELIDSQQQDRYWCPPLLHRAAIAFLHALWQDRRDSAMLVLRTKPKFWENLTSPLFGTLSPPSETSEPSILETCALIMKIICLEIYYVVKGSLDQSLKDTLKKFSIEKRFAYWSGYVKSLAVHVAETEGSSCTSLLEYQMLVSAWRMLLIIATTHADIMHLTDSVVRRQLFLDVLDGTKALLLVPASVNCLRLGSMKCTLLLILLRQWKRELGSVDEILGPLTEILEGVLQADQQLMEKTKAKVFSAFITVLQMKEMKVSDIPQYSQLVLNVCETLQEEVIALFDQTRHSLALGSATEDKDSMETDDCSRSRHRDQRDGVCVLGLHLAKELCEVDEDGDSWLQVTRRLPILPTLLTTLEVSLRMKQNLHFTEATLHLLLTLARTQQGATAVAGAGITQSICLPLLSVYQLSTNGTAQTPSASRKSLDAPSWPGVYRLSMSLMEQLLKTLRYNFLPEALDFVGVHQERTLQCLNAVRTVQSLACLEEADHTVGFILQLSNFMKEWHFHLPQLMRDIQVNLGYLCQACTSLLHSRKMLQHYLQNKNGDGLPSAVAQRVQRPPSAASAAPSSSKQPAADTEASEQQALHTVQYGLLKILSKTLAALRHFTPDVCQILLDQSLDLAEYNFLFALSFTTPTFDSEVAPSFGTLLATVNVALNMLGELDKKKEPLTQAVGLSTQAEGTRTLKSLLMFTMENCFYLLISQAMRYLRDPAVHPRDKQRMKQELSSELSTLLSSLSRYFRRGAPSSPATGVLPSPQGKSTSLSKASPESQEPLIQLVQAFVRHMQR,nuclear_pore_complex,NU188_HUMAN
PPR26_HUMAN,0.3104814534838255,0.5017701352889113,7.776788238620299,21.73168518938535,0.9567818337199364,0.7857560821911642,0.5826912055021334,0.6742757532995767,0.8198704910547507,-0.0252091679611915,0.978845022790766,0.7951927891837757,0.3109240422463852,0.0794249456449394,0.357219043925143,0.8495270851246776,MFLMNASPVVALQSKWEAFGPPGSCRFPRCFSEADEGVESASVSARVQMLISTLQRDGAARGTSDERAAQRGHRAEGCHDARPAAKPTVHKEPPALAVCGLVADFDPMGEEETTDFGPLVLDSDSDDSVDRDIEEAIQEYLKAKSGAAQPGAGGAQPGAAQPSRAAGGGSRCKPEPAHGSAPTALCPPKLVPGSGGGPGSQVGSSKDQGSASPVSVSSDDSFEQSIRAEIEQFLNEKRQHETQKCDGSVEKKPDTNENSAKSLLKSHQEPPTKVVHRQGLLGVQKEFAFRKPPRLAKMNVQPRSLRSKVTTTQENEGSTKPATPCRPSEAAQNKGGIKRSASAARRGKRVMSAAQASEASDSSSDDGIEEAIQLYQLQKTRKEADGDLPQRVQLREERAPDPPAHSTSSATKSALPETHRKTPSKKKLVATKTMDPGPGGLDTDHAPKLLKETKAPPPASPASRSEFVERSSCRADTSAELMCAEAILDISKTILPAPVEGSDGSLSASPLFYSPNVPSRSDGDSSSVDSDDSIEQEIRTFLALKAQSGSLLARGESCPQAAQGPLLPPGLNSQTGGHKTPLSKTPDPLLGCKRKRRGGGHVRPSTPKKMQEVVKDGSQDADHSQGRAEPGHERRDLPIQGKASEALGGEGTARGPGDTRMSQGQGKTDEARRLDEKESSEDKSSSLDSDEDLDTAIKDLLRSKRKLKKRCREPRAACRKKVRFSTAQTHFLEQLGGLRRDWKDRGPPVLKSCLSKSKRDSGEGPGKKPPSVFGSTAERMRQEGAASQDAALAFRVRRPASASASEGNPFPRESQGPAPSPGSLSDDSSSVDSNDSIELEIRKFLAEKAKESVSSSEVQAEGPTALGTGGPARPEVLCRKEPAPPPGVCTRSQRARGVPHLAEGLRGTESAGAQGTAGLFSQGGKGLPAAPARGDPVPPRSTSGGVSAKGLSVSRRNVYVHKDQSPRGAEPAAKSAFGQLPSCATAGTEAGGARGTFHMGCGSPSFLTPSPGAERDAGAQADRTPPWSDFAHQSRLPSPWVLRSEGRDAVWRGGVGSERDKGSEGPARGLPSLPLAGFSPLLSTQLFHFGKGVSWGGRQAGLFSPHLGLPLQGPSFSAFREAQAGPSPVFGSPHLLAKKDGGPWPTRKAQAGLSLHDRRSSGSEESILDLRYRRRVNRDDQEQDALGSDASDFSDTSTEDSGGSSVVKV,nucleolus,PPR26_HUMAN
UT14C_HUMAN,0.3325577788118504,0.5141452527446013,7.324651233705182,21.627150265621047,0.9256239396374676,0.6695319131870409,0.4628261606235174,0.6147386101196725,0.9099600993751412,-0.0240688685874912,0.9859566998244588,0.7485892807761011,0.3238593463488297,0.0393387689191522,0.3325421314977451,0.8318715342419385,MNVNQVAENLALSHQEELVDLPKNYPLSENEDEGDSDGERKHQKLLEAIISLDGKNRRKLAERSEASLKVSEFSVSSEGSGEKLGLADLLEPVKTSSSLATVKKQLNRVKSKKVVELPLNKEKIEQIHREVAFSKTSQVLSKWDPIILKNQQAEQLVFPLGKEQPAIAPIEHALSGWKARTPLEQEIFNLLHKNKQPVTDPLLTPMEKASLQAMSLEEAKMHRAELQRARALQSYYEAKARKEKKIKSKKYHKVVKKGKAKKALKEFEQLQKVNPTVALEEMEKIENARMMERMSLKHQNSGKWAKSKAIMAKYDLEARQAMQEQLAKNKELTQKLQVASESEEEEGGTEVEELLVPHVANEVQMNVDGPNPWMFRSCTSDTKEAATQEDPEQVPELAAHEVSASEAEERPVAEEEILLREFEERQSLRKRSELNQDAEPASSQETKDSSSQEVLSELRALSQKLKEKHQSRKQKASSEGTVPQVQREEPAPEEAEPLLLQRSERVQTLEELEELGKEDCFQNKELPRPVLEGQQSERTPNNRPDAPKEKKEKEQLINLQNFLTTQSPSVRSLAVPTIIEELEDEEERDQRQMIKEAFAGDDVIRDFLKEKREAVEASKPKDVDLTLPGWGEWGGVGLKPSAKKRRQFLIKAPEGPPRKDKNLPNVIISEKRNIHAAAHQVQVLPYPFTHHRQFERTIQTPIGSTWNTQRAFQKLTTPKVVTKPGHIIKPIKAEDVGYQSSSRSDLPVIQRNPKRITTRHNKEEKL,nucleolus,UT14C_HUMAN
SHOC1_HUMAN,0.3363588141686803,0.488483345145287,7.305937155924451,23.150125721047186,0.922747562638109,0.8883448401162791,0.3330999586290297,0.6434856381044722,0.8122173000699464,-0.0213412844682874,0.9385243357337968,0.7946235015975406,0.4152588555858311,0.0880619012527634,0.3075965130759651,0.816974400763207,MTDTSVLDQWKASFFVEDFLEKKTITRMVTQINCEFEEVVPSSNPDSQIEVEEVSLYTHMDYNEVFTPVSCLEKCSALQNQNQDLFIDDKGILFVSSRKHLPTLPTLLSRLKLFLVKDPLLDFKGQIFTEANFSRECFSLQETLEAFVKEDFCMDKVNFCQEKLEDTICLNEPSSFLIEYEFLIPPSLKPEIDIPSLSELKELLNPVPEIINYVDEKEKLFERDLTNKHGIEDIGDIKFSSTEILTIQSQSEPEECSKPGELEMPLTPLFLTCQHSSVNSLRTELQTFPLSPVCKINLLTAEESANEYYMMWQLERCRSPLNPFLLTVPRIQEPHSQYSVTDLKKIFSVKEESLVINLEKAEWWKQAGLNLKMMETLEHLNTYLCHDNLSSNDTKIEIFLPTKVLQLESCLEHKSHSSPIALIDEKSTNAHLSLPQKSPSLAKEVPDLCFSDDYFSDKGAAKEEKPKNDQEPVNRIIQKKENNDHFELDCTGPSIKSPSSSIIKKASFEHGKKQENDLDLLSDFIMLRNKYKTCTSKTEVTNSDEKHDKEACSLTLQEESPIVHINKTLEEINQERGTDSVIEIQASDSQCQAFCLLEAAASPILKNLVSLCTLPTANWKFATVIFDQTRFLLKEQEKVVSDAVRQGTIDEREMTFKHAALLHLLVTIRDVLLTCSLDTALGYLSKAKDIYNSILGPYLGDIWRQLEIVQFIRGKKPETNYKIQELQCQILSWMQSQQQIKVLIIIRMDSDGEKHFLIKILNKIEGLTLTVLHSNERKDFLESEGVLRGTSSCVVVHNQYIGADFPWSNFSFVVEYNYVEDSCWTKHCKELNIPYMAFKVILPDTVLERSTLLDRFGGFLLEIQIPYVFFASEGLLNTPDILQLLESNYNISLVERGCSESLKLFGSSECYVVVTIDEHTAIILQDLEELNYEKASDNIIMRLMALSLQYRYCWIILYTKETLNSEYLLTEKTLHHLALIYAALVSFGLNSEELDVKLIIAPGVEATALIIRQIADHSLMTSKRDPHEWLDKSWLKVSPSEEEMYLLDFPCINPLVAQLMLNKGPSLHWILLATLCQLQELLPEVPEKVLKHFCSITSLFKIGSSSITKSPQISSPQENRNQISTLSSQSSASDLDSVIQEHNEYYQYLGLGETVQEDKTTILNDNSSIMELKEISSFLPPVTSYNQTSYWKDSSCKSNIGQNTPFLINIESRRPAYNSFLNHSDSESDVFSLGLTQMNCETIKSPTDTQKRVSVVPRFINSQKRRTHEAKGFINKDVSDPIFSLEGTQSPLHWNFKKNIWEQENHPFNLQYGAQQTACNKLYSQKGNLFTDQQKCLSDESEGLTCESSKDETFWRELPSVPSLDLFRASDSNANQKEFNSLYFYQRAGKSLGQKRHHESSFNSGDKESLTGFMCSQLPQFKKRRLAYEKVPGRVDGQTRLRFF,chromosomes,SHOC1_HUMAN
OBI1_HUMAN,0.3032204930137453,0.5520665593129361,7.01103500761035,22.24492361245407,0.924427781099673,0.8402959462120573,0.3875407784779014,0.628124067998807,0.7778844087946716,-0.028071245759181,0.963383516203113,0.8131174173938107,0.4688899950223992,0.112265642647391,0.3451620926954647,0.804364857302742,MAQTVQNVTLSLTLPITCHICLGKVRQPVICINNHVFCSICIDLWLKNNSQCPACRVPITPENPCKEIIGGTSESEPMLSHTVRKHLRKTRLELLHKEYEDEIDCLQKEVEELKSKNLSLESQIKTILDPLTLVQGNQNEDKHLVTDNPSKINPETVAEWKKKLRTANEIYEKVKDDVDKLKEANKKLKLENGGLVRENLRLKAEVDNRSPQKFGRFAVAALQSKVEQYERETNRLKKALERSDKYIEELESQVAQLKNSSEEKEAMNSICQTALSADGKGSKGSEEDVVSKNQGDSARKQPGSSTSSSSHLAKPSSSRLCDTSSARQESTSKADLNCSKNKDLYQEQVEVMLDVTDTSMDTYLEREWGNKPSDCVPYKDEELYDLPAPCTPLSLSCLQLSTPENRESSVVQAGGSKKHSNHLRKLVFDDFCDSSNVSNKDSSEDDISRSENEKKSECFSSPKTGFWDCCSTSYAQNLDFESSEGNTIANSVGEISSKLSEKSGLCLSKRLNSIRSFEMNRTRTSSEASMDAAYLDKISELDSMMSESDNSKSPCNNGFKSLDLDGLSKSSQGSEFLEEPDKLEEKTELNLSKGSLTNDQLENGSEWKPTSFFLLSPSDQEMNEDFSLHSSSCPVTNEIKPPSCLFQTEFSQGILLSSSHRLFEDQRFGSSLFKMSSEMHSLHNHLQSPWSTSFVPEKRNKNVNQSTKRKIQSSLSSASPSKATKS,chromosomes,OBI1_HUMAN
USPL1_HUMAN,0.3227417158420336,0.5037159372419489,7.654136512729734,23.39652677279305,0.9048396010421328,0.7629606787770054,0.5495134516313681,0.6380527684875511,0.7447384245339748,-0.0461679737913233,0.9237740621048196,0.8054891395857888,0.3508936970837253,0.1024354552106198,0.3360614831819543,0.7856474523169416,MMDSPKIGNGLPVIGPGTDIGISSLHMVGYLGKNFDSAKVPSDEYCPACREKGKLKALKTYRISFQESIFLCEDLQCIYPLGSKSLNNLISPDLEECHTPHKPQKRKSLESSYKDSLLLANSKKTRNYIAIDGGKVLNSKHNGEVYDETSSNLPDSSGQQNPIRTADSLERNEILEADTVDMATTKDPATVDVSGTGRPSPQNEGCTSKLEMPLESKCTSFPQALCVQWKNAYALCWLDCILSALVHSEELKNTVTGLCSKEESIFWRLLTKYNQANTLLYTSQLSGVKDGDCKKLTSEIFAEIETCLNEVRDEIFISLQPQLRCTLGDMESPVFAFPLLLKLETHIEKLFLYSFSWDFECSQCGHQYQNRHMKSLVTFTNVIPEWHPLNAAHFGPCNNCNSKSQIRKMVLEKVSPIFMLHFVEGLPQNDLQHYAFHFEGCLYQITSVIQYRANNHFITWILDADGSWLECDDLKGPCSERHKKFEVPASEIHIVIWERKISQVTDKEAACLPLKKTNDQHALSNEKPVSLTSCSVGDAASAETASVTHPKDISVAPRTLSQDTAVTHGDHLLSGPKGLVDNILPLTLEETIQKTASVSQLNSEAFLLENKPVAENTGILKTNTLLSQESLMASSVSAPCNEKLIQDQFVDISFPSQVVNTNMQSVQLNTEDTVNTKSVNNTDATGLIQGVKSVEIEKDAQLKQFLTPKTEQLKPERVTSQVSNLKKKETTADSQTTTSKSLQNQSLKENQKKPFVGSWVKGLISRGASFMPLCVSAHNRNTITDLQPSVKGVNNFGGFKTKGINQKASHVSKKARKSASKPPPISKPPAGPPSSNGTAAHPHAHAASEVLEKSGSTSCGAQLNHSSYGNGISSANHEDLVEGQIHKLRLKLRKKLKAEKKKLAALMSSPQSRTVRSENLEQVPQDGSPNDCESIEDLLNELPYPIDIASESACTTVPGVSLYSSQTHEEILAELLSPTPVSTELSENGEGDFRYLGMGDSHIPPPVPSEFNDVSQNTHLRQDHNYCSPTKKNPCEVQPDSLTNNACVRTLNLESPMKTDIFDEFFSSSALNALANDTLDLPHFDEYLFENY,cajal_body,USPL1_HUMAN
SLIP_HUMAN,0.3373430503117042,0.4967762604621361,7.421668853189435,22.40620043258832,0.9387219075461356,0.8729221874247169,0.3302687411598303,0.67556147820717,0.8367400851963147,-0.0258588382261086,0.8519311663479924,0.7428503320279244,0.3271289453691553,0.0623945223974155,0.3333527935080857,0.8477835446269038,MAETKDVFGQEPHPVEDDLYKERTRKRRKSDRDQRFRAFPSMEQSALKEYEKLESRTRRVLSNTYQKLIQSVFLDDSIPNGVKYLINRLLALIEKPTVDPIYIALFGSTGAGKSSLINAIIQQAMFLPVSGESICTSCIVQVSSGCCVQYEAKIHLLSDQEWREELKNLTKLLHRTEELSREEADAWNRDEAVEEATWKLQMIYGNGAESKNYEELLRAKPKRKIPTSRVITLKAEEAEELSIKLDPYIRTQRRDWDGEAAEMRIWPLIKHVEVTLPKSDLIPEGVVLVDIPGTGDFNSKRDEMWKKTIDKCSVIWVISDIERVSGGQAHEDLLNESIKACQRGFCRDVALVVTKMDKLHLPEYLRERKAGNQAIQSQREAVLERNEMIKLQRTRILKEKLKRKLPADFKVLEASDLVYTVSAQEYWQQALLTEEETEIPKLREYIRKSLLDKKKRTVTKYVTEAFGLLLLTDSFNSTQNLPNEHLHMSVLRRFAEEKVELLEKAIAQCFACMEQPLQEGVRTARTSYRCILRACLVRSKGNQGFHQTLKAVCLKNGIYASRTLARIDLNEALTQPVYDQIDPVFGSIFRTGKPTGSALMPHIDAFKQSLQEKMTEIGIRSGWKYDSCKKNFLIQEISAILGGLEDHILRRKRRIYESLTASVQSDLKLCYEEAAQITGKKACERMKDAIRRGVDRQVAEGMFERAQERMQHQFQQLKTGIVEKVKGSITTMLALASSQGDGLYKELADVGSEYKEMEKLHRSLREVAENARLRKGMQEFLLRASPSKAGPPGTSL,nuclear_speckle,SLIP_HUMAN
UTP25_HUMAN,0.2736045343664801,0.3996788709779646,7.62179443575267,22.72110525159305,0.9064432365059032,0.7892968002427241,0.5387373682494838,0.6556064613640658,0.9111607142857144,-0.0350420504605526,0.9508127208480566,0.7746516448110982,0.3826509075559308,0.0668989028962265,0.330890860007713,0.80800674505789,MGKRGSRSQSQLLNTLTKKQKKHLRDFGEEHPFYDRVSRKEAKPQICQLSESSDSSDSESDSESEPQQVSGYHRLLATLKNVSEEEEEDEEEEEEEDSIVDDAEMNDEDGGSDVSVEEEMAAESTESPENVALSADPEGKEDGEEPPGTSQTSPEEFTDAKHESLFSLETNFLEEESGDNSSLKASQDPFLQHVNKELKEKAIQAVATNPKTTHELKWPILGQLFFSSKFQKLETFKPPKDIDLKSLHLQKPLESTWTKTNSQFLSGPQKSSSPFTPLQKELFLIMNSYRDLFYPERTALKNGEEIRHVYCLHVINHILKANAQVLGNNSRRRSQKFGVGDDDDFRDQGLTRPKVLIVVPFREAALRVVQLFISLLEGDSKKKIIVSNKKRFQGEYGSDPEERPPNLKRPEDYEAVFVGNIDDHFRIGVAILQRSIRLYAPFYSSDILIASPLGLRTIIGGEGEKKRDFDFLSSIELLIIDQADIYLMQNWEHVLHLMNHMNLLPLDSHGVDFSRVRMWSLNNWSKYYRQTLLFGALQDAQINSVFNKYCVNMQGQVAVRNVPMTGSISHVLVQLPHVFQRMEAENLASVIDARFNFFVNKILPQYRDAVMSHTLIYIPSYFDFVRLRNYFKKEELNFTHICEYTQKSGVSRARHFFLQGEKQFLLFTERFHFYKRYTIKGIRNLIFYELPTYPHFYSEICNMLRATNRGEEATWTCTVLYSKYDAQRLAAVVGVERAAQMLQSNKNVHLFITGEK,nucleolus,UTP25_HUMAN
TENS3_HUMAN,0.2862214108220498,0.5055436274682341,7.50472781901732,22.74360091493301,0.9389902310292144,0.9345728072665342,0.6015582533067585,0.6912772981208736,0.8364928909952607,-0.0323586165949235,1.0526852914912617,0.8104819392545751,0.3368258991575076,0.0735299323821998,0.3267354421726431,0.8751050264419513,MEEGHGLDLTYITERIIAVSFPAGCSEESYLHNLQEVTRMLKSKHGDNYLVLNLSEKRYDLTKLNPKIMDVGWPELHAPPLDKMCTICKAQESWLNSNLQHVVVIHCRGGKGRIGVVISSYMHFTNVSASADQALDRFAMKKFYDDKVSALMQPSQKRYVQFLSGLLSGSVKMNASPLFLHFVILHGTPNFDTGGVCRPFLKLYQAMQPVYTSGIYNVGPENPSRICIVIEPAQLLKGDVMVKCYHKKYRSATRDVIFRLQFHTGAVQGYGLVFGKEDLDNASKDDRFPDYGKVELVFSATPEKIQGSEHLYNDHGVIVDYNTTDPLIRWDSYENLSADGEVLHTQGPVDGSLYAKVRKKSSSDPGIPGGPQAIPATNSPDHSDHTLSVSSDSGHSTASARTDKTEERLAPGTRRGLSAQEKAELDQLLSGFGLEDPGSSLKEMTDARSKYSGTRHVVPAQVHVNGDAALKDRETDILDDEMPHHDLHSVDSLGTLSSSEGPQSAHLGPFTCHKSSQNSLLSDGFGSNVGEDPQGTLVPDLGLGMDGPYERERTFGSREPKQPQPLLRKPSVSAQMQAYGQSSYSTQTWVRQQQMVVAHQYSFAPDGEARLVSRCPADNPGLVQAQPRVPLTPTRGTSSRVAVQRGVGSGPHPPDTQQPSPSKAFKPRFPGDQVVNGAGPELSTGPSPGSPTLDIDQSIEQLNRLILELDPTFEPIPTHMNALGSQANGSVSPDSVGGGLRASSRLPDTGEGPSRATGRQGSSAEQPLGGRLRKLSLGQYDNDAGGQLPFSKCAWGKAGVDYAPNLPPFPSPADVKETMTPGYPQDLDIIDGRILSSKESMCSTPAFPVSPETPYVKTALRHPPFSPPEPPLSSPASQHKGGREPRSCPETLTHAVGMSESPIGPKSTMLRADASSTPSFQQAFASSCTISSNGPGQRRESSSSAERQWVESSPKPMVSLLGSGRPTGSPLSAEFSGTRKDSPVLSCFPPSELQAPFHSHELSLAEPPDSLAPPSSQAFLGFGTAPVGSGLPPEEDLGALLANSHGASPTPSIPLTATGAADNGFLSHNFLTVAPGHSSHHSPGLQGQGVTLPGQPPLPEKKRASEGDRSLGSVSPSSSGFSSPHSGSTISIPFPNVLPDFSKASEAASPLPDSPGDKLVIVKFVQDTSKFWYKADISREQAIAMLKDKEPGSFIVRDSHSFRGAYGLAMKVATPPPSVLQLNKKAGDLANELVRHFLIECTPKGVRLKGCSNEPYFGSLTALVCQHSITPLALPCKLLIPERDPLEEIAESSPQTAANSAAELLKQGAACNVWYLNSVEMESLTGHQAIQKALSITLVQEPPPVSTVVHFKVSAQGITLTDNQRKLFFRRHYPVNSVIFCALDPQDRKWIKDGPSSKVFGFVARKQGSATDNVCHLFAEHDPEQPASAIVNFVSKVMIGSPKKV,cell_junction,TENS3_HUMAN
SPT2_HUMAN,0.2579131394920869,0.3643038312641837,7.7810287871637565,20.755333314445988,0.9415224535829928,0.8060107880059386,0.47708959711365,0.6198861098704779,1.054959785522788,-0.028339622946448,0.8434898139946856,0.8868825161887142,0.4368218995159406,0.0596795157288154,0.354534941351396,0.8602621876280213,MDFREILMIASKGQGVNNVPKRYSLAVGPPKKDPKVKGVQSAAVQAFLKRKEEELRRKALEEKRRKEELVKKRIELKHDKKARAMAKRTKDNFHGYNGIPIEEKSKKRQATESHTSQGTDREYEMEEENEFLEYNHAESEQEYEEEQEPPKVESKPKVPLKSAPPPMNFTDLLRLAEKKQFEPVEIKVVKKSEERPMTAEELREREFLERKHRRKKLETDGKLPPTVSKKAPSQKESVGTKLSKGSGDRHPSSKGMPLPHAEKKSRPSMANEKHLALSSSKSMPGERIKAGSGNSSQPSLREGHDKPVFNGAGKPHSSTSSPSVPKTSASRTQKSAVEHKAKKSLSHPSHSRPGPMVTPHNKAKSPGVRQPGSSSSSAPGQPSTGVARPTVSSGPVPRRQNGSSSSGPERSISGSKKPTNDSNPSRRTVSGTCGPGQPASSSGGPGRPISGSVSSARPLGSSRGPGRPVSSPHELRRPVSGLGPPGRSVSGPGRSISGSIPAGRTVSNSVPGRPVSSLGPGQTVSSSGPTIKPKCTVVSETISSKNIISRSSNGQMNGMKPPLSGYRAAQGPQRLPFPTGYKRQREYEEEDDDDDEYDSEMEDFIEDEGEPQEEISKHIREIFGYDRKKYKDESDYALRYMESSWKEQQKEEAKSLRLGMQEDLEEMRREEEEMQRRRAKKLKRR,nucleolus,SPT2_HUMAN
RADX_HUMAN,0.3046274358106474,0.458968524838832,7.407955124936257,22.4603717054445,0.874924653405666,0.8604549907477957,0.485330836454432,0.6881046817659487,0.926056891403426,-0.0307453416149068,0.9839476669804716,0.8484965758610826,0.2719326027744346,0.0729326629783116,0.3351984161143152,0.7534479374071062,MSGESGQPEAGPSHAGLDWPNPERNRAGVPGGVIRRAGSQGPRSWIQKVLEQIMDSPRQCVTPSEVVPVTVLAVQRYLLEDEPRDTVPKPPLYCYDVTISDGVYQEKCYLDPSLNSLVYQNILKVGIQMRISRVSCLYNEKRIGQGILCIDNVHCGETSDSISLETPFRNRAHQEKPERPLRGGKSHYLALWNNEDPYGDIWLTDKQPEEHNFSDTKIISLSHLEMTWTNRRNFPALLVRILHKSKLRYYGKPDKKMIEPYQTFLEVADSSGTVSVIMWNALCPEWYKSLRVGLVLLLQDYSVKKSYPFRIQPVPVDPQIKLISTMEICLNLRDPPTNIIIIPEKQVKPEWRLPKLNHRFTTRSELDDMPENCICDVIGLLVFVGRVQRSKKKENREDFWSYRWIHIADGTSEQPFIVELFSTSQPEIFENIYPMAYFVCTQLKVVRNDNQVPKLLYLTTTNESGVFITGHRGQPYTYDAKVKNFIQWIRTKSDSGEQKNMVIGGYYPYPPVPETFSKYSSSIKVESLLTAISEVRKEIEDLQYREQKRIAIQGIITAIKYIPHSSATESASASETLRNANRPSTSQAARVEIQERNGKRHQDDEPVNSQYFQTTSTNLSLSNKIRILQGPHANPVAVPQPGASVQTKGIKPGMPSIFNRRANINANLQGKARKTISDRWESQLWREKKFGLIDHLHYSRVYPESIPRKFMFEHRKFLSDQYNSQPAKYVPPEGRPPKLDDFKSARSLGHFEVTILGLNHEIAIDVAFLPMYCPEDIRTSQIDTLLTSMNYSCAYPQDTTGNDRLPGPRAVAGDIIKAATELDRVHIVGILDICNLGNNKVEVYLHKIYSPENTS,chromosomes,RADX_HUMAN
PR40B_HUMAN,0.3603956452469463,0.4984396989536804,7.587430436419934,22.50383211678832,0.9252111490078336,0.7173265386123089,0.6096256684491979,0.6366863905325444,0.9043329214334116,-0.0219578730825991,0.957462668622406,0.7649015802606044,0.450126582278481,0.0656898626290985,0.3134013366162504,0.836345010842039,MMPPPFMPPPGIPPPFPPMGLPPMSQRPPAIPPMPPGILPPMLPPMGAPPPLTQIPGMVPPMMPGMLMPAVPVTAATAPGADTASSAVAGTGPPRALWSEHVAPDGRIYYYNADDKQSVWEKPSVLKSKAELLLSQCPWKEYKSDTGKPYYYNNQSKESRWTRPKDLDDLEVLVKQEAAGKQQQQLPQTLQPQPPQPQPDPPPVPPGPTPVPTGLLEPEPGGSEDCDVLEATQPLEQGFLQQLEEGPSSSGQHQPQQEEEESKPEPERSGLSWSNREKAKQAFKELLRDKAVPSNASWEQAMKMVVTDPRYSALPKLSEKKQAFNAYKAQREKEEKEEARLRAKEAKQTLQHFLEQHERMTSTTRYRRAEQTFGELEVWAVVPERDRKEVYDDVLFFLAKKEKEQAKQLRRRNIQALKSILDGMSSVNFQTTWSQAQQYLMDNPSFAQDHQLQNMDKEDALICFEEHIRALEREEEEERERARLRERRQQRKNREAFQTFLDELHETGQLHSMSTWMELYPAVSTDVRFANMLGQPGSTPLDLFKFYVEELKARFHDEKKIIKDILKDRGFCVEVNTAFEDFAHVISFDKRAAALDAGNIKLTFNSLLEKAEAREREREKEEARRMRRREAAFRSMLRQAVPALELGTAWEEVRERFVCDSAFEQITLESERIRLFREFLQVLEQTECQHLHTKGRKHGRKGKKHHHKRSHSPSGSESEEEELPPPSLRPPKRRRRNPSESGSEPSSSLDSVESGGAALGGRGSPSSHLLGADHGLRKAKKPKKKTKKRRHKSNSPESETDPEEKAGKESDEKEQEQDKDRELQQAELPNRSPGFGIKKEKTGWDTSESELSEGELERRRRTLLQQLDDHQ,nuclear_speckle,PR40B_HUMAN
ALKB5_HUMAN,0.2971276468952366,0.4760082425669708,7.24722552516845,21.91849495984044,0.9343901365037428,0.805527343470611,0.354194559179604,0.6394058644258366,0.8093878978663869,-0.0331577442933562,0.95553651011313,0.74577823136389,0.2439120966145317,0.1077981651376146,0.3256811379555062,0.8037675378626233,MAAASGYTDLREKLKSMTSRDNYKAGSREAAAAAAAAVAAAAAAAAAAEPYPVSGAKRKYQEDSDPERSDYEEQQLQKEEEARKVKSGIRQMRLFSQDECAKIEARIDEVVSRAEKGLYNEHTVDRAPLRNKYFFGEGYTYGAQLQKRGPGQERLYPPGDVDEIPEWVHQLVIQKLVEHRVIPEGFVNSAVINDYQPGGCIVSHVDPIHIFERPIVSVSFFSDSALCFGCKFQFKPIRVSEPVLSLPVRRGSVTVLSGYAADEITHCIRPQDIKERRAVIILRKTRLDAPRLETKSLSSSVLPPSYASDRLSGNNRDPALKPKRSHRKADPDAAHRPRILEMDKEENRRSVLLPTHRRRGSFSSENYWRKSYESSEDCSEAAGSPARKVKMRRH,nuclear_speckle,ALKB5_HUMAN
CTR9_HUMAN,0.3658106469745398,0.3769847121860099,7.354840563056593,24.314785373608903,0.9244012763420876,0.6814059152045022,0.3961279953243717,0.676509186351706,0.9150858682231452,-0.0244585838538322,0.9171121154419694,0.7555974700565846,0.3547087316215869,0.0991925032399561,0.3003280032800328,0.8521243916215945,MSRGSIEIPLRDTDEVIELDFDQLPEGDEVISILKQEHTQLHIWIALALEYYKQGKTEEFVKLLEAARIDGNLDYRDHEKDQMTCLDTLAAYYVQQARKEKNKDNKKDLITQATLLYTMADKIIMYDQNHLLGRACFCLLEGDKMDQADAQFHFVLNQSPNNIPALLGKACISFNKKDYRGALAYYKKALRTNPGCPAEVRLGMGHCFVKLNKLEKARLAFSRALELNSKCVGALVGLAVLELNNKEADSIKNGVQLLSRAYTIDPSNPMVLNHLANHFFFKKDYSKVQHLALHAFHNTEVEAMQAESCYQLARSFHVQEDYDQAFQYYYQATQFASSSFVLPFFGLGQMYIYRGDKENASQCFEKVLKAYPNNYETMKILGSLYAASEDQEKRDIAKGHLKKVTEQYPDDVEAWIELAQILEQTDIQGALSAYGTATRILQEKVQADVPPEILNNVGALHFRLGNLGEAKKYFLASLDRAKAEAEHDEHYYNAISVTTSYNLARLYEAMCEFHEAEKLYKNILREHPNYVDCYLRLGAMARDKGNFYEASDWFKEALQINQDHPDAWSLIGNLHLAKQEWGPGQKKFERILKQPSTQSDTYSMLALGNVWLQTLHQPTRDREKEKRHQDRALAIYKQVLRNDAKNLYAANGIGAVLAHKGYFREARDVFAQVREATADISDVWLNLAHIYVEQKQYISAVQMYENCLRKFYKHQNTEVVLYLARALFKCGKLQECKQTLLKARHVAPSDTVLMFNVALVLQRLATSVLKDEKSNLKEVLNAVKELELAHRYFSYLSKVGDKMRFDLALAATEARQCSDLLSQAQYHVARARKQDEEERELRAKQEQEKELLRQKLLKEQEEKRLREKEEQKKLLEQRAQYVEKTKNILMFTGETEATKEKKRGGGGGRRSKKGGEFDEFVNDDTDDDLPISKKKKRRKGSGSEQEGEDEEGGERKKKKRRRHPKGEEGSDDDETENGPKPKKRRPPKAEKKKAPKPERLPPSMKGKIKSKAIISSSDDSSDEDKLKIADEGHPRNSNSNSDSDEDEQRKKCASSESDSDENQNKSGSEAGSPRRPRRQRSDQDSDSDQPSRKRRPSGSEQSDNESVQSGRSHSGVSENDSRPASPSAESDHESERGSDNEGSGQGSGNESEPEGSNNEASDRGSEHGSDDSD,nuclear_speckle,CTR9_HUMAN
PRS57_HUMAN,0.3211888111888112,0.4971656976744186,7.572257999933265,22.25295426108717,0.7835650702567498,0.8035497923584198,0.4269167126309983,0.674750830564784,0.7298010294991091,-0.0316455696202531,1.025407844498438,0.8169332302752839,0.122989966262104,0.0302008987575997,0.3371530619837785,0.5522328981885352,MGLGLRGWGRPLLTVATALMLPVKPPAGSWGAQIIGGHEVTPHSRPYMASVRFGGQHHCGGFLLRARWVVSAAHCFSHRDLRTGLVVLGAHVLSTAEPTQQVFGIDALTTHPDYHPMTHANDICLLRLNGSAVLGPAVGLLRPPGRRARPPTAGTRCRVAGWGFVSDFEELPPGLMEAKVRVLDPDVCNSSWKGHLTLTMLCTRSGDSHRRGFCSADSGGPLVCRNRAHGLVSFSGLWCGDPKTPDVYTQVSAFVAWIWDVVRRSSPQPGPLPGTTRPPGEAA,stress_granule,PRS57_HUMAN
SHLD3_HUMAN,0.342702218684708,0.4678224048297836,7.280653028044981,22.594037042614065,0.8806981769681114,0.7144230497356293,0.3849217844727694,0.5965584056098912,0.6737339334531559,-0.0440548588061452,0.9562388660831848,0.6924374391112791,0.252607328538962,0.0330872939816677,0.2936976987447698,0.7525789938531292,MTTEVILHYRPCESDPTQLPKIAEKAIQDFPTRPLSRFIPWFPYDGSKLPLRPKRSPPVISEEAAEDVKQYLTISEHDAKSHSYDCTVDLLEFQPSLKKQHLTWSHTLKEQTNSGNLGKQSEKGKQHKRRSWSISLPSNNCTKNVSPLSKKLQDSLKALNLHSLYRARWTIEHTICNSQTLEDIWTKLNQIIRHNELPSCNATIQRHLGQIWVFCDIMYCEYVGSLLKGRLALTGKINLFVHKYGVIFSM,chromosomes,SHLD3_HUMAN
UBP53_HUMAN,0.3438143004115226,0.5050002645642626,7.32902281134402,21.71282034792116,0.9281731388995834,0.8279275055043627,0.585825450106805,0.6493369686454331,0.8512324224355091,-0.0335495211540792,1.004806015270726,0.789237154715901,0.4352331606217616,0.0853115338259183,0.3360837531012706,0.8602729610674,MAWVKFLRKPGGNLGKVYQPGSMLSLAPTKGLLNEPGQNSCFLNSAVQVLWQLDIFRRSLRVLTGHVCQGDACIFCALKTIFAQFQHSREKALPSDNIRHALAESFKDEQRFQLGLMDDAAECFENMLERIHFHIVPSRDADMCTSKSCITHQKFAMTLYEQCVCRSCGASSDPLPFTEFVRYISTTALCNEVERMLERHERFKPEMFAELLQAANTTDDYRKCPSNCGQKIKIRRVLMNCPEIVTIGLVWDSEHSDLTEAVVRNLATHLYLPGLFYRVTDENAKNSELNLVGMICYTSQHYCAFAFHTKSSKWVFFDDANVKEIGTRWKDVVSKCIRCHFQPLLLFYANPDGTAVSTEDALRQVISWSHYKSVAENMGCEKPVIHKSDNLKENGFGDQAKQRENQKFPTDNISSSNRSHSHTGVGKGPAKLSHIDQREKIKDISRECALKAIEQKNLLSSQRKDLEKGQRKDLGRHRDLVDEDLSHFQSGSPPAPNGFKQHGNPHLYHSQGKGSYKHDRVVPQSRASAQIISSSKSQILAPGEKITGKVKSDNGTGYDTDSSQDSRDRGNSCDSSSKSRNRGWKPMRETLNVDSIFSESEKRQHSPRHKPNISNKPKSSKDPSFSNWPKENPKQKGLMTIYEDEMKQEIGSRSSLESNGKGAEKNKGLVEGKVHGDNWQMQRTESGYESSDHISNGSTNLDSPVIDGNGTVMDISGVKETVCFSDQITTSNLNKERGDCTSLQSQHHLEGFRKELRNLEAGYKSHEFHPESHLQIKNHLIKRSHVHEDNGKLFPSSSLQIPKDHNAREHIHQSDEQKLEKPNECKFSEWLNIENSERTGLPFHVDNSASGKRVNSNEPSSLWSSHLRTVGLKPETAPLIQQQNIMDQCYFENSLSTECIIRSASRSDGCQMPKLFCQNLPPPLPPKKYAITSVPQSEKSESTPDVKLTEVFKATSHLPKHSLSTASEPSLEVSTHMNDERHKETFQVRECFGNTPNCPSSSSTNDFQANSGAIDAFCQPELDSISTCPNETVSLTTYFSVDSCMTDTYRLKYHQRPKLSFPESSGFCNNSLS,cell_junction,UBP53_HUMAN
UBP51_HUMAN,0.2938829204121903,0.5419517293804637,7.520381726953727,22.477427791676146,0.9279443075524508,0.7668809115928402,0.531850353892821,0.6608265092363359,0.7332030243148037,-0.0313679138064281,0.9057607539139688,0.8642753356791485,0.1886262257069307,0.0983038022573932,0.3088606694411838,0.82027343384212,MAQVRETSLPSGSGVRWISGGGGGASPEEAVEKAGKMEEAAAGATKASSRREAEEMKLEPLQEREPAPEENLTWSSSGGDEKVLPSIPLRCHSSSSPVCPRRKPRPRPQPRARSRSQPGLSAPPPPPARPPPPPPPPPPPAPRPRAWRGSRRRSRPGSRPQTRRSCSGDLDGSGDPGGLGDWLLEVEFGQGPTGCSHVESFKVGKNWQKNLRLIYQRFVWSGTPETRKRKAKSCICHVCSTHMNRLHSCLSCVFFGCFTEKHIHKHAETKQHHLAVDLYHGVIYCFMCKDYVYDKDIEQIAKETKEKILRLLTSTSTDVSHQQFMTSGFEDKQSTCETKEQEPKLVKPKKKRRKKSVYTVGLRGLINLGNTCFMNCIVQALTHIPLLKDFFLSDKHKCIMTSPSLCLVCEMSSLFHAMYSGSRTPHIPYKLLHLIWIHAEHLAGYRQQDAHEFLIAILDVLHRHSKDDSGGQEANNPNCCNCIIDQIFTGGLQSDVTCQACHSVSTTIDPCWDISLDLPGSCATFDSQNPERADSTVSRDDHIPGIPSLTDCLQWFTRPEHLGSSAKIKCNSCQSYQESTKQLTMKKLPIVACFHLKRFEHVGKQRRKINTFISFPLELDMTPFLASTKESRMKEGQPPTDCVPNENKYSLFAVINHHGTLESGHYTSFIRQQKDQWFSCDDAIITKATIEDLLYSEGYLLFYHKQGLEKD,chromosomes,UBP51_HUMAN
NOL8_HUMAN,0.3266544538584841,0.4640914396458696,7.440455751521773,21.85342518178339,0.9552084677939848,0.8166373894190444,0.4290112278160087,0.6666666666666666,0.9995064165844028,-0.0345078949319232,0.9894978667541844,0.8284548888734385,0.4694684796044499,0.0783545121688563,0.3423126108658884,0.8495569377864057,MKVNRETKRLYVGGLSQDISEADLQNQFSRFGEVSDVEIITRKDDQGNPQKVFAYINISVAEADLKKCMSVLNKTKWKGGTLQIQLAKESFLHRLAQEREAAKAKKEESTTGNANLLEKTGGVDFHMKAVPGTEVPGHKNWVVSKFGRVLPVLHLKNQHKRKIIKYDPSKYCHNLKKIGEDFSNTIPISSLTWELEGGNDPMSKKRRGEFSDFHGPPKKIIKVQKDESSTGSLAMSTRPRRVIERPPLTQQQAAQKRTCDSITPSKSSPVPVSDTQKLKNLPFKTSGLETAKKRNSISDDDTDSEDELRMMIAKEENLQRTTQPSINESESDPFEVVRDDFKSGVHKLHSLIGLGIKNRVSCHDSDDDIMRNDREYDSGDTDEIIAMKKNVAKVKNSTEFSQMEKSTKKTSFKNRENCELSDHCIKLQKRKSNVESALSHGLKSLNRKSPSHSSSSEDADSASELADSEGGEEYNAMMKNCLRVNLTLADLEQLAGSDLKVPNEDTKSDGPETTTQCKFDRGSKSPKTPTGLRRGRQCIRPAEIVASLLEGEENTCGKQKPKENNLKPKFQAFKGVGCLYEKESMKKSLKDSVASNNKDQNSMKHEDPSIISMEDGSPYVNGSLGEVTPCQHAKKANGPNYIQPQKRQTTFESQDRKAVSPSSSEKRSKNPISRPLEGKKSLSLSAKTHNIGFDKDSCHSTTKTEASQEERSDSSGLTSLKKSPKVSSKDTREIKTDFSLSISNSSDVSAKDKHAEDNEKRLAALEARQKAKEVQKKLVHNALANLDGHPEDKPTHIIFGSDSECETEETSTQEQSHPGEEWVKESMGKTSGKLFDSSDDDESDSEDDSNRFKIKPQFEGRAGQKLMDLQSHFGTDDRFRMDSRFLETDSEEEQEEVNEKKTAEEEELAEEKKKALNVVQSVLQINLSNSTNRGSVAAKKFKDIIHYDPTKQDHATYERKRDDKPKESKAKRKKKREEAEKLPEVSKEMYYNIAMDLKEIFQTTKYTSEKEEGTPWNEDCGKEKPEEIQDPAALTSDAEQPSGFTFSFFDSDTKDIKEETYRVETVKPGKIVWQEDPRLQDSSSEEEDVTEETDHRNSSPGEASLLEKETTRFFFFSKNDERLQGSDLFWRGVGSNMSRNSWEARTTNLRMDCRKKHKDAKRKMKPK,nucleolus,NOL8_HUMAN
AROS_HUMAN,0.2225662194702442,0.299123551031948,7.567215088282504,20.423464990113064,0.8929514438978293,0.6267677017405063,0.4482391869534389,0.5737422711301174,0.6200440528634361,-0.0402988008649498,0.6607882715393605,0.7292303592965529,0.3588235294117647,0.0240508912777248,0.277987274304033,0.8158073195808632,MSAALLRRGLELLAASEAPRDPPGQAKPRGAPVKRPRKTKAIQAQKLRNSAKGKVPKSALDEYRKRECRDHLRVNLKFLTRTRSTVAESVSQQILRQNRGRKACDRPVAKTKKKKAEGTVFTEEDFQKFQQEYFGS,nucleolus,AROS_HUMAN
P66A_HUMAN,0.2452994830254536,0.419217901212361,7.78901895206243,21.72838956950243,0.920463342881474,0.9119241965865632,0.5931469082315872,0.6915471534115601,0.8408884433445067,-0.0237167868574293,0.809234308248439,0.7659469817949537,0.2425962619825416,0.0458544960297589,0.3214728891286755,0.8373242670261927,MTEEACRTRSQKRALERDPTEDDVESKKIKMERGLLASDLNTDGDMRVTPEPGAGPTQGLLRATEATAMAMGRGEGLVGDGPVDMRTSHSDMKSERRPPSPDVIVLSDNEQPSSPRVNGLTTVALKETSTEALMKSSPEERERMIKQLKEELRLEEAKLVLLKKLRQSQIQKEATAQKPTGSVGSTVTTPPPLVRGTQNIPAGKPSLQTSSARMPGSVIPPPLVRGGQQASSKLGPQASSQVVMPPLVRGAQQIHSIRQHSSTGPPPLLLAPRASVPSVQIQGQRIIQQGLIRVANVPNTSLLVNIPQPTPASLKGTTATSAQANSTPTSVASVVTSAESPASRQAAAKLALRKQLEKTLLEIPPPKPPAPEMNFLPSAANNEFIYLVGLEEVVQNLLETQGRMSAATVLSREPYMCAQCKTDFTCRWREEKSGAIMCENCMTTNQKKALKVEHTSRLKAAFVKALQQEQEIEQRLLQQGTAPAQAKAEPTAAPHPVLKQVIKPRRKLAFRSGEARDWSNGAVLQASSQLSRGSATTPRGVLHTFSPSPKLQNSASATALVSRTGRHSERTVSAGKGSATSNWKKTPLSTGGTLAFVSPSLAVHKSSSAVDRQREYLLDMIPPRSIPQSATWK,nuclear_speckle,P66A_HUMAN
AMOL1_HUMAN,0.300771208226221,0.4056722311972716,7.868012422360248,22.14761773616084,0.9246297894946544,0.7440466342388846,0.5782296650717703,0.6712301052063663,0.7211872434480581,-0.035896774718899,1.0070202808112323,0.8174456492708723,0.3207258417140358,0.1592049789198956,0.3259730121556819,0.8361243765255226,MWRAKLRRGTCEPAVKGSPSACYSPSSPVQVLEDSTYFSPDFQLYSGRHETSALTVEATSSIREKVVEDPLCNFHSPNFLRISEVEMRGSEDAAAGTVLQRLIQEQLRYGTPTENMNLLAIQHQATGSAGPAHPTNNFSSTENLTQEDPQMVYQSARQEPQGQEHQVDNTVMEKQVRSTQPQQNNEELPTYEEAKAQSQFFRGQQQQQQQQGAVGHGYYMAGGTSQKSRTEGRPTVNRANSGQAHKDEALKELKQGHVRSLSERIMQLSLERNGAKQHLPGSGNGKGFKVGGGPSPAQPAGKVLDPRGPPPEYPFKTKQMMSPVSKTQEHGLFYGDQHPGMLHEMVKPYPAPQPVRTDVAVLRYQPPPEYGVTSRPCQLPFPSTMQQHSPMSSQTSSASGPLHSVSLPLPLPMALGAPQPPPAASPSQQLGPDAFAIVERAQQMVEILTEENRVLHQELQGYYDNADKLHKFEKELQRISEAYESLVKSTTKRESLDKAMRNKLEGEIRRLHDFNRDLRDRLETANRQLSSREYEGHEDKAAEGHYASQNKEFLKEKEKLEMELAAVRTASEDHRRHIEILDQALSNAQARVIKLEEELREKQAYVEKVEKLQQALTQLQSACEKREQMERRLRTWLERELDALRTQQKHGNGQPANMPEYNAPALLELVREKEERILALEADMTKWEQKYLEESTIRHFAMNAAATAAAERDTTIINHSRNGSYGESSLEAHIWQEEEEVVQANRRCQDMEYTIKNLHAKIIEKDAMIKVLQQRSRKDAGKTDSSSLRPARSVPSIAAATGTHSRQTSLTSSQLAEEKKEEKTWKGSIGLLLGKEHHEHASAPLLPPPPTSALSSIASTTAASSAHAKTGSKDSSTQTDKSAELFWPSMASLPSRGRLSTTPAHSPVLKHPAAKGTAEKLENSPGHGKSPDHRGRVSSLLHKPEFPDGEMMEVLI,cell_junction,AMOL1_HUMAN
SPB1_HUMAN,0.2903616892301475,0.4325271247739602,7.585798816568047,22.45953069205917,0.9222514014443716,0.836250856671584,0.3592786322117261,0.6606125064768605,0.9677960415967796,-0.0194014037875778,0.932000091213828,0.7917800372332808,0.095729665687941,0.0437778937613838,0.317481544150758,0.8403929152614326,MGKKGKVGKSRRDKFYHLAKETGYRSRSAFKLIQLNRRFQFLQKARALLDLCAAPGGWLQVAAKFMPVSSLIVGVDLVPIKPLPNVVTLQQDITTERCRQALRKELKTWKVDVVLNDGAPNVGASWVHDAYSQAHLTLMALRLACDFLARGGSFITKVFRSRDYQPLLWIFQQLFRRVQATKPQASRHESAEIFVVCQGFLAPDKVDSKFFDPKFAFKEVEVQAKTVTELVTKKKPKAEGYAEGDLTLYHRTSVTDFLRAANPVDFLSKASEIMVDDEELAQHPATTEDIRVCCQDIRVLGRKELRSLLNWRTKLRRYVAKKLKEQAKALDISLSSGEEDEGDEEDSTAGTTKQPSKEEEEEEEEEQLNQTLAEMKAQEVAELKRKKKKLLREQRKQRERVELKMDLPGVSIADEGETGMFSLSTIRGHQLLEEVTQGDMSAADTFLSDLPRDDIYVSDVEDDGDDTSLDSDLDPEELAGVRGHQGLRDQKRMRLTEVQDDKEEEEEENPLLVPLEEKAVLQEEQANLWFSKGSFAGIEDDADEALEISQAQLLFENRRKGRQQQQKQQLPQTPPSCLKTEIMSPLYQDEAPKGTEASSGTEAATGLEGEEKDGISDSDSSTSSEEEESWEPLRGKKRSRGPKSDDDGFEIVPIEDPAKHRILDPEGLALGAVIASSKKAKRDLIDNSFNRYTFNEDEGELPEWFVQEEKQHRIRQLPVGKKEVEHYRKRWREINARPIKKVAEAKARKKRRMLKRLEQTRKKAEAVVNTVDISEREKVAQLRSLYKKAGLGKEKRHVTYVVAKKGVGRKVRRPAGVRGHFKVVDSRMKKDQRAQQRKEQKKKHKRK,nucleolus,SPB1_HUMAN
IHO1_HUMAN,0.3647798742138364,0.4842767295597484,7.25482036784092,21.3495782875521,0.9347041847041848,0.7031032710562912,0.3824735860783095,0.6150297438387763,0.7912242260801169,-0.0285092935539773,0.7855532086407282,0.7610297230925566,0.3098882524180674,0.0732982361189697,0.3420648561934227,0.8674206958540879,MNFNVWNIKEMLSIPSGSGNKKSSNWNNNQNDYSSLSDSQFLFGSQFCPENSETLSAPLDFGAHLRHSKQSQQNYLEGEPSIFTKYQTKPQLFGGDIKDGGLFPPPLSVGKSKGLLEQFEEKKKRAKDKCDSETLYNFVSNVRESILRLQTSVEKSEDHLSSRSQSILDSLETVAKTLQETIQAQNDLVFEAVQDKGNMEQAILEMKKRFEARQGEFIEMKSNLKHLEVLVAQQSQEFQQLCEQLGQLNVPSVLAELKRLISVPPVKDSASQTSPPLAQSLNLTRQEKYTSEKPVLWQAQALPAAWNPGMGSLQPGEFDVWGEGAKNDDLQEEAALPAFGSHERNRHVKDKVVQTNCKNWAVTKTGAKNHGSSVPGHKIPSDRDLVSQGASQLTSLEINFSTSIKNACQKYQAQSMFLCDPREHLVIKQKDGTVEMRGKDKKQQPRKAHRAHRGRLIASKQKQIPIQTCKFNSKYQSPQPAISVPQSPFLGQQEPRAQPLHLQCPRSPRKPVCPILGGTVMPNKTVRAVQGRLLQLSRCSSQDNWLLSSSSQGDHQMSWFSDLNLGCSETPLCKEAGKNLLYDLGFDSSDDDGF,chromosomes,IHO1_HUMAN
TEX11_HUMAN,0.2563810633340393,0.5072759022118742,7.0788803765700425,22.777952050190454,0.929962064484549,0.7695237555171208,0.2750536239836385,0.6445295870583226,0.8569295701857648,-0.0314983279997123,0.9596702772668438,0.7577389918571398,0.3820864991233197,0.0521139686711303,0.2976885499821279,0.876078431372549,MISAHCNLRLLCSSDSSASASQVAGTTEVVENLVTNDNSPNIPEAIDRLFSDIANINRESMAEITDIQIEEMAVNLWNWALTIGGGWLVNEEQKIRLHYVACKLLSMCEASFASEQSIQRLIMMNMRIGKEWLDAGNFLIADECFQAAVASLEQLYVKLIQRSSPEADLTMEKITVESDHFRVLSYQAESAVAQGDFQRASMCVLQCKDMLMRLPQMTSSLHHLCYNFGVETQKNNKYEESSFWLSQSYDIGKMDKKSTGPEMLAKVLRLLATNYLDWDDTKYYDKALNAVNLANKEHLSSPGLFLKMKILLKGETSNEELLEAVMEILHLDMPLDFCLNIAKLLMDHERESVGFHFLTIIHERFKSSENIGKVLILHTDMLLQRKEELLAKEKIEEIFLAHQTGRQLTAESMNWLHNILWRQAASSFEVQNYTDALQWYYYSLRFYSTDEMDLDFTKLQRNMACCYLNLQQLDKAKEAVAEAERHDPRNVFTQFYIFKIAVIEGNSERALQAIITLENILTDEESEDNDLVAERGSPTMLLSLAAQFALENGQQIVAEKALEYLAQHSEDQEQVLTAVKCLLRFLLPKIAEMPESEDKKKEMDRLLTCLNRAFVKLSQPFGEEALSLESRANEAQWFRKTAWNLAVQCDKDPVMMREFFILSYKMSQFCPSDQVILIARKTCLLMAVAVDLEQGRKASTAFEQTMFLSRALEEIQTCNDIHNFLKQTGTFSNDSCEKLLLLYEFEVRAKLNDPLLESFLESVWELPHLETKTFETIAIIAMEKPAHYPLIALKALKKALLLYKKEEPIDISQYSKCMHNLVNLSVPDGASNVELCPLEEVWGYFEDALSHISRTKDYPEMEILWLMVKSWNTGVLMFSRSKYASAEKWCGLALRFLNHLTSFKESYETQMNMLYSQLVEALSNNKGPVFHEHGYWSKSD,chromosomes,TEX11_HUMAN
SHLD1_HUMAN,0.2685958029437321,0.4838446849140674,7.250787072091819,21.801326423368245,0.8309249019999099,0.7150429097425416,0.4893850658857979,0.5632963173051749,0.7318355640535373,-0.0497465497465497,1.0545236068692736,0.6570338156952883,0.3234386725589927,0.0406156499888199,0.2846873629319167,0.7389959602135951,MAARDATSGSLSEESSALDLPSACDIRDYVLQGPSQEANSEAFSSLEFHSFPYSSDVDPDTSNLNIEQNNSWTAENFWLDPAVKGQSEKEEDDGLRKSLDRFYEMFGHPQPGSANSLSASVCKCLSQKITQLRGQESQKYALRSFQMARVIFNRDGCSVLQRHSRDTHFYPLEEGSTSLDDEKPNPGLSKDITHFLLQQNVMKDL,chromosomes,SHLD1_HUMAN
MAML2_HUMAN,0.373063468265867,0.4970855100357437,7.808245015268547,21.45239352340725,0.9242569455670768,0.7696827076456559,0.6686760955251565,0.6548525458164878,0.7652797590743382,-0.021678218551836,0.9384566190577702,0.8379398050021195,0.3227669323959575,0.0779612077082417,0.3338075530263839,0.8392303066746843,MGDTAPPQAPAGGLGGASGAGLLGGGSVTPRVHSAIVERLRARIAVCRQHHLSCEGRYERGRAESSDRERESTLQLLSLVQHGQGARKAGKHTKATATAATTTAPPPPPAAPPAASQAAATAAPPPPPDYHHHHQQHLLNSSNNGGSGGINGEQQPPASTPGDQRNSALIALQGSLKRKQVVNLSPANSKRPNGFVDNSFLDIKRIRVGENLSAGQGGLQINNGQSQIMSGTLPMSQAPLRKTNTLPSHTHSPGNGLFNMGLKEVKKEPGETLSCSKHMDGQMTQENIFPNRYGDDPGEQLMDPELQELFNELTNISVPPMSDLELENMINATIKQDDPFNIDLGQQSQRSTPRPSLPMEKIVIKSEYSPGLTQGPSGSPQLRPPSAGPAFSMANSALSTSSPIPSVPQSQAQPQTGSGASRALPSWQEVSHAQQLKQIAANRQQHARMQQHQQQHQPTNWSALPSSAGPSPGPFGQEKIPSPSFGQQTFSPQSSPMPGVAGGSGQSKVMANYMYKAGPSAQGGHLDVLMQQKPQDLSRSFINNPHPAMEPRQGNTKPLFHFNSDQANQQMPSVLPSQNKPSLLHYTQQQQQQQQQQQQQQQQQQQQQQQQQQQQQQQQQQSSISAQQQQQQQSSISAQQQQQQQQQQQQQQQQQQQQQQQQQQQPSSQPAQSLPSQPLLRSPLPLQQKLLLQQMQNQPIAGMGYQVSQQQRQDQHSVVGQNTGPSPSPNPCSNPNTGSGYMNSQQSLLNQQLMGKKQTLQRQIMEQKQQLLLQQQMLADAEKIAPQDQINRHLSRPPPDYKDQRRNVGNMQPTAQYSGGSSTISLNSNQALANPVSTHTILTPNSSLLSTSHGTRMPSLSTAVQNMGMYGNLPCNQPNTYSVTSGMNQLTQQRNPKQLLANQNNPMMPRPPTLGPSNNNNVATFGAGSVGNSQQLRPNLTHSMASMPPQRTSNVMITSNTTAPNWASQEGTSKQQEALTSAGVRFPTGTPAAYTPNQSLQQAVGSQQFSQRAVAPPNQLTPAVQMRPMNQMSQTLNGQTMGPLRGLNLRPNQLSTQILPNLNQSGTGLNQSRTGINQPPSLTPSNFPSPNQSSRAFQGTDHSSDLAFDFLSQQNDNMGPALNSDADFIDSLLKTEPGNDDWMKDINLDEILGNNS,nuclear_speckle,MAML2_HUMAN
FAM9A_HUMAN,0.2562044361718629,0.3527440063629133,6.90941536172241,20.744105644978465,0.9144727726202024,0.751595125089101,0.3576011906214165,0.6142083239488377,0.8609734951696805,-0.0294096828992072,0.7582677869145513,0.7098412488570138,0.2231629559945646,0.0517042551638566,0.283181164769416,0.8592606305716157,MEPVGRKRSRKAAKAQLEAQVTAAQGATKEGSGIASNFPGQPTMEPVGRKRSRKAAKAQLEAQVRAAPAKKHTGKDPVRDECEERNPFTETREEDVTDEHGEREPFAEKDEHTGIHTMKLEHIAADIKKGLAAKREMIKIDKAAYRKTKNTIERALKKKQLKRQKRDYRHTRKLLNVLKEYIAEKQKDDEAEEAEAAAAAAEAAAAAEAAAAAAEVIVVEDEEEEEKEEEEEKEEEEEEGEEEGGGEEGEEGGGGGEGEETEEEEEEEEEEEEEEQIKAFQEKQKRWQQPTGVRSWRLREMKPLLEQLLKAAKDTKDNYCIISSSEESELDN,nucleolus,FAM9A_HUMAN
TENS4_HUMAN,0.277312422028159,0.4049389680992922,7.650389880436666,22.55094385285576,0.900450112528132,0.8651839340956682,0.544858070308723,0.6612101724641918,0.8168618983661742,-0.0218391766379382,0.9271053528810091,0.8250771638481937,0.3836230204712244,0.0805341966815054,0.3257857942347566,0.7945022907122032,MSQVMSSPLLAGGHAVSLAPCDEPRRTLHPAPSPSLPPQCSYYTTEGWGAQALMAPVPCMGPPGRLQQAPQVEAKATCFLPSPGEKALGTPEDLDSYIDFSLESLNQMILELDPTFQLLPPGTGGSQAELAQSTMSMRKKEESEALDIKYIEVTSARSRCHDGPQHCSSPSVTPPFGSLRSGGLLLSRDVPRETRSSSESLIFSGNQGRGHQRPLPPSEGLSPRPPNSPSISIPCMGSKASSPHGLGSPLVASPRLEKRLGGLAPQRGSRISVLSASPVSDVSYMFGSSQSLLHSSNSSHQSSSRSLESPANSSSSLHSLGSVSLCTRPSDFQAPRNPTLTMGQPRTPHSPPLAKEHASSCPPSITNSMVDIPIVLINGCPEPGSSPPQRTPGHQNSVQPGAASPSNPCPATRSNSQTLSDAPFTTCPEGPARDMQPTMKFVMDTSKYWFKPNITREQAIELLRKEEPGAFVIRDSSSYRGSFGLALKVQEVPASAQSRPGEDSNDLIRHFLIESSAKGVHLKGADEEPYFGSLSAFVCQHSIMALALPCKLTIPQRELGGADGASDSTDSPASCQKKSAGCHTLYLSSVSVETLTGALAVQKAISTTFERDILPTPTVVHFKVTEQGITLTDVQRKVFFRRHYPLTTLRFCGMDPEQRKWQKYCKPSWIFGFVAKSQTEPQENVCHLFAEYDMVQPASQVIGLVTALLQDAERM,cell_junction,TENS4_HUMAN
S6OS1_HUMAN,0.3101839770354906,0.4800927383576151,7.340641761550767,21.644820237469208,0.9162806290381568,0.6986427168765161,0.3392117434144379,0.6204514048825426,0.9519849095429992,-0.0415521339920163,0.9289107213198322,0.7581255170783595,0.3312433521804848,0.0630136986301369,0.3207589068854006,0.798825087830444,MNDSLFVSLDRLLLEFVFQYEQDISTKEEMIQRINKCCEDIKENKVTICRIHETINATDEEIDHYCKHSEEIKDNCRNWKPTCDVFRKHEDYMQDQFTVYQGTVEKDKEMYHDYICQYKEVLKQYQLKYSETPFSREYYEKKREHEEIQSRVLACTEQLKMNETIFMKFRVPAPFPSLTKWTLNIVNLRCETQDILKHASNLTKSSSELKKEVDEMEIEINYLNQQISRHNETKALSETLEEKNKNTENRKELKERIFGKDEHVLTLNKTQSSQLFLPYESQKLVRPIKMHSSEPRVADIKEESSAKQSKLANIDFRQKENDTQIFNDSAVDNHSKCSHITTITSSQKFMQVRLLTPQKQSNSNQWSEKGDKDAEYGDKGTVRQVRESKCTSQAIYTEHFGKSVENDSDEVEERAENFPRTSEIPIFLGTPKAVKAPESLEKIKFPKTPPFEINRNRNAVPEVQTEKESPGLSFLMSYTSRSPGLNLFDSSVFDTEISSDQFNEHYSARNLNPLSSEQEIGNLLEKPEGEDGFTFSFPSDTSTHTFGAGKDDFSFPFSFGQGQNSIPSSSLKGFSSSSQNTTQFTFF,chromosomes,S6OS1_HUMAN
ZCHC7_HUMAN,0.3435204231560388,0.5080151646317801,7.442201834862385,23.277375726657965,0.8975078144800203,0.7670027914223271,0.4615384615384615,0.6161650512951312,0.8900196571201074,-0.0412617220801364,0.8825654707071674,0.8530317053746314,0.3108631644196498,0.0744899016053858,0.3096112311015119,0.813609331529646,MMFGGYETIEAYEDDLYRDESSSELSVDSEVEFQLYSQIHYAQDLDDVIREEEHEEKNSGNSESSSSKPNQKKLIVLSDSEVIQLSDGSEVITLSDEDSIYRCKGKNVRVQAQENAHGLSSSLQSNELVDKKCKSDIEKPKSEERSGVIREVMIIEVSSSEEEESTISEGDNVESWMLLGCEVDDKDDDILLNLVGCENSVTEGEDGINWSISDKDIEAQIANNRTPGRWTQRYYSANKNIICRNCDKRGHLSKNCPLPRKVRRCFLCSRRGHLLYSCPAPLCEYCPVPKMLDHSCLFRHSWDKQCDRCHMLGHYTDACTEIWRQYHLTTKPGPPKKPKTPSRPSALAYCYHCAQKGHYGHECPEREVYDPSPVSPFICYYDDKYEIQEREKRLKQKIKVLKKNGVIPEPSKLPYIKAANENPHHDIRKGRASWKSNRWPQENKETQKEMKNKNRNWEKHRKADRHREVDEDFPRGPKTYSSPGSFKTQKPSKPFHRSSHYHTSREDKSPKEGKRGKQKKKERCWEDDDNDNLFLIKQRKKKS,nucleolus,ZCHC7_HUMAN
PNMA1_HUMAN,0.2809096120772024,0.4823931623931624,7.44549466114622,22.22419583249039,0.9334202726733848,0.7985735750385389,0.531692441733827,0.6375398089171974,0.7455907821722687,-0.0264439678673984,0.806810041082472,0.7426115283684734,0.2089439962646883,0.0462799167533818,0.3083275449563942,0.8620652910975491,MAMTLLEDWCRGMDVNSQRALLVWGIPVNCDEAEIEETLQAAMPQVSYRMLGRMFWREENAKAALLELTGAVDYAAIPREMPGKGGVWKVLFKPPTSDAEFLERLHLFLAREGWTVQDVARVLGFQNPTPTPGPEMPAEMLNYILDNVIQPLVESIWYKRLTLFSGRDIPGPGEETFDPWLEHTNEVLEEWQVSDVEKRRRLMESLRGPAADVIRILKSNNPAITTAECLKALEQVFGSVESSRDAQIKFLNTYQNPGEKLSAYVIRLEPLLQKVVEKGAIDKDNVNQARLEQVIAGANHSGAIRRQLWLTGAGEGPAPNLFQLLVQIREEEAKEEEEEAEATLLQLGLEGHF,nucleolus,PNMA1_HUMAN
SPT22_HUMAN,0.3284750337381916,0.6136094674556213,7.368572217619442,22.82989214175655,0.8724504566896951,0.6984778430048314,0.51722959503332,0.6060528830837847,0.9211885734469512,-0.0233853976214107,0.8590543985378288,0.804645976584278,0.2348872596486374,0.0912763373290383,0.2934169421183034,0.7383367372040206,MKRSLNENSARSTAGCLPVPLFNQKKRNRQPLTSNPLKDDSGISTPSDNYDFPPLPTDWAWEAVNPELAPVMKTVDTGQIPHSVSRPLRSQDSVFNSIQSNTGRSQGGWSYRDGNKNTSLKTWNKNDFKPQCKRTNLVANDGKNSCPVSSGAQQQKQLRIPEPPNLSRNKETELLRQTHSSKISGCTMRGLDKNSALQTLKPNFQQNQYKKQMLDDIPEDNTLKETSLYQLQFKEKASSLRIISAVIESMKYWREHAQKTVLLFEVLAVLDSAVTPGPYYSKTFLMRDGKNTLPCVFYEIDRELPRLIRGRVHRCVGNYDQKKNIFQCVSVRPASVSEQKTFQAFVKIADVEMQYYINVMNET,chromosomes,SPT22_HUMAN
WDR36_HUMAN,0.3245024554148358,0.47219201200075,7.438848056876592,23.276913875598087,0.9110792002651056,0.8323385611784875,0.5613617968433833,0.6881724897179178,0.8994660827202716,-0.0329916897506925,1.053271640324298,0.8672604114400402,0.3918412536194856,0.0752735659257078,0.3167324859366865,0.8452951690992815,MCCTEGSLRKRDSQRAPEAVLCLQLWQRTVPLDTLKGLGTCFPSGPELRGAGIAAAMERASERRTASALFAGFRALGLFSNDIPHVVRFSALKRRFYVTTCVGKSFHTYDVQKLSLVAVSNSVPQDICCMAADGRLVFAAYGNVFSAFARNKEIVHTFKGHKAEIHFLQPFGDHIISVDTDGILIIWHIYSEEEYLQLTFDKSVFKISAILHPSTYLNKILLGSEQGSLQLWNVKSNKLLYTFPGWKVGVTALQQAPAVDVVAIGLMSGQVIIHNIKFNETLMKFRQDWGPITSISFRTDGHPVMAAGSPCGHIGLWDLEDKKLINQMRNAHSTAIAGLTFLHREPLLVTNGADNALRIWIFDGPTGEGRLLRFRMGHSAPLTNIRYYGQNGQQILSASQDGTLQSFSTVHEKFNKSLGHGLINKKRVKRKGLQNTMSVRLPPITKFAAEEARESDWDGIIACHQGKLSCSTWNYQKSTIGAYFLKPKELKKDDITATAVDITSCGNFAVIGLSSGTVDVYNMQSGIHRGSFGKDQAHKGSVRGVAVDGLNQLTVTTGSEGLLKFWNFKNKILIHSVSLSSSPNIMLLHRDSGILGLALDDFSISVLDIETRKIVREFSGHQGQINDMAFSPDGRWLISAAMDCSIRTWDLPSGCLIDCFLLDSAPLNVSMSPTGDFLATSHVDHLGIYLWSNISLYSVVSLRPLPADYVPSIVMLPGTCQTQDVEVSEETVEPSDELIEYDSPEQLNEQLVTLSLLPESRWKNLLNLDVIKKKNKPKEPPKVPKSAPFFIPTIPGLVPRYAAPEQNNDPQQSKVVNLGVLAQKSDFCLKLEEGLVNNKYDTALNLLKESGPSGIETELRSLSPDCGGSIEVMQSFLKMIGMMLDRKRDFELAQAYLALFLKLHLKMLPSEPVLLEEITNLSSQVEENWTHLQSLFNQSMCILNYLKSALL,nucleolus,WDR36_HUMAN
ZFAN1_HUMAN,0.2252114337340326,0.3837212209084318,6.912312990351867,21.95903644954438,0.9220741156859272,0.8075440541193966,0.2742028507868501,0.6079064138765631,0.6700680272108843,-0.0425849975085284,0.8739856801909308,0.8305009379559508,0.138601615746954,0.0831228658598185,0.3208570653647952,0.8287203314467707,MAELDIGQHCQVEHCRQRDFLPFVCDDCSGIFCLEHRSRESHGCPEVTVINERLKTDQHTSYPCSFKDCAERELVAVICPYCEKNFCLRHRHQSDHECEKLEIPKPRMAATQKLVKDIIDSKTGETASKRWKGAKNSETAAKVALMKLKMHADGDKSLPQTERIYFQVFLPKGSKEKSKPMFFCHRWSIGKAIDFAASLARLKNDNNKFTAKKLRLCHITSGEALPLDHTLETWIAKEDCPLYNGGNIILEYLNDEEQFCKNVESYLE,stress_granule,ZFAN1_HUMAN
DDX54_HUMAN,0.3369532428355958,0.4218755305062303,7.723789528933211,22.28160033632287,0.9290481680427242,0.8620550975266439,0.4530208333333333,0.6483056146054771,0.7993415498902583,-0.0315023053011495,0.9055235742883893,0.7832409972299169,0.2380480869322365,0.0564485318196703,0.320476507830723,0.8396762141967622,MAADKGPAAGPRSRAAMAQWRKKKGLRKRRGAASQARGSDSEDGEFEIQAEDDARARKLGPGRPLPTFPTSECTSDVEPDTREMVRAQNKKKKKSGGFQSMGLSYPVFKGIMKKGYKVPTPIQRKTIPVILDGKDVVAMARTGSGKTACFLLPMFERLKTHSAQTGARALILSPTRELALQTLKFTKELGKFTGLKTALILGGDRMEDQFAALHENPDIIIATPGRLVHVAVEMSLKLQSVEYVVFDEADRLFEMGFAEQLQEIIARLPGGHQTVLFSATLPKLLVEFARAGLTEPVLIRLDVDTKLNEQLKTSFFLVREDTKAAVLLHLLHNVVRPQDQTVVFVATKHHAEYLTELLTTQRVSCAHIYSALDPTARKINLAKFTLGKCSTLIVTDLAARGLDIPLLDNVINYSFPAKGKLFLHRVGRVARAGRSGTAYSLVAPDEIPYLLDLHLFLGRSLTLARPLKEPSGVAGVDGMLGRVPQSVVDEEDSGLQSTLEASLELRGLARVADNAQQQYVRSRPAPSPESIKRAKEMDLVGLGLHPLFSSRFEEEELQRLRLVDSIKNYRSRATIFEINASSRDLCSQVMRAKRQKDRKAIARFQQGQQGRQEQQEGPVGPAPSRPALQEKQPEKEEEEEAGESVEDIFSEVVGRKRQRSGPNRGAKRRREEARQRDQEFYIPYRPKDFDSERGLSISGEGGAFEQQAAGAVLDLMGDEAQNLTRGRQQLKWDRKKKRFVGQSGQEDKKKIKTESGRYISSSYKRDLYQKWKQKQKIDDRDSDEEGASDRRGPERRGGKRDRGQGASRPHAPGTPAGRVRPELKTKQQILKQRRRAQKLHFLQRGGLKQLSARNRRRVQELQQGAFGRGARSKKGKMRKRM,nucleolus,DDX54_HUMAN
UTP15_HUMAN,0.2521634986864472,0.3778919806159137,7.503137225954085,21.921384064695744,0.926625244253189,0.8442052945557822,0.397255123143448,0.6519036519036518,0.840447312094798,-0.0471631290612884,0.8451607878262732,0.8206893124270059,0.2869328627104934,0.0543815159199774,0.3067985700197239,0.8040907204045435,MAGYKPVAIQTYPILGEKITQDTLYWNNYKTPVQIKEFGAVSKVDFSPQPPYNYAVTASSRIHIYGRYSQEPIKTFSRFKDTAYCATFRQDGRLLVAGSEDGGVQLFDISGRAPLRQFEGHTKAVHTVDFTADKYHVVSGADDYTVKLWDIPNSKEILTFKEHSDYVRCGCASKLNPDLFITGSYDHTVKMFDARTSESVLSVEHGQPVESVLLFPSGGLLVSAGGRYVKVWDMLKGGQLLVSLKNHHKTVTCLCLSSSGQRLLSGSLDRKVKVYSTTSYKVVHSFDYAASILSLALAHEDETIVVGMTNGILSVKHRKSEAKKESLPRRRRPAYRTFIKGKNYMKQRDDILINRPAKKHLELYDRDLKHFRISKALDRVLDPTCTIKTPEITVSIIKELNRRGVLANALAGRDEKEISHVLNFLIRNLSQPRFAPVLINAAEIIIDIYLPVIGQSPVVDKKFLLLQGLVEKEIDYQRELLETLGMMDMLFATMRRKEGTSVLEHTSDGFPENKKIES,nucleolus,UTP15_HUMAN
