seqid,AA_A,AA_C,AA_D,AA_E,AA_F,AA_G,AA_H,AA_I,AA_K,AA_L,AA_M,AA_N,AA_P,AA_Q,AA_R,AA_S,AA_T,AA_V,AA_W,AA_Y,CLV_C14_Caspase3-7,DEG_APCC_KENBOX_2,DEG_Kelch_Keap1_1,DEG_SCF_TRCP1_1,DOC_ANK_TNKS_1,DOC_CYCLIN_RxL_1,DOC_MAPK_JIP1_4,DOC_MAPK_MEF2A_6,DOC_MAPK_NFAT4_5,DOC_MAPK_gen_1,DOC_PP1_RVXF_1,DOC_PP2A_B56_1,DOC_PP4_FxxP_1,DOC_WW_Pin1_4,D_repeats,ED_ratio,ELASTIN_LIKE,E_repeats,FG_repeats,FG_rich,FGxF,FRG,G_repeats,KAP_repeats,KL_hydropathy,K_repeats,LIG_14-3-3_CanoR_1,LIG_CaM_IQ_9,LIG_CtBP_PxDLS_1,LIG_EF_ALG2_ABM_1,LIG_EH_1,LIG_HCF-1_HBM_1,LIG_HOMEOBOX,LIG_KEPE_2,LIG_KLC1_WD_1,LIG_LIR_Gen_1,LIG_PAM2_1,LIG_PCNA_PIPBox_1,LIG_PDZ_Class_1,LIG_PDZ_Wminus1_1,LIG_PTAP_UEV_1,LIG_PTB_Apo_2,LIG_PTB_Phospho_1,LIG_Rb_LxCxE_1,LIG_SH2_CRK,LIG_SH2_GRB2like,LIG_SH2_NCK_1,LIG_SH2_SRC,LIG_SH2_STAP1,LIG_SH2_STAT5,LIG_SH3_2,LIG_SUMO_SIM_anti_2,LIG_SUMO_SIM_par_1,MOD_CDK_SPK_2,MOD_CDK_SPxK_1,MOD_CDK_SPxxK_3,MOD_CK1_1,MOD_CK2_1,MOD_DYRK1A_RPxSP_1,MOD_GSK3_1,MOD_N-GLC_1,MOD_NMyristoyl,MOD_PIKK_1,MOD_PKA_1,MOD_PKA_2,MOD_PKB_1,MOD_Plk_1,MOD_ProDKin_1,MOD_SUMO_for_1,MOD_SUMO_rev_2,N_repeats,PG_rich,PR_repeats,PTS_repeats,PY,P_repeats,QN_repeats,Q_repeats,REP_RGG,RG_repeats,RK_ratio,R_plus_Y,R_repeats,SGFYSG,SG_repeats,SR_repeats,S_repeats,TRG_ER_FFAT_1,TRG_ER_diArg_1,TRG_LysEnd_APsAcLL_1,TRG_NES_CRM1_1,TRG_NLS_MonoExtN_4,acidic,aliphatic,aromatic,basic,chain_expanding,complexity,custom_kappa,custom_omega,disorder_promoting,fcr,isoelectric_point,net_charge,polar_fraction,scd,srpipi,lrpipi,Water,Carbon,ssH,ssE,disL,disS,srELEC,lrELEC,sr_hb,lr_hb,srCATPI,lrCATPI,larkSIM,larkFAR,sequence,label,entry
A0A024R2Q3_HUMAN,0.1011523687580025,0.0140845070422535,0.0537772087067861,0.0614596670934699,0.0166453265044814,0.0717029449423815,0.0345710627400768,0.0422535211267605,0.0332906530089628,0.1203585147247119,0.0384122919334186,0.0396927016645326,0.0448143405889884,0.0627400768245838,0.0499359795134443,0.0537772087067861,0.0614596670934699,0.0691421254801536,0.0089628681177976,0.0217669654289372,2.0,0.0,0.0,1.0,0.0,1.0,0.0,3.0,0.0,1.0,1.0,1.0,0.0,3.0,42.0,0.1306201824170642,0.0,48.0,69.0,0.0,0.0,2.0,56.0,140.0,-0.1750320102432778,26.0,5.0,0.0,0.0,0.0,0.0,0.0,0.0,0.0,0.0,2.0,0.0,0.0,1.0,0.0,0.0,0.0,0.0,0.0,1.0,0.0,1.0,1.0,2.0,2.0,0.0,1.0,2.0,0.0,0.0,0.0,4.0,5.0,0.0,11.0,5.0,0.0,7.0,2.0,4.0,0.0,1.0,3.0,0.0,2.0,31.0,10.0,74.0,125.0,0.0,35.0,80.0,49.0,0.0,95.0,0.3930425881096072,56.0,39.0,6.0,98.0,81.0,42.0,0.0,0.0,3.0,1.0,0.0,0.115236875800256,0.3713188220230474,0.0473751600512163,0.0832266325224071,0.2432778489116517,2.7874509245538786,0.3029623091258241,0.3602821902183793,0.6286811779769527,0.1984635083226632,5.528057098388672,-25.0,0.3380281690140845,4.685074941973316,0.0580746753551718,0.0791741600299277,4.381568663102292,14.953690862668967,0.45263059580822,0.1673886898612692,0.0677779285433186,0.2360356075769906,-0.0424487821269322,-0.3441813021151715,0.1912789959809822,0.213937348443673,-0.0743228084425758,-0.1972507671839496,0.1309341760728762,0.2964323740674494,MATQADLMELDMAMEPDRKAAVSHWQQQSYLDSGIHSGATTTAPSLSGKGNPEEEDVDTSQVLYEWEQGFSQSFTQEQVADIDGQYAMTRAQRVRAAMFPETLDEGMQIPSTQFDAAHPTNVQRLAEPSQMLKHAVVNLINYQDDAELATRAIPELTKLLNDEDQVVVNKAAVMVHQLSKKEASRHAIMRSPQMVSAIVRTMQNTNDVETARCTAGTLHNLSHHREGLLAIFKSGGIPALVKMLGSPVDSVLFYAITTLHNLLLHQEGAKMAVRLAGGLQKMVALLNKTNVKFLAITTDCLQILAYGNQESKLIILASGGPQALVNIMRTYTYEKLLWTTSRVLKVLSVCSSNKPAIVEAGGMQALGLHLTDPSQRLVQNCLWTLRNLSDAATKQEGMEGLLGTLVQLLGSDDINVVTCAAGILSNLTCNNYKNKMMVCQVGGIEALVRTVLRAGDREDITEPAICALRHLTSRHQEAEMAQNAVRLHYGLPVVVKLLHPPSHWPLIKATVGLIRNLALCPANHAPLREQGAIPRLVQLLVRAHQDTQRRTSMGGTQQQFVEGVRMEEIVEGCTGALHILARDVHNRIVIRGLNTIPLFVQLLYSPIENIQRVAAGVLCELAQDKEAAEAIEAEGATAPLTELLHSRNEGVATYAAAVLFRMSEDKPQDYKKRLSVELTSSLFRTEPMAWNETADLGLDIGAQGEPLGYRQDDPSYRSFHSGGYGQDALGMDPMMEHEMGGHHPGADYPVDGLPDLGHAQDLMDGLPPGDSNQLAWFDTDL,cell_junction,A0A024R2Q3_HUMAN
NBDY_HUMAN,0.1029411764705882,0.0294117647058823,0.0294117647058823,0.0441176470588235,0.0,0.1029411764705882,0.0147058823529411,0.0,0.0735294117647058,0.0735294117647058,0.0147058823529411,0.0294117647058823,0.2352941176470588,0.0147058823529411,0.0588235294117647,0.088235294117647,0.0588235294117647,0.0,0.0147058823529411,0.0147058823529411,0.0,0.0,0.0,0.0,0.0,0.0,0.0,0.0,0.0,0.0,0.0,0.0,0.0,1.0,2.0,0.2876820724517808,0.0,3.0,7.0,0.0,0.0,0.0,7.0,28.0,-1.0058823529411764,5.0,1.0,0.0,0.0,0.0,0.0,0.0,0.0,0.0,0.0,0.0,0.0,0.0,0.0,0.0,1.0,0.0,0.0,0.0,0.0,0.0,0.0,0.0,0.0,0.0,1.0,0.0,0.0,0.0,0.0,0.0,1.0,0.0,0.0,2.0,0.0,0.0,0.0,0.0,1.0,0.0,0.0,1.0,0.0,0.0,2.0,0.0,20.0,26.0,0.0,16.0,3.0,1.0,0.0,11.0,-0.1823215567939546,5.0,4.0,0.0,13.0,10.0,6.0,0.0,0.0,0.0,0.0,1.0,0.0735294117647058,0.1911764705882352,0.0294117647058823,0.1323529411764706,0.4411764705882353,2.174304641496189,-0.6533617868280712,-1.0979473866371094,0.8235294117647058,0.2058823529411764,9.510684967041016,4.0,0.3382352941176471,0.0634645214978325,0.0711789195397459,0.0906502291844026,5.253558637880329,13.247944649417802,0.1992169052375474,0.1207952064270006,0.2165490124881877,0.3688815173948244,0.1626847793436162,-0.35611088411079,0.1602975853856887,0.2384847907947074,-0.0931544856587373,-0.2398469794132443,0.2010269820452108,0.0831729144949166,MGDQPCASGRSTLPPGNAREAKPPKKRCLLAPRWDYPEGTPNGGSTTLPSAPPPASAGLKSHPPPPEK,p-body,NBDY_HUMAN
RCCD1_HUMAN,0.1303191489361702,0.0186170212765957,0.0372340425531914,0.0851063829787234,0.026595744680851,0.1303191489361702,0.0186170212765957,0.0106382978723404,0.0212765957446808,0.1037234042553191,0.0079787234042553,0.0132978723404255,0.0611702127659574,0.0398936170212766,0.0691489361702127,0.0585106382978723,0.0425531914893617,0.0691489361702127,0.0319148936170212,0.0239361702127659,0.0,0.0,0.0,0.0,0.0,2.0,0.0,0.0,0.0,0.0,0.0,0.0,1.0,2.0,14.0,0.7884573603642703,0.0,32.0,59.0,4.0,0.0,12.0,49.0,80.0,-0.2513297872340425,8.0,1.0,0.0,0.0,0.0,0.0,0.0,0.0,0.0,0.0,0.0,0.0,0.0,0.0,0.0,0.0,0.0,0.0,0.0,2.0,0.0,0.0,1.0,1.0,6.0,0.0,0.0,0.0,1.0,1.0,0.0,1.0,0.0,0.0,4.0,1.0,0.0,1.0,0.0,2.0,0.0,1.0,2.0,0.0,0.0,5.0,0.0,49.0,61.0,0.0,23.0,20.0,15.0,3.0,75.0,1.0986122886681098,35.0,26.0,6.0,71.0,48.0,22.0,0.0,2.0,1.0,0.0,0.0,0.1223404255319148,0.3218085106382978,0.0824468085106382,0.0904255319148936,0.2739361702127659,2.6287738476353413,0.3422565042195667,-0.053242090597252,0.6941489361702128,0.2127659574468085,5.183536529541016,-12.0,0.3218085106382978,0.2087148007178927,0.0694167043105115,0.106453747343778,4.630514890807469,14.582080090633845,0.3644113620081696,0.2022320245311103,0.0880391383368846,0.2667200053592238,0.0179726545456621,-0.3932741368237132,0.1522385736307943,0.2292643429023004,-0.1268938342997302,-0.2811344069301926,0.1639843470344878,0.2212000467304695,MAEERPGAWFGFGFCGFGQELGSGRGRQVHSPSPLRAGVDICRVSASWSYTAFVTRGGRLELSGSASGAAGRCKDAWASEGLLAVLRAGPGPEALLQVWAAESALRGEPLWAQNVVPEAEGEDDPAGEAQAGRLPLLPCARAYVSPRAPFYRPLAPELRARQLELGAEHALLLDAAGQVFSWGGGRHGQLGHGTLEAELEPRLLEALQGLVMAEVAAGGWHSVCVSETGDIYIWGWNESGQLALPTRNLAEDGETVAREATELNEDGSQVKRTGGAEDGAPAPFIAVQPFPALLDLPMGSDAVKASCGSRHTAVVTRTGELYTWGWGKYGQLGHEDTTSLDRPRRVEYFVDKQLQVKAVTCGPWNTYVYAVEKGKS,chromosomes,RCCD1_HUMAN
MEI4_HUMAN,0.0415584415584415,0.0155844155844155,0.0441558441558441,0.0805194805194805,0.0493506493506493,0.0337662337662337,0.0285714285714285,0.0467532467532467,0.0649350649350649,0.1506493506493506,0.0129870129870129,0.0363636363636363,0.0285714285714285,0.0623376623376623,0.0389610389610389,0.1272727272727272,0.0519480519480519,0.0441558441558441,0.0129870129870129,0.0285714285714285,1.0,0.0,0.0,1.0,0.0,0.0,0.0,2.0,2.0,3.0,0.0,2.0,0.0,1.0,17.0,0.5753641449035618,0.0,31.0,32.0,0.0,0.0,0.0,13.0,52.0,-0.3031168831168831,25.0,1.0,1.0,0.0,0.0,0.0,0.0,0.0,0.0,0.0,2.0,0.0,0.0,0.0,0.0,0.0,1.0,1.0,0.0,1.0,1.0,1.0,1.0,2.0,7.0,0.0,2.0,0.0,0.0,0.0,0.0,7.0,6.0,0.0,11.0,4.0,0.0,3.0,1.0,2.0,0.0,8.0,1.0,0.0,2.0,14.0,0.0,26.0,80.0,0.0,11.0,38.0,24.0,0.0,28.0,-0.4855078157817007,26.0,15.0,0.0,62.0,64.0,49.0,0.0,0.0,2.0,0.0,0.0,0.1246753246753246,0.2961038961038961,0.0909090909090909,0.1038961038961039,0.2571428571428571,2.688143115053965,1.273582657664921,-0.1452014169932663,0.6025974025974026,0.2285714285714285,5.823390960693359,-8.0,0.3558441558441558,-0.3490970388860855,0.0647500500941523,0.0758398177783587,4.399213181677887,15.28341514988569,0.4857252124698791,0.1564853204284984,0.0724295899509467,0.2284482209152433,-0.0478393513394863,-0.32425092350121,0.2106953184280219,0.1993160331806061,-0.142104135662668,-0.2687177424403278,0.1228178973989192,0.3334255264086948,MDVQKWYLRTSKLALALAIIRSKPADKSSREYTEHLAMLLSEEQSKWRSKVEILEAEVMQLRQKLLVSRLCSGSFKSGYVSSQLEAQEPKSSESTLTSMEDSGCDLSNEQRTESSDLSQHFVESCTPTHFPPLPLVKRPCAILQNPLSSHMQFLQYLLELKNLTESGNLKRDLTHFEKDSSTVSDSVFQLLDGLITFYRNPKLPFSRFWTEAVGTLASLISDYNLSSHILKKCSKKLEEFEKTLLHAILGNNHINQFQVQHYVSQSLVTLGNCSLLRKSIISLLLSEVNGFADDLGAINQEQASYDVSRYENIFYLFWVLEQLLQKETEEGNTSSIGHDDQEIKKFLQKHDETIFQLSDAFPLFTFYLWRVGILLSSAQIETLRK,chromosomes,MEI4_HUMAN
SYNEM_HUMAN,0.0837060702875399,0.0038338658146964,0.050479233226837,0.1258785942492012,0.0217252396166134,0.0824281150159744,0.0217252396166134,0.0293929712460063,0.0434504792332268,0.0766773162939297,0.0127795527156549,0.0159744408945686,0.0434504792332268,0.0536741214057508,0.0856230031948881,0.0945686900958466,0.05814696485623,0.0696485623003194,0.0095846645367412,0.0172523961661341,5.0,0.0,0.0,0.0,2.0,1.0,0.0,5.0,2.0,6.0,4.0,0.0,4.0,15.0,79.0,0.9062403960206536,0.0,197.0,163.0,0.0,0.0,20.0,129.0,267.0,-0.7736741214057509,68.0,14.0,0.0,0.0,0.0,0.0,0.0,0.0,0.0,0.0,4.0,0.0,0.0,0.0,0.0,0.0,1.0,1.0,1.0,7.0,1.0,0.0,2.0,4.0,10.0,0.0,1.0,3.0,2.0,1.0,2.0,25.0,22.0,0.0,28.0,5.0,0.0,14.0,1.0,15.0,3.0,18.0,14.0,2.0,9.0,25.0,5.0,202.0,307.0,0.0,68.0,109.0,84.0,0.0,263.0,0.6711682738411701,161.0,134.0,12.0,277.0,282.0,148.0,0.0,15.0,3.0,3.0,0.0,0.1763578274760383,0.2722044728434505,0.0485623003194888,0.129073482428115,0.3488817891373802,2.728913457837443,-1.863667128940656,-0.0134895504521211,0.7431309904153355,0.3054313099041533,5.084095001220703,-74.0,0.3303514376996805,33.29085149290232,0.0690953307581669,0.0862648682913452,4.728196196870521,14.632379862492412,0.4090412188423613,0.2014373579494257,0.0818776441923839,0.2518832362297114,-0.0321181632382978,-0.4020847551653178,0.1906230835688319,0.2268571849935809,-0.0814612359841553,-0.2050524645283446,0.1556360883998308,0.2634974907665748,MLSWRLQTGPEKAELQELNARLYDYVCRVRELERENLLLEEELRGRRGREGLWAEGQARCAEEARSLRQQLDELSWATALAEGERDALRRELRELQRLDAEERAARGRLDAELGAQQRELQEALGARAALEALLGRLQAERRGLDAAHERDVRELRARAASLTMHFRARATGPAAPPPRLREVHDSYALLVAESWRETVQLYEDEVRELEEALRRGQESRLQAEEETRLCAQEAEALRREALGLEQLRARLEDALLRMREEYGIQAEERQRVIDCLEDEKATLTLAMADWLRDYQDLLQVKTGLSLEVATYRALLEGESNPEIVIWAEHVENMPSEFRNKSYHYTDSLLQRENERNLFSRQKAPLASFNHSSALYSNLSGHRGSQTGTSIGGDARRGFLGSGYSSSATTQQENSYGKAVSSQTNVRTFSPTYGLLRNTEAQVKTFPDRPKAGDTREVPVYIGEDSTIARESYRDRRDKVAAGASESTRSNERTVILGKKTEVKATREQERNRPETIRTKPEEKMFDSKEKASEERNLRWEELTKLDKEARQRESQQMKEKAKEKDSPKEKSVREREVPISLEVSQDRRAEVSPKGLQTPVKDAGGGTGREAEARELRFRLGTSDATGSLQGDSMTETVAENIVTSILKQFTQSPETEASADSFPDTKVTYVDRKELPGERKTKTEIVVESKLTEDVDVSDEAGLDYLLSKDIKEVGLKGKSAEQMIGDIINLGLKGREGRAKVVNVEIVEEPVSYVSGEKPEEFSVPFKVEEVEDVSPGPWGLVKEEEGYGESDVTFSVNQHRRTKQPQENTTHVEEVTEAGDSEGEQSYFVSTPDEHPGGHDRDDGSVYGQIHIEEESTIRYSWQDEIVQGTRRRTQKDGAVGEKVVKPLDVPAPSLEGDLGSTHWKEQARSGEFHAEPTVIEKEIKIPHEFHTSMKGISSKEPRQQLVEVIGQLEETLPERMREELSALTREGQGGPGSVSVDVKKVQGAGGSSVTLVAEVNVSQTVDADRLDLEELSKDEASEMEKAVESVVRESLSRQRSPAPGSPDEEGGAEAPAAGIRFRRWATRELYIPSGESEVAGGASHSSGQRTPQGPVSATVEVSSPTGFAQSQVLEDVSQAARHIKLGPSEVWRTERMSYEGPTAEVVEVSAGGDLSQAASPTGASRSVRHVTLGPGQSPLSREVIFLGPAPACPEAWGSPEPGPAESSADMDGSGRHSTFGCRQFHAEKEIIFQGPISAAGKVGDYFATEESVGTQTSVRQLQLGPKEGFSGQIQFTAPLSDKVELGVIGDSVHMEGLPGSSTSIRHISIGPQRHQTTQQIVYHGLVPQLGESGDSESTVHGEGSADVHQATHSHTSGRQTVMTEKSTFQSVVSESPQEDSAEDTSGAEMTSGVSRSFRHIRLGPTETETSEHIAIRGPVSRTFVLAGSADSPELGKLADSSRTLRHIAPGPKETSFTFQMDVSNVEAIRSRTQEAGALGVSDRGSWRDADSRNDQAVGVSFKASAGEGDQAHREQGKEQAMFDKKVQLQRMVDQRSVISDEKKVALLYLDNEEEENDGHWF,cell_junction,SYNEM_HUMAN
NKRF_HUMAN,0.0608695652173913,0.017391304347826,0.0492753623188405,0.0739130434782608,0.0260869565217391,0.0652173913043478,0.0217391304347826,0.0550724637681159,0.0927536231884058,0.0623188405797101,0.0217391304347826,0.0492753623188405,0.0507246376811594,0.0594202898550724,0.0507246376811594,0.0768115942028985,0.0594202898550724,0.0594202898550724,0.0072463768115942,0.0405797101449275,1.0,0.0,0.0,0.0,0.0,1.0,0.0,2.0,1.0,7.0,0.0,1.0,0.0,2.0,34.0,0.3958956570920137,0.0,51.0,63.0,0.0,0.0,4.0,45.0,141.0,-0.7391304347826085,64.0,3.0,0.0,1.0,0.0,0.0,0.0,0.0,0.0,0.0,2.0,1.0,0.0,0.0,0.0,0.0,1.0,1.0,0.0,2.0,1.0,1.0,2.0,4.0,9.0,0.0,1.0,1.0,1.0,0.0,0.0,4.0,11.0,0.0,12.0,8.0,0.0,7.0,1.0,4.0,0.0,4.0,2.0,2.0,2.0,34.0,10.0,70.0,129.0,2.0,35.0,75.0,41.0,0.0,80.0,-0.5908683314395271,63.0,35.0,6.0,98.0,88.0,53.0,0.0,4.0,2.0,0.0,1.0,0.1231884057971014,0.2594202898550725,0.0739130434782608,0.1434782608695652,0.3173913043478261,2.8214543666707974,0.7674886313770881,0.4672155306700791,0.6608695652173913,0.2666666666666666,8.942928314208984,14.0,0.3492753623188406,-0.1630460837950744,0.0684962024698881,0.0856336080023976,4.714100073468786,14.769723038012188,0.3547936998410894,0.2140013075194729,0.1032999784400478,0.2662301722605303,0.0429571772868409,-0.4078428402153396,0.1970022485828718,0.2321206466241404,-0.131589658097193,-0.2690713321293256,0.1658481071546161,0.2199785895191311,MEKILQMAEGIDIGEMPSYDLVLSKPSKGQKRHLSTCDGQNPPKKQAGSKFHARPRFEPVHFVASSSKDERQEDPYGPQTKEVNEQTHFASMPRDIYQDYTQDSFSIQDGNSQYCDSSGFILTKDQPVTANMYFDSGNPAPSTTSQQANSQSTPEPSPSQTFPESVVAEKQYFIEKLTATIWKNLSNPEMTSGSDKINYTYMLTRCIQACKTNPEYIYAPLKEIPPADIPKNKKLLTDGYACEVRCQNIYLTTGYAGSKNGSRDRATELAVKLLQKRIEVRVVRRKFKHTFGEDLVVCQIGMSSYEFPPALKPPEDLVVLGKDASGQPIFNASAKHWTNFVITENANDAIGILNNSASFNKMSIEYKYEMMPNRTWRCRVFLQDHCLAEGYGTKKTSKHAAADEALKILQKTQPTYPSVKSSQCHTGSSPRGSGKKKDIKDLVVYENSSNPVCTLNDTAQFNRMTVEYVYERMTGLRWKCKVILESEVIAEAVGVKKTVKYEAAGEAVKTLKKTQPTVINNLKKGAVEDVISRNEIQGRSAEEAYKQQIKEDNIGNQLLRKMGWTGGGLGKSGEGIREPISVKEQHKREGLGLDVERVNKIAKRDIEQIIRNYARSESHTDLTFSRELTNDERKQIHQIAQKYGLKSKSHGVGHDRYLVVGRKRRKEDLLDQLKQEGQVGHYELVMPQAN,nucleolus,NKRF_HUMAN
ZN185_HUMAN,0.0885341074020319,0.02322206095791,0.0478955007256894,0.0827285921625544,0.0188679245283018,0.0841799709724238,0.0087082728592162,0.0362844702467343,0.0551523947750362,0.0435413642960812,0.011611030478955,0.0203193033381712,0.0899854862119013,0.0435413642960812,0.0740203193033381,0.127721335268505,0.0653120464441219,0.0537010159651669,0.0058055152394775,0.0188679245283018,1.0,0.0,0.0,0.0,0.0,1.0,0.0,2.0,0.0,2.0,1.0,0.0,2.0,11.0,33.0,0.5340824859302579,0.0,57.0,71.0,0.0,0.0,10.0,58.0,161.0,-0.7654571843251088,38.0,8.0,0.0,0.0,0.0,0.0,1.0,0.0,0.0,0.0,1.0,0.0,0.0,0.0,0.0,0.0,0.0,0.0,1.0,2.0,2.0,1.0,2.0,1.0,6.0,1.0,0.0,2.0,2.0,1.0,1.0,18.0,11.0,1.0,22.0,4.0,0.0,5.0,5.0,15.0,2.0,3.0,9.0,0.0,6.0,14.0,0.0,113.0,195.0,4.0,62.0,44.0,30.0,6.0,109.0,0.2876820724517808,64.0,51.0,3.0,146.0,139.0,88.0,0.0,4.0,0.0,0.0,0.0,0.1306240928882438,0.2336719883889695,0.0435413642960812,0.1291727140783744,0.3497822931785196,2.706545942392754,-1.0141728783701809,0.2029720533176985,0.7677793904208998,0.2597968069666183,6.734653472900391,-1.0,0.3730043541364296,-2.1909970103232044,0.0657167053317926,0.088454419683186,4.94121724329015,14.059829711415448,0.2866277009570186,0.2048387171202225,0.141050969496247,0.3033202318785305,0.0886767704451523,-0.4149787474519089,0.2087063658965193,0.245496870212794,-0.0845427912515015,-0.2172206000742249,0.1873354404538277,0.1524522486823413,MSISALGGRTKGKPLPPGEEERNNVLKQMKVRTTLKGDKSWITKQDESEGRTIELPSGRSRATSFSSAGEVPKPRPPSTRAPTGYIIRGVFTKPIDSSSQPQQQFPKANGTPKSAASLVRTANAGPPRPSSSGYKMTTEDYKKLAPYNIRRSSTSGDTEEEEEEEVVPFSSDEQKRRSEAASGVLRRTAPREHSYVLSAAKKSTGPTQETQAPFIAKRVEVVEEDGPSEKSQDPPALARSTPGSNSADGGRTKASRAIWIECLPSMPSPAGSQELSSRGEEIVRLQILTPRAGLRLVAPDVEGMRSSPGNKDKEAPCSRELQRDLAGEEAFRAPNTDAARSSAQLSDGNVGSGATGSRPEGLAAVDIGSERGSSSATSVSAVPADRKSNSTAAQEDAKADPKGALADYEGKDVATRVGEAWQERPGAPRGGQGDPAVPAQQPADPSTPERQSSPSGSEQLVRRESCGSSVLTDFEGKDVATKVGEAWQDRPGAPRGGQGDPAVPTQQPADPSTPEQQNSPSGSEQFVRRESCTSRVRSPSSCMVTVTVTATSEQPHIYIPAPASELDSSSTTKGILFVKEYVNASEVSSGKPVSARYSNVSSIEDSFAMEKKPPCGSTPYSERTTGGICTYCNREIRDCPKITLEHLGICCHEYCFKCGICSKPMGDLLDQIFIHRDTIHCGKCYEKLF,cell_junction,ZN185_HUMAN
NPHP1_HUMAN,0.0546448087431694,0.0136612021857923,0.0505464480874316,0.1038251366120218,0.0355191256830601,0.0560109289617486,0.01775956284153,0.0491803278688524,0.0519125683060109,0.1174863387978142,0.0218579234972677,0.0368852459016393,0.0478142076502732,0.0546448087431694,0.064207650273224,0.0792349726775956,0.0546448087431694,0.0532786885245901,0.01775956284153,0.0191256830601092,2.0,0.0,0.0,0.0,0.0,1.0,0.0,3.0,2.0,4.0,1.0,3.0,1.0,4.0,37.0,0.706219262127298,0.0,76.0,67.0,0.0,0.0,4.0,41.0,113.0,-0.4852459016393441,38.0,7.0,0.0,0.0,0.0,0.0,0.0,0.0,0.0,1.0,7.0,0.0,0.0,0.0,0.0,0.0,0.0,0.0,0.0,2.0,0.0,0.0,2.0,1.0,5.0,0.0,3.0,3.0,0.0,0.0,1.0,6.0,7.0,0.0,9.0,4.0,0.0,4.0,0.0,7.0,1.0,4.0,4.0,0.0,2.0,27.0,0.0,82.0,133.0,4.0,35.0,67.0,40.0,0.0,88.0,0.2076393647782445,61.0,47.0,0.0,99.0,105.0,58.0,0.0,7.0,4.0,1.0,1.0,0.1543715846994535,0.296448087431694,0.0724043715846994,0.1161202185792349,0.3183060109289617,2.790920145141608,1.8654472631132832,-0.129294166549847,0.6352459016393442,0.2704918032786885,5.112346649169922,-28.0,0.3128415300546448,-1.2500016285694655,0.064512564392428,0.0802664281366092,4.499216513289096,15.016086881574736,0.4327929997718671,0.1778462639179526,0.0726666018259981,0.2427313624854679,-0.000932210225357,-0.3684614594464414,0.1970707975958271,0.2109382890468129,-0.1114078826913503,-0.2501376386744517,0.1383353146878833,0.2816775365430769,MLARRQRDPLQALRRRNQELKQQVDSLLSESQLKEALEPNKRQHIYQRCIQLKQAIDENKNALQKLSKADESAPVANYNQRKEEEHTLLDKLTQQLQGLAVTISRENITEVGAPTEEEEESESEDSEDSGGEEEDAEEEEEEKEENESHKWSTGEEYIAVGDFTAQQVGDLTFKKGEILLVIEKKPDGWWIAKDAKGNEGLVPRTYLEPYSEEEEGQESSEEGSEEDVEAVDETADGAEVKQRTDPHWSAVQKAISEAGIFCLVNHVSFCYLIVLMRNRMETVEDTNGSETGFRAWNVQSRGRIFLVSKPVLQINTVDVLTTMGAIPAGFRPSTLSQLLEEGNQFRANYFLQPELMPSQLAFRDLMWDATEGTIRSRPSRISLILTLWSCKMIPLPGMSIQVLSRHVRLCLFDGNKVLSNIHTVRATWQPKKPKTWTFSPQVTRILPCLLDGDCFIRSNSASPDLGILFELGISYIRNSTGERGELSCGWVFLKLFDASGVPIPAKTYELFLNGGTPYEKGIEVDPSISRRAHGSVFYQIMTMRRQPQLLVKLRSLNRRSRNVLSLLPETLIGNMCSIHLLIFYRQILGDVLLKDRMSLQSTDLISHPMLATFPMLLEQPDVMDALRSSWAGKESTLKRSEKRDKEFLKSTFLLVYHDCVLPLLHSTRLPPFRWAEEETETARWKVITDFLKQNQENQGALQALLSPDGVHEPFDLSEQTYDFLGEMRKNAV,cell_junction,NPHP1_HUMAN
MSH4_HUMAN,0.0673076923076923,0.0202991452991453,0.0373931623931623,0.0662393162393162,0.0363247863247863,0.0427350427350427,0.0149572649572649,0.0758547008547008,0.0587606837606837,0.0982905982905982,0.0235042735042735,0.0534188034188034,0.0438034188034188,0.0459401709401709,0.0448717948717948,0.1025641025641025,0.0737179487179487,0.047008547008547,0.0021367521367521,0.0448717948717948,0.0,0.0,1.0,0.0,0.0,1.0,0.0,1.0,0.0,2.0,3.0,6.0,0.0,11.0,35.0,0.5596157879354227,0.0,62.0,74.0,4.0,0.0,20.0,40.0,159.0,-0.239957264957265,55.0,7.0,0.0,1.0,0.0,0.0,0.0,0.0,0.0,0.0,11.0,0.0,1.0,0.0,0.0,1.0,6.0,4.0,0.0,3.0,1.0,0.0,2.0,3.0,16.0,0.0,3.0,4.0,0.0,0.0,2.0,15.0,6.0,0.0,21.0,11.0,0.0,5.0,0.0,8.0,0.0,11.0,11.0,0.0,5.0,50.0,0.0,83.0,206.0,0.0,41.0,93.0,43.0,0.0,82.0,-0.2641515750415867,84.0,42.0,9.0,136.0,138.0,96.0,0.0,1.0,2.0,0.0,0.0,0.1036324786324786,0.3119658119658119,0.0833333333333333,0.1036324786324786,0.251068376068376,2.802129102854832,-1.153941496425809,-0.0967561039381353,0.5982905982905983,0.2072649572649572,7.241207122802734,0.0,0.3536324786324786,-1.2251883486950204,0.0594331180870085,0.0800533588908824,4.464175278728374,15.0427110883848,0.4172446757201354,0.1902465918555888,0.0833533977037415,0.2461246810166392,0.016915768425947,-0.3591378970196932,0.2017279589507505,0.2166106197973954,-0.1223300280815988,-0.2690995033833538,0.1454472164364919,0.2691129229841487,MLRPEISSTSPSAPAVSPSSGETRSPQGPRYNFGLQETPQSRPSVQVVSASTCPGTSGAAGDRSSSSSSLPCPAPNSRPAQGSYFGNKRAYAENTVASNFTFGASSSSARDTNYPQTLKTPLSTGNPQRSGYKSWTPQVGYSASSSSAISAHSPSVIVAVVEGRGLARGEIGMASIDLKNPQIILSQFADNTTYAKVITKLKILSPLEIIMSNTACAVGNSTKLFTLITENFKNVNFTTIQRKYFNETKGLEYIEQLCIAEFSTVLMEVQSKYYCLAAVAALLKYVEFIQNSVYAPKSLKICFQGSEQTAMIDSSSAQNLELLINNQDYRNNHTLFGVLNYTKTPGGSRRLRSNILEPLVDIETINMRLDCVQELLQDEELFFGLQSVISRFLDTEQLLSVLVQIPKQDTVNAAESKITNLIYLKHTLELVDPLKIAMKNCNTPLLRAYYGSLEDKRFGIILEKIKTVINDDARYMKGCLNMRTQKCYAVRSNINEFLDIARRTYTEIVDDIAGMISQLGEKYSLPLRTSFSSARGFFIQMTTDCIALPSDQLPSEFIKISKVKNSYSFTSADLIKMNERCQESLREIYHMTYMIVCKLLSEIYEHIHCLYKLSDTVSMLDMLLSFAHACTLSDYVRPEFTDTLAIKQGWHPILEKISAEKPIANNTYVTEGSNFLIITGPNMSGKSTYLKQIALCQIMAQIGSYVPAEYSSFRIAKQIFTRISTDDDIETNSSTFMKEMKEIAYILHNANDKSLILIDELGRGTNTEEGIGICYAVCEYLLSLKAFTLFATHFLELCHIDALYPNVENMHFEVQHVKNTSRNKEAILYTYKLSKGLTEEKNYGLKAAEVSSLPPSIVLDAKEITTQITRQILQNQRSTPEMERQRAVYHLATRLVQTARNSQLDPDSLRIYLSNLKKKYKEDFPRTEQVPEKTEE,chromosomes,MSH4_HUMAN
RRP8_HUMAN,0.094298245614035,0.0285087719298245,0.0526315789473684,0.0679824561403508,0.0394736842105263,0.050438596491228,0.0197368421052631,0.0153508771929824,0.0899122807017543,0.0855263157894736,0.0087719298245614,0.0263157894736842,0.0855263157894736,0.0614035087719298,0.0789473684210526,0.0855263157894736,0.0328947368421052,0.0592105263157894,0.0087719298245614,0.0087719298245614,0.0,0.0,0.0,0.0,0.0,1.0,1.0,0.0,0.0,2.0,1.0,1.0,2.0,2.0,24.0,0.2468600779315258,0.0,31.0,41.0,0.0,0.0,4.0,23.0,123.0,-0.7550438596491228,41.0,4.0,0.0,0.0,0.0,0.0,0.0,0.0,0.0,0.0,1.0,0.0,0.0,0.0,0.0,0.0,1.0,0.0,0.0,1.0,1.0,0.0,0.0,0.0,1.0,0.0,0.0,0.0,1.0,0.0,1.0,3.0,3.0,0.0,5.0,0.0,0.0,3.0,1.0,1.0,1.0,1.0,2.0,0.0,0.0,12.0,0.0,75.0,93.0,0.0,39.0,40.0,28.0,0.0,59.0,-0.1267517056391439,40.0,36.0,0.0,62.0,75.0,39.0,0.0,3.0,1.0,0.0,6.0,0.1206140350877193,0.2631578947368421,0.0570175438596491,0.168859649122807,0.375,2.706203211946989,3.605512572373888,-0.7009194985340894,0.7192982456140351,0.2894736842105263,9.508548736572266,22.0,0.3048245614035088,3.913142234381812,0.0692988413883951,0.0800394909299991,4.743576827746156,14.641394438907705,0.4127807637221798,0.1506770571499024,0.1011587005825062,0.2656509564495219,-0.0246996091691819,-0.370991170154416,0.188226175844524,0.2156909785468901,-0.1192311757455346,-0.2376807469551563,0.1460136706116036,0.2609344016162233,MFEEPEWAEAAPVAAGLGPVISRPPPAASSQNKGSKRRQLLATLRALEAASLSQHPPSLCISDSEEEEEERKKKCPKKASFASASAEVGKKGKKKCQKQGPPCSDSEEEVERKKKCHKQALVGSDSAEDEKRKRKCQKHAPINSAQHLDNVDQTGPKAWKGSTTNDPPKQSPGSTSPKPPHTLSRKQWRNRQKNKRRCKNKFQPPQVPDQAPAEAPTEKTEVSPVPRTDSHEARAGALRARMAQRLDGARFRYLNEQLYSGPSSAAQRLFQEDPEAFLLYHRGFQSQVKKWPLQPVDRIARDLRQRPASLVVADFGCGDCRLASSIRNPVHCFDLASLDPRVTVCDMAQVPLEDESVDVAVFCLSLMGTNIRDFLEEANRVLKPGGLLKVAEVSSRFEDVRTFLRAVTKLGFKIVSKDLTNSHFFLFDFQKTGPPLVGPKAQLSGLQLQPCLYKRR,nucleolus,RRP8_HUMAN
U3IP2_HUMAN,0.1031578947368421,0.0231578947368421,0.0484210526315789,0.0842105263157894,0.0231578947368421,0.0926315789473684,0.031578947368421,0.0442105263157894,0.0610526315789473,0.0947368421052631,0.0084210526315789,0.0147368421052631,0.0357894736842105,0.0421052631578947,0.0757894736842105,0.0947368421052631,0.0273684210526315,0.0631578947368421,0.0189473684210526,0.0126315789473684,0.0,0.0,0.0,0.0,0.0,1.0,0.0,0.0,0.0,4.0,0.0,4.0,0.0,1.0,23.0,0.5355182363563621,0.0,40.0,55.0,0.0,0.0,14.0,44.0,95.0,-0.4174736842105263,29.0,1.0,0.0,0.0,0.0,0.0,0.0,0.0,0.0,0.0,0.0,0.0,0.0,0.0,0.0,0.0,0.0,0.0,0.0,0.0,0.0,0.0,0.0,0.0,4.0,0.0,1.0,1.0,0.0,0.0,0.0,3.0,3.0,0.0,7.0,0.0,0.0,1.0,1.0,2.0,0.0,5.0,1.0,0.0,3.0,7.0,5.0,53.0,75.0,0.0,17.0,27.0,20.0,0.0,80.0,0.2097205309820691,42.0,36.0,0.0,89.0,81.0,45.0,0.0,4.0,5.0,0.0,1.0,0.1326315789473684,0.3136842105263158,0.0547368421052631,0.1368421052631579,0.3052631578947368,2.709728341376933,1.5005846157930287,-0.3455098416130268,0.6968421052631579,0.2694736842105263,8.012439727783203,2.0,0.3263157894736842,-1.4184841814473526,0.0625633213592085,0.0889583074375214,4.523384478640151,14.708917982680356,0.4075202452032033,0.2010084624495564,0.0707160688407535,0.249951961663141,-3.564531560750025e-05,-0.4137667905623778,0.1770694052538098,0.2223502196658859,-0.0909536553698527,-0.2263553776504466,0.1497867416281884,0.2647878024708817,MSATAAARKRGKPASGAGAGAGAGKRRRKADSAGDRGKSKGGGKMNEEISSDSESESLAPRKPEEEEEEELEETAQEKKLRLAKLYLEQLRQQEEEKAEARAFEEDQVAGRLKEDVLEQRGRLQKLVAKEIQAPASADIRVLRGHQLSITCLVVTPDDSAIFSAAKDCSIIKWSVESGRKLHVIPRAKKGAEGKPPGHSSHVLCMAISSDGKYLASGDRSKLILIWEAQSCQHLYTFTGHRDAVSGLAFRRGTHQLYSTSHDRSVKVWNVAENSYVETLFGHQDAVAALDALSRECCVTAGGRDGTVRVWKIPEESQLVFYGHQGSIDCIHLINEEHMVSGADDGSVALWGLSKKRPLALQREAHGLRGEPGLEQPFWISSVAALLNTDLVATGSHSSCVRLWQCGEGFRQLDLLCDIPLVGFINSLKFSSSGDFLVAGVGQEHRLGRWWRIKEARNSVCIIPLRRVPVPPAAGS,nucleolus,U3IP2_HUMAN
PGRP1_HUMAN,0.0918367346938775,0.0357142857142857,0.0255102040816326,0.0306122448979591,0.0153061224489795,0.086734693877551,0.0459183673469387,0.0306122448979591,0.0153061224489795,0.1071428571428571,0.0306122448979591,0.0510204081632653,0.0612244897959183,0.0612244897959183,0.0663265306122449,0.0816326530612244,0.0357142857142857,0.0561224489795918,0.0306122448979591,0.0408163265306122,0.0,0.0,0.0,0.0,0.0,0.0,0.0,0.0,0.0,0.0,1.0,0.0,0.0,4.0,5.0,0.1541506798272583,0.0,6.0,20.0,0.0,0.0,2.0,17.0,33.0,-0.2617346938775511,3.0,1.0,0.0,0.0,0.0,0.0,0.0,0.0,0.0,0.0,1.0,0.0,0.0,0.0,0.0,0.0,0.0,0.0,0.0,2.0,0.0,0.0,0.0,0.0,2.0,0.0,0.0,0.0,0.0,0.0,0.0,2.0,0.0,1.0,3.0,1.0,0.0,0.0,0.0,1.0,0.0,0.0,4.0,0.0,0.0,10.0,0.0,25.0,35.0,0.0,12.0,22.0,12.0,0.0,30.0,1.252762968495368,21.0,13.0,0.0,33.0,29.0,16.0,0.0,0.0,2.0,0.0,0.0,0.0561224489795918,0.3163265306122449,0.086734693877551,0.0816326530612244,0.1989795918367347,2.682848442251736,-0.5666526614366302,-0.3878684094759058,0.6020408163265306,0.1377551020408163,8.92220687866211,5.0,0.3979591836734694,0.1300072750749319,0.0794289672478596,0.1159288805443966,4.530156478778486,15.123921310921176,0.3568027395813624,0.206610135019873,0.103843961648275,0.2657286801092552,0.0651998620548845,-0.3804446967464867,0.1801135115694489,0.2599882807616251,-0.1288578430910445,-0.3072040028187849,0.1667684443220106,0.2268473463900567,MSRRSMLLAWALPSLLRLGAAQETEDPACCSPIVPRNEWKALASECAQHLSLPLRYVVVSHTAGSSCNTPASCQQQARNVQHYHMKTLGWCDVGYNFLIGEDGLVYEGRGWNFTGAHSGHLWNPMSIGISFMGNYMDRVPTPQAIRAAQGLLACGVAQGALRSNYVLKGHRDVQRTLSPGNQLYHLIQNWPHYRSP,stress_granule,PGRP1_HUMAN
RPP40_HUMAN,0.0385674931129476,0.0303030303030303,0.0385674931129476,0.0771349862258953,0.0550964187327823,0.046831955922865,0.0413223140495867,0.046831955922865,0.0661157024793388,0.1239669421487603,0.0192837465564738,0.0550964187327823,0.0550964187327823,0.0303030303030303,0.0330578512396694,0.0771349862258953,0.0523415977961432,0.0523415977961432,0.0165289256198347,0.0440771349862259,0.0,0.0,0.0,0.0,0.0,2.0,0.0,2.0,0.0,2.0,3.0,1.0,3.0,3.0,14.0,0.659245628884264,0.0,28.0,37.0,0.0,0.0,2.0,17.0,58.0,-0.2823691460055096,24.0,2.0,0.0,0.0,0.0,0.0,1.0,0.0,0.0,0.0,4.0,0.0,0.0,0.0,0.0,0.0,1.0,1.0,0.0,1.0,1.0,1.0,0.0,1.0,5.0,0.0,2.0,2.0,0.0,0.0,0.0,4.0,4.0,0.0,3.0,0.0,0.0,1.0,1.0,2.0,0.0,3.0,3.0,0.0,3.0,20.0,0.0,32.0,67.0,2.0,20.0,31.0,11.0,0.0,29.0,-0.6539264674066639,28.0,12.0,0.0,45.0,40.0,28.0,0.0,1.0,4.0,1.0,0.0,0.1157024793388429,0.2809917355371901,0.1157024793388429,0.0991735537190082,0.2699724517906336,2.7798894428992047,-0.8357352713948724,-2.162818382413415,0.5564738292011019,0.2148760330578512,6.216617584228516,-6.0,0.3333333333333333,-1.3797909421505314,0.0754323792835949,0.0884630158159733,4.488136305917889,15.19481625144688,0.3683850449487296,0.2069424616286052,0.0845120534615736,0.2665028090079905,0.0768581495366605,-0.3659180886332288,0.1944281313202585,0.2093918724558292,-0.1749345386756491,-0.3282386504690993,0.1568128691226507,0.220724316390191,MATLRRLREAPRHLLVCEKSNFGNHKSRHRHLVQTHYYNYRVSFLIPECGILSEELKNLVMNTGPYYFVKNLPLHELITPEFISTFIKKGSCYALTYNTHIDEDNTVALLPNGKLILSLDKDTYEETGLQGHPSQFSGRKIMKFIVSIDLMELSLNLDSKKYERISWSFKEKKPLKFDFLLAWHKTGSEESTMMSYFSKYQIQEHQPKVALSTLRDLQCPVLQSSELEGTPEVSCRALELFDWLGAVFSNVDLNNEPNNFISTYCCPEPSTVVAKAYLCTITGFILPEKICLLLEHLCHYFDEPKLAPWVTLSVQGFADSPVSWEKNEHGFRKGGEHLYNFVIFNNQDYWLQMAVGANDHCPP,nucleolus,RPP40_HUMAN
PIAS1_HUMAN,0.0552995391705069,0.0261136712749615,0.053763440860215,0.0445468509984639,0.0291858678955453,0.0368663594470046,0.0353302611367127,0.0476190476190476,0.053763440860215,0.1167434715821812,0.0230414746543778,0.0353302611367127,0.0798771121351766,0.0445468509984639,0.0414746543778801,0.1244239631336405,0.0706605222734255,0.0522273425499231,0.0046082949308755,0.0245775729646697,0.0,0.0,0.0,0.0,0.0,0.0,0.0,5.0,0.0,2.0,0.0,0.0,0.0,9.0,35.0,-0.1823215567939546,0.0,29.0,43.0,0.0,0.0,2.0,24.0,123.0,-0.2930875576036866,35.0,7.0,0.0,0.0,0.0,0.0,0.0,0.0,0.0,0.0,1.0,0.0,1.0,0.0,0.0,0.0,0.0,0.0,0.0,0.0,1.0,0.0,1.0,2.0,6.0,1.0,0.0,3.0,0.0,0.0,1.0,9.0,4.0,0.0,17.0,7.0,0.0,2.0,2.0,8.0,0.0,9.0,9.0,1.0,1.0,23.0,5.0,79.0,179.0,6.0,52.0,52.0,29.0,0.0,51.0,-0.251314428280906,43.0,27.0,0.0,105.0,108.0,81.0,0.0,1.0,3.0,1.0,0.0,0.0983102918586789,0.2949308755760368,0.0583717357910906,0.0952380952380952,0.2734254992319508,2.7682386107138246,1.4175569047101966,0.7540904300363686,0.6405529953917051,0.1935483870967742,6.940746307373047,-2.0,0.3732718894009216,-3.252491705853987,0.0611344288072979,0.0780382969321456,4.664571997451407,14.60654696665222,0.3290491759935509,0.1938458746243574,0.1242404380610234,0.2862509527257318,0.0937434997897096,-0.3633227333919542,0.2112414139506978,0.2228879395579191,-0.1103168755058621,-0.2377758437329522,0.1657633743435434,0.1969649684281279,MADSAELKQMVMSLRVSELQVLLGYAGRNKHGRKHELLTKALHLLKAGCSPAVQMKIKELYRRRFPQKIMTPADLSIPNVHSSPMPATLSPSTIPQLTYDGHPASSPLLPVSLLGPKHELELPHLTSALHPVHPDIKLQKLPFYDLLDELIKPTSLASDNSQRFRETCFAFALTPQQVQQISSSMDISGTKCDFTVQVQLRFCLSETSCPQEDHFPPNLCVKVNTKPCSLPGYLPPTKNGVEPKRPSRPINITSLVRLSTTVPNTIVVSWTAEIGRNYSMAVYLVKQLSSTVLLQRLRAKGIRNPDHSRALIKEKLTADPDSEIATTSLRVSLLCPLGKMRLTIPCRALTCSHLQCFDATLYIQMNEKKPTWVCPVCDKKAPYEHLIIDGLFMEILKYCTDCDEIQFKEDGTWAPMRSKKEVQEVSASYNGVDGCLSSTLEHQVASHHQSSNKNKKVEVIDLTIDSSSDEEEEEPSAKRTCPSLSPTSPLNNKGILSLPHQASPVSRTPSLPAVDTSYINTSLIQDYRHPFHMTPMPYDLQGLDFFPFLSGDNQHYNTSLLAAAAAAVSDDQDLLHSSRFFPYTSSQMFLDQLSAGGSTSLPTTNGSSSGSNSSLVSSNSLRESHSHTVTNRSSTDTASIFGIIPDIISLD,nuclear_speckle,PIAS1_HUMAN
RL1D1_HUMAN,0.0693877551020408,0.0081632653061224,0.0306122448979591,0.0816326530612244,0.0265306122448979,0.0387755102040816,0.0183673469387755,0.0448979591836734,0.1591836734693877,0.0816326530612244,0.0061224489795918,0.0346938775510204,0.0673469387755102,0.0326530612244898,0.0612244897959183,0.1040816326530612,0.0653061224489796,0.0510204081632653,0.0081632653061224,0.010204081632653,0.0,0.0,0.0,0.0,0.0,2.0,0.0,3.0,0.0,4.0,1.0,1.0,1.0,12.0,15.0,0.9409833444645266,0.0,40.0,32.0,0.0,0.0,6.0,19.0,145.0,-0.8987755102040816,78.0,4.0,0.0,0.0,0.0,0.0,0.0,0.0,0.0,0.0,2.0,0.0,0.0,0.0,0.0,0.0,0.0,0.0,0.0,2.0,0.0,0.0,0.0,1.0,0.0,0.0,0.0,2.0,4.0,6.0,2.0,7.0,4.0,0.0,15.0,5.0,0.0,1.0,1.0,2.0,0.0,2.0,12.0,3.0,2.0,17.0,0.0,63.0,116.0,0.0,33.0,33.0,16.0,0.0,49.0,-0.9354606479818752,35.0,30.0,0.0,70.0,81.0,51.0,0.0,3.0,3.0,0.0,4.0,0.1122448979591836,0.2530612244897959,0.0448979591836734,0.2204081632653061,0.4,2.6434096221485235,0.2839796908012455,0.0642712602078187,0.7285714285714285,0.3326530612244898,10.134464263916016,53.0,0.3020408163265306,30.096246342542965,0.0527943505509005,0.0623940554342482,4.698070622180882,14.494862242548736,0.4184655438078201,0.1664693724690656,0.0846865989520348,0.254601105416806,-0.0086249281031991,-0.3912989824846965,0.1883635382489688,0.1983494081539409,-0.0988629135642335,-0.2138838272870834,0.1438045671877193,0.2683075765526107,MEDSASASLSSAAATGTSTSTPAAPTARKQLDKEQVRKAVDALLTHCKSRKNNYGLLLNENESLFLMVVLWKIPSKELRVRLTLPHSIRSDSEDICLFTKDEPNSTPEKTEQFYRKLLNKHGIKTVSQIISLQTLKKEYKSYEAKLRLLSSFDFFLTDARIRRLLPSLIGRHFYQRKKVPVSVNLLSKNLSREINDCIGGTVLNISKSGSCSAIRIGHVGMQIEHIIENIVAVTKGLSEKLPEKWESVKLLFVKTEKSAALPIFSSFVSNWDEATKRSLLNKKKKEARRKRRERNFEKQKERKKKRQQARKTASVLSKDDVAPESGDTTVKKPESKKEQTPEHGKKKRGRGKAQVKATNESEDEIPQLVPIGKKTPANEKVEIQKHATGKKSPAKSPNPSTPRGKKRKALPASETPKAAESETPGKSPEKKPKIKEEAVKEKSPSLGKKDARQTPKKPEAKFFTTPSKSVRKASHTPKKWPKKPKVPQST,nucleolus,RL1D1_HUMAN
NOL4_HUMAN,0.0595611285266457,0.0109717868338558,0.0768025078369906,0.0799373040752351,0.0250783699059561,0.0658307210031347,0.0219435736677116,0.0329153605015673,0.0595611285266457,0.0768025078369906,0.0329153605015673,0.0517241379310344,0.0360501567398119,0.0517241379310344,0.0689655172413793,0.1253918495297805,0.0454545454545454,0.0423197492163009,0.0031347962382445,0.0329153605015673,5.0,0.0,0.0,2.0,0.0,2.0,0.0,2.0,0.0,3.0,0.0,2.0,0.0,4.0,49.0,0.0392207131532813,0.0,51.0,58.0,0.0,0.0,8.0,42.0,99.0,-0.900156739811912,38.0,2.0,0.0,1.0,0.0,0.0,0.0,0.0,0.0,0.0,2.0,0.0,0.0,0.0,0.0,0.0,0.0,0.0,0.0,5.0,1.0,0.0,2.0,3.0,3.0,0.0,0.0,0.0,0.0,0.0,0.0,12.0,9.0,0.0,17.0,7.0,0.0,3.0,0.0,2.0,1.0,6.0,4.0,1.0,3.0,33.0,10.0,67.0,132.0,0.0,23.0,66.0,33.0,3.0,86.0,0.1431008436406732,65.0,44.0,3.0,122.0,124.0,80.0,0.0,4.0,2.0,1.0,1.0,0.1567398119122257,0.2445141065830721,0.061128526645768,0.128526645768025,0.3213166144200627,2.76422619874822,1.092224335734372,-0.2947840315026647,0.6912225705329154,0.2852664576802508,5.416011810302734,-18.0,0.3730407523510972,-1.4000893002830723,0.073413103289067,0.0888846203499023,4.773867163468269,14.73854540107632,0.3943770553810291,0.1849167547825256,0.1012939758559597,0.2708223543491522,0.007186428321377,-0.4042758800628995,0.2303234873856023,0.2431741725792184,-0.1095663106218944,-0.2359333963295749,0.1514281165195059,0.2476442150528454,MESERDMYRQFQDWCLRTYGDSGKTKTVTRKKYERIVQLLNGSESSSTDNAKFKFWVKSKGFQLGQPDEVRGGGGGAKQVLYVPVKTTDGVGVDEKLSLRRVAVVEDFFDIIYSMHVETGPNGEQIRKHAGQKRTYKAISESYAFLPREAVTRFLMSCSECQKRMHLNPDGTDHKDNGKPPTLVTSMIDYNMPITMAYMKHMKLQLLNSQQDEDESSIESDEFDMSDSTRMSAVNSDLSSNLEERMQSPQNLHGQQDDDSAAESFNGNETLGHSSIASGGTHSREMGDSNSDGKTGLEQDEQPLNLSDSPLSAQLTSEYRIDDHNSNGKNKYKNLLISDLKMEREARENGSKSPAHSYSSYDSGKNESVDRGAEDLSLNRGDEDEDDHEDHDDSEKVNETDGVEAERLKAFNMFVRLFVDENLDRMVPISKQPKEKIQAIIDSCRRQFPEYQERARKRIRTYLKSCRRMKRSGFEMSRPIPSHLTSAVAESILASACESESRNAAKRMRLERQQDESAPADKQCKPEATQATYSTSAVPGSQDVLYINGNGTYSYHSYRGLGGGLLNLNDASSSGPTDLSMKRQLATSSGSSSSSNSRPQLSPTEINAVRQLVAGYRESAAFLLRSADELENLILQQN,nucleolus,NOL4_HUMAN
RPP14_HUMAN,0.0887096774193548,0.032258064516129,0.0403225806451612,0.0564516129032258,0.0403225806451612,0.0564516129032258,0.0080645161290322,0.0403225806451612,0.0725806451612903,0.1612903225806451,0.0161290322580645,0.0241935483870967,0.0403225806451612,0.032258064516129,0.032258064516129,0.0887096774193548,0.032258064516129,0.0806451612903225,0.0080645161290322,0.0483870967741935,0.0,0.0,0.0,0.0,0.0,1.0,0.0,0.0,0.0,0.0,0.0,0.0,0.0,1.0,5.0,0.2876820724517808,0.0,7.0,12.0,0.0,0.0,2.0,7.0,25.0,0.2758064516129032,9.0,1.0,0.0,0.0,0.0,0.0,0.0,0.0,0.0,0.0,2.0,0.0,0.0,0.0,0.0,0.0,0.0,0.0,0.0,2.0,0.0,0.0,0.0,1.0,0.0,0.0,1.0,2.0,0.0,0.0,0.0,2.0,1.0,0.0,1.0,0.0,0.0,0.0,0.0,0.0,0.0,1.0,1.0,0.0,1.0,3.0,0.0,9.0,20.0,0.0,5.0,7.0,4.0,0.0,11.0,-0.6931471805599453,10.0,4.0,0.0,18.0,15.0,11.0,0.0,0.0,1.0,1.0,0.0,0.0967741935483871,0.3870967741935484,0.0967741935483871,0.1048387096774193,0.2419354838709677,2.5308187936328914,0.6515372963175062,-0.2064198935624681,0.5483870967741935,0.2016129032258064,7.816333770751953,1.0,0.2741935483870967,-0.6926970212713756,0.0532528346212897,0.0744559035915985,4.159921242105683,15.170810786785683,0.4484442088124297,0.1995048511362825,0.0537234668344462,0.2214797883573447,0.0020680715422193,-0.3565426323207443,0.1715901982016788,0.1825724347786259,-0.1283902738649994,-0.2888011056074195,0.136009764150889,0.2973576411121488,MPAPAATYERVVYKNPSEYHYMKVCLEFQDCGVGLNAAQFKQLLISAVKDLFGEVDAALPLDILTYEEKTLSAILRICSSGLVKLWSSLTLLGSYKGKKCAFRVIQVSPFLLALSGNSRELVLD,nucleolus,RPP14_HUMAN
LC7L3_HUMAN,0.0393518518518518,0.0162037037037037,0.0671296296296296,0.1412037037037037,0.0138888888888888,0.0439814814814814,0.0231481481481481,0.0231481481481481,0.099537037037037,0.0625,0.0185185185185185,0.0231481481481481,0.011574074074074,0.0439814814814814,0.1712962962962963,0.1134259259259259,0.0347222222222222,0.0347222222222222,0.0023148148148148,0.0162037037037037,0.0,0.0,0.0,0.0,0.0,0.0,0.0,0.0,0.0,1.0,0.0,1.0,0.0,0.0,29.0,0.7259370033829363,0.0,61.0,25.0,0.0,0.0,4.0,19.0,65.0,-1.698611111111111,43.0,3.0,0.0,0.0,0.0,0.0,0.0,0.0,0.0,0.0,1.0,0.0,1.0,0.0,0.0,0.0,0.0,0.0,0.0,1.0,0.0,0.0,0.0,1.0,2.0,0.0,1.0,0.0,0.0,0.0,0.0,5.0,4.0,0.0,7.0,1.0,0.0,2.0,7.0,9.0,4.0,0.0,0.0,3.0,8.0,10.0,5.0,79.0,69.0,0.0,5.0,29.0,19.0,0.0,93.0,0.5332984796180493,81.0,74.0,0.0,68.0,123.0,49.0,0.0,7.0,1.0,0.0,2.0,0.2083333333333333,0.1782407407407407,0.0324074074074074,0.2708333333333333,0.4907407407407407,2.543910979210372,-1.8390734870003544,-2.1669359042380045,0.7893518518518519,0.4791666666666667,9.805164337158203,27.0,0.2986111111111111,-0.3171798379575318,0.0778246906465006,0.0794221914425275,4.921996837588352,14.827104437488908,0.5347191727244723,0.1300618868864158,0.0717468278429599,0.2221710621825233,-0.2385229222730328,-0.4035525145654637,0.2139895157868397,0.2321315465070627,-0.0935350085131935,-0.190816859723385,0.1151656077621416,0.370918751129617,MISAAQLLDELMGRDRNLAPDEKRSNVRWDHESVCKYYLCGFCPAELFTNTRSDLGPCEKIHDENLRKQYEKSSRFMKVGYERDFLRYLQSLLAEVERRIRRGHARLALSQNQQSSGAAGPTGKNEEKIQVLTDKIDVLLQQIEELGSEGKVEEAQGMMKLVEQLKEERELLRSTTSTIESFAAQEKQMEVCEVCGAFLIVGDAQSRVDDHLMGKQHMGYAKIKATVEELKEKLRKRTEEPDRDERLKKEKQEREEREKEREREREERERKRRREEEEREKERARDRERRKRSRSRSRHSSRTSDRRCSRSRDHKRSRSRERRRSRSRDRRRSRSHDRSERKHRSRSRDRRRSKSRDRKSYKHRSKSRDREQDRKSKEKEKRGSDDKKSSVKSGSREKQSEDTNTESKESDTKNEVNGTSEDIKSEGDTQSN,nuclear_speckle,LC7L3_HUMAN
RPP29_HUMAN,0.0681818181818181,0.0136363636363636,0.0454545454545454,0.0545454545454545,0.0454545454545454,0.0409090909090909,0.0227272727272727,0.0681818181818181,0.1272727272727272,0.1,0.0136363636363636,0.009090909090909,0.0409090909090909,0.0681818181818181,0.0772727272727272,0.0772727272727272,0.0454545454545454,0.0454545454545454,0.0045454545454545,0.0318181818181818,1.0,0.0,0.0,0.0,0.0,1.0,0.0,1.0,1.0,3.0,0.0,0.0,0.0,1.0,10.0,0.1670540846631662,0.0,12.0,19.0,0.0,0.0,0.0,9.0,52.0,-0.5704545454545455,28.0,1.0,0.0,0.0,0.0,0.0,0.0,0.0,0.0,0.0,1.0,0.0,0.0,0.0,0.0,0.0,0.0,0.0,0.0,1.0,0.0,0.0,1.0,1.0,4.0,0.0,0.0,1.0,1.0,0.0,1.0,1.0,1.0,0.0,3.0,1.0,0.0,2.0,0.0,2.0,0.0,0.0,1.0,1.0,1.0,2.0,0.0,26.0,36.0,0.0,9.0,17.0,15.0,0.0,26.0,-0.4769240720903093,24.0,17.0,0.0,26.0,34.0,17.0,0.0,1.0,0.0,0.0,2.0,0.1,0.2954545454545454,0.0818181818181818,0.2045454545454545,0.3454545454545454,2.6343066671805206,-0.0870715687265646,0.046175530254803,0.6681818181818182,0.3045454545454545,10.076358795166016,23.0,0.2772727272727273,8.338775896848754,0.063097433507334,0.0728335369111956,4.502683736248091,15.17068689926349,0.4889600385805516,0.172733510153961,0.0601361523170032,0.2203712074450811,-0.0840459138426972,-0.3824504018392137,0.1714912503238736,0.1981597291306976,-0.1327620348328958,-0.2745652458005623,0.122899855694119,0.3443543761671723,MKSVIYHALSQKEANDSDVQPSGAQRAEAFVRAFLKRSTPRMSPQAREDQLQRKAVVLEYFTRHKRKEKKKKAKGLSARQRRELRLFDIKPEQQRYSLFLPLHELWKQYIRDLCSGLKPDTQPQMIQAKLLKADLHGAIISVTKSKCPSYVGITGILLQETKHIFKIITKEDRLKVIPKLNCVFTVETDGFISYIYGSKFQLRSSERSAKKFKAKGTIDL,nucleolus,RPP29_HUMAN
IF2A_HUMAN,0.0698412698412698,0.0158730158730158,0.0666666666666666,0.1206349206349206,0.0222222222222222,0.0412698412698412,0.0095238095238095,0.0698412698412698,0.0666666666666666,0.0793650793650793,0.0317460317460317,0.0444444444444444,0.0317460317460317,0.0222222222222222,0.0793650793650793,0.0539682539682539,0.0444444444444444,0.0888888888888888,0.0031746031746031,0.0380952380952381,2.0,0.0,0.0,0.0,0.0,0.0,0.0,1.0,0.0,3.0,0.0,2.0,0.0,2.0,21.0,0.5725191927713306,0.0,38.0,20.0,0.0,0.0,2.0,13.0,53.0,-0.4533333333333333,21.0,1.0,0.0,0.0,0.0,0.0,0.0,0.0,0.0,0.0,3.0,0.0,0.0,0.0,0.0,0.0,0.0,0.0,0.0,2.0,0.0,1.0,0.0,0.0,4.0,0.0,2.0,1.0,0.0,0.0,0.0,3.0,5.0,0.0,3.0,1.0,0.0,1.0,0.0,0.0,1.0,0.0,2.0,2.0,2.0,14.0,0.0,35.0,41.0,0.0,10.0,21.0,7.0,0.0,38.0,0.1670540846631662,37.0,25.0,3.0,30.0,42.0,17.0,0.0,3.0,2.0,1.0,0.0,0.1873015873015873,0.3396825396825397,0.0634920634920634,0.146031746031746,0.365079365079365,2.6857866180631604,-0.2526225485498177,-0.9608024683649978,0.6063492063492063,0.3333333333333333,5.011035919189453,-13.0,0.2317460317460317,-0.2515532493534497,0.060830875462447,0.0701944171632988,4.427735498494244,15.139618032291892,0.4554975771507812,0.1917418499786766,0.0535168641347512,0.2260456604650784,-0.0414329169751605,-0.4037401811272597,0.1845367005021741,0.2047287270219595,-0.1103468460851315,-0.2288908500396548,0.1354629219583963,0.298309233454149,MPGLSCRFYQHKFPEVEDVVMVNVRSIAEMGAYVSLLEYNNIEGMILLSELSRRRIRSINKLIRIGRNECVVVIRVDKEKGYIDLSKRRVSPEEAIKCEDKFTKSKTVYSILRHVAEVLEYTKDEQLESLFQRTAWVFDDKYKRPGYGAYDAFKHAVSDPSILDSLDLNEDEREVLINNINRRLTPQAVKIRADIEVACYGYEGIDAVKEALRAGLNCSTENMPIKINLIAPPRYVMTTTTLERTEGLSVLSQAMAVIKEKIEEKRGVFNVQMEPKVVTDTDETELARQMERLERENAEVDGDDDAEEMEAKAED,stress_granule,IF2A_HUMAN
PERE_HUMAN,0.0909090909090909,0.0237762237762237,0.0545454545454545,0.0293706293706293,0.0475524475524475,0.0573426573426573,0.0139860139860139,0.0419580419580419,0.0279720279720279,0.1216783216783216,0.0209790209790209,0.0545454545454545,0.0643356643356643,0.0433566433566433,0.116083916083916,0.0601398601398601,0.0461538461538461,0.0475524475524475,0.0153846153846153,0.0223776223776223,1.0,0.0,0.0,0.0,0.0,4.0,0.0,3.0,1.0,6.0,2.0,3.0,2.0,7.0,39.0,-0.5978370007556204,0.0,21.0,75.0,4.0,0.0,16.0,41.0,131.0,-0.3148251748251749,20.0,8.0,0.0,0.0,0.0,0.0,0.0,0.0,0.0,0.0,1.0,0.0,0.0,0.0,0.0,0.0,0.0,0.0,0.0,1.0,0.0,0.0,1.0,0.0,3.0,2.0,0.0,0.0,1.0,3.0,1.0,6.0,0.0,0.0,5.0,6.0,0.0,4.0,0.0,6.0,2.0,5.0,7.0,0.0,1.0,39.0,0.0,129.0,122.0,0.0,46.0,70.0,31.0,0.0,124.0,1.3862943611198906,99.0,83.0,0.0,84.0,126.0,43.0,0.0,8.0,6.0,0.0,0.0,0.0839160839160839,0.3230769230769231,0.0853146853146853,0.144055944055944,0.2923076923076923,2.7668755048826283,-0.0424155987456992,0.0180218270838656,0.6041958041958042,0.2279720279720279,10.308780670166016,43.0,0.2993006993006993,16.29480243481922,0.0733745370078396,0.0979237539587879,4.632930109114023,15.211551823946715,0.4263444997405829,0.1557742965483152,0.0944946276332576,0.2515234612716366,-0.053471686102302,-0.3759838382661182,0.183724818830832,0.2495831703444,-0.1568856047468702,-0.3016121260695715,0.1392719713843426,0.270279227484261,MHLLPALAGVLATLVLAQPCEGTDPASPGAVETSVLRDCIAEAKLLVDAAYNWTQKSIKQRLRSGSASPMDLLSYFKQPVAATRTVVRAADYMHVALGLLEEKLQPQRSGPFNVTDVLTEPQLRLLSQASGCALRDQAERCSDKYRTITGRCNNKRRPLLGASNQALARWLPAEYEDGLSLPFGWTPSRRRNGFLLPLVRAVSNQIVRFPNERLTSDRGRALMFMQWGQFIDHDLDFSPESPARVAFTAGVDCERTCAQLPPCFPIKIPPNDPRIKNQRDCIPFFRSAPSCPQNKNRVRNQINALTSFVDASMVYGSEVSLSLRLRNRTNYLGLLAINQRFQDNGRALLPFDNLHDDPCLLTNRSARIPCFLAGDTRSTETPKLAAMHTLFMREHNRLATELRRLNPRWNGDKLYNEARKIMGAMVQIITYRDFLPLVLGKARARRTLGHYRGYCSNVDPRVANVFTLAFRFGHTMLQPFMFRLDSQYRASAPNSHVPLSSAFFASWRIVYEGGIDPILRGLMATPAKLNRQDAMLVDELRDRLFRQVRRIGLDLAALNMQRSRDHGLPGYNAWRRFCGLSQPRNLAQLSRVLKNQDLARKFLNLYGTPDNIDIWIGAIAEPLLPGARVGPLLACLFENQFRRARDGDRFWWQKRGVFTKRQRKALSRISLSRIICDNTGITTVSRDIFRANIYPRGFVNCSRIPRLNLSAWRGT,stress_granule,PERE_HUMAN
GRAA_HUMAN,0.049618320610687,0.0381679389312977,0.049618320610687,0.0419847328244274,0.0190839694656488,0.0839694656488549,0.0267175572519083,0.0687022900763358,0.0725190839694656,0.1030534351145038,0.0305343511450381,0.0572519083969465,0.049618320610687,0.015267175572519,0.0572519083969465,0.0687022900763358,0.049618320610687,0.0763358778625954,0.015267175572519,0.0267175572519083,0.0,0.0,0.0,0.0,0.0,0.0,0.0,2.0,0.0,2.0,1.0,2.0,1.0,2.0,13.0,-0.1541506798272583,0.0,11.0,27.0,0.0,0.0,8.0,22.0,45.0,-0.1339694656488549,19.0,2.0,1.0,0.0,0.0,0.0,0.0,0.0,0.0,0.0,1.0,0.0,0.0,0.0,0.0,0.0,0.0,0.0,0.0,2.0,0.0,1.0,1.0,0.0,2.0,0.0,1.0,2.0,0.0,0.0,1.0,1.0,2.0,0.0,2.0,1.0,0.0,1.0,0.0,3.0,0.0,1.0,2.0,1.0,3.0,15.0,0.0,28.0,44.0,4.0,13.0,19.0,4.0,3.0,37.0,-0.2231435513142097,22.0,15.0,3.0,40.0,33.0,18.0,0.0,0.0,0.0,0.0,0.0,0.0916030534351145,0.3282442748091603,0.0610687022900763,0.1297709923664122,0.2709923664122137,2.7316875349853302,-1.4478080890179796,-0.9923026206976174,0.5648854961832062,0.2213740458015267,9.144481658935549,10.0,0.3396946564885496,1.3705523564555098,0.0610715580517212,0.087010955157348,4.44756819919396,14.731776758002235,0.3172011616179744,0.2470962729609047,0.1028453338759898,0.2695667143521629,0.0827667482898306,-0.4216257307590766,0.1872962932273359,0.2306222440170628,-0.1028888497534583,-0.2599988210952991,0.179734207798937,0.1951356665797943,MRNSYRFLASSLSVVVSLLLIPEDVCEKIIGGNEVTPHSRPYMVLLSLDRKTICAGALIAKDWVLTAAHCNLNKRSQVILGAHSITREEPTKQIMLVKKEFPYPCYDPATREGDLKLLQLMEKAKINKYVTILHLPKKGDDVKPGTMCQVAGWGRTHNSASWSDTLREVNITIIDRKVCNDRNHYNFNPVIGMNMVCAGSLRGGRDSCNGDSGSPLLCEGVFRGVTSFGLENKCGDPRGPGVYILLSKKHLNWIIMTIKGAV,stress_granule,GRAA_HUMAN
EPCAM_HUMAN,0.0955414012738853,0.0382165605095541,0.054140127388535,0.0700636942675159,0.0254777070063694,0.0509554140127388,0.0095541401273885,0.0573248407643312,0.0859872611464968,0.0796178343949044,0.0286624203821656,0.054140127388535,0.0254777070063694,0.0477707006369426,0.0414012738853503,0.0477707006369426,0.0573248407643312,0.0891719745222929,0.0063694267515923,0.0350318471337579,0.0,0.0,0.0,0.0,1.0,1.0,0.0,2.0,0.0,2.0,0.0,1.0,0.0,0.0,17.0,0.2451224580329849,0.0,22.0,24.0,0.0,0.0,2.0,16.0,65.0,-0.2060509554140127,27.0,2.0,0.0,0.0,0.0,0.0,0.0,0.0,0.0,0.0,1.0,0.0,0.0,0.0,0.0,0.0,0.0,0.0,1.0,0.0,1.0,1.0,0.0,1.0,2.0,0.0,1.0,2.0,0.0,0.0,0.0,2.0,1.0,0.0,4.0,3.0,0.0,1.0,0.0,1.0,0.0,2.0,0.0,4.0,2.0,17.0,0.0,21.0,41.0,2.0,8.0,32.0,15.0,0.0,29.0,-0.6931471805599453,24.0,13.0,0.0,31.0,28.0,15.0,0.0,1.0,0.0,0.0,1.0,0.1242038216560509,0.3503184713375796,0.0668789808917197,0.1273885350318471,0.2770700636942675,2.734757729255053,0.1781500810662914,0.3175526828105807,0.5859872611464968,0.2515923566878981,7.563137054443359,1.0,0.3057324840764331,-0.9000859705608408,0.0566012328550355,0.0745617983923001,4.382289086449355,14.88722023610448,0.4019684982269895,0.2258932971988442,0.0723828848270973,0.2325006570822679,0.0290144256835349,-0.3965813530748793,0.1836243097583875,0.2072592826187296,-0.1114198995650868,-0.240690059371978,0.151083406068023,0.2651874786814473,MAPPQVLAFGLLLAAATATFAAAQEECVCENYKLAVNCFVNNNRQCQCTSVGAQNTVICSKLAAKCLVMKAEMNGSKLGRRAKPEGALQNNDGLYDPDCDESGLFKAKQCNGTSMCWCVNTAGVRRTDKDTEITCSERVRTYWIIIELKHKAREKPYDSKSLRTALQKEITTRYQLDPKFITSILYENNVITIDLVQNSSQKTQNDVDIADVAYYFEKDVKGESLFHSKKMDLTVNGEQLDLDPGQTLIYYVDEKAPEFSMQGLKAGVIAVIVVVVIAVVAGIVVLVISRKKRMAKYEKAEIKEMGEMHRELNA,cell_junction,EPCAM_HUMAN
UBF1_HUMAN,0.0484293193717277,0.0078534031413612,0.0785340314136125,0.1335078534031413,0.0235602094240837,0.0353403141361256,0.0157068062827225,0.0248691099476439,0.1374345549738219,0.0798429319371727,0.0327225130890052,0.0366492146596858,0.0510471204188481,0.0510471204188481,0.0536649214659685,0.0916230366492146,0.031413612565445,0.0222513089005235,0.0170157068062827,0.0274869109947644,5.0,0.0,0.0,0.0,0.0,1.0,0.0,1.0,1.0,6.0,4.0,1.0,0.0,5.0,60.0,0.5238551240563246,0.0,102.0,45.0,0.0,0.0,4.0,27.0,181.0,-1.3752617801047125,105.0,6.0,0.0,0.0,0.0,0.0,0.0,0.0,0.0,1.0,3.0,0.0,1.0,0.0,0.0,0.0,0.0,0.0,1.0,2.0,0.0,0.0,1.0,3.0,8.0,2.0,2.0,2.0,1.0,1.0,3.0,9.0,12.0,0.0,7.0,4.0,0.0,6.0,1.0,5.0,0.0,2.0,5.0,0.0,5.0,28.0,5.0,80.0,133.0,4.0,39.0,67.0,39.0,0.0,68.0,-0.9257694758286988,62.0,41.0,3.0,97.0,111.0,70.0,0.0,0.0,4.0,1.0,4.0,0.2120418848167539,0.2081151832460733,0.0680628272251308,0.1910994764397905,0.4541884816753926,2.7026213451471053,2.660230615580536,-0.2977880015568904,0.7277486910994765,0.4031413612565445,5.636150360107422,-16.0,0.2696335078534031,-24.178240467015232,0.0651369631044934,0.0690564639505652,4.77054114974982,14.84780757387413,0.5046134469586235,0.1091090159401364,0.0902817716734164,0.237025086892989,-0.1436975286023843,-0.34980544282176,0.203522593580984,0.1972632219261295,-0.1507635246877199,-0.2483649191914326,0.11681265243262,0.33852719479463,MNGEADCPTDLEMAAPKGQDRWSQEDMLTLLECMKNNLPSNDSSKFKTTESHMDWEKVAFKDFSGDMCKLKWVEISNEVRKFRTLTELILDAQEHVKNPYKGKKLKKHPDFPKKPLTPYFRFFMEKRAKYAKLHPEMSNLDLTKILSKKYKELPEKKKMKYIQDFQREKQEFERNLARFREDHPDLIQNAKKSDIPEKPKTPQQLWYTHEKKVYLKVRPDATTKEVKDSLGKQWSQLSDKKRLKWIHKALEQRKEYEEIMRDYIQKHPELNISEEGITKSTLTKAERQLKDKFDGRPTKPPPNSYSLYCAELMANMKDVPSTERMVLCSQQWKLLSQKEKDAYHKKCDQKKKDYEVELLRFLESLPEEEQQRVLGEEKMLNINKKQATSPASKKPAQEGGKGGSEKPKRPVSAMFIFSEEKRRQLQEERPELSESELTRLLARMWNDLSEKKKAKYKAREAALKAQSERKPGGEREERGKLPESPKRAEEIWQQSVIGDYLARFKNDRVKALKAMEMTWNNMEKKEKLMWIKKAAEDQKRYERELSEMRAPPAATNSSKKMKFQGEPKKPPMNGYQKFSQELLSNGELNHLPLKERMVEIGSRWQRISQSQKEHYKKLAEEQQKQYKVHLDLWVKSLSPQDRAAYKEYISNKRKSMTKLRGPNPKSSRTTLQSKSESEEDDEEDEDDEDEDEEEEDDENGDSSEDGGDSSESSSEDESEDGDENEEDDEDEDDDEDDDEDEDNESEGSSSSSSSSGDSSDSDSN,nucleolus,UBF1_HUMAN
MMP8_HUMAN,0.0642398286937901,0.006423982869379,0.0578158458244111,0.0471092077087794,0.0792291220556745,0.0706638115631691,0.0214132762312633,0.0535331905781584,0.0471092077087794,0.0770877944325481,0.0171306209850107,0.0535331905781584,0.0663811563169164,0.0556745182012847,0.0513918629550321,0.0706638115631691,0.0513918629550321,0.0406852248394004,0.0171306209850107,0.0513918629550321,3.0,0.0,0.0,0.0,0.0,0.0,0.0,2.0,0.0,1.0,1.0,0.0,3.0,5.0,27.0,-0.1967102942460542,0.0,22.0,70.0,0.0,0.0,8.0,33.0,83.0,-0.4513918629550321,22.0,3.0,0.0,0.0,0.0,0.0,0.0,0.0,0.0,0.0,7.0,0.0,0.0,0.0,0.0,0.0,3.0,0.0,0.0,4.0,1.0,1.0,0.0,1.0,4.0,0.0,0.0,0.0,1.0,0.0,0.0,4.0,3.0,0.0,4.0,6.0,0.0,1.0,0.0,3.0,0.0,4.0,5.0,1.0,0.0,25.0,5.0,55.0,88.0,0.0,31.0,51.0,26.0,0.0,57.0,0.083381608939051,48.0,24.0,0.0,66.0,57.0,33.0,0.0,2.0,0.0,0.0,0.0,0.1049250535331905,0.2526766595289079,0.1477516059957173,0.0985010706638115,0.2698072805139186,2.802676831340784,-0.497681155205625,-0.6248781518356272,0.6038543897216274,0.2034261241970021,6.404872894287109,-3.0,0.3297644539614561,-1.833007469694928,0.0905226532613548,0.1165141888569949,4.753752747701303,15.304371638856162,0.3421532584664229,0.2066556465365575,0.1180331972354968,0.2709029229787461,0.0615120117323616,-0.3917826192568804,0.1948083022044257,0.2490458665164936,-0.2407469776846183,-0.4070436014656866,0.1699333558466303,0.2073909646470833,MFSLKTLPFLLLLHVQISKAFPVSSKEKNTKTVQDYLEKFYQLPSNQYQSTRKNGTNVIVEKLKEMQRFFGLNVTGKPNEETLDMMKKPRCGVPDSGGFMLTPGNPKWERTNLTYRIRNYTPQLSEAEVERAIKDAFELWSVASPLIFTRISQGEADINIAFYQRDHGDNSPFDGPNGILAHAFQPGQGIGGDAHFDAEETWTNTSANYNLFLVAAHEFGHSLGLAHSSDPGALMYPNYAFRETSNYSLPQDDIDGIQAIYGLSSNPIQPTGPSTPKPCDPSLTFDAITTLRGEILFFKDRYFWRRHPQLQRVEMNFISLFWPSLPTGIQAAYEDFDRDLIFLFKGNQYWALSGYDILQGYPKDISNYGFPSSVQAIDAAVFYRSKTYFFVNDQFWRYDNQRQFMEPGYPKSISGAFPGIESKVDAVFQQEHFFHVFSGPRYYAFDLIAQRVTRVARGNKWLNCRYG,stress_granule,MMP8_HUMAN
CMA1_HUMAN,0.068825910931174,0.0323886639676113,0.0323886639676113,0.0404858299595141,0.048582995951417,0.0850202429149797,0.0364372469635627,0.048582995951417,0.0566801619433198,0.1214574898785425,0.020242914979757,0.0364372469635627,0.068825910931174,0.0364372469635627,0.0607287449392712,0.0607287449392712,0.0607287449392712,0.0526315789473684,0.0121457489878542,0.020242914979757,0.0,0.0,0.0,0.0,0.0,0.0,0.0,1.0,1.0,1.0,0.0,1.0,2.0,0.0,8.0,0.2006706954621512,0.0,10.0,33.0,0.0,0.0,0.0,21.0,48.0,-0.1129554655870445,14.0,2.0,0.0,0.0,0.0,0.0,0.0,0.0,0.0,0.0,2.0,0.0,0.0,0.0,0.0,0.0,0.0,0.0,0.0,0.0,0.0,0.0,1.0,0.0,1.0,0.0,1.0,1.0,0.0,0.0,0.0,0.0,3.0,0.0,3.0,2.0,0.0,1.0,0.0,2.0,0.0,2.0,0.0,0.0,3.0,9.0,5.0,32.0,47.0,2.0,17.0,18.0,9.0,0.0,36.0,0.0645385211375711,20.0,15.0,3.0,36.0,30.0,15.0,0.0,1.0,0.0,0.0,1.0,0.0728744939271255,0.3117408906882591,0.0809716599190283,0.117408906882591,0.2591093117408907,2.724465162471536,0.5651885826045439,-0.2139330795484669,0.6072874493927125,0.1902834008097166,9.440135955810549,11.0,0.3481781376518219,1.4500688721978172,0.0670711682266919,0.0960581812200447,4.486661921176353,14.8067462419929,0.3336860105616768,0.2258716167829606,0.1024864001179424,0.2722447635004899,0.0932898180661248,-0.4060002381025979,0.1731304801511652,0.2268155987132864,-0.1418438076761879,-0.2898939536257652,0.1738434492528405,0.2074838707990874,MLLLPLPLLLFLLCSRAEAGEIIGGTECKPHSRPYMAYLEIVTSNGPSKFCGGFLIRRNFVLTAAHCAGRSITVTLGAHNITEEEDTWQKLEVIKQFRHPKYNTSTLHHDIMLLKLKEKASLTLAVGTLPFPSQFNFVPPGRMCRVAGWGRTGVLKPGSDTLQEVKLRLMDPQACSHFRDFDHNLQLCVGNPRKTKSAFKGDSGGPLLCAGVAQGIVSYGRSDAKPPAVFTRISHYRPWINQILQAN,stress_granule,CMA1_HUMAN
RPB9_HUMAN,0.064,0.072,0.072,0.096,0.032,0.04,0.048,0.048,0.04,0.048,0.024,0.048,0.056,0.056,0.056,0.032,0.056,0.048,0.008,0.056,0.0,1.0,0.0,0.0,0.0,0.0,0.0,0.0,0.0,1.0,0.0,0.0,0.0,0.0,9.0,0.262364264467491,0.0,12.0,9.0,0.0,0.0,0.0,5.0,20.0,-0.7336000000000001,5.0,0.0,0.0,0.0,0.0,0.0,0.0,0.0,0.0,0.0,0.0,0.0,0.0,0.0,0.0,0.0,0.0,0.0,0.0,0.0,1.0,0.0,1.0,0.0,2.0,0.0,0.0,0.0,0.0,0.0,0.0,0.0,0.0,0.0,1.0,0.0,0.0,2.0,0.0,0.0,0.0,2.0,0.0,0.0,0.0,6.0,0.0,14.0,18.0,0.0,7.0,13.0,7.0,0.0,12.0,0.2876820724517808,14.0,7.0,0.0,9.0,11.0,4.0,0.0,0.0,1.0,0.0,0.0,0.168,0.232,0.096,0.096,0.32,2.659460747123618,-1.0219961573100302,-0.9797608055822936,0.616,0.264,5.000995635986328,-9.0,0.352,1.37021686342103,0.0884815825776186,0.1007081583281415,4.605338082404587,15.19400936598366,0.3525858585537889,0.2000370579249388,0.1078344335313763,0.2692317122480701,0.0405079807414394,-0.3862650057183838,0.2112532989844018,0.2320162322832561,-0.1358423457485602,-0.2995165497198035,0.1609725452500449,0.2218902896940328,MEPDGTYEPGFVGIRFCQECNNMLYPKEDKENRILLYACRNCDYQQEADNSCIYVNKITHEVDELTQIIADVSQDPTLPRTEDHPCQKCGHKEAVFFQSHSARAEDAMRLYYVCTAPHCGHRWTE,nucleolus,RPB9_HUMAN
NOP2_HUMAN,0.0812807881773399,0.0073891625615763,0.0541871921182266,0.0788177339901477,0.0283251231527093,0.0751231527093596,0.0160098522167487,0.0295566502463054,0.0923645320197044,0.083743842364532,0.0135467980295566,0.0357142857142857,0.0751231527093596,0.0554187192118226,0.064039408866995,0.0788177339901477,0.0529556650246305,0.0554187192118226,0.0049261083743842,0.0172413793103448,3.0,0.0,0.0,0.0,0.0,2.0,0.0,0.0,0.0,4.0,1.0,1.0,2.0,8.0,44.0,0.3677247801253173,0.0,64.0,84.0,0.0,0.0,12.0,61.0,202.0,-0.8075123152709361,75.0,4.0,0.0,0.0,0.0,0.0,0.0,0.0,0.0,0.0,1.0,0.0,0.0,0.0,0.0,0.0,0.0,0.0,0.0,0.0,1.0,0.0,0.0,1.0,3.0,0.0,0.0,1.0,2.0,2.0,1.0,3.0,5.0,0.0,15.0,4.0,0.0,7.0,4.0,3.0,0.0,2.0,8.0,2.0,3.0,29.0,10.0,113.0,168.0,0.0,61.0,74.0,45.0,0.0,113.0,-0.3604414267342093,66.0,52.0,3.0,125.0,116.0,64.0,0.0,4.0,3.0,1.0,6.0,0.1330049261083744,0.2635467980295566,0.0504926108374384,0.1564039408866995,0.3645320197044335,2.752412549721877,3.9970001623230167,0.3191106206356521,0.7241379310344828,0.2894088669950739,9.271747589111328,19.0,0.3214285714285714,-9.146420712251816,0.0633894340190799,0.0788113342135742,4.825777235897213,14.424100965907352,0.3768300538996681,0.1699569250754624,0.1029219748933925,0.2752898632016516,0.0489089143755137,-0.4018047953943695,0.1865573596367626,0.2235098594990908,-0.1002202953138413,-0.2225803014559692,0.1576924169683546,0.2289921261419402,MGRKLDPTKEKRGPGRKARKQKGAETELVRFLPAVSDENSKRLSSRARKRAAKRRLGSVEAPKTNKSPEAKPLPGKLPKGISAGAVQTAGKKGPQSLFNAPRGKKRPAPGSDEEEEEEDSEEDGMVNHGDLWGSEDDADTVDDYGADSNSEDEEEGEALLPIERAARKQKAREAAAGIQWSEEETEDEEEEKEVTPESGPPKVEEADGGLQINVDEEPFVLPPAGEMEQDAQAPDLQRVHKRIQDIVGILRDFGAQREEGRSRSEYLNRLKKDLAIYYSYGDFLLGKLMDLFPLSELVEFLEANEVPRPVTLRTNTLKTRRRDLAQALINRGVNLDPLGKWSKTGLVVYDSSVPIGATPEYLAGHYMLQGASSMLPVMALAPQEHERILDMCCAPGGKTSYMAQLMKNTGVILANDANAERLKSVVGNLHRLGVTNTIISHYDGRQFPKVVGGFDRVLLDAPCSGTGVISKDPAVKTNKDEKDILRCAHLQKELLLSAIDSVNATSKTGGYLVYCTCSITVEENEWVVDYALKKRNVRLVPTGLDFGQEGFTRFRERRFHPSLRSTRRFYPHTHNMDGFFIAKFKKFSNSIPQSQTGNSETATPTNVDLPQVIPKSENSSQPAKKAKGAAKTKQQLQKQQHPKKASFQKLNGISKGADSELSTVPSVTKTQASSSFQDSSQPAGKAEGIREPKVTGKLKQRSPKLQSSKKVAFLRQNAPPKGTDTQTPAVLSPSKTQATLKPKDHHQPLGRAKGVEKQQLPEQPFEKAAFQKQNDTPKGPQPPTVSPIRSSRPPPAKRKKSQSRGNSQLLLS,nucleolus,NOP2_HUMAN
GRAK_HUMAN,0.0492424242424242,0.034090909090909,0.0416666666666666,0.0227272727272727,0.0416666666666666,0.0871212121212121,0.0416666666666666,0.053030303030303,0.0909090909090909,0.0757575757575757,0.0265151515151515,0.0303030303030303,0.0492424242424242,0.0378787878787878,0.0303030303030303,0.0946969696969697,0.0795454545454545,0.0757575757575757,0.0113636363636363,0.0265151515151515,1.0,0.0,0.0,0.0,0.0,0.0,0.0,1.0,0.0,1.0,0.0,0.0,0.0,2.0,11.0,-0.5389965007326869,0.0,6.0,34.0,0.0,0.0,0.0,23.0,50.0,-0.1924242424242424,24.0,2.0,1.0,0.0,0.0,0.0,0.0,0.0,0.0,0.0,1.0,0.0,0.0,0.0,0.0,0.0,0.0,0.0,0.0,1.0,1.0,0.0,0.0,0.0,1.0,0.0,2.0,1.0,0.0,0.0,1.0,5.0,2.0,0.0,5.0,0.0,0.0,1.0,0.0,3.0,0.0,1.0,2.0,0.0,1.0,8.0,5.0,21.0,59.0,0.0,13.0,18.0,10.0,0.0,31.0,-1.0216512475319814,15.0,8.0,3.0,48.0,33.0,25.0,0.0,0.0,0.0,0.0,0.0,0.0643939393939393,0.2803030303030303,0.0795454545454545,0.1212121212121212,0.2348484848484848,2.72716726619074,-0.9568098379193362,0.6526094990092047,0.625,0.1856060606060606,9.48227310180664,15.0,0.4053030303030303,2.9881173838881927,0.06389776000084,0.0950841387865334,4.514981847106292,14.581972695757708,0.2828964973691174,0.2808082828061261,0.1080778156363814,0.2792051450935133,0.1518690149506738,-0.4357440059976304,0.1925646005930925,0.2252125696058187,-0.1368090862989491,-0.2823380274981519,0.1953471801931943,0.1722586147943749,MTKFSSFSLFFLIVGAYMTHVCFNMEIIGGKEVSPHSRPFMASIQYGGHHVCGGVLIDPQWVLTAAHCQYRFTKGQSPTVVLGAHSLSKNEASKQTLEIKKFIPFSRVTSDPQSNDIMLVKLQTAAKLNKHVKMLHIRSKTSLRSGTKCKVTGWGATDPDSLRPSDTLREVTVTVLSRKLCNSQSYYNGDPFITKDMVCAGDAKGQKDSCKGDSGGPLICKGVFHAIVSGGHECGVATKPGIYTLLTKKYQTWIKSNLVPPHTN,stress_granule,GRAK_HUMAN
GRAM_HUMAN,0.0933852140077821,0.0350194552529182,0.0350194552529182,0.0155642023346303,0.0194552529182879,0.0894941634241245,0.0311284046692607,0.0311284046692607,0.0428015564202334,0.1322957198443579,0.0233463035019455,0.0194552529182879,0.0622568093385214,0.0389105058365758,0.0778210116731517,0.0933852140077821,0.0428015564202334,0.0894941634241245,0.0155642023346303,0.0116731517509727,0.0,0.0,0.0,0.0,0.0,3.0,0.0,2.0,0.0,2.0,1.0,0.0,1.0,2.0,9.0,-0.6931471805599453,0.0,4.0,28.0,0.0,0.0,2.0,23.0,51.0,0.1058365758754864,11.0,3.0,0.0,0.0,0.0,0.0,0.0,0.0,0.0,0.0,0.0,0.0,0.0,0.0,0.0,0.0,0.0,0.0,0.0,1.0,0.0,0.0,0.0,0.0,1.0,0.0,2.0,1.0,0.0,0.0,0.0,2.0,0.0,0.0,4.0,3.0,0.0,1.0,1.0,2.0,0.0,1.0,2.0,0.0,0.0,5.0,5.0,36.0,51.0,4.0,16.0,15.0,10.0,0.0,43.0,0.5596157879354227,23.0,20.0,6.0,47.0,44.0,24.0,0.0,0.0,0.0,1.0,0.0,0.0505836575875486,0.3696498054474708,0.046692607003891,0.1206225680933852,0.2334630350194552,2.63506322859539,-0.2012435429011566,-0.3281251015138069,0.622568093385214,0.1712062256809338,10.162609100341797,18.0,0.3501945525291828,4.719120343527427,0.0513756544055111,0.0879206515307656,4.408706303375714,14.601980787819969,0.3550152139772045,0.2121743299040745,0.0905538883104132,0.2650285535411451,0.0661895684667352,-0.3950235230065276,0.1643542866655803,0.2243688057007563,-0.0885340011271804,-0.2260445587695545,0.1665496127324927,0.2212452798124502,MEACVSSLLVLALGALSVGSSFGTQIIGGREVIPHSRPYMASLQRNGSHLCGGVLVHPKWVLTAAHCLAQRMAQLRLVLGLHTLDSPGLTFHIKAAIQHPRYKPVPALENDLALLQLDGKVKPSRTIRPLALPSKRQVVAAGTRCSMAGWGLTHQGGRLSRVLRELDLQVLDTRMCNNSRFWNGSLSPSMVCLAADSKDQAPCKGDSGGPLVCGKGRVLARVLSFSSRVCTDIFKPPVATAVAPYVSWIRKVTGRSA,stress_granule,GRAM_HUMAN
AFF2_HUMAN,0.0663615560640732,0.011441647597254,0.0442410373760488,0.0709382151029748,0.0289855072463768,0.0389016018306636,0.022883295194508,0.03813882532418,0.0785659801678108,0.0770404271548436,0.0221205186880244,0.0587337909992372,0.0938215102974828,0.0434782608695652,0.0404271548436308,0.106788710907704,0.087719298245614,0.0434782608695652,0.0099160945842868,0.0160183066361556,4.0,0.0,0.0,0.0,0.0,3.0,0.0,4.0,0.0,5.0,2.0,2.0,6.0,19.0,58.0,0.4657573383642844,0.0,93.0,89.0,4.0,0.0,18.0,51.0,313.0,-0.7464530892448513,103.0,7.0,0.0,0.0,0.0,0.0,0.0,0.0,0.0,1.0,2.0,0.0,1.0,0.0,0.0,1.0,2.0,1.0,0.0,2.0,1.0,1.0,1.0,4.0,7.0,3.0,3.0,3.0,2.0,2.0,2.0,24.0,22.0,1.0,38.0,15.0,0.0,9.0,2.0,5.0,1.0,13.0,19.0,1.0,7.0,77.0,5.0,176.0,378.0,4.0,123.0,134.0,57.0,0.0,104.0,-0.6554068525770982,74.0,53.0,6.0,191.0,193.0,140.0,0.0,4.0,3.0,0.0,2.0,0.1151792524790236,0.2471395881006865,0.0549199084668192,0.1189931350114416,0.3279938977879481,2.7925686491639503,2.94679515065261,0.5510651107169248,0.6941266209000763,0.2341723874904653,8.238880157470703,5.0,0.3699466056445461,-8.378461694910955,0.0669186259946229,0.0794701208860038,4.892606529002486,14.421361429904284,0.3259266017434471,0.1935424143977901,0.1331297846606272,0.2870682086986256,0.0930098620658712,-0.3751056236242386,0.2123133473813376,0.231015767125134,-0.1043914334059321,-0.2382485055856869,0.1711619877070451,0.1885807067306496,MDLFDFFRDWDLEQQCHYEQDRSALKKREWERRNQEVQQEDDLFSSGFDLFGEPYKVAEYTNKGDALANRVQNTLGNYDEMKNLLTNHSNQNHLVGIPKNSVPQNPNNKNEPSFFPEQKNRIIPPHQDNTHPSAPMPPPSVVILNSTLIHSNRKSKPEWSRDSHNPSTVLASQASGQPNKMQTLTQDQSQAKLEDFFVYPAEQPQIGEVEESNPSAKEDSNPNSSGEDAFKEIFQSNSPEESEFAVQAPGSPLVASSLLAPSSGLSVQNFPPGLYCKTSMGQQKPTAYVRPMDGQDQAPDISPTLKPSIEFENSFGNLSFGTLLDGKPSAASSKTKLPKFTILQTSEVSLPSDPSCVEEILREMTHSWPTPLTSMHTAGHSEQSTFSIPGQESQHLTPGFTLQKWNDPTTRASTKSVSFKSMLEDDLKLSSDEDDLEPVKTLTTQCTATELYQAVEKAKPRNNPVNPPLATPQPPPAVQASGGSGSSSESESSSESDSDTESSTTDSESNEAPRVATPEPEPPSTNKWQLDKWLNKVTSQNKSFICGQNETPMETISLPPPIIQPMEVQMKVKTNASQVPAEPKERPLLSLIREKARPRPTQKIPETKALKHKLSTTSETVSQRTIGKKQPKKVEKNTSTDEFTWPKPNITSSTPKEKESVELHDPPRGRNKATAHKPAPRKEPRPNIPLAPEKKKYRGPGKIVPKSREFIETDSSTSDSNTDQEETLQIKVLPPCIISGGNTAKSKEICGASLTLSTLMSSSGSNNNLSISNEEPTFSPIPVMQTEILSPLRDHENLKNLWVKIDLDLLSRVPGHSSLHAAPAKPDHKETATKPKRQTAVTAVEKPAPKGKRKHKPIEVAEKIPEKKQRLEEATTICLLPPCISPAPPHKPPNTRENNSSRRANRRKEEKLFPPPLSPLPEDPPRRRNVSGNNGPFGQDKNIAMTGQITSTKPKRTEGKFCATFKGISVNEGDTPKKASSATITVTNTAIATATVTATAIVTTTVTATATATATTTTTTTTISTITSTITTGLMDSSHLEMTSWAALPLLSSSSTNVRRPKLTFDDSVHNADYYMQEAKKLKHKADALFEKFGKAVNYADAALSFTECGNAMERDPLEAKSPYTMYSETVELLRYAMRLKNFASPLASDGDKKLAVLCYRCLSLLYLRMFKLKKDHAMKYSRSLMEYFKQNASKVAQIPSPWVSNGKNTPSPVSLNNVSPINAMGNCNNGPVTIPQRIHHMAASHVNITSNVLRGYEHWDMADKLTRENKEFFGDLDTLMGPLTQHSSMTNLVRYVRQGLCWLRIDAHLL,nuclear_speckle,AFF2_HUMAN
HNRPM_HUMAN,0.0808219178082191,0.0068493150684931,0.0342465753424657,0.0863013698630137,0.0328767123287671,0.1780821917808219,0.0136986301369863,0.0534246575342465,0.0547945205479452,0.0575342465753424,0.0863013698630137,0.0424657534246575,0.0520547945205479,0.0191780821917808,0.073972602739726,0.0438356164383561,0.0191780821917808,0.0534246575342465,0.0041095890410958,0.0068493150684931,2.0,0.0,0.0,0.0,0.0,1.0,0.0,0.0,0.0,5.0,1.0,1.0,3.0,1.0,25.0,0.90078654533819,0.0,63.0,154.0,16.0,0.0,22.0,130.0,137.0,-0.3416438356164384,40.0,3.0,0.0,0.0,0.0,0.0,0.0,0.0,0.0,0.0,2.0,0.0,0.0,0.0,0.0,0.0,3.0,1.0,0.0,1.0,1.0,1.0,2.0,0.0,1.0,0.0,1.0,0.0,0.0,0.0,0.0,0.0,8.0,0.0,3.0,0.0,0.0,0.0,0.0,0.0,0.0,4.0,1.0,5.0,3.0,31.0,55.0,92.0,84.0,2.0,38.0,45.0,14.0,3.0,184.0,0.2937611185281631,59.0,54.0,9.0,162.0,86.0,32.0,0.0,0.0,1.0,1.0,1.0,0.1205479452054794,0.3315068493150685,0.0438356164383561,0.1287671232876712,0.3013698630136986,2.652762095671349,-3.2632706725350262,-1.5177558795229174,0.6561643835616439,0.2493150684931507,8.847171783447266,6.0,0.3232876712328767,-0.1479724157649327,0.0583258904472226,0.0960795381989855,4.394210838720034,14.36623424860376,0.3697791664063203,0.1991528246591993,0.0959760673942646,0.262425293870769,-0.0275867192037191,-0.3992737633842629,0.1413079240227356,0.2240957365762148,-0.0880610425989271,-0.2127927745133244,0.1629835342670282,0.220867139027367,MAAGVEAAAEVAATEIKMEEESGAPGVPSGNGAPGPKGEGERPAQNEKRKEKNIKRGGNRFEPYANPTKRYRAFITNIPFDVKWQSLKDLVKEKVGEVTYVELLMDAEGKSRGCAVVEFKMEESMKKAAEVLNKHSLSGRPLKVKEDPDGEHARRAMQKVMATTGGMGMGPGGPGMITIPPSILNNPNIPNEIIHALQAGRLGSTVFVANLDYKVGWKKLKEVFSMAGVVVRADILEDKDGKSRGIGTVTFEQSIEAVQAISMFNGQLLFDRPMHVKMDERALPKGDFFPPERPQQLPHGLGGIGMGLGPGGQPIDANHLNKGIGMGNIGPAGMGMEGIGFGINKMGGMEGPFGGGMENMGRFGSGMNMGRINEILSNALKRGEIIAKQGGGGGGGSVPGIERMGPGIDRLGGAGMERMGAGLGHGMDRVGSEIERMGLVMDRMGSVERMGSGIERMGPLGLDHMASSIERMGQTMERIGSGVERMGAGMGFGLERMAAPIDRVGQTIERMGSGVERMGPAIERMGLSMERMVPAGMGAGLERMGPVMDRMATGLERMGANNLERMGLERMGANSLERMGLERMGANSLERMGPAMGPALGAGIERMGLAMGGGGGASFDRAIEMERGNFGGSFAGSFGGAGGHAPGVARKACQIFVRNLPFDFTWKMLKDKFNECGHVLYADIKMENGKSKGCGVVKFESPEVAERACRMMNGMKLSGREIDVRIDRNA,nucleolus,HNRPM_HUMAN
RPAB3_HUMAN,0.0533333333333333,0.0066666666666666,0.12,0.0733333333333333,0.0533333333333333,0.0733333333333333,0.0133333333333333,0.0533333333333333,0.0533333333333333,0.1066666666666666,0.0333333333333333,0.0266666666666666,0.0266666666666666,0.02,0.06,0.06,0.04,0.0666666666666666,0.0,0.06,0.0,0.0,0.0,0.0,0.0,0.0,0.0,1.0,1.0,0.0,0.0,0.0,0.0,0.0,18.0,-0.4595323293784402,0.0,11.0,19.0,0.0,0.0,0.0,11.0,20.0,-0.3360000000000001,8.0,1.0,0.0,1.0,0.0,0.0,0.0,0.0,0.0,0.0,1.0,0.0,0.0,0.0,0.0,0.0,0.0,0.0,0.0,2.0,0.0,0.0,1.0,0.0,3.0,0.0,0.0,1.0,0.0,0.0,0.0,0.0,2.0,0.0,1.0,0.0,0.0,0.0,0.0,3.0,0.0,0.0,0.0,0.0,2.0,4.0,0.0,13.0,19.0,0.0,4.0,7.0,3.0,0.0,20.0,0.1053605156578263,18.0,9.0,3.0,20.0,18.0,9.0,0.0,0.0,1.0,0.0,0.0,0.1933333333333333,0.3133333333333333,0.1133333333333333,0.1133333333333333,0.3333333333333333,2.5787474730265685,0.9992468981123238,-0.1738281686824299,0.5933333333333334,0.3066666666666666,4.495456695556641,-12.0,0.24,1.8499725167974308,0.0771741773256574,0.0919491359193099,4.555722979353819,15.153627468021336,0.3610424756074015,0.2262097371320217,0.0903354787853035,0.2579917511486732,0.0231889565562837,-0.4422504697812423,0.2124856539074405,0.2268431974948226,-0.1349915333419958,-0.3138106547065756,0.1600462425033009,0.2197494362873782,MAGILFEDIFDVKDIDPEGKKFDRVSRLHCESESFKMDLILDVNIQIYPVDLGDKFRLVIASTLYEDGTLDDGEYNPTDDRPSRADQFEYVMYGKVYRIEGDETSTEAATRLSAYVSYGGLLMRLQGDANNLHGFEVDSRVYLLMKKLAF,nucleolus,RPAB3_HUMAN
RRP1_HUMAN,0.0824295010845987,0.0086767895878524,0.0477223427331887,0.1084598698481561,0.0303687635574837,0.0672451193058568,0.0108459869848156,0.0390455531453362,0.0672451193058568,0.1041214750542299,0.0238611713665943,0.0238611713665943,0.0498915401301518,0.071583514099783,0.1127982646420824,0.0455531453362256,0.0433839479392624,0.0412147505422993,0.0108459869848156,0.0108459869848156,2.0,0.0,0.0,0.0,0.0,3.0,0.0,3.0,0.0,2.0,0.0,1.0,1.0,3.0,22.0,0.7963314167951762,0.0,50.0,45.0,0.0,0.0,14.0,31.0,92.0,-0.8377440347071584,31.0,2.0,0.0,0.0,0.0,0.0,0.0,0.0,0.0,0.0,4.0,0.0,0.0,0.0,0.0,0.0,1.0,0.0,0.0,1.0,0.0,1.0,0.0,1.0,2.0,0.0,1.0,1.0,1.0,0.0,0.0,2.0,3.0,0.0,3.0,2.0,0.0,6.0,1.0,2.0,0.0,1.0,3.0,0.0,1.0,11.0,5.0,75.0,64.0,0.0,23.0,44.0,33.0,0.0,83.0,0.5045560107523953,57.0,52.0,0.0,52.0,73.0,21.0,0.0,6.0,2.0,1.0,4.0,0.1561822125813449,0.2906724511930585,0.0520607375271149,0.1800433839479392,0.386117136659436,2.688714466146473,2.2903208080051503,1.2005242411440802,0.7071583514099783,0.3362255965292842,9.386783599853516,11.0,0.2711496746203904,-5.367540897101616,0.0668778693190858,0.0771174121357197,4.622736325291557,15.002097167510591,0.5268874327474823,0.1108503846016711,0.0677836187643855,0.2244000253500137,-0.132438567748496,-0.371248910357183,0.1720538013418414,0.214518449695727,-0.1054118877463188,-0.213856143681498,0.1115877592403853,0.3573947767215021,MVSRVQLPPEIQLAQRLAGNEQVTRDRAVRKLRKYIVARTQRAAGGFTHDELLKVWKGLFYCMWMQDKPLLQEELGRTISQLVHAFQTTEAQHLFLQAFWQTMNREWTGIDRLRLDKFYMLMRMVLNESLKVLKMQGWEERQIEELLELLMTEILHPSSQAPNGVKSHFIEIFLEELTKVGAEELTADQNLKFIDPFCRIAARTKDSLVLNNITRGIFETIVEQAPLAIEDLLNELDTQDEEVASDSDESSEGGERGDALSQKRSEKPPAGSICRAEPEAGEEQAGDDRDSGGPVLQFDYEAVANRLFEMASRQSTPSQNRKRLYKVIRKLQDLAGGIFPEDEIPEKACRRLLEGRRQKKTKKQKRLLRLQQERGKGEKEPPSPGMERKRSRRRGVGADPEARAEAGEQPGTAERALLRDQPRGRGQRGARQRRRTPRPLTSARAKAANVQEPEKKKKRRE,nucleolus,RRP1_HUMAN
NOP14_HUMAN,0.0700116686114352,0.014002333722287,0.0560093348891481,0.1120186697782963,0.0315052508751458,0.0536756126021003,0.0268378063010501,0.028004667444574,0.0991831971995332,0.1213535589264877,0.0245040840140023,0.029171528588098,0.043173862310385,0.0466744457409568,0.0688448074679113,0.0688448074679113,0.0385064177362893,0.0455075845974329,0.0058343057176196,0.0163360560093348,6.0,0.0,0.0,0.0,0.0,2.0,0.0,3.0,0.0,2.0,2.0,2.0,2.0,7.0,48.0,0.6828906803927562,0.0,96.0,73.0,0.0,0.0,12.0,46.0,182.0,-0.7610268378063011,85.0,6.0,0.0,1.0,0.0,1.0,0.0,0.0,0.0,0.0,3.0,0.0,2.0,0.0,0.0,0.0,0.0,0.0,0.0,1.0,0.0,0.0,0.0,2.0,5.0,0.0,3.0,3.0,2.0,2.0,1.0,8.0,18.0,0.0,8.0,1.0,0.0,7.0,2.0,3.0,2.0,2.0,7.0,4.0,8.0,25.0,10.0,96.0,129.0,2.0,37.0,65.0,40.0,3.0,105.0,-0.360002734031407,73.0,59.0,0.0,105.0,118.0,59.0,0.0,4.0,7.0,0.0,3.0,0.1680280046674445,0.2893815635939323,0.0536756126021003,0.1680280046674445,0.3792298716452742,2.747525121784625,3.0399084508234293,-0.3912253854646975,0.6837806301050176,0.3360560093348891,7.396297454833984,0.0,0.2777129521586931,-10.232882229653494,0.0597131756030565,0.0696779144756326,4.534575258054651,14.936874943888014,0.513174629213532,0.1252745001962587,0.064817008208492,0.2252750718908121,-0.1473970298618089,-0.3403816511826172,0.1904579931980486,0.1925230847632859,-0.0943216270858264,-0.206956869236084,0.1153025589905679,0.3439631607743472,MAKAKKVGARRKASGAPAGARGGPAKANSNPFEVKVNRQKFQILGRKTRHDVGLPGVSRARALRKRTQTLLKEYKERDKSNVFRDKRFGEYNSNMSPEEKMMKRFALEQQRHHEKKSIYNLNEDEELTHYGQSLADIEKHNDIVDSDSDAEDRGTLSAELTAAHFGGGGGLLHKKTQQEGEEREKPKSRKELIEELIAKSKQEKRERQAQREDALELTEKLDQDWKEIQTLLSHKTPKSENRDKKEKPKPDAYDMMVRELGFEMKAQPSNRMKTEAELAKEEQEHLRKLEAERLRRMLGKDEDENVKKPKHMSADDLNDGFVLDKDDRRLLSYKDGKMNVEEDVQEEQSKEASDPESNEEEGDSSGGEDTEESDSPDSHLDLESNVESEEENEKPAKEQRQTPGKGLISGKERAGKATRDELPYTFAAPESYEELRSLLLGRSMEEQLLVVERIQKCNHPSLAEGNKAKLEKLFGFLLEYVGDLATDDPPDLTVIDKLVVHLYHLCQMFPESASDAIKFVLRDAMHEMEEMIETKGRAALPGLDVLIYLKITGLLFPTSDFWHPVVTPALVCLSQLLTKCPILSLQDVVKGLFVCCLFLEYVALSQRFIPELINFLLGILYIATPNKASQGSTLVHPFRALGKNSELLVVSAREDVATWQQSSLSLRWASRLRAPTSTEANHIRLSCLAVGLALLKRCVLMYGSLPSFHAIMGPLQALLTDHLADCSHPQELQELCQSTLTEMESQKQLCRPLTCEKSKPVPLKLFTPRLVKVLEFGRKQGSSKEEQERKRLIHKHKREFKGAVREIRKDNQFLARMQLSEIMERDAERKRKVKQLFNSLATQEGEWKALKRKKFKK,nucleolus,NOP14_HUMAN
RPP38_HUMAN,0.0706713780918728,0.0141342756183745,0.0459363957597173,0.0706713780918728,0.0176678445229682,0.0282685512367491,0.0106007067137809,0.0636042402826855,0.1201413427561837,0.1201413427561837,0.0106007067137809,0.0318021201413427,0.0742049469964664,0.0424028268551236,0.0706713780918728,0.07773851590106,0.0494699646643109,0.0671378091872791,0.0106007067137809,0.0035335689045936,0.0,0.0,0.0,0.0,2.0,0.0,0.0,5.0,2.0,4.0,0.0,0.0,0.0,3.0,13.0,0.4054651081081644,0.0,20.0,13.0,0.0,0.0,2.0,8.0,75.0,-0.4724381625441697,34.0,2.0,0.0,0.0,0.0,0.0,0.0,0.0,0.0,0.0,1.0,0.0,0.0,0.0,0.0,0.0,0.0,0.0,0.0,0.0,0.0,0.0,0.0,0.0,1.0,1.0,1.0,1.0,1.0,0.0,1.0,1.0,2.0,0.0,4.0,2.0,0.0,1.0,2.0,3.0,0.0,1.0,2.0,1.0,1.0,9.0,0.0,41.0,57.0,2.0,21.0,21.0,12.0,0.0,28.0,-0.5108256237659907,21.0,20.0,0.0,30.0,42.0,22.0,0.0,0.0,2.0,0.0,2.0,0.1166077738515901,0.3321554770318021,0.0318021201413427,0.1908127208480565,0.381625441696113,2.615443181878621,1.1436505681308238,-0.4143139635031591,0.6607773851590106,0.3074204946996466,9.937664031982422,21.0,0.254416961130742,6.3499908243033545,0.0478053475869445,0.0574337366801465,4.529426562032901,14.691383096432832,0.448198590809092,0.1523454453448633,0.0669836927139453,0.2454174177534323,-0.0538965036384451,-0.3573608307195948,0.1750361665306665,0.1898522715989678,-0.0699633888630108,-0.1905454632211808,0.1309673538324146,0.2897837543467406,MAAAPQAPGRGSLRKTRPLVVKTSLNNPYIIRWSALESEDMHFILQTLEDRLKAIGLQKIEDKKKKNKTPFLKKESREKCSIAVDISENLKEKKTDAKQQVSGWTPAHVRKQLAIGVNEVTRALERRELLLVLVCKSVKPAMITSHLIQLSLSRSVPACQVPRLSERIAPVIGLKCVLALAFKKNTTDFVDEVRAIIPRVPSLSVPWLQDRIEDSGENLETEPLESQDRELLDTSFEDLSKPKRKLADGRQASVTLQPLKIKKLIPNPNKIRKPPKSKKATPK,nucleolus,RPP38_HUMAN
RPP30_HUMAN,0.1007462686567164,0.0261194029850746,0.0522388059701492,0.0559701492537313,0.0373134328358208,0.0485074626865671,0.0223880597014925,0.0746268656716417,0.0783582089552238,0.1044776119402985,0.0111940298507462,0.0261194029850746,0.0522388059701492,0.0111940298507462,0.0597014925373134,0.0746268656716417,0.0597014925373134,0.0820895522388059,0.0,0.0223880597014925,1.0,0.0,0.0,0.0,0.0,0.0,0.0,2.0,0.0,3.0,1.0,2.0,1.0,1.0,14.0,0.0645385211375711,0.0,15.0,23.0,0.0,0.0,10.0,13.0,62.0,0.0611940298507462,21.0,3.0,0.0,0.0,0.0,0.0,0.0,0.0,0.0,0.0,1.0,0.0,0.0,0.0,0.0,0.0,0.0,0.0,0.0,2.0,0.0,3.0,0.0,2.0,2.0,0.0,2.0,2.0,0.0,0.0,1.0,1.0,2.0,0.0,2.0,0.0,0.0,0.0,1.0,5.0,0.0,1.0,1.0,2.0,2.0,7.0,0.0,30.0,50.0,2.0,14.0,10.0,3.0,0.0,29.0,-0.2578291093020998,22.0,16.0,3.0,33.0,36.0,20.0,0.0,2.0,0.0,0.0,1.0,0.1082089552238805,0.373134328358209,0.0597014925373134,0.1380597014925373,0.2985074626865671,2.656921881855248,-0.8451168994803397,-0.4199330538457295,0.6156716417910447,0.2462686567164179,9.108646392822266,8.0,0.2686567164179104,0.4288485518448759,0.0473063335614711,0.0696027301585564,4.347327063788373,14.829399314068027,0.3872107438963367,0.2157111825074018,0.0644787683557618,0.2427187233478198,0.0266303741759953,-0.399917447916141,0.176353802248391,0.2003829667701532,-0.0899992775001603,-0.2233374045057224,0.1533216122223243,0.2350561163149373,MAVFADLDLRAGSDLKALRGLVETAAHLGYSVVAINHIVDFKEKKQEIEKPVAVSELFTTLPIVQGKSRPIKILTRLTIIVSDPSHCNVLRATSSRARLYDVVAVFPKTEKLFHIACTHLDVDLVCITVTEKLPFYFKRPPINVAIDRGLAFELVYSPAIKDSTMRRYTISSALNLMQICKGKNVIISSAAERPLEIRGPYDVANLGLLFGLSESDAKAAVSTNCRAALLHGETRKTAFGIISTVKKPRPSEGDEDCLPASKKAKCEG,nucleolus,RPP30_HUMAN
AK17A_HUMAN,0.0618705035971223,0.0158273381294964,0.0489208633093525,0.1151079136690647,0.0258992805755395,0.0503597122302158,0.0302158273381294,0.0316546762589928,0.0920863309352518,0.0877697841726618,0.0172661870503597,0.0230215827338129,0.0474820143884892,0.0546762589928057,0.1251798561151079,0.0834532374100719,0.0316546762589928,0.0402877697841726,0.0057553956834532,0.0115107913669064,0.0,0.0,0.0,0.0,1.0,1.0,0.0,3.0,0.0,2.0,2.0,3.0,0.0,5.0,34.0,0.8391010931830252,0.0,80.0,53.0,4.0,0.0,10.0,35.0,140.0,-1.1689208633093524,64.0,4.0,1.0,0.0,0.0,0.0,0.0,0.0,0.0,1.0,1.0,0.0,0.0,0.0,0.0,0.0,1.0,0.0,0.0,0.0,0.0,0.0,0.0,0.0,2.0,0.0,0.0,0.0,1.0,3.0,2.0,7.0,6.0,2.0,12.0,4.0,0.0,0.0,5.0,8.0,5.0,3.0,5.0,1.0,8.0,16.0,5.0,120.0,113.0,2.0,33.0,54.0,38.0,0.0,122.0,0.3029495445825694,95.0,87.0,6.0,93.0,145.0,58.0,0.0,10.0,3.0,0.0,0.0,0.1640287769784172,0.2388489208633093,0.0431654676258992,0.2172661870503597,0.4287769784172662,2.7074269760672,-0.7189593914392182,-0.4548048411432488,0.7410071942446043,0.381294964028777,9.756298065185549,37.0,0.2892086330935252,8.07736391163621,0.0744618076617403,0.0826028695085157,4.8066399625356215,14.86514104241461,0.472061252730599,0.1449224924225556,0.0899590481211843,0.2341956600653419,-0.16942035842227,-0.3811342400298413,0.1856449392150719,0.226819867352825,-0.0980991880186764,-0.2143321372743762,0.1321680475367243,0.32653761101205,MAAATIVHDTSEAVELCPAYGLYLKPITKMTISVALPQLKQPGKSISNWEVMERLKGMVQNHQFSTLRISKSTMDFIRFEGEVENKSLVKSFLACLDGKTIKLSGFSDILKVRAAEFKIDFPTRHDWDSFFRDAKDMNETLPGERPDTIHLEGLPCKWFALKESGSEKPSEDVLVKVFEKFGEIRNVDIPMLDPYREEMTGRNFHTFSFGGHLNFEAYVQYREYMGFIQAMSALRGMKLMYKGEDGKAVACNIKVSFDSTKHLSDASIKKRQLERQKLQELEQQREEQKRREKEAEERQRAEERKQKELEELERERKREEKLRKREQKQRDRELRRNQKKLEKLQAEEQKQLQEKIKLEERKLLLAQRNLQSIRLIAELLSRAKAVKLREQEQKEEKLRLQQQEERRRLQEAELRRVEEEKERALGLQRKERELRERLLSILLSKKPDDSHTHDELGVAHADLLQPVLDILQTVSSGCVSATTLHPLGGQPPAGAPKESPAHPEADGAPKSVNGSVAEEAPCKEVQSSCRVVPEDGSPEKRCPGGVLSCIPDNNQQPKGIPACEQNVSRKDTRSEQDKCNREPSKGRGRATGDGLADRHKRERSRARRASSREDGRPRKERRPHKKHAYKDDSPRRRSTSPDHTRSRRSHSKDRHRRERSRERRGSASRKHSRHRRRSERSRSRSPSRHRSTWNR,nuclear_speckle,AK17A_HUMAN
SRSF4_HUMAN,0.0303643724696356,0.0040485829959514,0.0445344129554655,0.0728744939271255,0.0101214574898785,0.0708502024291498,0.0182186234817813,0.0141700404858299,0.1093117408906882,0.0283400809716599,0.0060728744939271,0.0242914979757085,0.0242914979757085,0.0242914979757085,0.1963562753036437,0.2408906882591093,0.0161943319838056,0.034412955465587,0.0020242914979757,0.0283400809716599,4.0,0.0,0.0,0.0,0.0,0.0,0.0,0.0,0.0,1.0,0.0,2.0,0.0,4.0,22.0,0.4754236967150748,0.0,36.0,40.0,0.0,0.0,10.0,35.0,81.0,-1.8384615384615388,54.0,6.0,0.0,0.0,0.0,0.0,0.0,0.0,0.0,0.0,2.0,0.0,0.0,0.0,0.0,0.0,0.0,0.0,0.0,3.0,0.0,0.0,1.0,0.0,1.0,0.0,0.0,1.0,0.0,4.0,0.0,6.0,6.0,0.0,28.0,1.0,0.0,5.0,4.0,8.0,14.0,2.0,4.0,1.0,3.0,12.0,0.0,109.0,139.0,0.0,12.0,24.0,12.0,0.0,132.0,0.5776342934381009,111.0,97.0,18.0,154.0,216.0,119.0,0.0,4.0,1.0,0.0,3.0,0.117408906882591,0.1133603238866396,0.0404858299595141,0.305668016194332,0.4473684210526316,2.347154497187323,1.7853822110866018,1.0317245419300152,0.8481781376518218,0.4230769230769231,11.517192840576172,93.0,0.3987854251012145,85.6789764365257,0.0795093007125594,0.0999905751946972,5.162776283388596,14.148263128378526,0.3502197034111767,0.2027631130025763,0.1188417459428195,0.2961604731198765,0.0296772067173534,-0.5017559360556805,0.2281434360405064,0.280675350503913,-0.1173231813320943,-0.256394602983392,0.1678397998660259,0.2045680690819316,MPRVYIGRLSYQARERDVERFFKGYGKILEVDLKNGYGFVEFDDLRDADDAVYELNGKDLCGERVIVEHARGPRRDGSYGSGRSGYGYRRSGRDKYGPPTRTEYRLIVENLSSRCSWQDLKDYMRQAGEVTYADAHKGRKNEGVIEFVSYSDMKRALEKLDGTEVNGRKIRLVEDKPGSRRRRSYSRSRSHSRSRSRSRHSRKSRSRSGSSKSSHSKSRSRSRSGSRSRSKSRSRSQSRSRSKKEKSRSPSKEKSRSRSHSAGKSRSKSKDQAEEKIQNNDNVGKPKSRSPSRHKSKSKSRSRSQERRVEEEKRGSVSRGRSQEKSLRQSRSRSRSKGGSRSRSRSRSKSKDKRKGRKRSREESRSRSRSRSKSERSRKRGSKRDSKAGSSKKKKKEDTDRSQSRSPSRSVSKEREHAKSESSQREGRGESENAGTNQETRSRSRSNSKSKPNLPSESRSRSKSASKTRSRSKSRSRSASRSPSRSRSRSHSRS,nuclear_speckle,SRSF4_HUMAN
BRME1_HUMAN,0.0868263473053892,0.0149700598802395,0.0658682634730539,0.0838323353293413,0.0164670658682634,0.122754491017964,0.0194610778443113,0.0164670658682634,0.0374251497005988,0.0808383233532934,0.0134730538922155,0.0164670658682634,0.1167664670658682,0.061377245508982,0.0523952095808383,0.0958083832335329,0.0479041916167664,0.0404191616766467,0.0059880239520958,0.0044910179640718,4.0,0.0,0.0,1.0,3.0,1.0,0.0,0.0,0.0,0.0,0.0,1.0,1.0,10.0,44.0,0.2363887780642303,10.0,56.0,93.0,0.0,4.0,12.0,82.0,161.0,-0.7812874251497007,25.0,2.0,0.0,0.0,0.0,0.0,0.0,0.0,0.0,0.0,0.0,0.0,0.0,0.0,0.0,0.0,0.0,0.0,0.0,0.0,0.0,0.0,0.0,0.0,0.0,2.0,0.0,2.0,1.0,3.0,1.0,12.0,11.0,0.0,12.0,0.0,0.0,7.0,0.0,6.0,0.0,1.0,9.0,1.0,3.0,11.0,35.0,113.0,174.0,2.0,78.0,52.0,41.0,0.0,117.0,0.3254224004346279,38.0,35.0,3.0,146.0,99.0,64.0,0.0,1.0,1.0,0.0,1.0,0.1497005988023952,0.2380239520958083,0.0269461077844311,0.0898203592814371,0.3562874251497006,2.646407877125944,1.2316968696052892,-0.3504336519950759,0.7904191616766467,0.2395209580838323,4.713459014892578,-40.0,0.3787425149700599,10.049335248663166,0.067199050047947,0.0900179716575435,4.940636873002292,13.866306960705453,0.29223087437704,0.1597050586955685,0.1596127835942718,0.3094542158757981,0.088094467401329,-0.3813463920353628,0.1968893302737568,0.2375036760541703,-0.0703371354142143,-0.1768146309663678,0.1842222137915788,0.153742549355225,MTKRKKLRTSGEGLCPPKPLKNPRLGDFYGDPQSSMLGCLHHPEEPEGKLGPVPSTQQHGEEPGKAVSSSPDEETGSPCRLLRQPEKEPAPLPPSQNSFGRFVPQFAKSRKTVTRKEEMKDEDRGSGAFSLETIAESSAQSPGCQLLVETLGVPLQEATELGDPTQADSARPEQSSQSPVQAVPGSGDSQPDDPPDRGTGLSASQRASQDHLSEQGADDSKPETDRVPGDGGQKEHLPSIDSEGEKPDRGAPQEGGAQRTAGAGLPGGPQEEGDGVPCTPASAPTSGPAPGLGPASWCLEPGSVAQGSPDPQQTPSRMGREGEGTHSSLGCSSLGMVVIADLSTDPTELEERALEVAGPDGQASAISPASPRRKAADGGHRRALPGCTSLTGETTGESGEAGQDGKPPGDVLVGPTASLALAPGSGESMMGAGDSGHASPDTGPCVNQKQEPGPAQEEAELGGQNLERDLEGFRVSPQASVVLEHREIADDPLQEPGAQQGIPDTTSELAGQRDHLPHSADQGTWADSLAVELDFLLDSQIQDALDASDFEAPPEQLFPSGNKPGPCWPGPSSHANGDPVAVAKAQPRTFVGIQASEASRMEDATNVVRGLIVELSNLNRLIMGTHRDLEAFKRLNYRKTKLGGKAPLPYPSKGPGNIPRGDPPWREL,chromosomes,BRME1_HUMAN
CGNL1_HUMAN,0.0576036866359447,0.0076804915514592,0.0560675883256528,0.1282642089093702,0.0138248847926267,0.0414746543778801,0.0199692780337941,0.0276497695852534,0.0798771121351766,0.1159754224270353,0.0184331797235023,0.0468509984639016,0.0376344086021505,0.0798771121351766,0.0775729646697388,0.08678955453149,0.0453149001536098,0.0414746543778801,0.0023041474654377,0.0153609831029185,3.0,1.0,0.0,0.0,0.0,5.0,1.0,5.0,1.0,8.0,0.0,3.0,2.0,6.0,73.0,0.8198988861990891,0.0,167.0,72.0,4.0,0.0,8.0,54.0,228.0,-1.0772657450076806,104.0,8.0,0.0,0.0,0.0,0.0,0.0,0.0,0.0,0.0,2.0,0.0,1.0,1.0,0.0,0.0,0.0,0.0,0.0,3.0,0.0,1.0,1.0,2.0,6.0,1.0,0.0,1.0,0.0,1.0,0.0,18.0,12.0,0.0,21.0,7.0,0.0,10.0,4.0,9.0,3.0,7.0,6.0,6.0,10.0,61.0,5.0,150.0,221.0,6.0,49.0,165.0,104.0,0.0,155.0,-0.0289875368732522,121.0,101.0,6.0,167.0,214.0,113.0,0.0,10.0,7.0,2.0,3.0,0.184331797235023,0.261136712749616,0.0314900153609831,0.1574500768049155,0.3794162826420891,2.709984566135772,-0.1161069503715461,0.5401119522654434,0.7104454685099847,0.3417818740399385,5.515293121337891,-35.0,0.3279569892473118,2.9700700181657824,0.0637614799429364,0.0704164114704408,4.695118566898241,14.937948153305063,0.5172702584586899,0.1314498195209842,0.0781945222715782,0.2188918800355392,-0.1701624341108481,-0.339022344858319,0.2004982731647042,0.2138030413376678,-0.0726233040361199,-0.1748047954622099,0.1189382409258856,0.3696683560136211,MELYFGEYQHVQQEYGVHLRLASDDTQKSRSSQNSKAGSYGVSIRVQGIDGHPYIVLNNTERCLAGTSFSENGPPFPPPVINNLPLHSSNGSVPKENSEELQLPENPYAQPSPIRNLKQPLLHEGKNGVLDRKDGSVKPSHLLNFQRHPELLQPYDPEKNELNLQNHQPSESNWLKTLTEEGINNKKPWTCFPKPSNSQPTSPSLEDPAKSGVTAIRLCSSVVIEDPKKQTSVCVNVQSCTKERVGEEALFTSGRPLTAHSPHAHPETKKTRPDVLPFRRQDSAGPVLDGARSRRSSSSSTTPTSANSLYRFLLDDQECAIHADNVNRHENRRYIPFLPGTGRDIDTGSIPGVDQLIEKFDQKPGLQRRGRSGKRNRINTDDRKRSRSVDSAFPFGLQGNSEYLIEFSRNLGKSSEHLLRPSQVCPQRPLSQERRGKQSVGRTFAKLQGAAHGASCAHSRPPQPNIDGKVLETEGSQESTVIRAPSLGAQSKKEEEVKTATATLMLQNRATATSPDSGAKKISVKTFPSASNTQATPDLLKGQQELTQQTNEETAKQILYNYLKEGSTDNDDATKRKVNLVFEKIQTLKSRAAGSAQGNNQACNSTSEVKDLLEQKSKLTIEVAELQRQLQLEVKNQQNIKEERERMRANLEELRSQHNEKVEENSTLQQRLEESEGELRKNLEELFQVKMEREQHQTEIRDLQDQLSEMHDELDSAKRSEDREKGALIEELLQAKQDLQDLLIAKEEQEDLLRKRERELTALKGALKEEVSSHDQEMDKLKEQYDAELQALRESVEEATKNVEVLASRSNTSEQDQAGTEMRVKLLQEENEKLQGRSEELERRVAQLQRQIEDLKGDEAKAKETLKKYEGEIRQLEEALVHARKEEKEAVSARRALENELEAAQGNLSQTTQEQKQLSEKLKEESEQKEQLRRLKNEMENERWHLGKTIEKLQKEMADIVEASRTSTLELQNQLDEYKEKNRRELAEMQRQLKEKTLEAEKSRLTAMKMQDEMRLMEEELRDYQRAQDEALTKRQLLEQTLKDLEYELEAKSHLKDDRSRLVKQMEDKVSQLEMELEEERNNSDLLSERISRSREQMEQLRNELLQERAARQDLECDKISLERQNKDLKSRIIHLEGSYRSSKEGLVVQMEARIAELEDRLESEERDRANLQLSNRRLERKVKELVMQVDDEHLSLTDQKDQLSLRLKAMKRQVEEAEEEIDRLESSKKKLQRELEEQMDMNEHLQGQLNSMKKDLRLKKLPSKVLDDMDDDDDLSTDGGSLYEAPVSYTFSKDSTVASQI,cell_junction,CGNL1_HUMAN
NEXN_HUMAN,0.0548148148148148,0.0059259259259259,0.0459259259259259,0.2059259259259259,0.0311111111111111,0.037037037037037,0.0044444444444444,0.0459259259259259,0.12,0.0592592592592592,0.0281481481481481,0.0296296296296296,0.0281481481481481,0.0533333333333333,0.1007407407407407,0.0518518518518518,0.037037037037037,0.034074074074074,0.0059259259259259,0.0207407407407407,1.0,0.0,0.0,0.0,0.0,0.0,1.0,3.0,1.0,2.0,2.0,0.0,2.0,3.0,31.0,1.4759065198095778,0.0,139.0,46.0,0.0,0.0,4.0,25.0,137.0,-1.4379259259259258,81.0,2.0,0.0,0.0,0.0,0.0,0.0,0.0,0.0,0.0,6.0,0.0,0.0,0.0,0.0,0.0,0.0,0.0,0.0,1.0,0.0,0.0,1.0,1.0,5.0,0.0,0.0,1.0,0.0,2.0,0.0,2.0,13.0,0.0,7.0,4.0,0.0,2.0,3.0,5.0,0.0,4.0,3.0,3.0,5.0,20.0,5.0,87.0,79.0,0.0,19.0,56.0,36.0,0.0,93.0,-0.1726127426669937,82.0,68.0,0.0,60.0,103.0,35.0,0.0,8.0,3.0,0.0,0.0,0.2518518518518518,0.2222222222222222,0.0577777777777777,0.2207407407407407,0.5007407407407407,2.6003922225312213,2.7280218915130257,-1.1029529606534323,0.7392592592592593,0.4725925925925926,5.308826446533203,-21.0,0.2192592592592592,-0.3964962689950093,0.0730456456313819,0.066608600016888,4.742286567830618,15.131309837778073,0.5831311360977836,0.1240246051484913,0.0514674945555076,0.1895502916401868,-0.2341646101024062,-0.3695667244408321,0.1742028429093405,0.1949131367193498,-0.1170275599634499,-0.2113567884389385,0.1054379043408096,0.4267371855128895,MNDISQKAEILLSSSKPVPKTYVPKLGKGDVKDKFEAMQRAREERNQRRSRDEKQRRKEQYIREREWNRRKQEIKEMLASDDEEDVSSKVEKAYVPKLTGTVKGRFAEMEKQRQEEQRKRTEEERKRRIEQDMLEKRKIQRELAKRAEQIEDINNTGTESASEEGDDSLLITVVPVKSYKTSGKMKKNFEDLEKEREEKERIKYEEDKRIRYEEQRPSLKEAKCLSLVMDDEIESEAKKESLSPGKLKLTFEELERQRQENRKKQAEEEARKRLEEEKRAFEEARRQMVNEDEENQDTAKIFKGYRPGKLKLSFEEMERQRREDEKRKAEEEARRRIEEEKKAFAEARRNMVVDDDSPEMYKTISQEFLTPGKLEINFEELLKQKMEEEKRRTEEERKHKLEMEKQEFEQLRQEMGEEEEENETFGLSREYEELIKLKRSGSIQAKNLKSKFEKIGQLSEKEIQKKIEEERARRRAIDLEIKEREAENFHEEDDVDVRPARKSEAPFTHKVNMKARFEQMAKAREEEEQRRIEEQKLLRMQFEQREIDAALQKKREEEEEEEGSIMNGSTAEDEEQTRSGAPWFKKPLKNTSVVDSEPVRFTVKVTGEPKPEITWWFEGEILQDGEDYQYIERGETYCLYLPETFPEDGGEYMCKAVNNKGSAASTCILTIESKN,cell_junction,NEXN_HUMAN
NU160_HUMAN,0.0724233983286908,0.0285515320334261,0.0466573816155988,0.0710306406685236,0.0341225626740947,0.0508356545961002,0.0264623955431754,0.0522284122562674,0.0355153203342618,0.1357938718662952,0.0250696378830083,0.0376044568245125,0.0438718662952646,0.0529247910863509,0.0494428969359331,0.0696378830083565,0.0508356545961002,0.064066852367688,0.0146239554317548,0.0383008356545961,2.0,0.0,0.0,0.0,0.0,3.0,1.0,2.0,1.0,5.0,5.0,5.0,6.0,9.0,67.0,0.415221283053529,0.0,102.0,122.0,0.0,0.0,16.0,73.0,218.0,-0.0541782729805013,51.0,8.0,0.0,1.0,0.0,0.0,1.0,0.0,0.0,0.0,11.0,0.0,0.0,0.0,0.0,0.0,3.0,2.0,0.0,4.0,4.0,3.0,5.0,7.0,20.0,0.0,4.0,9.0,2.0,2.0,1.0,13.0,15.0,0.0,14.0,5.0,0.0,12.0,0.0,4.0,0.0,14.0,9.0,1.0,2.0,54.0,0.0,134.0,236.0,8.0,63.0,130.0,76.0,0.0,144.0,0.3254224004346279,126.0,71.0,0.0,173.0,171.0,100.0,0.0,3.0,9.0,5.0,0.0,0.1176880222841225,0.3495821727019498,0.0870473537604456,0.0849582172701949,0.2465181058495821,2.847456552281014,0.4704400717669757,-0.1271619955688598,0.5696378830083565,0.2026462395543175,5.313739776611328,-47.0,0.3168523676880223,11.44739698575816,0.0630900728491299,0.0819258530042242,4.323198906141126,15.290439746416045,0.4496784854839928,0.1755802106356054,0.0659152375790523,0.2351571784470011,-0.027337999543267,-0.3404674838284508,0.1885151142160421,0.2045474380599022,-0.1193893224403372,-0.2694782730178948,0.1337080539165586,0.2947581691308126,MLHLSAAPPAPPPEVTATARPCLCSVGRRGDGGKMAAAGALERSFVELSGAERERPRHFREFTVCSIGTANAVAGAVKYSESAGGFYYVESGKLFSVTRNRFIHWKTSGDTLELMEESLDINLLNNAIRLKFQNCSVLPGGVYVSETQNRVIILMLTNQTVHRLLLPHPSRMYRSELVVDSQMQSIFTDIGKVDFTDPCNYQLIPAVPGISPNSTASTAWLSSDGEALFALPCASGGIFVLKLPPYDIPGMVSVVELKQSSVMQRLLTGWMPTAIRGDQSPSDRPLSLAVHCVEHDAFIFALCQDHKLRMWSYKEQMCLMVADMLEYVPVKKDLRLTAGTGHKLRLAYSPTMGLYLGIYMHAPKRGQFCIFQLVSTESNRYSLDHISSLFTSQETLIDFALTSTDIWALWHDAENQTVVKYINFEHNVAGQWNPVFMQPLPEEEIVIRDDQDPREMYLQSLFTPGQFTNEALCKALQIFCRGTERNLDLSWSELKKEVTLAVENELQGSVTEYEFSQEEFRNLQQEFWCKFYACCLQYQEALSHPLALHLNPHTNMVCLLKKGYLSFLIPSSLVDHLYLLPYENLLTEDETTISDDVDIARDVICLIKCLRLIEESVTVDMSVIMEMSCYNLQSPEKAAEQILEDMITIDVENVMEDICSKLQEIRNPIHAIGLLIREMDYETEVEMEKGFNPAQPLNIRMNLTQLYGSNTAGYIVCRGVHKIASTRFLICRDLLILQQLLMRLGDAVIWGTGQLFQAQQDLLHRTAPLLLSYYLIKWGSECLATDVPLDTLESNLQHLSVLELTDSGALMANRFVSSPQTIVELFFQEVARKHIISHLFSQPKAPLSQTGLNWPEMITAITSYLLQLLWPSNPGCLFLECLMGNCQYVQLQDYIQLLHPWCQVNVGSCRFMLGRCYLVTGEGQKALECFCQAASEVGKEEFLDRLIRSEDGEIVSTPRLQYYDKVLRLLDVIGLPELVIQLATSAITEAGDDWKSQATLRTCIFKHHLDLGHNSQAYEALTQIPDSSRQLDCLRQLVVVLCERSQLQDLVEFPYVNLHNEVVGIIESRARAVDLMTHNYYELLYAFHIYRHNYRKAGTVMFEYGMRLGREVRTLRGLEKQGNCYLAALNCLRLIRPEYAWIVQPVSGAVYDRPGASPKRNHDGECTAAPTNRQIEILELEDLEKECSLARIRLTLAQHDPSAVAVAGSSSAEEMVTLLVQAGLFDTAISLCQTFKLPLTPVFEGLAFKCIKLQFGGEAAQAEAWAWLAANQLSSVITTKESSATDEAWRLLSTYLERYKVQNNLYHHCVINKLLSHGVPLPNWLINSYKKVDAAELLRLYLNYDLLEEAVDLVSEYVDAVLGKGHQYFGIEFPLSATAPMVWLPYSSIDQLLQALGENSANSHNIALSQKILDKLEDYQQKVDKATRDLLYRRTL,nuclear_pore_complex,NU160_HUMAN
SNTA1_HUMAN,0.1128712871287128,0.0118811881188118,0.0475247524752475,0.0653465346534653,0.0257425742574257,0.0891089108910891,0.0178217821782178,0.0316831683168316,0.0455445544554455,0.1207920792079207,0.0118811881188118,0.0158415841584158,0.0712871287128712,0.0435643564356435,0.0613861386138613,0.0831683168316831,0.0633663366336633,0.0554455445544554,0.0138613861386138,0.0118811881188118,0.0,0.0,0.0,0.0,1.0,1.0,1.0,5.0,0.0,4.0,2.0,2.0,0.0,7.0,24.0,0.3074846997479607,0.0,33.0,58.0,0.0,0.0,2.0,45.0,116.0,-0.2403960396039604,23.0,6.0,0.0,0.0,0.0,0.0,0.0,0.0,0.0,0.0,2.0,0.0,0.0,0.0,0.0,0.0,0.0,0.0,0.0,0.0,0.0,0.0,1.0,1.0,4.0,0.0,1.0,3.0,2.0,0.0,3.0,6.0,6.0,0.0,10.0,2.0,0.0,1.0,1.0,1.0,0.0,1.0,7.0,2.0,4.0,8.0,10.0,67.0,110.0,4.0,36.0,30.0,22.0,0.0,76.0,0.2876820724517808,37.0,31.0,0.0,87.0,73.0,42.0,0.0,1.0,4.0,0.0,0.0,0.1128712871287128,0.3326732673267327,0.0514851485148514,0.1069306930693069,0.291089108910891,2.689767594953445,0.1021756832271,-0.5766842819727577,0.700990099009901,0.2198019801980198,6.374111175537109,-3.0,0.3247524752475247,-0.6072335353551056,0.0559604684680211,0.0833241270634757,4.571486123825042,14.581946238527332,0.3943996178372222,0.1793833631569156,0.0952467434695732,0.2546776203782677,-0.0060218696777889,-0.3719722434629753,0.1873330010349788,0.2129989652229134,-0.0863449768397424,-0.2173591068406286,0.1481417169079188,0.2538583087959414,MASGRRAPRTGLLELRAGAGSGAGGERWQRVLLSLAEDVLTVSPADGDPGPEPGAPREQEPAQLNGAAEPGAGPPQLPEALLLQRRRVTVRKADAGGLGISIKGGRENKMPILISKIFKGLAADQTEALFVGDAILSVNGEDLSSATHDEAVQVLKKTGKEVVLEVKYMKDVSPYFKNSTGGTSVGWDSPPASPLQRQPSSPGPTPRNFSEAKHMSLKMAYVSKRCTPNDPEPRYLEICSADGQDTLFLRAKDEASARSWATAIQAQVNTLTPRVKDELQALLAATSTAGSQDIKQIGWLTEQLPSGGTAPTLALLTEKELLLYLSLPETREALSRPARTAPLIATRLVHSGPSKGSVPYDAELSFALRTGTRHGVDTHLFSVESPQELAAWTRQLVDGCHRAAEGVQEVSTACTWNGRPCSLSVHIDKGFTLWAAEPGAARAVLLRQPFEKLQMSSDDGASLLFLDFGGAEGEIQLDLHSCPKTIVFIIHSFLSAKVTRLGLLA,cell_junction,SNTA1_HUMAN
TCOF_HUMAN,0.1478494623655914,0.0026881720430107,0.0383064516129032,0.0940860215053763,0.002016129032258,0.0766129032258064,0.0047043010752688,0.0100806451612903,0.1129032258064516,0.0416666666666666,0.0094086021505376,0.0134408602150537,0.0920698924731182,0.0551075268817204,0.0336021505376344,0.1364247311827957,0.0665322580645161,0.0571236559139784,0.0026881720430107,0.0026881720430107,13.0,0.0,0.0,1.0,0.0,0.0,0.0,2.0,0.0,2.0,0.0,1.0,1.0,31.0,57.0,0.8883168798317489,0.0,140.0,117.0,0.0,0.0,4.0,114.0,525.0,-0.9094758064516127,168.0,5.0,0.0,0.0,0.0,0.0,0.0,0.0,0.0,0.0,0.0,0.0,0.0,0.0,0.0,0.0,0.0,0.0,0.0,1.0,0.0,0.0,0.0,0.0,2.0,6.0,0.0,2.0,9.0,12.0,8.0,38.0,32.0,0.0,43.0,6.0,0.0,17.0,4.0,7.0,1.0,6.0,29.0,4.0,5.0,20.0,30.0,187.0,439.0,0.0,137.0,102.0,82.0,0.0,164.0,-1.1980730821987478,54.0,50.0,0.0,317.0,253.0,203.0,0.0,1.0,3.0,0.0,8.0,0.1323924731182795,0.2661290322580645,0.0073924731182795,0.146505376344086,0.3709677419354839,2.514630129757554,6.356540922832117,-0.8052060128117431,0.8581989247311828,0.2788978494623655,9.063251495361328,21.0,0.355510752688172,-4.166983141071614,0.0480618204012907,0.0660086683324583,4.9814621019644045,13.69839833385091,0.3684608608108447,0.1510790435300629,0.1146882263569427,0.2893111406998059,0.0747819157921209,-0.3887054889804101,0.206101677851534,0.2108930263095455,-0.0385509459893412,-0.1328564446578396,0.1631894287005073,0.2082183719515276,MAEARKRRELLPLIYHHLLRAGYVRAAREVKEQSGQKCFLAQPVTLLDIYTHWQQTSELGRKRKAEEDAALQAKKTRVSDPISTSESSEEEEEAEAETAKATPRLASTNSSVLGADLPSSMKEKAKAETEKAGKTGNSMPHPATGKTVANLLSGKSPRKSAEPSANTTLVSETEEEGSVPAFGAAAKPGMVSAGQADSSSEDTSSSSDETDVEGKPSVKPAQVKASSVSTKESPARKAAPAPGKVGDVTPQVKGGALPPAKRAKKPEEESESSEEGSESEEEAPAGTRSQVKASEKILQVRAASAPAKGTPGKGATPAPPGKAGAVASQTKAGKPEEDSESSSEESSDSEEETPAAKALLQAKASGKTSQVGAASAPAKESPRKGAAPAPPGKTGPAVAKAQAGKREEDSQSSSEESDSEEEAPAQAKPSGKAPQVRAASAPAKESPRKGAAPAPPRKTGPAAAQVQVGKQEEDSRSSSEESDSDREALAAMNAAQVKPLGKSPQVKPASTMGMGPLGKGAGPVPPGKVGPATPSAQVGKWEEDSESSSEESSDSSDGEVPTAVAPAQEKSLGNILQAKPTSSPAKGPPQKAGPVAVQVKAEKPMDNSESSEESSDSADSEEAPAAMTAAQAKPALKIPQTKACPKKTNTTASAKVAPVRVGTQAPRKAGTATSPAGSSPAVAGGTQRPAEDSSSSEESDSEEEKTGLAVTVGQAKSVGKGLQVKAASVPVKGSLGQGTAPVLPGKTGPTVTQVKAEKQEDSESSEEESDSEEAAASPAQVKTSVKKTQAKANPAAARAPSAKGTISAPGKVVTAAAQAKQRSPSKVKPPVRNPQNSTVLARGPASVPSVGKAVATAAQAQTGPEEDSGSSEEESDSEEEAETLAQVKPSGKTHQIRAALAPAKESPRKGAAPTPPGKTGPSAAQAGKQDDSGSSSEESDSDGEAPAAVTSAQVIKPPLIFVDPNRSPAGPAATPAQAQAASTPRKARASESTARSSSSESEDEDVIPATQCLTPGIRTNVVTMPTAHPRIAPKASMAGASSSKESSRISDGKKQEGPATQVSKKNPASLPLTQAALKVLAQKASEAQPPVARTQPSSGVDSAVGTLPATSPQSTSVQAKGTNKLRKPKLPEVQQATKAPESSDDSEDSSDSSSGSEEDGEGPQGAKSAHTLGPTPSRTETLVEETAAESSEDDVVAPSQSLLSGYMTPGLTPANSQASKATPKLDSSPSVSSTLAAKDDPDGKQEAKPQQAAGMLSPKTGGKEAASGTTPQKSRKPKKGAGNPQASTLALQSNITQCLLGQPWPLNEAQVQASVVKVLTELLEQERKKVVDTTKESSRKGWESRKRKLSGDQPAARTPRSKKKKKLGAGEGGEASVSPEKTSTTSKGKAKRDKASGDVKEKKGKGSLGSQGAKDEPEEELQKGMGTVEGGDQSNPKSKKEKKKSDKRKKDKEKKEKKKKAKKASTKDSESPSQKKKKKKKKTAEQTV,nucleolus,TCOF_HUMAN
SHRM2_HUMAN,0.0878712871287128,0.0129950495049504,0.0563118811881188,0.0804455445544554,0.021039603960396,0.0736386138613861,0.0321782178217821,0.0216584158415841,0.0532178217821782,0.0866336633663366,0.0080445544554455,0.0136138613861386,0.1008663366336633,0.0532178217821782,0.0773514851485148,0.109529702970297,0.0476485148514851,0.0377475247524752,0.0117574257425742,0.0142326732673267,3.0,1.0,0.0,0.0,0.0,3.0,0.0,3.0,0.0,4.0,1.0,2.0,1.0,22.0,91.0,0.3534087461521113,0.0,130.0,153.0,0.0,0.0,18.0,119.0,391.0,-0.8620049504950495,86.0,20.0,0.0,0.0,0.0,0.0,0.0,0.0,0.0,1.0,2.0,0.0,0.0,0.0,0.0,0.0,0.0,0.0,0.0,0.0,0.0,1.0,0.0,2.0,5.0,3.0,0.0,5.0,4.0,0.0,1.0,25.0,18.0,2.0,29.0,4.0,0.0,7.0,3.0,21.0,1.0,13.0,22.0,4.0,6.0,22.0,40.0,288.0,417.0,0.0,163.0,108.0,86.0,0.0,244.0,0.3703737882968942,148.0,125.0,9.0,296.0,302.0,177.0,0.0,7.0,7.0,1.0,0.0,0.1367574257425742,0.2419554455445544,0.047029702970297,0.130569306930693,0.3681930693069307,2.742267473112058,-2.3119466930232475,-0.2858887474803439,0.7722772277227723,0.2673267326732673,6.646907806396484,-10.0,0.3428217821782178,-1.5391598681150531,0.0710819404198579,0.091304531159387,4.925295346361581,14.385382852042454,0.3603749643681211,0.151862796625033,0.138413049850786,0.2801989507506622,-0.007428678457597,-0.3748768908259676,0.2014851315319598,0.2349304020406556,-0.1022772588222682,-0.2260711562319342,0.1609133118815798,0.2125909447475613,MEGAEPRARPERLAEAETRAADGGRLVEVQLSGGAPWGFTLKGGREHGEPLVITKIEEGSKAAAVDKLLAGDEIVGINDIGLSGFRQEAICLVKGSHKTLKLVVKRRSELGWRPHSWHATKFSDSHPELAASPFTSTSGCPSWSGRHHASSSSHDLSSSWEQTNLQRTLDHFSSLGSVDSLDHPSSRLSVAKSNSSIDHLGSHSKRDSAYGSFSTSSSTPDHTLSKADTSSAENILYTVGLWEAPRQGGRQAQAAGDPQGSEEKLSCFPPRVPGDSGKGPRPEYNAEPKLAAPGRSNFGPVWYVPDKKKAPSSPPPPPPPLRSDSFAATKSHEKAQGPVFSEAAAAQHFTALAQAQPRGDRRPELTDRPWRSAHPGSLGKGSGGPGCPQEAHADGSWPPSKDGASSRLQASLSSSDVRFPQSPHSGRHPPLYSDHSPLCADSLGQEPGAASFQNDSPPQVRGLSSCDQKLGSGWQGPRPCVQGDLQAAQLWAGCWPSDTALGALESLPPPTVGQSPRHHLPQPEGPPDARETGRCYPLDKGAEGCSAGAQEPPRASRAEKASQRLAASITWADGESSRICPQETPLLHSLTQEGKRRPESSPEDSATRPPPFDAHVGKPTRRSDRFATTLRNEIQMHRAKLQKSRSTVALTAAGEAEDGTGRWRAGLGGGTQEGPLAGTYKDHLKEAQARVLRATSFKRRDLDPNPGDLYPESLEHRMGDPDTVPHFWEAGLAQPPSSTSGGPHPPRIGGRRRFTAEQKLKSYSEPEKMNEVGLTRGYSPHQHPRTSEDTVGTFADRWKFFEETSKPVPQRPAQKQALHGIPRDKPERPRTAGRTCEGTEPWSRTTSLGDSLNAHSAAEKAGTSDLPRRLGTFAEYQASWKEQRKPLEARSSGRCHSADDILDVSLDPQERPQHVHGRSRSSPSTDHYKQEASVELRRQAGDPGEPREELPSAVRAEEGQSTPRQADAQCREGSPGSQQHPPSQKAPNPPTFSELSHCRGAPELPREGRGRAGTLPRDYRYSEESTPADLGPRAQSPGSPLHARGQDSWPVSSALLSKRPAPQRPPPPKREPRRYRATDGAPADAPVGVLGRPFPTPSPASLDVYVARLSLSHSPSVFSSAQPQDTPKATVCERGSQHVSGDASRPLPEALLPPKQQHLRLQTATMETSRSPSPQFAPQKLTDKPPLLIQDEDSTRIERVMDNNTTVKMVPIKIVHSESQPEKESRQSLACPAEPPALPHGLEKDQIKTLSTSEQFYSRFCLYTRQGAEPEAPHRAQPAEPQPLGTQVPPEKDRCTSPPGLSYMKAKEKTVEDLKSEELAREIVGKDKSLADILDPSVKIKTTMDLMEGIFPKDEHLLEEAQQRRKLLPKIPSPRSTEERKEEPSVPAAVSLATNSTYYSTSAPKAELLIKMKDLQEQQEHEEDSGSDLDHDLSVKKQELIESISRKLQVLREARESLLEDVQANTVLGAEVEAIVKGVCKPSEFDKFRMFIGDLDKVVNLLLSLSGRLARVENALNNLDDGASPGDRQSLLEKQRVLIQQHEDAKELKENLDRRERIVFDILANYLSEESLADYEHFVKMKSALIIEQRELEDKIHLGEEQLKCLLDSLQPERGK,cell_junction,SHRM2_HUMAN
NOG2_HUMAN,0.0533515731874145,0.0054719562243502,0.054719562243502,0.0957592339261285,0.0314637482900136,0.0519835841313269,0.0164158686730506,0.0492476060191518,0.1094391244870041,0.0642954856361149,0.0177838577291381,0.0451436388508891,0.0519835841313269,0.0560875512995896,0.06703146374829,0.0697674418604651,0.0506155950752394,0.0752393980848153,0.0109439124487004,0.0232558139534883,0.0,0.0,0.0,0.0,0.0,0.0,1.0,2.0,0.0,6.0,2.0,1.0,2.0,2.0,40.0,0.5491078103370076,0.0,70.0,61.0,0.0,0.0,14.0,38.0,157.0,-0.8837209302325582,80.0,1.0,0.0,0.0,0.0,1.0,0.0,0.0,0.0,0.0,2.0,0.0,0.0,0.0,0.0,0.0,0.0,0.0,0.0,1.0,0.0,0.0,0.0,0.0,3.0,0.0,1.0,1.0,0.0,0.0,0.0,4.0,8.0,0.0,7.0,2.0,0.0,2.0,3.0,5.0,0.0,1.0,2.0,4.0,1.0,33.0,0.0,87.0,126.0,2.0,38.0,74.0,41.0,0.0,87.0,-0.4824261492442928,66.0,49.0,3.0,89.0,100.0,51.0,0.0,6.0,3.0,2.0,4.0,0.1504787961696306,0.2599179206566347,0.0656634746922024,0.1764705882352941,0.3789329685362517,2.7757226522175107,4.6144752056684535,0.7460840215372158,0.6771545827633378,0.3269493844049247,9.273242950439451,19.0,0.2954856361149111,-3.4575650051110616,0.0654109564155776,0.0750056531710138,4.70154084147419,14.790813002104876,0.4016423476230046,0.1961174764755635,0.0760977916155848,0.2592343471773269,0.0377767438077689,-0.4176086693238452,0.1904759255308984,0.2201489888141778,-0.1276612363867239,-0.2488055622660733,0.1514463591652675,0.2543511295421573,MVKPKYKGRSTINPSKASTNPDRVQGAGGQNMRDRATIRRLNMYRQKERRNSRGKIIKPLQYQSTVASGTVARVEPNIKWFGNTRVIKQSSLQKFQEEMDTVMKDPYKVVMKQSKLPMSLLHDRIRPHNLKVHILDTESFETTFGPKSQRKRPNLFASDMQSLIENAEMSTESYDQGKDRDLVTEDTGVRNEAQEEIYKKGQSKRIWGELYKVIDSSDVVVQVLDARDPMGTRSPHIETYLKKEKPWKHLIFVLNKCDLVPTWATKRWVAVLSQDYPTLAFHASLTNPFGKGAFIQLLRQFGKLHTDKKQISVGFIGYPNVGKSSVINTLRSKKVCNVAPIAGETKVWQYITLMRRIFLIDCPGVVYPSEDSETDIVLKGVVQVEKIKSPEDHIGAVLERAKPEYISKTYKIDSWENAEDFLEKLAFRTGKLLKGGEPDLQTVGKMVLNDWQRGRIPFFVKPPNAEPLVAPQLLPSSSLEVVPEAAQNNPGEEVTETAGEGSESIIKEETEENSHCDANTEMQQILTRVRQNFGKINVVPQFSGDDLVPVEVSDLEEELESFSDEEEEEQEQQRDDAEESSSEPEEENVGNDTKAVIKALDEKIAKYQKFLDKAKAKKFSAVRISKGLSEKIFAKPEEQRKTLEEDVDDRAPSKKGKKRKAQREEEQEHSNKAPRALTSKERRRAVRQQRPKKVGVRYYETHNVKNRNRNKKKTNDSEGQKHKRKKFRQKQ,nucleolus,NOG2_HUMAN
SNTB1_HUMAN,0.1003717472118959,0.0111524163568773,0.0446096654275092,0.0631970260223048,0.0260223048327137,0.0929368029739776,0.0297397769516728,0.0576208178438661,0.0613382899628252,0.0910780669144981,0.0148698884758364,0.0223048327137546,0.0576208178438661,0.037174721189591,0.0576208178438661,0.0855018587360594,0.0557620817843866,0.0576208178438661,0.0130111524163568,0.020446096654275,1.0,1.0,0.0,0.0,0.0,0.0,0.0,7.0,1.0,6.0,2.0,3.0,0.0,8.0,24.0,0.3364722366212129,0.0,34.0,64.0,0.0,0.0,6.0,50.0,118.0,-0.2972118959107807,33.0,1.0,0.0,0.0,0.0,0.0,0.0,0.0,0.0,0.0,3.0,0.0,0.0,0.0,0.0,0.0,0.0,0.0,0.0,1.0,1.0,0.0,1.0,0.0,4.0,0.0,0.0,3.0,1.0,0.0,3.0,7.0,3.0,0.0,8.0,2.0,0.0,2.0,0.0,2.0,0.0,2.0,8.0,1.0,4.0,12.0,10.0,62.0,107.0,4.0,31.0,32.0,20.0,0.0,81.0,-0.0606246218164348,42.0,31.0,6.0,96.0,77.0,46.0,0.0,1.0,2.0,0.0,0.0,0.1078066914498141,0.3215613382899628,0.0594795539033457,0.1189591078066914,0.2843866171003718,2.7542199624370585,-1.1761497199928237,-0.2664131800278667,0.6858736059479554,0.2267657992565055,8.81320571899414,6.0,0.3345724907063197,-0.2030638271027601,0.0592442434566466,0.087745129771815,4.539627030291837,14.62950345396105,0.3657811206124733,0.2049236339348237,0.0924028761833627,0.2577713988762306,0.0151565851534397,-0.3890212617786693,0.1839639178650929,0.2182119501067187,-0.0963919724111051,-0.2417066046728376,0.158748369940097,0.2260459029946312,MAVAAAAAAAGPAGAGGGRAQRSGLLEVLVRDRWHKVLVNLSEDALVLSSEEGAAAYNGIGTATNGSFCRGAGAGHPGAGGAQPPDSPAGVRTAFTDLPEQVPESISNQKRGVKVLKQELGGLGISIKGGKENKMPILISKIFKGLAADQTQALYVGDAILSVNGADLRDATHDEAVQALKRAGKEVLLEVKYMREATPYVKKGSPVSEIGWETPPPESPRLGGSTSDPPSSQSFSFHRDRKSIPLKMCYVTRSMALADPENRQLEIHSPDAKHTVILRSKDSATAQAWFSAIHSNVNDLLTRVIAEVREQLGKTGIAGSREIRHLGWLAEKVPGESKKQWKPALVVLTEKDLLIYDSMPRRKEAWFSPVHTYPLLATRLVHSGPGKGSPQAGVDLSFATRTGTRQGIETHLFRAETSRDLSHWTRSIVQGCHNSAELIAEISTACTYKNQECRLTIHYENGFSITTEPQEGAFPKTIIQSPYEKLKMSSDDGIRMLYLDFGGKDGEIQLDLHSCPKPIVFIIHSFLSAKITRLGLVA,cell_junction,SNTB1_HUMAN
