seqid,AA_A,AA_C,AA_D,AA_E,AA_F,AA_G,AA_H,AA_I,AA_K,AA_L,AA_M,AA_N,AA_P,AA_Q,AA_R,AA_S,AA_T,AA_V,AA_W,AA_Y,CLV_C14_Caspase3-7,DEG_APCC_KENBOX_2,DEG_Kelch_Keap1_1,DEG_SCF_TRCP1_1,DOC_ANK_TNKS_1,DOC_CYCLIN_RxL_1,DOC_MAPK_JIP1_4,DOC_MAPK_MEF2A_6,DOC_MAPK_NFAT4_5,DOC_MAPK_gen_1,DOC_PP1_RVXF_1,DOC_PP2A_B56_1,DOC_PP4_FxxP_1,DOC_WW_Pin1_4,D_repeats,ED_ratio,ELASTIN_LIKE,E_repeats,FG_repeats,FG_rich,FGxF,FRG,G_repeats,KAP_repeats,KL_hydropathy,K_repeats,LIG_14-3-3_CanoR_1,LIG_CaM_IQ_9,LIG_CtBP_PxDLS_1,LIG_EF_ALG2_ABM_1,LIG_EH_1,LIG_HCF-1_HBM_1,LIG_HOMEOBOX,LIG_KEPE_2,LIG_KLC1_WD_1,LIG_LIR_Gen_1,LIG_PAM2_1,LIG_PCNA_PIPBox_1,LIG_PDZ_Class_1,LIG_PDZ_Wminus1_1,LIG_PTAP_UEV_1,LIG_PTB_Apo_2,LIG_PTB_Phospho_1,LIG_Rb_LxCxE_1,LIG_SH2_CRK,LIG_SH2_GRB2like,LIG_SH2_NCK_1,LIG_SH2_SRC,LIG_SH2_STAP1,LIG_SH2_STAT5,LIG_SH3_2,LIG_SUMO_SIM_anti_2,LIG_SUMO_SIM_par_1,MOD_CDK_SPK_2,MOD_CDK_SPxK_1,MOD_CDK_SPxxK_3,MOD_CK1_1,MOD_CK2_1,MOD_DYRK1A_RPxSP_1,MOD_GSK3_1,MOD_N-GLC_1,MOD_NMyristoyl,MOD_PIKK_1,MOD_PKA_1,MOD_PKA_2,MOD_PKB_1,MOD_Plk_1,MOD_ProDKin_1,MOD_SUMO_for_1,MOD_SUMO_rev_2,N_repeats,PG_rich,PR_repeats,PTS_repeats,PY,P_repeats,QN_repeats,Q_repeats,REP_RGG,RG_repeats,RK_ratio,R_plus_Y,R_repeats,SGFYSG,SG_repeats,SR_repeats,S_repeats,TRG_ER_FFAT_1,TRG_ER_diArg_1,TRG_LysEnd_APsAcLL_1,TRG_NES_CRM1_1,TRG_NLS_MonoExtN_4,acidic,aliphatic,aromatic,basic,chain_expanding,complexity,custom_kappa,custom_omega,disorder_promoting,fcr,isoelectric_point,net_charge,polar_fraction,scd,srpipi,lrpipi,Water,Carbon,ssH,ssE,disL,disS,srELEC,lrELEC,sr_hb,lr_hb,srCATPI,lrCATPI,larkSIM,larkFAR
A0A024R2Q3_HUMAN_nonidr_0,0.0,0.0,0.0,0.0,0.0,0.0,0.0,0.0,0.0,0.0,0.0,0.0,0.0,1.0,0.0,0.0,0.0,0.0,0.0,0.0,0.0,0.0,0.0,0.0,0.0,0.0,0.0,0.0,0.0,0.0,0.0,0.0,0.0,0.0,0.0,0.0,0.0,0.0,0.0,0.0,0.0,0.0,0.0,0.0,-3.5,0.0,0.0,0.0,0.0,0.0,0.0,0.0,0.0,0.0,0.0,0.0,0.0,0.0,0.0,0.0,0.0,0.0,0.0,0.0,0.0,0.0,0.0,0.0,0.0,0.0,0.0,0.0,0.0,0.0,0.0,0.0,0.0,0.0,0.0,0.0,0.0,0.0,0.0,0.0,0.0,0.0,0.0,0.0,0.0,0.0,0.0,0.0,0.0,0.0,0.0,0.0,1.0,1.0,0.0,0.0,0.0,0.0,0.0,0.0,0.0,0.0,0.0,0.0,0.0,0.0,0.0,0.0,0.0,0.0,0.0,0.0,0.0,0.0,nan,nan,1.0,0.0,5.525012969970703,0.0,1.0,0.0,nan,nan,nan,nan,nan,nan,nan,nan,nan,nan,nan,nan,nan,nan,nan,nan
A0A024R2Q3_HUMAN_nonidr_1,0.0,0.0,0.16666666666666666,0.0,0.0,0.0,0.0,0.0,0.0,0.0,0.0,0.16666666666666666,0.0,0.16666666666666666,0.0,0.0,0.0,0.5,0.0,0.0,0.0,0.0,0.0,0.0,0.0,0.0,0.0,0.0,0.0,0.0,0.0,0.0,0.0,0.0,1.0,-0.6931471805599453,0.0,0.0,0.0,0.0,0.0,0.0,0.0,0.0,0.35000000000000026,0.0,0.0,0.0,0.0,0.0,0.0,0.0,0.0,0.0,0.0,0.0,0.0,0.0,0.0,0.0,0.0,0.0,0.0,0.0,0.0,0.0,0.0,0.0,0.0,0.0,0.0,0.0,0.0,0.0,0.0,0.0,0.0,0.0,0.0,0.0,0.0,0.0,0.0,0.0,0.0,0.0,0.0,0.0,0.0,0.0,1.0,0.0,0.0,0.0,0.0,0.0,2.0,1.0,0.0,0.0,0.0,0.0,0.0,0.0,0.0,0.0,0.0,0.0,0.0,0.0,0.0,0.0,0.16666666666666666,0.5,0.0,0.0,0.16666666666666666,0.7979152904636745,nan,nan,0.3333333333333333,0.16666666666666666,3.799793243408203,-1.0,0.3333333333333333,0.0,0.038410350171747966,0.03344183283253157,3.1484720523093497,15.566004472729132,0.2765154744149209,0.5426224582177677,0.04237122793190749,0.10760489314425896,0.40869070108160754,-0.48992569950631903,0.11225914842958222,0.1486657093529723,-0.05289530915093195,-0.10037769018047255,0.1944298618748264,0.16828645093510114
A0A024R2Q3_HUMAN_nonidr_2,0.08264462809917356,0.024793388429752067,0.03305785123966942,0.04132231404958678,0.012396694214876033,0.08677685950413223,0.02066115702479339,0.05371900826446281,0.05371900826446281,0.1652892561983471,0.03305785123966942,0.05371900826446281,0.02066115702479339,0.045454545454545456,0.0371900826446281,0.05785123966942149,0.07024793388429752,0.07851239669421488,0.008264462809917356,0.02066115702479339,0.0,0.0,0.0,0.0,0.0,0.0,0.0,0.0,0.0,0.0,1.0,0.0,0.0,1.0,8.0,0.20067069546215124,0.0,10.0,24.0,0.0,0.0,0.0,21.0,38.0,0.25991735537190086,13.0,1.0,0.0,0.0,0.0,0.0,0.0,0.0,0.0,0.0,2.0,0.0,0.0,0.0,0.0,0.0,0.0,0.0,0.0,0.0,0.0,0.0,0.0,1.0,1.0,0.0,1.0,2.0,0.0,0.0,0.0,2.0,1.0,0.0,3.0,3.0,0.0,1.0,0.0,0.0,0.0,0.0,1.0,0.0,0.0,13.0,0.0,14.0,36.0,0.0,5.0,24.0,11.0,0.0,30.0,-0.3364722366212129,14.0,9.0,0.0,35.0,23.0,14.0,0.0,0.0,1.0,1.0,0.0,0.0743801652892562,0.4132231404958678,0.04132231404958678,0.09090909090909091,0.1859504132231405,2.628980286076544,-1.0398261873628198,0.026965942178828042,0.5495867768595041,0.1652892561983471,8.738758087158203,4.0,0.359504132231405,-0.498714514059285,0.04212529487188076,0.06732304264738585,4.0998181936748495,14.841432367053068,0.4423612686360832,0.20506868865350433,0.046129292097784366,0.22633876462408836,-0.012983601301464105,-0.3459440478347873,0.18366242231438693,0.19587040353166563,-0.06430773907083287,-0.18503102216178455,0.13208012848495052,0.30104155637506136
A0A024R2Q3_HUMAN_nonidr_3,0.10344827586206896,0.017241379310344827,0.0,0.017241379310344827,0.0,0.05172413793103448,0.06896551724137931,0.05172413793103448,0.034482758620689655,0.20689655172413793,0.0,0.034482758620689655,0.1206896551724138,0.034482758620689655,0.06896551724137931,0.017241379310344827,0.017241379310344827,0.1206896551724138,0.017241379310344827,0.017241379310344827,0.0,0.0,0.0,0.0,0.0,1.0,0.0,1.0,0.0,0.0,0.0,0.0,0.0,0.0,0.0,0.6931471805599453,0.0,1.0,3.0,0.0,0.0,0.0,3.0,15.0,0.5103448275862068,2.0,0.0,0.0,0.0,0.0,0.0,0.0,0.0,0.0,0.0,0.0,0.0,0.0,0.0,0.0,0.0,0.0,0.0,0.0,1.0,0.0,0.0,0.0,0.0,0.0,0.0,0.0,0.0,0.0,0.0,0.0,0.0,0.0,0.0,0.0,0.0,0.0,0.0,0.0,0.0,0.0,0.0,0.0,0.0,0.0,2.0,0.0,11.0,9.0,0.0,7.0,4.0,2.0,0.0,7.0,0.5108256237659907,5.0,4.0,0.0,4.0,5.0,1.0,0.0,0.0,1.0,0.0,0.0,0.017241379310344827,0.4827586206896552,0.034482758620689655,0.10344827586206896,0.2413793103448276,2.1520764628777433,-1.9764383495686881,-0.297221089737314,0.5344827586206896,0.1206896551724138,10.940196990966797,5.0,0.2413793103448276,0.7828483787422302,0.052761512837012074,0.07457927167050205,4.3316179801341415,15.078133349907073,0.3951950838198334,0.19177909762462805,0.07192413160901608,0.2369400691444518,0.011054620237770648,-0.32842107808471505,0.11491308750033315,0.19405487392564805,-0.07534583361886783,-0.2166704647410949,0.1440113097325997,0.2537547806132176
A0A024R2Q3_HUMAN_nonidr_4,0.08196721311475409,0.03278688524590164,0.03278688524590164,0.08196721311475409,0.01639344262295082,0.06557377049180328,0.03278688524590164,0.11475409836065574,0.01639344262295082,0.13114754098360656,0.01639344262295082,0.04918032786885246,0.03278688524590164,0.04918032786885246,0.08196721311475409,0.01639344262295082,0.03278688524590164,0.09836065573770492,0.0,0.01639344262295082,0.0,0.0,0.0,0.0,0.0,0.0,0.0,1.0,0.0,0.0,0.0,1.0,0.0,1.0,2.0,0.6931471805599453,0.0,5.0,5.0,0.0,0.0,2.0,4.0,8.0,0.3147540983606557,1.0,0.0,0.0,0.0,0.0,0.0,0.0,0.0,0.0,0.0,0.0,0.0,0.0,0.0,0.0,0.0,0.0,0.0,0.0,0.0,0.0,1.0,0.0,0.0,0.0,0.0,0.0,0.0,0.0,0.0,0.0,0.0,1.0,0.0,0.0,0.0,0.0,0.0,0.0,0.0,0.0,0.0,1.0,0.0,0.0,3.0,0.0,7.0,5.0,0.0,2.0,6.0,3.0,0.0,9.0,1.0986122886681098,6.0,5.0,0.0,5.0,6.0,1.0,0.0,0.0,0.0,0.0,0.0,0.11475409836065574,0.4426229508196721,0.03278688524590164,0.09836065573770492,0.2459016393442623,2.3350860313454787,-0.32879253111257983,-0.8069927844878834,0.5245901639344263,0.21311475409836064,6.068309783935547,-1.0,0.2786885245901639,-0.25953438834819315,0.049883106184332164,0.0697762859174118,3.993508171131899,15.343535983512426,0.46645611528640163,0.20253241063259797,0.041802768068175775,0.19648682007388266,-0.03983976664896383,-0.3389310503321364,0.14789829178017572,0.19256114352964748,-0.044278305797707,-0.1702718484376484,0.13186581760633087,0.31708391276842823
A0A024R2Q3_HUMAN_nonidr_5,0.25,0.0,0.0,0.125,0.0,0.125,0.0,0.0,0.0,0.0,0.0,0.125,0.0,0.0,0.0,0.0,0.125,0.125,0.0,0.125,0.0,0.0,0.0,0.0,0.0,0.0,0.0,0.0,0.0,0.0,0.0,0.0,0.0,0.0,0.0,0.6931471805599453,0.0,1.0,1.0,0.0,0.0,0.0,1.0,2.0,-0.19999999999999998,0.0,0.0,0.0,0.0,0.0,0.0,0.0,0.0,0.0,0.0,0.0,0.0,0.0,1.0,0.0,0.0,0.0,0.0,0.0,0.0,0.0,0.0,0.0,0.0,0.0,0.0,0.0,0.0,0.0,0.0,0.0,0.0,0.0,0.0,0.0,0.0,0.0,0.0,0.0,0.0,0.0,0.0,0.0,0.0,0.0,1.0,0.0,0.0,1.0,0.0,0.0,1.0,0.0,0.0,1.0,0.0,1.0,0.0,0.0,1.0,0.0,0.0,0.0,0.0,0.0,0.0,0.0,0.125,0.375,0.125,0.0,0.125,1.238931965273163,nan,nan,0.625,0.125,3.9996376037597656,-1.0,0.375,0.0,0.06336772065547945,0.11341376056013615,4.402585780024984,14.721477665863445,0.3384113681489329,0.25265741037876427,0.08185919032840754,0.25331706085415334,0.061363588079355186,-0.34134567504796315,0.15637645043252799,0.18393560807135867,-0.1773170506139273,-0.37237474661487496,0.17676048745281417,0.23418072749177965
A0A024R2Q3_HUMAN_nonidr_6,0.0,0.0,0.25,0.25,0.0,0.0,0.0,0.0,0.0,0.0,0.25,0.0,0.0,0.0,0.0,0.25,0.0,0.0,0.0,0.0,0.0,0.0,0.0,0.0,0.0,0.0,0.0,0.0,0.0,0.0,0.0,0.0,0.0,0.0,1.0,0.0,0.0,1.0,0.0,0.0,0.0,0.0,0.0,0.0,-1.4749999999999999,0.0,0.0,0.0,0.0,0.0,0.0,0.0,0.0,0.0,0.0,0.0,0.0,0.0,0.0,0.0,0.0,0.0,0.0,0.0,0.0,0.0,0.0,0.0,0.0,0.0,0.0,0.0,0.0,0.0,0.0,0.0,0.0,0.0,0.0,0.0,0.0,0.0,0.0,0.0,0.0,0.0,0.0,0.0,0.0,0.0,0.0,0.0,0.0,1.0,0.0,0.0,0.0,0.0,0.0,0.0,0.0,0.0,0.0,0.0,1.0,1.0,1.0,0.0,0.0,0.0,0.0,0.0,0.5,0.25,0.0,0.0,0.5,0.7945134575869862,-3.810003810005715,-3.810003810005715,0.75,0.5,3.6659584045410156,-2.0,0.25,0.25,0.07333555980048657,0.058810707110492424,5.1272657602366785,13.72735703270072,0.40957171357525024,0.0787075042597162,0.10209564954215361,0.33150526338553377,0.16388499298737727,-0.37282608695652175,0.3558285384632872,0.2326827030619868,-0.007797486492375756,-0.009782354490162095,0.1287592549864845,0.21899333322078218
A0A024R2Q3_HUMAN_nonidr_7,0.0,0.0,0.0,0.0,0.0,0.0,0.0,0.0,0.0,1.0,0.0,0.0,0.0,0.0,0.0,0.0,0.0,0.0,0.0,0.0,0.0,0.0,0.0,0.0,0.0,0.0,0.0,0.0,0.0,0.0,0.0,0.0,0.0,0.0,0.0,0.0,0.0,0.0,0.0,0.0,0.0,0.0,0.0,0.0,3.8,0.0,0.0,0.0,0.0,0.0,0.0,0.0,0.0,0.0,0.0,0.0,0.0,0.0,0.0,0.0,0.0,0.0,0.0,0.0,0.0,0.0,0.0,0.0,0.0,0.0,0.0,0.0,0.0,0.0,0.0,0.0,0.0,0.0,0.0,0.0,0.0,0.0,0.0,0.0,0.0,0.0,0.0,0.0,0.0,0.0,0.0,0.0,0.0,0.0,0.0,0.0,0.0,0.0,0.0,0.0,0.0,0.0,0.0,0.0,0.0,0.0,0.0,0.0,0.0,0.0,0.0,0.0,0.0,1.0,0.0,0.0,0.0,0.0,nan,nan,0.0,0.0,5.525012969970703,0.0,0.0,0.0,nan,nan,nan,nan,nan,nan,nan,nan,nan,nan,nan,nan,nan,nan,nan,nan
NBDY_HUMAN_nonidr_0,0.10294117647058823,0.029411764705882353,0.029411764705882353,0.04411764705882353,0.0,0.10294117647058823,0.014705882352941176,0.0,0.07352941176470588,0.07352941176470588,0.014705882352941176,0.029411764705882353,0.23529411764705882,0.014705882352941176,0.058823529411764705,0.08823529411764706,0.058823529411764705,0.0,0.014705882352941176,0.014705882352941176,0.0,0.0,0.0,0.0,0.0,0.0,0.0,0.0,0.0,0.0,0.0,0.0,0.0,1.0,2.0,0.28768207245178085,0.0,3.0,7.0,0.0,0.0,0.0,7.0,28.0,-1.0058823529411764,5.0,1.0,0.0,0.0,0.0,0.0,0.0,0.0,0.0,0.0,0.0,0.0,0.0,0.0,0.0,1.0,0.0,0.0,0.0,0.0,0.0,0.0,0.0,0.0,0.0,1.0,0.0,0.0,0.0,0.0,0.0,1.0,0.0,0.0,2.0,0.0,0.0,0.0,0.0,1.0,0.0,0.0,1.0,0.0,0.0,2.0,0.0,20.0,26.0,0.0,16.0,3.0,1.0,0.0,11.0,-0.1823215567939546,5.0,4.0,0.0,13.0,10.0,6.0,0.0,0.0,0.0,0.0,1.0,0.07352941176470588,0.19117647058823528,0.029411764705882353,0.1323529411764706,0.4411764705882353,2.174304641496189,-0.6533617868280712,-1.0979473866371094,0.8235294117647058,0.20588235294117646,9.510684967041016,4.0,0.3382352941176471,0.06346452149783254,0.07117891953974599,0.09065022918440264,5.253558637880329,13.247944649417802,0.19921690523754745,0.1207952064270006,0.21654901248818775,0.3688815173948244,0.16268477934361622,-0.35611088411079006,0.16029758538568878,0.23848479079470744,-0.0931544856587373,-0.2398469794132443,0.20102698204521083,0.08317291449491666
RCCD1_HUMAN_nonidr_0,0.09090909090909091,0.045454545454545456,0.0,0.13636363636363635,0.18181818181818182,0.2727272727272727,0.0,0.0,0.0,0.045454545454545456,0.045454545454545456,0.0,0.045454545454545456,0.045454545454545456,0.045454545454545456,0.0,0.0,0.0,0.045454545454545456,0.0,0.0,0.0,0.0,0.0,0.0,0.0,0.0,0.0,0.0,0.0,0.0,0.0,0.0,0.0,0.0,1.3862943611198906,0.0,3.0,10.0,4.0,0.0,6.0,6.0,3.0,-0.018181818181818184,0.0,0.0,0.0,0.0,0.0,0.0,0.0,0.0,0.0,0.0,0.0,0.0,0.0,0.0,0.0,0.0,0.0,0.0,0.0,0.0,0.0,0.0,0.0,0.0,0.0,0.0,0.0,0.0,0.0,0.0,0.0,0.0,0.0,0.0,0.0,0.0,0.0,0.0,0.0,0.0,0.0,0.0,0.0,0.0,0.0,0.0,0.0,2.0,1.0,0.0,1.0,1.0,1.0,0.0,7.0,0.6931471805599453,1.0,1.0,6.0,6.0,1.0,0.0,0.0,0.0,0.0,0.0,0.0,0.13636363636363635,0.18181818181818182,0.22727272727272727,0.045454545454545456,0.22727272727272727,1.6467713481676896,-0.5964651367409652,-0.6230890788981107,0.6363636363636364,0.18181818181818182,4.252620697021484,-2.0,0.36363636363636365,0.12890494168350675,0.11129928737242911,0.16300695797363432,4.464121137374493,14.38210001618344,0.3091366070350029,0.20310037423650384,0.12577308339941315,0.3033931495273093,0.06521500227757895,-0.34780851735290125,0.10313678725559305,0.19812221949091777,-0.2890493159302133,-0.5690405315407188,0.1857418382195774,0.1741810603929688
RCCD1_HUMAN_nonidr_1,0.09090909090909091,0.045454545454545456,0.045454545454545456,0.0,0.045454545454545456,0.13636363636363635,0.0,0.045454545454545456,0.0,0.0,0.0,0.0,0.0,0.0,0.13636363636363635,0.13636363636363635,0.09090909090909091,0.13636363636363635,0.045454545454545456,0.045454545454545456,0.0,0.0,0.0,0.0,0.0,0.0,0.0,0.0,0.0,0.0,0.0,0.0,0.0,0.0,1.0,-0.6931471805599453,0.0,0.0,4.0,0.0,0.0,2.0,3.0,2.0,0.08181818181818182,0.0,1.0,0.0,0.0,0.0,0.0,0.0,0.0,0.0,0.0,0.0,0.0,0.0,0.0,0.0,0.0,0.0,0.0,0.0,0.0,0.0,0.0,0.0,1.0,1.0,0.0,0.0,0.0,0.0,0.0,0.0,0.0,0.0,0.0,1.0,0.0,1.0,0.0,0.0,1.0,0.0,0.0,0.0,0.0,0.0,0.0,0.0,3.0,5.0,0.0,0.0,0.0,0.0,3.0,6.0,1.3862943611198906,4.0,3.0,0.0,6.0,6.0,3.0,0.0,0.0,0.0,0.0,0.0,0.045454545454545456,0.2727272727272727,0.13636363636363635,0.13636363636363635,0.18181818181818182,1.8144476869910504,-0.5964651367409652,-0.5534557257386391,0.6363636363636364,0.18181818181818182,9.500484466552734,2.0,0.4090909090909091,-0.034243075821667496,0.06610629889810701,0.1281195269985686,4.3485861195139055,14.960939660525431,0.2681122932838928,0.35486789392460566,0.07762940776370296,0.2568942148904134,0.22580241558642786,-0.48737803288443365,0.18015141448697028,0.25156796572063966,-0.1803092028270573,-0.4342709585869204,0.19342689557885628,0.16767394529040006
RCCD1_HUMAN_nonidr_2,0.21739130434782608,0.043478260869565216,0.043478260869565216,0.08695652173913043,0.0,0.13043478260869565,0.0,0.0,0.043478260869565216,0.17391304347826086,0.0,0.0,0.08695652173913043,0.0,0.043478260869565216,0.043478260869565216,0.0,0.043478260869565216,0.043478260869565216,0.0,0.0,0.0,0.0,0.0,0.0,0.0,0.0,0.0,0.0,0.0,0.0,0.0,0.0,0.0,1.0,0.4054651081081644,0.0,2.0,3.0,0.0,0.0,0.0,3.0,8.0,0.25652173913043474,1.0,0.0,0.0,0.0,0.0,0.0,0.0,0.0,0.0,0.0,0.0,0.0,0.0,0.0,0.0,0.0,0.0,0.0,0.0,0.0,0.0,0.0,0.0,0.0,0.0,0.0,0.0,0.0,0.0,0.0,0.0,0.0,0.0,0.0,0.0,0.0,0.0,0.0,0.0,0.0,0.0,0.0,0.0,0.0,0.0,0.0,0.0,3.0,3.0,0.0,2.0,0.0,0.0,0.0,4.0,0.0,1.0,1.0,0.0,4.0,2.0,1.0,0.0,0.0,0.0,0.0,0.0,0.13043478260869565,0.43478260869565216,0.043478260869565216,0.08695652173913043,0.30434782608695654,1.7592641810559322,-0.7761832861947042,-0.8797922492709164,0.6956521739130435,0.21739130434782608,4.679119110107422,-1.0,0.21739130434782608,-0.11643131042444876,0.04906465971395858,0.08685508445407268,4.342045052382437,14.090583301012238,0.47688787469150257,0.1320923524317165,0.07667360701181766,0.2449728198443894,-0.10919375452413146,-0.2811426235279724,0.12655264013574324,0.15800916615262614,-0.09112705597538161,-0.2243477392597831,0.1297872823118812,0.31052786813540034
RCCD1_HUMAN_nonidr_3,0.25,0.0,0.0,0.25,0.0,0.125,0.0,0.0,0.0,0.125,0.0,0.0,0.0,0.0,0.125,0.125,0.0,0.0,0.0,0.0,0.0,0.0,0.0,0.0,0.0,0.0,0.0,0.0,0.0,0.0,0.0,0.0,0.0,0.0,0.0,1.0986122886681098,0.0,2.0,1.0,0.0,0.0,2.0,1.0,2.0,-0.6625,0.0,0.0,0.0,0.0,0.0,0.0,0.0,0.0,0.0,0.0,0.0,0.0,0.0,0.0,0.0,0.0,0.0,0.0,0.0,0.0,0.0,0.0,0.0,0.0,0.0,0.0,0.0,0.0,0.0,0.0,0.0,0.0,0.0,0.0,0.0,0.0,0.0,0.0,0.0,0.0,0.0,0.0,0.0,0.0,0.0,0.0,0.0,1.0,1.0,0.0,0.0,0.0,0.0,0.0,2.0,0.6931471805599453,1.0,1.0,0.0,2.0,2.0,1.0,0.0,0.0,0.0,0.0,0.0,0.25,0.375,0.0,0.125,0.375,1.1522885677031698,-1.7409892531613473,-1.4032634243995268,0.875,0.375,4.531398773193359,-1.0,0.25,-0.12059047744873966,0.056698642150710805,0.08738046993242633,4.569975774788928,14.242057028604203,0.5390521839125154,0.10660697708612865,0.06409826449737155,0.23781401361718527,-0.1722069612489847,-0.35898148793020573,0.1580488430272273,0.22152549038427968,-0.05098012884128154,-0.1386992685612701,0.12096592289009295,0.35930808105739837
RCCD1_HUMAN_nonidr_4,0.19047619047619047,0.047619047619047616,0.0,0.0,0.047619047619047616,0.0,0.0,0.0,0.0,0.14285714285714285,0.0,0.0,0.23809523809523808,0.0,0.14285714285714285,0.047619047619047616,0.0,0.047619047619047616,0.0,0.09523809523809523,0.0,0.0,0.0,0.0,0.0,0.0,0.0,0.0,0.0,0.0,0.0,0.0,1.0,1.0,0.0,0.0,0.0,0.0,1.0,0.0,0.0,0.0,0.0,9.0,0.15238095238095234,0.0,0.0,0.0,0.0,0.0,0.0,0.0,0.0,0.0,0.0,0.0,0.0,0.0,0.0,0.0,0.0,0.0,0.0,0.0,1.0,0.0,0.0,0.0,0.0,1.0,0.0,0.0,0.0,1.0,0.0,0.0,0.0,0.0,0.0,0.0,0.0,0.0,0.0,0.0,0.0,0.0,0.0,1.0,0.0,0.0,0.0,0.0,8.0,6.0,0.0,5.0,0.0,0.0,0.0,3.0,1.3862943611198906,5.0,3.0,0.0,1.0,4.0,1.0,0.0,0.0,0.0,0.0,0.0,0.0,0.38095238095238093,0.14285714285714285,0.14285714285714285,0.38095238095238093,1.5779965336348027,-0.7086631421597656,-0.33537897011076184,0.6190476190476191,0.14285714285714285,10.045597076416016,3.0,0.09523809523809523,0.3810563100303984,0.08413502486657119,0.10885227795704408,4.784136369319619,15.524278308462984,0.3261822601082651,0.16136985371286053,0.11947083563868366,0.2754544738422658,0.07021664103091993,-0.35800205459951473,0.10864776258102292,0.21814356561360984,-0.24431718809616834,-0.4636376313289327,0.17548543716943102,0.17783179242492442
RCCD1_HUMAN_nonidr_5,0.22727272727272727,0.0,0.045454545454545456,0.09090909090909091,0.045454545454545456,0.09090909090909091,0.045454545454545456,0.0,0.0,0.22727272727272727,0.0,0.0,0.0,0.09090909090909091,0.09090909090909091,0.0,0.0,0.045454545454545456,0.0,0.0,0.0,0.0,0.0,0.0,0.0,0.0,0.0,0.0,0.0,0.0,0.0,0.0,0.0,0.0,1.0,0.4054651081081644,0.0,2.0,3.0,0.0,0.0,0.0,2.0,5.0,0.20454545454545459,0.0,0.0,0.0,0.0,0.0,0.0,0.0,0.0,0.0,0.0,0.0,0.0,0.0,0.0,0.0,0.0,0.0,0.0,0.0,0.0,0.0,0.0,0.0,0.0,0.0,0.0,0.0,0.0,0.0,0.0,0.0,0.0,0.0,0.0,0.0,0.0,0.0,0.0,0.0,0.0,0.0,0.0,0.0,0.0,0.0,0.0,0.0,2.0,0.0,0.0,0.0,2.0,2.0,0.0,4.0,1.0986122886681098,2.0,2.0,0.0,2.0,2.0,0.0,0.0,0.0,1.0,0.0,0.0,0.13636363636363635,0.5,0.045454545454545456,0.09090909090909091,0.22727272727272727,1.6419822338196068,0.10734926155435782,-0.6230890788981107,0.6818181818181818,0.22727272727272727,5.445491790771484,-1.0,0.22727272727272727,-0.3666556251127277,0.047335907018848766,0.07357206476033215,4.130137042147284,14.887698348614958,0.6123495089296982,0.130793046473535,0.04018838039404615,0.16708922824199082,-0.1745705353227876,-0.2920298018775521,0.11500256329733505,0.1751232646479148,-0.03590047508682561,-0.10275230087375889,0.09274022459014959,0.45939611016670445
RCCD1_HUMAN_nonidr_6,0.10526315789473684,0.02631578947368421,0.02631578947368421,0.10526315789473684,0.0,0.15789473684210525,0.02631578947368421,0.05263157894736842,0.0,0.07894736842105263,0.02631578947368421,0.02631578947368421,0.0,0.05263157894736842,0.0,0.07894736842105263,0.02631578947368421,0.10526315789473684,0.07894736842105263,0.02631578947368421,0.0,0.0,0.0,0.0,0.0,0.0,0.0,0.0,0.0,0.0,0.0,0.0,0.0,0.0,1.0,0.9162907318741551,0.0,4.0,6.0,0.0,0.0,0.0,6.0,4.0,0.21315789473684205,0.0,0.0,0.0,0.0,0.0,0.0,0.0,0.0,0.0,0.0,0.0,0.0,0.0,0.0,0.0,0.0,0.0,0.0,0.0,0.0,0.0,0.0,0.0,0.0,1.0,0.0,0.0,0.0,0.0,0.0,0.0,0.0,0.0,0.0,1.0,1.0,0.0,0.0,0.0,0.0,0.0,0.0,0.0,0.0,0.0,1.0,0.0,0.0,4.0,0.0,0.0,3.0,2.0,0.0,6.0,0.0,1.0,0.0,0.0,9.0,3.0,3.0,0.0,0.0,0.0,0.0,0.0,0.13157894736842105,0.3684210526315789,0.10526315789473684,0.0,0.13157894736842105,2.1077161353330482,-1.3689576738868081,-1.3689576738868081,0.5789473684210527,0.13157894736842105,3.902385711669922,-5.0,0.39473684210526316,1.021489786580586,0.07976972735629112,0.1210437107531242,4.1422900399762135,14.655315433825526,0.31773798602724856,0.28673850817833,0.07157530992337947,0.26534257893436924,0.17749363321144684,-0.3961288101424691,0.14860116374430465,0.21851489966136292,-0.12847764708400963,-0.34741086210358235,0.18412905864107884,0.20663232022912795
RCCD1_HUMAN_nonidr_7,0.1,0.0,0.1,0.0,0.1,0.0,0.0,0.0,0.0,0.3,0.0,0.0,0.3,0.1,0.0,0.0,0.0,0.0,0.0,0.0,0.0,0.0,0.0,0.0,0.0,0.0,0.0,0.0,0.0,0.0,0.0,0.0,0.0,0.0,1.0,-0.6931471805599453,0.0,0.0,1.0,0.0,0.0,0.0,0.0,4.0,0.41999999999999976,0.0,0.0,0.0,0.0,0.0,0.0,0.0,0.0,0.0,0.0,0.0,0.0,0.0,0.0,0.0,0.0,0.0,0.0,0.0,0.0,0.0,0.0,0.0,0.0,0.0,0.0,0.0,0.0,0.0,0.0,0.0,0.0,0.0,0.0,0.0,0.0,0.0,0.0,0.0,0.0,0.0,0.0,0.0,0.0,0.0,0.0,0.0,3.0,3.0,0.0,3.0,1.0,1.0,0.0,0.0,0.0,0.0,0.0,0.0,0.0,0.0,0.0,0.0,0.0,0.0,0.0,0.0,0.1,0.4,0.1,0.0,0.4,1.1520893634619402,nan,-1.2863640937477185,0.6,0.1,3.799793243408203,-1.0,0.1,0.0,0.05639336534538229,0.07314322082363806,4.6079733581812174,15.16867442918746,0.35198046987971443,0.12892177947669037,0.11952679824556876,0.304985375646415,0.023392155182824947,-0.2435604957373772,0.11058637708743714,0.12898968676555633,-0.22194583378989685,-0.3203146538484574,0.16337405516638456,0.20963696191243036
RCCD1_HUMAN_nonidr_8,0.0,0.0,0.0,0.09090909090909091,0.0,0.18181818181818182,0.0,0.0,0.0,0.09090909090909091,0.0,0.0,0.0,0.0,0.09090909090909091,0.0,0.2727272727272727,0.09090909090909091,0.09090909090909091,0.09090909090909091,0.0,0.0,0.0,0.0,0.0,0.0,0.0,0.0,0.0,0.0,0.0,0.0,0.0,0.0,0.0,0.6931471805599453,0.0,1.0,2.0,0.0,0.0,0.0,2.0,0.0,-0.4636363636363636,0.0,0.0,0.0,0.0,0.0,0.0,0.0,0.0,0.0,0.0,0.0,0.0,0.0,0.0,1.0,0.0,0.0,0.0,0.0,0.0,0.0,0.0,0.0,0.0,1.0,0.0,0.0,0.0,0.0,0.0,0.0,0.0,0.0,0.0,0.0,0.0,0.0,0.0,0.0,0.0,0.0,0.0,0.0,0.0,0.0,0.0,0.0,1.0,3.0,0.0,0.0,0.0,0.0,0.0,3.0,0.6931471805599453,2.0,1.0,0.0,2.0,1.0,0.0,0.0,0.0,0.0,0.0,0.0,0.09090909090909091,0.18181818181818182,0.18181818181818182,0.09090909090909091,0.18181818181818182,1.3652182905532624,-0.9627406736630196,-0.3913522967563138,0.6363636363636364,0.18181818181818182,6.001392364501953,0.0,0.45454545454545453,-0.15745916432444337,0.0690564398098313,0.14461463210783068,4.793510210840439,15.636614486237683,0.30944746374026555,0.28911761480821074,0.0936687342832948,0.25531686158220807,0.10845547972821176,-0.4552413434994996,0.24619592709908789,0.27681481428351246,-0.2616029098564888,-0.5760687635722506,0.18824541440630385,0.16717882872066153
RCCD1_HUMAN_nonidr_9,0.07692307692307693,0.038461538461538464,0.038461538461538464,0.038461538461538464,0.0,0.07692307692307693,0.0,0.0,0.15384615384615385,0.038461538461538464,0.0,0.038461538461538464,0.038461538461538464,0.07692307692307693,0.0,0.038461538461538464,0.07692307692307693,0.15384615384615385,0.038461538461538464,0.07692307692307693,0.0,0.0,0.0,0.0,0.0,0.0,0.0,0.0,0.0,0.0,0.0,0.0,0.0,0.0,1.0,0.0,0.0,1.0,2.0,0.0,0.0,0.0,2.0,7.0,-0.5576923076923077,4.0,0.0,0.0,0.0,0.0,0.0,0.0,0.0,0.0,0.0,0.0,0.0,0.0,0.0,0.0,0.0,0.0,0.0,0.0,0.0,0.0,0.0,1.0,0.0,1.0,0.0,0.0,0.0,0.0,0.0,0.0,0.0,0.0,0.0,0.0,0.0,0.0,0.0,0.0,0.0,0.0,0.0,0.0,0.0,0.0,1.0,0.0,1.0,4.0,0.0,1.0,3.0,2.0,0.0,2.0,-1.6094379124341003,2.0,0.0,0.0,3.0,1.0,1.0,0.0,0.0,0.0,0.0,0.0,0.07692307692307693,0.2692307692307692,0.11538461538461539,0.15384615384615385,0.2692307692307692,1.9784560845194767,-0.3621078934502473,-1.434179670061429,0.6153846153846154,0.23076923076923078,8.991687774658203,2.0,0.34615384615384615,0.06684038627952812,0.07342230173317361,0.09369504582446915,4.470181149668124,14.932650423374147,0.32214780728504416,0.2927205049001506,0.07484991901421627,0.2532536327001523,0.09301774144289936,-0.4278819631078748,0.13338709884994449,0.21452887284343516,-0.1941733441451661,-0.3980004741182605,0.18679990450960685,0.22135983830464492
MEI4_HUMAN_nonidr_0,0.15,0.0,0.05,0.0,0.0,0.0,0.0,0.1,0.1,0.2,0.05,0.0,0.0,0.05,0.05,0.05,0.05,0.05,0.05,0.05,0.0,0.0,0.0,0.0,0.0,0.0,0.0,1.0,1.0,1.0,0.0,0.0,0.0,0.0,1.0,-0.6931471805599453,0.0,0.0,0.0,0.0,0.0,0.0,0.0,5.0,0.6349999999999999,2.0,0.0,0.0,0.0,0.0,0.0,0.0,0.0,0.0,0.0,0.0,0.0,0.0,0.0,0.0,0.0,0.0,0.0,0.0,0.0,0.0,0.0,0.0,0.0,1.0,0.0,0.0,0.0,0.0,0.0,0.0,0.0,0.0,0.0,0.0,0.0,0.0,0.0,0.0,1.0,0.0,0.0,0.0,0.0,0.0,0.0,0.0,1.0,2.0,0.0,0.0,1.0,1.0,0.0,1.0,-0.40546510810816444,2.0,1.0,0.0,1.0,2.0,1.0,0.0,0.0,0.0,0.0,0.0,0.05,0.55,0.1,0.15,0.2,1.7989754400028797,0.3233447079859781,0.33099865551853913,0.5,0.2,9.69979476928711,2.0,0.15,-0.05811388300841902,0.05148995504594172,0.07687746998812636,3.944692312188181,16.344716010851254,0.574920424985016,0.21923982825114086,0.03690157985901491,0.1289179122305179,-0.09260782691019395,-0.4016111219419744,0.15637317313846863,0.19417083621889306,-0.19945213415229776,-0.36820628427364516,0.09767861862557818,0.4775526503099708
MEI4_HUMAN_nonidr_1,0.0,0.0,0.0,0.16666666666666666,0.0,0.0,0.0,0.0,0.16666666666666666,0.0,0.0,0.0,0.0,0.16666666666666666,0.16666666666666666,0.16666666666666666,0.0,0.0,0.16666666666666666,0.0,0.0,0.0,0.0,0.0,0.0,0.0,0.0,0.0,0.0,0.0,0.0,0.0,0.0,0.0,0.0,0.6931471805599453,0.0,1.0,0.0,0.0,0.0,0.0,0.0,1.0,-2.8499999999999996,1.0,0.0,0.0,0.0,0.0,0.0,0.0,0.0,0.0,0.0,0.0,0.0,0.0,0.0,0.0,0.0,0.0,0.0,0.0,0.0,0.0,0.0,0.0,0.0,0.0,0.0,0.0,0.0,0.0,0.0,0.0,0.0,0.0,0.0,0.0,0.0,0.0,0.0,0.0,0.0,0.0,0.0,0.0,0.0,0.0,0.0,0.0,1.0,1.0,0.0,0.0,1.0,1.0,0.0,1.0,0.0,1.0,1.0,0.0,1.0,2.0,1.0,0.0,0.0,0.0,0.0,0.0,0.16666666666666666,0.0,0.16666666666666666,0.3333333333333333,0.5,1.0965418686683504,-0.7117393369924548,-3.0071599147182333,0.8333333333333334,0.5,8.74783706665039,1.0,0.3333333333333333,-0.4256508704492619,0.09715367529948399,0.13940542003160308,5.25837464918785,16.327232318040398,0.4742120101486995,0.1416517133367228,0.08393774162836663,0.24285895599605142,-0.03921916267800437,-0.3843814666059854,0.2557911901265705,0.2986398576596111,-0.5036789906792656,-0.6940145240672086,0.1326248703143649,0.30133210836389873
MEI4_HUMAN_nonidr_2,0.037037037037037035,0.037037037037037035,0.0,0.07407407407407407,0.037037037037037035,0.07407407407407407,0.0,0.037037037037037035,0.07407407407407407,0.18518518518518517,0.037037037037037035,0.0,0.0,0.07407407407407407,0.07407407407407407,0.14814814814814814,0.0,0.07407407407407407,0.0,0.037037037037037035,0.0,0.0,0.0,0.0,0.0,0.0,0.0,0.0,0.0,0.0,0.0,0.0,0.0,0.0,0.0,1.0986122886681098,0.0,2.0,3.0,0.0,0.0,0.0,2.0,3.0,0.17777777777777773,2.0,0.0,1.0,0.0,0.0,0.0,0.0,0.0,0.0,0.0,0.0,0.0,0.0,0.0,0.0,0.0,0.0,0.0,0.0,0.0,0.0,0.0,0.0,0.0,0.0,0.0,0.0,0.0,0.0,0.0,0.0,0.0,0.0,0.0,1.0,0.0,0.0,0.0,0.0,0.0,0.0,0.0,0.0,0.0,0.0,0.0,0.0,2.0,4.0,0.0,0.0,2.0,2.0,0.0,4.0,0.0,3.0,2.0,0.0,6.0,6.0,4.0,0.0,0.0,1.0,0.0,0.0,0.07407407407407407,0.37037037037037035,0.07407407407407407,0.14814814814814814,0.2222222222222222,1.941967035945062,0.5134130066611103,-0.2643913063931078,0.5555555555555556,0.2222222222222222,9.194950103759766,2.0,0.3333333333333333,-0.33752027828704917,0.04823922743469819,0.07330116765835627,4.192003112035407,14.887901730009728,0.5251016653813594,0.18689411904695022,0.05963094783495875,0.18970775424316788,-0.04327935230236515,-0.3935019604460087,0.14735464340009702,0.20256434946024313,-0.07949766187022571,-0.2095015256194775,0.11921877069154815,0.395179934615048
MEI4_HUMAN_nonidr_3,0.025,0.025,0.0,0.05,0.05,0.025,0.05,0.025,0.05,0.225,0.025,0.05,0.125,0.075,0.025,0.075,0.05,0.025,0.0,0.025,0.0,0.0,0.0,0.0,0.0,0.0,0.0,0.0,0.0,0.0,0.0,1.0,0.0,0.0,0.0,1.0986122886681098,0.0,2.0,3.0,0.0,0.0,0.0,1.0,8.0,-0.050000000000000225,2.0,0.0,0.0,0.0,0.0,0.0,0.0,0.0,0.0,0.0,0.0,0.0,0.0,0.0,0.0,0.0,0.0,0.0,0.0,0.0,0.0,0.0,0.0,0.0,1.0,0.0,0.0,0.0,0.0,0.0,0.0,0.0,0.0,0.0,0.0,1.0,0.0,0.0,0.0,0.0,0.0,0.0,0.0,0.0,0.0,2.0,0.0,6.0,10.0,0.0,5.0,5.0,3.0,0.0,2.0,-0.40546510810816444,2.0,1.0,0.0,4.0,4.0,3.0,0.0,0.0,0.0,0.0,0.0,0.05,0.325,0.075,0.075,0.25,2.124722961751952,-0.27398428116017587,-0.466021951661057,0.55,0.125,8.193004608154297,1.0,0.35,-0.2507639827581481,0.06053602704364321,0.07085108933717153,4.424968115794582,15.332461584922521,0.4184847137053056,0.12949275327706122,0.09083163381116688,0.2649485240167923,-0.03786107866757259,-0.2678886513483772,0.1603172190830019,0.18613460120080222,-0.11804469831405255,-0.2514719116937411,0.13238171904030094,0.29175895786880107
MEI4_HUMAN_nonidr_4,0.04,0.013333333333333334,0.04666666666666667,0.06,0.06,0.04,0.02666666666666667,0.06,0.05333333333333334,0.16,0.0,0.06,0.013333333333333334,0.06,0.02666666666666667,0.12,0.04666666666666667,0.06,0.013333333333333334,0.04,1.0,0.0,0.0,0.0,0.0,0.0,0.0,1.0,1.0,1.0,0.0,1.0,0.0,0.0,7.0,0.22314355131420976,0.0,9.0,15.0,0.0,0.0,0.0,6.0,16.0,-0.03333333333333342,8.0,1.0,0.0,0.0,0.0,0.0,0.0,0.0,0.0,0.0,2.0,0.0,0.0,0.0,0.0,0.0,1.0,1.0,0.0,1.0,1.0,1.0,1.0,1.0,2.0,0.0,1.0,0.0,0.0,0.0,0.0,4.0,1.0,0.0,4.0,2.0,0.0,1.0,1.0,1.0,0.0,3.0,0.0,0.0,0.0,9.0,0.0,6.0,27.0,0.0,2.0,18.0,9.0,0.0,10.0,-0.587786664902119,10.0,4.0,0.0,24.0,22.0,18.0,0.0,0.0,0.0,0.0,0.0,0.10666666666666667,0.32,0.11333333333333333,0.08,0.2,2.541338252663383,0.3213656787566113,-0.4549500838518486,0.5333333333333333,0.18666666666666668,5.495212554931641,-4.0,0.36666666666666664,-0.16016500720465257,0.06785613743817452,0.08283537126563553,4.295601247568288,15.594102204177863,0.4995892051672787,0.17017162099066627,0.05800263756134243,0.21247162304232628,-0.037624141160564964,-0.32388498029346496,0.2019886353599664,0.20766107862812058,-0.16390136328811686,-0.305367618887069,0.12443898226994815,0.3404302403084048
MEI4_HUMAN_nonidr_5,0.046511627906976744,0.0,0.046511627906976744,0.046511627906976744,0.11627906976744186,0.023255813953488372,0.023255813953488372,0.09302325581395349,0.09302325581395349,0.16279069767441862,0.0,0.0,0.023255813953488372,0.06976744186046512,0.046511627906976744,0.06976744186046512,0.06976744186046512,0.023255813953488372,0.023255813953488372,0.023255813953488372,0.0,0.0,0.0,0.0,0.0,0.0,0.0,0.0,0.0,0.0,0.0,0.0,0.0,0.0,2.0,0.0,0.0,2.0,6.0,0.0,0.0,0.0,1.0,7.0,0.12558139534883717,4.0,0.0,0.0,0.0,0.0,0.0,0.0,0.0,0.0,0.0,0.0,0.0,0.0,0.0,0.0,0.0,0.0,0.0,0.0,0.0,0.0,0.0,0.0,0.0,1.0,0.0,0.0,0.0,0.0,0.0,0.0,0.0,0.0,0.0,0.0,0.0,0.0,0.0,0.0,0.0,0.0,1.0,0.0,0.0,0.0,0.0,0.0,3.0,7.0,0.0,1.0,3.0,3.0,0.0,3.0,-0.5108256237659907,3.0,2.0,0.0,4.0,5.0,3.0,0.0,0.0,1.0,0.0,0.0,0.09302325581395349,0.32558139534883723,0.16279069767441862,0.13953488372093023,0.2558139534883721,2.179452409790031,0.11997674919348962,-1.0698774148524202,0.5581395348837209,0.23255813953488372,9.402111053466797,2.0,0.2558139534883721,-0.15121881037284846,0.06811214613345276,0.09098412850411708,4.192080929474739,16.118455664837605,0.5051547115967151,0.19586814065547084,0.04699671807681867,0.18686627862036,-0.06073136713872344,-0.36374147323386347,0.17883783942165968,0.19293313220804384,-0.2574253966873951,-0.41455044878650665,0.11902888960780215,0.34116605422969265
SYNEM_HUMAN_nonidr_0,0.047619047619047616,0.047619047619047616,0.047619047619047616,0.14285714285714285,0.0,0.0,0.0,0.0,0.0,0.23809523809523808,0.0,0.09523809523809523,0.0,0.0,0.19047619047619047,0.0,0.0,0.09523809523809523,0.0,0.09523809523809523,0.0,0.0,0.0,0.0,0.0,0.0,0.0,0.0,0.0,0.0,0.0,0.0,0.0,0.0,1.0,0.6931471805599453,0.0,3.0,0.0,0.0,0.0,0.0,0.0,1.0,-0.47142857142857136,0.0,0.0,0.0,0.0,0.0,0.0,0.0,0.0,0.0,0.0,0.0,0.0,0.0,0.0,0.0,0.0,0.0,0.0,0.0,1.0,0.0,0.0,1.0,0.0,1.0,0.0,0.0,0.0,0.0,0.0,0.0,0.0,0.0,0.0,0.0,0.0,0.0,0.0,0.0,0.0,0.0,0.0,0.0,0.0,0.0,2.0,0.0,4.0,0.0,0.0,0.0,2.0,0.0,0.0,4.0,1.6094379124341003,6.0,4.0,0.0,0.0,4.0,0.0,0.0,0.0,1.0,0.0,0.0,0.19047619047619047,0.38095238095238093,0.09523809523809523,0.19047619047619047,0.38095238095238093,1.5973043959256679,-1.1618875801980244,-0.33537897011076184,0.42857142857142855,0.38095238095238093,6.248714447021484,0.0,0.14285714285714285,-0.2914326401676323,0.08201103105477116,0.09874835728965031,4.507311531901619,16.479829770250586,0.5942039550054088,0.18391145011601334,0.038847512579690234,0.1384068850182821,-0.2480307282828297,-0.46022423788333494,0.1417341065177672,0.2625074619394264,-0.1295104634743655,-0.3473381270047399,0.09982158867493691,0.4569652757967533
SYNEM_HUMAN_nonidr_1,0.0,0.0,0.0,0.0,0.0,0.3333333333333333,0.0,0.0,0.0,0.16666666666666666,0.0,0.0,0.0,0.0,0.5,0.0,0.0,0.0,0.0,0.0,0.0,0.0,0.0,0.0,0.0,0.0,0.0,0.0,0.0,0.0,0.0,0.0,0.0,0.0,0.0,0.0,0.0,0.0,2.0,0.0,0.0,4.0,2.0,0.0,-1.75,0.0,0.0,0.0,0.0,0.0,0.0,0.0,0.0,0.0,0.0,0.0,0.0,0.0,0.0,0.0,0.0,0.0,0.0,0.0,0.0,0.0,0.0,0.0,0.0,0.0,0.0,0.0,0.0,0.0,0.0,0.0,0.0,0.0,0.0,0.0,0.0,0.0,0.0,0.0,0.0,0.0,0.0,0.0,0.0,0.0,0.0,0.0,3.0,0.0,0.0,0.0,0.0,0.0,0.0,5.0,1.3862943611198906,3.0,3.0,0.0,2.0,3.0,0.0,0.0,1.0,0.0,0.0,0.0,0.0,0.16666666666666666,0.0,0.5,0.5,0.6823907603703502,-3.0071599147182333,-3.0071599147182333,0.8333333333333334,0.5,12.301029205322266,3.0,0.3333333333333333,0.6910440616569954,0.09591641721101493,0.18478998691720308,6.262222139936792,13.895468768945413,0.2916397607792055,0.1388862461112536,0.1058638450886209,0.36708796216948575,-0.17253159415755265,-0.8262460153059494,0.1551060452532559,0.45841932405282704,-0.1624011611526497,-0.3418221417075444,0.1749908145845977,0.1840565971517557
SYNEM_HUMAN_nonidr_2,0.0,0.0,0.0,0.0,0.0,0.0,0.0,0.0,0.0,0.5,0.0,0.0,0.0,0.5,0.0,0.0,0.0,0.0,0.0,0.0,0.0,0.0,0.0,0.0,0.0,0.0,0.0,0.0,0.0,0.0,0.0,0.0,0.0,0.0,0.0,0.0,0.0,0.0,0.0,0.0,0.0,0.0,0.0,0.0,0.1499999999999999,0.0,0.0,0.0,0.0,0.0,0.0,0.0,0.0,0.0,0.0,0.0,0.0,0.0,0.0,0.0,0.0,0.0,0.0,0.0,0.0,0.0,0.0,0.0,0.0,0.0,0.0,0.0,0.0,0.0,0.0,0.0,0.0,0.0,0.0,0.0,0.0,0.0,0.0,0.0,0.0,0.0,0.0,0.0,0.0,0.0,0.0,0.0,0.0,0.0,0.0,0.0,1.0,1.0,0.0,0.0,0.0,0.0,0.0,0.0,0.0,0.0,0.0,0.0,0.0,0.0,0.0,0.0,0.0,0.5,0.0,0.0,0.0,0.3465735902799725,nan,nan,0.5,0.0,5.525012969970703,0.0,0.5,0.0,nan,nan,nan,nan,nan,nan,nan,nan,nan,nan,nan,nan,nan,nan,nan,nan
SYNEM_HUMAN_nonidr_3,0.5,0.0,0.0,0.16666666666666666,0.0,0.0,0.0,0.0,0.0,0.3333333333333333,0.0,0.0,0.0,0.0,0.0,0.0,0.0,0.0,0.0,0.0,0.0,0.0,0.0,0.0,0.0,0.0,0.0,0.0,0.0,0.0,0.0,0.0,0.0,0.0,0.0,0.6931471805599453,0.0,1.0,0.0,0.0,0.0,0.0,0.0,3.0,1.5833333333333333,0.0,0.0,0.0,0.0,0.0,0.0,0.0,0.0,0.0,0.0,0.0,0.0,0.0,0.0,0.0,0.0,0.0,0.0,0.0,0.0,0.0,0.0,0.0,0.0,0.0,0.0,0.0,0.0,0.0,0.0,0.0,0.0,0.0,0.0,0.0,0.0,0.0,0.0,0.0,0.0,0.0,0.0,0.0,0.0,0.0,0.0,0.0,0.0,0.0,0.0,0.0,0.0,0.0,0.0,0.0,0.0,0.0,0.0,0.0,0.0,0.0,0.0,0.0,0.0,0.0,0.0,0.0,0.16666666666666666,0.8333333333333334,0.0,0.0,0.16666666666666666,0.6823907603703502,nan,nan,0.6666666666666666,0.16666666666666666,3.9996376037597656,-1.0,0.0,0.0,0.034530099889924885,0.04356371109435597,3.7530342713986937,15.157663625910708,0.7713560919970011,0.09860544045822406,0.032302185102454965,0.09033667617334684,-0.2614663220425049,-0.2133228483974876,0.09089355797764309,0.10203908250831543,-0.015449104641649815,-0.06946819414245929,0.059141530703483706,0.5806599615145974
SYNEM_HUMAN_nonidr_4,0.13333333333333333,0.0,0.0,0.13333333333333333,0.0,0.0,0.0,0.0,0.0,0.2,0.0,0.0,0.0,0.06666666666666667,0.06666666666666667,0.06666666666666667,0.06666666666666667,0.13333333333333333,0.06666666666666667,0.06666666666666667,0.0,0.0,0.0,0.0,0.0,0.0,0.0,0.0,0.0,0.0,0.0,0.0,0.0,0.0,0.0,1.0986122886681098,0.0,2.0,0.0,0.0,0.0,0.0,0.0,2.0,0.31333333333333324,0.0,0.0,0.0,0.0,0.0,0.0,0.0,0.0,0.0,0.0,0.0,0.0,0.0,0.0,0.0,0.0,0.0,0.0,0.0,0.0,0.0,0.0,0.0,0.0,0.0,0.0,0.0,0.0,0.0,0.0,0.0,0.0,1.0,0.0,1.0,0.0,0.0,0.0,0.0,1.0,0.0,0.0,0.0,0.0,0.0,0.0,0.0,1.0,2.0,0.0,0.0,1.0,1.0,0.0,1.0,0.6931471805599453,2.0,1.0,0.0,1.0,2.0,1.0,0.0,0.0,0.0,0.0,0.0,0.13333333333333333,0.4666666666666667,0.13333333333333333,0.06666666666666667,0.2,1.6018713581955335,-1.3373827083198937,-0.020861822104731354,0.5333333333333333,0.2,4.531398773193359,-1.0,0.2,-0.048803387171258476,0.06165801477575153,0.07880053066191477,4.053035893820266,16.20765835772278,0.5706598787381449,0.22149641623631222,0.03953549050314008,0.13027462585675267,-0.11117823143092362,-0.3329225182549943,0.16121417455399617,0.18861632833360356,-0.1372960542659341,-0.266620606775535,0.10574528735952818,0.4366399812330805
SYNEM_HUMAN_nonidr_5,0.0,0.0,0.0,0.0,0.0,0.0,0.0,0.0,0.0,0.0,0.0,0.0,0.0,0.0,1.0,0.0,0.0,0.0,0.0,0.0,0.0,0.0,0.0,0.0,0.0,0.0,0.0,0.0,0.0,0.0,0.0,0.0,0.0,0.0,0.0,0.0,0.0,0.0,0.0,0.0,0.0,0.0,0.0,0.0,-4.5,0.0,0.0,0.0,0.0,0.0,0.0,0.0,0.0,0.0,0.0,0.0,0.0,0.0,0.0,0.0,0.0,0.0,0.0,0.0,0.0,0.0,0.0,0.0,0.0,0.0,0.0,0.0,0.0,0.0,0.0,0.0,0.0,0.0,0.0,0.0,0.0,0.0,0.0,0.0,0.0,0.0,0.0,0.0,0.0,0.0,0.0,0.0,1.0,0.0,0.0,0.0,0.0,0.0,0.0,1.0,0.6931471805599453,1.0,1.0,0.0,0.0,1.0,0.0,0.0,0.0,0.0,0.0,0.0,0.0,0.0,0.0,1.0,1.0,0.0,nan,nan,1.0,1.0,9.750049591064453,1.0,0.0,0.0,nan,nan,nan,nan,nan,nan,nan,nan,nan,nan,nan,nan,nan,nan,nan,nan
SYNEM_HUMAN_nonidr_6,0.13333333333333333,0.0,0.06666666666666667,0.13333333333333333,0.0,0.06666666666666667,0.0,0.0,0.0,0.3333333333333333,0.0,0.0,0.0,0.06666666666666667,0.2,0.0,0.0,0.0,0.0,0.0,0.0,0.0,0.0,0.0,0.0,0.0,0.0,0.0,0.0,0.0,0.0,0.0,0.0,0.0,1.0,0.4054651081081644,0.0,2.0,1.0,0.0,0.0,0.0,1.0,2.0,-0.3533333333333334,0.0,0.0,0.0,0.0,0.0,0.0,0.0,0.0,0.0,0.0,0.0,0.0,0.0,0.0,0.0,0.0,0.0,0.0,0.0,0.0,0.0,0.0,0.0,0.0,0.0,0.0,0.0,0.0,0.0,0.0,0.0,0.0,0.0,0.0,0.0,0.0,0.0,0.0,0.0,0.0,0.0,0.0,0.0,0.0,0.0,0.0,0.0,3.0,0.0,0.0,0.0,1.0,1.0,0.0,4.0,1.3862943611198906,3.0,3.0,0.0,1.0,3.0,0.0,0.0,1.0,0.0,0.0,0.0,0.2,0.4666666666666667,0.0,0.2,0.4,1.328915054047393,-0.6279255498226035,-0.8132233679749811,0.6666666666666666,0.4,6.182811737060547,0.0,0.13333333333333333,-0.3677651610599671,0.05186350003942353,0.06440998486467633,4.39782423301878,15.837384495918238,0.7054281084309397,0.10297985644784227,0.03537470977479565,0.11988324364164032,-0.32508424101967176,-0.3593549027819712,0.1344833609870004,0.19474237486732893,-0.04536427094389585,-0.13976735082713038,0.07287090100563293,0.5395807535259617
SYNEM_HUMAN_nonidr_7,0.25,0.0,0.0,0.25,0.0,0.0,0.0,0.25,0.0,0.0,0.0,0.0,0.0,0.25,0.0,0.0,0.0,0.0,0.0,0.0,0.0,0.0,0.0,0.0,0.0,0.0,0.0,0.0,0.0,0.0,0.0,0.0,0.0,0.0,0.0,0.6931471805599453,0.0,1.0,0.0,0.0,0.0,0.0,0.0,1.0,-0.17500000000000004,0.0,0.0,0.0,0.0,0.0,0.0,0.0,0.0,0.0,0.0,0.0,0.0,0.0,0.0,0.0,0.0,0.0,0.0,0.0,0.0,0.0,0.0,0.0,0.0,0.0,0.0,0.0,0.0,0.0,0.0,0.0,0.0,0.0,0.0,0.0,0.0,0.0,0.0,0.0,0.0,0.0,0.0,0.0,0.0,0.0,0.0,0.0,0.0,0.0,0.0,0.0,1.0,1.0,0.0,0.0,0.0,0.0,0.0,0.0,0.0,0.0,0.0,0.0,0.0,0.0,0.0,0.0,0.25,0.5,0.0,0.0,0.25,0.7945134575869862,nan,nan,0.75,0.25,3.9996376037597656,-1.0,0.25,0.0,0.07747264999663322,0.07852556002233013,4.603704149493222,15.346487400545161,0.6389041786809361,0.1614744593007581,0.03720126757881255,0.10949934506623143,-0.10656123398435663,-0.22413244961741569,0.11717378485101836,0.21135220923600437,-0.024293746803032427,-0.1102621563047359,0.0740847435157946,0.5502700767959372
SYNEM_HUMAN_nonidr_8,0.125,0.0,0.125,0.0625,0.0,0.03125,0.0,0.0,0.0625,0.21875,0.03125,0.0,0.0,0.0625,0.03125,0.03125,0.09375,0.0625,0.03125,0.03125,0.0,0.0,0.0,0.0,0.0,0.0,0.0,2.0,2.0,0.0,0.0,0.0,0.0,0.0,4.0,-0.5108256237659907,0.0,2.0,1.0,0.0,0.0,0.0,1.0,6.0,-0.05312500000000003,2.0,0.0,0.0,0.0,0.0,0.0,0.0,0.0,0.0,0.0,1.0,0.0,0.0,0.0,0.0,0.0,0.0,0.0,0.0,0.0,0.0,0.0,0.0,0.0,0.0,0.0,0.0,0.0,0.0,0.0,0.0,0.0,0.0,0.0,0.0,0.0,0.0,0.0,0.0,0.0,0.0,0.0,0.0,0.0,0.0,0.0,0.0,1.0,4.0,0.0,0.0,2.0,2.0,0.0,2.0,-0.40546510810816444,2.0,1.0,0.0,2.0,2.0,1.0,0.0,0.0,1.0,1.0,0.0,0.1875,0.4375,0.0625,0.09375,0.28125,1.9410106950901842,-1.3677431730054097,-1.0782652495793459,0.625,0.28125,4.233234405517578,-3.0,0.21875,0.25715204370688916,0.04934628899600767,0.06257372791448905,4.304505839725544,15.442847304574991,0.5773176299931264,0.16250155366660662,0.04094352546626741,0.16449070850653819,-0.20700708217301664,-0.32855701506262525,0.1718839213905767,0.17833420802355962,-0.10428032286024043,-0.2370754899101808,0.09804572660195511,0.4146864564143557
SYNEM_HUMAN_nonidr_9,0.06794564348521183,0.0015987210231814548,0.051159072741806554,0.11670663469224621,0.026378896882494004,0.0903277378097522,0.02478017585931255,0.035171862509992005,0.05195843325339728,0.05275779376498801,0.012789768185451638,0.01838529176658673,0.050359712230215826,0.05195843325339728,0.06794564348521183,0.11191047162270183,0.06474820143884892,0.07913669064748201,0.007993605115907274,0.01598721023181455,5.0,0.0,0.0,0.0,2.0,0.0,0.0,3.0,0.0,5.0,4.0,0.0,4.0,15.0,64.0,0.8160453168830992,0.0,146.0,146.0,0.0,0.0,10.0,113.0,213.0,-0.7853717026378899,65.0,13.0,0.0,0.0,0.0,0.0,0.0,0.0,0.0,0.0,2.0,0.0,0.0,0.0,0.0,0.0,1.0,1.0,0.0,4.0,1.0,0.0,1.0,2.0,9.0,0.0,1.0,3.0,2.0,1.0,2.0,24.0,20.0,0.0,27.0,5.0,0.0,14.0,1.0,13.0,2.0,16.0,14.0,2.0,8.0,23.0,5.0,148.0,284.0,0.0,63.0,88.0,65.0,0.0,198.0,0.26469255422708216,105.0,85.0,12.0,253.0,225.0,140.0,0.0,4.0,0.0,2.0,0.0,0.16786570743405277,0.2478017585931255,0.050359712230215826,0.11990407673860912,0.3381294964028777,2.729430645915601,-1.398401340142777,-0.3316566615173942,0.7498001598721024,0.28776978417266186,5.090663909912109,-60.0,0.36370903277378097,21.640059488099656,0.06947889950409734,0.08932024804365628,4.79114179038761,14.3846566993767,0.3354858504360138,0.23277537083494299,0.09415648233967935,0.2803069153939197,0.07191028294727482,-0.42858749088075965,0.2020665550817025,0.23525823430775958,-0.08246513204266147,-0.20849275458993216,0.17731258510048187,0.19293082430082348
NKRF_HUMAN_nonidr_0,0.09090909090909091,0.0,0.0,0.09090909090909091,0.09090909090909091,0.0,0.0,0.18181818181818182,0.09090909090909091,0.09090909090909091,0.0,0.0,0.0,0.09090909090909091,0.0,0.0,0.18181818181818182,0.0,0.0,0.09090909090909091,0.0,0.0,0.0,0.0,0.0,0.0,0.0,0.0,0.0,0.0,0.0,0.0,0.0,0.0,0.0,0.6931471805599453,0.0,1.0,1.0,0.0,0.0,0.0,0.0,2.0,0.34545454545454546,1.0,0.0,0.0,0.0,0.0,0.0,0.0,0.0,0.0,0.0,0.0,0.0,0.0,0.0,0.0,0.0,0.0,0.0,0.0,0.0,0.0,0.0,0.0,0.0,1.0,0.0,0.0,0.0,0.0,0.0,0.0,0.0,0.0,0.0,0.0,0.0,0.0,0.0,0.0,0.0,0.0,0.0,0.0,0.0,0.0,0.0,0.0,0.0,2.0,0.0,0.0,1.0,1.0,0.0,0.0,-0.6931471805599453,1.0,0.0,0.0,0.0,0.0,0.0,0.0,0.0,0.0,0.0,0.0,0.09090909090909091,0.36363636363636365,0.18181818181818182,0.09090909090909091,0.18181818181818182,1.465092134977636,-0.9627406736630196,-0.3913522967563138,0.5454545454545454,0.18181818181818182,6.000698089599609,0.0,0.2727272727272727,-0.09090909090909091,0.0749113121416857,0.07793747835623531,4.136804027159389,16.21805445630696,0.5349558540245488,0.256494025640806,0.04166655695060923,0.13516986839656256,-0.06295095455548029,-0.36686012242458926,0.14785217943707096,0.15588099971318473,-0.23787730847528377,-0.45580433930571407,0.11619591969692629,0.3995942244793338
NKRF_HUMAN_nonidr_1,0.05,0.1,0.0,0.05,0.0,0.0,0.0,0.1,0.05,0.05,0.05,0.1,0.05,0.05,0.05,0.0,0.15,0.0,0.0,0.15,0.0,0.0,0.0,0.0,0.0,0.0,0.0,0.0,0.0,0.0,0.0,0.0,0.0,0.0,0.0,0.6931471805599453,0.0,1.0,0.0,0.0,0.0,0.0,0.0,3.0,-0.425,1.0,0.0,0.0,0.0,0.0,0.0,0.0,0.0,0.0,0.0,0.0,0.0,0.0,0.0,0.0,0.0,1.0,1.0,0.0,0.0,0.0,0.0,0.0,1.0,1.0,0.0,0.0,0.0,0.0,0.0,0.0,0.0,1.0,0.0,0.0,0.0,0.0,0.0,0.0,0.0,0.0,0.0,0.0,0.0,0.0,2.0,0.0,2.0,4.0,0.0,1.0,3.0,1.0,0.0,1.0,0.0,4.0,1.0,0.0,0.0,1.0,0.0,0.0,0.0,0.0,0.0,0.0,0.05,0.25,0.15,0.1,0.2,1.8336327990308772,-1.1583887708275484,-0.7342647826847942,0.45,0.15,8.021251678466797,1.0,0.4,-0.13563939586926008,0.07791107009476914,0.09354876851735273,4.435625921198251,15.87828924354941,0.45379933637988845,0.2114706346006122,0.07422039246991687,0.21040859723463268,0.002928483059436119,-0.3515491548397939,0.23718887195416227,0.22502468271395695,-0.17190826435667106,-0.4190282321931735,0.13693569842056197,0.2982979626870621
NKRF_HUMAN_nonidr_2,0.05555555555555555,0.1111111111111111,0.05555555555555555,0.05555555555555555,0.0,0.05555555555555555,0.0,0.05555555555555555,0.0,0.1111111111111111,0.0,0.05555555555555555,0.0,0.05555555555555555,0.05555555555555555,0.0,0.16666666666666666,0.05555555555555555,0.0,0.1111111111111111,0.0,0.0,0.0,0.0,0.0,0.0,0.0,0.0,0.0,0.0,0.0,0.0,0.0,0.0,1.0,0.0,0.0,1.0,1.0,0.0,0.0,0.0,1.0,1.0,-0.027777777777777752,0.0,0.0,0.0,0.0,0.0,0.0,0.0,0.0,0.0,0.0,0.0,0.0,0.0,0.0,0.0,0.0,0.0,0.0,0.0,0.0,0.0,0.0,0.0,1.0,1.0,0.0,0.0,0.0,0.0,0.0,0.0,0.0,0.0,0.0,0.0,0.0,0.0,0.0,0.0,0.0,0.0,0.0,0.0,0.0,0.0,1.0,0.0,1.0,3.0,0.0,0.0,2.0,1.0,0.0,2.0,0.6931471805599453,3.0,1.0,0.0,1.0,1.0,0.0,0.0,0.0,0.0,0.0,0.0,0.1111111111111111,0.2777777777777778,0.1111111111111111,0.05555555555555555,0.16666666666666666,1.8069024553958424,0.003835589066138831,0.24215288957757158,0.5,0.16666666666666666,4.370220184326172,-1.0,0.4444444444444444,-0.10132760532988311,0.06503640331658112,0.1044472027071367,4.166891309699437,15.764466103238734,0.3279134236653837,0.3139219404344445,0.06738787483218568,0.22717317615091054,0.07956100141898437,-0.4451329050291179,0.2183105407104167,0.25262629366818257,-0.12371629091516262,-0.36181192541079127,0.1589413948791411,0.2371096411212144
NKRF_HUMAN_nonidr_3,0.024390243902439025,0.024390243902439025,0.024390243902439025,0.07317073170731707,0.07317073170731707,0.04878048780487805,0.024390243902439025,0.04878048780487805,0.12195121951219512,0.0975609756097561,0.024390243902439025,0.0,0.04878048780487805,0.04878048780487805,0.0975609756097561,0.04878048780487805,0.024390243902439025,0.12195121951219512,0.0,0.024390243902439025,0.0,0.0,0.0,0.0,0.0,0.0,0.0,0.0,0.0,1.0,0.0,0.0,0.0,0.0,1.0,0.6931471805599453,0.0,3.0,5.0,0.0,0.0,2.0,2.0,8.0,-0.23170731707317083,5.0,0.0,0.0,0.0,0.0,0.0,0.0,0.0,0.0,0.0,0.0,0.0,0.0,0.0,0.0,0.0,0.0,0.0,0.0,0.0,0.0,0.0,0.0,0.0,0.0,0.0,0.0,0.0,0.0,0.0,0.0,0.0,2.0,0.0,0.0,0.0,0.0,0.0,0.0,0.0,0.0,0.0,0.0,0.0,0.0,0.0,0.0,6.0,5.0,0.0,2.0,2.0,2.0,0.0,6.0,-0.1823215567939546,5.0,4.0,0.0,4.0,6.0,2.0,0.0,1.0,0.0,0.0,1.0,0.0975609756097561,0.3170731707317073,0.0975609756097561,0.21951219512195122,0.36585365853658536,2.2208259949742897,0.35890972924492354,-0.39295589214047805,0.5853658536585366,0.3170731707317073,10.014568328857422,5.0,0.21951219512195122,0.11906647683442073,0.06485662203090002,0.08444169281880311,4.3420538478138715,15.248211988884323,0.32098702791192113,0.3021694064550138,0.06532519060424055,0.2323178940708823,0.1597801831798098,-0.4992475220464493,0.13148510132940985,0.21506872660927576,-0.14531449895161755,-0.3193694342633945,0.16702592183738788,0.22942724652668067
NKRF_HUMAN_nonidr_4,0.18518518518518517,0.0,0.037037037037037035,0.037037037037037035,0.07407407407407407,0.037037037037037035,0.037037037037037035,0.1111111111111111,0.037037037037037035,0.0,0.0,0.14814814814814814,0.037037037037037035,0.037037037037037035,0.0,0.07407407407407407,0.07407407407407407,0.037037037037037035,0.037037037037037035,0.0,0.0,0.0,0.0,0.0,0.0,0.0,0.0,0.0,0.0,0.0,0.0,0.0,0.0,0.0,1.0,0.0,0.0,1.0,3.0,0.0,0.0,0.0,1.0,7.0,-0.1925925925925926,1.0,0.0,0.0,0.0,0.0,0.0,0.0,0.0,0.0,0.0,0.0,1.0,0.0,0.0,0.0,0.0,0.0,0.0,0.0,0.0,0.0,0.0,0.0,0.0,0.0,0.0,0.0,0.0,0.0,0.0,0.0,0.0,0.0,0.0,0.0,1.0,0.0,0.0,0.0,0.0,0.0,0.0,0.0,0.0,0.0,4.0,0.0,1.0,5.0,0.0,1.0,5.0,1.0,0.0,1.0,-0.6931471805599453,0.0,0.0,0.0,3.0,2.0,2.0,0.0,0.0,0.0,0.0,0.0,0.07407407407407407,0.3333333333333333,0.1111111111111111,0.037037037037037035,0.14814814814814814,1.9526219275173502,0.34555747631580136,-1.2121929758716634,0.5925925925925926,0.1111111111111111,5.320575714111328,-1.0,0.4074074074074074,-0.17057597316533293,0.07938638799905438,0.10652610634024035,4.618717726416072,15.077452480214198,0.3387785091772564,0.2318071070296107,0.08424005769312927,0.28021509506022135,0.11777035412365107,-0.35850259040228627,0.22379491048956535,0.25252512624751894,-0.14741101991964903,-0.3198096376929221,0.16645076124369534,0.20781049969816334
NKRF_HUMAN_nonidr_5,0.125,0.0,0.0,0.0,0.125,0.0,0.0,0.0,0.125,0.0,0.125,0.125,0.0,0.0,0.0,0.375,0.0,0.0,0.0,0.0,0.0,0.0,0.0,0.0,0.0,0.0,0.0,0.0,0.0,0.0,0.0,0.0,0.0,0.0,0.0,0.0,0.0,0.0,1.0,0.0,0.0,0.0,0.0,2.0,-0.4125000000000001,1.0,0.0,0.0,0.0,0.0,0.0,0.0,0.0,0.0,0.0,0.0,0.0,0.0,0.0,0.0,0.0,0.0,0.0,0.0,0.0,0.0,0.0,0.0,0.0,0.0,0.0,0.0,0.0,0.0,0.0,0.0,0.0,0.0,0.0,0.0,0.0,0.0,0.0,0.0,0.0,0.0,0.0,0.0,0.0,0.0,1.0,0.0,0.0,3.0,0.0,0.0,1.0,0.0,0.0,0.0,-0.6931471805599453,0.0,0.0,0.0,3.0,3.0,3.0,0.0,0.0,0.0,0.0,0.0,0.0,0.25,0.125,0.125,0.125,1.1016054291896493,nan,nan,0.625,0.125,8.75002670288086,1.0,0.5,0.0,0.06533398906405134,0.09888547715131753,4.579331797012597,14.457108831707865,0.40708190344138306,0.17887293866407158,0.0874811694916983,0.26979814104977856,0.07868532060180512,-0.3359491826158206,0.19786002080571607,0.23572771274220405,-0.20286444370678589,-0.3993676176724872,0.14042932182080217,0.24110872233231598
NKRF_HUMAN_nonidr_6,0.041666666666666664,0.08333333333333333,0.041666666666666664,0.08333333333333333,0.041666666666666664,0.041666666666666664,0.041666666666666664,0.0,0.041666666666666664,0.08333333333333333,0.08333333333333333,0.041666666666666664,0.041666666666666664,0.041666666666666664,0.125,0.0,0.041666666666666664,0.041666666666666664,0.041666666666666664,0.041666666666666664,0.0,0.0,0.0,0.0,0.0,0.0,0.0,0.0,0.0,1.0,0.0,0.0,0.0,0.0,1.0,0.4054651081081644,0.0,2.0,2.0,0.0,0.0,0.0,1.0,3.0,-0.7416666666666667,1.0,0.0,0.0,0.0,0.0,0.0,0.0,0.0,0.0,0.0,0.0,0.0,0.0,0.0,0.0,0.0,0.0,0.0,0.0,0.0,0.0,0.0,0.0,0.0,0.0,0.0,0.0,0.0,0.0,0.0,0.0,0.0,0.0,0.0,0.0,1.0,0.0,0.0,0.0,0.0,0.0,1.0,0.0,0.0,0.0,1.0,0.0,4.0,2.0,0.0,1.0,2.0,1.0,0.0,4.0,0.6931471805599453,4.0,3.0,0.0,1.0,3.0,0.0,0.0,1.0,0.0,0.0,0.0,0.125,0.25,0.125,0.16666666666666666,0.3333333333333333,2.092515883610187,0.05010454431288795,0.05593480675424858,0.5416666666666666,0.2916666666666667,8.05527114868164,1.0,0.2916666666666667,-0.4900965444981493,0.079515772409935,0.12183953078852715,4.44984955651227,15.9494380783697,0.4056593823736664,0.22813724950656794,0.07545582164390853,0.23051210909979006,0.04903404476948406,-0.4603859801393021,0.17295375021398074,0.2667199231650318,-0.24147401727397283,-0.420629440010403,0.1448151714566002,0.270411012017105
NKRF_HUMAN_nonidr_7,0.0,0.0,0.0,0.0,0.0,0.0,0.0,0.0,0.0,0.0,0.0,0.5,0.0,0.0,0.0,0.5,0.0,0.0,0.0,0.0,0.0,0.0,0.0,0.0,0.0,0.0,0.0,0.0,0.0,0.0,0.0,0.0,0.0,0.0,0.0,0.0,0.0,0.0,0.0,0.0,0.0,0.0,0.0,0.0,-2.15,0.0,0.0,0.0,0.0,0.0,0.0,0.0,0.0,0.0,0.0,0.0,0.0,0.0,0.0,0.0,0.0,0.0,0.0,0.0,0.0,0.0,0.0,0.0,0.0,0.0,0.0,0.0,0.0,0.0,0.0,0.0,0.0,0.0,0.0,0.0,0.0,0.0,0.0,0.0,0.0,0.0,0.0,0.0,0.0,0.0,2.0,0.0,0.0,2.0,0.0,0.0,2.0,0.0,0.0,0.0,0.0,0.0,0.0,0.0,2.0,2.0,2.0,0.0,0.0,0.0,0.0,0.0,0.0,0.0,0.0,0.0,0.0,0.44793986730701374,nan,nan,0.5,0.0,5.525012969970703,0.0,1.0,0.0,0.04789423761338872,0.0733250034418507,4.8400028639690085,12.825071881853741,0.23781120331950206,0.0883039419087137,0.15053205294575656,0.4375811056319751,0.25216047856825036,-0.2691902462604989,0.4006634177549674,0.27893895063777685,-0.03967888187253519,-0.09289882196667297,0.1761411665257819,0.08114961961115807
NKRF_HUMAN_nonidr_8,0.05194805194805195,0.004329004329004329,0.03896103896103896,0.1038961038961039,0.008658008658008658,0.09090909090909091,0.025974025974025976,0.06493506493506493,0.10822510822510822,0.0735930735930736,0.017316017316017316,0.04329004329004329,0.012987012987012988,0.06493506493506493,0.07792207792207792,0.04329004329004329,0.04329004329004329,0.08225108225108226,0.008658008658008658,0.03463203463203463,0.0,0.0,0.0,0.0,0.0,0.0,0.0,1.0,1.0,2.0,0.0,1.0,0.0,0.0,9.0,0.9162907318741551,0.0,24.0,23.0,0.0,0.0,0.0,21.0,40.0,-0.830735930735931,25.0,1.0,0.0,0.0,0.0,0.0,0.0,0.0,0.0,0.0,1.0,0.0,0.0,0.0,0.0,0.0,0.0,0.0,0.0,0.0,0.0,1.0,0.0,1.0,2.0,0.0,0.0,1.0,0.0,0.0,0.0,0.0,4.0,0.0,3.0,0.0,0.0,1.0,0.0,2.0,0.0,1.0,0.0,2.0,1.0,10.0,5.0,21.0,23.0,0.0,3.0,25.0,15.0,0.0,39.0,-0.31365755885504165,26.0,18.0,0.0,31.0,28.0,10.0,0.0,1.0,1.0,0.0,0.0,0.14285714285714285,0.29004329004329005,0.05194805194805195,0.18614718614718614,0.341991341991342,2.619001466086983,0.8320857006201178,0.5970482611874904,0.6623376623376623,0.329004329004329,9.518321990966797,10.0,0.31601731601731603,1.2150075188151686,0.0588262921855504,0.07610812053531181,4.5187863419094905,14.994768501719781,0.4572043019671626,0.1947670319038649,0.05464871414430278,0.2232218376412016,-0.09216965929108119,-0.4078281774120422,0.16487624464936215,0.2183474312461857,-0.09814539695862266,-0.21981892154053856,0.13917210141481587,0.30799932791477197
ZN185_HUMAN_nonidr_0,0.0,0.14285714285714285,0.05714285714285714,0.07142857142857142,0.04285714285714286,0.08571428571428572,0.05714285714285714,0.11428571428571428,0.07142857142857142,0.07142857142857142,0.014285714285714285,0.014285714285714285,0.02857142857142857,0.014285714285714285,0.05714285714285714,0.02857142857142857,0.07142857142857142,0.0,0.0,0.05714285714285714,0.0,0.0,0.0,0.0,0.0,0.0,0.0,1.0,0.0,1.0,0.0,0.0,0.0,0.0,4.0,0.1823215567939546,0.0,5.0,9.0,0.0,0.0,0.0,6.0,7.0,-0.2057142857142858,5.0,0.0,0.0,0.0,0.0,0.0,0.0,0.0,0.0,0.0,0.0,0.0,0.0,0.0,0.0,0.0,0.0,0.0,1.0,0.0,0.0,0.0,0.0,1.0,2.0,0.0,0.0,0.0,0.0,0.0,0.0,1.0,0.0,0.0,0.0,0.0,0.0,0.0,0.0,2.0,0.0,0.0,0.0,0.0,0.0,1.0,0.0,6.0,9.0,0.0,2.0,2.0,1.0,0.0,10.0,-0.1823215567939546,8.0,4.0,0.0,8.0,6.0,2.0,0.0,0.0,0.0,0.0,0.0,0.12857142857142856,0.2,0.1,0.12857142857142856,0.2857142857142857,2.3301505822154023,-2.88629803835566,-1.3111728900530228,0.5428571428571428,0.2571428571428571,7.013378143310547,0.0,0.4142857142857143,-0.2071269560664561,0.0680549307548288,0.08798743812606946,4.320743028953358,14.957056790548055,0.32124214645006427,0.22631386857284333,0.10365481478954136,0.2770429700447873,0.04820624515818523,-0.4057233714578542,0.17464710838127684,0.22188820922028035,-0.10194546633561638,-0.26618950968643723,0.17811415775989003,0.18117945075389788
NPHP1_HUMAN_nonidr_0,0.0,0.0,0.0,0.14285714285714285,0.0,0.0,0.0,0.14285714285714285,0.2857142857142857,0.14285714285714285,0.0,0.0,0.14285714285714285,0.0,0.0,0.0,0.0,0.14285714285714285,0.0,0.0,0.0,0.0,0.0,0.0,0.0,0.0,0.0,0.0,0.0,0.0,0.0,0.0,0.0,0.0,0.0,0.6931471805599453,0.0,1.0,0.0,0.0,0.0,0.0,0.0,3.0,-0.057142857142857065,2.0,0.0,0.0,0.0,0.0,0.0,0.0,0.0,0.0,0.0,0.0,0.0,0.0,0.0,0.0,0.0,0.0,0.0,0.0,0.0,0.0,0.0,0.0,0.0,0.0,0.0,0.0,0.0,0.0,0.0,0.0,0.0,0.0,0.0,0.0,0.0,0.0,0.0,0.0,0.0,0.0,0.0,0.0,0.0,0.0,0.0,0.0,1.0,1.0,0.0,1.0,0.0,0.0,0.0,0.0,-1.0986122886681098,0.0,0.0,0.0,0.0,0.0,0.0,0.0,0.0,0.0,0.0,0.0,0.14285714285714285,0.42857142857142855,0.0,0.2857142857142857,0.5714285714285714,1.1188591686436384,-0.6531621379947709,-3.946411103103088,0.5714285714285714,0.42857142857142855,8.59109115600586,1.0,0.0,-0.20203050891044214,0.03360578775088152,0.021905443261028675,4.396202101896774,14.7626892100924,0.37474385188446774,0.32064616724455736,0.07659410959553661,0.2256310893160217,-0.07917593373154333,-0.5614359348271715,0.08431597306638752,0.15980919196610527,-0.1041389142072843,-0.15134145702600388,0.14357955662629118,0.29137340176866333
NPHP1_HUMAN_nonidr_1,0.06896551724137931,0.06896551724137931,0.0,0.034482758620689655,0.06896551724137931,0.034482758620689655,0.034482758620689655,0.10344827586206896,0.034482758620689655,0.10344827586206896,0.06896551724137931,0.06896551724137931,0.0,0.034482758620689655,0.06896551724137931,0.06896551724137931,0.0,0.10344827586206896,0.0,0.034482758620689655,0.0,0.0,0.0,0.0,0.0,0.0,0.0,0.0,0.0,0.0,0.0,0.0,0.0,0.0,0.0,0.6931471805599453,0.0,1.0,3.0,0.0,0.0,0.0,1.0,3.0,0.7620689655172413,1.0,0.0,0.0,0.0,0.0,0.0,0.0,0.0,0.0,0.0,1.0,0.0,0.0,0.0,0.0,0.0,0.0,0.0,0.0,0.0,0.0,0.0,1.0,0.0,1.0,0.0,0.0,0.0,0.0,0.0,0.0,0.0,0.0,0.0,0.0,0.0,0.0,0.0,0.0,0.0,0.0,0.0,0.0,0.0,0.0,2.0,0.0,2.0,2.0,0.0,0.0,3.0,1.0,0.0,3.0,0.4054651081081644,3.0,2.0,0.0,3.0,4.0,2.0,0.0,1.0,0.0,0.0,0.0,0.034482758620689655,0.4482758620689655,0.10344827586206896,0.10344827586206896,0.13793103448275862,2.104473458467732,-0.3299954344854448,-0.09565716236486754,0.3793103448275862,0.13793103448275862,8.903514862060547,2.0,0.3103448275862069,0.008608994714111244,0.06101225935660429,0.08971015321003674,3.617917542444357,15.913249729475556,0.422955792909725,0.3094753509111022,0.03648914963809991,0.159504949390447,0.06922701935443588,-0.41743044194885115,0.1395548360781223,0.1993985694586329,-0.10542116146900184,-0.333493970260777,0.13908085692903344,0.30731196549840784
NPHP1_HUMAN_nonidr_2,0.03937007874015748,0.015748031496062992,0.031496062992125984,0.031496062992125984,0.047244094488188976,0.05511811023622047,0.015748031496062992,0.07086614173228346,0.023622047244094488,0.14173228346456693,0.03937007874015748,0.047244094488188976,0.06299212598425197,0.05511811023622047,0.07874015748031496,0.09448818897637795,0.06299212598425197,0.06299212598425197,0.015748031496062992,0.007874015748031496,0.0,0.0,0.0,0.0,0.0,0.0,0.0,1.0,1.0,1.0,1.0,1.0,1.0,0.0,4.0,0.0,0.0,4.0,13.0,0.0,0.0,2.0,7.0,16.0,0.09685039370078727,3.0,2.0,0.0,0.0,0.0,0.0,0.0,0.0,0.0,1.0,0.0,0.0,0.0,0.0,0.0,0.0,0.0,0.0,0.0,0.0,0.0,0.0,0.0,0.0,1.0,0.0,2.0,2.0,0.0,0.0,0.0,2.0,0.0,0.0,2.0,0.0,0.0,2.0,0.0,2.0,0.0,0.0,0.0,0.0,0.0,6.0,0.0,18.0,28.0,0.0,8.0,13.0,7.0,0.0,17.0,1.0116009116784799,11.0,10.0,0.0,19.0,22.0,12.0,0.0,2.0,0.0,0.0,0.0,0.06299212598425197,0.3543307086614173,0.07086614173228346,0.10236220472440945,0.2283464566929134,2.5625167122432395,0.18750444677387004,-0.44389755737151326,0.5511811023622047,0.16535433070866143,10.02957534790039,5.0,0.3464566929133858,0.29605233708611783,0.059310764217766015,0.08113054343057781,4.344148946272649,15.09839461652097,0.3736438273192776,0.21336770537289126,0.07810713156086452,0.25221821873995093,0.0709791752026668,-0.3789236693691104,0.178277939240158,0.22980883877086944,-0.1048787507294851,-0.27022882992710767,0.15036644066042568,0.23160621793023095
NPHP1_HUMAN_nonidr_3,0.0,0.0,0.0,0.0,0.0,0.0,0.0,0.0,0.0,0.0,0.0,0.0,0.25,0.25,0.0,0.0,0.25,0.0,0.25,0.0,0.0,0.0,0.0,0.0,0.0,0.0,0.0,0.0,0.0,0.0,0.0,0.0,0.0,0.0,0.0,0.0,0.0,0.0,0.0,0.0,0.0,0.0,0.0,1.0,-1.675,0.0,0.0,0.0,0.0,0.0,0.0,0.0,0.0,0.0,0.0,0.0,0.0,0.0,0.0,0.0,0.0,0.0,0.0,0.0,0.0,0.0,0.0,0.0,0.0,0.0,0.0,0.0,0.0,0.0,0.0,0.0,0.0,0.0,0.0,0.0,0.0,0.0,0.0,0.0,0.0,0.0,0.0,0.0,0.0,0.0,0.0,0.0,1.0,2.0,0.0,1.0,1.0,1.0,0.0,0.0,0.0,0.0,0.0,0.0,0.0,0.0,0.0,0.0,0.0,0.0,0.0,0.0,0.0,0.0,0.25,0.0,0.25,0.7945134575869862,nan,nan,0.75,0.0,5.525012969970703,0.0,0.5,0.0,0.26375716649855685,0.26909738141710005,5.767140134877623,18.686071655426865,0.2675054905716967,0.23063787381843864,0.1605601791278309,0.33417827805279415,-0.018797820059734155,-0.3114684848701198,0.18846933886413011,0.4073897833406625,-0.781712962962963,-1.1557870370370371,0.20777669689026185,0.14742480612095873
NPHP1_HUMAN_nonidr_4,0.03529411764705882,0.03529411764705882,0.047058823529411764,0.058823529411764705,0.07058823529411765,0.10588235294117647,0.0,0.07058823529411765,0.03529411764705882,0.12941176470588237,0.0,0.03529411764705882,0.07058823529411765,0.011764705882352941,0.047058823529411764,0.09411764705882353,0.058823529411764705,0.03529411764705882,0.023529411764705882,0.03529411764705882,0.0,0.0,0.0,0.0,0.0,1.0,0.0,0.0,0.0,0.0,0.0,1.0,0.0,3.0,4.0,0.1823215567939546,0.0,5.0,15.0,0.0,0.0,2.0,9.0,12.0,0.08352941176470573,3.0,1.0,0.0,0.0,0.0,0.0,0.0,0.0,0.0,0.0,1.0,0.0,0.0,0.0,0.0,0.0,0.0,0.0,0.0,0.0,0.0,0.0,0.0,1.0,1.0,0.0,0.0,0.0,0.0,0.0,1.0,0.0,2.0,0.0,2.0,1.0,0.0,0.0,0.0,1.0,0.0,0.0,3.0,0.0,0.0,3.0,0.0,10.0,19.0,2.0,6.0,4.0,1.0,0.0,13.0,0.22314355131420976,7.0,4.0,0.0,17.0,12.0,8.0,0.0,0.0,0.0,0.0,0.0,0.10588235294117647,0.27058823529411763,0.12941176470588237,0.08235294117647059,0.25882352941176473,2.444062521692252,-2.2675393039006257,-0.5521865385890341,0.5647058823529412,0.18823529411764706,4.854610443115234,-2.0,0.3411764705882353,-0.09155659920521131,0.06382644871842462,0.10004072056753088,4.372018521603226,14.830134486377219,0.2753176598642427,0.24913306294443993,0.10024573196977302,0.2973897262879135,0.1191340756428828,-0.3915402367581269,0.18551329927216123,0.21696052838066654,-0.14531485940380118,-0.34387432361063297,0.1853930129936023,0.15089590097562056
NPHP1_HUMAN_nonidr_5,0.030303030303030304,0.010101010101010102,0.050505050505050504,0.020202020202020204,0.030303030303030304,0.030303030303030304,0.030303030303030304,0.0707070707070707,0.020202020202020204,0.18181818181818182,0.0707070707070707,0.030303030303030304,0.050505050505050504,0.06060606060606061,0.10101010101010101,0.10101010101010101,0.04040404040404041,0.050505050505050504,0.0,0.020202020202020204,1.0,0.0,0.0,0.0,0.0,0.0,0.0,1.0,0.0,2.0,0.0,1.0,0.0,0.0,5.0,-0.6931471805599453,0.0,2.0,6.0,0.0,0.0,0.0,3.0,10.0,0.09595959595959587,2.0,2.0,0.0,0.0,0.0,0.0,0.0,0.0,0.0,0.0,1.0,0.0,0.0,0.0,0.0,0.0,0.0,0.0,0.0,1.0,0.0,0.0,0.0,0.0,0.0,0.0,0.0,0.0,0.0,0.0,0.0,1.0,0.0,0.0,1.0,0.0,0.0,0.0,0.0,2.0,0.0,0.0,0.0,0.0,0.0,3.0,0.0,15.0,19.0,0.0,5.0,9.0,6.0,0.0,13.0,1.2992829841302609,12.0,10.0,0.0,13.0,20.0,10.0,0.0,2.0,2.0,1.0,0.0,0.0707070707070707,0.40404040404040403,0.050505050505050504,0.12121212121212122,0.24242424242424243,2.42749083974481,0.6453964343411112,-0.005271463143414775,0.5353535353535354,0.1919191919191919,10.373722076416016,5.0,0.30303030303030304,-1.3644396135409995,0.051344917576955765,0.0734280536952315,4.198923237019767,15.384552229080965,0.47241021330450167,0.16102036051447213,0.0547902626348999,0.2248666527526381,-0.03186669605233115,-0.35118478848721296,0.18127531383786002,0.21756414620608688,-0.08263512730306882,-0.21853516255148733,0.11965716018752495,0.3026831696807508
NPHP1_HUMAN_nonidr_6,0.0,0.03571428571428571,0.07142857142857142,0.03571428571428571,0.07142857142857142,0.0,0.07142857142857142,0.0,0.07142857142857142,0.25,0.0,0.0,0.10714285714285714,0.0,0.03571428571428571,0.07142857142857142,0.07142857142857142,0.07142857142857142,0.0,0.03571428571428571,0.0,0.0,0.0,0.0,0.0,0.0,0.0,0.0,0.0,0.0,0.0,0.0,0.0,0.0,2.0,-0.40546510810816444,0.0,1.0,2.0,0.0,0.0,0.0,0.0,5.0,0.1714285714285713,2.0,0.0,0.0,0.0,0.0,0.0,0.0,0.0,0.0,0.0,1.0,0.0,0.0,0.0,0.0,0.0,0.0,0.0,0.0,0.0,0.0,0.0,0.0,0.0,0.0,0.0,0.0,0.0,0.0,0.0,0.0,0.0,0.0,0.0,0.0,0.0,0.0,0.0,0.0,0.0,0.0,0.0,0.0,0.0,0.0,0.0,0.0,4.0,7.0,0.0,3.0,0.0,0.0,0.0,1.0,-0.40546510810816444,2.0,1.0,0.0,2.0,3.0,2.0,0.0,0.0,0.0,0.0,0.0,0.10714285714285714,0.32142857142857145,0.10714285714285714,0.10714285714285714,0.32142857142857145,1.8828854301060158,-1.7985220188627407,-1.6195058126612294,0.5357142857142857,0.21428571428571427,6.912281036376953,0.0,0.25,-0.1982371405340228,0.05889591141665591,0.076631188016165,4.264421907134623,15.626191820566081,0.4016625128534479,0.22320509113541126,0.07105766039089442,0.21501502660132898,0.024881526461546895,-0.37508279107862685,0.16517889029285598,0.1919341630059426,-0.10988429787831744,-0.3237591793952526,0.14344066942723616,0.26453097429197503
NPHP1_HUMAN_nonidr_7,0.125,0.0,0.0,0.375,0.0,0.0,0.0,0.0,0.0,0.0,0.0,0.0,0.0,0.0,0.125,0.0,0.25,0.0,0.125,0.0,0.0,0.0,0.0,0.0,0.0,0.0,0.0,0.0,0.0,0.0,0.0,0.0,0.0,0.0,0.0,1.3862943611198906,0.0,3.0,0.0,0.0,0.0,0.0,0.0,1.0,-1.9375,0.0,0.0,0.0,0.0,0.0,0.0,0.0,0.0,0.0,0.0,0.0,0.0,0.0,0.0,0.0,0.0,0.0,0.0,0.0,0.0,0.0,0.0,0.0,0.0,0.0,0.0,0.0,0.0,0.0,0.0,0.0,0.0,0.0,0.0,0.0,0.0,0.0,0.0,0.0,0.0,0.0,0.0,0.0,0.0,0.0,0.0,0.0,1.0,2.0,0.0,0.0,0.0,0.0,0.0,1.0,0.6931471805599453,1.0,1.0,0.0,0.0,1.0,0.0,0.0,0.0,0.0,0.0,0.0,0.375,0.125,0.125,0.125,0.5,1.0149620316196561,-0.43158587624288763,-2.5144742283748487,0.875,0.5,4.252620697021484,-2.0,0.25,-0.28391801973873404,0.0703267362411805,0.07160067684471783,5.0221480123565545,15.319764812645984,0.601185546935597,0.11818050806046403,0.07038614632773567,0.20707143665655223,-0.16270272082247791,-0.4579878767836348,0.30198181930651846,0.24552402193172349,-0.059299855204161,-0.09860813518594262,0.11547243891476522,0.3611395230609164
NPHP1_HUMAN_nonidr_8,0.0,0.0,0.0,0.2,0.0,0.0,0.0,0.0,0.2,0.0,0.0,0.2,0.0,0.4,0.0,0.0,0.0,0.0,0.0,0.0,0.0,0.0,0.0,0.0,0.0,0.0,0.0,0.0,0.0,0.0,0.0,0.0,0.0,0.0,0.0,0.6931471805599453,0.0,1.0,0.0,0.0,0.0,0.0,0.0,1.0,-3.5799999999999996,1.0,0.0,0.0,0.0,0.0,0.0,0.0,0.0,0.0,0.0,0.0,0.0,0.0,0.0,0.0,0.0,0.0,0.0,0.0,0.0,0.0,0.0,0.0,0.0,0.0,0.0,0.0,0.0,0.0,0.0,0.0,0.0,0.0,0.0,0.0,0.0,0.0,0.0,0.0,0.0,0.0,0.0,0.0,0.0,0.0,1.0,0.0,0.0,0.0,0.0,0.0,3.0,2.0,0.0,0.0,-0.6931471805599453,0.0,0.0,0.0,0.0,0.0,0.0,0.0,0.0,0.0,0.0,0.0,0.2,0.0,0.0,0.2,0.4,0.8188689124444203,-1.3082054216284793,-2.229842903820651,0.8,0.4,6.001392364501953,0.0,0.6,-0.4,0.12198999607881027,0.11128441823184147,5.4910736529193995,14.856460812230267,0.4075217350728064,0.07992891227187146,0.08782678118139409,0.2815953206618461,-0.014286485920421107,-0.21932287062359856,0.29037218796758885,0.36889653676093537,-0.07740772893442306,-0.09667506645541384,0.12808961686525314,0.27954591091201203
NPHP1_HUMAN_nonidr_9,0.09090909090909091,0.0,0.09090909090909091,0.09090909090909091,0.09090909090909091,0.09090909090909091,0.0,0.0,0.09090909090909091,0.09090909090909091,0.09090909090909091,0.09090909090909091,0.0,0.0,0.09090909090909091,0.0,0.0,0.09090909090909091,0.0,0.0,0.0,0.0,0.0,0.0,0.0,0.0,0.0,0.0,0.0,0.0,0.0,0.0,0.0,0.0,1.0,0.0,0.0,1.0,2.0,0.0,0.0,0.0,1.0,2.0,-0.43636363636363634,1.0,0.0,0.0,0.0,0.0,0.0,0.0,0.0,0.0,0.0,0.0,0.0,0.0,0.0,0.0,0.0,0.0,0.0,0.0,0.0,0.0,0.0,0.0,0.0,0.0,0.0,0.0,0.0,0.0,0.0,0.0,0.0,0.0,0.0,0.0,0.0,0.0,0.0,0.0,0.0,0.0,0.0,0.0,0.0,0.0,1.0,0.0,1.0,0.0,0.0,0.0,1.0,0.0,0.0,2.0,0.0,1.0,1.0,0.0,1.0,1.0,0.0,0.0,0.0,0.0,0.0,0.0,0.18181818181818182,0.36363636363636365,0.09090909090909091,0.18181818181818182,0.36363636363636365,1.5911188950794442,0.20986239021780054,-0.9527640045752296,0.5454545454545454,0.36363636363636365,6.069698333740234,0.0,0.18181818181818182,-0.47650049307179465,0.06388621873210273,0.09269397668064289,4.433998085278664,14.838755435448446,0.5197689787176608,0.13223836749674503,0.06028829534764441,0.21716916913598014,-0.20756264895639798,-0.3704741217524531,0.11928970143578102,0.2233253751276315,-0.13827391286237656,-0.31733420691379605,0.11434599103449236,0.33687023328949306
MSH4_HUMAN_nonidr_0,0.13636363636363635,0.0,0.0,0.09090909090909091,0.0,0.13636363636363635,0.045454545454545456,0.09090909090909091,0.0,0.045454545454545456,0.0,0.0,0.045454545454545456,0.0,0.09090909090909091,0.13636363636363635,0.0,0.18181818181818182,0.0,0.0,0.0,0.0,0.0,0.0,0.0,0.0,0.0,0.0,0.0,0.0,0.0,0.0,0.0,1.0,0.0,1.0986122886681098,0.0,2.0,3.0,0.0,0.0,4.0,3.0,4.0,0.4818181818181818,0.0,0.0,0.0,0.0,0.0,0.0,0.0,0.0,0.0,0.0,0.0,0.0,0.0,0.0,0.0,0.0,0.0,0.0,0.0,0.0,0.0,0.0,0.0,0.0,0.0,0.0,0.0,1.0,0.0,0.0,0.0,1.0,0.0,0.0,0.0,0.0,0.0,0.0,0.0,0.0,0.0,0.0,1.0,0.0,0.0,0.0,0.0,3.0,4.0,0.0,1.0,0.0,0.0,0.0,5.0,1.0986122886681098,2.0,2.0,0.0,6.0,5.0,3.0,0.0,0.0,0.0,0.0,0.0,0.09090909090909091,0.45454545454545453,0.0,0.09090909090909091,0.22727272727272727,1.7199276169146942,-0.2866679475882411,-0.6230890788981107,0.6818181818181818,0.18181818181818182,6.757884979248047,0.0,0.3181818181818182,-0.1317717947984707,0.04357882163877014,0.07755854678693468,3.9783413587295415,14.219498106712967,0.29144202047829065,0.30271421080369565,0.064427313346852,0.25165764259600676,0.14438166206865263,-0.43512613036859554,0.11672996702985663,0.18885562025645136,-0.03802606704077073,-0.13132585189538343,0.17859772184984068,0.20158974589859197
MSH4_HUMAN_nonidr_1,0.07386363636363637,0.022727272727272728,0.022727272727272728,0.056818181818181816,0.05113636363636364,0.03409090909090909,0.005681818181818182,0.08522727272727272,0.07386363636363637,0.10795454545454546,0.017045454545454544,0.08522727272727272,0.022727272727272728,0.056818181818181816,0.017045454545454544,0.07954545454545454,0.08522727272727272,0.05113636363636364,0.0,0.05113636363636364,0.0,0.0,0.0,0.0,0.0,1.0,0.0,1.0,0.0,1.0,3.0,1.0,0.0,2.0,4.0,0.7884573603642703,0.0,10.0,15.0,0.0,0.0,2.0,6.0,30.0,-0.024431818181818155,13.0,1.0,0.0,0.0,0.0,0.0,0.0,0.0,0.0,0.0,4.0,0.0,0.0,0.0,0.0,0.0,3.0,2.0,0.0,1.0,1.0,0.0,0.0,1.0,5.0,0.0,1.0,0.0,0.0,0.0,0.0,1.0,1.0,0.0,2.0,6.0,0.0,1.0,0.0,0.0,0.0,5.0,2.0,0.0,1.0,15.0,0.0,7.0,33.0,0.0,4.0,25.0,10.0,0.0,9.0,-1.252762968495368,12.0,3.0,0.0,20.0,17.0,14.0,0.0,0.0,1.0,0.0,0.0,0.07954545454545454,0.3352272727272727,0.10227272727272728,0.09090909090909091,0.19318181818181818,2.5901440379895693,-1.645014058691378,-1.220581020296574,0.5284090909090909,0.17045454545454544,8.318241119384766,2.0,0.3693181818181818,-0.24562574067592868,0.05705422004966696,0.07466408613566972,4.321286730056099,15.277280617288119,0.43625026000443673,0.20565262524208044,0.05956877828816364,0.23183801953036098,0.01110901878308302,-0.3333827986502201,0.2053315196858555,0.19936561677804357,-0.14392148697854434,-0.280030829355693,0.1364110655447134,0.2932120495034944
MSH4_HUMAN_nonidr_2,0.05319148936170213,0.026595744680851064,0.05851063829787234,0.06382978723404255,0.0398936170212766,0.031914893617021274,0.015957446808510637,0.10106382978723404,0.061170212765957445,0.11170212765957446,0.034574468085106384,0.0425531914893617,0.031914893617021274,0.0425531914893617,0.0425531914893617,0.0851063829787234,0.06648936170212766,0.0425531914893617,0.0026595744680851063,0.04521276595744681,0.0,0.0,0.0,0.0,0.0,0.0,0.0,0.0,0.0,1.0,0.0,4.0,0.0,1.0,22.0,0.083381608939051,0.0,24.0,27.0,0.0,0.0,6.0,12.0,55.0,-0.04920212765957456,23.0,2.0,0.0,1.0,0.0,0.0,0.0,0.0,0.0,0.0,6.0,0.0,1.0,0.0,0.0,0.0,2.0,2.0,0.0,2.0,0.0,0.0,2.0,1.0,6.0,0.0,1.0,2.0,0.0,0.0,1.0,5.0,2.0,0.0,5.0,2.0,0.0,2.0,0.0,3.0,0.0,2.0,1.0,0.0,2.0,16.0,0.0,28.0,69.0,0.0,12.0,32.0,16.0,0.0,28.0,-0.3448404862917295,33.0,16.0,6.0,44.0,48.0,32.0,0.0,0.0,1.0,0.0,0.0,0.12234042553191489,0.34308510638297873,0.08776595744680851,0.10372340425531915,0.2579787234042553,2.7436371896037235,-0.20458202442661644,0.685720973072254,0.5531914893617021,0.22606382978723405,5.526561737060547,-7.0,0.31117021276595747,-0.04959954145228739,0.05562382948176542,0.0728077844755728,4.292924715294547,15.351317795345699,0.4726207532341793,0.17565730369019258,0.056869039416018716,0.22317133501872438,-0.031677422348432266,-0.350999951523534,0.1936549950462645,0.2013470313574429,-0.1200098701394641,-0.2761429169296506,0.1283337250454642,0.3084402471322699
MSH4_HUMAN_nonidr_3,0.09090909090909091,0.0,0.045454545454545456,0.09090909090909091,0.045454545454545456,0.0,0.045454545454545456,0.13636363636363635,0.13636363636363635,0.13636363636363635,0.09090909090909091,0.09090909090909091,0.0,0.0,0.0,0.045454545454545456,0.0,0.0,0.0,0.045454545454545456,0.0,0.0,0.0,0.0,0.0,0.0,0.0,0.0,0.0,0.0,0.0,0.0,0.0,0.0,1.0,0.4054651081081644,0.0,2.0,1.0,0.0,0.0,0.0,0.0,5.0,0.027272727272727237,3.0,0.0,0.0,0.0,0.0,0.0,0.0,0.0,0.0,0.0,0.0,0.0,0.0,0.0,0.0,0.0,0.0,0.0,0.0,0.0,0.0,0.0,0.0,0.0,1.0,0.0,0.0,0.0,0.0,0.0,0.0,0.0,0.0,0.0,0.0,0.0,0.0,0.0,0.0,0.0,0.0,1.0,0.0,0.0,0.0,2.0,0.0,0.0,1.0,0.0,0.0,2.0,0.0,0.0,0.0,-1.3862943611198906,1.0,0.0,0.0,1.0,1.0,1.0,0.0,0.0,0.0,0.0,0.0,0.13636363636363635,0.45454545454545453,0.09090909090909091,0.13636363636363635,0.2727272727272727,1.8328779191777853,-1.9927921546841179,-0.7902014380858016,0.45454545454545453,0.2727272727272727,6.757404327392578,0.0,0.18181818181818182,-0.13462556384165836,0.0491339850693442,0.059468477310614366,4.095996103144268,15.367388319064705,0.5547909356978421,0.17601871239534872,0.04670200422620559,0.1764717194323172,-0.1782127035197695,-0.3464368882126099,0.18614418033090968,0.18216254615934588,-0.06752096705068641,-0.21039055360386283,0.09505819781883577,0.423495372135627
MSH4_HUMAN_nonidr_4,0.08163265306122448,0.061224489795918366,0.02040816326530612,0.10204081632653061,0.061224489795918366,0.08163265306122448,0.04081632653061224,0.061224489795918366,0.02040816326530612,0.14285714285714285,0.02040816326530612,0.061224489795918366,0.02040816326530612,0.0,0.02040816326530612,0.02040816326530612,0.08163265306122448,0.04081632653061224,0.0,0.061224489795918366,0.0,0.0,0.0,0.0,0.0,0.0,0.0,0.0,0.0,0.0,0.0,0.0,0.0,0.0,1.0,1.0986122886681098,0.0,5.0,7.0,0.0,0.0,2.0,4.0,6.0,0.3367346938775509,1.0,1.0,0.0,0.0,0.0,0.0,0.0,0.0,0.0,0.0,1.0,0.0,0.0,0.0,0.0,0.0,0.0,0.0,0.0,0.0,0.0,0.0,0.0,0.0,1.0,0.0,0.0,0.0,0.0,0.0,0.0,0.0,1.0,0.0,1.0,0.0,0.0,0.0,0.0,1.0,0.0,0.0,0.0,0.0,0.0,3.0,0.0,2.0,6.0,0.0,1.0,3.0,0.0,0.0,5.0,0.0,4.0,1.0,0.0,5.0,2.0,1.0,0.0,0.0,0.0,0.0,0.0,0.12244897959183673,0.3469387755102041,0.12244897959183673,0.04081632653061224,0.1836734693877551,2.2729354621263966,-0.6956641032680927,-0.5113203782574036,0.4897959183673469,0.16326530612244897,4.684352874755859,-4.0,0.3469387755102041,0.3915257261605718,0.05461705980346332,0.08972482905075013,4.083612901848209,15.622654566577472,0.4713062575383511,0.18060351061997262,0.05764662877783927,0.21474641958943066,-0.015657575913457403,-0.33137296747757694,0.18986035000425253,0.1909579170345297,-0.13759675297470655,-0.3080691714497141,0.13144153002925676,0.3382653947429445
MSH4_HUMAN_nonidr_5,0.047619047619047616,0.0,0.0,0.14285714285714285,0.0,0.047619047619047616,0.0,0.047619047619047616,0.14285714285714285,0.14285714285714285,0.0,0.047619047619047616,0.0,0.0,0.047619047619047616,0.09523809523809523,0.14285714285714285,0.0,0.0,0.09523809523809523,0.0,0.0,0.0,0.0,0.0,0.0,0.0,0.0,0.0,0.0,0.0,0.0,0.0,0.0,0.0,1.3862943611198906,0.0,3.0,1.0,0.0,0.0,0.0,1.0,4.0,-0.9142857142857143,3.0,0.0,0.0,0.0,0.0,0.0,0.0,0.0,0.0,0.0,0.0,0.0,0.0,0.0,0.0,0.0,0.0,0.0,0.0,0.0,0.0,0.0,0.0,1.0,1.0,0.0,0.0,0.0,0.0,0.0,0.0,0.0,0.0,0.0,1.0,0.0,0.0,0.0,0.0,0.0,0.0,0.0,0.0,0.0,0.0,1.0,0.0,1.0,5.0,0.0,0.0,1.0,0.0,0.0,2.0,-0.6931471805599453,3.0,1.0,0.0,3.0,3.0,2.0,0.0,0.0,0.0,0.0,0.0,0.14285714285714285,0.23809523809523808,0.09523809523809523,0.19047619047619047,0.3333333333333333,1.7536574600211807,-0.07693854626470238,-1.2051359848766794,0.6666666666666666,0.3333333333333333,8.378963470458984,1.0,0.3333333333333333,-0.46739380463807106,0.04874762136924031,0.07344488293989145,4.600775725648194,15.124005698391613,0.4511867009653776,0.18014724901865103,0.0627122901595274,0.23117214789609647,-0.061704257002613803,-0.3996019238412844,0.20726839736053101,0.21668482668978412,-0.15485101402272017,-0.3119522329522977,0.12236898600605754,0.3265531007744932
MSH4_HUMAN_nonidr_6,0.0,0.0,0.0,0.0,0.0,0.0,0.0,0.0,0.0,0.14285714285714285,0.0,0.0,0.2857142857142857,0.0,0.0,0.42857142857142855,0.0,0.14285714285714285,0.0,0.0,0.0,0.0,0.0,0.0,0.0,0.0,0.0,0.0,0.0,0.0,0.0,0.0,0.0,0.0,0.0,0.0,0.0,0.0,0.0,0.0,0.0,0.0,0.0,2.0,0.3428571428571428,0.0,0.0,0.0,0.0,0.0,0.0,0.0,0.0,0.0,0.0,0.0,0.0,0.0,0.0,0.0,0.0,0.0,0.0,0.0,0.0,0.0,0.0,0.0,0.0,0.0,0.0,0.0,0.0,0.0,0.0,0.0,0.0,0.0,0.0,0.0,0.0,0.0,0.0,0.0,0.0,0.0,0.0,0.0,0.0,0.0,0.0,0.0,2.0,5.0,0.0,2.0,0.0,0.0,0.0,0.0,0.0,0.0,0.0,0.0,3.0,3.0,3.0,0.0,0.0,0.0,0.0,0.0,0.0,0.2857142857142857,0.0,0.0,0.2857142857142857,0.8628935301824878,nan,-1.141630912416172,0.7142857142857143,0.0,5.525012969970703,0.0,0.42857142857142855,0.0,0.04672142997300911,0.04356949183757721,4.748666130314558,13.445997755051707,0.1862483569213837,0.11353645924078992,0.18201946844500871,0.4148473410317486,0.10137138142565849,-0.1994035888010043,0.17457758655506447,0.1717773247479801,-0.06972400866555864,-0.18229518808443934,0.18832762437927258,0.08588977600650505
MSH4_HUMAN_nonidr_7,0.04,0.0,0.04,0.10666666666666667,0.013333333333333334,0.0,0.013333333333333334,0.05333333333333334,0.08,0.09333333333333334,0.013333333333333334,0.04,0.05333333333333334,0.10666666666666667,0.10666666666666667,0.05333333333333334,0.10666666666666667,0.04,0.0,0.04,0.0,0.0,0.0,0.0,0.0,0.0,0.0,0.0,0.0,0.0,0.0,0.0,0.0,1.0,3.0,0.8109302162163288,0.0,8.0,1.0,0.0,0.0,0.0,0.0,13.0,-1.2186666666666668,6.0,1.0,0.0,0.0,0.0,0.0,0.0,0.0,0.0,0.0,0.0,0.0,0.0,0.0,0.0,0.0,0.0,0.0,0.0,0.0,0.0,0.0,0.0,0.0,1.0,0.0,0.0,0.0,0.0,0.0,0.0,0.0,1.0,0.0,2.0,0.0,0.0,2.0,0.0,1.0,0.0,0.0,1.0,0.0,0.0,3.0,0.0,12.0,16.0,0.0,4.0,11.0,8.0,0.0,8.0,0.25131442828090617,11.0,8.0,0.0,4.0,12.0,4.0,0.0,0.0,0.0,0.0,0.0,0.14666666666666667,0.24,0.05333333333333334,0.18666666666666668,0.38666666666666666,2.3449949225131004,-0.8098547552459702,-2.2973653562080023,0.7066666666666667,0.3333333333333333,9.45279312133789,3.0,0.32,-0.4316335407260118,0.06829314612207363,0.07094916306141437,4.724635507253575,15.453652465477303,0.5165472885221265,0.1319817511795391,0.0689476171480649,0.22351113710489212,-0.19359189439662722,-0.33729090030483855,0.21527791663756138,0.22429368305546082,-0.1229276862664238,-0.22663988156339143,0.11218320148086973,0.352381606225027
RRP8_HUMAN_nonidr_0,0.0625,0.0,0.0,0.0625,0.125,0.0625,0.0625,0.0,0.0625,0.125,0.0,0.0,0.0625,0.125,0.0625,0.0625,0.0,0.0625,0.0,0.0625,0.0,0.0,0.0,0.0,0.0,0.0,0.0,0.0,0.0,0.0,0.0,0.0,0.0,0.0,0.0,0.6931471805599453,0.0,1.0,3.0,0.0,0.0,2.0,1.0,3.0,-0.4375000000000001,1.0,0.0,0.0,0.0,0.0,0.0,0.0,0.0,0.0,0.0,0.0,0.0,0.0,0.0,0.0,0.0,0.0,0.0,0.0,0.0,0.0,0.0,0.0,0.0,0.0,0.0,0.0,0.0,0.0,0.0,0.0,0.0,0.0,0.0,0.0,0.0,0.0,1.0,0.0,0.0,0.0,0.0,0.0,0.0,0.0,0.0,0.0,2.0,2.0,0.0,1.0,2.0,2.0,0.0,2.0,0.0,2.0,1.0,0.0,2.0,2.0,1.0,0.0,0.0,0.0,0.0,0.0,0.0625,0.25,0.1875,0.125,0.25,1.7870261602750523,-1.295762569345747,-2.410241973878692,0.625,0.1875,8.597286224365234,1.0,0.3125,-0.23385358667337136,0.10346842344683452,0.13154212635130455,4.43981048309097,15.894428449198198,0.4738602980362013,0.1971172623601937,0.06345790004396455,0.21246167916091777,-0.002053754205088249,-0.33369127538655274,0.17383251511088602,0.21907705196852575,-0.2230600222219617,-0.4677517794772507,0.13387410018146517,0.31384839920647867
RRP8_HUMAN_nonidr_1,0.06535947712418301,0.0392156862745098,0.0718954248366013,0.0392156862745098,0.0718954248366013,0.058823529411764705,0.013071895424836602,0.0196078431372549,0.05228758169934641,0.13071895424836602,0.013071895424836602,0.026143790849673203,0.058823529411764705,0.0392156862745098,0.0784313725490196,0.0718954248366013,0.0392156862745098,0.10457516339869281,0.0,0.006535947712418301,0.0,0.0,0.0,0.0,0.0,0.0,1.0,0.0,0.0,2.0,1.0,1.0,0.0,0.0,11.0,-0.5389965007326869,0.0,6.0,20.0,0.0,0.0,2.0,9.0,27.0,0.0385620915032679,8.0,3.0,0.0,0.0,0.0,0.0,0.0,0.0,0.0,0.0,1.0,0.0,0.0,0.0,0.0,0.0,1.0,0.0,0.0,0.0,0.0,0.0,0.0,0.0,0.0,0.0,0.0,0.0,0.0,0.0,0.0,0.0,1.0,0.0,2.0,0.0,0.0,0.0,0.0,1.0,1.0,1.0,0.0,0.0,0.0,4.0,0.0,21.0,26.0,0.0,9.0,10.0,6.0,0.0,21.0,0.36772478012531734,13.0,12.0,0.0,20.0,23.0,11.0,0.0,1.0,1.0,0.0,0.0,0.1111111111111111,0.3333333333333333,0.0784313725490196,0.13071895424836602,0.3006535947712418,2.5529693240760762,0.6930797940019596,0.669671586968023,0.5882352941176471,0.24183006535947713,8.605670928955078,3.0,0.2875816993464052,-1.1630387344118454,0.05875808342495473,0.0792888146605514,4.357825118515543,14.936964916911593,0.3609452620448459,0.21899492591535863,0.07569774495669457,0.26085442156442695,0.022310770869242665,-0.38598863818017437,0.1853647999397664,0.2042701654559991,-0.11560508213297774,-0.2603575298866008,0.15803342734938838,0.22150569716096224
U3IP2_HUMAN_nonidr_0,0.075,0.05,0.075,0.025,0.025,0.05,0.025,0.1,0.075,0.1,0.0,0.0,0.025,0.025,0.05,0.15,0.05,0.075,0.025,0.0,0.0,0.0,0.0,0.0,0.0,0.0,0.0,0.0,0.0,0.0,0.0,0.0,0.0,1.0,3.0,-0.6931471805599453,0.0,1.0,3.0,0.0,0.0,2.0,2.0,7.0,0.20249999999999999,3.0,0.0,0.0,0.0,0.0,0.0,0.0,0.0,0.0,0.0,0.0,0.0,0.0,0.0,0.0,0.0,0.0,0.0,0.0,0.0,0.0,0.0,0.0,0.0,0.0,0.0,0.0,0.0,0.0,0.0,0.0,1.0,0.0,0.0,1.0,0.0,0.0,0.0,0.0,0.0,0.0,2.0,1.0,0.0,0.0,0.0,0.0,3.0,9.0,0.0,1.0,1.0,1.0,0.0,4.0,-0.2876820724517809,2.0,2.0,0.0,8.0,8.0,6.0,0.0,0.0,0.0,0.0,0.0,0.1,0.35,0.05,0.125,0.25,2.1861413560724845,-0.887746158137991,-0.466021951661057,0.625,0.225,8.042987823486328,1.0,0.35,-0.30905214510404583,0.046607004015325866,0.07747515354604889,4.362419293796575,14.719435538985788,0.34499279591462356,0.27202135936528105,0.06577789488742769,0.2530689372960181,0.05223731950194424,-0.430958459040979,0.2255217517317834,0.21022825436328083,-0.0963216838630117,-0.23974135985121256,0.16254810881165352,0.21121521960139192
U3IP2_HUMAN_nonidr_1,0.08974358974358974,0.02564102564102564,0.0641025641025641,0.05128205128205128,0.02564102564102564,0.08974358974358974,0.05128205128205128,0.04487179487179487,0.038461538461538464,0.09615384615384616,0.01282051282051282,0.019230769230769232,0.01282051282051282,0.038461538461538464,0.057692307692307696,0.10256410256410256,0.04487179487179487,0.07692307692307693,0.02564102564102564,0.03205128205128205,0.0,0.0,0.0,0.0,0.0,0.0,0.0,0.0,0.0,1.0,0.0,2.0,0.0,0.0,10.0,-0.2006706954621511,0.0,8.0,18.0,0.0,0.0,4.0,14.0,22.0,-0.20192307692307687,6.0,0.0,0.0,0.0,0.0,0.0,0.0,0.0,0.0,0.0,0.0,0.0,0.0,0.0,0.0,0.0,0.0,0.0,0.0,0.0,0.0,0.0,0.0,0.0,3.0,0.0,1.0,1.0,0.0,0.0,0.0,0.0,1.0,0.0,3.0,0.0,0.0,1.0,1.0,1.0,0.0,3.0,0.0,0.0,1.0,3.0,0.0,11.0,25.0,0.0,2.0,9.0,6.0,0.0,23.0,0.3566749439387324,14.0,9.0,0.0,30.0,25.0,16.0,0.0,1.0,3.0,0.0,0.0,0.11538461538461539,0.32051282051282054,0.08333333333333333,0.09615384615384616,0.22435897435897437,2.6247254579168375,-0.5716767521913101,-1.570127368331172,0.6410256410256411,0.21153846153846154,6.233760833740234,-3.0,0.3717948717948718,-0.5006733873656167,0.07156691023096994,0.1047752690430616,4.488579377716426,14.974155482772117,0.33701942715419997,0.2639321333883532,0.06675436138958289,0.26541112960843455,0.07399855149020722,-0.4356393942496636,0.21414678486180935,0.23897475842096874,-0.11786352475632286,-0.28574793299553924,0.16899941400020785,0.21201654455738772
U3IP2_HUMAN_nonidr_2,0.06542056074766354,0.037383177570093455,0.037383177570093455,0.04672897196261682,0.04672897196261682,0.102803738317757,0.018691588785046728,0.056074766355140186,0.018691588785046728,0.12149532710280374,0.0,0.028037383177570093,0.06542056074766354,0.037383177570093455,0.07476635514018691,0.102803738317757,0.018691588785046728,0.08411214953271028,0.037383177570093455,0.0,0.0,0.0,0.0,0.0,0.0,0.0,0.0,0.0,0.0,1.0,0.0,2.0,0.0,0.0,4.0,0.1823215567939546,0.0,5.0,16.0,0.0,0.0,0.0,11.0,16.0,0.14205607476635515,2.0,1.0,0.0,0.0,0.0,0.0,0.0,0.0,0.0,0.0,0.0,0.0,0.0,0.0,0.0,0.0,0.0,0.0,0.0,0.0,0.0,0.0,0.0,0.0,0.0,0.0,0.0,0.0,0.0,0.0,0.0,1.0,0.0,0.0,2.0,0.0,0.0,0.0,0.0,1.0,0.0,0.0,0.0,0.0,0.0,3.0,0.0,15.0,20.0,0.0,7.0,7.0,4.0,0.0,19.0,1.0986122886681098,8.0,8.0,0.0,22.0,19.0,11.0,0.0,1.0,1.0,0.0,0.0,0.08411214953271028,0.32710280373831774,0.08411214953271028,0.09345794392523364,0.24299065420560748,2.4812862931970927,0.028755181421835908,-0.6971213565701291,0.5887850467289719,0.17757009345794392,7.900127410888672,1.0,0.34579439252336447,-1.0029098890194084,0.06654035814101279,0.0996575165500639,4.423437367144103,14.799470617473292,0.32360991852881754,0.23562407760333437,0.0845669793594581,0.2786879320972329,0.11168034626364677,-0.4083556504658007,0.15537711682454572,0.23223897620055417,-0.13368596631558735,-0.29385381849555686,0.17631767021645037,0.1881910578302805
PGRP1_HUMAN_nonidr_0,0.15384615384615385,0.0,0.038461538461538464,0.07692307692307693,0.0,0.038461538461538464,0.0,0.0,0.0,0.23076923076923078,0.07692307692307693,0.0,0.038461538461538464,0.038461538461538464,0.11538461538461539,0.11538461538461539,0.038461538461538464,0.0,0.038461538461538464,0.0,0.0,0.0,0.0,0.0,0.0,0.0,0.0,0.0,0.0,0.0,0.0,0.0,0.0,0.0,1.0,0.4054651081081644,0.0,2.0,1.0,0.0,0.0,0.0,1.0,5.0,0.011538461538461416,0.0,1.0,0.0,0.0,0.0,0.0,0.0,0.0,0.0,0.0,0.0,0.0,0.0,0.0,0.0,0.0,0.0,0.0,0.0,0.0,0.0,0.0,0.0,0.0,0.0,0.0,0.0,0.0,0.0,0.0,0.0,1.0,0.0,0.0,0.0,0.0,0.0,0.0,0.0,1.0,0.0,0.0,0.0,0.0,0.0,0.0,0.0,4.0,5.0,0.0,1.0,1.0,1.0,0.0,4.0,1.3862943611198906,3.0,3.0,0.0,4.0,6.0,3.0,0.0,0.0,1.0,0.0,0.0,0.11538461538461539,0.46153846153846156,0.038461538461538464,0.11538461538461539,0.2692307692307692,1.7897916699641523,0.6850319641211279,-1.434179670061429,0.6538461538461539,0.23076923076923078,6.182811737060547,0.0,0.23076923076923078,-0.8990275950694284,0.04641369089146233,0.08083523228786293,4.201178967929834,15.237384760335269,0.5809257558476565,0.1027332397117779,0.05123867646342106,0.18451928803118292,-0.14152457608049207,-0.2963276729064433,0.1534543505915476,0.19421350593461795,-0.07424765091037223,-0.23016285839155567,0.09269728642800311,0.4302350540755973
PGRP1_HUMAN_nonidr_1,0.11764705882352941,0.029411764705882353,0.0,0.058823529411764705,0.0,0.029411764705882353,0.058823529411764705,0.029411764705882353,0.029411764705882353,0.11764705882352941,0.0,0.029411764705882353,0.058823529411764705,0.029411764705882353,0.058823529411764705,0.14705882352941177,0.029411764705882353,0.11764705882352941,0.029411764705882353,0.029411764705882353,0.0,0.0,0.0,0.0,0.0,0.0,0.0,0.0,0.0,0.0,0.0,0.0,0.0,0.0,0.0,1.0986122886681098,0.0,2.0,1.0,0.0,0.0,0.0,1.0,7.0,0.07058823529411758,1.0,0.0,0.0,0.0,0.0,0.0,0.0,0.0,0.0,0.0,0.0,0.0,0.0,0.0,0.0,0.0,0.0,0.0,0.0,0.0,0.0,0.0,0.0,0.0,1.0,0.0,0.0,0.0,0.0,0.0,0.0,0.0,0.0,0.0,1.0,0.0,0.0,0.0,0.0,0.0,0.0,0.0,0.0,0.0,0.0,1.0,0.0,4.0,8.0,0.0,2.0,2.0,1.0,0.0,3.0,0.4054651081081644,3.0,2.0,0.0,6.0,7.0,5.0,0.0,0.0,0.0,0.0,0.0,0.058823529411764705,0.38235294117647056,0.058823529411764705,0.08823529411764706,0.20588235294117646,2.102546634886236,-1.4126178571128551,0.17129141062784692,0.6176470588235294,0.14705882352941177,8.215007781982422,1.0,0.35294117647058826,-0.07271308197703936,0.053166366140002336,0.09040854356866929,4.324122729412013,15.141270759461598,0.4162776706758276,0.2207082457570676,0.061657683070355365,0.23043972414335767,0.0020262341786720095,-0.36752298956074303,0.16706981572645246,0.21667708349947568,-0.09123110290512974,-0.25321447977733785,0.1484578874337989,0.2931224619172786
PGRP1_HUMAN_nonidr_2,0.08045977011494253,0.022988505747126436,0.034482758620689655,0.022988505747126436,0.034482758620689655,0.14942528735632185,0.04597701149425287,0.04597701149425287,0.011494252873563218,0.08045977011494253,0.04597701149425287,0.05747126436781609,0.034482758620689655,0.04597701149425287,0.04597701149425287,0.04597701149425287,0.034482758620689655,0.06896551724137931,0.034482758620689655,0.05747126436781609,0.0,0.0,0.0,0.0,0.0,0.0,0.0,0.0,0.0,0.0,1.0,0.0,0.0,1.0,3.0,-0.2876820724517809,0.0,2.0,16.0,0.0,0.0,2.0,13.0,11.0,-0.05517241379310347,1.0,0.0,0.0,0.0,0.0,0.0,0.0,0.0,0.0,0.0,1.0,0.0,0.0,0.0,0.0,0.0,0.0,0.0,0.0,1.0,0.0,0.0,0.0,0.0,0.0,0.0,0.0,0.0,0.0,0.0,0.0,0.0,0.0,1.0,2.0,1.0,0.0,0.0,0.0,0.0,0.0,0.0,1.0,0.0,0.0,5.0,0.0,7.0,10.0,0.0,3.0,9.0,4.0,0.0,17.0,0.9162907318741551,9.0,4.0,0.0,17.0,8.0,4.0,0.0,0.0,0.0,0.0,0.0,0.05747126436781609,0.3218390804597701,0.12643678160919541,0.05747126436781609,0.14942528735632185,2.523180698890717,-0.21439240301744286,-0.11847879684629668,0.5517241379310345,0.11494252873563218,7.076290130615234,0.0,0.40229885057471265,-0.3596298814634189,0.09189971078023257,0.13623257131120878,4.4470441507194165,15.054391179644055,0.3073318951064121,0.2551487877370843,0.10664220988070394,0.2707958951457704,0.12441495508657906,-0.4144501832538098,0.16616178937644602,0.26094763903952317,-0.1669484917013785,-0.39022120829218304,0.18740619851628862,0.18736258694016772
PGRP1_HUMAN_nonidr_3,0.0,0.0,0.0,0.0,0.0,0.05263157894736842,0.10526315789473684,0.05263157894736842,0.0,0.10526315789473684,0.0,0.10526315789473684,0.15789473684210525,0.10526315789473684,0.05263157894736842,0.10526315789473684,0.0,0.0,0.05263157894736842,0.10526315789473684,0.0,0.0,0.0,0.0,0.0,0.0,0.0,0.0,0.0,0.0,0.0,0.0,0.0,0.0,0.0,0.0,0.0,0.0,1.0,0.0,0.0,0.0,1.0,3.0,-1.2157894736842105,0.0,0.0,0.0,0.0,0.0,0.0,0.0,0.0,0.0,0.0,0.0,0.0,0.0,0.0,0.0,0.0,0.0,0.0,0.0,1.0,0.0,0.0,0.0,0.0,0.0,0.0,0.0,0.0,0.0,0.0,0.0,0.0,0.0,0.0,0.0,0.0,0.0,0.0,0.0,0.0,0.0,0.0,0.0,0.0,0.0,2.0,0.0,4.0,5.0,0.0,3.0,4.0,2.0,0.0,2.0,0.6931471805599453,3.0,1.0,0.0,3.0,3.0,2.0,0.0,0.0,1.0,0.0,0.0,0.0,0.15789473684210525,0.15789473684210525,0.05263157894736842,0.21052631578947367,1.7573285070848301,nan,-0.8384784420043665,0.5789473684210527,0.05263157894736842,8.604175567626953,1.0,0.47368421052631576,0.0,0.12010510770548498,0.13598655689709835,4.833090655402692,16.062547305623784,0.3430464538973109,0.16521759445887343,0.11061753730774432,0.29239674633030016,0.07515778453444469,-0.31838986597828806,0.19252299284919605,0.2932981817520138,-0.2842352370540744,-0.4655758390988251,0.1689195360945142,0.19677318949316172
RPP40_HUMAN_nonidr_0,0.07692307692307693,0.0,0.0,0.07692307692307693,0.0,0.0,0.07692307692307693,0.0,0.0,0.3076923076923077,0.0,0.0,0.07692307692307693,0.0,0.3076923076923077,0.0,0.0,0.07692307692307693,0.0,0.0,0.0,0.0,0.0,0.0,0.0,0.0,0.0,0.0,0.0,0.0,0.0,1.0,0.0,0.0,0.0,0.6931471805599453,0.0,1.0,0.0,0.0,0.0,0.0,0.0,2.0,-0.39230769230769236,0.0,0.0,0.0,0.0,0.0,0.0,0.0,0.0,0.0,0.0,0.0,0.0,0.0,0.0,0.0,0.0,0.0,0.0,0.0,0.0,0.0,0.0,0.0,0.0,0.0,0.0,0.0,0.0,0.0,0.0,0.0,0.0,0.0,0.0,0.0,0.0,0.0,0.0,0.0,0.0,0.0,0.0,0.0,0.0,0.0,0.0,0.0,5.0,1.0,0.0,1.0,0.0,0.0,0.0,4.0,1.6094379124341003,4.0,4.0,0.0,0.0,4.0,0.0,0.0,1.0,0.0,0.0,0.0,0.07692307692307693,0.46153846153846156,0.0,0.3076923076923077,0.46153846153846156,1.2458504763405793,-1.0134270383981283,-1.430435640545744,0.6153846153846154,0.38461538461538464,12.00003433227539,3.0,0.07692307692307693,0.3674926006655375,0.07768683722529307,0.09927976186671686,4.820303994518285,15.972426395727023,0.5632578049384148,0.14340708058603283,0.04922650132682902,0.16470899054528465,-0.2555035765880132,-0.4787655733442463,0.10751089146733693,0.2593654245526997,-0.07726201706328718,-0.22343263059033136,0.10435119615961201,0.41485395088663607
RPP40_HUMAN_nonidr_1,0.0,0.0,0.0,0.0,0.16666666666666666,0.16666666666666666,0.16666666666666666,0.0,0.16666666666666666,0.0,0.0,0.3333333333333333,0.0,0.0,0.0,0.0,0.0,0.0,0.0,0.0,0.0,0.0,0.0,0.0,0.0,0.0,0.0,0.0,0.0,0.0,0.0,0.0,0.0,0.0,0.0,0.0,0.0,0.0,2.0,0.0,0.0,2.0,1.0,1.0,-1.95,1.0,0.0,0.0,0.0,0.0,0.0,0.0,0.0,0.0,0.0,0.0,0.0,0.0,0.0,0.0,0.0,0.0,0.0,0.0,0.0,0.0,0.0,0.0,0.0,0.0,0.0,0.0,0.0,0.0,0.0,0.0,0.0,0.0,0.0,0.0,0.0,0.0,0.0,0.0,0.0,0.0,0.0,0.0,0.0,0.0,2.0,0.0,0.0,0.0,0.0,0.0,2.0,0.0,0.0,1.0,-0.6931471805599453,0.0,0.0,0.0,1.0,0.0,0.0,0.0,0.0,0.0,0.0,0.0,0.0,0.0,0.16666666666666666,0.16666666666666666,0.16666666666666666,0.9810173385750263,nan,nan,0.5,0.16666666666666666,8.75723648071289,1.0,0.6666666666666666,0.0,0.13257433593989226,0.18286247156775937,4.9087804422939,14.388530024940737,0.23438967992649473,0.1359889276608992,0.14056634043391983,0.40674903474847846,0.09652070083544574,-0.2583061542960966,0.26744078896465384,0.2702825690890352,-0.2794790293646318,-0.481768355983859,0.18896653116148765,0.12366380105929453
RPP40_HUMAN_nonidr_2,0.021739130434782608,0.021739130434782608,0.043478260869565216,0.06521739130434782,0.043478260869565216,0.043478260869565216,0.03260869565217391,0.07608695652173914,0.06521739130434782,0.15217391304347827,0.010869565217391304,0.07608695652173914,0.05434782608695652,0.010869565217391304,0.010869565217391304,0.05434782608695652,0.08695652173913043,0.05434782608695652,0.0,0.07608695652173914,0.0,0.0,0.0,0.0,0.0,1.0,0.0,0.0,0.0,0.0,1.0,0.0,1.0,1.0,4.0,0.3364722366212129,0.0,6.0,8.0,0.0,0.0,0.0,4.0,13.0,-0.015217391304347927,6.0,1.0,0.0,0.0,0.0,0.0,0.0,0.0,0.0,0.0,1.0,0.0,0.0,0.0,0.0,0.0,0.0,0.0,0.0,0.0,1.0,0.0,0.0,1.0,1.0,0.0,1.0,1.0,0.0,0.0,0.0,0.0,0.0,0.0,0.0,0.0,0.0,0.0,1.0,1.0,0.0,1.0,1.0,0.0,1.0,7.0,0.0,6.0,18.0,2.0,5.0,8.0,1.0,0.0,5.0,-1.252762968495368,8.0,1.0,0.0,9.0,6.0,5.0,0.0,0.0,2.0,0.0,0.0,0.10869565217391304,0.31521739130434784,0.11956521739130435,0.07608695652173914,0.2391304347826087,2.451965071318879,-0.31410710009573495,-1.168985727395568,0.4891304347826087,0.18478260869565216,5.456439971923828,-3.0,0.32608695652173914,-0.06129560236334481,0.06942718024521376,0.08372662573308878,4.446361415899318,15.275465072413132,0.3282119109270341,0.24627468655342,0.07124514832910477,0.2673920693108214,0.12555008355426825,-0.3758284860249966,0.19995329316418373,0.20734148869711674,-0.1649984633073893,-0.3224170198187662,0.1686311384517731,0.18486004965279512
RPP40_HUMAN_nonidr_3,0.01639344262295082,0.0,0.04918032786885246,0.08196721311475409,0.08196721311475409,0.03278688524590164,0.01639344262295082,0.06557377049180328,0.14754098360655737,0.11475409836065574,0.06557377049180328,0.01639344262295082,0.01639344262295082,0.01639344262295082,0.03278688524590164,0.14754098360655737,0.03278688524590164,0.01639344262295082,0.03278688524590164,0.01639344262295082,0.0,0.0,0.0,0.0,0.0,0.0,0.0,1.0,0.0,2.0,2.0,0.0,0.0,0.0,3.0,0.4054651081081644,0.0,5.0,7.0,0.0,0.0,0.0,2.0,11.0,-0.39672131147540984,9.0,1.0,0.0,0.0,0.0,0.0,0.0,0.0,0.0,0.0,1.0,0.0,0.0,0.0,0.0,0.0,0.0,0.0,0.0,0.0,0.0,1.0,0.0,0.0,0.0,0.0,1.0,1.0,0.0,0.0,0.0,2.0,2.0,0.0,1.0,0.0,0.0,0.0,0.0,1.0,0.0,2.0,0.0,0.0,1.0,1.0,0.0,3.0,12.0,0.0,1.0,2.0,1.0,0.0,4.0,-1.2039728043259361,3.0,2.0,0.0,11.0,11.0,9.0,0.0,0.0,0.0,0.0,0.0,0.13114754098360656,0.2786885245901639,0.13114754098360656,0.18032786885245902,0.32786885245901637,2.2641769119489954,-0.5695569134663422,-1.4666600028820032,0.5901639344262295,0.3114754098360656,9.400081634521484,3.0,0.26229508196721313,-0.267876788639771,0.06366787361190142,0.08064465196394349,4.461643073864294,15.259968197163555,0.43735050250788654,0.1954405420688957,0.06514652286755056,0.24193711803148246,-0.01843340476545904,-0.3974892065184212,0.19665394097652622,0.19754306619712392,-0.23790226509741713,-0.359144309036617,0.134112136908511,0.2789717941749819
RPP40_HUMAN_nonidr_4,0.05555555555555555,0.05555555555555555,0.03968253968253968,0.07936507936507936,0.047619047619047616,0.031746031746031744,0.023809523809523808,0.03968253968253968,0.03968253968253968,0.1349206349206349,0.0,0.03968253968253968,0.07936507936507936,0.047619047619047616,0.015873015873015872,0.07936507936507936,0.05555555555555555,0.07936507936507936,0.023809523809523808,0.031746031746031744,0.0,0.0,0.0,0.0,0.0,0.0,0.0,1.0,0.0,0.0,0.0,0.0,2.0,2.0,5.0,0.6061358035703155,0.0,10.0,10.0,0.0,0.0,0.0,4.0,22.0,0.0674603174603174,5.0,0.0,0.0,0.0,0.0,0.0,0.0,0.0,0.0,0.0,1.0,0.0,0.0,0.0,0.0,0.0,0.0,0.0,0.0,0.0,0.0,0.0,0.0,0.0,3.0,0.0,0.0,0.0,0.0,0.0,0.0,0.0,1.0,0.0,1.0,0.0,0.0,0.0,0.0,0.0,0.0,0.0,2.0,0.0,1.0,5.0,0.0,12.0,27.0,0.0,10.0,11.0,6.0,0.0,6.0,-0.6931471805599453,6.0,2.0,0.0,14.0,12.0,10.0,0.0,0.0,1.0,1.0,0.0,0.11904761904761904,0.30952380952380953,0.10317460317460317,0.05555555555555555,0.25396825396825395,2.573569921717015,-1.1999653815879803,-1.0924642354798415,0.5476190476190477,0.1746031746031746,4.625766754150391,-8.0,0.3333333333333333,1.0562041759111942,0.06927945434252818,0.0783253348300495,4.402187860988398,15.037871001621042,0.3659450479696404,0.19983758908629864,0.08999319164255941,0.2642398257369767,0.09630469609344046,-0.337456940788934,0.17789995800781697,0.19718152393866265,-0.12368961659001439,-0.2849285142552507,0.158657678551501,0.2254056329979462
RPP40_HUMAN_nonidr_5,0.05714285714285714,0.02857142857142857,0.05714285714285714,0.02857142857142857,0.08571428571428572,0.11428571428571428,0.08571428571428572,0.02857142857142857,0.02857142857142857,0.05714285714285714,0.02857142857142857,0.11428571428571428,0.05714285714285714,0.05714285714285714,0.02857142857142857,0.0,0.0,0.05714285714285714,0.02857142857142857,0.05714285714285714,0.0,0.0,0.0,0.0,0.0,0.0,0.0,0.0,0.0,0.0,0.0,0.0,0.0,0.0,2.0,-0.40546510810816444,0.0,1.0,7.0,0.0,0.0,0.0,4.0,5.0,-0.5971428571428573,1.0,0.0,0.0,0.0,0.0,0.0,1.0,0.0,0.0,0.0,1.0,0.0,0.0,0.0,0.0,0.0,1.0,1.0,0.0,1.0,0.0,0.0,0.0,0.0,0.0,0.0,0.0,0.0,0.0,0.0,0.0,0.0,0.0,0.0,0.0,0.0,0.0,0.0,0.0,0.0,0.0,0.0,0.0,0.0,0.0,4.0,0.0,3.0,2.0,0.0,2.0,6.0,2.0,0.0,5.0,0.0,3.0,1.0,0.0,4.0,1.0,0.0,0.0,0.0,0.0,0.0,0.0,0.08571428571428572,0.22857142857142856,0.17142857142857143,0.05714285714285714,0.2,2.2098433925890135,-0.3957470870780005,-0.5687092716919051,0.5142857142857142,0.14285714285714285,6.262973785400391,-1.0,0.4,-0.2663899474648525,0.10641592566565353,0.13384091087446,4.4613245970967235,15.528828210756876,0.3086167609881466,0.22929105598556454,0.08613982733975174,0.2826573527432883,0.07828835643533405,-0.369997164785307,0.18319917224428908,0.2525095204670655,-0.20952103937461322,-0.4691369845193642,0.17504836946132699,0.19895661123885697
PIAS1_HUMAN_nonidr_0,0.0,0.0,0.0,0.09090909090909091,0.0,0.0,0.0,0.0,0.0,0.18181818181818182,0.09090909090909091,0.0,0.0,0.09090909090909091,0.09090909090909091,0.18181818181818182,0.0,0.2727272727272727,0.0,0.0,0.0,0.0,0.0,0.0,0.0,0.0,0.0,0.0,0.0,0.0,0.0,0.0,0.0,0.0,0.0,0.6931471805599453,0.0,1.0,0.0,0.0,0.0,0.0,0.0,0.0,0.8181818181818183,0.0,1.0,0.0,0.0,0.0,0.0,0.0,0.0,0.0,0.0,0.0,0.0,0.0,0.0,0.0,0.0,0.0,0.0,0.0,0.0,0.0,0.0,0.0,0.0,0.0,0.0,0.0,0.0,0.0,0.0,0.0,0.0,0.0,0.0,0.0,0.0,0.0,0.0,0.0,1.0,0.0,0.0,0.0,0.0,0.0,0.0,0.0,1.0,2.0,0.0,0.0,1.0,1.0,0.0,1.0,0.6931471805599453,1.0,1.0,0.0,2.0,3.0,2.0,0.0,0.0,0.0,0.0,0.0,0.09090909090909091,0.5454545454545454,0.0,0.09090909090909091,0.18181818181818182,1.3022049105023583,-0.9627406736630196,-0.3913522967563138,0.45454545454545453,0.18181818181818182,6.002140045166016,0.0,0.2727272727272727,-0.15745916432444337,0.03931355295682854,0.06128696562118188,4.0930436235821865,15.543118137039816,0.46873554632731346,0.27537046834633266,0.04495276169343718,0.14977958802703256,0.042157486154130994,-0.4458485800581171,0.18016935860927358,0.21965070481525528,-0.04051411359914538,-0.1455936793101282,0.11850843264016829,0.34562508381757406
PIAS1_HUMAN_nonidr_1,0.14285714285714285,0.07142857142857142,0.0,0.0,0.0,0.07142857142857142,0.0,0.07142857142857142,0.14285714285714285,0.14285714285714285,0.07142857142857142,0.0,0.07142857142857142,0.07142857142857142,0.0,0.07142857142857142,0.0,0.07142857142857142,0.0,0.0,0.0,0.0,0.0,0.0,0.0,0.0,0.0,1.0,0.0,0.0,0.0,0.0,0.0,1.0,0.0,0.0,0.0,0.0,1.0,0.0,0.0,0.0,1.0,5.0,0.7285714285714286,2.0,0.0,0.0,0.0,0.0,0.0,0.0,0.0,0.0,0.0,0.0,0.0,0.0,0.0,0.0,0.0,0.0,0.0,0.0,0.0,0.0,0.0,0.0,0.0,0.0,0.0,0.0,0.0,0.0,0.0,0.0,0.0,0.0,0.0,0.0,0.0,0.0,0.0,0.0,0.0,0.0,0.0,1.0,0.0,0.0,0.0,0.0,1.0,2.0,0.0,1.0,1.0,1.0,0.0,1.0,-1.0986122886681098,0.0,0.0,0.0,2.0,1.0,1.0,0.0,0.0,0.0,0.0,0.0,0.0,0.5,0.0,0.14285714285714285,0.21428571428571427,1.650841402932775,-1.5240695738199164,-0.12813707052213189,0.5714285714285714,0.14285714285714285,9.314098358154297,2.0,0.2857142857142857,0.22587697572631282,0.02907232577859563,0.05608845257223986,4.209117320909734,13.993981102834889,0.4330171884459042,0.16419282744337302,0.07046107095301869,0.25334363586177394,-0.03191189179547697,-0.34680629438477406,0.11793399113560743,0.16887576231013432,-0.04930429458865381,-0.15641975608156877,0.13854392447630523,0.2627801794757432
PIAS1_HUMAN_nonidr_2,0.0,0.0,0.0,0.0,0.3333333333333333,0.0,0.0,0.0,0.0,0.0,0.0,0.0,0.3333333333333333,0.0,0.3333333333333333,0.0,0.0,0.0,0.0,0.0,0.0,0.0,0.0,0.0,0.0,0.0,0.0,0.0,0.0,0.0,0.0,0.0,0.0,0.0,0.0,0.0,0.0,0.0,1.0,0.0,0.0,0.0,0.0,1.0,-1.1,0.0,0.0,0.0,0.0,0.0,0.0,0.0,0.0,0.0,0.0,0.0,0.0,0.0,0.0,0.0,0.0,0.0,0.0,0.0,0.0,0.0,0.0,0.0,0.0,0.0,0.0,0.0,0.0,0.0,0.0,0.0,0.0,0.0,0.0,0.0,0.0,0.0,0.0,0.0,0.0,0.0,0.0,0.0,0.0,0.0,0.0,0.0,2.0,1.0,0.0,1.0,0.0,0.0,0.0,1.0,0.6931471805599453,1.0,1.0,0.0,0.0,1.0,0.0,0.0,0.0,0.0,0.0,0.0,0.0,0.0,0.3333333333333333,0.3333333333333333,0.6666666666666666,0.5972531564093518,nan,-10.95454545454563,0.6666666666666666,0.3333333333333333,9.750049591064453,1.0,0.0,0.0,0.14078652882873283,0.2503463710966642,4.757696127110228,19.0317775571003,0.07492795389048991,0.1435158501440922,0.18154402895054284,0.51145958986731,-0.33788914198936976,-0.16173120728929385,0.06159250585480094,0.11217798594847775,-1.5147058823529411,-1.531512605042017,0.1919084939631434,0.11671256089811481
PIAS1_HUMAN_nonidr_3,0.0,0.0,0.15789473684210525,0.05263157894736842,0.05263157894736842,0.0,0.05263157894736842,0.10526315789473684,0.10526315789473684,0.2631578947368421,0.0,0.0,0.10526315789473684,0.05263157894736842,0.0,0.0,0.0,0.0,0.0,0.05263157894736842,0.0,0.0,0.0,0.0,0.0,0.0,0.0,0.0,0.0,0.0,0.0,0.0,0.0,0.0,3.0,-0.6931471805599453,0.0,1.0,1.0,0.0,0.0,0.0,0.0,4.0,-0.11578947368421048,2.0,0.0,0.0,0.0,0.0,0.0,0.0,0.0,0.0,0.0,0.0,0.0,0.0,0.0,0.0,0.0,0.0,0.0,0.0,0.0,0.0,0.0,0.0,0.0,0.0,0.0,0.0,0.0,0.0,0.0,0.0,0.0,0.0,0.0,0.0,0.0,0.0,0.0,0.0,0.0,0.0,0.0,0.0,0.0,0.0,0.0,0.0,2.0,2.0,0.0,2.0,1.0,1.0,0.0,0.0,-1.0986122886681098,1.0,0.0,0.0,0.0,0.0,0.0,0.0,0.0,0.0,0.0,0.0,0.21052631578947367,0.3684210526315789,0.10526315789473684,0.10526315789473684,0.42105263157894735,1.614799549132082,0.1361586993367877,-0.687696413013338,0.5263157894736842,0.3157894736842105,4.658718109130859,-2.0,0.10526315789473684,-0.2289653807796918,0.05796407315338688,0.06164625250981349,4.584289667665964,15.667235310839136,0.44563673036257306,0.1481878091081358,0.07443439715319311,0.24141283461594454,-0.017228342145467063,-0.40231375507961126,0.15617883561913667,0.18175725222589625,-0.1775187649635413,-0.31677943337497383,0.12586709780569358,0.28534147671171417
PIAS1_HUMAN_nonidr_4,0.0,0.0,0.0,0.0,0.25,0.0,0.0,0.0,0.0,0.0,0.0,0.0,0.0,0.25,0.5,0.0,0.0,0.0,0.0,0.0,0.0,0.0,0.0,0.0,0.0,0.0,0.0,0.0,0.0,0.0,0.0,0.0,0.0,0.0,0.0,0.0,0.0,0.0,1.0,0.0,0.0,0.0,0.0,0.0,-2.425,0.0,0.0,0.0,0.0,0.0,0.0,0.0,0.0,0.0,0.0,0.0,0.0,0.0,0.0,0.0,0.0,0.0,0.0,0.0,0.0,0.0,0.0,0.0,0.0,0.0,0.0,0.0,0.0,0.0,0.0,0.0,0.0,0.0,0.0,0.0,0.0,0.0,0.0,0.0,0.0,0.0,0.0,0.0,0.0,0.0,0.0,0.0,2.0,0.0,0.0,0.0,1.0,1.0,0.0,2.0,1.0986122886681098,2.0,2.0,0.0,0.0,2.0,0.0,0.0,0.0,0.0,0.0,0.0,0.0,0.0,0.25,0.5,0.5,0.621226662447,-3.810003810005715,-3.810003810005715,0.75,0.5,12.00003433227539,2.0,0.25,0.3535533905932738,0.1513846773729925,0.22938864222280517,5.208995009930541,18.268409866421116,0.5273531158290831,0.21885009240040432,0.07311925895910423,0.17917226293117355,-0.17002196802182074,-0.6817909604290029,0.11777520269874592,0.345621951582599,-1.096373704282194,-1.0261255380682885,0.13121407121703632,0.31999229713808147
