seqid,srpipi,lrpipi,Water,Carbon,ssH,ssE,disL,disS,srELEC,lrELEC,sr_hb,lr_hb,srCATPI,lrCATPI,larkSIM,larkFAR
A0A024R2Q3_HUMAN_nonidr_1,0.10848577235772358,0.10429369918699187,5.341798215511325,16.58579272477694,0.4485794317727091,0.7624266578102513,0.07429322813938198,0.225290379136533,0.6394410996251279,-0.3925619834710744,0.34295136026380874,0.42044517724649627,-0.036529928954460084,-0.08958270952990173,0.21603835978835978,0.18206675466716954
A0A024R2Q3_HUMAN_nonidr_2,0.20739503285443814,0.3513962936931068,7.032295030732368,20.36555149919205,0.8648447133721431,0.78756339048539,0.18383070768170595,0.6323189926547744,0.5941215034965035,-0.043343709362440586,0.939987045537751,0.7516470493172085,0.10365614798694232,0.020666618604762935,0.23895508066289506,0.7679859421696431
A0A024R2Q3_HUMAN_nonidr_3,0.17030668253176218,0.3423543274164734,7.035102850489456,20.98032077142576,0.7318600108263316,0.7631377241031202,0.24238103724826235,0.6190433854907539,0.6973001285653064,-0.03269098417068135,0.5322890904094532,0.648638895237637,0.012213754342567162,-0.00793147856661011,0.24391447368421051,0.5776531638986557
A0A024R2Q3_HUMAN_nonidr_4,0.17986044820219102,0.24881812809673168,7.205893208661418,20.21041608489249,0.8008754937231125,0.7495346299505745,0.09861450692746536,0.5063152337245664,0.5941429261722887,-0.06953650543330951,0.6558786460208859,0.663118160723404,0.10042518728487548,0.012686579923743738,0.24279318840692352,0.639001160849708
A0A024R2Q3_HUMAN_nonidr_5,0.1455289304500292,0.3103448275862069,6.436395759717315,19.691768131286395,0.46495362627337694,0.3987025273685633,0.13196480938416422,0.4413489736070381,0.19998366813653437,-0.13963591228796027,0.44828147023744985,0.31634746922024626,0.08678304239401496,-0.020947630922693267,0.22534687809712586,0.3127413127413127
A0A024R2Q3_HUMAN_nonidr_6,0.10182328190743338,0.07629733520336605,5.940609951845907,14.506078431372549,0.426056338028169,0.10319609967497291,0.1202501954652072,0.3550430023455825,0.3782608695652174,-0.19130434782608696,0.4464438731790917,0.25628228701514755,0.016713091922005572,0.05129990714948932,0.15897435897435896,0.3674738459287439
NBDY_HUMAN_nonidr_0,0.3833870967741935,0.47870967741935483,7.38800480939246,19.25409260991581,0.6056599534834549,0.44244006782764406,0.4648065219887473,0.5677777777777778,0.9162016427362217,-0.03349514563106796,0.6070203467882148,0.8124738590232501,0.19318637274549097,0.011651512646718466,0.29222603808929126,0.4117720060278344
RCCD1_HUMAN_nonidr_0,0.22467771639042358,0.44795377948964854,6.7222593264001524,20.775706503234595,0.7947898053230509,0.44404808783674227,0.22897320244096578,0.5677242411020382,0.4821882951653944,-0.08634972759161132,0.29071519647617944,0.6296844816484224,0.02997154366384567,0.005901414193437628,0.26382449935477703,0.5475315576033357
RCCD1_HUMAN_nonidr_1,0.17045258991567716,0.47354004601731126,6.9870030581039755,19.68883164512749,0.38778900733767135,0.5570491157349174,0.1355635727560949,0.4868469350299768,0.44421603738738014,-0.19547457543199484,0.41489234449760765,0.6496540362438221,-0.008900712713896279,-0.02620572474186381,0.2325253553667228,0.34355470377468544
RCCD1_HUMAN_nonidr_2,0.16282502554785966,0.40672192574088795,7.032926829268293,20.512176414189838,0.7941488555403972,0.43622790918276866,0.23199666990425974,0.564680289021832,0.30392263392372054,-0.06245912361020275,0.5479843025330003,0.5953469261979354,0.02503044034463094,0.01186788119788536,0.274795943606233,0.6860485615834602
RCCD1_HUMAN_nonidr_3,0.10746290056634884,0.22546419098143236,6.846876276031033,16.230518303733238,0.7819895650168631,0.14817001180637543,0.11254752851711027,0.43954372623574145,-0.056912659638296045,-0.09928263315828957,0.431437125748503,0.5809354437133203,0.026837324525185797,0.010027132240179308,0.22401284109149278,0.5530744577774466
RCCD1_HUMAN_nonidr_4,0.2166752444673186,0.27289214344374485,7.3590484282073065,20.91649312786339,0.5992596885457366,0.3273450091329107,0.24334549385218213,0.4588569112282124,0.4627772395192333,-0.08448729184925503,0.4356908488086444,0.7077097505668934,0.02267716535433071,-0.08139110881521772,0.23201022768781202,0.3909570817057495
RCCD1_HUMAN_nonidr_5,0.16380826737027265,0.20328670533378823,6.495187304890739,17.331878698224852,0.8688660477453581,0.4632555637732804,0.08054750681139991,0.3938502789430437,0.27680525164113784,-0.07383853815089826,0.4430307027809102,0.48653827728274407,0.017836188688101384,0.0005654509471303364,0.17868409193330329,0.7259124967011279
RCCD1_HUMAN_nonidr_6,0.3044631020768891,0.5560554255893467,6.4595676541232985,20.623944742901,0.7941488555403972,0.7484624553039333,0.14754914157750684,0.5491973132621951,0.7329244249726178,-0.08654298898201337,0.6346177221344353,0.5001502629601803,0.021205906480721903,0.028433836265155533,0.2709787415419042,0.5951252538930264
RCCD1_HUMAN_nonidr_7,0.12509803921568627,0.2874509803921569,5.589123867069486,18.75226586102719,0.7254024785730832,0.23426352388693217,0.21683440073193047,0.5147275405007363,0.42929182196886645,-0.09205234237806605,0.39571092831962396,0.3478995299647474,-0.008542071984435797,-0.046206225680933855,0.24442877291960508,0.5066917853918914
RCCD1_HUMAN_nonidr_8,0.13984943218068138,0.45588235294117646,6.707320385712346,20.075743665075283,0.4407218121017099,0.38482736261954936,0.17110266159695817,0.4301548606604816,0.3901673640167364,-0.20761037622401649,0.5331404523934771,0.6415368365460787,-0.005936495833560263,0.017972877294265017,0.22878929901451625,0.3409245036037031
RCCD1_HUMAN_nonidr_9,0.2589895821664613,0.46633807550128825,6.369659326181066,20.74622722454954,0.6513218188227,0.6591115140525838,0.19215392303848075,0.589204969489442,0.5266715650257164,-0.10626326963906582,0.48698903800840077,0.5680002048970393,0.007684702498651806,-0.001707711666367068,0.32094751509521596,0.4937388793769094
MEI4_HUMAN_nonidr_0,0.16719903073025663,0.36567903954179976,6.672379843026319,22.301379310344828,0.7960661790811617,0.5065760631302061,0.06853418322110662,0.2568616854859353,0.2658160552897395,-0.07594692865226708,0.5260698657568791,0.597167797205632,0.01638956740997557,-0.016674880893707902,0.15083852419741256,0.745035332955073
MEI4_HUMAN_nonidr_1,0.14590838908903758,0.3638928067700987,6.3512261054257575,21.339471577261808,0.5251309641795271,0.26850740296118447,0.10113505063549243,0.3226259891711787,0.11516314779270634,-0.18397869289080107,0.5091103965702036,0.3790523690773067,-0.05218068535825545,-0.05685358255451713,0.1504555528195026,0.3270289158731545
MEI4_HUMAN_nonidr_2,0.15686008676789587,0.2925704989154013,6.665998281294758,17.748262830671706,0.8165571291338133,0.3895005749619561,0.15741139331324436,0.510690199454728,0.38059037052256695,-0.05621480400013173,0.4558317698561601,0.6231400914470968,0.010014120396669534,0.0010944910616563297,0.25138982330654014,0.674706119310067
MEI4_HUMAN_nonidr_3,0.2183443899625036,0.23882319007787714,6.647955671806168,20.682493048633336,0.870701062215478,0.3418459358495427,0.3544536271808999,0.5778688524590164,0.49888686500708357,-0.06473364801078894,0.548099120423132,0.6875562011482327,0.020575724601839946,0.029577604115144922,0.2869418078946673,0.752836474617338
MEI4_HUMAN_nonidr_4,0.23107661154235573,0.39999232186732187,7.234693264435498,22.607461809635723,0.8957104577430999,0.5533944668946223,0.34387229261110464,0.5253412424009045,0.5362530698163958,-0.061225207483471655,0.6003086419753086,0.7030800591996873,0.2948953597110703,0.041112993846428254,0.24020054694621695,0.79155726804651
MEI4_HUMAN_nonidr_5,0.19267833722985686,0.3484293619791667,6.6170399945861815,22.013528633913133,0.7357064731033112,0.5397679167289208,0.11652611093091145,0.4476727213752838,0.3790762070286034,-0.07968772589272806,0.6502190454231035,0.6876364559532876,0.01038616032134684,0.012772232902325336,0.1751197753180241,0.6189961435082388
SYNEM_HUMAN_nonidr_0,0.1762007674326291,0.28195639573766107,6.672501372872048,20.47733320883328,0.7953179244027077,0.5219375873311598,0.07929730389166768,0.27967549103330486,0.3864481476380664,-0.08347955636484025,0.36812466250096426,0.5375463872516918,0.21142284569138275,0.007613270611537509,0.20150871804137682,0.6109310726610042
SYNEM_HUMAN_nonidr_1,0.14125994409804343,0.22489787142549988,7.474530831099195,14.906635802469136,0.3878226340172071,0.16975512905360687,0.14122508507535245,0.4112343248004975,-0.036956136725898814,-0.17043509061928094,0.20160192230676813,0.5932599517490953,-0.03863730785209805,-0.0901240429699092,0.19719245784533598,0.2515849182515849
SYNEM_HUMAN_nonidr_3,0.07196029776674938,0.0625,5.742587161942001,16.340582554761717,0.7941488555403972,0.11270015054057753,0.03720640493820169,0.10417227075163167,-0.1894543748133612,-0.08736738361644153,0.16524047041596118,0.25621196174438293,0.00816658715235877,0.0010944910616563297,0.06727290505524591,0.6139575620048568
SYNEM_HUMAN_nonidr_4,0.15314511204021233,0.389699038163202,6.528597203428056,21.040706173394806,0.7102925243770314,0.45839874411302983,0.06462832225913621,0.259834289840751,0.16824966078697423,-0.16411137545158164,0.5198660460892269,0.499272823428307,0.009436624686915723,0.004196278704331988,0.13969641973271738,0.5724809260720863
SYNEM_HUMAN_nonidr_6,0.1410083329453936,0.17908849681113542,6.544990852137273,17.770046710782406,0.8099230111206159,0.21168866145973605,0.0755129294646109,0.2818380478329489,-0.006301245065290009,-0.0681782313640907,0.4416162634408602,0.5286248799708619,0.005425143453312468,0.0017288918697369402,0.13375104125167506,0.70038526128618
SYNEM_HUMAN_nonidr_7,0.09276184473158945,0.10978043912175649,5.765801354401806,16.68510158013544,0.6948584905660378,0.23516589973359167,0.042090743019050816,0.12772620512246952,-0.09731652117685095,-0.09270934367927579,0.189829263814944,0.3730493849825592,-0.01634004378704544,-0.06685534255353233,0.07678540829731736,0.5530085959885387
SYNEM_HUMAN_nonidr_8,0.20852459016393443,0.2922404371584699,6.993831919814958,20.981089098421442,0.8383187674565277,0.3506164269869773,0.09361132043875073,0.3981542970986283,0.15875526887866015,-0.07383437548153735,0.585522436947265,0.5296342219466832,0.1316415543219667,0.02648698884758364,0.18538588843142004,0.6661768997240581
SYNEM_HUMAN_nonidr_9,0.292247354529982,0.4915992532669571,7.726137789814387,22.291973244147158,0.9057728427036981,0.8008488148622678,0.46166038382453733,0.6594096501442965,0.9120598485758923,-0.031334034841576056,0.9853420721273367,0.7830100125156445,0.3497082372099335,0.09170122156225485,0.35754383266687173,0.8062401733735606
NKRF_HUMAN_nonidr_0,0.22108208955223882,0.25466417910447764,5.959369434733857,20.086866902237926,0.7328982227134762,0.4236111111111111,0.06927156618681675,0.2469964281848685,0.28635917566241414,-0.11733172951205481,0.4375710910840844,0.24604171902488062,0.04866180048661801,-0.0011984880612150824,0.16167918842056114,0.5531760899182562
NKRF_HUMAN_nonidr_1,0.18533549783549783,0.28472380952380955,6.61025160817523,20.086866902237926,0.7134627921640714,0.46215105326254496,0.1988972036234738,0.575029539188657,0.36023779581570825,-0.06383561643835617,0.794452347083926,0.6012325242161507,0.31154381084840055,0.043115438108484005,0.20831643002028397,0.6175657458816003
NKRF_HUMAN_nonidr_2,0.13465648854961831,0.3427156632786031,6.16452442159383,20.36094477711244,0.5181517838494694,0.5333333333333333,0.12250975972954481,0.4450168133361952,0.32873595618733137,-0.17776596552509683,0.6459590379875925,0.6485344051001316,0.04379124175164967,0.02378997407087295,0.20755302959719246,0.34313285457809695
NKRF_HUMAN_nonidr_3,0.19057696591668524,0.2752526818379116,6.773303150899996,19.208761492698756,0.7420424024229956,0.8022292699448841,0.18368253968253967,0.5251834004845687,0.6351766900236931,-0.062173458725182866,0.4719230666106588,0.6139334578299478,0.3537859007832898,0.044386422976501305,0.2339333308307369,0.6419453201715851
NKRF_HUMAN_nonidr_4,0.18941237830319888,0.30574980574980576,6.682101682101682,21.4785944551902,0.5911858808958613,0.6724615821588427,0.19558676028084251,0.559679037111334,0.5812790580994749,-0.1057807863046624,0.531021897810219,0.5843580914904083,0.03499504787058435,0.035875426433366345,0.240705734089477,0.34745927344378763
NKRF_HUMAN_nonidr_5,0.12239651990508832,0.25408647508568416,6.355193328278999,18.120490517610154,0.4650017587055927,0.26180322875418827,0.10232371258287015,0.3237465564738292,0.33456289192180005,-0.1584119496855346,0.5128556460062867,0.535826549528492,-0.031035511787526112,-0.08284702956089161,0.16766219444954972,0.31420852897665147
NKRF_HUMAN_nonidr_6,0.2108415914805502,0.37279988167430855,6.8780918727915195,20.927965195064544,0.7144623241862916,0.6137532706343614,0.17827371184771906,0.5413058624465015,0.4440656879820851,-0.07443064182194617,0.49035143769968054,0.7113998891420829,0.18851902173913043,-0.005712589954744417,0.215674919164133,0.5310754312616379
NKRF_HUMAN_nonidr_7,0.04827101983500088,0.08109531332280147,4.891696750902527,13.26972860125261,0.23781120331950206,0.0883039419087137,0.15053205294575656,0.4375811056319751,0.3229050279329609,-0.2635201573254671,0.43659199550098415,0.2857812353547661,-0.02932649420160571,-0.0906816760475297,0.1761411665257819,0.08114961961115807
NKRF_HUMAN_nonidr_8,0.24393122049898855,0.4231741086881274,6.988471673254282,21.408130994736077,0.9174974585793012,0.7304367771687954,0.27579952620669235,0.5345633309619456,0.5184031549346948,-0.03760188487009679,0.8999233496215387,0.7024681579297306,0.16583518107908352,0.06492170533775289,0.33481676999570315,0.7780239759104597
ZN185_HUMAN_nonidr_0,0.22568724962011327,0.2925086852277732,7.237498970261142,20.344066390041494,0.7156578065668975,0.5864478670514203,0.2699756132549132,0.6162188809465122,0.5681970106152571,-0.059318790662074246,0.5180210954293236,0.7357732905002294,0.37132003798670465,0.1282051282051282,0.2674812157314019,0.548568705132406
NPHP1_HUMAN_nonidr_0,0.06263167134831461,0.041125351123595506,6.2776918316831685,16.335026425972956,0.5652769763416041,0.7117828924768121,0.22717391304347825,0.5880434782608696,0.5415354004311059,-0.32249637155297534,0.14738088191772714,0.27996448653447764,0.009045291064544613,-0.0028643421704391274,0.19554268446235204,0.3610363491171512
NPHP1_HUMAN_nonidr_1,0.17183800623052958,0.29101871682652014,6.812064965197216,20.668565169769987,0.7224475401163816,0.6461573825760478,0.07431474480151229,0.3127878415719988,0.5078336514136079,-0.14287903946864222,0.43035486806187445,0.6632105996551806,0.09037900874635568,0.007190187508811504,0.20854309386084405,0.5306944308024752
NPHP1_HUMAN_nonidr_2,0.19565072376759388,0.37563899990705457,7.250671626369084,20.52962759126766,0.8885737999723337,0.6950779390309453,0.3293874974985761,0.6320702231563331,0.6336436528009471,-0.04189101873788499,0.6833089752407153,0.8229967563671312,0.08901236908203403,0.06235626767200754,0.26419390281031996,0.7848937885502483
NPHP1_HUMAN_nonidr_3,0.3170103092783505,0.39644218551461247,6.131147540983607,20.716405605935698,0.44122137404580153,0.3155216284987277,0.24081632653061225,0.48775510204081635,0.23151750972762647,-0.29571984435797666,0.2847682119205298,0.4768211920529801,-0.4375,-0.1597222222222222,0.24942263279445728,0.24866023579849947
NPHP1_HUMAN_nonidr_4,0.22369238788316193,0.5381175944556226,6.874742339511023,20.764198831529548,0.5953557880216117,0.6402941424594359,0.2678344442722059,0.5774774774774775,0.6056110931957434,-0.07831171982740762,0.6646933459625859,0.7228879537629628,0.1369158878504673,0.06754361259753815,0.24870668272978527,0.5430551040312094
NPHP1_HUMAN_nonidr_5,0.17724511476194751,0.2998740581983694,7.070377562028048,21.625133120340788,0.8539236632405589,0.5859046704286229,0.1332542506919731,0.5509094503756425,0.4015091556642803,-0.042161009986243676,0.6734809805127109,0.6971426869465073,0.045641945966920505,0.04273920546446116,0.22926023778071333,0.708649932749917
NPHP1_HUMAN_nonidr_6,0.17052724465034194,0.24057569886520896,6.667828000366737,20.584027218193214,0.7502246181491464,0.6409802021320781,0.26535782140595315,0.5731475617479417,0.4997996499145876,-0.08600606350726026,0.4347731307028744,0.6159974840129993,0.38224852071005916,0.011834319526627219,0.21056586935334248,0.5827298050139276
NPHP1_HUMAN_nonidr_7,0.1439108061749571,0.17993138936535163,6.907534246575342,16.617906066536204,0.6661697538695762,0.13709268951544826,0.09369531401905502,0.2839782228271437,0.03786899910545671,-0.11556359109635733,0.49586206896551727,0.5431835786212239,0.020231713643437663,0.025188771687128943,0.13566569484936833,0.4410088517036498
NPHP1_HUMAN_nonidr_8,0.1472340425531915,0.13361702127659575,5.69892952720785,15.124858372988896,0.5251309641795271,0.0915032679738562,0.097631426920855,0.326768578442312,0.10298363811357074,-0.17594394706111327,0.4256384576865298,0.39609414121181774,-0.05884063590538969,-0.07965860597439545,0.141148218970961,0.3142857142857143
NPHP1_HUMAN_nonidr_9,0.13140625,0.2290625,6.4405014231211775,18.897261499910506,0.6602053325160895,0.20030349013657056,0.07609351630762771,0.32885518616672355,0.16848776223776224,-0.08049113233287858,0.30913945867216897,0.6267731798290699,0.014440850277264326,0.026080175600739372,0.14564985321590607,0.4239162059935991
MSH4_HUMAN_nonidr_0,0.13357619914996965,0.2457867512097447,7.085967130214918,17.00775255754476,0.6164611796067977,0.796446128635805,0.14408423385979496,0.5698162729658792,0.6990547032388037,-0.13109052202332763,0.48496503496503496,0.6032029244092432,0.020162637852289184,-0.018468621654851282,0.24060469916823507,0.46401942579631483
MSH4_HUMAN_nonidr_1,0.2273164587961586,0.3026920551543007,7.107203961272921,20.569095270572188,0.9368439110325215,0.7043823630991213,0.22877984084880637,0.5497347480106101,0.6126292069156464,-0.0450116384089524,0.728422444496577,0.6654726331900007,0.257555544153112,0.03652501467863325,0.262384011420414,0.874762014479221
MSH4_HUMAN_nonidr_2,0.26849110645774665,0.3665922376376728,7.105693909893593,20.909172288814656,0.9026732025607129,0.8375777952643251,0.3044570203931286,0.5806950208142563,0.7821824146256059,-0.04485892823328915,0.8726982249748426,0.7777030892448512,0.3636094674556213,0.03709625839462744,0.3203404834865509,0.7689572372858492
MSH4_HUMAN_nonidr_3,0.12924888934807316,0.250971523920346,6.40911133075748,20.255991926667228,0.8068951200817578,0.5065760631302061,0.1144336529918196,0.45213789885084293,0.2658160552897395,-0.05401755570560432,0.7193467667588569,0.48819759765562104,0.034749729924378824,-0.014658925979680697,0.15824237335572347,0.7012205139107662
MSH4_HUMAN_nonidr_4,0.11793123986631812,0.30162427214220044,7.5436507936507935,20.886223124480946,0.8820437578216027,0.5582356225572306,0.16466504034528054,0.5166072433852505,0.4446392053754017,-0.05595426116621391,0.6359338061465721,0.6251226692836114,0.2206176544136034,0.02923915595085944,0.23889802631578946,0.7480084212780003
MSH4_HUMAN_nonidr_5,0.12784323609098355,0.23477240119994783,7.09952,20.472197354023674,0.7775456344842754,0.4853230815847284,0.12700841622035194,0.4274270019291763,0.2073720498541501,-0.13554036345905754,0.5588101725703906,0.6299613045881702,0.03381220731804111,0.024997668127973136,0.16284748309541697,0.7081216124661247
MSH4_HUMAN_nonidr_6,0.06722597515798649,0.050168139516696644,5.386869234943028,15.260953608247423,0.31716538835475855,0.2696825396825397,0.2871674491392801,0.5480769230769231,0.35739130434782607,-0.08151549942594719,0.3694029850746269,0.2746380196170014,-0.013559988208705905,-0.07851036651272478,0.20837988826815643,0.16843780481544227
MSH4_HUMAN_nonidr_7,0.22970720239367387,0.2341343395560263,6.963676148796499,21.36837713808928,0.8626971227002351,0.6862471684127042,0.1870424253801389,0.6298532494758909,0.5071654705438322,-0.03341634761922462,0.9248257863158178,0.6024786339663365,0.11728971962616823,0.024997668127973136,0.2262539833447772,0.7571731197941506
RRP8_HUMAN_nonidr_0,0.1949630571224279,0.3223627655655164,7.026985854189336,20.30972903471594,0.762549537648613,0.37268169404475604,0.12230540272391088,0.4268893291819983,0.17717126242731196,-0.12564195298372513,0.5795266923500275,0.628125820117722,0.009620670698185816,0.008658603628367234,0.20290743954796361,0.6784418098233729
RRP8_HUMAN_nonidr_1,0.24977171927993738,0.32136039122361987,7.106493125419182,20.481394023288004,0.9195336621356109,0.6684969316146461,0.3519278983314602,0.597159301594467,0.8440512133296737,-0.04170928201658458,0.8879447765442642,0.6733100778491513,0.22288915566226492,0.023314718178766517,0.28695888919139667,0.7819056852018559
U3IP2_HUMAN_nonidr_0,0.13582392122791775,0.39333604225924423,6.886486486486486,20.339927121290994,0.7152046326003599,0.7919599448516073,0.13932959561016342,0.5953715853513062,0.7226726118092149,-0.058549060950372885,0.8980348828032515,0.5932599517490953,0.021290354673431825,0.00428245032716485,0.2776683318089073,0.5476085726855634
U3IP2_HUMAN_nonidr_1,0.2554130092279991,0.44139919347480977,7.509811616954474,22.221909717339333,0.8587719688193778,0.7931632104225184,0.18446840294104186,0.5986641134363744,0.7039028995993858,-0.045778897664471595,0.8884930530815818,0.7527426775194122,0.042756043298043125,0.019729478997811137,0.27800269905533065,0.7267080592671248
U3IP2_HUMAN_nonidr_2,0.21537151891037334,0.40968989555107804,6.991246112582891,22.232953978236996,0.8149000348041301,0.7093220257404965,0.2705098154116613,0.5948757125227714,0.6632415432261782,-0.07047539616346955,0.5966668068345878,0.6979648473635522,0.05677588507487144,0.0393142983743665,0.2962896090999368,0.552897055561903
PGRP1_HUMAN_nonidr_0,0.13632633923338414,0.3513069980072676,6.977975878342947,20.3902273498473,0.8360029628257951,0.15842456881493305,0.12750885478158205,0.3411268498427481,0.407557354925776,-0.08725287738096957,0.5438496583143508,0.5946438898527514,0.037748949387904254,0.019197952218430035,0.18916666666666668,0.7354135444286465
PGRP1_HUMAN_nonidr_1,0.1602466708374296,0.36634194297971223,7.1313206424747175,21.60507042253521,0.8974351104426915,0.8090630221712347,0.1730814639905549,0.5261078483715964,0.7522167487684729,-0.055692137875671066,0.511360525595401,0.7026404642984954,0.188551373593126,0.036094945399856145,0.24693120182700543,0.7773390586183637
PGRP1_HUMAN_nonidr_2,0.3314849044978435,0.6275988960441582,7.2392700236566405,20.715217318229183,0.8990975705714567,0.7108969267428362,0.31982712047541867,0.5411749364282454,0.688401200171453,-0.050421945110789505,0.7010865169448114,0.7749117010368007,0.3298483108720614,0.009648917152653636,0.3069931892614712,0.7675657012336826
PGRP1_HUMAN_nonidr_3,0.22881702824396233,0.3258288988948015,7.033086724208796,21.802120141342755,0.5867948213516198,0.37107916355489173,0.2711416490486258,0.5123034859876965,0.45213379469434833,-0.08513225904530253,0.5449936628643853,0.6465781409601634,0.004156479217603912,-0.06381418092909535,0.24201223657375934,0.4488907610221848
RPP40_HUMAN_nonidr_0,0.14215686274509803,0.18730429832052378,6.61572856391373,17.139400315623355,0.7450214633831456,0.392500308375478,0.15984783232845248,0.49849267872523684,0.2628119429590018,-0.05397170837867247,0.2608695652173913,0.5431835786212239,0.008789203208299312,0.001620959608087988,0.21461829994585815,0.6004542317027008
RPP40_HUMAN_nonidr_1,0.17340286831812254,0.292831616565062,5.912218268090154,16.415857605177994,0.3214013709063214,0.2083015993907083,0.16872682323856614,0.48838071693448704,0.2653061224489796,-0.2300814447592068,0.5576363636363636,0.498,-0.016753321779318313,-0.0689816987329892,0.23571351409743976,0.221058495821727
RPP40_HUMAN_nonidr_2,0.32270916334661354,0.34145627515550675,6.6293391188251,20.570886075949367,0.8609020366691044,0.5565933910884104,0.18358992191698542,0.5900796284007963,0.7499590007106544,-0.04581592149832963,0.8951911220715166,0.7136044752166537,0.15053926991150443,0.056509824889720624,0.27646072624383305,0.6647019547994704
RPP40_HUMAN_nonidr_3,0.1834044689932212,0.38126126126126125,7.10069090497225,21.426930183980076,0.7672627962294071,0.6297029050021433,0.16671672354948805,0.534625671989619,0.5380325236582283,-0.0789703556223588,0.618343616317715,0.6110358022255206,0.14798973481608213,0.017246291061293363,0.21734784540204355,0.6564046155127155
RPP40_HUMAN_nonidr_4,0.24333245602491557,0.45070267896354854,6.813768902999415,21.3554946192053,0.8912580464196403,0.6907952605163761,0.31386401990789736,0.6407609795587937,0.7056545636242505,-0.04073087171678721,0.745600301897569,0.6348478764478764,0.10256644442414832,0.08243202868240215,0.2650146523685312,0.7933095789321372
RPP40_HUMAN_nonidr_5,0.20747024563180552,0.366620335721159,6.690114068441065,22.831390507910076,0.7197284292399974,0.6832198347792738,0.25555555555555554,0.5594594594594594,0.5993772497843182,-0.0375,0.5996380726015558,0.6408650596981302,0.11698312856387044,0.022318454363757494,0.23387096774193547,0.6073907142308381
PIAS1_HUMAN_nonidr_0,0.07493343476607076,0.21749479321630466,6.196051502145923,17.362832618025752,0.6244880416645598,0.4088879127315323,0.05699592886222413,0.18996478873239436,0.26546638574985637,-0.19254943040460915,0.42191617784578767,0.6046098306026104,0.005509299531916656,0.027836460792842053,0.14295384530371474,0.4482117310443491
PIAS1_HUMAN_nonidr_1,0.07009029345372461,0.11072234762979684,6.313336120401337,17.274233896185116,0.763284529538241,0.44408427876823336,0.14285714285714285,0.5348958333333333,0.46392785571142287,-0.09435707678075855,0.4362275106000993,0.4492321290465142,-0.00021620063418852694,-0.077709751342477,0.1996553209823352,0.513743472844382
PIAS1_HUMAN_nonidr_2,0.14078652882873283,0.2503463710966642,4.757696127110228,19.0317775571003,0.07492795389048991,0.1435158501440922,0.18154402895054284,0.51145958986731,-0.33788914198936976,-0.16173120728929385,0.06159250585480094,0.11217798594847775,-1.5147058823529411,-1.531512605042017,0.1919084939631434,0.11671256089811481
PIAS1_HUMAN_nonidr_3,0.15662601293279857,0.2451678535096643,6.062548451589212,20.038223994553324,0.698707449869417,0.3672472637401436,0.1707075705096487,0.5209090909090909,0.2945104433574035,-0.06854009595613433,0.6370565045992116,0.4339009790728969,0.00945512433970911,0.007236064545695748,0.18395613092882582,0.5684770541674476
PIAS1_HUMAN_nonidr_4,0.16198282591725216,0.2503463710966642,6.713855421686747,18.897261499910506,0.5854397506925207,0.283008356545961,0.08068932195200515,0.18677189026681698,0.06114848630466122,-0.22693416626621815,0.17174515235457063,0.616035703293321,-0.9209809264305178,-0.4659400544959128,0.14589129402184978,0.32234871180347513
PIAS1_HUMAN_nonidr_5,0.1300893743793446,0.2750413643884434,6.039437719640765,18.91992396340739,0.5770720371804803,0.2785437645236251,0.1376269886908185,0.4544953875808894,0.37630662020905925,-0.07734187349879904,0.6933835395373857,0.365814696485623,0.020028978095968635,-0.08975127359904106,0.20161518043711527,0.5199806248486316
PIAS1_HUMAN_nonidr_6,0.1484335321347206,0.27145785673965356,6.363332508046546,18.46129994036971,0.523230150697256,0.5840801265155509,0.25134926754047804,0.49884348496530456,0.38577613489632123,-0.07580784766301212,0.5784894151417295,0.6304907310654437,0.13446033810143043,0.03901170351105332,0.237395607794618,0.49128533658735
PIAS1_HUMAN_nonidr_7,0.06174033984398621,0.104492955191389,6.514627111660486,15.934662818157964,0.2555420447105042,0.35366195865681416,0.21385402138540213,0.5132496513249651,0.3923342348223445,-0.11429323852788202,0.3944596176355833,0.5327740928599297,-0.03348053815343535,-0.07825819040772312,0.26107942079859586,0.17299053148109753
PIAS1_HUMAN_nonidr_8,0.19852499098160248,0.40598123534010944,7.323665223665223,21.054621586150866,0.6822357153977892,0.7996668959774068,0.16777408637873753,0.5439848437006631,0.7709712174849931,-0.125064632885212,0.43566765578635014,0.5930185028748944,0.04729534278275962,0.00850441632847935,0.28069333333333335,0.6032908432429349
PIAS1_HUMAN_nonidr_9,0.23042457862171964,0.3827996198382373,6.736582555593962,21.375672293811604,0.7603196009044544,0.5758370895738886,0.24213235294117647,0.5778983221899836,0.6371069253711032,-0.06714473747024845,0.7058408245870005,0.7119949481878695,0.10267442841474732,0.013519696207164754,0.25315623356128353,0.7224484730886815
PIAS1_HUMAN_nonidr_10,0.05081098973849719,0.13068181818181818,5.853215077605322,14.422867513611616,0.30064860740175503,0.24189240747806182,0.09567404426559356,0.37937625754527166,-0.023964308476736775,-0.17077464788732394,0.5787762341117352,0.4141294708838309,-0.0016941973739940702,-0.03693350275307073,0.23803486529318543,0.2531853678586108
PIAS1_HUMAN_nonidr_11,0.25333333333333335,0.2966666666666667,6.401266551525619,19.490534979423867,0.4415539766215906,0.25147806957239105,0.17486189729250495,0.5394736842105263,0.2566525739865705,-0.1970374510899944,0.7059419837804117,0.6110292569985266,0.004093886462882096,0.0226528384279476,0.26132218168876237,0.2313908974904296
PIAS1_HUMAN_nonidr_12,0.08934099955771782,0.062140645731977,5.6859535591929955,14.794822992006091,0.376,0.028,0.11365181910914655,0.34520571234274056,0.1059121087575087,-0.7173569396142903,0.5972716488730724,0.2775800711743772,-0.0016941973739940702,-0.03693350275307073,0.15155502392344497,0.1456937799043062
PIAS1_HUMAN_nonidr_13,0.19163163928162016,0.3119984715322889,5.867459269044474,19.828244274809162,0.6016131164881661,0.35903614457831323,0.2166739036039948,0.46627046189135646,0.6378698224852071,-0.11872493431060711,0.43710220361517355,0.42240268110337714,-0.030714347863917166,-0.07072552745699946,0.24655338249438924,0.5
PIAS1_HUMAN_nonidr_14,0.08195211786372007,0.2941988950276243,5.684520194351655,17.59377646062659,0.5128858746492049,0.5357627447179686,0.10901900602054067,0.3732419335775913,0.4349317866187403,-0.12885688060439174,0.4891193878161057,0.4099061397740181,0.007103393843725336,-0.03089071267981502,0.21005570734130505,0.32926829268292684
RL1D1_HUMAN_nonidr_0,0.10957497524661704,0.35790549750113587,6.76,21.02172717271727,0.7183915411727011,0.5893048338457609,0.15408388520971303,0.5144691952638972,0.3718149813517376,-0.07499405348465799,0.6188970705938851,0.6349754590074532,0.08056171470805618,0.033535278217914063,0.22392638036809817,0.6282643214852816
RL1D1_HUMAN_nonidr_1,0.10889665091432094,0.21352989521265667,6.456819414316703,16.84639370932755,0.46667528327086294,0.3147869674185464,0.14881313249078953,0.47171571142097657,0.2271018895124337,-0.1915680473372781,0.6445837063563116,0.6112692088787707,-0.001593710157246069,-0.016574585635359115,0.17477162080848968,0.36506991966676583
RL1D1_HUMAN_nonidr_2,0.24880111380394987,0.31976688640489154,7.177939712601138,21.737986114262377,0.8587628789065705,0.7081220044441344,0.1815948115768121,0.6060208361520768,0.6986035327846111,-0.04055596589001544,0.6784434203789043,0.7543643574648874,0.4646053702196908,0.03191304423409563,0.290898830980696,0.738902897016142
RL1D1_HUMAN_nonidr_3,0.24447829398324447,0.45544554455445546,7.1749698303400296,21.615384615384617,0.8963334846583171,0.6159732334789543,0.4237672119571613,0.644435403104657,0.8138727896932334,-0.04130734232165964,0.8141763098410985,0.7458445767934982,0.07907448173194179,0.050197847571349374,0.2914452411795306,0.7715833494560446
NOL4_HUMAN_nonidr_0,0.24831853645412968,0.3389830508474576,6.542934502320784,20.774349192100537,0.7106524022053032,0.3303146298198114,0.1297016861219196,0.324254215304799,0.30567081604426005,-0.11132564682517791,0.4808760024676126,0.6102197735666284,0.018465304384844616,-0.0561409110259685,0.2116461366181411,0.5420112411842624
NOL4_HUMAN_nonidr_1,0.20435510887772193,0.359181433275835,6.411386470194239,22.367263526664072,0.5927243330638642,0.5613879003558719,0.15366651097617937,0.4700607192900514,0.3471049565833563,-0.10327482082708887,0.6771025765678172,0.48337098393574296,-0.007624451438450286,-0.015027261846713064,0.23260538344337228,0.5319545685709443
NOL4_HUMAN_nonidr_2,0.16818308679877197,0.2858219369243651,6.463605223720831,19.859480709453283,0.735432812564071,0.6299944095498043,0.06926169590643275,0.2711168450955825,0.6173365370613078,-0.0982385794071316,0.5533376521715658,0.5735312513030063,0.003147617611580217,0.0011196021506776196,0.19321711445876688,0.4738454357149109
NOL4_HUMAN_nonidr_3,0.14993365767359576,0.24502432551968156,7.09453896816685,18.96745391705069,0.7328705101116813,0.34630541871921183,0.13986034942611406,0.4201204710959274,0.1857288481141692,-0.08600583090379009,0.4295009124811553,0.6150257093886878,0.013412234302382382,0.011318753401906464,0.19034423958222316,0.44835015307858034
NOL4_HUMAN_nonidr_4,0.12826826122640403,0.2565905096660808,6.257716894977169,19.791501234037987,0.6578387953941541,0.532070707070707,0.07422195686245242,0.23167524926043606,0.36621700879765395,-0.14684556094775905,0.3770200674835731,0.5900119311402762,0.03811944091486658,-0.08776595744680851,0.19489944018245905,0.475656485968669
NOL4_HUMAN_nonidr_5,0.1883308714918759,0.32199623995898136,6.9192494555201876,18.941692681234827,0.8356413725249047,0.2834122626880684,0.09625857002938296,0.3665426052889324,0.08768521088597221,-0.05706891491689123,0.5818506362641792,0.625920612147298,0.013726768829475057,0.02774698402347571,0.1585881319646484,0.704352236498889
RPP14_HUMAN_nonidr_0,0.2621082621082621,0.3763175906913073,6.674352366743523,21.346771037181995,0.9234658830712869,0.5891891366094705,0.197318492284341,0.6133748349368043,0.5957380327459068,-0.061251203079884506,0.7613334871380782,0.6960936729787734,0.21506884242733298,0.021991330953595106,0.25392225963923043,0.8488401217679473
LC7L3_HUMAN_nonidr_0,0.08134024641801862,0.10425377710876958,5.6859535591929955,16.620541155439994,0.7971407276915781,0.3605062136586478,0.0723846424797464,0.27286603264060116,0.16304525404345696,-0.0817611374012383,0.5099179206566348,0.35528596187175043,-0.006621766936442357,-0.05728739403882964,0.1336405529953917,0.6846817075735272
LC7L3_HUMAN_nonidr_1,0.3548387096774194,0.3117913228639872,6.245180136319377,21.084004834810635,0.6713082741459717,0.50927927000789,0.16629955947136563,0.5234030837004405,0.46875,-0.07540136970921747,0.594515931372549,0.5978037062457103,0.0359955005624297,0.021535167810591272,0.23832756566630736,0.41026891575990987
LC7L3_HUMAN_nonidr_2,0.17791906022074486,0.29874034523871235,6.686539013489688,20.65867600958879,0.8533398496456756,0.48752556237218814,0.08755587274161439,0.3323467784180199,0.40452654758991924,-0.08654661753458945,0.41899836449630906,0.6324252907532639,0.12639228470524314,0.007390002652821465,0.21098289820042052,0.7376863253402463
LC7L3_HUMAN_nonidr_3,0.24420612560210853,0.295479738884099,7.040344876060166,19.33356142623231,0.9174838683712756,0.7431570272422542,0.2212970751392157,0.6069214048735843,0.6641046286192539,0.010634441087613293,0.7786324688416423,0.6494223509744882,0.09437168506153555,0.07062106928350032,0.2828642294834466,0.7778520952685608
RPP29_HUMAN_nonidr_1,0.1925655689213173,0.28413763254706775,6.422533158431715,22.349492671927848,0.8385946156089027,0.2619593477445804,0.23076923076923078,0.515079365079365,0.25816774193548386,-0.05110702721624223,0.6117977528089887,0.61291258915243,0.01492998931563853,0.018135297756284093,0.2089190153407064,0.6255890517074431
RPP29_HUMAN_nonidr_2,0.20292986908560948,0.2952986406010503,6.700690202014741,19.48811851079543,0.7603948431847963,0.7317078754578754,0.19183285849952517,0.6564282580078982,0.6763623392836876,-0.061376057827926656,0.7006277300471521,0.6721745811355078,0.09145655328692602,0.031380571374410575,0.2875423523717328,0.6728923377331457
IF2A_HUMAN_nonidr_0,0.26133931301600244,0.3191412592458957,7.061460592913956,20.661292538817385,0.886968680848753,0.919409282700422,0.192,0.5647577092511014,0.8419986495611074,-0.05264851157245321,0.6675362887406826,0.7627361070211602,0.07941192938673322,0.06279694278041727,0.25506297851321313,0.7337948689201562
IF2A_HUMAN_nonidr_1,0.08658959537572254,0.05468208092485549,5.021968616262482,16.596610169491527,0.5406370943733254,0.42591142434525364,0.1433126095966842,0.4582858228810338,0.36621700879765395,-0.05245390807582446,0.5595180722891566,0.2640963855421687,-0.040948275862068964,-0.10787443469007715,0.21663958401039973,0.2380851514509638
IF2A_HUMAN_nonidr_2,0.2422930930504807,0.45265883855404593,7.144500320992938,20.255289808230984,0.8416559265768404,0.5849655230762723,0.31464821222606687,0.5580185478398553,0.47737879078725015,-0.04046460406057925,0.7914289182954959,0.7357457338432368,0.051847302582668,0.01858528022243429,0.31809109595162205,0.7044221771355224
IF2A_HUMAN_nonidr_3,0.10624597553122987,0.07629733520336605,6.0573514077163715,14.88601261692408,0.555229716520039,0.06075644785322205,0.1460081515224167,0.3768880364421002,0.3782608695652174,-0.5517179670722978,0.6143024618991794,0.28604923798358733,0.026837324525185797,0.010027132240179308,0.14934988871969077,0.13986177814220452
IF2A_HUMAN_nonidr_4,0.1739879414298019,0.32868217054263565,6.397081813444502,17.83918094572017,0.7551774578489491,0.5821041939164556,0.14312901955637222,0.47391543108182316,0.5188080117244749,-0.07636109818520243,0.6756311745334797,0.5986785956031666,0.14345351043643265,-0.0003783807025841682,0.24782197278689594,0.5878936788027697
IF2A_HUMAN_nonidr_5,0.21642512077294687,0.23780638161463727,6.598739495798319,18.851630255790976,0.9018532936294537,0.6614139978819523,0.138704533701086,0.5220940643598252,0.7135953608247423,-0.035686578743211794,0.922648779791637,0.5886381240757693,0.028859707693449067,0.02636228108802105,0.29338467135580887,0.805220278718512
PERE_HUMAN_nonidr_0,0.11811175337186898,0.1978805394990366,5.319906069364162,17.222908305032416,0.8054446643631118,0.4800408669634387,0.13692132557551226,0.35896787250189727,0.30449063863732345,-0.10115661213172343,0.3995895362372113,0.3159466454310173,-0.005648390368907159,-0.06495290423861852,0.16901408450704225,0.5838483842661478
PERE_HUMAN_nonidr_1,0.22631970260223047,0.37784386617100374,6.569385670509266,20.341576506955178,0.8456553790545039,0.392500308375478,0.12350199733688415,0.3091718610863758,0.2628119429590018,-0.05363111516256457,0.4708415575094204,0.5649405772495756,0.01244900094152108,-0.0014227429647452662,0.16504305615586662,0.7016145067006004
PERE_HUMAN_nonidr_2,0.05710206995003569,0.07209136331192005,4.988769780500255,15.911654135338345,0.27974888233615525,0.13874469089193014,0.14691943127962084,0.49585406301824214,0.44107744107744107,-0.0814730555950519,0.5602693602693603,0.27946127946127947,-0.02468265162200282,-0.11554921540656206,0.18592250266619267,0.08674698795180723
PERE_HUMAN_nonidr_3,0.18853893263342084,0.2541677810466257,6.94070796460177,19.744341031828107,0.7057308736773106,0.39366088790640813,0.1290564678334484,0.4392843204947315,0.37379117028731607,-0.1343019282764358,0.4218907802871738,0.7049924357034796,0.0934825543120474,-0.016129032258064516,0.2901631240731587,0.5304509530450953
PERE_HUMAN_nonidr_4,0.10452777960851513,0.16858894088182957,6.260695311771833,17.36359399757666,0.6305513543242128,0.27976412939661977,0.097631426920855,0.2451376853456576,0.2621776504297994,-0.15073605639643375,0.4755980861244019,0.5330694252530156,-0.03638735527756424,-0.1213768115942029,0.15145368492224476,0.5807303570521611
PERE_HUMAN_nonidr_5,0.015328199486615329,0.027282728272827284,2.953881536475145,16.494593285990963,0.7420424024229956,0.11069203954511686,0.030379469181838124,0.09366089054617241,-0.13715142428785607,-0.13247376311844078,0.05676343171788332,0.05603465727357383,-0.05041933106237176,-0.12699456164465428,0.06626309662398137,0.5865890570430733
PERE_HUMAN_nonidr_6,0.22005097706032287,0.31966864910790144,7.082394263134787,21.01773765268189,0.8743905024379902,0.17623384876085574,0.11680691731645179,0.4329109405675531,0.6135328002751268,-0.05685541379177427,0.60074200913242,0.5058828302499189,0.3606831882116544,0.017414601473543203,0.19394045636485815,0.7434386716657739
PERE_HUMAN_nonidr_7,0.1440048815214075,0.2849837817210456,6.991649085794656,17.184909312797206,0.595977773184344,0.3684312810945274,0.185941893158388,0.4169982002462821,0.5310199789695058,-0.08386458562321389,0.4221987720644666,0.613763936947328,0.020787074219303633,-0.05937094537157174,0.22338524380903754,0.435144553433144
PERE_HUMAN_nonidr_8,0.26322334604543196,0.3661590863554398,7.112094395280236,19.770382250735096,0.6854579388815183,0.3440495318300183,0.19958847736625515,0.565843621399177,0.38430089942763695,-0.05113584939813558,0.6226108956906746,0.6362011743681388,0.08765898934341698,0.02392293849899439,0.22444444444444445,0.605720620842572
PERE_HUMAN_nonidr_9,0.11063475546305931,0.18924254827370346,6.398264809902741,17.099524756852343,0.6252634992703097,0.39807493984187003,0.26535782140595315,0.5731475617479417,0.301572617946346,-0.08852755194218609,0.5461647422414904,0.5557092787308615,0.014050834661521685,0.012058552134888012,0.22543031649083842,0.4230863291758376
PERE_HUMAN_nonidr_10,0.2155720338983051,0.31852821183896546,6.917239623121976,20.659538751581827,0.7267704316749741,0.432028868288434,0.15796671985411442,0.5168680191474812,0.3445874827949154,-0.12207054579138532,0.5652987401771236,0.658364009081491,0.05093565495847093,0.011234836290014769,0.215578619248344,0.5642243328810493
PERE_HUMAN_nonidr_11,0.19925512104283055,0.3165735567970205,6.934615180326127,18.153633491311215,0.4948185579845472,0.44724155545622885,0.2581721147431621,0.5516586292561741,0.6487876561351947,-0.08305071972266184,0.889978494623656,0.6574639469923347,0.012277808319589517,-0.010445299615173173,0.2535211267605634,0.4076158940397351
PERE_HUMAN_nonidr_12,0.044847837693539776,0.041324079017618795,4.894083272461651,14.060701616081987,0.36191145467322555,0.16725228390723823,0.11733919902912622,0.33313106796116504,0.1479028697571744,-0.21596762325239147,0.38834450747808147,0.2699973658793573,-0.02442698367463258,-0.06180026869682042,0.16231529830018887,0.18211806748677067
PERE_HUMAN_nonidr_13,0.1636453935932456,0.20215088542087814,6.747700394218134,17.03909329829172,0.697439272466196,0.1883817427385892,0.09537495343019851,0.32939485869391666,0.006918420294032862,-0.15409401061410158,0.4179542122476599,0.589827450095861,0.026787705048574615,0.004108934543717153,0.12734850037576007,0.549618565292647
PERE_HUMAN_nonidr_14,0.36439169139465877,0.4097593142103528,7.483759430008382,23.208995664739884,0.8810363085856904,0.7039098475755651,0.2709668997128021,0.645246946362188,0.7507418397626113,-0.03608030324301558,0.9548827479907519,0.7350936182952948,0.12676825604893768,0.04010416666666667,0.2761776177617762,0.7297070164453087
GRAA_HUMAN_nonidr_0,0.17122239230264596,0.3458923084672342,7.087231784524928,21.113025973388325,0.7917244269641187,0.5640869722418526,0.2260297592438853,0.5486085204804895,0.8835215812827754,-0.053412914719003605,0.779108914868828,0.7448465027956536,0.08316283547960043,0.009736608351219363,0.2833386401134686,0.6650033358009121
GRAA_HUMAN_nonidr_1,0.14033696729435086,0.0666005946481665,5.751050126015122,15.74964995799496,0.7551774578489491,0.055200554315189776,0.21451787648970747,0.5308775731310943,-0.07672724080414363,-0.37594762232942797,0.36700241168960135,0.2686905944105547,0.009849126438944826,0.004077663812301998,0.18916666666666668,0.3352674780639683
GRAA_HUMAN_nonidr_2,0.35046377538230133,0.3175525220253655,6.538528515454941,20.147235546579147,0.8561450509496245,0.6567367975691373,0.32192648922686945,0.5670886075949367,0.6621893888515782,-0.03433534640700278,0.9250642090950295,0.5893847940472264,0.3938679245283019,0.017723865939694862,0.28124258951861514,0.7579648749134125
GRAA_HUMAN_nonidr_3,0.302720357557265,0.30196105041731697,6.9397429795335555,18.619688572182636,0.7254541273856059,0.678237940127191,0.25698174006444685,0.44675189970461565,0.6748684678982555,-0.22282855843565258,0.6936275335466846,0.7253187370669515,0.00945512433970911,0.007236064545695748,0.27447730331177994,0.5522905898180274
GRAA_HUMAN_nonidr_4,0.20242454855411038,0.3470890542302677,7.31664656212304,21.232713563533544,0.543952707734256,0.7934715664134675,0.3891785059578369,0.5491188127160807,0.6402014871671864,-0.06894868509366038,0.9579301768327824,0.6332230797500918,0.08418091322224627,0.03431325301204819,0.31781719579708506,0.5031498332441223
EPCAM_HUMAN_nonidr_0,0.1741259075277035,0.2995735607675906,6.701958011530512,20.770125936553484,0.8848802232450259,0.47099387702837986,0.2592461197339246,0.5387112448179967,0.4727672679278487,-0.050732200336164,0.6998112621544783,0.6422844175491679,0.022798358803591604,0.0058035135785556935,0.2630457330378549,0.7955962743872137
EPCAM_HUMAN_nonidr_1,0.1667968580479972,0.4869417108251325,6.780652561814938,20.726555541417483,0.6912683694618897,0.6746905089408528,0.2528891910265126,0.5723397071145405,0.5901432386501578,-0.05245390807582446,0.6752439408246773,0.6746931067044382,0.0319041892654674,0.018111762829165337,0.25764369020182976,0.5615104004967402
EPCAM_HUMAN_nonidr_2,0.15265917602996254,0.4159550561797753,6.306313328137178,22.15908124202467,0.6926703579847596,0.5493375837159653,0.11273364485981309,0.3250865107855503,0.48258706467661694,-0.11915284116979401,0.4162174500886727,0.6158105322717536,0.009746345120579782,0.030988379357740847,0.21966647498562392,0.5651199634614561
EPCAM_HUMAN_nonidr_3,0.14695397712157487,0.24150296848228872,6.948786039453718,19.548578673428533,0.526148894883809,0.6871859296482412,0.14747499390095145,0.5517611805280714,0.633551673944687,-0.06631234918598614,0.7718398284970522,0.6567350765704761,0.19560943643512452,0.005078636959370904,0.20279643890982577,0.3743071707108226
EPCAM_HUMAN_nonidr_4,0.22255172571115725,0.27584354180098863,6.279125059438897,20.805781916957702,0.6672161625042357,0.4805336688075217,0.1236809259049132,0.4636176420113266,0.37700322080089715,-0.1296248382923674,0.6720708674577971,0.4689662403019501,0.04512207341104171,0.036375141834686216,0.21686689436098305,0.4782844671293463
EPCAM_HUMAN_nonidr_5,0.2110344508242267,0.28245971476199294,6.766854705558613,20.454357561143645,0.8549018534234949,0.9027521808575992,0.15739841908195812,0.5975592844265705,0.8303538854432689,-0.030090000414748456,0.7885618166526492,0.5811265059849288,0.3138581000688835,0.012604300030903712,0.27227917791635037,0.666402507114297
UBF1_HUMAN_nonidr_0,0.22208121827411167,0.3975258257875271,6.747700394218134,21.523171553758004,0.6883731128234041,0.5102372330704931,0.13945089562271812,0.5264864437385494,0.3226233912396304,-0.1214556897082464,0.675539389931388,0.6302018953440461,0.024789871262900307,0.012038713891280467,0.214207731015178,0.5184035400658616
UBF1_HUMAN_nonidr_1,0.20819416610999777,0.2872549019607843,6.427613532459616,20.093701996927802,0.7546167623988635,0.40495089465895334,0.18805612594113622,0.48134839151266257,0.6512370311252993,-0.08209224840431938,0.5255905511811023,0.6433557987293765,0.006024554817107199,-0.00029171528588098014,0.2106082036775106,0.6297735014641725
UBF1_HUMAN_nonidr_2,0.03321364452423698,0.030184021543985636,4.259501965923985,16.33289646133683,0.13040265977096416,0.11562615441448097,0.16925465838509315,0.4173136645962733,-0.06876015159718463,-0.13156469951272334,0.07211538461538461,0.1201923076923077,-0.07048940832724616,-0.17202337472607743,0.17198283902257042,0.14251072561089348
UBF1_HUMAN_nonidr_3,0.22103740581270184,0.3979953224189776,7.137962609690958,22.7539169604387,0.9381498624807137,0.5641550926174728,0.5969980175587652,0.6429013963684888,1.0179948586118253,-0.03285439558660701,0.8649205414949971,0.7276558403001466,0.43558673469387754,0.09818822345244087,0.2882573075756043,0.8385813542603813
MMP8_HUMAN_nonidr_0,0.11713625866050809,0.28616071428571427,6.473291626564004,18.982734054144665,0.7934732636852201,0.39478371501272264,0.10491351524247718,0.3671973033486701,0.26978942247550214,-0.1397662408263115,0.42491614758025875,0.42077506239110984,0.07136537894426423,-0.06620140020254502,0.15166206566128995,0.5318844079529904
MMP8_HUMAN_nonidr_2,0.16198282591725216,0.20843091334894615,6.713855421686747,17.639558232931726,0.8194758977677127,0.18756314870947002,0.06554919596620333,0.17157263559553013,0.0019516589100735625,-0.07737704918032787,0.2217913553390712,0.616035703293321,0.020361990950226245,-0.0024964893119051334,0.1165368484122229,0.5791258477769404
MMP8_HUMAN_nonidr_3,0.12021501873269262,0.39410051905304466,6.714039649008774,21.458685349268492,0.7009232090460173,0.47636696789239164,0.10820608928077667,0.41377615287720054,0.3813080568720379,-0.10014686190661311,0.477933368258598,0.6980425625636649,0.015472688820283444,0.022026663856247037,0.2193333040537573,0.5360365350763815
MMP8_HUMAN_nonidr_4,0.19406734047006757,0.2991949454804851,6.654911515773275,20.525539160045405,0.7183520492908758,0.4888474970896391,0.2196514068728036,0.6171654432523997,0.34106413452867224,-0.07265891405088747,0.8537718181137164,0.6165247207167349,0.2879753792042207,0.02601304315966879,0.23293654920721965,0.614282137939667
MMP8_HUMAN_nonidr_5,0.0717628705148206,0.08885915212254078,5.957428016251546,15.625509372453138,0.4730092712936487,0.24270819585587963,0.10054988216810684,0.36828430917695093,0.23987823439878234,-0.16879756468797566,0.5799689440993789,0.378408277477712,-0.0016941973739940702,-0.02739917662576442,0.2023533503361929,0.24330844342331992
MMP8_HUMAN_nonidr_6,0.3521996174578334,0.44087984698313337,7.586943921170845,22.05238161754435,0.8725904118886235,0.690860706290831,0.3616811689377771,0.6253727297370562,0.6190574192220621,-0.05935587196419561,0.789379116423692,0.7212478066472354,0.23082318433973092,0.048855336647640094,0.2978684971098266,0.7406009879253568
CMA1_HUMAN_nonidr_0,0.08045739121436332,0.21770062606715992,6.866555152866834,19.388756550738446,0.760740972835427,0.3432452973589208,0.1288135593220339,0.397882387663248,0.1931883512082945,-0.08579346626271167,0.5376577374363516,0.6172865429538833,0.04283945966309671,0.013418903150525088,0.18936035465484483,0.6204887785178824
CMA1_HUMAN_nonidr_1,0.18578596239730938,0.3115331285174411,7.263786581724069,20.81402142161636,0.7044762088617689,0.6900722853641811,0.3555804823331464,0.6224364496087093,0.5981235340109461,-0.09346949395082607,0.5689133794771857,0.7312966498871724,0.02400923432089265,-0.006131999354526384,0.3106484399621809,0.5506116317333143
CMA1_HUMAN_nonidr_2,0.10742886906699654,0.06087006362125294,5.479113384484228,15.071969696969697,0.7079303675048356,0.14618570935450467,0.11733919902912622,0.35600616016427106,0.6225457007447529,-0.23319828408007626,0.5611865618298785,0.32730521801286633,0.02939854355839252,0.0075968713476580055,0.17011191573403556,0.3352674780639683
CMA1_HUMAN_nonidr_3,0.30567081604426005,0.2888498143275213,7.190468625893566,19.006305578011318,0.8612010681211295,0.5929286250174846,0.31427304964539005,0.5505154639175258,0.6708860759493671,-0.05215711526078558,0.5857400722021661,0.71485279523652,0.020106157825780225,-0.02071093059667943,0.2792798690671031,0.7206771000657824
CMA1_HUMAN_nonidr_4,0.22453928225024247,0.27573115171704304,7.034123315960271,19.33177053554412,0.5096884165141754,0.2190503216042376,0.17374301675977655,0.5279421433267587,0.26693227091633465,-0.04954850659874971,0.8174347981421937,0.612653116166375,0.11951608614730125,-0.007122774133083412,0.1735887767550183,0.339856815914559
CMA1_HUMAN_nonidr_5,0.13067502371036246,0.35350043215211757,7.507079646017699,17.057190219643598,0.5697354497354498,0.6412528257857507,0.19004524886877827,0.5001508295625943,0.5989910123791758,-0.10599953189608093,0.5840296013368346,0.6891242070800082,0.012609398979634161,-0.013899049012435992,0.2695214105793451,0.4139278809783979
CMA1_HUMAN_nonidr_6,0.2315882874889086,0.3734015345268542,6.66023166023166,21.175780630844823,0.7456673761021587,0.28874805056906794,0.17759966251845602,0.4918793503480278,0.2661316737635113,-0.09705719044975014,0.3762118362031544,0.7055503292568204,-0.026583972412373258,-0.06368899917287014,0.24440599769319493,0.6333965659808356
RPB9_HUMAN_nonidr_0,0.35398230088495575,0.30663204155013984,6.598141653711269,20.469050399784386,0.7096828093235679,0.6716374552144863,0.2182890855457227,0.5124427632888712,0.6097044206120847,-0.06132486072423398,0.7530087020922052,0.6729102029498093,0.28253968253968254,0.01609246009906439,0.29451612903225804,0.6602064139117322
RPB9_HUMAN_nonidr_1,0.25327562002807674,0.3877144988808754,7.116788321167883,21.732649442755825,0.8143415406008008,0.6184772885399066,0.22316784869976358,0.5104061280531869,0.6556971656838501,-0.05205994337596407,0.4654693954779099,0.6289168517147792,0.03295722055361636,0.028826688527881415,0.3031267765776009,0.7394913935950762
NOP2_HUMAN_nonidr_0,0.09276184473158945,0.10978043912175649,5.797872340425532,15.93394617836756,0.45009551098376316,0.5530011184292283,0.07429322813938198,0.225290379136533,0.4784475356345526,-0.29446581828943474,0.3912068840841709,0.4026340545625588,-0.002068252326783868,-0.027921406411582212,0.20667546671695267,0.2932735426008969
NOP2_HUMAN_nonidr_1,0.21143531958864342,0.3136840033459627,6.277306609872975,21.616139585605236,0.7780340834196403,0.5828566034173511,0.10963149537315885,0.42967037347044523,0.43561708954780437,-0.08131560114503816,0.4771566651666047,0.38672249505957856,0.07640407321796713,0.0127343592500504,0.22859598124297142,0.6210460485171654
NOP2_HUMAN_nonidr_2,0.23812134888331188,0.3969682835820896,7.252852852852853,20.485508256113704,0.8127409949136534,0.8440500338066261,0.2832974687128376,0.5214834545640815,0.7609618699289528,-0.04751346214760849,0.7902665121668598,0.6504513105363652,0.11167160310995927,0.05622917437985931,0.2844131942805908,0.4838946887873793
NOP2_HUMAN_nonidr_3,0.15044687189672293,0.17378351539225423,5.789755218326647,16.336969490369864,0.63782804215048,0.10428100987925357,0.1410864410433283,0.38704462168570813,0.3173007896625987,-0.09032131661442007,0.32209420535411726,0.3370044052863436,0.02190727727208414,0.004077663812301998,0.19758848697005058,0.3927678399692249
NOP2_HUMAN_nonidr_4,0.3405528865086241,0.2926930596285435,7.458178543284927,19.953741347104714,0.8150766983199416,0.7060855888096563,0.2537775323996048,0.5704680630980088,0.6287611188617451,-0.04547150978605216,0.9981860585643949,0.7686386503763665,0.11073177972391272,0.027757161941516995,0.2753585675568684,0.670485290174763
NOP2_HUMAN_nonidr_5,0.22832384012462878,0.423056326371647,6.752118821851137,20.4136623570363,0.867132546683469,0.8316566268130344,0.18150870485284046,0.5472492125559432,0.7414088411464779,-0.07283269131488027,0.5133143649230321,0.6062963389804464,0.18345804382683056,0.029708328072295676,0.2742086095807265,0.7684057699512926
NOP2_HUMAN_nonidr_6,0.2152645273200347,0.3030330303303033,7.599118942731278,20.26140171936471,0.8773765523737369,0.48510389718768254,0.5812261863526151,0.5712116610993015,0.6674977305563013,-0.03131364562118126,0.7733234267993281,0.7541744568370834,0.10311237823711095,0.030829861502083097,0.31688804554079697,0.7625784679284466
GRAK_HUMAN_nonidr_0,0.1741205193652203,0.2745836940469522,6.45142797581822,20.04550930996714,0.5797907128842381,0.7107650260349174,0.19524617996604415,0.45840407470288624,0.5183429734361611,-0.08250231910946197,0.5377358490566038,0.5898716338347477,0.018304702900591382,0.010989158437097466,0.2548672006078065,0.5015783171873299
GRAK_HUMAN_nonidr_1,0.28275627970128986,0.45426170468187277,6.784584592441427,20.83228990540602,0.7156679817877101,0.6167639699749792,0.28211009174311924,0.57080078125,0.5963178832454437,-0.07336462479947715,0.8046011080963998,0.6834098686193507,0.004486228748636358,-0.03028268013359479,0.29584807298454663,0.5171179939314136
GRAK_HUMAN_nonidr_2,0.086483997236933,0.09689154962007829,6.156047516198704,16.372421028091853,0.6338824686501107,0.28806970357897593,0.07865086599817685,0.3109936189608022,0.11957745259329812,-0.10121866024994178,0.521484375,0.31614717600187486,0.0037373764147692634,-0.006202454475574522,0.12517645614681153,0.5021040402736543
GRAK_HUMAN_nonidr_3,0.11701689328388958,0.22047531992687386,6.564656738103887,17.154826958105648,0.4206264649477946,0.42458534899792677,0.21977767484946734,0.5729504400185271,0.4366029302210082,-0.04542372881355932,0.8459357277882797,0.6309963099630996,-0.009008485412065559,-0.026880158084389167,0.21593027080363994,0.1716556003047785
GRAK_HUMAN_nonidr_4,0.06405635648754915,0.09485583224115335,6.289546867331915,15.682190120214162,0.7206412603317246,0.12749849535937152,0.07147663551401869,0.2959252336448598,0.05144636327432026,-0.08651559658693524,0.41215277777777776,0.4470486111111111,-0.016180527571990948,-0.07225442484733889,0.1028243601059135,0.5729091991591839
GRAK_HUMAN_nonidr_6,0.3014005602240896,0.3521008403361345,6.692314518991835,19.279173290937997,0.670125196217313,0.4632555637732804,0.21248587848126135,0.6125118934348239,0.4678540399652476,-0.12614806271092316,0.8303,0.5448508276340569,0.004061944656004062,-0.03291078424125952,0.3157775768535262,0.4428243420923524
GRAK_HUMAN_nonidr_7,0.17449886796620465,0.34656800485946215,6.585201503174809,21.357308584686773,0.6597392479185281,0.6724915803520366,0.21363832542080277,0.5326839955000297,0.6317017388606039,-0.0558858501783591,0.5709762416137103,0.578692714989958,0.04732297063903282,0.03163153142543085,0.3287805861452007,0.47999478524941336
GRAM_HUMAN_nonidr_0,0.09849336631436924,0.33153436773855033,7.165813060179257,17.59725400457666,0.7965901417960837,0.6296228343773753,0.16421684842737475,0.4411972063715878,0.5850814821357594,-0.14396183091795478,0.3973137231068433,0.6869435000809454,0.00955673037820252,0.008342768607353555,0.24560663573738226,0.5566851100454937
GRAM_HUMAN_nonidr_1,0.24192550426927362,0.43777869529314617,7.456081435617588,21.06573584251149,0.8845915884124125,0.6562889362037694,0.2026117269491119,0.5923193541845712,0.6405042700284669,-0.0486815415821501,0.7241324627508843,0.7148548662492885,0.022363360793492045,0.0028899027333663353,0.2806003075071863,0.8404799594203406
GRAM_HUMAN_nonidr_2,0.01900133703589427,0.015298776097912166,3.02875,14.959583333333333,0.3971188475390156,0.35498199279711884,0.06100263121451323,0.1902091123113142,0.3345773653419407,-0.24541053056284043,0.04,0.06984014209591474,-0.06124181421295173,-0.09883579917535774,0.1602898182280412,0.28826109063175287
GRAM_HUMAN_nonidr_3,0.3210564930300807,0.5114060555785981,7.249310752264671,21.168793468400363,0.7697571784306092,0.5673965104344851,0.1943116281362449,0.5383208500261278,0.39924965893587994,-0.08379438426972129,0.5589411764705883,0.7113455913079816,0.007815604715856404,0.013030290775265903,0.25127054738096144,0.6452420240337134
GRAM_HUMAN_nonidr_4,0.18821096173733196,0.3853807106598985,7.172503920543649,21.156412834811224,0.5763095034976966,0.4851223275292043,0.14667614336896767,0.5274952578809502,0.43397265302376803,-0.05891367273965605,0.5640904354940777,0.6496523388116309,0.00017070407672372322,-0.011591918337530517,0.26436781609195403,0.47279929125365927
AFF2_HUMAN_nonidr_0,0.2490566037735849,0.37641509433962267,6.9945837202104615,20.33801073049938,0.7181684410975504,0.26585156585156583,0.1014815272712287,0.3764455515779402,0.14867573371510379,-0.09258034651501124,0.5685564209382358,0.5829727733220769,0.14371681415929202,-0.009947742869734938,0.1466516467554027,0.5090129837388125
AFF2_HUMAN_nonidr_1,0.08523956723338486,0.07055641421947449,5.607577807848444,16.420443327649647,0.5657205841829706,0.2542199085029184,0.09678266579120158,0.34077478660538413,0.07725841608137564,-0.13247376311844078,0.42924528301886794,0.33206831119544594,0.004140450578445302,-0.007834381976862188,0.16231529830018887,0.4374912619187428
AFF2_HUMAN_nonidr_2,0.17894012388162422,0.3504308859014133,6.924600827912478,21.218669778296384,0.889690457917626,0.29250329932082275,0.10324054840049855,0.4043761251904168,0.3754227733934611,-0.06221413104317788,0.47980790763641795,0.5875255244106181,0.047508690614136734,0.04032258064516129,0.19628836545324768,0.7659977281332828
AFF2_HUMAN_nonidr_3,0.1646574778852088,0.2874768661320173,6.719290222262874,21.470321189422314,0.8633113989342537,0.3521467503451024,0.16673614005835766,0.5664767063514454,0.2769074637881723,-0.05918427122615604,0.8113718819154861,0.586936817953459,0.25447965398534733,0.034507986830874283,0.17955097789607685,0.7582480091012515
AFF2_HUMAN_nonidr_4,0.24146446210006442,0.37864757606411953,6.945095398428732,21.529219063721865,0.6958808063102542,0.5560999510044096,0.11439299963120662,0.4270153222951333,0.5704653622421999,-0.06552711466813854,0.635387811634349,0.6241239510984004,0.056288363588872924,0.019459318270863262,0.2170483231157591,0.4005270605340707
AFF2_HUMAN_nonidr_5,0.1658901902730004,0.3914778288037341,6.6025930101465615,21.156857593273777,0.6464250734573947,0.4649777522606574,0.061742416201413804,0.3613900269598998,0.19500452833786167,-0.09087718682552773,0.5019847236422686,0.6753257671290458,-0.003809968120674909,-0.024414897752896354,0.17028927344527564,0.4472403052359333
HNRPM_HUMAN_nonidr_0,0.19925512104283055,0.3165735567970205,5.451925948044193,17.39344262295082,0.4061594202898551,0.2503623188405797,0.2581721147431621,0.41561040693795864,0.5352020860495437,-0.20264672036823936,0.5205519244734931,0.4178649237472767,0.025597269624573378,0.011732081911262798,0.2535211267605634,0.28826109063175287
HNRPM_HUMAN_nonidr_3,0.14817873672981297,0.3706288674629443,7.123723373212722,20.263724238555536,0.7386840646285443,0.816753078418665,0.09652700891556436,0.4377240572819815,0.7175609756097561,-0.1091036803502295,0.5903289631030809,0.5878815608863325,0.09649641198818067,-0.011133155573528111,0.22544799279207128,0.5809928448162762
HNRPM_HUMAN_nonidr_4,0.14078652882873283,0.2503463710966642,5.848443097271976,18.51272577996716,0.7375085893786198,0.3015978537002303,0.09251561380157673,0.3920208152645273,0.21645021645021645,-0.14229559748427673,0.4740030141432877,0.5387781126825876,0.008129431206354284,0.007249853403699558,0.1863160542559161,0.6591233708266381
HNRPM_HUMAN_nonidr_6,0.2607284357248556,0.3700779695298992,6.91433261516364,21.513844565421437,0.7676852777381122,0.5803049622781851,0.16121380664158352,0.5987217135947487,0.5254975856789542,-0.07474869793856624,0.6389893737282387,0.5994007736586667,0.06812440108023347,0.014683425349465524,0.2493870723827418,0.6526613798738712
HNRPM_HUMAN_nonidr_7,0.08658959537572254,0.06152769382496103,5.984406010774029,15.289351623408665,0.6578387953941541,0.18901682905225864,0.1433126095966842,0.3585206440299697,0.1978696862105364,-0.05245390807582446,0.5834559905799235,0.25434206652929053,-0.006383948928408573,0.01823985408116735,0.14592720970537262,0.4473183888225671
HNRPM_HUMAN_nonidr_8,0.11759135032751954,0.21754007687259774,6.9376246083736826,17.546998791459647,0.464976120081874,0.6385897701387451,0.0987766950031101,0.47258967447646694,0.5738682569802115,-0.13868238913099204,0.6323576201081769,0.6185059696676347,0.013862426910189869,0.016342553051704883,0.2023164120256284,0.5163593099345628
RPAB3_HUMAN_nonidr_0,0.17405933889194566,0.25845958450512563,6.1882202304737515,19.198632838175364,0.6714380408104768,0.3806856125250427,0.22574684323991376,0.5337234370187866,0.5389275976976674,-0.042869269949066216,0.8951423068692489,0.371420355554052,0.07346839150597999,0.009953242905421045,0.2060270127596019,0.4039437106374959
RPAB3_HUMAN_nonidr_1,0.1459449473489747,0.2627932609037947,6.3671847246891655,20.30765329746654,0.5675042121456304,0.6566505786496445,0.14573185338976283,0.504913613304553,0.6934729235187844,-0.09356968388261531,0.7362240289069557,0.6614047716988893,0.11918505942275043,0.035188739603326934,0.277984061841791,0.4187575660379311
RPAB3_HUMAN_nonidr_2,0.20455024225826837,0.3195299384443201,6.534099447513812,20.77791075397504,0.4898965007392804,0.6601576495879613,0.12785254534815682,0.4534815681685196,0.47663139329806,-0.16125892277741727,0.5742092457420924,0.6117950186086458,0.3584558823529412,0.022058823529411766,0.26455286149013446,0.40767860676825646
RPAB3_HUMAN_nonidr_3,0.17216327810589035,0.33544303797468356,6.894736842105263,21.704248366013072,0.7559331022595981,0.4859641803498525,0.18897924781885692,0.4843744416252725,0.4669315155072006,-0.07443227030666585,0.6651978181644952,0.6244069042292186,0.04631415674031062,0.03301051961739614,0.238266096466258,0.7257546700007417
RRP1_HUMAN_nonidr_0,0.08757388409538691,0.2270732777534006,6.422353437368199,16.740868831716575,0.5318471337579618,0.4067055393586006,0.17911157614382192,0.5495101303148483,0.325928098345431,-0.059915611814345994,0.5618504860878311,0.6475609756097561,0.0037134457682190935,0.03094538140182578,0.20861873263141414,0.4647590361445783
RRP1_HUMAN_nonidr_1,0.310999441652708,0.4017308766052485,7.164476565922032,22.203813141972702,0.9167473378509197,0.4439527705225894,0.125036116729269,0.5473135786388799,0.39138377226366267,-0.04479213688899488,0.697993133670137,0.6307675592148152,0.2812312066043409,0.04569177064251892,0.22182532447081835,0.7966913705782279
RRP1_HUMAN_nonidr_2,0.14509900583353874,0.21401110636480136,6.35479736328125,19.926253687315633,0.6881342701014832,0.5059580102137318,0.21265560165975103,0.5643153526970954,0.4392430278884462,-0.15362944050710922,0.5752448797862867,0.4930246363906204,0.0681996855345912,0.004044489383215369,0.22082353483653802,0.5012199921290831
RRP1_HUMAN_nonidr_3,0.23042104364164318,0.2941513272503563,7.266318537859008,21.03866969746171,0.908247946982271,0.6032969315807267,0.5022398782858591,0.6392461270269382,0.9294423120343193,-0.028854379630837937,0.9253653970768234,0.6662217596848938,0.20561418623016728,0.06192992457463603,0.26947004608294933,0.8366656108955578
NOP14_HUMAN_nonidr_1,0.213379705400982,0.4099369268273807,7.194418127269857,21.440455421908,0.9099638906704387,0.6025544586703476,0.2961210660712114,0.5962231997780684,0.6411344256813242,-0.029758635173995927,0.8720766228228425,0.6769417167974529,0.16562155952323968,0.06389838471882442,0.267019017933776,0.7284048481209778
NOP14_HUMAN_nonidr_2,0.12926626233797123,0.22131050065406113,5.688195991091314,17.71714922048998,0.2705536141254368,0.17275597654488048,0.21181818181818182,0.5827272727272728,0.3783287419651056,-0.06682520808561236,0.6317780580075663,0.31525851197982346,-0.02178718029681086,-0.0704662667087675,0.20233812949640287,0.14078947368421052
NOP14_HUMAN_nonidr_3,0.1064516129032258,0.08885630498533724,5.880407124681934,14.072700836059616,0.5953557880216117,0.11874928152661225,0.07984320198060656,0.2715081493707448,-0.07672724080414363,-0.613817926433149,0.17383720930232557,0.3744186046511628,0.009849126438944826,0.004077663812301998,0.10636556419509655,0.35890472115778116
NOP14_HUMAN_nonidr_4,0.1881603355109283,0.38915383567243494,7.109219095417338,21.559262766809937,0.9022774741028731,0.6095574526543028,0.19507139567019807,0.5665105871092082,0.6257579432452098,-0.046739434648754546,0.6946248196248196,0.6202357473742146,0.23368547239079943,0.03205786185753421,0.2857875833760903,0.7940161259876494
RPP38_HUMAN_nonidr_0,0.20863249979367832,0.3826035658101731,6.361646961211367,21.100182565038796,0.7845764142977766,0.570746940799614,0.13965129741878363,0.54973485457175,0.4512282853537438,-0.09347795062080777,0.6570053843510139,0.664157610668732,0.0524375,0.03925,0.21847770374167094,0.6366918045677115
RPP38_HUMAN_nonidr_1,0.05102614562833849,0.055491329479768786,5.418367346938775,14.097297297297297,0.5245612314932837,0.2341962673088501,0.14754631134221644,0.36041598960026,0.2842438638163104,-0.1995249406175772,0.18055555555555555,0.20934959349593496,-0.07253463732681337,-0.1426242868785656,0.19473542841794253,0.2599577017976736
RPP38_HUMAN_nonidr_2,0.19063134732566012,0.2985939497230507,7.253082061586922,20.107487004894065,0.8687217950860772,0.6775690516493952,0.32323113898821737,0.6115706341417824,0.7211775483797849,-0.0465869456900847,0.7371953024770551,0.6770930371431984,0.05555984854338923,0.015138685501197081,0.26818953428297293,0.7812820620932945
RPP30_HUMAN_nonidr_0,0.23890371089012855,0.34388669027285984,7.134023593924745,19.982324080051647,0.8327062699558683,0.8129023553448209,0.26912152879613477,0.6310168294692244,0.7850628119084495,-0.055205580029368574,1.0236872016367355,0.7400501569409613,0.05900859546550271,0.04986258343148803,0.32954752706713314,0.6665408425184961
RPP30_HUMAN_nonidr_1,0.12729064039408866,0.2537931034482759,6.452431087289433,16.919314701378255,0.7102925243770314,0.31131365167426195,0.11114917671241677,0.45656143020159756,0.09025300705101617,-0.16411137545158164,0.5080670453357494,0.6357545839210155,0.009944714131607335,0.03044093851132686,0.20519349297767,0.5724809260720863
RPP30_HUMAN_nonidr_2,0.09623430962343096,0.1098326359832636,6.5285714285714285,15.123486682808716,0.3607353451266042,0.23968088796392648,0.13196480938416422,0.4413489736070381,0.3468882602545969,-0.1606942889137738,0.26149131767109296,0.34285714285714286,0.028859707693449067,-0.005712589954744417,0.2594458438287154,0.26017130620985013
AK17A_HUMAN_nonidr_0,0.14135195438393522,0.28387299591323484,6.335208345800171,20.35360356558,0.7835650702567498,0.6356468820065538,0.23575129533678757,0.5656303972366149,0.5190169419463366,-0.07801780888365324,0.7168975650713686,0.37826752706988953,-0.0021443298969072164,0.012041237113402062,0.29617021276595745,0.6111111111111112
AK17A_HUMAN_nonidr_1,0.3035398230088496,0.39247787610619467,6.931493526229408,21.060296540362437,0.7928099931918421,0.6537805856397915,0.22180579216354343,0.5757270218637232,0.6930995342283456,-0.09701339123096177,0.6432320750502568,0.6655269075562948,0.33871447701234936,0.03507438241274668,0.3208709942481512,0.6530106884782477
AK17A_HUMAN_nonidr_2,0.13503866745984533,0.3663894555154558,6.250474116738077,22.637372392365734,0.7314617455687682,0.7030293829121316,0.21294500891956875,0.5838223827307424,0.5487442876208194,-0.059466848940533154,0.4615281343872191,0.6086019850734785,0.06820617113866474,0.01787216294185117,0.22309314759405505,0.567136738121503
AK17A_HUMAN_nonidr_3,0.19640407101754961,0.3135039147630963,6.5417383582172395,21.15909090909091,0.712689764936337,0.359263629926835,0.13528144506435397,0.40286140418715133,0.3448136142625608,-0.12003968253968254,0.5137384140061791,0.6425175959022736,0.2964892176268361,0.015105740181268883,0.22794339054501656,0.6386537270287013
AK17A_HUMAN_nonidr_4,0.15382180724798228,0.19496755815793637,6.734839108910891,16.83029084158416,0.650801021592756,0.323087235468735,0.07101580646988839,0.2964987819387004,0.24615384615384617,-0.10693849426285988,0.4016136261766024,0.5607419582061517,-0.029075850043591978,-0.06551874455100262,0.13422841956304146,0.5530085959885387
AK17A_HUMAN_nonidr_5,0.2460431654676259,0.4774330042313117,7.204398343585414,20.27140077821012,0.9342816007967178,0.6991788753837322,0.543823584376752,0.6723245496101102,0.8075835978605905,-0.030908584737188757,0.962429489702217,0.7518786090727992,0.051303385490294284,0.040265164464394536,0.31409954466949286,0.7888783112767773
SRSF4_HUMAN_nonidr_0,0.07209372183838991,0.22679483328326824,6.865216077364763,17.012239347234814,0.35342666109486,0.5091934809862098,0.1841722432353797,0.463873533119969,0.3428666444961756,-0.08312182741116751,0.2311148553777029,0.6821117663577647,-0.05039141780226152,-0.10507393447376051,0.21162514827995255,0.2380851514509638
SRSF4_HUMAN_nonidr_1,0.26102963006947333,0.33409161732626985,6.975074610368078,20.65971037492561,0.7459441832658497,0.6882188256658596,0.17269034975781775,0.5621023905300279,0.6735560002760334,-0.07400766970466657,0.7294455616202241,0.549193293261626,0.18763554074865638,0.010973730692622797,0.26504935102498284,0.5578923805056922
SRSF4_HUMAN_nonidr_2,0.200531611923296,0.4560810810810811,7.236781811773,20.636616902726384,0.8529896734876865,0.8108310510099281,0.37460159247111185,0.6595213791539072,0.6850176988276556,-0.03309517639654981,0.7915583024814123,0.6723115008021242,0.24932219932762173,0.0858416945373467,0.26515692617957226,0.8240733268000231
BRME1_HUMAN_nonidr_0,0.2318356867779204,0.4156611039794608,7.175438596491228,20.865591397849464,0.8744758135963617,0.4632555637732804,0.4268677656962469,0.5490018148820327,0.5826972010178118,-0.05060240963855422,0.8959731543624161,0.6861873990306947,0.02477989207611474,0.017971832278190658,0.3160742528926996,0.718129884285617
CGNL1_HUMAN_nonidr_1,0.19988512349224583,0.20620333141872488,5.265200961868773,16.716592236344898,0.4011891279728199,0.2785956964892412,0.05465725347301298,0.20063766795718516,0.18420424719637318,-0.45454545454545453,0.23864574731626756,0.3133773740710157,-0.05569155446756426,-0.07527539779681762,0.15710306406685237,0.221058495821727
CGNL1_HUMAN_nonidr_2,0.2852062588904694,0.3504575606449426,7.866507177033493,21.26088535754824,0.9477607864554888,0.7406646231015744,0.4224551950333841,0.6127395479515243,1.1120976692563818,-0.024476078754636824,0.9114152527741591,0.7074459447643554,0.28071787664198067,0.06232769338883183,0.29727711006993957,0.8431941775360837
NEXN_HUMAN_nonidr_0,0.05222199467540446,0.07843538808109769,3.815057608263806,11.514633823334657,0.20009610764055744,0.09034118212397886,0.11254752851711027,0.43954372623574145,-0.056912659638296045,-0.1722807919773721,0.0625,0.10175879396984924,-0.06470165348670022,-0.09585430146177809,0.22401284109149278,0.11800963081861958
NEXN_HUMAN_nonidr_1,0.05010720241403955,0.11336619309944912,4.739135943240846,13.210186240973014,0.5697354497354498,0.12421555931865724,0.13447002988222886,0.4772807171734927,0.12909441233140656,-0.1215918584339637,0.4397777203411734,0.30731455156371157,-0.016180527571990948,-0.06658904238914938,0.215578619248344,0.475656485968669
NEXN_HUMAN_nonidr_2,0.05438202247191011,0.03191011235955056,6.449081803005009,11.782136894824708,0.30358060647592944,0.07109816686654104,0.11985111662531017,0.38535980148883375,-0.03280718043949242,-0.719900959455277,0.1123998895332781,0.2676056338028169,-0.15898021308980212,-0.3314307458143075,0.1484339536995007,0.1141625056740808
NU160_HUMAN_nonidr_1,0.3284417549167927,0.3975656653606153,6.9953426273791415,20.743698480011435,0.8410109541608013,0.7404735883424408,0.23959784775665074,0.6437840100460444,0.6577924337079671,-0.05565529622980251,0.9584612059649881,0.7529451447274726,0.1288914882130646,0.06299855971637491,0.30953936622018946,0.6365309166902153
NU160_HUMAN_nonidr_2,0.2272962617790204,0.4850361197110423,6.519473684210526,20.6,0.8090037671105144,0.745641129265054,0.2591687041564792,0.6006475096486255,0.5880420845555302,-0.08067917590439626,0.8704919361374504,0.6171787546154746,0.08362552594670407,0.027440437563734123,0.28193940687006613,0.6165480797237133
NU160_HUMAN_nonidr_3,0.3397626112759644,0.4377978216473792,7.380002650410813,22.33844867238135,0.8657878237645852,0.71010380717238,0.3295154185022026,0.5482911254625934,0.6321995906831693,-0.05387112369638787,0.7844052625487095,0.7230155896703558,0.14565301284525056,0.05828704656106425,0.2704591005300916,0.7039645431521527
NU160_HUMAN_nonidr_4,0.08900124010302395,0.20700181245826577,7.051485551485552,16.255799755799757,0.6892515923566879,0.15761448349307774,0.1918074160357212,0.39798097456804504,0.04200913242009133,-0.0593607305936073,0.309192425958893,0.5635528330781011,0.008129431206354284,0.007249853403699558,0.1636020744931636,0.45444560382228566
NU160_HUMAN_nonidr_5,0.2183926119269998,0.4055299539170507,6.998133748055988,22.804623068881405,0.9216651567493305,0.5781376011024374,0.2179737402413059,0.5693520200116506,0.8456152977933359,-0.030901312366306295,0.8506479964248473,0.6830460814791183,0.4086294416243655,0.08005014326647565,0.28232776360194256,0.8607520564042304
NU160_HUMAN_nonidr_6,0.23138727337175566,0.4401970993878743,7.0408272644156495,22.363297522473143,0.9257588330859406,0.8217203762863073,0.35000154877079226,0.6307408262174014,0.7314123322979313,-0.0387544323076557,0.8382396891811118,0.7884888720965798,0.1257928352007779,0.06287431766447878,0.2664538912283047,0.8276127841470897
NU160_HUMAN_nonidr_7,0.2591002307100743,0.43752577319587627,7.144575311751761,21.91955325348009,0.8632369599508781,0.7539762959252218,0.17712355212355213,0.5614551635693092,0.6416470607390281,-0.042451972742064914,0.6708178767002296,0.740785880683133,0.33790610142630745,0.054087771046761185,0.3022861981371719,0.7636799393497214
NU160_HUMAN_nonidr_8,0.21127053441463922,0.21376585568725306,6.208857233805507,18.38,0.8510441088272177,0.44510385756676557,0.22713257965056527,0.5834189791024323,0.27791558749498413,-0.06682520808561236,0.8390625,0.5693420542098553,0.04962971150657677,0.008860759493670886,0.21563517915309446,0.6650878443704406
NU160_HUMAN_nonidr_9,0.24285244824186658,0.41159029649595685,6.743444514369624,22.466402622234362,0.9409397075735173,0.5543525335643136,0.3039583553535567,0.5789734761168335,0.661372827833281,-0.03243200380620093,0.7300623443234241,0.6270658716418016,0.32733617329828696,0.03667518647957853,0.2618694156168489,0.8429257755383808
SNTA1_HUMAN_nonidr_0,0.040383014154870944,0.037052456286427976,6.2291515591007975,14.357142857142858,0.47276585710917235,0.13160733549083065,0.1687170474516696,0.4903339191564148,-0.12310195227765727,-0.14154013015184383,0.14458560193587416,0.3022786852187941,-0.0831858407079646,-0.18672566371681415,0.1526479750778816,0.2599577017976736
SNTA1_HUMAN_nonidr_1,0.11659551760939167,0.11728922091782285,5.9152966607884405,16.416775542200156,0.7181684410975504,0.1437922758018765,0.09727300898667493,0.3664267700067663,0.12390029325513197,-0.12029047749189864,0.5863823126589709,0.45658930791545793,0.003544445480832012,0.024997668127973136,0.1479251210891478,0.49414109688330515
SNTA1_HUMAN_nonidr_2,0.09375,0.2637810559006211,6.3023255813953485,19.387101692331147,0.5299863979225918,0.7117828924768121,0.08151673319005219,0.31470678538532393,0.5415354004311059,-0.12569549822964088,0.1352536629123891,0.291836938104256,0.0006056201550387597,0.005147771317829457,0.16502857142857144,0.3699014726136243
SNTA1_HUMAN_nonidr_3,0.12206128539194992,0.23713516267559503,5.513056547059929,20.566779374471682,0.8330357551618367,0.437129143202691,0.0670940942748781,0.2515351273252664,0.3011974209395149,-0.10833209156245344,0.5741574566789467,0.2489754098360656,0.019487136825905204,0.017836781234728784,0.1437033557747508,0.723986856516977
SNTA1_HUMAN_nonidr_4,0.09458509142053446,0.21976090014064698,6.564656738103887,16.44733018525245,0.5012628388617613,0.22285714285714286,0.13859171955273497,0.48243045387994143,0.178328173374613,-0.26811145510835915,0.4133692343713416,0.6193638587906326,-0.027526582530060618,-0.05409255026665342,0.23716939546599497,0.2424573544588114
SNTA1_HUMAN_nonidr_5,0.11234032846715329,0.09956660583941605,5.842359767891683,16.593157991539453,0.8241255312193527,0.10581283495946131,0.15587301587301589,0.4011111111111111,0.3594890510948905,-0.06682520808561236,0.38233955393718705,0.33636777423759673,0.008549008315035456,0.006875202476512725,0.19308050565535595,0.6770976768977924
SNTA1_HUMAN_nonidr_6,0.14456279995317803,0.22821141057052852,6.908912702561421,17.419498170412965,0.8045000542829226,0.18108381016492764,0.13031066330814442,0.3949622166246851,0.09906948518256296,-0.08064587973273941,0.5787762341117352,0.5961016233178444,0.028859707693449067,-0.005712589954744417,0.24499861072520143,0.5823134035676129
SNTA1_HUMAN_nonidr_7,0.26258992805755393,0.5035971223021583,7.177875049741345,21.29395965483742,0.8628700949142938,0.8254416961130742,0.19682835820895522,0.618848167539267,0.7687007874015748,-0.0650803501437157,0.9999180103853512,0.6774325475717126,0.11076362905297488,0.008868238526576793,0.2796976241900648,0.7622390331447784
TCOF_HUMAN_nonidr_0,0.19151643690349948,0.23223753976670203,6.801540832049307,20.355540983606556,0.7145325351632842,0.5387709137709138,0.08795074758135445,0.3383705125129927,0.35417638824078396,-0.15588071348940913,0.24285714285714285,0.5488381552855036,0.04555808656036447,-0.06611078022632519,0.1713825465751506,0.5974891151340557
TCOF_HUMAN_nonidr_1,0.24632906626506024,0.47800577309236947,7.656616947000952,21.043260333127698,0.9561091697794915,0.7847957486511703,0.6070866141732284,0.6404820716050053,0.9486332782975601,-0.02148112983622122,0.9312789309732452,0.8568203873254293,0.10715482974953307,0.11502110206265233,0.3635192127460169,0.8928911792735872
SHRM2_HUMAN_nonidr_1,0.13282001924927817,0.28199160820153907,6.398606639280559,17.980071055845453,0.7183991445810739,0.6171843485276322,0.14133900106269925,0.4883862152725065,0.496060776589758,-0.11951103726560645,0.5049323239275063,0.6927133269415149,0.02744927175401469,0.02019170919955185,0.23749263579592317,0.6310394870269056
SHRM2_HUMAN_nonidr_3,0.10859500805152979,0.1721014492753623,6.672424792658389,16.329979879275655,0.6324283176858665,0.3820091324200913,0.05689766649033092,0.2109929595980252,0.1818926893235712,-0.16811547146420297,0.4225784850514043,0.5283787833383279,0.010502108087389805,0.0038839913121246966,0.1331645569620253,0.5129135965789352
SHRM2_HUMAN_nonidr_4,0.2204031871816084,0.23176731832629424,6.795348279582784,19.984897472062492,0.732105526856827,0.5164230907974144,0.14922973486509397,0.4966371510136933,0.5164767096134787,-0.06629042236943367,0.6303914235851409,0.6556673123147652,0.3547303601418175,0.03788020153013622,0.2628289733437116,0.7101284541361349
SHRM2_HUMAN_nonidr_5,0.15382180724798228,0.2577654679881887,6.916506717850288,20.850614161849713,0.8769611067918586,0.6011486120937201,0.151086146615464,0.43954372623574145,0.41791585526017844,-0.041429921337145806,0.719414453202623,0.5942573163997791,0.19456214689265536,0.021697357886309047,0.20187954844994557,0.7659515560577377
NOG2_HUMAN_nonidr_0,0.18887015177065766,0.40117064385411977,6.404411764705882,21.032567049808428,0.6930863299220731,0.8653948065712772,0.13760152890587674,0.44864998761456526,0.7921250723798494,-0.15272710371592574,0.5902878628125808,0.6087040098419899,-0.0008469095500600536,0.022873227119940973,0.22031273417595043,0.465258682891632
NOG2_HUMAN_nonidr_1,0.22532870438764957,0.38410194174757284,7.115653977072656,21.86905411798959,0.8623948798094813,0.788688138256088,0.2546887619275523,0.6819773334561873,0.7983832204500765,-0.053129286075218364,0.8472771885388634,0.7465659424818342,0.17454138225255972,0.06810613384896337,0.3271120040180814,0.7475053890550031
NOG2_HUMAN_nonidr_2,0.19468610392664001,0.23889019515636023,6.354166666666667,19.888648860958366,0.48497348261638185,0.4304002884962135,0.1397436562710809,0.4074849515833551,0.4239533651298357,-0.05667472468439431,0.5202287946428571,0.3126975274214538,0.30537974683544306,0.03916139240506329,0.16788071932620077,0.28646661367249604
NOG2_HUMAN_nonidr_3,0.1777306967984934,0.4025423728813559,5.959506202290076,20.27140077821012,0.8181798719787631,0.21778815538102314,0.13656181874805357,0.3611024602927437,0.36209435003987483,-0.07435203094777564,0.48679559159908503,0.40663339571636514,0.08092724826658387,0.040335827705785726,0.17516268980477223,0.6777643703378675
NOG2_HUMAN_nonidr_4,0.29534662867996203,0.4178537511870845,6.969575906576521,21.04189044038668,0.9137249494392351,0.7185015593733662,0.27929543297120557,0.6504702855455734,0.801894829233033,-0.034818793843761596,0.7689973529601652,0.6913485776017285,0.1304791029561672,0.03090217651545944,0.30663430420711973,0.758858881870628
SNTB1_HUMAN_nonidr_1,0.15758821514217197,0.35251798561151076,6.733056102721237,21.91129546904914,0.7240337005335278,0.6112732396927133,0.11815644049450237,0.37811200364610037,0.5498397358069059,-0.12562176485779408,0.5992398648648649,0.6360492460921289,0.004632713171410388,0.020469783757382,0.19007425354273064,0.49616777562536846
SNTB1_HUMAN_nonidr_2,0.027617549379479113,0.033997552875371435,3.7511635122556624,13.866273658082532,0.45790368271954673,0.14753541076487253,0.07466779849162558,0.22227300923960952,0.09565413873616027,-0.16441967311892747,0.05508130081300813,0.1003048780487805,-0.05041933106237176,-0.12699456164465428,0.13167321974661425,0.28283093053735253
SNTB1_HUMAN_nonidr_3,0.0837573385518591,0.09393346379647749,6.039131325548043,14.615782664941785,0.4773462783171521,0.2470230554851786,0.15,0.5,0.11144130757800892,-0.15281131424629182,0.40311804008908686,0.3752783964365256,0.09100152516522624,-0.014743263853584139,0.20140515222482436,0.2742337164750958
SNTB1_HUMAN_nonidr_4,0.10869781476937361,0.11748516099081474,6.431239388794567,16.67008504252126,0.778846937943407,0.21168866145973605,0.11554566867312221,0.4074849515833551,0.11844235581067726,-0.10404489127893383,0.6079461100401072,0.4474453074894891,0.000595393145536412,-0.037937706992148254,0.21994182288299935,0.6111111111111112
SNTB1_HUMAN_nonidr_5,0.04358089704013074,0.035136028196937986,5.8128240580712065,15.795936395759718,0.6094867611996486,0.2582213691618682,0.13353208151641896,0.4049342105263158,0.5791201575837164,-0.12349681678849328,0.4084098598356694,0.2739643441564034,-0.029858342522690644,-0.0644026518739007,0.19711281411513099,0.5163593099345628
SNTB1_HUMAN_nonidr_6,0.04827101983500088,0.08109531332280147,4.692071952031979,15.073151232511659,0.4833174451858913,0.17619955513187163,0.09813834813834814,0.3224343224343224,0.14013831834017992,-0.1626020487754147,0.435416859015788,0.2699973658793573,-0.029387448327696356,-0.06734310409620443,0.15046814573580297,0.35259404966806
SNTB1_HUMAN_nonidr_7,0.15001391594767605,0.23211800723629278,5.537675760124985,16.8520428401428,0.5657205841829706,0.2851592851592852,0.11980014803849001,0.4095114729829756,0.30755204376234613,-0.14938726411548003,0.511473488917098,0.5649618805590851,-0.0054501853063004145,-0.04999636654312913,0.20112008722803193,0.4374912619187428
SNTB1_HUMAN_nonidr_9,0.21782408754875138,0.3682795698924731,7.167258499375288,20.85856061687848,0.6635879575365862,0.7247069710055521,0.17747641509433962,0.4891266016221935,0.655335036352918,-0.06116179482405511,0.613264903276747,0.6546741053204518,0.0193598233995585,0.01707955909636582,0.24956784230759307,0.3542187345252868
SNTB1_HUMAN_nonidr_10,0.09458509142053446,0.21976090014064698,7.43343653250774,15.660990712074303,0.40088866946432977,0.13221076377699,0.13449503006503866,0.35059516505092647,0.17400835073068893,-0.1782359081419624,0.5403887303851641,0.5984036488027366,-0.008195447836557136,-0.01642973665812165,0.15523038605230385,0.2424573544588114
SNTB1_HUMAN_nonidr_11,0.17753404845124743,0.24960829215379052,6.227231844953144,19.28229415274463,0.8559646482924135,0.5696956799319004,0.13147540983606557,0.4459016393442623,0.4245537842275303,-0.08454137825954465,0.534491139688011,0.6086550274254667,0.05166965582030916,0.013331567031167205,0.23570848008669737,0.7329398641684198
SNTB1_HUMAN_nonidr_12,0.16887814153439154,0.26117933814568295,6.522495313476359,20.99184043517679,0.7112040378151733,0.8386273397617697,0.2147165259348613,0.6067551266586249,0.7708571428571429,-0.07727388476051578,0.7931507744591857,0.63633845121969,0.06943727413526071,0.028733433836599688,0.24718408349248838,0.5064950831613452
CDK13_HUMAN_nonidr_0,0.06790168477864489,0.040113777259135,5.56378233719893,15.160540540540541,0.5974089464678562,0.293507571043352,0.06646058732612056,0.241112828438949,0.16334033613445378,-0.22216386554621848,0.13613707165109035,0.22544132917964693,0.008393089960886571,-0.0016568883094306823,0.1484048341829429,0.4127959658038845
CDK13_HUMAN_nonidr_1,0.12822413281944856,0.33375796178343947,6.8970792767732965,17.9920548593048,0.44112368465796387,0.7264758597513162,0.15512965050732808,0.5258620689655172,0.6115096445082098,-0.18753159224936816,0.4848137659698653,0.6258802816901409,0.02526487367563162,0.0165263062573576,0.2806603773584906,0.262471147957982
CDK13_HUMAN_nonidr_2,0.29670689493872204,0.3902582159624413,6.969802861475572,22.773493975903616,0.8721428798625911,0.7250269715206739,0.35028161008629155,0.656912209889001,0.6344580777096115,-0.04228741691496676,0.8300844447952016,0.7265941658759701,0.4877320247493066,0.04149065486464161,0.26934433768182586,0.7887159097272778
CDK13_HUMAN_nonidr_3,0.3314146557449635,0.5169199072881793,7.672922252010724,21.580016168148745,0.9041751758565918,0.7840832705273664,0.5805488251535471,0.6032567728341915,0.7878136038402319,-0.03809519704858118,0.9692257325257816,0.7460494450929491,0.3619350282485876,0.13559322033898305,0.3138887024233067,0.8752469229600365
RBM39_HUMAN_nonidr_0,0.11452892898324629,0.20450885668276972,7.305418719211823,18.00820723262375,0.5508164414414415,0.31308907473782027,0.20559210526315788,0.4642762425078237,0.1720508166969147,-0.07814773602670547,0.23382045929018788,0.5959414765401648,-0.044093023255813955,-0.13186976744186046,0.24287473610133709,0.46442339464698756
RBM39_HUMAN_nonidr_1,0.032707028531663185,0.07964014007970052,6.250075323892739,13.530043638804969,0.21683105313394846,0.41998090995863824,0.08506450907500547,0.3689044390990597,0.467255780171892,-0.304775752153003,0.15227438579421065,0.29481877888591584,-0.02977394513644913,-0.10732375085557837,0.2331480356892605,0.1287373362984927
RBM39_HUMAN_nonidr_2,0.1726156391168798,0.27920934868825686,6.833418497700562,20.282764769367933,0.48501819671971197,0.6100791072185336,0.1334716459197787,0.5096818810511756,0.5774752674334432,-0.1692787112293618,0.593905031892275,0.6937115444780477,0.06354636773911777,9.705439899063426e-05,0.2568576461706233,0.31968295904887717
RBM39_HUMAN_nonidr_3,0.23054444251174117,0.3047707271885132,6.852128454070201,20.567894579215334,0.8016130446217236,0.5640655602515204,0.16840361445783134,0.49253012048192774,0.5471052302041157,-0.07851564864701253,0.5353107344632768,0.6284452441318393,0.04115910920311242,0.04443919412345891,0.27311818978833546,0.5132854278074866
RBM39_HUMAN_nonidr_4,0.09929906542056074,0.27102803738317754,7.107066381156317,14.866167023554604,0.25253807106598986,0.18661473087818697,0.1333116036505867,0.4584963059539331,0.13940541142411758,-0.18373094098241943,0.6196019526849418,0.6251226692836114,-0.008050603795284647,-0.07533064979873491,0.21231591105977476,0.11582242458736483
RBM39_HUMAN_nonidr_5,0.15012254901960784,0.2928921568627451,6.230651925276401,18.006589411497387,0.7495421890407099,0.4116022099447514,0.13436217369890002,0.46028566737809884,0.45121951219512196,-0.07989981214777708,0.6633802816901408,0.34900234741784036,0.03493150684931507,0.0547945205479452,0.19716206123973115,0.6071026367908042
RBM39_HUMAN_nonidr_6,0.16420634572984655,0.3091985428051002,6.354228571428571,18.9463927017074,0.651440888559386,0.5568795292057779,0.1285240464344942,0.49585406301824214,0.3653464399320753,-0.14436558162302018,0.6438995913601868,0.6024759284731774,0.2517408123791103,-9.671179883945841e-05,0.20606952887537994,0.487546822632582
RBM39_HUMAN_nonidr_7,0.11874224244931733,0.13901530823334712,5.670874661857529,17.11541929666366,0.6130088124213177,0.2880055788005579,0.12557403971898665,0.3665338645418327,0.26761484950754183,-0.09292765015472883,0.4551824817518248,0.45167217934582876,-0.012413420886929927,-0.07352941176470588,0.20022273486596134,0.37108677538388285
RBM39_HUMAN_nonidr_8,0.24911143225403273,0.3609388169695922,7.505919416348864,20.82352211401278,0.8934908924724163,0.8409346603202077,0.22875313943125658,0.504374949364012,0.7523191094619666,-0.05439627453154452,0.7474066106360868,0.8612450925406618,0.07289783001808318,0.015854275594535335,0.3016150222706444,0.8195040943709557
BMS1_HUMAN_nonidr_0,0.1562363238512035,0.22950320024382811,6.565373920679058,18.102329375509836,0.7567364948806923,0.5199011124845488,0.2871674491392801,0.5062597809076682,0.5142045454545454,-0.06534090909090909,0.5708947021323367,0.6131298449612403,0.04636319845857418,-0.059897074239969504,0.2419837537409149,0.6595669605105461
BMS1_HUMAN_nonidr_1,0.21544511168622327,0.2724916697519437,6.75271302896038,19.198561501631286,0.8546671684062506,0.674270920918706,0.12258064516129032,0.5700451904454487,0.6942942018865468,-0.0769886133562254,0.6305741661263597,0.6358065706902917,0.28965030024726246,0.023929317971902193,0.27079230552820366,0.7047832893869479
BMS1_HUMAN_nonidr_2,0.25290196789698016,0.42976113621691414,7.230523756458312,21.82666124771388,0.6939346004804111,0.6296971929393743,0.21197115384615384,0.558165548098434,0.5733126454615981,-0.07992313265916895,0.5945121951219512,0.7288288288288288,0.30897545256373804,0.07667519666382333,0.26008458035133375,0.5612386104271876
BMS1_HUMAN_nonidr_3,0.1637989695732478,0.3319237873043647,6.731451172940535,18.753541322673154,0.5904461156542056,0.5113962041353523,0.1113013698630137,0.3877739726027397,0.42017793009553767,-0.13736527195780432,0.6074504387390315,0.6770078999341672,-0.00798819685952155,-0.047114028425735054,0.1890401859847227,0.39151893095768375
BMS1_HUMAN_nonidr_4,0.1502178928479877,0.29451172378253027,6.237154150197629,18.223378212974296,0.36749024707412226,0.5005771450557907,0.2891156462585034,0.5697278911564626,0.39933272198700565,-0.0814730555950519,0.8282312925170068,0.4183975228751348,0.09372384937238494,-0.028791962754226904,0.27966706302021405,0.24650111106779463
BMS1_HUMAN_nonidr_5,0.16862556968097867,0.3101286825707017,6.570810580809872,20.774988323213453,0.46803011574334197,0.6414336876155268,0.14882995319812792,0.46562033871457426,0.5407149489322192,-0.10475782778864971,0.6291646633545239,0.40441363520732637,0.0888529886914378,-0.017693276554909133,0.25078517768599795,0.28826109063175287
BMS1_HUMAN_nonidr_6,0.26004728132387706,0.27050161067648415,5.949315068493151,20.122484689413824,0.43398540831128934,0.6721311475409836,0.23816010058675607,0.5468164794007491,0.6050841389187254,-0.07019352420223982,0.8898633257403189,0.6219845935536185,0.16345737775854607,0.018768931198615318,0.2692010059972915,0.28517025089605735
BMS1_HUMAN_nonidr_7,0.3188085676037483,0.468711346712104,7.2479677500898045,21.878851579354983,0.913022773981186,0.7821555184436436,0.32079430498313977,0.6286193873268988,0.764167839324549,0.01359137243315113,0.8386949015186216,0.8003038366114128,0.1170137413231336,0.04962791591150162,0.3768048439683279,0.7876385994700419
RRS1_HUMAN_nonidr_0,0.05891296085138731,0.0556822500950209,5.528391425298642,16.420443327649647,0.7420424024229956,0.23634930021683423,0.03968608140340078,0.11027160113872432,-0.1565556108072269,-0.10111919855991235,0.17294491880127238,0.2717227523857358,0.009849126438944826,0.004077663812301998,0.08707291859941156,0.513743472844382
RRS1_HUMAN_nonidr_2,0.09676420498529184,0.07926923672395107,5.794439274080968,14.814099581200558,0.5266720201904325,0.1025582195709533,0.1841722432353797,0.463873533119969,0.2758936755270394,-0.14994775339602925,0.4449054215596653,0.2608816447490276,0.003544445480832012,0.024997668127973136,0.1874657909140668,0.2912369104794898
RRS1_HUMAN_nonidr_3,0.2624793883975416,0.41153314182359824,7.44579478417846,22.016905737704917,0.9299205231284893,0.6512841683130363,0.45850352216894574,0.5730922137845583,0.6541210725409005,-0.03452119518200572,0.7687042152035547,0.7447800469080716,0.15151141777558733,0.03465247944464992,0.32768939280021653,0.836936170212766
PGM5_HUMAN_nonidr_1,0.17947796073919609,0.2540652750547803,6.863612147043154,19.7109303039607,0.6190809534544333,0.31281745782905873,0.16241097793989925,0.4768445744963846,0.24731690644128887,-0.12031497985593945,0.658814539172038,0.5923168552709946,0.01583673469387755,-0.01176776730468976,0.18564730191528253,0.45941513514621624
PGM5_HUMAN_nonidr_2,0.19867460102786041,0.30514018691588785,7.396934247680516,19.96914650211468,0.8203290631328821,0.7389414161067704,0.2591687041564792,0.5630461922596754,0.667412148176346,-0.07699198280109285,0.8515299026425591,0.7387732122907485,0.015277064302146382,0.01281361355537779,0.27501656726308815,0.6832295183300842
PGM5_HUMAN_nonidr_3,0.22526648243189892,0.2851319084502941,6.90834823802388,19.64086628101544,0.7622368603797544,0.5741216795201372,0.3304178814382896,0.5092322643343051,0.5123899099801038,-0.07526150936705868,0.7088231494638936,0.7035428968391803,0.35576577655370617,0.028946482665769102,0.26292687209200244,0.5929337086053057
PGM5_HUMAN_nonidr_4,0.177397415552029,0.3369743309666849,6.645250929056882,20.49321739130435,0.7557184332016563,0.6968390569079037,0.1369535739652612,0.5135314500818686,0.6032567583708245,-0.06731206753173395,0.521370198189381,0.7548574774049545,0.12553524804177546,0.02282362594781869,0.25594312153484106,0.6116388770596521
PGM5_HUMAN_nonidr_5,0.14013732833957554,0.18601747815230962,6.0181818181818185,17.98181818181818,0.01821286283437678,0.06033010813887308,0.15976331360946747,0.5877712031558185,-0.4639175257731959,-0.3402061855670103,0.6445497630331753,0.35071090047393366,-0.02577319587628866,-0.17525773195876287,0.20470383275261325,0.05313588850174216
PGM5_HUMAN_nonidr_6,0.2881637168141593,0.4712692738622419,7.73524487233152,21.32764276392367,0.8745820258243737,0.7309786430393989,0.24323169710169207,0.5705290469560815,0.7242717636257407,-0.054083619839876904,0.815156737621687,0.7573854486897965,0.3351243475591035,0.020724593183911576,0.27598929698768737,0.7453476221179715
PGM5_HUMAN_nonidr_7,0.3165414000869619,0.4205259483360484,7.441621934931075,22.348427465832373,0.8694560106450576,0.779776350226029,0.2586975188683509,0.5674038496003441,0.7229912490055688,-0.04387403405200439,0.9829473769891335,0.6856516144444866,0.38523666416228397,0.04329451540195342,0.29014922508516866,0.7401498829039813
PGM5_HUMAN_nonidr_8,0.1671720629952069,0.23431907528017368,7.5710382513661205,17.413958240214544,0.7936776462002852,0.6596356663470757,0.16778400220405915,0.5502992799930602,0.5662778366914104,-0.11048903592484201,0.5376559714795008,0.6434210983965775,0.00778231404167436,0.002776467048259921,0.30502198565146954,0.6594417883935827
LIN41_HUMAN_nonidr_0,0.12838100797820587,0.26877336051647976,6.347806624888093,18.898193552469234,0.6759509077999797,0.49583389937961325,0.3044077134986226,0.5669781931464174,0.49348242047357094,-0.060443801254220934,0.5984918352953942,0.39819338711510055,0.07631180625630676,0.03187711948932775,0.24696969696969698,0.5667079050515095
LIN41_HUMAN_nonidr_1,0.1657907310081223,0.2660743725957135,6.750225591048547,17.880748493498256,0.7450393770073475,0.4288492706645057,0.12850317008177892,0.3446659928328586,0.45337200870195793,-0.10176991150442478,0.2366030881017257,0.584104615752075,0.006936352033738416,0.004383774485322679,0.22065028543062795,0.583158525621816
LIN41_HUMAN_nonidr_2,0.12065950537097177,0.10650345574152718,5.84748717948718,16.34373067067244,0.47192839707078926,0.5864345738295318,0.08299965527299727,0.2881387393598685,0.46811907221335336,-0.27436536117441307,0.5365489806066633,0.4349384098544233,-0.004991288788435278,-0.02942976879973631,0.21152703505644682,0.2775440898390769
LIN41_HUMAN_nonidr_3,0.1564284750640824,0.22735878448007285,7.065435356200528,17.68624229979466,0.6959025322928478,0.3181775918177592,0.15279858368514232,0.4489990467111535,0.309812719880343,-0.11133320007995202,0.4650885558583106,0.6173365122615804,0.014755723389190465,0.016464479584611752,0.215578619248344,0.4373365919072576
LIN41_HUMAN_nonidr_4,0.2811755361397935,0.3118929757503603,7.201388888888889,21.382268578878747,0.8791761503812056,0.6613655512758787,0.2692161772516883,0.534849379799173,0.7375387111045568,-0.05247081712062257,0.6610078594544614,0.749424662119754,0.06724096673845417,0.024298706991014683,0.2884081185749914,0.7205447388020002
LIN41_HUMAN_nonidr_5,0.17789291882556132,0.23238663109995292,6.790927021696253,15.735136658213582,0.7541783759798847,0.1351543942992874,0.1049172476185408,0.39497631845032194,-0.009705966314587497,-0.09766032016671403,0.4290565544864818,0.6196303696303697,-0.010596999265554507,-0.06017207008708425,0.18219213300197104,0.5530085959885387
LIN41_HUMAN_nonidr_6,0.10891377053947943,0.10644176239639377,5.820537428023033,15.673704414587332,0.7551774578489491,0.34880299585395214,0.07429322813938198,0.225290379136533,0.029060683707268296,-0.17021485654395388,0.4447837150127226,0.45529573590096284,0.028859707693449067,-0.005712589954744417,0.14400933885174572,0.5096837944664032
LIN41_HUMAN_nonidr_7,0.02323856613102596,0.03535228677379481,6.167468376982006,15.533605349654312,0.5697354497354498,0.5091934809862098,0.047534910230835,0.17155884867483615,0.5415354004311059,-0.11058664868509778,0.07593582887700535,0.28279857397504454,-0.02395165987186954,-0.07352941176470588,0.18385268367971475,0.475656485968669
LIN41_HUMAN_nonidr_8,0.15039932608660436,0.3150392017106201,6.790115949079705,21.232005356545027,0.8922525639441493,0.3177788334258508,0.05811816641856168,0.3991068220317232,0.2060917375427674,-0.043106090012053365,0.4831477910238429,0.531358570137564,0.0343301250707705,0.004077663812301998,0.15150038575547164,0.7597627729052256
