seqid,AA_A,AA_C,AA_D,AA_E,AA_F,AA_G,AA_H,AA_I,AA_K,AA_L,AA_M,AA_N,AA_P,AA_Q,AA_R,AA_S,AA_T,AA_V,AA_W,AA_Y,CLV_C14_Caspase3-7,DEG_APCC_KENBOX_2,DEG_Kelch_Keap1_1,DEG_SCF_TRCP1_1,DOC_ANK_TNKS_1,DOC_CYCLIN_RxL_1,DOC_MAPK_JIP1_4,DOC_MAPK_MEF2A_6,DOC_MAPK_NFAT4_5,DOC_MAPK_gen_1,DOC_PP1_RVXF_1,DOC_PP2A_B56_1,DOC_PP4_FxxP_1,DOC_WW_Pin1_4,D_repeats,ED_ratio,ELASTIN_LIKE,E_repeats,FG_repeats,FG_rich,FGxF,FRG,G_repeats,KAP_repeats,KL_hydropathy,K_repeats,LIG_14-3-3_CanoR_1,LIG_CaM_IQ_9,LIG_CtBP_PxDLS_1,LIG_EF_ALG2_ABM_1,LIG_EH_1,LIG_HCF-1_HBM_1,LIG_HOMEOBOX,LIG_KEPE_2,LIG_KLC1_WD_1,LIG_LIR_Gen_1,LIG_PAM2_1,LIG_PCNA_PIPBox_1,LIG_PDZ_Class_1,LIG_PDZ_Wminus1_1,LIG_PTAP_UEV_1,LIG_PTB_Apo_2,LIG_PTB_Phospho_1,LIG_Rb_LxCxE_1,LIG_SH2_CRK,LIG_SH2_GRB2like,LIG_SH2_NCK_1,LIG_SH2_SRC,LIG_SH2_STAP1,LIG_SH2_STAT5,LIG_SH3_2,LIG_SUMO_SIM_anti_2,LIG_SUMO_SIM_par_1,MOD_CDK_SPK_2,MOD_CDK_SPxK_1,MOD_CDK_SPxxK_3,MOD_CK1_1,MOD_CK2_1,MOD_DYRK1A_RPxSP_1,MOD_GSK3_1,MOD_N-GLC_1,MOD_NMyristoyl,MOD_PIKK_1,MOD_PKA_1,MOD_PKA_2,MOD_PKB_1,MOD_Plk_1,MOD_ProDKin_1,MOD_SUMO_for_1,MOD_SUMO_rev_2,N_repeats,PG_rich,PR_repeats,PTS_repeats,PY,P_repeats,QN_repeats,Q_repeats,REP_RGG,RG_repeats,RK_ratio,R_plus_Y,R_repeats,SGFYSG,SG_repeats,SR_repeats,S_repeats,TRG_ER_FFAT_1,TRG_ER_diArg_1,TRG_LysEnd_APsAcLL_1,TRG_NES_CRM1_1,TRG_NLS_MonoExtN_4,acidic,aliphatic,aromatic,basic,chain_expanding,complexity,custom_kappa,custom_omega,disorder_promoting,fcr,isoelectric_point,net_charge,polar_fraction,scd,srpipi,lrpipi,Water,Carbon,ssH,ssE,disL,disS,srELEC,lrELEC,sr_hb,lr_hb,srCATPI,lrCATPI,larkSIM,larkFAR,sequence,label,entry
A0A024R2Q3_HUMAN_nonidr_0,0.0,0.0,0.0,0.0,0.0,0.0,0.0,0.0,0.0,0.0,0.0,0.0,0.0,1.0,0.0,0.0,0.0,0.0,0.0,0.0,0.0,0.0,0.0,0.0,0.0,0.0,0.0,0.0,0.0,0.0,0.0,0.0,0.0,0.0,0.0,0.0,0.0,0.0,0.0,0.0,0.0,0.0,0.0,0.0,-3.5,0.0,0.0,0.0,0.0,0.0,0.0,0.0,0.0,0.0,0.0,0.0,0.0,0.0,0.0,0.0,0.0,0.0,0.0,0.0,0.0,0.0,0.0,0.0,0.0,0.0,0.0,0.0,0.0,0.0,0.0,0.0,0.0,0.0,0.0,0.0,0.0,0.0,0.0,0.0,0.0,0.0,0.0,0.0,0.0,0.0,0.0,0.0,0.0,0.0,0.0,0.0,1.0,1.0,0.0,0.0,0.0,0.0,0.0,0.0,0.0,0.0,0.0,0.0,0.0,0.0,0.0,0.0,0.0,0.0,0.0,0.0,0.0,0.0,,,1.0,0.0,5.525012969970703,0.0,1.0,0.0,,,,,,,,,,,,,,,,,Q,cell_junction,A0A024R2Q3_HUMAN
A0A024R2Q3_HUMAN_nonidr_1,0.0,0.0,0.1666666666666666,0.0,0.0,0.0,0.0,0.0,0.0,0.0,0.0,0.1666666666666666,0.0,0.1666666666666666,0.0,0.0,0.0,0.5,0.0,0.0,0.0,0.0,0.0,0.0,0.0,0.0,0.0,0.0,0.0,0.0,0.0,0.0,0.0,0.0,1.0,-0.6931471805599453,0.0,0.0,0.0,0.0,0.0,0.0,0.0,0.0,0.3500000000000002,0.0,0.0,0.0,0.0,0.0,0.0,0.0,0.0,0.0,0.0,0.0,0.0,0.0,0.0,0.0,0.0,0.0,0.0,0.0,0.0,0.0,0.0,0.0,0.0,0.0,0.0,0.0,0.0,0.0,0.0,0.0,0.0,0.0,0.0,0.0,0.0,0.0,0.0,0.0,0.0,0.0,0.0,0.0,0.0,0.0,1.0,0.0,0.0,0.0,0.0,0.0,2.0,1.0,0.0,0.0,0.0,0.0,0.0,0.0,0.0,0.0,0.0,0.0,0.0,0.0,0.0,0.0,0.1666666666666666,0.5,0.0,0.0,0.1666666666666666,0.7979152904636745,,,0.3333333333333333,0.1666666666666666,3.799793243408203,-1.0,0.3333333333333333,0.0,0.0384103501717479,0.0334418328325315,3.1484720523093497,15.566004472729132,0.2765154744149209,0.5426224582177677,0.0423712279319074,0.1076048931442589,0.4086907010816075,-0.489925699506319,0.1122591484295822,0.1486657093529723,-0.0528953091509319,-0.1003776901804725,0.1944298618748264,0.1682864509351011,DQVVVN,cell_junction,A0A024R2Q3_HUMAN
A0A024R2Q3_HUMAN_nonidr_2,0.0826446280991735,0.024793388429752,0.0330578512396694,0.0413223140495867,0.012396694214876,0.0867768595041322,0.0206611570247933,0.0537190082644628,0.0537190082644628,0.1652892561983471,0.0330578512396694,0.0537190082644628,0.0206611570247933,0.0454545454545454,0.0371900826446281,0.0578512396694214,0.0702479338842975,0.0785123966942148,0.0082644628099173,0.0206611570247933,0.0,0.0,0.0,0.0,0.0,0.0,0.0,0.0,0.0,0.0,1.0,0.0,0.0,1.0,8.0,0.2006706954621512,0.0,10.0,24.0,0.0,0.0,0.0,21.0,38.0,0.2599173553719008,13.0,1.0,0.0,0.0,0.0,0.0,0.0,0.0,0.0,0.0,2.0,0.0,0.0,0.0,0.0,0.0,0.0,0.0,0.0,0.0,0.0,0.0,0.0,1.0,1.0,0.0,1.0,2.0,0.0,0.0,0.0,2.0,1.0,0.0,3.0,3.0,0.0,1.0,0.0,0.0,0.0,0.0,1.0,0.0,0.0,13.0,0.0,14.0,36.0,0.0,5.0,24.0,11.0,0.0,30.0,-0.3364722366212129,14.0,9.0,0.0,35.0,23.0,14.0,0.0,0.0,1.0,1.0,0.0,0.0743801652892562,0.4132231404958678,0.0413223140495867,0.0909090909090909,0.1859504132231405,2.628980286076544,-1.0398261873628198,0.026965942178828,0.5495867768595041,0.1652892561983471,8.738758087158203,4.0,0.359504132231405,-0.498714514059285,0.0421252948718807,0.0673230426473858,4.0998181936748495,14.841432367053068,0.4423612686360832,0.2050686886535043,0.0461292920977843,0.2263387646240883,-0.0129836013014641,-0.3459440478347873,0.1836624223143869,0.1958704035316656,-0.0643077390708328,-0.1850310221617845,0.1320801284849505,0.3010415563750613,LSHHREGLLAIFKSGGIPALVKMLGSPVDSVLFYAITTLHNLLLHQEGAKMAVRLAGGLQKMVALLNKTNVKFLAITTDCLQILAYGNQESKLIILASGGPQALVNIMRTYTYEKLLWTTSRVLKVLSVCSSNKPAIVEAGGMQALGLHLTDPSQRLVQNCLWTLRNLSDAATKQEGMEGLLGTLVQLLGSDDINVVTCAAGILSNLTCNNYKNKMMVCQVGGIEALVRTVLRAGDREDITE,cell_junction,A0A024R2Q3_HUMAN
A0A024R2Q3_HUMAN_nonidr_3,0.1034482758620689,0.0172413793103448,0.0,0.0172413793103448,0.0,0.0517241379310344,0.0689655172413793,0.0517241379310344,0.0344827586206896,0.2068965517241379,0.0,0.0344827586206896,0.1206896551724138,0.0344827586206896,0.0689655172413793,0.0172413793103448,0.0172413793103448,0.1206896551724138,0.0172413793103448,0.0172413793103448,0.0,0.0,0.0,0.0,0.0,1.0,0.0,1.0,0.0,0.0,0.0,0.0,0.0,0.0,0.0,0.6931471805599453,0.0,1.0,3.0,0.0,0.0,0.0,3.0,15.0,0.5103448275862068,2.0,0.0,0.0,0.0,0.0,0.0,0.0,0.0,0.0,0.0,0.0,0.0,0.0,0.0,0.0,0.0,0.0,0.0,0.0,1.0,0.0,0.0,0.0,0.0,0.0,0.0,0.0,0.0,0.0,0.0,0.0,0.0,0.0,0.0,0.0,0.0,0.0,0.0,0.0,0.0,0.0,0.0,0.0,0.0,0.0,2.0,0.0,11.0,9.0,0.0,7.0,4.0,2.0,0.0,7.0,0.5108256237659907,5.0,4.0,0.0,4.0,5.0,1.0,0.0,0.0,1.0,0.0,0.0,0.0172413793103448,0.4827586206896552,0.0344827586206896,0.1034482758620689,0.2413793103448276,2.152076462877744,-1.976438349568688,-0.297221089737314,0.5344827586206896,0.1206896551724138,10.940196990966797,5.0,0.2413793103448276,0.7828483787422302,0.052761512837012,0.074579271670502,4.3316179801341415,15.078133349907072,0.3951950838198334,0.191779097624628,0.071924131609016,0.2369400691444518,0.0110546202377706,-0.328421078084715,0.1149130875003331,0.194054873925648,-0.0753458336188678,-0.2166704647410949,0.1440113097325997,0.2537547806132176,AVRLHYGLPVVVKLLHPPSHWPLIKATVGLIRNLALCPANHAPLREQGAIPRLVQLLV,cell_junction,A0A024R2Q3_HUMAN
A0A024R2Q3_HUMAN_nonidr_4,0.081967213114754,0.0327868852459016,0.0327868852459016,0.081967213114754,0.0163934426229508,0.0655737704918032,0.0327868852459016,0.1147540983606557,0.0163934426229508,0.1311475409836065,0.0163934426229508,0.0491803278688524,0.0327868852459016,0.0491803278688524,0.081967213114754,0.0163934426229508,0.0327868852459016,0.0983606557377049,0.0,0.0163934426229508,0.0,0.0,0.0,0.0,0.0,0.0,0.0,1.0,0.0,0.0,0.0,1.0,0.0,1.0,2.0,0.6931471805599453,0.0,5.0,5.0,0.0,0.0,2.0,4.0,8.0,0.3147540983606557,1.0,0.0,0.0,0.0,0.0,0.0,0.0,0.0,0.0,0.0,0.0,0.0,0.0,0.0,0.0,0.0,0.0,0.0,0.0,0.0,0.0,1.0,0.0,0.0,0.0,0.0,0.0,0.0,0.0,0.0,0.0,0.0,1.0,0.0,0.0,0.0,0.0,0.0,0.0,0.0,0.0,0.0,1.0,0.0,0.0,3.0,0.0,7.0,5.0,0.0,2.0,6.0,3.0,0.0,9.0,1.0986122886681098,6.0,5.0,0.0,5.0,6.0,1.0,0.0,0.0,0.0,0.0,0.0,0.1147540983606557,0.4426229508196721,0.0327868852459016,0.0983606557377049,0.2459016393442623,2.3350860313454787,-0.3287925311125798,-0.8069927844878834,0.5245901639344263,0.2131147540983606,6.068309783935547,-1.0,0.2786885245901639,-0.2595343883481931,0.0498831061843321,0.0697762859174118,3.993508171131899,15.343535983512426,0.4664561152864016,0.2025324106325979,0.0418027680681757,0.1964868200738826,-0.0398397666489638,-0.3389310503321364,0.1478982917801757,0.1925611435296474,-0.044278305797707,-0.1702718484376484,0.1318658176063308,0.3170839127684282,RMEEIVEGCTGALHILARDVHNRIVIRGLNTIPLFVQLLYSPIENIQRVAAGVLCELAQDK,cell_junction,A0A024R2Q3_HUMAN
A0A024R2Q3_HUMAN_nonidr_5,0.25,0.0,0.0,0.125,0.0,0.125,0.0,0.0,0.0,0.0,0.0,0.125,0.0,0.0,0.0,0.0,0.125,0.125,0.0,0.125,0.0,0.0,0.0,0.0,0.0,0.0,0.0,0.0,0.0,0.0,0.0,0.0,0.0,0.0,0.0,0.6931471805599453,0.0,1.0,1.0,0.0,0.0,0.0,1.0,2.0,-0.1999999999999999,0.0,0.0,0.0,0.0,0.0,0.0,0.0,0.0,0.0,0.0,0.0,0.0,0.0,1.0,0.0,0.0,0.0,0.0,0.0,0.0,0.0,0.0,0.0,0.0,0.0,0.0,0.0,0.0,0.0,0.0,0.0,0.0,0.0,0.0,0.0,0.0,0.0,0.0,0.0,0.0,0.0,0.0,0.0,0.0,0.0,1.0,0.0,0.0,1.0,0.0,0.0,1.0,0.0,0.0,1.0,0.0,1.0,0.0,0.0,1.0,0.0,0.0,0.0,0.0,0.0,0.0,0.0,0.125,0.375,0.125,0.0,0.125,1.238931965273163,,,0.625,0.125,3.9996376037597656,-1.0,0.375,0.0,0.0633677206554794,0.1134137605601361,4.402585780024984,14.721477665863445,0.3384113681489329,0.2526574103787642,0.0818591903284075,0.2533170608541533,0.0613635880793551,-0.3413456750479631,0.1563764504325279,0.1839356080713586,-0.1773170506139273,-0.3723747466148749,0.1767604874528141,0.2341807274917796,NEGVATYA,cell_junction,A0A024R2Q3_HUMAN
A0A024R2Q3_HUMAN_nonidr_6,0.0,0.0,0.25,0.25,0.0,0.0,0.0,0.0,0.0,0.0,0.25,0.0,0.0,0.0,0.0,0.25,0.0,0.0,0.0,0.0,0.0,0.0,0.0,0.0,0.0,0.0,0.0,0.0,0.0,0.0,0.0,0.0,0.0,0.0,1.0,0.0,0.0,1.0,0.0,0.0,0.0,0.0,0.0,0.0,-1.475,0.0,0.0,0.0,0.0,0.0,0.0,0.0,0.0,0.0,0.0,0.0,0.0,0.0,0.0,0.0,0.0,0.0,0.0,0.0,0.0,0.0,0.0,0.0,0.0,0.0,0.0,0.0,0.0,0.0,0.0,0.0,0.0,0.0,0.0,0.0,0.0,0.0,0.0,0.0,0.0,0.0,0.0,0.0,0.0,0.0,0.0,0.0,0.0,1.0,0.0,0.0,0.0,0.0,0.0,0.0,0.0,0.0,0.0,0.0,1.0,1.0,1.0,0.0,0.0,0.0,0.0,0.0,0.5,0.25,0.0,0.0,0.5,0.7945134575869862,-3.810003810005715,-3.810003810005715,0.75,0.5,3.665958404541016,-2.0,0.25,0.25,0.0733355598004865,0.0588107071104924,5.127265760236679,13.72735703270072,0.4095717135752502,0.0787075042597162,0.1020956495421536,0.3315052633855337,0.1638849929873772,-0.3728260869565217,0.3558285384632872,0.2326827030619868,-0.0077974864923757,-0.009782354490162,0.1287592549864845,0.2189933332207821,MSED,cell_junction,A0A024R2Q3_HUMAN
A0A024R2Q3_HUMAN_nonidr_7,0.0,0.0,0.0,0.0,0.0,0.0,0.0,0.0,0.0,1.0,0.0,0.0,0.0,0.0,0.0,0.0,0.0,0.0,0.0,0.0,0.0,0.0,0.0,0.0,0.0,0.0,0.0,0.0,0.0,0.0,0.0,0.0,0.0,0.0,0.0,0.0,0.0,0.0,0.0,0.0,0.0,0.0,0.0,0.0,3.8,0.0,0.0,0.0,0.0,0.0,0.0,0.0,0.0,0.0,0.0,0.0,0.0,0.0,0.0,0.0,0.0,0.0,0.0,0.0,0.0,0.0,0.0,0.0,0.0,0.0,0.0,0.0,0.0,0.0,0.0,0.0,0.0,0.0,0.0,0.0,0.0,0.0,0.0,0.0,0.0,0.0,0.0,0.0,0.0,0.0,0.0,0.0,0.0,0.0,0.0,0.0,0.0,0.0,0.0,0.0,0.0,0.0,0.0,0.0,0.0,0.0,0.0,0.0,0.0,0.0,0.0,0.0,0.0,1.0,0.0,0.0,0.0,0.0,,,0.0,0.0,5.525012969970703,0.0,0.0,0.0,,,,,,,,,,,,,,,,,L,cell_junction,A0A024R2Q3_HUMAN
NBDY_HUMAN_nonidr_0,0.1029411764705882,0.0294117647058823,0.0294117647058823,0.0441176470588235,0.0,0.1029411764705882,0.0147058823529411,0.0,0.0735294117647058,0.0735294117647058,0.0147058823529411,0.0294117647058823,0.2352941176470588,0.0147058823529411,0.0588235294117647,0.088235294117647,0.0588235294117647,0.0,0.0147058823529411,0.0147058823529411,0.0,0.0,0.0,0.0,0.0,0.0,0.0,0.0,0.0,0.0,0.0,0.0,0.0,1.0,2.0,0.2876820724517808,0.0,3.0,7.0,0.0,0.0,0.0,7.0,28.0,-1.0058823529411764,5.0,1.0,0.0,0.0,0.0,0.0,0.0,0.0,0.0,0.0,0.0,0.0,0.0,0.0,0.0,1.0,0.0,0.0,0.0,0.0,0.0,0.0,0.0,0.0,0.0,1.0,0.0,0.0,0.0,0.0,0.0,1.0,0.0,0.0,2.0,0.0,0.0,0.0,0.0,1.0,0.0,0.0,1.0,0.0,0.0,2.0,0.0,20.0,26.0,0.0,16.0,3.0,1.0,0.0,11.0,-0.1823215567939546,5.0,4.0,0.0,13.0,10.0,6.0,0.0,0.0,0.0,0.0,1.0,0.0735294117647058,0.1911764705882352,0.0294117647058823,0.1323529411764706,0.4411764705882353,2.174304641496189,-0.6533617868280712,-1.0979473866371094,0.8235294117647058,0.2058823529411764,9.510684967041016,4.0,0.3382352941176471,0.0634645214978325,0.0711789195397459,0.0906502291844026,5.253558637880329,13.247944649417802,0.1992169052375474,0.1207952064270006,0.2165490124881877,0.3688815173948244,0.1626847793436162,-0.35611088411079,0.1602975853856887,0.2384847907947074,-0.0931544856587373,-0.2398469794132443,0.2010269820452108,0.0831729144949166,MGDQPCASGRSTLPPGNAREAKPPKKRCLLAPRWDYPEGTPNGGSTTLPSAPPPASAGLKSHPPPPEK,p-body,NBDY_HUMAN
RCCD1_HUMAN_nonidr_0,0.0909090909090909,0.0454545454545454,0.0,0.1363636363636363,0.1818181818181818,0.2727272727272727,0.0,0.0,0.0,0.0454545454545454,0.0454545454545454,0.0,0.0454545454545454,0.0454545454545454,0.0454545454545454,0.0,0.0,0.0,0.0454545454545454,0.0,0.0,0.0,0.0,0.0,0.0,0.0,0.0,0.0,0.0,0.0,0.0,0.0,0.0,0.0,0.0,1.3862943611198906,0.0,3.0,10.0,4.0,0.0,6.0,6.0,3.0,-0.0181818181818181,0.0,0.0,0.0,0.0,0.0,0.0,0.0,0.0,0.0,0.0,0.0,0.0,0.0,0.0,0.0,0.0,0.0,0.0,0.0,0.0,0.0,0.0,0.0,0.0,0.0,0.0,0.0,0.0,0.0,0.0,0.0,0.0,0.0,0.0,0.0,0.0,0.0,0.0,0.0,0.0,0.0,0.0,0.0,0.0,0.0,0.0,0.0,2.0,1.0,0.0,1.0,1.0,1.0,0.0,7.0,0.6931471805599453,1.0,1.0,6.0,6.0,1.0,0.0,0.0,0.0,0.0,0.0,0.0,0.1363636363636363,0.1818181818181818,0.2272727272727272,0.0454545454545454,0.2272727272727272,1.6467713481676896,-0.5964651367409652,-0.6230890788981107,0.6363636363636364,0.1818181818181818,4.252620697021484,-2.0,0.3636363636363636,0.1289049416835067,0.1112992873724291,0.1630069579736343,4.464121137374493,14.38210001618344,0.3091366070350029,0.2031003742365038,0.1257730833994131,0.3033931495273093,0.0652150022775789,-0.3478085173529012,0.103136787255593,0.1981222194909177,-0.2890493159302133,-0.5690405315407188,0.1857418382195774,0.1741810603929688,MAEERPGAWFGFGFCGFGQELG,chromosomes,RCCD1_HUMAN
RCCD1_HUMAN_nonidr_1,0.0909090909090909,0.0454545454545454,0.0454545454545454,0.0,0.0454545454545454,0.1363636363636363,0.0,0.0454545454545454,0.0,0.0,0.0,0.0,0.0,0.0,0.1363636363636363,0.1363636363636363,0.0909090909090909,0.1363636363636363,0.0454545454545454,0.0454545454545454,0.0,0.0,0.0,0.0,0.0,0.0,0.0,0.0,0.0,0.0,0.0,0.0,0.0,0.0,1.0,-0.6931471805599453,0.0,0.0,4.0,0.0,0.0,2.0,3.0,2.0,0.0818181818181818,0.0,1.0,0.0,0.0,0.0,0.0,0.0,0.0,0.0,0.0,0.0,0.0,0.0,0.0,0.0,0.0,0.0,0.0,0.0,0.0,0.0,0.0,0.0,1.0,1.0,0.0,0.0,0.0,0.0,0.0,0.0,0.0,0.0,0.0,1.0,0.0,1.0,0.0,0.0,1.0,0.0,0.0,0.0,0.0,0.0,0.0,0.0,3.0,5.0,0.0,0.0,0.0,0.0,3.0,6.0,1.3862943611198906,4.0,3.0,0.0,6.0,6.0,3.0,0.0,0.0,0.0,0.0,0.0,0.0454545454545454,0.2727272727272727,0.1363636363636363,0.1363636363636363,0.1818181818181818,1.8144476869910504,-0.5964651367409652,-0.5534557257386391,0.6363636363636364,0.1818181818181818,9.500484466552734,2.0,0.4090909090909091,-0.0342430758216674,0.066106298898107,0.1281195269985686,4.3485861195139055,14.960939660525431,0.2681122932838928,0.3548678939246056,0.0776294077637029,0.2568942148904134,0.2258024155864278,-0.4873780328844336,0.1801514144869702,0.2515679657206396,-0.1803092028270573,-0.4342709585869204,0.1934268955788562,0.1676739452904,GVDICRVSASWSYTAFVTRGGR,chromosomes,RCCD1_HUMAN
RCCD1_HUMAN_nonidr_2,0.217391304347826,0.0434782608695652,0.0434782608695652,0.0869565217391304,0.0,0.1304347826086956,0.0,0.0,0.0434782608695652,0.1739130434782608,0.0,0.0,0.0869565217391304,0.0,0.0434782608695652,0.0434782608695652,0.0,0.0434782608695652,0.0434782608695652,0.0,0.0,0.0,0.0,0.0,0.0,0.0,0.0,0.0,0.0,0.0,0.0,0.0,0.0,0.0,1.0,0.4054651081081644,0.0,2.0,3.0,0.0,0.0,0.0,3.0,8.0,0.2565217391304347,1.0,0.0,0.0,0.0,0.0,0.0,0.0,0.0,0.0,0.0,0.0,0.0,0.0,0.0,0.0,0.0,0.0,0.0,0.0,0.0,0.0,0.0,0.0,0.0,0.0,0.0,0.0,0.0,0.0,0.0,0.0,0.0,0.0,0.0,0.0,0.0,0.0,0.0,0.0,0.0,0.0,0.0,0.0,0.0,0.0,0.0,0.0,3.0,3.0,0.0,2.0,0.0,0.0,0.0,4.0,0.0,1.0,1.0,0.0,4.0,2.0,1.0,0.0,0.0,0.0,0.0,0.0,0.1304347826086956,0.4347826086956521,0.0434782608695652,0.0869565217391304,0.3043478260869565,1.7592641810559322,-0.7761832861947042,-0.8797922492709164,0.6956521739130435,0.217391304347826,4.679119110107422,-1.0,0.217391304347826,-0.1164313104244487,0.0490646597139585,0.0868550844540726,4.342045052382437,14.090583301012238,0.4768878746915025,0.1320923524317165,0.0766736070118176,0.2449728198443894,-0.1091937545241314,-0.2811426235279724,0.1265526401357432,0.1580091661526261,-0.0911270559753816,-0.2243477392597831,0.1297872823118812,0.3105278681354003,CKDAWASEGLLAVLRAGPGPEAL,chromosomes,RCCD1_HUMAN
RCCD1_HUMAN_nonidr_3,0.25,0.0,0.0,0.25,0.0,0.125,0.0,0.0,0.0,0.125,0.0,0.0,0.0,0.0,0.125,0.125,0.0,0.0,0.0,0.0,0.0,0.0,0.0,0.0,0.0,0.0,0.0,0.0,0.0,0.0,0.0,0.0,0.0,0.0,0.0,1.0986122886681098,0.0,2.0,1.0,0.0,0.0,2.0,1.0,2.0,-0.6625,0.0,0.0,0.0,0.0,0.0,0.0,0.0,0.0,0.0,0.0,0.0,0.0,0.0,0.0,0.0,0.0,0.0,0.0,0.0,0.0,0.0,0.0,0.0,0.0,0.0,0.0,0.0,0.0,0.0,0.0,0.0,0.0,0.0,0.0,0.0,0.0,0.0,0.0,0.0,0.0,0.0,0.0,0.0,0.0,0.0,0.0,0.0,1.0,1.0,0.0,0.0,0.0,0.0,0.0,2.0,0.6931471805599453,1.0,1.0,0.0,2.0,2.0,1.0,0.0,0.0,0.0,0.0,0.0,0.25,0.375,0.0,0.125,0.375,1.1522885677031698,-1.7409892531613471,-1.4032634243995268,0.875,0.375,4.531398773193359,-1.0,0.25,-0.1205904774487396,0.0566986421507108,0.0873804699324263,4.569975774788928,14.242057028604204,0.5390521839125154,0.1066069770861286,0.0640982644973715,0.2378140136171852,-0.1722069612489847,-0.3589814879302057,0.1580488430272273,0.2215254903842796,-0.0509801288412815,-0.1386992685612701,0.1209659228900929,0.3593080810573983,AESALRGE,chromosomes,RCCD1_HUMAN
RCCD1_HUMAN_nonidr_4,0.1904761904761904,0.0476190476190476,0.0,0.0,0.0476190476190476,0.0,0.0,0.0,0.0,0.1428571428571428,0.0,0.0,0.238095238095238,0.0,0.1428571428571428,0.0476190476190476,0.0,0.0476190476190476,0.0,0.0952380952380952,0.0,0.0,0.0,0.0,0.0,0.0,0.0,0.0,0.0,0.0,0.0,0.0,1.0,1.0,0.0,0.0,0.0,0.0,1.0,0.0,0.0,0.0,0.0,9.0,0.1523809523809523,0.0,0.0,0.0,0.0,0.0,0.0,0.0,0.0,0.0,0.0,0.0,0.0,0.0,0.0,0.0,0.0,0.0,0.0,0.0,1.0,0.0,0.0,0.0,0.0,1.0,0.0,0.0,0.0,1.0,0.0,0.0,0.0,0.0,0.0,0.0,0.0,0.0,0.0,0.0,0.0,0.0,0.0,1.0,0.0,0.0,0.0,0.0,8.0,6.0,0.0,5.0,0.0,0.0,0.0,3.0,1.3862943611198906,5.0,3.0,0.0,1.0,4.0,1.0,0.0,0.0,0.0,0.0,0.0,0.0,0.3809523809523809,0.1428571428571428,0.1428571428571428,0.3809523809523809,1.5779965336348027,-0.7086631421597656,-0.3353789701107618,0.6190476190476191,0.1428571428571428,10.045597076416016,3.0,0.0952380952380952,0.3810563100303984,0.0841350248665711,0.108852277957044,4.784136369319619,15.524278308462984,0.3261822601082651,0.1613698537128605,0.1194708356386836,0.2754544738422658,0.0702166410309199,-0.3580020545995147,0.1086477625810229,0.2181435656136098,-0.2443171880961683,-0.4636376313289327,0.175485437169431,0.1778317924249244,PLLPCARAYVSPRAPFYRPLA,chromosomes,RCCD1_HUMAN
RCCD1_HUMAN_nonidr_5,0.2272727272727272,0.0,0.0454545454545454,0.0909090909090909,0.0454545454545454,0.0909090909090909,0.0454545454545454,0.0,0.0,0.2272727272727272,0.0,0.0,0.0,0.0909090909090909,0.0909090909090909,0.0,0.0,0.0454545454545454,0.0,0.0,0.0,0.0,0.0,0.0,0.0,0.0,0.0,0.0,0.0,0.0,0.0,0.0,0.0,0.0,1.0,0.4054651081081644,0.0,2.0,3.0,0.0,0.0,0.0,2.0,5.0,0.2045454545454545,0.0,0.0,0.0,0.0,0.0,0.0,0.0,0.0,0.0,0.0,0.0,0.0,0.0,0.0,0.0,0.0,0.0,0.0,0.0,0.0,0.0,0.0,0.0,0.0,0.0,0.0,0.0,0.0,0.0,0.0,0.0,0.0,0.0,0.0,0.0,0.0,0.0,0.0,0.0,0.0,0.0,0.0,0.0,0.0,0.0,0.0,0.0,2.0,0.0,0.0,0.0,2.0,2.0,0.0,4.0,1.0986122886681098,2.0,2.0,0.0,2.0,2.0,0.0,0.0,0.0,1.0,0.0,0.0,0.1363636363636363,0.5,0.0454545454545454,0.0909090909090909,0.2272727272727272,1.6419822338196068,0.1073492615543578,-0.6230890788981107,0.6818181818181818,0.2272727272727272,5.445491790771484,-1.0,0.2272727272727272,-0.3666556251127277,0.0473359070188487,0.0735720647603321,4.130137042147284,14.887698348614958,0.6123495089296982,0.130793046473535,0.0401883803940461,0.1670892282419908,-0.1745705353227876,-0.2920298018775521,0.115002563297335,0.1751232646479148,-0.0359004750868256,-0.1027523008737588,0.0927402245901495,0.4593961101667044,RARQLELGAEHALLLDAAGQVF,chromosomes,RCCD1_HUMAN
RCCD1_HUMAN_nonidr_6,0.1052631578947368,0.0263157894736842,0.0263157894736842,0.1052631578947368,0.0,0.1578947368421052,0.0263157894736842,0.0526315789473684,0.0,0.0789473684210526,0.0263157894736842,0.0263157894736842,0.0,0.0526315789473684,0.0,0.0789473684210526,0.0263157894736842,0.1052631578947368,0.0789473684210526,0.0263157894736842,0.0,0.0,0.0,0.0,0.0,0.0,0.0,0.0,0.0,0.0,0.0,0.0,0.0,0.0,1.0,0.9162907318741552,0.0,4.0,6.0,0.0,0.0,0.0,6.0,4.0,0.213157894736842,0.0,0.0,0.0,0.0,0.0,0.0,0.0,0.0,0.0,0.0,0.0,0.0,0.0,0.0,0.0,0.0,0.0,0.0,0.0,0.0,0.0,0.0,0.0,0.0,1.0,0.0,0.0,0.0,0.0,0.0,0.0,0.0,0.0,0.0,1.0,1.0,0.0,0.0,0.0,0.0,0.0,0.0,0.0,0.0,0.0,1.0,0.0,0.0,4.0,0.0,0.0,3.0,2.0,0.0,6.0,0.0,1.0,0.0,0.0,9.0,3.0,3.0,0.0,0.0,0.0,0.0,0.0,0.131578947368421,0.3684210526315789,0.1052631578947368,0.0,0.131578947368421,2.107716135333048,-1.368957673886808,-1.368957673886808,0.5789473684210527,0.131578947368421,3.902385711669922,-5.0,0.3947368421052631,1.021489786580586,0.0797697273562911,0.1210437107531242,4.1422900399762135,14.655315433825526,0.3177379860272485,0.28673850817833,0.0715753099233794,0.2653425789343692,0.1774936332114468,-0.3961288101424691,0.1486011637443046,0.2185148996613629,-0.1284776470840096,-0.3474108621035823,0.1841290586410788,0.2066323202291279,EALQGLVMAEVAAGGWHSVCVSETGDIYIWGWNESGQL,chromosomes,RCCD1_HUMAN
RCCD1_HUMAN_nonidr_7,0.1,0.0,0.1,0.0,0.1,0.0,0.0,0.0,0.0,0.3,0.0,0.0,0.3,0.1,0.0,0.0,0.0,0.0,0.0,0.0,0.0,0.0,0.0,0.0,0.0,0.0,0.0,0.0,0.0,0.0,0.0,0.0,0.0,0.0,1.0,-0.6931471805599453,0.0,0.0,1.0,0.0,0.0,0.0,0.0,4.0,0.4199999999999997,0.0,0.0,0.0,0.0,0.0,0.0,0.0,0.0,0.0,0.0,0.0,0.0,0.0,0.0,0.0,0.0,0.0,0.0,0.0,0.0,0.0,0.0,0.0,0.0,0.0,0.0,0.0,0.0,0.0,0.0,0.0,0.0,0.0,0.0,0.0,0.0,0.0,0.0,0.0,0.0,0.0,0.0,0.0,0.0,0.0,0.0,0.0,3.0,3.0,0.0,3.0,1.0,1.0,0.0,0.0,0.0,0.0,0.0,0.0,0.0,0.0,0.0,0.0,0.0,0.0,0.0,0.0,0.1,0.4,0.1,0.0,0.4,1.1520893634619402,,-1.2863640937477183,0.6,0.1,3.799793243408203,-1.0,0.1,0.0,0.0563933653453822,0.073143220823638,4.6079733581812174,15.16867442918746,0.3519804698797144,0.1289217794766903,0.1195267982455687,0.304985375646415,0.0233921551828249,-0.2435604957373772,0.1105863770874371,0.1289896867655563,-0.2219458337898968,-0.3203146538484574,0.1633740551663845,0.2096369619124303,QPFPALLDLP,chromosomes,RCCD1_HUMAN
RCCD1_HUMAN_nonidr_8,0.0,0.0,0.0,0.0909090909090909,0.0,0.1818181818181818,0.0,0.0,0.0,0.0909090909090909,0.0,0.0,0.0,0.0,0.0909090909090909,0.0,0.2727272727272727,0.0909090909090909,0.0909090909090909,0.0909090909090909,0.0,0.0,0.0,0.0,0.0,0.0,0.0,0.0,0.0,0.0,0.0,0.0,0.0,0.0,0.0,0.6931471805599453,0.0,1.0,2.0,0.0,0.0,0.0,2.0,0.0,-0.4636363636363636,0.0,0.0,0.0,0.0,0.0,0.0,0.0,0.0,0.0,0.0,0.0,0.0,0.0,0.0,1.0,0.0,0.0,0.0,0.0,0.0,0.0,0.0,0.0,0.0,1.0,0.0,0.0,0.0,0.0,0.0,0.0,0.0,0.0,0.0,0.0,0.0,0.0,0.0,0.0,0.0,0.0,0.0,0.0,0.0,0.0,0.0,0.0,1.0,3.0,0.0,0.0,0.0,0.0,0.0,3.0,0.6931471805599453,2.0,1.0,0.0,2.0,1.0,0.0,0.0,0.0,0.0,0.0,0.0,0.0909090909090909,0.1818181818181818,0.1818181818181818,0.0909090909090909,0.1818181818181818,1.3652182905532624,-0.9627406736630196,-0.3913522967563138,0.6363636363636364,0.1818181818181818,6.001392364501953,0.0,0.4545454545454545,-0.1574591643244433,0.0690564398098313,0.1446146321078306,4.793510210840439,15.636614486237685,0.3094474637402655,0.2891176148082107,0.0936687342832948,0.255316861582208,0.1084554797282117,-0.4552413434994996,0.2461959270990878,0.2768148142835124,-0.2616029098564888,-0.5760687635722506,0.1882454144063038,0.1671788287206615,VTRTGELYTWG,chromosomes,RCCD1_HUMAN
RCCD1_HUMAN_nonidr_9,0.0769230769230769,0.0384615384615384,0.0384615384615384,0.0384615384615384,0.0,0.0769230769230769,0.0,0.0,0.1538461538461538,0.0384615384615384,0.0,0.0384615384615384,0.0384615384615384,0.0769230769230769,0.0,0.0384615384615384,0.0769230769230769,0.1538461538461538,0.0384615384615384,0.0769230769230769,0.0,0.0,0.0,0.0,0.0,0.0,0.0,0.0,0.0,0.0,0.0,0.0,0.0,0.0,1.0,0.0,0.0,1.0,2.0,0.0,0.0,0.0,2.0,7.0,-0.5576923076923077,4.0,0.0,0.0,0.0,0.0,0.0,0.0,0.0,0.0,0.0,0.0,0.0,0.0,0.0,0.0,0.0,0.0,0.0,0.0,0.0,0.0,0.0,1.0,0.0,1.0,0.0,0.0,0.0,0.0,0.0,0.0,0.0,0.0,0.0,0.0,0.0,0.0,0.0,0.0,0.0,0.0,0.0,0.0,0.0,0.0,1.0,0.0,1.0,4.0,0.0,1.0,3.0,2.0,0.0,2.0,-1.6094379124341005,2.0,0.0,0.0,3.0,1.0,1.0,0.0,0.0,0.0,0.0,0.0,0.0769230769230769,0.2692307692307692,0.1153846153846153,0.1538461538461538,0.2692307692307692,1.9784560845194767,-0.3621078934502473,-1.434179670061429,0.6153846153846154,0.2307692307692307,8.991687774658203,2.0,0.3461538461538461,0.0668403862795281,0.0734223017331736,0.0936950458244691,4.470181149668124,14.932650423374149,0.3221478072850441,0.2927205049001506,0.0748499190142162,0.2532536327001523,0.0930177414428993,-0.4278819631078748,0.1333870988499444,0.2145288728434351,-0.1941733441451661,-0.3980004741182605,0.1867999045096068,0.2213598383046449,DKQLQVKAVTCGPWNTYVYAVEKGKS,chromosomes,RCCD1_HUMAN
MEI4_HUMAN_nonidr_0,0.15,0.0,0.05,0.0,0.0,0.0,0.0,0.1,0.1,0.2,0.05,0.0,0.0,0.05,0.05,0.05,0.05,0.05,0.05,0.05,0.0,0.0,0.0,0.0,0.0,0.0,0.0,1.0,1.0,1.0,0.0,0.0,0.0,0.0,1.0,-0.6931471805599453,0.0,0.0,0.0,0.0,0.0,0.0,0.0,5.0,0.6349999999999999,2.0,0.0,0.0,0.0,0.0,0.0,0.0,0.0,0.0,0.0,0.0,0.0,0.0,0.0,0.0,0.0,0.0,0.0,0.0,0.0,0.0,0.0,0.0,0.0,1.0,0.0,0.0,0.0,0.0,0.0,0.0,0.0,0.0,0.0,0.0,0.0,0.0,0.0,0.0,1.0,0.0,0.0,0.0,0.0,0.0,0.0,0.0,1.0,2.0,0.0,0.0,1.0,1.0,0.0,1.0,-0.4054651081081644,2.0,1.0,0.0,1.0,2.0,1.0,0.0,0.0,0.0,0.0,0.0,0.05,0.55,0.1,0.15,0.2,1.7989754400028797,0.3233447079859781,0.3309986555185391,0.5,0.2,9.69979476928711,2.0,0.15,-0.058113883008419,0.0514899550459417,0.0768774699881263,3.944692312188181,16.344716010851254,0.574920424985016,0.2192398282511408,0.0369015798590149,0.1289179122305179,-0.0926078269101939,-0.4016111219419744,0.1563731731384686,0.194170836218893,-0.1994521341522977,-0.3682062842736451,0.0976786186255781,0.4775526503099708,MDVQKWYLRTSKLALALAII,chromosomes,MEI4_HUMAN
MEI4_HUMAN_nonidr_1,0.0,0.0,0.0,0.1666666666666666,0.0,0.0,0.0,0.0,0.1666666666666666,0.0,0.0,0.0,0.0,0.1666666666666666,0.1666666666666666,0.1666666666666666,0.0,0.0,0.1666666666666666,0.0,0.0,0.0,0.0,0.0,0.0,0.0,0.0,0.0,0.0,0.0,0.0,0.0,0.0,0.0,0.0,0.6931471805599453,0.0,1.0,0.0,0.0,0.0,0.0,0.0,1.0,-2.85,1.0,0.0,0.0,0.0,0.0,0.0,0.0,0.0,0.0,0.0,0.0,0.0,0.0,0.0,0.0,0.0,0.0,0.0,0.0,0.0,0.0,0.0,0.0,0.0,0.0,0.0,0.0,0.0,0.0,0.0,0.0,0.0,0.0,0.0,0.0,0.0,0.0,0.0,0.0,0.0,0.0,0.0,0.0,0.0,0.0,0.0,0.0,1.0,1.0,0.0,0.0,1.0,1.0,0.0,1.0,0.0,1.0,1.0,0.0,1.0,2.0,1.0,0.0,0.0,0.0,0.0,0.0,0.1666666666666666,0.0,0.1666666666666666,0.3333333333333333,0.5,1.0965418686683504,-0.7117393369924548,-3.0071599147182333,0.8333333333333334,0.5,8.74783706665039,1.0,0.3333333333333333,-0.4256508704492619,0.0971536752994839,0.139405420031603,5.25837464918785,16.327232318040398,0.4742120101486995,0.1416517133367228,0.0839377416283666,0.2428589559960514,-0.0392191626780043,-0.3843814666059854,0.2557911901265705,0.2986398576596111,-0.5036789906792656,-0.6940145240672086,0.1326248703143649,0.3013321083638987,EQSKWR,chromosomes,MEI4_HUMAN
MEI4_HUMAN_nonidr_2,0.037037037037037,0.037037037037037,0.0,0.074074074074074,0.037037037037037,0.074074074074074,0.0,0.037037037037037,0.074074074074074,0.1851851851851851,0.037037037037037,0.0,0.0,0.074074074074074,0.074074074074074,0.1481481481481481,0.0,0.074074074074074,0.0,0.037037037037037,0.0,0.0,0.0,0.0,0.0,0.0,0.0,0.0,0.0,0.0,0.0,0.0,0.0,0.0,0.0,1.0986122886681098,0.0,2.0,3.0,0.0,0.0,0.0,2.0,3.0,0.1777777777777777,2.0,0.0,1.0,0.0,0.0,0.0,0.0,0.0,0.0,0.0,0.0,0.0,0.0,0.0,0.0,0.0,0.0,0.0,0.0,0.0,0.0,0.0,0.0,0.0,0.0,0.0,0.0,0.0,0.0,0.0,0.0,0.0,0.0,0.0,1.0,0.0,0.0,0.0,0.0,0.0,0.0,0.0,0.0,0.0,0.0,0.0,0.0,2.0,4.0,0.0,0.0,2.0,2.0,0.0,4.0,0.0,3.0,2.0,0.0,6.0,6.0,4.0,0.0,0.0,1.0,0.0,0.0,0.074074074074074,0.3703703703703703,0.074074074074074,0.1481481481481481,0.2222222222222222,1.941967035945062,0.5134130066611103,-0.2643913063931078,0.5555555555555556,0.2222222222222222,9.194950103759766,2.0,0.3333333333333333,-0.3375202782870491,0.0482392274346981,0.0733011676583562,4.192003112035407,14.887901730009728,0.5251016653813594,0.1868941190469502,0.0596309478349587,0.1897077542431678,-0.0432793523023651,-0.3935019604460087,0.147354643400097,0.2025643494602431,-0.0794976618702257,-0.2095015256194775,0.1192187706915481,0.395179934615048,ILEAEVMQLRQKLLVSRLCSGSFKSGY,chromosomes,MEI4_HUMAN
MEI4_HUMAN_nonidr_3,0.025,0.025,0.0,0.05,0.05,0.025,0.05,0.025,0.05,0.225,0.025,0.05,0.125,0.075,0.025,0.075,0.05,0.025,0.0,0.025,0.0,0.0,0.0,0.0,0.0,0.0,0.0,0.0,0.0,0.0,0.0,1.0,0.0,0.0,0.0,1.0986122886681098,0.0,2.0,3.0,0.0,0.0,0.0,1.0,8.0,-0.0500000000000002,2.0,0.0,0.0,0.0,0.0,0.0,0.0,0.0,0.0,0.0,0.0,0.0,0.0,0.0,0.0,0.0,0.0,0.0,0.0,0.0,0.0,0.0,0.0,0.0,1.0,0.0,0.0,0.0,0.0,0.0,0.0,0.0,0.0,0.0,0.0,1.0,0.0,0.0,0.0,0.0,0.0,0.0,0.0,0.0,0.0,2.0,0.0,6.0,10.0,0.0,5.0,5.0,3.0,0.0,2.0,-0.4054651081081644,2.0,1.0,0.0,4.0,4.0,3.0,0.0,0.0,0.0,0.0,0.0,0.05,0.325,0.075,0.075,0.25,2.124722961751952,-0.2739842811601758,-0.466021951661057,0.55,0.125,8.193004608154297,1.0,0.35,-0.2507639827581481,0.0605360270436432,0.0708510893371715,4.424968115794582,15.33246158492252,0.4184847137053056,0.1294927532770612,0.0908316338111668,0.2649485240167923,-0.0378610786675725,-0.2678886513483772,0.1603172190830019,0.1861346012008022,-0.1180446983140525,-0.2514719116937411,0.1323817190403009,0.291758957868801,THFPPLPLVKRPCAILQNPLSSHMQFLQYLLELKNLTESG,chromosomes,MEI4_HUMAN
MEI4_HUMAN_nonidr_4,0.04,0.0133333333333333,0.0466666666666666,0.06,0.06,0.04,0.0266666666666666,0.06,0.0533333333333333,0.16,0.0,0.06,0.0133333333333333,0.06,0.0266666666666666,0.12,0.0466666666666666,0.06,0.0133333333333333,0.04,1.0,0.0,0.0,0.0,0.0,0.0,0.0,1.0,1.0,1.0,0.0,1.0,0.0,0.0,7.0,0.2231435513142097,0.0,9.0,15.0,0.0,0.0,0.0,6.0,16.0,-0.0333333333333334,8.0,1.0,0.0,0.0,0.0,0.0,0.0,0.0,0.0,0.0,2.0,0.0,0.0,0.0,0.0,0.0,1.0,1.0,0.0,1.0,1.0,1.0,1.0,1.0,2.0,0.0,1.0,0.0,0.0,0.0,0.0,4.0,1.0,0.0,4.0,2.0,0.0,1.0,1.0,1.0,0.0,3.0,0.0,0.0,0.0,9.0,0.0,6.0,27.0,0.0,2.0,18.0,9.0,0.0,10.0,-0.587786664902119,10.0,4.0,0.0,24.0,22.0,18.0,0.0,0.0,0.0,0.0,0.0,0.1066666666666666,0.32,0.1133333333333333,0.08,0.2,2.541338252663383,0.3213656787566113,-0.4549500838518486,0.5333333333333333,0.1866666666666666,5.495212554931641,-4.0,0.3666666666666666,-0.1601650072046525,0.0678561374381745,0.0828353712656355,4.295601247568288,15.594102204177863,0.4995892051672787,0.1701716209906662,0.0580026375613424,0.2124716230423262,-0.0376241411605649,-0.3238849802934649,0.2019886353599664,0.2076610786281205,-0.1639013632881168,-0.305367618887069,0.1244389822699481,0.3404302403084048,DSSTVSDSVFQLLDGLITFYRNPKLPFSRFWTEAVGTLASLISDYNLSSHILKKCSKKLEEFEKTLLHAILGNNHINQFQVQHYVSQSLVTLGNCSLLRKSIISLLLSEVNGFADDLGAINQEQASYDVSRYENIFYLFWVLEQLLQKET,chromosomes,MEI4_HUMAN
MEI4_HUMAN_nonidr_5,0.0465116279069767,0.0,0.0465116279069767,0.0465116279069767,0.1162790697674418,0.0232558139534883,0.0232558139534883,0.0930232558139534,0.0930232558139534,0.1627906976744186,0.0,0.0,0.0232558139534883,0.0697674418604651,0.0465116279069767,0.0697674418604651,0.0697674418604651,0.0232558139534883,0.0232558139534883,0.0232558139534883,0.0,0.0,0.0,0.0,0.0,0.0,0.0,0.0,0.0,0.0,0.0,0.0,0.0,0.0,2.0,0.0,0.0,2.0,6.0,0.0,0.0,0.0,1.0,7.0,0.1255813953488371,4.0,0.0,0.0,0.0,0.0,0.0,0.0,0.0,0.0,0.0,0.0,0.0,0.0,0.0,0.0,0.0,0.0,0.0,0.0,0.0,0.0,0.0,0.0,0.0,1.0,0.0,0.0,0.0,0.0,0.0,0.0,0.0,0.0,0.0,0.0,0.0,0.0,0.0,0.0,0.0,0.0,1.0,0.0,0.0,0.0,0.0,0.0,3.0,7.0,0.0,1.0,3.0,3.0,0.0,3.0,-0.5108256237659907,3.0,2.0,0.0,4.0,5.0,3.0,0.0,0.0,1.0,0.0,0.0,0.0930232558139534,0.3255813953488372,0.1627906976744186,0.1395348837209302,0.2558139534883721,2.179452409790031,0.1199767491934896,-1.0698774148524202,0.5581395348837209,0.2325581395348837,9.402111053466797,2.0,0.2558139534883721,-0.1512188103728484,0.0681121461334527,0.090984128504117,4.192080929474739,16.118455664837605,0.5051547115967151,0.1958681406554708,0.0469967180768186,0.18686627862036,-0.0607313671387234,-0.3637414732338634,0.1788378394216596,0.1929331322080438,-0.2574253966873951,-0.4145504487865066,0.1190288896078021,0.3411660542296926,IKKFLQKHDETIFQLSDAFPLFTFYLWRVGILLSSAQIETLRK,chromosomes,MEI4_HUMAN
SYNEM_HUMAN_nonidr_0,0.0476190476190476,0.0476190476190476,0.0476190476190476,0.1428571428571428,0.0,0.0,0.0,0.0,0.0,0.238095238095238,0.0,0.0952380952380952,0.0,0.0,0.1904761904761904,0.0,0.0,0.0952380952380952,0.0,0.0952380952380952,0.0,0.0,0.0,0.0,0.0,0.0,0.0,0.0,0.0,0.0,0.0,0.0,0.0,0.0,1.0,0.6931471805599453,0.0,3.0,0.0,0.0,0.0,0.0,0.0,1.0,-0.4714285714285713,0.0,0.0,0.0,0.0,0.0,0.0,0.0,0.0,0.0,0.0,0.0,0.0,0.0,0.0,0.0,0.0,0.0,0.0,0.0,1.0,0.0,0.0,1.0,0.0,1.0,0.0,0.0,0.0,0.0,0.0,0.0,0.0,0.0,0.0,0.0,0.0,0.0,0.0,0.0,0.0,0.0,0.0,0.0,0.0,0.0,2.0,0.0,4.0,0.0,0.0,0.0,2.0,0.0,0.0,4.0,1.6094379124341005,6.0,4.0,0.0,0.0,4.0,0.0,0.0,0.0,1.0,0.0,0.0,0.1904761904761904,0.3809523809523809,0.0952380952380952,0.1904761904761904,0.3809523809523809,1.597304395925668,-1.1618875801980244,-0.3353789701107618,0.4285714285714285,0.3809523809523809,6.248714447021484,0.0,0.1428571428571428,-0.2914326401676323,0.0820110310547711,0.0987483572896503,4.507311531901619,16.479829770250586,0.5942039550054088,0.1839114501160133,0.0388475125796902,0.1384068850182821,-0.2480307282828297,-0.4602242378833349,0.1417341065177672,0.2625074619394264,-0.1295104634743655,-0.3473381270047399,0.0998215886749369,0.4569652757967533,LNARLYDYVCRVRELERENLL,cell_junction,SYNEM_HUMAN
SYNEM_HUMAN_nonidr_1,0.0,0.0,0.0,0.0,0.0,0.3333333333333333,0.0,0.0,0.0,0.1666666666666666,0.0,0.0,0.0,0.0,0.5,0.0,0.0,0.0,0.0,0.0,0.0,0.0,0.0,0.0,0.0,0.0,0.0,0.0,0.0,0.0,0.0,0.0,0.0,0.0,0.0,0.0,0.0,0.0,2.0,0.0,0.0,4.0,2.0,0.0,-1.75,0.0,0.0,0.0,0.0,0.0,0.0,0.0,0.0,0.0,0.0,0.0,0.0,0.0,0.0,0.0,0.0,0.0,0.0,0.0,0.0,0.0,0.0,0.0,0.0,0.0,0.0,0.0,0.0,0.0,0.0,0.0,0.0,0.0,0.0,0.0,0.0,0.0,0.0,0.0,0.0,0.0,0.0,0.0,0.0,0.0,0.0,0.0,3.0,0.0,0.0,0.0,0.0,0.0,0.0,5.0,1.3862943611198906,3.0,3.0,0.0,2.0,3.0,0.0,0.0,1.0,0.0,0.0,0.0,0.0,0.1666666666666666,0.0,0.5,0.5,0.6823907603703502,-3.0071599147182333,-3.0071599147182333,0.8333333333333334,0.5,12.301029205322266,3.0,0.3333333333333333,0.6910440616569954,0.0959164172110149,0.184789986917203,6.262222139936792,13.895468768945411,0.2916397607792055,0.1388862461112536,0.1058638450886209,0.3670879621694857,-0.1725315941575526,-0.8262460153059494,0.1551060452532559,0.458419324052827,-0.1624011611526497,-0.3418221417075444,0.1749908145845977,0.1840565971517557,LRGRRG,cell_junction,SYNEM_HUMAN
SYNEM_HUMAN_nonidr_2,0.0,0.0,0.0,0.0,0.0,0.0,0.0,0.0,0.0,0.5,0.0,0.0,0.0,0.5,0.0,0.0,0.0,0.0,0.0,0.0,0.0,0.0,0.0,0.0,0.0,0.0,0.0,0.0,0.0,0.0,0.0,0.0,0.0,0.0,0.0,0.0,0.0,0.0,0.0,0.0,0.0,0.0,0.0,0.0,0.1499999999999999,0.0,0.0,0.0,0.0,0.0,0.0,0.0,0.0,0.0,0.0,0.0,0.0,0.0,0.0,0.0,0.0,0.0,0.0,0.0,0.0,0.0,0.0,0.0,0.0,0.0,0.0,0.0,0.0,0.0,0.0,0.0,0.0,0.0,0.0,0.0,0.0,0.0,0.0,0.0,0.0,0.0,0.0,0.0,0.0,0.0,0.0,0.0,0.0,0.0,0.0,0.0,1.0,1.0,0.0,0.0,0.0,0.0,0.0,0.0,0.0,0.0,0.0,0.0,0.0,0.0,0.0,0.0,0.0,0.5,0.0,0.0,0.0,0.3465735902799725,,,0.5,0.0,5.525012969970703,0.0,0.5,0.0,,,,,,,,,,,,,,,,,QL,cell_junction,SYNEM_HUMAN
SYNEM_HUMAN_nonidr_3,0.5,0.0,0.0,0.1666666666666666,0.0,0.0,0.0,0.0,0.0,0.3333333333333333,0.0,0.0,0.0,0.0,0.0,0.0,0.0,0.0,0.0,0.0,0.0,0.0,0.0,0.0,0.0,0.0,0.0,0.0,0.0,0.0,0.0,0.0,0.0,0.0,0.0,0.6931471805599453,0.0,1.0,0.0,0.0,0.0,0.0,0.0,3.0,1.5833333333333333,0.0,0.0,0.0,0.0,0.0,0.0,0.0,0.0,0.0,0.0,0.0,0.0,0.0,0.0,0.0,0.0,0.0,0.0,0.0,0.0,0.0,0.0,0.0,0.0,0.0,0.0,0.0,0.0,0.0,0.0,0.0,0.0,0.0,0.0,0.0,0.0,0.0,0.0,0.0,0.0,0.0,0.0,0.0,0.0,0.0,0.0,0.0,0.0,0.0,0.0,0.0,0.0,0.0,0.0,0.0,0.0,0.0,0.0,0.0,0.0,0.0,0.0,0.0,0.0,0.0,0.0,0.0,0.1666666666666666,0.8333333333333334,0.0,0.0,0.1666666666666666,0.6823907603703502,,,0.6666666666666666,0.1666666666666666,3.9996376037597656,-1.0,0.0,0.0,0.0345300998899248,0.0435637110943559,3.7530342713986937,15.157663625910708,0.7713560919970011,0.098605440458224,0.0323021851024549,0.0903366761733468,-0.2614663220425049,-0.2133228483974876,0.090893557977643,0.1020390825083154,-0.0154491046416498,-0.0694681941424592,0.0591415307034837,0.5806599615145974,AALEAL,cell_junction,SYNEM_HUMAN
SYNEM_HUMAN_nonidr_4,0.1333333333333333,0.0,0.0,0.1333333333333333,0.0,0.0,0.0,0.0,0.0,0.2,0.0,0.0,0.0,0.0666666666666666,0.0666666666666666,0.0666666666666666,0.0666666666666666,0.1333333333333333,0.0666666666666666,0.0666666666666666,0.0,0.0,0.0,0.0,0.0,0.0,0.0,0.0,0.0,0.0,0.0,0.0,0.0,0.0,0.0,1.0986122886681098,0.0,2.0,0.0,0.0,0.0,0.0,0.0,2.0,0.3133333333333332,0.0,0.0,0.0,0.0,0.0,0.0,0.0,0.0,0.0,0.0,0.0,0.0,0.0,0.0,0.0,0.0,0.0,0.0,0.0,0.0,0.0,0.0,0.0,0.0,0.0,0.0,0.0,0.0,0.0,0.0,0.0,0.0,1.0,0.0,1.0,0.0,0.0,0.0,0.0,1.0,0.0,0.0,0.0,0.0,0.0,0.0,0.0,1.0,2.0,0.0,0.0,1.0,1.0,0.0,1.0,0.6931471805599453,2.0,1.0,0.0,1.0,2.0,1.0,0.0,0.0,0.0,0.0,0.0,0.1333333333333333,0.4666666666666667,0.1333333333333333,0.0666666666666666,0.2,1.6018713581955335,-1.3373827083198937,-0.0208618221047313,0.5333333333333333,0.2,4.531398773193359,-1.0,0.2,-0.0488033871712584,0.0616580147757515,0.0788005306619147,4.053035893820266,16.20765835772278,0.5706598787381449,0.2214964162363122,0.03953549050314,0.1302746258567526,-0.1111782314309236,-0.3329225182549943,0.1612141745539961,0.1886163283336035,-0.1372960542659341,-0.266620606775535,0.1057452873595281,0.4366399812330805,ALLVAESWRETVQLY,cell_junction,SYNEM_HUMAN
SYNEM_HUMAN_nonidr_5,0.0,0.0,0.0,0.0,0.0,0.0,0.0,0.0,0.0,0.0,0.0,0.0,0.0,0.0,1.0,0.0,0.0,0.0,0.0,0.0,0.0,0.0,0.0,0.0,0.0,0.0,0.0,0.0,0.0,0.0,0.0,0.0,0.0,0.0,0.0,0.0,0.0,0.0,0.0,0.0,0.0,0.0,0.0,0.0,-4.5,0.0,0.0,0.0,0.0,0.0,0.0,0.0,0.0,0.0,0.0,0.0,0.0,0.0,0.0,0.0,0.0,0.0,0.0,0.0,0.0,0.0,0.0,0.0,0.0,0.0,0.0,0.0,0.0,0.0,0.0,0.0,0.0,0.0,0.0,0.0,0.0,0.0,0.0,0.0,0.0,0.0,0.0,0.0,0.0,0.0,0.0,0.0,1.0,0.0,0.0,0.0,0.0,0.0,0.0,1.0,0.6931471805599453,1.0,1.0,0.0,0.0,1.0,0.0,0.0,0.0,0.0,0.0,0.0,0.0,0.0,0.0,1.0,1.0,0.0,,,1.0,1.0,9.750049591064451,1.0,0.0,0.0,,,,,,,,,,,,,,,,,R,cell_junction,SYNEM_HUMAN
SYNEM_HUMAN_nonidr_6,0.1333333333333333,0.0,0.0666666666666666,0.1333333333333333,0.0,0.0666666666666666,0.0,0.0,0.0,0.3333333333333333,0.0,0.0,0.0,0.0666666666666666,0.2,0.0,0.0,0.0,0.0,0.0,0.0,0.0,0.0,0.0,0.0,0.0,0.0,0.0,0.0,0.0,0.0,0.0,0.0,0.0,1.0,0.4054651081081644,0.0,2.0,1.0,0.0,0.0,0.0,1.0,2.0,-0.3533333333333334,0.0,0.0,0.0,0.0,0.0,0.0,0.0,0.0,0.0,0.0,0.0,0.0,0.0,0.0,0.0,0.0,0.0,0.0,0.0,0.0,0.0,0.0,0.0,0.0,0.0,0.0,0.0,0.0,0.0,0.0,0.0,0.0,0.0,0.0,0.0,0.0,0.0,0.0,0.0,0.0,0.0,0.0,0.0,0.0,0.0,0.0,0.0,3.0,0.0,0.0,0.0,1.0,1.0,0.0,4.0,1.3862943611198906,3.0,3.0,0.0,1.0,3.0,0.0,0.0,1.0,0.0,0.0,0.0,0.2,0.4666666666666667,0.0,0.2,0.4,1.328915054047393,-0.6279255498226035,-0.8132233679749811,0.6666666666666666,0.4,6.182811737060547,0.0,0.1333333333333333,-0.3677651610599671,0.0518635000394235,0.0644099848646763,4.39782423301878,15.837384495918238,0.7054281084309397,0.1029798564478422,0.0353747097747956,0.1198832436416403,-0.3250842410196717,-0.3593549027819712,0.1344833609870004,0.1947423748673289,-0.0453642709438958,-0.1397673508271303,0.0728709010056329,0.5395807535259617,GLEQLRARLEDALLR,cell_junction,SYNEM_HUMAN
SYNEM_HUMAN_nonidr_7,0.25,0.0,0.0,0.25,0.0,0.0,0.0,0.25,0.0,0.0,0.0,0.0,0.0,0.25,0.0,0.0,0.0,0.0,0.0,0.0,0.0,0.0,0.0,0.0,0.0,0.0,0.0,0.0,0.0,0.0,0.0,0.0,0.0,0.0,0.0,0.6931471805599453,0.0,1.0,0.0,0.0,0.0,0.0,0.0,1.0,-0.175,0.0,0.0,0.0,0.0,0.0,0.0,0.0,0.0,0.0,0.0,0.0,0.0,0.0,0.0,0.0,0.0,0.0,0.0,0.0,0.0,0.0,0.0,0.0,0.0,0.0,0.0,0.0,0.0,0.0,0.0,0.0,0.0,0.0,0.0,0.0,0.0,0.0,0.0,0.0,0.0,0.0,0.0,0.0,0.0,0.0,0.0,0.0,0.0,0.0,0.0,0.0,1.0,1.0,0.0,0.0,0.0,0.0,0.0,0.0,0.0,0.0,0.0,0.0,0.0,0.0,0.0,0.0,0.25,0.5,0.0,0.0,0.25,0.7945134575869862,,,0.75,0.25,3.9996376037597656,-1.0,0.25,0.0,0.0774726499966332,0.0785255600223301,4.603704149493222,15.34648740054516,0.6389041786809361,0.1614744593007581,0.0372012675788125,0.1094993450662314,-0.1065612339843566,-0.2241324496174156,0.1171737848510183,0.2113522092360043,-0.0242937468030324,-0.1102621563047359,0.0740847435157946,0.5502700767959372,IQAE,cell_junction,SYNEM_HUMAN
SYNEM_HUMAN_nonidr_8,0.125,0.0,0.125,0.0625,0.0,0.03125,0.0,0.0,0.0625,0.21875,0.03125,0.0,0.0,0.0625,0.03125,0.03125,0.09375,0.0625,0.03125,0.03125,0.0,0.0,0.0,0.0,0.0,0.0,0.0,2.0,2.0,0.0,0.0,0.0,0.0,0.0,4.0,-0.5108256237659907,0.0,2.0,1.0,0.0,0.0,0.0,1.0,6.0,-0.053125,2.0,0.0,0.0,0.0,0.0,0.0,0.0,0.0,0.0,0.0,1.0,0.0,0.0,0.0,0.0,0.0,0.0,0.0,0.0,0.0,0.0,0.0,0.0,0.0,0.0,0.0,0.0,0.0,0.0,0.0,0.0,0.0,0.0,0.0,0.0,0.0,0.0,0.0,0.0,0.0,0.0,0.0,0.0,0.0,0.0,0.0,0.0,1.0,4.0,0.0,0.0,2.0,2.0,0.0,2.0,-0.4054651081081644,2.0,1.0,0.0,2.0,2.0,1.0,0.0,0.0,1.0,1.0,0.0,0.1875,0.4375,0.0625,0.09375,0.28125,1.941010695090184,-1.3677431730054097,-1.078265249579346,0.625,0.28125,4.233234405517578,-3.0,0.21875,0.2571520437068891,0.0493462889960076,0.062573727914489,4.304505839725544,15.442847304574991,0.5773176299931264,0.1625015536666066,0.0409435254662674,0.1644907085065381,-0.2070070821730166,-0.3285570150626252,0.1718839213905767,0.1783342080235596,-0.1042803228602404,-0.2370754899101808,0.0980457266019551,0.4146864564143557,DEKATLTLAMADWLRDYQDLLQVKTGLSLEVA,cell_junction,SYNEM_HUMAN
SYNEM_HUMAN_nonidr_9,0.0679456434852118,0.0015987210231814,0.0511590727418065,0.1167066346922462,0.026378896882494,0.0903277378097522,0.0247801758593125,0.035171862509992,0.0519584332533972,0.052757793764988,0.0127897681854516,0.0183852917665867,0.0503597122302158,0.0519584332533972,0.0679456434852118,0.1119104716227018,0.0647482014388489,0.079136690647482,0.0079936051159072,0.0159872102318145,5.0,0.0,0.0,0.0,2.0,0.0,0.0,3.0,0.0,5.0,4.0,0.0,4.0,15.0,64.0,0.8160453168830992,0.0,146.0,146.0,0.0,0.0,10.0,113.0,213.0,-0.7853717026378899,65.0,13.0,0.0,0.0,0.0,0.0,0.0,0.0,0.0,0.0,2.0,0.0,0.0,0.0,0.0,0.0,1.0,1.0,0.0,4.0,1.0,0.0,1.0,2.0,9.0,0.0,1.0,3.0,2.0,1.0,2.0,24.0,20.0,0.0,27.0,5.0,0.0,14.0,1.0,13.0,2.0,16.0,14.0,2.0,8.0,23.0,5.0,148.0,284.0,0.0,63.0,88.0,65.0,0.0,198.0,0.2646925542270821,105.0,85.0,12.0,253.0,225.0,140.0,0.0,4.0,0.0,2.0,0.0,0.1678657074340527,0.2478017585931255,0.0503597122302158,0.1199040767386091,0.3381294964028777,2.729430645915601,-1.398401340142777,-0.3316566615173942,0.7498001598721024,0.2877697841726618,5.090663909912109,-60.0,0.3637090327737809,21.640059488099656,0.0694788995040973,0.0893202480436562,4.79114179038761,14.3846566993767,0.3354858504360138,0.2327753708349429,0.0941564823396793,0.2803069153939197,0.0719102829472748,-0.4285874908807596,0.2020665550817025,0.2352582343077595,-0.0824651320426614,-0.2084927545899321,0.1773125851004818,0.1929308243008234,LEGESNPEIVIWAEHVENMPSEFRNKSYHYTDSLLQRENERNLFSRQKAPLASFNHSSALYSNLSGHRGSQTGTSIGGDARRGFLGSGYSSSATTQQENSYGKAVSSQTNVRTFSPTYGLLRNTEAQVKTFPDRPKAGDTREVPVYIGEDSTIARESYRDRRDKVAAGASESTRSNERTVILGKKTEVKATREQERNRPETIRTKPEEKMFDSKEKASEERNLRWEELTKLDKEARQRESQQMKEKAKEKDSPKEKSVREREVPISLEVSQDRRAEVSPKGLQTPVKDAGGGTGREAEARELRFRLGTSDATGSLQGDSMTETVAENIVTSILKQFTQSPETEASADSFPDTKVTYVDRKELPGERKTKTEIVVESKLTEDVDVSDEAGLDYLLSKDIKEVGLKGKSAEQMIGDIINLGLKGREGRAKVVNVEIVEEPVSYVSGEKPEEFSVPFKVEEVEDVSPGPWGLVKEEEGYGESDVTFSVNQHRRTKQPQENTTHVEEVTEAGDSEGEQSYFVSTPDEHPGGHDRDDGSVYGQIHIEEESTIRYSWQDEIVQGTRRRTQKDGAVGEKVVKPLDVPAPSLEGDLGSTHWKEQARSGEFHAEPTVIEKEIKIPHEFHTSMKGISSKEPRQQLVEVIGQLEETLPERMREELSALTREGQGGPGSVSVDVKKVQGAGGSSVTLVAEVNVSQTVDADRLDLEELSKDEASEMEKAVESVVRESLSRQRSPAPGSPDEEGGAEAPAAGIRFRRWATRELYIPSGESEVAGGASHSSGQRTPQGPVSATVEVSSPTGFAQSQVLEDVSQAARHIKLGPSEVWRTERMSYEGPTAEVVEVSAGGDLSQAASPTGASRSVRHVTLGPGQSPLSREVIFLGPAPACPEAWGSPEPGPAESSADMDGSGRHSTFGCRQFHAEKEIIFQGPISAAGKVGDYFATEESVGTQTSVRQLQLGPKEGFSGQIQFTAPLSDKVELGVIGDSVHMEGLPGSSTSIRHISIGPQRHQTTQQIVYHGLVPQLGESGDSESTVHGEGSADVHQATHSHTSGRQTVMTEKSTFQSVVSESPQEDSAEDTSGAEMTSGVSRSFRHIRLGPTETETSEHIAIRGPVSRTFVLAGSADSPELGKLADSSRTLRHIAPGPKETSFTFQMDVSNVEAIRSRTQEAGALGVSDRGSWRDADSRNDQAVGVSFKASAGEGDQAHREQGKEQAMFDKKVQLQRMVDQRSVISDEKKVALLYLDNEEEENDGHWF,cell_junction,SYNEM_HUMAN
NKRF_HUMAN_nonidr_0,0.0909090909090909,0.0,0.0,0.0909090909090909,0.0909090909090909,0.0,0.0,0.1818181818181818,0.0909090909090909,0.0909090909090909,0.0,0.0,0.0,0.0909090909090909,0.0,0.0,0.1818181818181818,0.0,0.0,0.0909090909090909,0.0,0.0,0.0,0.0,0.0,0.0,0.0,0.0,0.0,0.0,0.0,0.0,0.0,0.0,0.0,0.6931471805599453,0.0,1.0,1.0,0.0,0.0,0.0,0.0,2.0,0.3454545454545454,1.0,0.0,0.0,0.0,0.0,0.0,0.0,0.0,0.0,0.0,0.0,0.0,0.0,0.0,0.0,0.0,0.0,0.0,0.0,0.0,0.0,0.0,0.0,0.0,1.0,0.0,0.0,0.0,0.0,0.0,0.0,0.0,0.0,0.0,0.0,0.0,0.0,0.0,0.0,0.0,0.0,0.0,0.0,0.0,0.0,0.0,0.0,0.0,2.0,0.0,0.0,1.0,1.0,0.0,0.0,-0.6931471805599453,1.0,0.0,0.0,0.0,0.0,0.0,0.0,0.0,0.0,0.0,0.0,0.0909090909090909,0.3636363636363636,0.1818181818181818,0.0909090909090909,0.1818181818181818,1.465092134977636,-0.9627406736630196,-0.3913522967563138,0.5454545454545454,0.1818181818181818,6.000698089599609,0.0,0.2727272727272727,-0.0909090909090909,0.0749113121416857,0.0779374783562353,4.136804027159389,16.21805445630696,0.5349558540245488,0.256494025640806,0.0416665569506092,0.1351698683965625,-0.0629509545554802,-0.3668601224245892,0.1478521794370709,0.1558809997131847,-0.2378773084752837,-0.455804339305714,0.1161959196969262,0.3995942244793338,QYFIEKLTATI,nucleolus,NKRF_HUMAN
NKRF_HUMAN_nonidr_1,0.05,0.1,0.0,0.05,0.0,0.0,0.0,0.1,0.05,0.05,0.05,0.1,0.05,0.05,0.05,0.0,0.15,0.0,0.0,0.15,0.0,0.0,0.0,0.0,0.0,0.0,0.0,0.0,0.0,0.0,0.0,0.0,0.0,0.0,0.0,0.6931471805599453,0.0,1.0,0.0,0.0,0.0,0.0,0.0,3.0,-0.425,1.0,0.0,0.0,0.0,0.0,0.0,0.0,0.0,0.0,0.0,0.0,0.0,0.0,0.0,0.0,0.0,1.0,1.0,0.0,0.0,0.0,0.0,0.0,1.0,1.0,0.0,0.0,0.0,0.0,0.0,0.0,0.0,1.0,0.0,0.0,0.0,0.0,0.0,0.0,0.0,0.0,0.0,0.0,0.0,0.0,2.0,0.0,2.0,4.0,0.0,1.0,3.0,1.0,0.0,1.0,0.0,4.0,1.0,0.0,0.0,1.0,0.0,0.0,0.0,0.0,0.0,0.0,0.05,0.25,0.15,0.1,0.2,1.8336327990308767,-1.1583887708275484,-0.7342647826847942,0.45,0.15,8.021251678466797,1.0,0.4,-0.13563939586926,0.0779110700947691,0.0935487685173527,4.435625921198251,15.87828924354941,0.4537993363798884,0.2114706346006122,0.0742203924699168,0.2104085972346326,0.0029284830594361,-0.3515491548397939,0.2371888719541622,0.2250246827139569,-0.171908264356671,-0.4190282321931735,0.1369356984205619,0.2982979626870621,NYTYMLTRCIQACKTNPEYI,nucleolus,NKRF_HUMAN
NKRF_HUMAN_nonidr_2,0.0555555555555555,0.1111111111111111,0.0555555555555555,0.0555555555555555,0.0,0.0555555555555555,0.0,0.0555555555555555,0.0,0.1111111111111111,0.0,0.0555555555555555,0.0,0.0555555555555555,0.0555555555555555,0.0,0.1666666666666666,0.0555555555555555,0.0,0.1111111111111111,0.0,0.0,0.0,0.0,0.0,0.0,0.0,0.0,0.0,0.0,0.0,0.0,0.0,0.0,1.0,0.0,0.0,1.0,1.0,0.0,0.0,0.0,1.0,1.0,-0.0277777777777777,0.0,0.0,0.0,0.0,0.0,0.0,0.0,0.0,0.0,0.0,0.0,0.0,0.0,0.0,0.0,0.0,0.0,0.0,0.0,0.0,0.0,0.0,0.0,1.0,1.0,0.0,0.0,0.0,0.0,0.0,0.0,0.0,0.0,0.0,0.0,0.0,0.0,0.0,0.0,0.0,0.0,0.0,0.0,0.0,0.0,1.0,0.0,1.0,3.0,0.0,0.0,2.0,1.0,0.0,2.0,0.6931471805599453,3.0,1.0,0.0,1.0,1.0,0.0,0.0,0.0,0.0,0.0,0.0,0.1111111111111111,0.2777777777777778,0.1111111111111111,0.0555555555555555,0.1666666666666666,1.8069024553958424,0.0038355890661388,0.2421528895775715,0.5,0.1666666666666666,4.370220184326172,-1.0,0.4444444444444444,-0.1013276053298831,0.0650364033165811,0.1044472027071367,4.166891309699437,15.764466103238734,0.3279134236653837,0.3139219404344445,0.0673878748321856,0.2271731761509105,0.0795610014189843,-0.4451329050291179,0.2183105407104167,0.2526262936681825,-0.1237162909151626,-0.3618119254107912,0.1589413948791411,0.2371096411212144,LTDGYACEVRCQNIYLTT,nucleolus,NKRF_HUMAN
NKRF_HUMAN_nonidr_3,0.024390243902439,0.024390243902439,0.024390243902439,0.073170731707317,0.073170731707317,0.048780487804878,0.024390243902439,0.048780487804878,0.1219512195121951,0.0975609756097561,0.024390243902439,0.0,0.048780487804878,0.048780487804878,0.0975609756097561,0.048780487804878,0.024390243902439,0.1219512195121951,0.0,0.024390243902439,0.0,0.0,0.0,0.0,0.0,0.0,0.0,0.0,0.0,1.0,0.0,0.0,0.0,0.0,1.0,0.6931471805599453,0.0,3.0,5.0,0.0,0.0,2.0,2.0,8.0,-0.2317073170731708,5.0,0.0,0.0,0.0,0.0,0.0,0.0,0.0,0.0,0.0,0.0,0.0,0.0,0.0,0.0,0.0,0.0,0.0,0.0,0.0,0.0,0.0,0.0,0.0,0.0,0.0,0.0,0.0,0.0,0.0,0.0,0.0,2.0,0.0,0.0,0.0,0.0,0.0,0.0,0.0,0.0,0.0,0.0,0.0,0.0,0.0,0.0,6.0,5.0,0.0,2.0,2.0,2.0,0.0,6.0,-0.1823215567939546,5.0,4.0,0.0,4.0,6.0,2.0,0.0,1.0,0.0,0.0,1.0,0.0975609756097561,0.3170731707317073,0.0975609756097561,0.2195121951219512,0.3658536585365853,2.2208259949742897,0.3589097292449235,-0.392955892140478,0.5853658536585366,0.3170731707317073,10.014568328857422,5.0,0.2195121951219512,0.1190664768344207,0.0648566220309,0.0844416928188031,4.342053847813872,15.248211988884323,0.3209870279119211,0.3021694064550138,0.0653251906042405,0.2323178940708823,0.1597801831798098,-0.4992475220464493,0.1314851013294098,0.2150687266092757,-0.1453144989516175,-0.3193694342633945,0.1670259218373878,0.2294272465266806,KLLQKRIEVRVVRRKFKHTFGEDLVVCQIGMSSYEFPPALK,nucleolus,NKRF_HUMAN
NKRF_HUMAN_nonidr_4,0.1851851851851851,0.0,0.037037037037037,0.037037037037037,0.074074074074074,0.037037037037037,0.037037037037037,0.1111111111111111,0.037037037037037,0.0,0.0,0.1481481481481481,0.037037037037037,0.037037037037037,0.0,0.074074074074074,0.074074074074074,0.037037037037037,0.037037037037037,0.0,0.0,0.0,0.0,0.0,0.0,0.0,0.0,0.0,0.0,0.0,0.0,0.0,0.0,0.0,1.0,0.0,0.0,1.0,3.0,0.0,0.0,0.0,1.0,7.0,-0.1925925925925926,1.0,0.0,0.0,0.0,0.0,0.0,0.0,0.0,0.0,0.0,0.0,1.0,0.0,0.0,0.0,0.0,0.0,0.0,0.0,0.0,0.0,0.0,0.0,0.0,0.0,0.0,0.0,0.0,0.0,0.0,0.0,0.0,0.0,0.0,0.0,1.0,0.0,0.0,0.0,0.0,0.0,0.0,0.0,0.0,0.0,4.0,0.0,1.0,5.0,0.0,1.0,5.0,1.0,0.0,1.0,-0.6931471805599453,0.0,0.0,0.0,3.0,2.0,2.0,0.0,0.0,0.0,0.0,0.0,0.074074074074074,0.3333333333333333,0.1111111111111111,0.037037037037037,0.1481481481481481,1.9526219275173504,0.3455574763158013,-1.2121929758716634,0.5925925925925926,0.1111111111111111,5.320575714111328,-1.0,0.4074074074074074,-0.1705759731653329,0.0793863879990543,0.1065261063402403,4.618717726416072,15.077452480214198,0.3387785091772564,0.2318071070296107,0.0842400576931292,0.2802150950602213,0.117770354123651,-0.3585025904022862,0.2237949104895653,0.2525251262475189,-0.147411019919649,-0.3198096376929221,0.1664507612436953,0.2078104996981633,ASGQPIFNASAKHWTNFVITENANDAI,nucleolus,NKRF_HUMAN
NKRF_HUMAN_nonidr_5,0.125,0.0,0.0,0.0,0.125,0.0,0.0,0.0,0.125,0.0,0.125,0.125,0.0,0.0,0.0,0.375,0.0,0.0,0.0,0.0,0.0,0.0,0.0,0.0,0.0,0.0,0.0,0.0,0.0,0.0,0.0,0.0,0.0,0.0,0.0,0.0,0.0,0.0,1.0,0.0,0.0,0.0,0.0,2.0,-0.4125000000000001,1.0,0.0,0.0,0.0,0.0,0.0,0.0,0.0,0.0,0.0,0.0,0.0,0.0,0.0,0.0,0.0,0.0,0.0,0.0,0.0,0.0,0.0,0.0,0.0,0.0,0.0,0.0,0.0,0.0,0.0,0.0,0.0,0.0,0.0,0.0,0.0,0.0,0.0,0.0,0.0,0.0,0.0,0.0,0.0,0.0,1.0,0.0,0.0,3.0,0.0,0.0,1.0,0.0,0.0,0.0,-0.6931471805599453,0.0,0.0,0.0,3.0,3.0,3.0,0.0,0.0,0.0,0.0,0.0,0.0,0.25,0.125,0.125,0.125,1.101605429189649,,,0.625,0.125,8.75002670288086,1.0,0.5,0.0,0.0653339890640513,0.0988854771513175,4.579331797012597,14.457108831707863,0.407081903441383,0.1788729386640715,0.0874811694916983,0.2697981410497785,0.0786853206018051,-0.3359491826158206,0.197860020805716,0.235727712742204,-0.2028644437067858,-0.3993676176724872,0.1404293218208021,0.2411087223323159,SASFNKMS,nucleolus,NKRF_HUMAN
NKRF_HUMAN_nonidr_6,0.0416666666666666,0.0833333333333333,0.0416666666666666,0.0833333333333333,0.0416666666666666,0.0416666666666666,0.0416666666666666,0.0,0.0416666666666666,0.0833333333333333,0.0833333333333333,0.0416666666666666,0.0416666666666666,0.0416666666666666,0.125,0.0,0.0416666666666666,0.0416666666666666,0.0416666666666666,0.0416666666666666,0.0,0.0,0.0,0.0,0.0,0.0,0.0,0.0,0.0,1.0,0.0,0.0,0.0,0.0,1.0,0.4054651081081644,0.0,2.0,2.0,0.0,0.0,0.0,1.0,3.0,-0.7416666666666667,1.0,0.0,0.0,0.0,0.0,0.0,0.0,0.0,0.0,0.0,0.0,0.0,0.0,0.0,0.0,0.0,0.0,0.0,0.0,0.0,0.0,0.0,0.0,0.0,0.0,0.0,0.0,0.0,0.0,0.0,0.0,0.0,0.0,0.0,0.0,1.0,0.0,0.0,0.0,0.0,0.0,1.0,0.0,0.0,0.0,1.0,0.0,4.0,2.0,0.0,1.0,2.0,1.0,0.0,4.0,0.6931471805599453,4.0,3.0,0.0,1.0,3.0,0.0,0.0,1.0,0.0,0.0,0.0,0.125,0.25,0.125,0.1666666666666666,0.3333333333333333,2.092515883610187,0.0501045443128879,0.0559348067542485,0.5416666666666666,0.2916666666666667,8.05527114868164,1.0,0.2916666666666667,-0.4900965444981493,0.079515772409935,0.1218395307885271,4.44984955651227,15.9494380783697,0.4056593823736664,0.2281372495065679,0.0754558216439085,0.23051210909979,0.049034044769484,-0.4603859801393021,0.1729537502139807,0.2667199231650318,-0.2414740172739728,-0.420629440010403,0.1448151714566002,0.270411012017105,KYEMMPNRTWRCRVFLQDHCLAEG,nucleolus,NKRF_HUMAN
NKRF_HUMAN_nonidr_7,0.0,0.0,0.0,0.0,0.0,0.0,0.0,0.0,0.0,0.0,0.0,0.5,0.0,0.0,0.0,0.5,0.0,0.0,0.0,0.0,0.0,0.0,0.0,0.0,0.0,0.0,0.0,0.0,0.0,0.0,0.0,0.0,0.0,0.0,0.0,0.0,0.0,0.0,0.0,0.0,0.0,0.0,0.0,0.0,-2.15,0.0,0.0,0.0,0.0,0.0,0.0,0.0,0.0,0.0,0.0,0.0,0.0,0.0,0.0,0.0,0.0,0.0,0.0,0.0,0.0,0.0,0.0,0.0,0.0,0.0,0.0,0.0,0.0,0.0,0.0,0.0,0.0,0.0,0.0,0.0,0.0,0.0,0.0,0.0,0.0,0.0,0.0,0.0,0.0,0.0,2.0,0.0,0.0,2.0,0.0,0.0,2.0,0.0,0.0,0.0,0.0,0.0,0.0,0.0,2.0,2.0,2.0,0.0,0.0,0.0,0.0,0.0,0.0,0.0,0.0,0.0,0.0,0.4479398673070137,,,0.5,0.0,5.525012969970703,0.0,1.0,0.0,0.0478942376133887,0.0733250034418507,4.8400028639690085,12.82507188185374,0.237811203319502,0.0883039419087137,0.1505320529457565,0.4375811056319751,0.2521604785682503,-0.2691902462604989,0.4006634177549674,0.2789389506377768,-0.0396788818725351,-0.0928988219666729,0.1761411665257819,0.081149619611158,NSSN,nucleolus,NKRF_HUMAN
NKRF_HUMAN_nonidr_8,0.0519480519480519,0.0043290043290043,0.0389610389610389,0.1038961038961039,0.0086580086580086,0.0909090909090909,0.0259740259740259,0.0649350649350649,0.1082251082251082,0.0735930735930736,0.0173160173160173,0.0432900432900432,0.0129870129870129,0.0649350649350649,0.0779220779220779,0.0432900432900432,0.0432900432900432,0.0822510822510822,0.0086580086580086,0.0346320346320346,0.0,0.0,0.0,0.0,0.0,0.0,0.0,1.0,1.0,2.0,0.0,1.0,0.0,0.0,9.0,0.9162907318741552,0.0,24.0,23.0,0.0,0.0,0.0,21.0,40.0,-0.830735930735931,25.0,1.0,0.0,0.0,0.0,0.0,0.0,0.0,0.0,0.0,1.0,0.0,0.0,0.0,0.0,0.0,0.0,0.0,0.0,0.0,0.0,1.0,0.0,1.0,2.0,0.0,0.0,1.0,0.0,0.0,0.0,0.0,4.0,0.0,3.0,0.0,0.0,1.0,0.0,2.0,0.0,1.0,0.0,2.0,1.0,10.0,5.0,21.0,23.0,0.0,3.0,25.0,15.0,0.0,39.0,-0.3136575588550416,26.0,18.0,0.0,31.0,28.0,10.0,0.0,1.0,1.0,0.0,0.0,0.1428571428571428,0.29004329004329,0.0519480519480519,0.1861471861471861,0.341991341991342,2.619001466086983,0.8320857006201178,0.5970482611874904,0.6623376623376623,0.329004329004329,9.518321990966797,10.0,0.316017316017316,1.2150075188151686,0.0588262921855504,0.0761081205353118,4.5187863419094905,14.99476850171978,0.4572043019671626,0.1947670319038649,0.0546487141443027,0.2232218376412016,-0.0921696592910811,-0.4078281774120422,0.1648762446493621,0.2183474312461857,-0.0981453969586226,-0.2198189215405385,0.1391721014148158,0.3079993279147719,QFNRMTVEYVYERMTGLRWKCKVILESEVIAEAVGVKKTVKYEAAGEAVKTLKKTQPTVINNLKKGAVEDVISRNEIQGRSAEEAYKQQIKEDNIGNQLLRKMGWTGGGLGKSGEGIREPISVKEQHKREGLGLDVERVNKIAKRDIEQIIRNYARSESHTDLTFSRELTNDERKQIHQIAQKYGLKSKSHGVGHDRYLVVGRKRRKEDLLDQLKQEGQVGHYELVMPQAN,nucleolus,NKRF_HUMAN
ZN185_HUMAN_nonidr_0,0.0,0.1428571428571428,0.0571428571428571,0.0714285714285714,0.0428571428571428,0.0857142857142857,0.0571428571428571,0.1142857142857142,0.0714285714285714,0.0714285714285714,0.0142857142857142,0.0142857142857142,0.0285714285714285,0.0142857142857142,0.0571428571428571,0.0285714285714285,0.0714285714285714,0.0,0.0,0.0571428571428571,0.0,0.0,0.0,0.0,0.0,0.0,0.0,1.0,0.0,1.0,0.0,0.0,0.0,0.0,4.0,0.1823215567939546,0.0,5.0,9.0,0.0,0.0,0.0,6.0,7.0,-0.2057142857142858,5.0,0.0,0.0,0.0,0.0,0.0,0.0,0.0,0.0,0.0,0.0,0.0,0.0,0.0,0.0,0.0,0.0,0.0,1.0,0.0,0.0,0.0,0.0,1.0,2.0,0.0,0.0,0.0,0.0,0.0,0.0,1.0,0.0,0.0,0.0,0.0,0.0,0.0,0.0,2.0,0.0,0.0,0.0,0.0,0.0,1.0,0.0,6.0,9.0,0.0,2.0,2.0,1.0,0.0,10.0,-0.1823215567939546,8.0,4.0,0.0,8.0,6.0,2.0,0.0,0.0,0.0,0.0,0.0,0.1285714285714285,0.2,0.1,0.1285714285714285,0.2857142857142857,2.3301505822154023,-2.88629803835566,-1.3111728900530228,0.5428571428571428,0.2571428571428571,7.013378143310547,0.0,0.4142857142857143,-0.2071269560664561,0.0680549307548288,0.0879874381260694,4.320743028953358,14.957056790548055,0.3212421464500642,0.2263138685728433,0.1036548147895413,0.2770429700447873,0.0482062451581852,-0.4057233714578542,0.1746471083812768,0.2218882092202803,-0.1019454663356163,-0.2661895096864372,0.17811415775989,0.1811794507538978,YSERTTGGICTYCNREIRDCPKITLEHLGICCHEYCFKCGICSKPMGDLLDQIFIHRDTIHCGKCYEKLF,cell_junction,ZN185_HUMAN
NPHP1_HUMAN_nonidr_0,0.0,0.0,0.0,0.1428571428571428,0.0,0.0,0.0,0.1428571428571428,0.2857142857142857,0.1428571428571428,0.0,0.0,0.1428571428571428,0.0,0.0,0.0,0.0,0.1428571428571428,0.0,0.0,0.0,0.0,0.0,0.0,0.0,0.0,0.0,0.0,0.0,0.0,0.0,0.0,0.0,0.0,0.0,0.6931471805599453,0.0,1.0,0.0,0.0,0.0,0.0,0.0,3.0,-0.057142857142857,2.0,0.0,0.0,0.0,0.0,0.0,0.0,0.0,0.0,0.0,0.0,0.0,0.0,0.0,0.0,0.0,0.0,0.0,0.0,0.0,0.0,0.0,0.0,0.0,0.0,0.0,0.0,0.0,0.0,0.0,0.0,0.0,0.0,0.0,0.0,0.0,0.0,0.0,0.0,0.0,0.0,0.0,0.0,0.0,0.0,0.0,0.0,1.0,1.0,0.0,1.0,0.0,0.0,0.0,0.0,-1.0986122886681098,0.0,0.0,0.0,0.0,0.0,0.0,0.0,0.0,0.0,0.0,0.0,0.1428571428571428,0.4285714285714285,0.0,0.2857142857142857,0.5714285714285714,1.1188591686436384,-0.6531621379947709,-3.946411103103088,0.5714285714285714,0.4285714285714285,8.59109115600586,1.0,0.0,-0.2020305089104421,0.0336057877508815,0.0219054432610286,4.396202101896774,14.7626892100924,0.3747438518844677,0.3206461672445573,0.0765941095955366,0.2256310893160217,-0.0791759337315433,-0.5614359348271715,0.0843159730663875,0.1598091919661052,-0.1041389142072843,-0.1513414570260038,0.1435795566262911,0.2913734017686633,LVIEKKP,cell_junction,NPHP1_HUMAN
NPHP1_HUMAN_nonidr_1,0.0689655172413793,0.0689655172413793,0.0,0.0344827586206896,0.0689655172413793,0.0344827586206896,0.0344827586206896,0.1034482758620689,0.0344827586206896,0.1034482758620689,0.0689655172413793,0.0689655172413793,0.0,0.0344827586206896,0.0689655172413793,0.0689655172413793,0.0,0.1034482758620689,0.0,0.0344827586206896,0.0,0.0,0.0,0.0,0.0,0.0,0.0,0.0,0.0,0.0,0.0,0.0,0.0,0.0,0.0,0.6931471805599453,0.0,1.0,3.0,0.0,0.0,0.0,1.0,3.0,0.7620689655172413,1.0,0.0,0.0,0.0,0.0,0.0,0.0,0.0,0.0,0.0,1.0,0.0,0.0,0.0,0.0,0.0,0.0,0.0,0.0,0.0,0.0,0.0,1.0,0.0,1.0,0.0,0.0,0.0,0.0,0.0,0.0,0.0,0.0,0.0,0.0,0.0,0.0,0.0,0.0,0.0,0.0,0.0,0.0,0.0,0.0,2.0,0.0,2.0,2.0,0.0,0.0,3.0,1.0,0.0,3.0,0.4054651081081644,3.0,2.0,0.0,3.0,4.0,2.0,0.0,1.0,0.0,0.0,0.0,0.0344827586206896,0.4482758620689655,0.1034482758620689,0.1034482758620689,0.1379310344827586,2.104473458467732,-0.3299954344854448,-0.0956571623648675,0.3793103448275862,0.1379310344827586,8.903514862060547,2.0,0.3103448275862069,0.0086089947141112,0.0610122593566042,0.0897101532100367,3.617917542444357,15.913249729475556,0.422955792909725,0.3094753509111022,0.0364891496380999,0.159504949390447,0.0692270193544358,-0.4174304419488511,0.1395548360781223,0.1993985694586329,-0.1054211614690018,-0.333493970260777,0.1390808569290334,0.3073119654984078,QKAISEAGIFCLVNHVSFCYLIVLMRNRM,cell_junction,NPHP1_HUMAN
NPHP1_HUMAN_nonidr_2,0.0393700787401574,0.0157480314960629,0.0314960629921259,0.0314960629921259,0.0472440944881889,0.0551181102362204,0.0157480314960629,0.0708661417322834,0.0236220472440944,0.1417322834645669,0.0393700787401574,0.0472440944881889,0.0629921259842519,0.0551181102362204,0.0787401574803149,0.0944881889763779,0.0629921259842519,0.0629921259842519,0.0157480314960629,0.0078740157480314,0.0,0.0,0.0,0.0,0.0,0.0,0.0,1.0,1.0,1.0,1.0,1.0,1.0,0.0,4.0,0.0,0.0,4.0,13.0,0.0,0.0,2.0,7.0,16.0,0.0968503937007872,3.0,2.0,0.0,0.0,0.0,0.0,0.0,0.0,0.0,1.0,0.0,0.0,0.0,0.0,0.0,0.0,0.0,0.0,0.0,0.0,0.0,0.0,0.0,0.0,1.0,0.0,2.0,2.0,0.0,0.0,0.0,2.0,0.0,0.0,2.0,0.0,0.0,2.0,0.0,2.0,0.0,0.0,0.0,0.0,0.0,6.0,0.0,18.0,28.0,0.0,8.0,13.0,7.0,0.0,17.0,1.01160091167848,11.0,10.0,0.0,19.0,22.0,12.0,0.0,2.0,0.0,0.0,0.0,0.0629921259842519,0.3543307086614173,0.0708661417322834,0.1023622047244094,0.2283464566929134,2.5625167122432395,0.18750444677387,-0.4438975573715132,0.5511811023622047,0.1653543307086614,10.02957534790039,5.0,0.3464566929133858,0.2960523370861178,0.059310764217766,0.0811305434305778,4.344148946272649,15.09839461652097,0.3736438273192776,0.2133677053728912,0.0781071315608645,0.2522182187399509,0.0709791752026668,-0.3789236693691104,0.178277939240158,0.2298088387708694,-0.1048787507294851,-0.2702288299271076,0.1503664406604256,0.2316062179302309,NVQSRGRIFLVSKPVLQINTVDVLTTMGAIPAGFRPSTLSQLLEEGNQFRANYFLQPELMPSQLAFRDLMWDATEGTIRSRPSRISLILTLWSCKMIPLPGMSIQVLSRHVRLCLFDGNKVLSNIHT,cell_junction,NPHP1_HUMAN
NPHP1_HUMAN_nonidr_3,0.0,0.0,0.0,0.0,0.0,0.0,0.0,0.0,0.0,0.0,0.0,0.0,0.25,0.25,0.0,0.0,0.25,0.0,0.25,0.0,0.0,0.0,0.0,0.0,0.0,0.0,0.0,0.0,0.0,0.0,0.0,0.0,0.0,0.0,0.0,0.0,0.0,0.0,0.0,0.0,0.0,0.0,0.0,1.0,-1.675,0.0,0.0,0.0,0.0,0.0,0.0,0.0,0.0,0.0,0.0,0.0,0.0,0.0,0.0,0.0,0.0,0.0,0.0,0.0,0.0,0.0,0.0,0.0,0.0,0.0,0.0,0.0,0.0,0.0,0.0,0.0,0.0,0.0,0.0,0.0,0.0,0.0,0.0,0.0,0.0,0.0,0.0,0.0,0.0,0.0,0.0,0.0,1.0,2.0,0.0,1.0,1.0,1.0,0.0,0.0,0.0,0.0,0.0,0.0,0.0,0.0,0.0,0.0,0.0,0.0,0.0,0.0,0.0,0.0,0.25,0.0,0.25,0.7945134575869862,,,0.75,0.0,5.525012969970703,0.0,0.5,0.0,0.2637571664985568,0.2690973814171,5.767140134877623,18.686071655426865,0.2675054905716967,0.2306378738184386,0.1605601791278309,0.3341782780527941,-0.0187978200597341,-0.3114684848701198,0.1884693388641301,0.4073897833406625,-0.781712962962963,-1.1557870370370371,0.2077766968902618,0.1474248061209587,TWQP,cell_junction,NPHP1_HUMAN
NPHP1_HUMAN_nonidr_4,0.0352941176470588,0.0352941176470588,0.0470588235294117,0.0588235294117647,0.0705882352941176,0.1058823529411764,0.0,0.0705882352941176,0.0352941176470588,0.1294117647058823,0.0,0.0352941176470588,0.0705882352941176,0.0117647058823529,0.0470588235294117,0.0941176470588235,0.0588235294117647,0.0352941176470588,0.0235294117647058,0.0352941176470588,0.0,0.0,0.0,0.0,0.0,1.0,0.0,0.0,0.0,0.0,0.0,1.0,0.0,3.0,4.0,0.1823215567939546,0.0,5.0,15.0,0.0,0.0,2.0,9.0,12.0,0.0835294117647057,3.0,1.0,0.0,0.0,0.0,0.0,0.0,0.0,0.0,0.0,1.0,0.0,0.0,0.0,0.0,0.0,0.0,0.0,0.0,0.0,0.0,0.0,0.0,1.0,1.0,0.0,0.0,0.0,0.0,0.0,1.0,0.0,2.0,0.0,2.0,1.0,0.0,0.0,0.0,1.0,0.0,0.0,3.0,0.0,0.0,3.0,0.0,10.0,19.0,2.0,6.0,4.0,1.0,0.0,13.0,0.2231435513142097,7.0,4.0,0.0,17.0,12.0,8.0,0.0,0.0,0.0,0.0,0.0,0.1058823529411764,0.2705882352941176,0.1294117647058823,0.0823529411764705,0.2588235294117647,2.444062521692252,-2.2675393039006257,-0.5521865385890341,0.5647058823529412,0.188235294117647,4.854610443115234,-2.0,0.3411764705882353,-0.0915565992052113,0.0638264487184246,0.1000407205675308,4.372018521603226,14.83013448637722,0.2753176598642427,0.2491330629444399,0.100245731969773,0.2973897262879135,0.1191340756428828,-0.3915402367581269,0.1855132992721612,0.2169605283806665,-0.1453148594038011,-0.3438743236106329,0.1853930129936023,0.1508959009756205,WTFSPQVTRILPCLLDGDCFIRSNSASPDLGILFELGISYIRNSTGERGELSCGWVFLKLFDASGVPIPAKTYELFLNGGTPYEK,cell_junction,NPHP1_HUMAN
NPHP1_HUMAN_nonidr_5,0.0303030303030303,0.0101010101010101,0.0505050505050505,0.0202020202020202,0.0303030303030303,0.0303030303030303,0.0303030303030303,0.0707070707070707,0.0202020202020202,0.1818181818181818,0.0707070707070707,0.0303030303030303,0.0505050505050505,0.0606060606060606,0.101010101010101,0.101010101010101,0.0404040404040404,0.0505050505050505,0.0,0.0202020202020202,1.0,0.0,0.0,0.0,0.0,0.0,0.0,1.0,0.0,2.0,0.0,1.0,0.0,0.0,5.0,-0.6931471805599453,0.0,2.0,6.0,0.0,0.0,0.0,3.0,10.0,0.0959595959595958,2.0,2.0,0.0,0.0,0.0,0.0,0.0,0.0,0.0,0.0,1.0,0.0,0.0,0.0,0.0,0.0,0.0,0.0,0.0,1.0,0.0,0.0,0.0,0.0,0.0,0.0,0.0,0.0,0.0,0.0,0.0,1.0,0.0,0.0,1.0,0.0,0.0,0.0,0.0,2.0,0.0,0.0,0.0,0.0,0.0,3.0,0.0,15.0,19.0,0.0,5.0,9.0,6.0,0.0,13.0,1.2992829841302609,12.0,10.0,0.0,13.0,20.0,10.0,0.0,2.0,2.0,1.0,0.0,0.0707070707070707,0.404040404040404,0.0505050505050505,0.1212121212121212,0.2424242424242424,2.42749083974481,0.6453964343411112,-0.0052714631434147,0.5353535353535354,0.1919191919191919,10.373722076416016,5.0,0.303030303030303,-1.3644396135409995,0.0513449175769557,0.0734280536952315,4.198923237019767,15.384552229080963,0.4724102133045016,0.1610203605144721,0.0547902626348999,0.2248666527526381,-0.0318666960523311,-0.3511847884872129,0.18127531383786,0.2175641462060868,-0.0826351273030688,-0.2185351625514873,0.1196571601875249,0.3026831696807508,SISRRAHGSVFYQIMTMRRQPQLLVKLRSLNRRSRNVLSLLPETLIGNMCSIHLLIFYRQILGDVLLKDRMSLQSTDLISHPMLATFPMLLEQPDVMDA,cell_junction,NPHP1_HUMAN
NPHP1_HUMAN_nonidr_6,0.0,0.0357142857142857,0.0714285714285714,0.0357142857142857,0.0714285714285714,0.0,0.0714285714285714,0.0,0.0714285714285714,0.25,0.0,0.0,0.1071428571428571,0.0,0.0357142857142857,0.0714285714285714,0.0714285714285714,0.0714285714285714,0.0,0.0357142857142857,0.0,0.0,0.0,0.0,0.0,0.0,0.0,0.0,0.0,0.0,0.0,0.0,0.0,0.0,2.0,-0.4054651081081644,0.0,1.0,2.0,0.0,0.0,0.0,0.0,5.0,0.1714285714285713,2.0,0.0,0.0,0.0,0.0,0.0,0.0,0.0,0.0,0.0,1.0,0.0,0.0,0.0,0.0,0.0,0.0,0.0,0.0,0.0,0.0,0.0,0.0,0.0,0.0,0.0,0.0,0.0,0.0,0.0,0.0,0.0,0.0,0.0,0.0,0.0,0.0,0.0,0.0,0.0,0.0,0.0,0.0,0.0,0.0,0.0,0.0,4.0,7.0,0.0,3.0,0.0,0.0,0.0,1.0,-0.4054651081081644,2.0,1.0,0.0,2.0,3.0,2.0,0.0,0.0,0.0,0.0,0.0,0.1071428571428571,0.3214285714285714,0.1071428571428571,0.1071428571428571,0.3214285714285714,1.882885430106016,-1.7985220188627409,-1.6195058126612294,0.5357142857142857,0.2142857142857142,6.912281036376953,0.0,0.25,-0.1982371405340228,0.0588959114166559,0.076631188016165,4.264421907134623,15.62619182056608,0.4016625128534479,0.2232050911354112,0.0710576603908944,0.2150150266013289,0.0248815264615468,-0.3750827910786268,0.1651788902928559,0.1919341630059426,-0.1098842978783174,-0.3237591793952526,0.1434406694272361,0.264530974291975,DKEFLKSTFLLVYHDCVLPLLHSTRLPP,cell_junction,NPHP1_HUMAN
NPHP1_HUMAN_nonidr_7,0.125,0.0,0.0,0.375,0.0,0.0,0.0,0.0,0.0,0.0,0.0,0.0,0.0,0.0,0.125,0.0,0.25,0.0,0.125,0.0,0.0,0.0,0.0,0.0,0.0,0.0,0.0,0.0,0.0,0.0,0.0,0.0,0.0,0.0,0.0,1.3862943611198906,0.0,3.0,0.0,0.0,0.0,0.0,0.0,1.0,-1.9375,0.0,0.0,0.0,0.0,0.0,0.0,0.0,0.0,0.0,0.0,0.0,0.0,0.0,0.0,0.0,0.0,0.0,0.0,0.0,0.0,0.0,0.0,0.0,0.0,0.0,0.0,0.0,0.0,0.0,0.0,0.0,0.0,0.0,0.0,0.0,0.0,0.0,0.0,0.0,0.0,0.0,0.0,0.0,0.0,0.0,0.0,0.0,1.0,2.0,0.0,0.0,0.0,0.0,0.0,1.0,0.6931471805599453,1.0,1.0,0.0,0.0,1.0,0.0,0.0,0.0,0.0,0.0,0.0,0.375,0.125,0.125,0.125,0.5,1.014962031619656,-0.4315858762428876,-2.5144742283748487,0.875,0.5,4.252620697021484,-2.0,0.25,-0.283918019738734,0.0703267362411805,0.0716006768447178,5.0221480123565545,15.319764812645984,0.601185546935597,0.118180508060464,0.0703861463277356,0.2070714366565522,-0.1627027208224779,-0.4579878767836348,0.3019818193065184,0.2455240219317234,-0.059299855204161,-0.0986081351859426,0.1154724389147652,0.3611395230609164,EETETARW,cell_junction,NPHP1_HUMAN
NPHP1_HUMAN_nonidr_8,0.0,0.0,0.0,0.2,0.0,0.0,0.0,0.0,0.2,0.0,0.0,0.2,0.0,0.4,0.0,0.0,0.0,0.0,0.0,0.0,0.0,0.0,0.0,0.0,0.0,0.0,0.0,0.0,0.0,0.0,0.0,0.0,0.0,0.0,0.0,0.6931471805599453,0.0,1.0,0.0,0.0,0.0,0.0,0.0,1.0,-3.58,1.0,0.0,0.0,0.0,0.0,0.0,0.0,0.0,0.0,0.0,0.0,0.0,0.0,0.0,0.0,0.0,0.0,0.0,0.0,0.0,0.0,0.0,0.0,0.0,0.0,0.0,0.0,0.0,0.0,0.0,0.0,0.0,0.0,0.0,0.0,0.0,0.0,0.0,0.0,0.0,0.0,0.0,0.0,0.0,0.0,1.0,0.0,0.0,0.0,0.0,0.0,3.0,2.0,0.0,0.0,-0.6931471805599453,0.0,0.0,0.0,0.0,0.0,0.0,0.0,0.0,0.0,0.0,0.0,0.2,0.0,0.0,0.2,0.4,0.8188689124444203,-1.3082054216284793,-2.229842903820651,0.8,0.4,6.001392364501953,0.0,0.6,-0.4,0.1219899960788102,0.1112844182318414,5.4910736529194,14.856460812230267,0.4075217350728064,0.0799289122718714,0.087826781181394,0.2815953206618461,-0.0142864859204211,-0.2193228706235985,0.2903721879675888,0.3688965367609353,-0.077407728934423,-0.0966750664554138,0.1280896168652531,0.279545910912012,KQNQE,cell_junction,NPHP1_HUMAN
NPHP1_HUMAN_nonidr_9,0.0909090909090909,0.0,0.0909090909090909,0.0909090909090909,0.0909090909090909,0.0909090909090909,0.0,0.0,0.0909090909090909,0.0909090909090909,0.0909090909090909,0.0909090909090909,0.0,0.0,0.0909090909090909,0.0,0.0,0.0909090909090909,0.0,0.0,0.0,0.0,0.0,0.0,0.0,0.0,0.0,0.0,0.0,0.0,0.0,0.0,0.0,0.0,1.0,0.0,0.0,1.0,2.0,0.0,0.0,0.0,1.0,2.0,-0.4363636363636363,1.0,0.0,0.0,0.0,0.0,0.0,0.0,0.0,0.0,0.0,0.0,0.0,0.0,0.0,0.0,0.0,0.0,0.0,0.0,0.0,0.0,0.0,0.0,0.0,0.0,0.0,0.0,0.0,0.0,0.0,0.0,0.0,0.0,0.0,0.0,0.0,0.0,0.0,0.0,0.0,0.0,0.0,0.0,0.0,0.0,1.0,0.0,1.0,0.0,0.0,0.0,1.0,0.0,0.0,2.0,0.0,1.0,1.0,0.0,1.0,1.0,0.0,0.0,0.0,0.0,0.0,0.0,0.1818181818181818,0.3636363636363636,0.0909090909090909,0.1818181818181818,0.3636363636363636,1.5911188950794442,0.2098623902178005,-0.9527640045752296,0.5454545454545454,0.3636363636363636,6.069698333740234,0.0,0.1818181818181818,-0.4765004930717946,0.0638862187321027,0.0926939766806428,4.433998085278664,14.838755435448446,0.5197689787176608,0.132238367496745,0.0602882953476444,0.2171691691359801,-0.2075626489563979,-0.3704741217524531,0.119289701435781,0.2233253751276315,-0.1382739128623765,-0.317334206913796,0.1143459910344923,0.336870233289493,DFLGEMRKNAV,cell_junction,NPHP1_HUMAN
MSH4_HUMAN_nonidr_0,0.1363636363636363,0.0,0.0,0.0909090909090909,0.0,0.1363636363636363,0.0454545454545454,0.0909090909090909,0.0,0.0454545454545454,0.0,0.0,0.0454545454545454,0.0,0.0909090909090909,0.1363636363636363,0.0,0.1818181818181818,0.0,0.0,0.0,0.0,0.0,0.0,0.0,0.0,0.0,0.0,0.0,0.0,0.0,0.0,0.0,1.0,0.0,1.0986122886681098,0.0,2.0,3.0,0.0,0.0,4.0,3.0,4.0,0.4818181818181818,0.0,0.0,0.0,0.0,0.0,0.0,0.0,0.0,0.0,0.0,0.0,0.0,0.0,0.0,0.0,0.0,0.0,0.0,0.0,0.0,0.0,0.0,0.0,0.0,0.0,0.0,0.0,1.0,0.0,0.0,0.0,1.0,0.0,0.0,0.0,0.0,0.0,0.0,0.0,0.0,0.0,0.0,1.0,0.0,0.0,0.0,0.0,3.0,4.0,0.0,1.0,0.0,0.0,0.0,5.0,1.0986122886681098,2.0,2.0,0.0,6.0,5.0,3.0,0.0,0.0,0.0,0.0,0.0,0.0909090909090909,0.4545454545454545,0.0,0.0909090909090909,0.2272727272727272,1.7199276169146942,-0.2866679475882411,-0.6230890788981107,0.6818181818181818,0.1818181818181818,6.757884979248047,0.0,0.3181818181818182,-0.1317717947984707,0.0435788216387701,0.0775585467869346,3.9783413587295415,14.219498106712969,0.2914420204782906,0.3027142108036956,0.064427313346852,0.2516576425960067,0.1443816620686526,-0.4351261303685955,0.1167299670298566,0.1888556202564513,-0.0380260670407707,-0.1313258518953834,0.1785977218498406,0.2015897458985919,ISAHSPSVIVAVVEGRGLARGE,chromosomes,MSH4_HUMAN
MSH4_HUMAN_nonidr_1,0.0738636363636363,0.0227272727272727,0.0227272727272727,0.0568181818181818,0.0511363636363636,0.034090909090909,0.0056818181818181,0.0852272727272727,0.0738636363636363,0.1079545454545454,0.0170454545454545,0.0852272727272727,0.0227272727272727,0.0568181818181818,0.0170454545454545,0.0795454545454545,0.0852272727272727,0.0511363636363636,0.0,0.0511363636363636,0.0,0.0,0.0,0.0,0.0,1.0,0.0,1.0,0.0,1.0,3.0,1.0,0.0,2.0,4.0,0.7884573603642703,0.0,10.0,15.0,0.0,0.0,2.0,6.0,30.0,-0.0244318181818181,13.0,1.0,0.0,0.0,0.0,0.0,0.0,0.0,0.0,0.0,4.0,0.0,0.0,0.0,0.0,0.0,3.0,2.0,0.0,1.0,1.0,0.0,0.0,1.0,5.0,0.0,1.0,0.0,0.0,0.0,0.0,1.0,1.0,0.0,2.0,6.0,0.0,1.0,0.0,0.0,0.0,5.0,2.0,0.0,1.0,15.0,0.0,7.0,33.0,0.0,4.0,25.0,10.0,0.0,9.0,-1.252762968495368,12.0,3.0,0.0,20.0,17.0,14.0,0.0,0.0,1.0,0.0,0.0,0.0795454545454545,0.3352272727272727,0.1022727272727272,0.0909090909090909,0.1931818181818181,2.5901440379895693,-1.645014058691378,-1.220581020296574,0.5284090909090909,0.1704545454545454,8.318241119384766,2.0,0.3693181818181818,-0.2456257406759286,0.0570542200496669,0.0746640861356697,4.321286730056099,15.27728061728812,0.4362502600044367,0.2056526252420804,0.0595687782881636,0.2318380195303609,0.011109018783083,-0.3333827986502201,0.2053315196858555,0.1993656167780435,-0.1439214869785443,-0.280030829355693,0.1364110655447134,0.2932120495034944,ASIDLKNPQIILSQFADNTTYAKVITKLKILSPLEIIMSNTACAVGNSTKLFTLITENFKNVNFTTIQRKYFNETKGLEYIEQLCIAEFSTVLMEVQSKYYCLAAVAALLKYVEFIQNSVYAPKSLKICFQGSEQTAMIDSSSAQNLELLINNQDYRNNHTLFGVLNYTKTPGGSR,chromosomes,MSH4_HUMAN
MSH4_HUMAN_nonidr_2,0.0531914893617021,0.026595744680851,0.0585106382978723,0.0638297872340425,0.0398936170212766,0.0319148936170212,0.0159574468085106,0.101063829787234,0.0611702127659574,0.1117021276595744,0.0345744680851063,0.0425531914893617,0.0319148936170212,0.0425531914893617,0.0425531914893617,0.0851063829787234,0.0664893617021276,0.0425531914893617,0.0026595744680851,0.0452127659574468,0.0,0.0,0.0,0.0,0.0,0.0,0.0,0.0,0.0,1.0,0.0,4.0,0.0,1.0,22.0,0.083381608939051,0.0,24.0,27.0,0.0,0.0,6.0,12.0,55.0,-0.0492021276595745,23.0,2.0,0.0,1.0,0.0,0.0,0.0,0.0,0.0,0.0,6.0,0.0,1.0,0.0,0.0,0.0,2.0,2.0,0.0,2.0,0.0,0.0,2.0,1.0,6.0,0.0,1.0,2.0,0.0,0.0,1.0,5.0,2.0,0.0,5.0,2.0,0.0,2.0,0.0,3.0,0.0,2.0,1.0,0.0,2.0,16.0,0.0,28.0,69.0,0.0,12.0,32.0,16.0,0.0,28.0,-0.3448404862917295,33.0,16.0,6.0,44.0,48.0,32.0,0.0,0.0,1.0,0.0,0.0,0.1223404255319148,0.3430851063829787,0.0877659574468085,0.1037234042553191,0.2579787234042553,2.7436371896037235,-0.2045820244266164,0.685720973072254,0.5531914893617021,0.226063829787234,5.526561737060547,-7.0,0.3111702127659574,-0.0495995414522873,0.0556238294817654,0.0728077844755728,4.292924715294547,15.3513177953457,0.4726207532341793,0.1756573036901925,0.0568690394160187,0.2231713350187243,-0.0316774223484322,-0.350999951523534,0.1936549950462645,0.2013470313574429,-0.1200098701394641,-0.2761429169296506,0.1283337250454642,0.3084402471322699,SNILEPLVDIETINMRLDCVQELLQDEELFFGLQSVISRFLDTEQLLSVLVQIPKQDTVNAAESKITNLIYLKHTLELVDPLKIAMKNCNTPLLRAYYGSLEDKRFGIILEKIKTVINDDARYMKGCLNMRTQKCYAVRSNINEFLDIARRTYTEIVDDIAGMISQLGEKYSLPLRTSFSSARGFFIQMTTDCIALPSDQLPSEFIKISKVKNSYSFTSADLIKMNERCQESLREIYHMTYMIVCKLLSEIYEHIHCLYKLSDTVSMLDMLLSFAHACTLSDYVRPEFTDTLAIKQGWHPILEKISAEKPIANNTYVTEGSNFLIITGPNMSGKSTYLKQIALCQIMAQIGSYVPAEYSSFRIAKQIFTRISTDDD,chromosomes,MSH4_HUMAN
MSH4_HUMAN_nonidr_3,0.0909090909090909,0.0,0.0454545454545454,0.0909090909090909,0.0454545454545454,0.0,0.0454545454545454,0.1363636363636363,0.1363636363636363,0.1363636363636363,0.0909090909090909,0.0909090909090909,0.0,0.0,0.0,0.0454545454545454,0.0,0.0,0.0,0.0454545454545454,0.0,0.0,0.0,0.0,0.0,0.0,0.0,0.0,0.0,0.0,0.0,0.0,0.0,0.0,1.0,0.4054651081081644,0.0,2.0,1.0,0.0,0.0,0.0,0.0,5.0,0.0272727272727272,3.0,0.0,0.0,0.0,0.0,0.0,0.0,0.0,0.0,0.0,0.0,0.0,0.0,0.0,0.0,0.0,0.0,0.0,0.0,0.0,0.0,0.0,0.0,0.0,1.0,0.0,0.0,0.0,0.0,0.0,0.0,0.0,0.0,0.0,0.0,0.0,0.0,0.0,0.0,0.0,0.0,1.0,0.0,0.0,0.0,2.0,0.0,0.0,1.0,0.0,0.0,2.0,0.0,0.0,0.0,-1.3862943611198906,1.0,0.0,0.0,1.0,1.0,1.0,0.0,0.0,0.0,0.0,0.0,0.1363636363636363,0.4545454545454545,0.0909090909090909,0.1363636363636363,0.2727272727272727,1.8328779191777853,-1.9927921546841176,-0.7902014380858016,0.4545454545454545,0.2727272727272727,6.757404327392578,0.0,0.1818181818181818,-0.1346255638416583,0.0491339850693442,0.0594684773106143,4.095996103144268,15.367388319064704,0.5547909356978421,0.1760187123953487,0.0467020042262055,0.1764717194323172,-0.1782127035197695,-0.3464368882126099,0.1861441803309096,0.1821625461593458,-0.0675209670506864,-0.2103905536038628,0.0950581978188357,0.423495372135627,FMKEMKEIAYILHNANDKSLIL,chromosomes,MSH4_HUMAN
MSH4_HUMAN_nonidr_4,0.0816326530612244,0.0612244897959183,0.0204081632653061,0.1020408163265306,0.0612244897959183,0.0816326530612244,0.0408163265306122,0.0612244897959183,0.0204081632653061,0.1428571428571428,0.0204081632653061,0.0612244897959183,0.0204081632653061,0.0,0.0204081632653061,0.0204081632653061,0.0816326530612244,0.0408163265306122,0.0,0.0612244897959183,0.0,0.0,0.0,0.0,0.0,0.0,0.0,0.0,0.0,0.0,0.0,0.0,0.0,0.0,1.0,1.0986122886681098,0.0,5.0,7.0,0.0,0.0,2.0,4.0,6.0,0.3367346938775509,1.0,1.0,0.0,0.0,0.0,0.0,0.0,0.0,0.0,0.0,1.0,0.0,0.0,0.0,0.0,0.0,0.0,0.0,0.0,0.0,0.0,0.0,0.0,0.0,1.0,0.0,0.0,0.0,0.0,0.0,0.0,0.0,1.0,0.0,1.0,0.0,0.0,0.0,0.0,1.0,0.0,0.0,0.0,0.0,0.0,3.0,0.0,2.0,6.0,0.0,1.0,3.0,0.0,0.0,5.0,0.0,4.0,1.0,0.0,5.0,2.0,1.0,0.0,0.0,0.0,0.0,0.0,0.1224489795918367,0.3469387755102041,0.1224489795918367,0.0408163265306122,0.1836734693877551,2.2729354621263966,-0.6956641032680927,-0.5113203782574036,0.4897959183673469,0.1632653061224489,4.684352874755859,-4.0,0.3469387755102041,0.3915257261605718,0.0546170598034633,0.0897248290507501,4.083612901848209,15.622654566577472,0.4713062575383511,0.1806035106199726,0.0576466287778392,0.2147464195894306,-0.0156575759134574,-0.3313729674775769,0.1898603500042525,0.1909579170345297,-0.1375967529747065,-0.3080691714497141,0.1314415300292567,0.3382653947429445,GRGTNTEEGIGICYAVCEYLLSLKAFTLFATHFLELCHIDALYPNVENM,chromosomes,MSH4_HUMAN
MSH4_HUMAN_nonidr_5,0.0476190476190476,0.0,0.0,0.1428571428571428,0.0,0.0476190476190476,0.0,0.0476190476190476,0.1428571428571428,0.1428571428571428,0.0,0.0476190476190476,0.0,0.0,0.0476190476190476,0.0952380952380952,0.1428571428571428,0.0,0.0,0.0952380952380952,0.0,0.0,0.0,0.0,0.0,0.0,0.0,0.0,0.0,0.0,0.0,0.0,0.0,0.0,0.0,1.3862943611198906,0.0,3.0,1.0,0.0,0.0,0.0,1.0,4.0,-0.9142857142857144,3.0,0.0,0.0,0.0,0.0,0.0,0.0,0.0,0.0,0.0,0.0,0.0,0.0,0.0,0.0,0.0,0.0,0.0,0.0,0.0,0.0,0.0,0.0,1.0,1.0,0.0,0.0,0.0,0.0,0.0,0.0,0.0,0.0,0.0,1.0,0.0,0.0,0.0,0.0,0.0,0.0,0.0,0.0,0.0,0.0,1.0,0.0,1.0,5.0,0.0,0.0,1.0,0.0,0.0,2.0,-0.6931471805599453,3.0,1.0,0.0,3.0,3.0,2.0,0.0,0.0,0.0,0.0,0.0,0.1428571428571428,0.238095238095238,0.0952380952380952,0.1904761904761904,0.3333333333333333,1.7536574600211807,-0.0769385462647023,-1.2051359848766794,0.6666666666666666,0.3333333333333333,8.378963470458984,1.0,0.3333333333333333,-0.467393804638071,0.0487476213692403,0.0734448829398914,4.600775725648194,15.124005698391612,0.4511867009653776,0.180147249018651,0.0627122901595274,0.2311721478960964,-0.0617042570026138,-0.3996019238412844,0.207268397360531,0.2166848266897841,-0.1548510140227201,-0.3119522329522977,0.1223689860060575,0.3265531007744932,TSRNKEAILYTYKLSKGLTEE,chromosomes,MSH4_HUMAN
MSH4_HUMAN_nonidr_6,0.0,0.0,0.0,0.0,0.0,0.0,0.0,0.0,0.0,0.1428571428571428,0.0,0.0,0.2857142857142857,0.0,0.0,0.4285714285714285,0.0,0.1428571428571428,0.0,0.0,0.0,0.0,0.0,0.0,0.0,0.0,0.0,0.0,0.0,0.0,0.0,0.0,0.0,0.0,0.0,0.0,0.0,0.0,0.0,0.0,0.0,0.0,0.0,2.0,0.3428571428571428,0.0,0.0,0.0,0.0,0.0,0.0,0.0,0.0,0.0,0.0,0.0,0.0,0.0,0.0,0.0,0.0,0.0,0.0,0.0,0.0,0.0,0.0,0.0,0.0,0.0,0.0,0.0,0.0,0.0,0.0,0.0,0.0,0.0,0.0,0.0,0.0,0.0,0.0,0.0,0.0,0.0,0.0,0.0,0.0,0.0,0.0,0.0,2.0,5.0,0.0,2.0,0.0,0.0,0.0,0.0,0.0,0.0,0.0,0.0,3.0,3.0,3.0,0.0,0.0,0.0,0.0,0.0,0.0,0.2857142857142857,0.0,0.0,0.2857142857142857,0.8628935301824878,,-1.141630912416172,0.7142857142857143,0.0,5.525012969970703,0.0,0.4285714285714285,0.0,0.0467214299730091,0.0435694918375772,4.748666130314558,13.445997755051708,0.1862483569213837,0.1135364592407899,0.1820194684450087,0.4148473410317486,0.1013713814256584,-0.1994035888010043,0.1745775865550644,0.1717773247479801,-0.0697240086655586,-0.1822951880844393,0.1883276243792725,0.085889776006505,VSSLPPS,chromosomes,MSH4_HUMAN
MSH4_HUMAN_nonidr_7,0.04,0.0,0.04,0.1066666666666666,0.0133333333333333,0.0,0.0133333333333333,0.0533333333333333,0.08,0.0933333333333333,0.0133333333333333,0.04,0.0533333333333333,0.1066666666666666,0.1066666666666666,0.0533333333333333,0.1066666666666666,0.04,0.0,0.04,0.0,0.0,0.0,0.0,0.0,0.0,0.0,0.0,0.0,0.0,0.0,0.0,0.0,1.0,3.0,0.8109302162163288,0.0,8.0,1.0,0.0,0.0,0.0,0.0,13.0,-1.2186666666666668,6.0,1.0,0.0,0.0,0.0,0.0,0.0,0.0,0.0,0.0,0.0,0.0,0.0,0.0,0.0,0.0,0.0,0.0,0.0,0.0,0.0,0.0,0.0,0.0,1.0,0.0,0.0,0.0,0.0,0.0,0.0,0.0,1.0,0.0,2.0,0.0,0.0,2.0,0.0,1.0,0.0,0.0,1.0,0.0,0.0,3.0,0.0,12.0,16.0,0.0,4.0,11.0,8.0,0.0,8.0,0.2513144282809061,11.0,8.0,0.0,4.0,12.0,4.0,0.0,0.0,0.0,0.0,0.0,0.1466666666666666,0.24,0.0533333333333333,0.1866666666666666,0.3866666666666666,2.3449949225131004,-0.8098547552459702,-2.2973653562080023,0.7066666666666667,0.3333333333333333,9.45279312133789,3.0,0.32,-0.4316335407260118,0.0682931461220736,0.0709491630614143,4.724635507253575,15.453652465477305,0.5165472885221265,0.1319817511795391,0.0689476171480649,0.2235111371048921,-0.1935918943966272,-0.3372909003048385,0.2152779166375613,0.2242936830554608,-0.1229276862664238,-0.2266398815633914,0.1121832014808697,0.352381606225027,KEITTQITRQILQNQRSTPEMERQRAVYHLATRLVQTARNSQLDPDSLRIYLSNLKKKYKEDFPRTEQVPEKTEE,chromosomes,MSH4_HUMAN
RRP8_HUMAN_nonidr_0,0.0625,0.0,0.0,0.0625,0.125,0.0625,0.0625,0.0,0.0625,0.125,0.0,0.0,0.0625,0.125,0.0625,0.0625,0.0,0.0625,0.0,0.0625,0.0,0.0,0.0,0.0,0.0,0.0,0.0,0.0,0.0,0.0,0.0,0.0,0.0,0.0,0.0,0.6931471805599453,0.0,1.0,3.0,0.0,0.0,2.0,1.0,3.0,-0.4375000000000001,1.0,0.0,0.0,0.0,0.0,0.0,0.0,0.0,0.0,0.0,0.0,0.0,0.0,0.0,0.0,0.0,0.0,0.0,0.0,0.0,0.0,0.0,0.0,0.0,0.0,0.0,0.0,0.0,0.0,0.0,0.0,0.0,0.0,0.0,0.0,0.0,0.0,1.0,0.0,0.0,0.0,0.0,0.0,0.0,0.0,0.0,0.0,2.0,2.0,0.0,1.0,2.0,2.0,0.0,2.0,0.0,2.0,1.0,0.0,2.0,2.0,1.0,0.0,0.0,0.0,0.0,0.0,0.0625,0.25,0.1875,0.125,0.25,1.7870261602750523,-1.295762569345747,-2.410241973878692,0.625,0.1875,8.597286224365234,1.0,0.3125,-0.2338535866733713,0.1034684234468345,0.1315421263513045,4.43981048309097,15.894428449198198,0.4738602980362013,0.1971172623601937,0.0634579000439645,0.2124616791609177,-0.0020537542050882,-0.3336912753865527,0.173832515110886,0.2190770519685257,-0.2230600222219617,-0.4677517794772507,0.1338741001814651,0.3138483992064786,PEAFLLYHRGFQSQVK,nucleolus,RRP8_HUMAN
RRP8_HUMAN_nonidr_1,0.065359477124183,0.0392156862745098,0.0718954248366013,0.0392156862745098,0.0718954248366013,0.0588235294117647,0.0130718954248366,0.0196078431372549,0.0522875816993464,0.130718954248366,0.0130718954248366,0.0261437908496732,0.0588235294117647,0.0392156862745098,0.0784313725490196,0.0718954248366013,0.0392156862745098,0.1045751633986928,0.0,0.0065359477124183,0.0,0.0,0.0,0.0,0.0,0.0,1.0,0.0,0.0,2.0,1.0,1.0,0.0,0.0,11.0,-0.5389965007326869,0.0,6.0,20.0,0.0,0.0,2.0,9.0,27.0,0.0385620915032679,8.0,3.0,0.0,0.0,0.0,0.0,0.0,0.0,0.0,0.0,1.0,0.0,0.0,0.0,0.0,0.0,1.0,0.0,0.0,0.0,0.0,0.0,0.0,0.0,0.0,0.0,0.0,0.0,0.0,0.0,0.0,0.0,1.0,0.0,2.0,0.0,0.0,0.0,0.0,1.0,1.0,1.0,0.0,0.0,0.0,4.0,0.0,21.0,26.0,0.0,9.0,10.0,6.0,0.0,21.0,0.3677247801253173,13.0,12.0,0.0,20.0,23.0,11.0,0.0,1.0,1.0,0.0,0.0,0.1111111111111111,0.3333333333333333,0.0784313725490196,0.130718954248366,0.3006535947712418,2.552969324076076,0.6930797940019596,0.669671586968023,0.5882352941176471,0.2418300653594771,8.605670928955078,3.0,0.2875816993464052,-1.1630387344118454,0.0587580834249547,0.0792888146605514,4.357825118515543,14.936964916911592,0.3609452620448459,0.2189949259153586,0.0756977449566945,0.2608544215644269,0.0223107708692426,-0.3859886381801743,0.1853647999397664,0.2042701654559991,-0.1156050821329777,-0.2603575298866008,0.1580334273493883,0.2215056971609622,RQRPASLVVADFGCGDCRLASSIRNPVHCFDLASLDPRVTVCDMAQVPLEDESVDVAVFCLSLMGTNIRDFLEEANRVLKPGGLLKVAEVSSRFEDVRTFLRAVTKLGFKIVSKDLTNSHFFLFDFQKTGPPLVGPKAQLSGLQLQPCLYKRR,nucleolus,RRP8_HUMAN
U3IP2_HUMAN_nonidr_0,0.075,0.05,0.075,0.025,0.025,0.05,0.025,0.1,0.075,0.1,0.0,0.0,0.025,0.025,0.05,0.15,0.05,0.075,0.025,0.0,0.0,0.0,0.0,0.0,0.0,0.0,0.0,0.0,0.0,0.0,0.0,0.0,0.0,1.0,3.0,-0.6931471805599453,0.0,1.0,3.0,0.0,0.0,2.0,2.0,7.0,0.2024999999999999,3.0,0.0,0.0,0.0,0.0,0.0,0.0,0.0,0.0,0.0,0.0,0.0,0.0,0.0,0.0,0.0,0.0,0.0,0.0,0.0,0.0,0.0,0.0,0.0,0.0,0.0,0.0,0.0,0.0,0.0,0.0,1.0,0.0,0.0,1.0,0.0,0.0,0.0,0.0,0.0,0.0,2.0,1.0,0.0,0.0,0.0,0.0,3.0,9.0,0.0,1.0,1.0,1.0,0.0,4.0,-0.2876820724517809,2.0,2.0,0.0,8.0,8.0,6.0,0.0,0.0,0.0,0.0,0.0,0.1,0.35,0.05,0.125,0.25,2.1861413560724845,-0.887746158137991,-0.466021951661057,0.625,0.225,8.042987823486328,1.0,0.35,-0.3090521451040458,0.0466070040153258,0.0774751535460488,4.362419293796575,14.719435538985788,0.3449927959146235,0.272021359365281,0.0657778948874276,0.2530689372960181,0.0522373195019442,-0.430958459040979,0.2255217517317834,0.2102282543632808,-0.0963216838630117,-0.2397413598512125,0.1625481088116535,0.2112152196013919,LRGHQLSITCLVVTPDDSAIFSAAKDCSIIKWSVESGRKL,nucleolus,U3IP2_HUMAN
U3IP2_HUMAN_nonidr_1,0.0897435897435897,0.0256410256410256,0.0641025641025641,0.0512820512820512,0.0256410256410256,0.0897435897435897,0.0512820512820512,0.0448717948717948,0.0384615384615384,0.0961538461538461,0.0128205128205128,0.0192307692307692,0.0128205128205128,0.0384615384615384,0.0576923076923076,0.1025641025641025,0.0448717948717948,0.0769230769230769,0.0256410256410256,0.032051282051282,0.0,0.0,0.0,0.0,0.0,0.0,0.0,0.0,0.0,1.0,0.0,2.0,0.0,0.0,10.0,-0.2006706954621511,0.0,8.0,18.0,0.0,0.0,4.0,14.0,22.0,-0.2019230769230768,6.0,0.0,0.0,0.0,0.0,0.0,0.0,0.0,0.0,0.0,0.0,0.0,0.0,0.0,0.0,0.0,0.0,0.0,0.0,0.0,0.0,0.0,0.0,0.0,3.0,0.0,1.0,1.0,0.0,0.0,0.0,0.0,1.0,0.0,3.0,0.0,0.0,1.0,1.0,1.0,0.0,3.0,0.0,0.0,1.0,3.0,0.0,11.0,25.0,0.0,2.0,9.0,6.0,0.0,23.0,0.3566749439387324,14.0,9.0,0.0,30.0,25.0,16.0,0.0,1.0,3.0,0.0,0.0,0.1153846153846153,0.3205128205128205,0.0833333333333333,0.0961538461538461,0.2243589743589743,2.624725457916837,-0.5716767521913101,-1.570127368331172,0.6410256410256411,0.2115384615384615,6.233760833740234,-3.0,0.3717948717948718,-0.5006733873656167,0.0715669102309699,0.1047752690430616,4.488579377716426,14.974155482772115,0.3370194271541999,0.2639321333883532,0.0667543613895828,0.2654111296084345,0.0739985514902072,-0.4356393942496636,0.2141467848618093,0.2389747584209687,-0.1178635247563228,-0.2857479329955392,0.1689994140002078,0.2120165445573877,MAISSDGKYLASGDRSKLILIWEAQSCQHLYTFTGHRDAVSGLAFRRGTHQLYSTSHDRSVKVWNVAENSYVETLFGHQDAVAALDALSRECCVTAGGRDGTVRVWKIPEESQLVFYGHQGSIDCIHLINEEHMVSGADDGSVALWGLSKKRPLAL,nucleolus,U3IP2_HUMAN
U3IP2_HUMAN_nonidr_2,0.0654205607476635,0.0373831775700934,0.0373831775700934,0.0467289719626168,0.0467289719626168,0.102803738317757,0.0186915887850467,0.0560747663551401,0.0186915887850467,0.1214953271028037,0.0,0.02803738317757,0.0654205607476635,0.0373831775700934,0.0747663551401869,0.102803738317757,0.0186915887850467,0.0841121495327102,0.0373831775700934,0.0,0.0,0.0,0.0,0.0,0.0,0.0,0.0,0.0,0.0,1.0,0.0,2.0,0.0,0.0,4.0,0.1823215567939546,0.0,5.0,16.0,0.0,0.0,0.0,11.0,16.0,0.1420560747663551,2.0,1.0,0.0,0.0,0.0,0.0,0.0,0.0,0.0,0.0,0.0,0.0,0.0,0.0,0.0,0.0,0.0,0.0,0.0,0.0,0.0,0.0,0.0,0.0,0.0,0.0,0.0,0.0,0.0,0.0,0.0,1.0,0.0,0.0,2.0,0.0,0.0,0.0,0.0,1.0,0.0,0.0,0.0,0.0,0.0,3.0,0.0,15.0,20.0,0.0,7.0,7.0,4.0,0.0,19.0,1.0986122886681098,8.0,8.0,0.0,22.0,19.0,11.0,0.0,1.0,1.0,0.0,0.0,0.0841121495327102,0.3271028037383177,0.0841121495327102,0.0934579439252336,0.2429906542056074,2.4812862931970927,0.0287551814218359,-0.6971213565701291,0.5887850467289719,0.1775700934579439,7.900127410888672,1.0,0.3457943925233644,-1.0029098890194084,0.0665403581410127,0.0996575165500639,4.423437367144103,14.799470617473292,0.3236099185288175,0.2356240776033343,0.0845669793594581,0.2786879320972329,0.1116803462636467,-0.4083556504658007,0.1553771168245457,0.2322389762005541,-0.1336859663155873,-0.2938538184955568,0.1763176702164503,0.1881910578302805,GEPGLEQPFWISSVAALLNTDLVATGSHSSCVRLWQCGEGFRQLDLLCDIPLVGFINSLKFSSSGDFLVAGVGQEHRLGRWWRIKEARNSVCIIPLRRVPVPPAAGS,nucleolus,U3IP2_HUMAN
PGRP1_HUMAN_nonidr_0,0.1538461538461538,0.0,0.0384615384615384,0.0769230769230769,0.0,0.0384615384615384,0.0,0.0,0.0,0.2307692307692307,0.0769230769230769,0.0,0.0384615384615384,0.0384615384615384,0.1153846153846153,0.1153846153846153,0.0384615384615384,0.0,0.0384615384615384,0.0,0.0,0.0,0.0,0.0,0.0,0.0,0.0,0.0,0.0,0.0,0.0,0.0,0.0,0.0,1.0,0.4054651081081644,0.0,2.0,1.0,0.0,0.0,0.0,1.0,5.0,0.0115384615384614,0.0,1.0,0.0,0.0,0.0,0.0,0.0,0.0,0.0,0.0,0.0,0.0,0.0,0.0,0.0,0.0,0.0,0.0,0.0,0.0,0.0,0.0,0.0,0.0,0.0,0.0,0.0,0.0,0.0,0.0,0.0,1.0,0.0,0.0,0.0,0.0,0.0,0.0,0.0,1.0,0.0,0.0,0.0,0.0,0.0,0.0,0.0,4.0,5.0,0.0,1.0,1.0,1.0,0.0,4.0,1.3862943611198906,3.0,3.0,0.0,4.0,6.0,3.0,0.0,0.0,1.0,0.0,0.0,0.1153846153846153,0.4615384615384615,0.0384615384615384,0.1153846153846153,0.2692307692307692,1.7897916699641525,0.6850319641211279,-1.434179670061429,0.6538461538461539,0.2307692307692307,6.182811737060547,0.0,0.2307692307692307,-0.8990275950694284,0.0464136908914623,0.0808352322878629,4.201178967929834,15.237384760335267,0.5809257558476565,0.1027332397117779,0.051238676463421,0.1845192880311829,-0.141524576080492,-0.2963276729064433,0.1534543505915476,0.1942135059346179,-0.0742476509103722,-0.2301628583915556,0.0926972864280031,0.4302350540755973,MSRRSMLLAWALPSLLRLGAAQETED,stress_granule,PGRP1_HUMAN
PGRP1_HUMAN_nonidr_1,0.1176470588235294,0.0294117647058823,0.0,0.0588235294117647,0.0,0.0294117647058823,0.0588235294117647,0.0294117647058823,0.0294117647058823,0.1176470588235294,0.0,0.0294117647058823,0.0588235294117647,0.0294117647058823,0.0588235294117647,0.1470588235294117,0.0294117647058823,0.1176470588235294,0.0294117647058823,0.0294117647058823,0.0,0.0,0.0,0.0,0.0,0.0,0.0,0.0,0.0,0.0,0.0,0.0,0.0,0.0,0.0,1.0986122886681098,0.0,2.0,1.0,0.0,0.0,0.0,1.0,7.0,0.0705882352941175,1.0,0.0,0.0,0.0,0.0,0.0,0.0,0.0,0.0,0.0,0.0,0.0,0.0,0.0,0.0,0.0,0.0,0.0,0.0,0.0,0.0,0.0,0.0,0.0,1.0,0.0,0.0,0.0,0.0,0.0,0.0,0.0,0.0,0.0,1.0,0.0,0.0,0.0,0.0,0.0,0.0,0.0,0.0,0.0,0.0,1.0,0.0,4.0,8.0,0.0,2.0,2.0,1.0,0.0,3.0,0.4054651081081644,3.0,2.0,0.0,6.0,7.0,5.0,0.0,0.0,0.0,0.0,0.0,0.0588235294117647,0.3823529411764705,0.0588235294117647,0.088235294117647,0.2058823529411764,2.102546634886236,-1.4126178571128551,0.1712914106278469,0.6176470588235294,0.1470588235294117,8.215007781982422,1.0,0.3529411764705882,-0.0727130819770393,0.0531663661400023,0.0904085435686692,4.324122729412013,15.141270759461598,0.4162776706758276,0.2207082457570676,0.0616576830703553,0.2304397241433576,0.002026234178672,-0.367522989560743,0.1670698157264524,0.2166770834994756,-0.0912311029051297,-0.2532144797773378,0.1484578874337989,0.2931224619172786,IVPRNEWKALASECAQHLSLPLRYVVVSHTAGSS,stress_granule,PGRP1_HUMAN
PGRP1_HUMAN_nonidr_2,0.0804597701149425,0.0229885057471264,0.0344827586206896,0.0229885057471264,0.0344827586206896,0.1494252873563218,0.0459770114942528,0.0459770114942528,0.0114942528735632,0.0804597701149425,0.0459770114942528,0.057471264367816,0.0344827586206896,0.0459770114942528,0.0459770114942528,0.0459770114942528,0.0344827586206896,0.0689655172413793,0.0344827586206896,0.057471264367816,0.0,0.0,0.0,0.0,0.0,0.0,0.0,0.0,0.0,0.0,1.0,0.0,0.0,1.0,3.0,-0.2876820724517809,0.0,2.0,16.0,0.0,0.0,2.0,13.0,11.0,-0.0551724137931034,1.0,0.0,0.0,0.0,0.0,0.0,0.0,0.0,0.0,0.0,1.0,0.0,0.0,0.0,0.0,0.0,0.0,0.0,0.0,1.0,0.0,0.0,0.0,0.0,0.0,0.0,0.0,0.0,0.0,0.0,0.0,0.0,0.0,1.0,2.0,1.0,0.0,0.0,0.0,0.0,0.0,0.0,1.0,0.0,0.0,5.0,0.0,7.0,10.0,0.0,3.0,9.0,4.0,0.0,17.0,0.9162907318741552,9.0,4.0,0.0,17.0,8.0,4.0,0.0,0.0,0.0,0.0,0.0,0.057471264367816,0.3218390804597701,0.1264367816091954,0.057471264367816,0.1494252873563218,2.523180698890717,-0.2143924030174428,-0.1184787968462966,0.5517241379310345,0.1149425287356321,7.076290130615234,0.0,0.4022988505747126,-0.3596298814634189,0.0918997107802325,0.1362325713112087,4.4470441507194165,15.054391179644057,0.3073318951064121,0.2551487877370843,0.1066422098807039,0.2707958951457704,0.124414955086579,-0.4144501832538098,0.166161789376446,0.2609476390395231,-0.1669484917013785,-0.390221208292183,0.1874061985162886,0.1873625869401677,VQHYHMKTLGWCDVGYNFLIGEDGLVYEGRGWNFTGAHSGHLWNPMSIGISFMGNYMDRVPTPQAIRAAQGLLACGVAQGALRSNYV,stress_granule,PGRP1_HUMAN
PGRP1_HUMAN_nonidr_3,0.0,0.0,0.0,0.0,0.0,0.0526315789473684,0.1052631578947368,0.0526315789473684,0.0,0.1052631578947368,0.0,0.1052631578947368,0.1578947368421052,0.1052631578947368,0.0526315789473684,0.1052631578947368,0.0,0.0,0.0526315789473684,0.1052631578947368,0.0,0.0,0.0,0.0,0.0,0.0,0.0,0.0,0.0,0.0,0.0,0.0,0.0,0.0,0.0,0.0,0.0,0.0,1.0,0.0,0.0,0.0,1.0,3.0,-1.2157894736842103,0.0,0.0,0.0,0.0,0.0,0.0,0.0,0.0,0.0,0.0,0.0,0.0,0.0,0.0,0.0,0.0,0.0,0.0,0.0,1.0,0.0,0.0,0.0,0.0,0.0,0.0,0.0,0.0,0.0,0.0,0.0,0.0,0.0,0.0,0.0,0.0,0.0,0.0,0.0,0.0,0.0,0.0,0.0,0.0,0.0,2.0,0.0,4.0,5.0,0.0,3.0,4.0,2.0,0.0,2.0,0.6931471805599453,3.0,1.0,0.0,3.0,3.0,2.0,0.0,0.0,1.0,0.0,0.0,0.0,0.1578947368421052,0.1578947368421052,0.0526315789473684,0.2105263157894736,1.75732850708483,,-0.8384784420043665,0.5789473684210527,0.0526315789473684,8.604175567626953,1.0,0.4736842105263157,0.0,0.1201051077054849,0.1359865568970983,4.833090655402692,16.062547305623784,0.3430464538973109,0.1652175944588734,0.1106175373077443,0.2923967463303001,0.0751577845344446,-0.318389865978288,0.192522992849196,0.2932981817520138,-0.2842352370540744,-0.4655758390988251,0.1689195360945142,0.1967731894931617,SPGNQLYHLIQNWPHYRSP,stress_granule,PGRP1_HUMAN
RPP40_HUMAN_nonidr_0,0.0769230769230769,0.0,0.0,0.0769230769230769,0.0,0.0,0.0769230769230769,0.0,0.0,0.3076923076923077,0.0,0.0,0.0769230769230769,0.0,0.3076923076923077,0.0,0.0,0.0769230769230769,0.0,0.0,0.0,0.0,0.0,0.0,0.0,0.0,0.0,0.0,0.0,0.0,0.0,1.0,0.0,0.0,0.0,0.6931471805599453,0.0,1.0,0.0,0.0,0.0,0.0,0.0,2.0,-0.3923076923076923,0.0,0.0,0.0,0.0,0.0,0.0,0.0,0.0,0.0,0.0,0.0,0.0,0.0,0.0,0.0,0.0,0.0,0.0,0.0,0.0,0.0,0.0,0.0,0.0,0.0,0.0,0.0,0.0,0.0,0.0,0.0,0.0,0.0,0.0,0.0,0.0,0.0,0.0,0.0,0.0,0.0,0.0,0.0,0.0,0.0,0.0,0.0,5.0,1.0,0.0,1.0,0.0,0.0,0.0,4.0,1.6094379124341005,4.0,4.0,0.0,0.0,4.0,0.0,0.0,1.0,0.0,0.0,0.0,0.0769230769230769,0.4615384615384615,0.0,0.3076923076923077,0.4615384615384615,1.245850476340579,-1.0134270383981283,-1.430435640545744,0.6153846153846154,0.3846153846153846,12.00003433227539,3.0,0.0769230769230769,0.3674926006655375,0.077686837225293,0.0992797618667168,4.820303994518285,15.972426395727023,0.5632578049384148,0.1434070805860328,0.049226501326829,0.1647089905452846,-0.2555035765880132,-0.4787655733442463,0.1075108914673369,0.2593654245526997,-0.0772620170632871,-0.2234326305903313,0.104351196159612,0.414853950886636,LRRLREAPRHLLV,nucleolus,RPP40_HUMAN
RPP40_HUMAN_nonidr_1,0.0,0.0,0.0,0.0,0.1666666666666666,0.1666666666666666,0.1666666666666666,0.0,0.1666666666666666,0.0,0.0,0.3333333333333333,0.0,0.0,0.0,0.0,0.0,0.0,0.0,0.0,0.0,0.0,0.0,0.0,0.0,0.0,0.0,0.0,0.0,0.0,0.0,0.0,0.0,0.0,0.0,0.0,0.0,0.0,2.0,0.0,0.0,2.0,1.0,1.0,-1.95,1.0,0.0,0.0,0.0,0.0,0.0,0.0,0.0,0.0,0.0,0.0,0.0,0.0,0.0,0.0,0.0,0.0,0.0,0.0,0.0,0.0,0.0,0.0,0.0,0.0,0.0,0.0,0.0,0.0,0.0,0.0,0.0,0.0,0.0,0.0,0.0,0.0,0.0,0.0,0.0,0.0,0.0,0.0,0.0,0.0,2.0,0.0,0.0,0.0,0.0,0.0,2.0,0.0,0.0,1.0,-0.6931471805599453,0.0,0.0,0.0,1.0,0.0,0.0,0.0,0.0,0.0,0.0,0.0,0.0,0.0,0.1666666666666666,0.1666666666666666,0.1666666666666666,0.9810173385750264,,,0.5,0.1666666666666666,8.75723648071289,1.0,0.6666666666666666,0.0,0.1325743359398922,0.1828624715677593,4.9087804422939,14.388530024940737,0.2343896799264947,0.1359889276608992,0.1405663404339198,0.4067490347484784,0.0965207008354457,-0.2583061542960966,0.2674407889646538,0.2702825690890352,-0.2794790293646318,-0.481768355983859,0.1889665311614876,0.1236638010592945,NFGNHK,nucleolus,RPP40_HUMAN
RPP40_HUMAN_nonidr_2,0.0217391304347826,0.0217391304347826,0.0434782608695652,0.0652173913043478,0.0434782608695652,0.0434782608695652,0.0326086956521739,0.0760869565217391,0.0652173913043478,0.1521739130434782,0.0108695652173913,0.0760869565217391,0.0543478260869565,0.0108695652173913,0.0108695652173913,0.0543478260869565,0.0869565217391304,0.0543478260869565,0.0,0.0760869565217391,0.0,0.0,0.0,0.0,0.0,1.0,0.0,0.0,0.0,0.0,1.0,0.0,1.0,1.0,4.0,0.3364722366212129,0.0,6.0,8.0,0.0,0.0,0.0,4.0,13.0,-0.0152173913043479,6.0,1.0,0.0,0.0,0.0,0.0,0.0,0.0,0.0,0.0,1.0,0.0,0.0,0.0,0.0,0.0,0.0,0.0,0.0,0.0,1.0,0.0,0.0,1.0,1.0,0.0,1.0,1.0,0.0,0.0,0.0,0.0,0.0,0.0,0.0,0.0,0.0,0.0,1.0,1.0,0.0,1.0,1.0,0.0,1.0,7.0,0.0,6.0,18.0,2.0,5.0,8.0,1.0,0.0,5.0,-1.252762968495368,8.0,1.0,0.0,9.0,6.0,5.0,0.0,0.0,2.0,0.0,0.0,0.108695652173913,0.3152173913043478,0.1195652173913043,0.0760869565217391,0.2391304347826087,2.451965071318879,-0.3141071000957349,-1.168985727395568,0.4891304347826087,0.1847826086956521,5.456439971923828,-3.0,0.3260869565217391,-0.0612956023633448,0.0694271802452137,0.0837266257330887,4.446361415899318,15.275465072413132,0.3282119109270341,0.24627468655342,0.0712451483291047,0.2673920693108214,0.1255500835542682,-0.3758284860249966,0.1999532931641837,0.2073414886971167,-0.1649984633073893,-0.3224170198187662,0.1686311384517731,0.1848600496527951,LVQTHYYNYRVSFLIPECGILSEELKNLVMNTGPYYFVKNLPLHELITPEFISTFIKKGSCYALTYNTHIDEDNTVALLPNGKLILSLDKDT,nucleolus,RPP40_HUMAN
RPP40_HUMAN_nonidr_3,0.0163934426229508,0.0,0.0491803278688524,0.081967213114754,0.081967213114754,0.0327868852459016,0.0163934426229508,0.0655737704918032,0.1475409836065573,0.1147540983606557,0.0655737704918032,0.0163934426229508,0.0163934426229508,0.0163934426229508,0.0327868852459016,0.1475409836065573,0.0327868852459016,0.0163934426229508,0.0327868852459016,0.0163934426229508,0.0,0.0,0.0,0.0,0.0,0.0,0.0,1.0,0.0,2.0,2.0,0.0,0.0,0.0,3.0,0.4054651081081644,0.0,5.0,7.0,0.0,0.0,0.0,2.0,11.0,-0.3967213114754098,9.0,1.0,0.0,0.0,0.0,0.0,0.0,0.0,0.0,0.0,1.0,0.0,0.0,0.0,0.0,0.0,0.0,0.0,0.0,0.0,0.0,1.0,0.0,0.0,0.0,0.0,1.0,1.0,0.0,0.0,0.0,2.0,2.0,0.0,1.0,0.0,0.0,0.0,0.0,1.0,0.0,2.0,0.0,0.0,1.0,1.0,0.0,3.0,12.0,0.0,1.0,2.0,1.0,0.0,4.0,-1.203972804325936,3.0,2.0,0.0,11.0,11.0,9.0,0.0,0.0,0.0,0.0,0.0,0.1311475409836065,0.2786885245901639,0.1311475409836065,0.180327868852459,0.3278688524590163,2.2641769119489954,-0.5695569134663422,-1.4666600028820032,0.5901639344262295,0.3114754098360656,9.400081634521484,3.0,0.2622950819672131,-0.267876788639771,0.0636678736119014,0.0806446519639434,4.461643073864294,15.259968197163555,0.4373505025078865,0.1954405420688957,0.0651465228675505,0.2419371180314824,-0.018433404765459,-0.3974892065184212,0.1966539409765262,0.1975430661971239,-0.2379022650974171,-0.359144309036617,0.134112136908511,0.2789717941749819,SQFSGRKIMKFIVSIDLMELSLNLDSKKYERISWSFKEKKPLKFDFLLAWHKTGSEESTMM,nucleolus,RPP40_HUMAN
RPP40_HUMAN_nonidr_4,0.0555555555555555,0.0555555555555555,0.0396825396825396,0.0793650793650793,0.0476190476190476,0.0317460317460317,0.0238095238095238,0.0396825396825396,0.0396825396825396,0.1349206349206349,0.0,0.0396825396825396,0.0793650793650793,0.0476190476190476,0.0158730158730158,0.0793650793650793,0.0555555555555555,0.0793650793650793,0.0238095238095238,0.0317460317460317,0.0,0.0,0.0,0.0,0.0,0.0,0.0,1.0,0.0,0.0,0.0,0.0,2.0,2.0,5.0,0.6061358035703155,0.0,10.0,10.0,0.0,0.0,0.0,4.0,22.0,0.0674603174603174,5.0,0.0,0.0,0.0,0.0,0.0,0.0,0.0,0.0,0.0,1.0,0.0,0.0,0.0,0.0,0.0,0.0,0.0,0.0,0.0,0.0,0.0,0.0,0.0,3.0,0.0,0.0,0.0,0.0,0.0,0.0,0.0,1.0,0.0,1.0,0.0,0.0,0.0,0.0,0.0,0.0,0.0,2.0,0.0,1.0,5.0,0.0,12.0,27.0,0.0,10.0,11.0,6.0,0.0,6.0,-0.6931471805599453,6.0,2.0,0.0,14.0,12.0,10.0,0.0,0.0,1.0,1.0,0.0,0.119047619047619,0.3095238095238095,0.1031746031746031,0.0555555555555555,0.2539682539682539,2.573569921717015,-1.1999653815879805,-1.0924642354798415,0.5476190476190477,0.1746031746031746,4.625766754150391,-8.0,0.3333333333333333,1.0562041759111942,0.0692794543425281,0.0783253348300495,4.402187860988398,15.037871001621042,0.3659450479696404,0.1998375890862986,0.0899931916425594,0.2642398257369767,0.0963046960934404,-0.337456940788934,0.1778999580078169,0.1971815239386626,-0.1236896165900143,-0.2849285142552507,0.158657678551501,0.2254056329979462,KYQIQEHQPKVALSTLRDLQCPVLQSSELEGTPEVSCRALELFDWLGAVFSNVDLNNEPNNFISTYCCPEPSTVVAKAYLCTITGFILPEKICLLLEHLCHYFDEPKLAPWVTLSVQGFADSPVSW,nucleolus,RPP40_HUMAN
RPP40_HUMAN_nonidr_5,0.0571428571428571,0.0285714285714285,0.0571428571428571,0.0285714285714285,0.0857142857142857,0.1142857142857142,0.0857142857142857,0.0285714285714285,0.0285714285714285,0.0571428571428571,0.0285714285714285,0.1142857142857142,0.0571428571428571,0.0571428571428571,0.0285714285714285,0.0,0.0,0.0571428571428571,0.0285714285714285,0.0571428571428571,0.0,0.0,0.0,0.0,0.0,0.0,0.0,0.0,0.0,0.0,0.0,0.0,0.0,0.0,2.0,-0.4054651081081644,0.0,1.0,7.0,0.0,0.0,0.0,4.0,5.0,-0.5971428571428573,1.0,0.0,0.0,0.0,0.0,0.0,1.0,0.0,0.0,0.0,1.0,0.0,0.0,0.0,0.0,0.0,1.0,1.0,0.0,1.0,0.0,0.0,0.0,0.0,0.0,0.0,0.0,0.0,0.0,0.0,0.0,0.0,0.0,0.0,0.0,0.0,0.0,0.0,0.0,0.0,0.0,0.0,0.0,0.0,0.0,4.0,0.0,3.0,2.0,0.0,2.0,6.0,2.0,0.0,5.0,0.0,3.0,1.0,0.0,4.0,1.0,0.0,0.0,0.0,0.0,0.0,0.0,0.0857142857142857,0.2285714285714285,0.1714285714285714,0.0571428571428571,0.2,2.209843392589013,-0.3957470870780005,-0.5687092716919051,0.5142857142857142,0.1428571428571428,6.262973785400391,-1.0,0.4,-0.2663899474648525,0.1064159256656535,0.13384091087446,4.461324597096724,15.528828210756876,0.3086167609881466,0.2292910559855645,0.0861398273397517,0.2826573527432883,0.078288356435334,-0.369997164785307,0.183199172244289,0.2525095204670655,-0.2095210393746132,-0.4691369845193642,0.1750483694613269,0.1989566112388569,HGFRKGGEHLYNFVIFNNQDYWLQMAVGANDHCPP,nucleolus,RPP40_HUMAN
PIAS1_HUMAN_nonidr_0,0.0,0.0,0.0,0.0909090909090909,0.0,0.0,0.0,0.0,0.0,0.1818181818181818,0.0909090909090909,0.0,0.0,0.0909090909090909,0.0909090909090909,0.1818181818181818,0.0,0.2727272727272727,0.0,0.0,0.0,0.0,0.0,0.0,0.0,0.0,0.0,0.0,0.0,0.0,0.0,0.0,0.0,0.0,0.0,0.6931471805599453,0.0,1.0,0.0,0.0,0.0,0.0,0.0,0.0,0.8181818181818183,0.0,1.0,0.0,0.0,0.0,0.0,0.0,0.0,0.0,0.0,0.0,0.0,0.0,0.0,0.0,0.0,0.0,0.0,0.0,0.0,0.0,0.0,0.0,0.0,0.0,0.0,0.0,0.0,0.0,0.0,0.0,0.0,0.0,0.0,0.0,0.0,0.0,0.0,0.0,1.0,0.0,0.0,0.0,0.0,0.0,0.0,0.0,1.0,2.0,0.0,0.0,1.0,1.0,0.0,1.0,0.6931471805599453,1.0,1.0,0.0,2.0,3.0,2.0,0.0,0.0,0.0,0.0,0.0,0.0909090909090909,0.5454545454545454,0.0,0.0909090909090909,0.1818181818181818,1.3022049105023583,-0.9627406736630196,-0.3913522967563138,0.4545454545454545,0.1818181818181818,6.002140045166016,0.0,0.2727272727272727,-0.1574591643244433,0.0393135529568285,0.0612869656211818,4.0930436235821865,15.543118137039816,0.4687355463273134,0.2753704683463326,0.0449527616934371,0.1497795880270325,0.0421574861541309,-0.4458485800581171,0.1801693586092735,0.2196507048152552,-0.0405141135991453,-0.1455936793101282,0.1185084326401682,0.345625083817574,VMSLRVSELQV,nuclear_speckle,PIAS1_HUMAN
