seqid,srpipi,lrpipi,Water,Carbon,ssH,ssE,disL,disS,srELEC,lrELEC,sr_hb,lr_hb,srCATPI,lrCATPI,larkSIM,larkFAR,sequence,label,entry
A0A024R2Q3_HUMAN_nonidr_1,0.1084857723577235,0.1042936991869918,5.341798215511325,16.58579272477694,0.4485794317727091,0.7624266578102513,0.0742932281393819,0.225290379136533,0.6394410996251279,-0.3925619834710744,0.3429513602638087,0.4204451772464962,-0.03652992895446,-0.0895827095299017,0.2160383597883597,0.1820667546671695,DQVVVN,cell_junction,A0A024R2Q3_HUMAN
A0A024R2Q3_HUMAN_nonidr_2,0.2073950328544381,0.3513962936931068,7.032295030732368,20.36555149919205,0.8648447133721431,0.78756339048539,0.1838307076817059,0.6323189926547744,0.5941215034965035,-0.0433437093624405,0.939987045537751,0.7516470493172085,0.1036561479869423,0.0206666186047629,0.238955080662895,0.7679859421696431,LSHHREGLLAIFKSGGIPALVKMLGSPVDSVLFYAITTLHNLLLHQEGAKMAVRLAGGLQKMVALLNKTNVKFLAITTDCLQILAYGNQESKLIILASGGPQALVNIMRTYTYEKLLWTTSRVLKVLSVCSSNKPAIVEAGGMQALGLHLTDPSQRLVQNCLWTLRNLSDAATKQEGMEGLLGTLVQLLGSDDINVVTCAAGILSNLTCNNYKNKMMVCQVGGIEALVRTVLRAGDREDITE,cell_junction,A0A024R2Q3_HUMAN
A0A024R2Q3_HUMAN_nonidr_3,0.1703066825317621,0.3423543274164734,7.035102850489456,20.98032077142576,0.7318600108263316,0.7631377241031202,0.2423810372482623,0.6190433854907539,0.6973001285653064,-0.0326909841706813,0.5322890904094532,0.648638895237637,0.0122137543425671,-0.0079314785666101,0.2439144736842105,0.5776531638986557,AVRLHYGLPVVVKLLHPPSHWPLIKATVGLIRNLALCPANHAPLREQGAIPRLVQLLV,cell_junction,A0A024R2Q3_HUMAN
A0A024R2Q3_HUMAN_nonidr_4,0.179860448202191,0.2488181280967316,7.205893208661418,20.21041608489249,0.8008754937231125,0.7495346299505745,0.0986145069274653,0.5063152337245664,0.5941429261722887,-0.0695365054333095,0.6558786460208859,0.663118160723404,0.1004251872848754,0.0126865799237437,0.2427931884069235,0.639001160849708,RMEEIVEGCTGALHILARDVHNRIVIRGLNTIPLFVQLLYSPIENIQRVAAGVLCELAQDK,cell_junction,A0A024R2Q3_HUMAN
A0A024R2Q3_HUMAN_nonidr_5,0.1455289304500292,0.3103448275862069,6.436395759717315,19.691768131286395,0.4649536262733769,0.3987025273685633,0.1319648093841642,0.4413489736070381,0.1999836681365343,-0.1396359122879602,0.4482814702374498,0.3163474692202462,0.0867830423940149,-0.0209476309226932,0.2253468780971258,0.3127413127413127,NEGVATYA,cell_junction,A0A024R2Q3_HUMAN
A0A024R2Q3_HUMAN_nonidr_6,0.1018232819074333,0.076297335203366,5.940609951845907,14.506078431372549,0.426056338028169,0.1031960996749729,0.1202501954652072,0.3550430023455825,0.3782608695652174,-0.1913043478260869,0.4464438731790917,0.2562822870151475,0.0167130919220055,0.0512999071494893,0.1589743589743589,0.3674738459287439,MSED,cell_junction,A0A024R2Q3_HUMAN
NBDY_HUMAN_nonidr_0,0.3833870967741935,0.4787096774193548,7.38800480939246,19.25409260991581,0.6056599534834549,0.442440067827644,0.4648065219887473,0.5677777777777778,0.9162016427362216,-0.0334951456310679,0.6070203467882148,0.8124738590232501,0.1931863727454909,0.0116515126467184,0.2922260380892912,0.4117720060278344,MGDQPCASGRSTLPPGNAREAKPPKKRCLLAPRWDYPEGTPNGGSTTLPSAPPPASAGLKSHPPPPEK,p-body,NBDY_HUMAN
RCCD1_HUMAN_nonidr_0,0.2246777163904235,0.4479537794896485,6.722259326400152,20.775706503234595,0.7947898053230509,0.4440480878367422,0.2289732024409657,0.5677242411020382,0.4821882951653944,-0.0863497275916113,0.2907151964761794,0.6296844816484224,0.0299715436638456,0.0059014141934376,0.263824499354777,0.5475315576033357,MAEERPGAWFGFGFCGFGQELG,chromosomes,RCCD1_HUMAN
RCCD1_HUMAN_nonidr_1,0.1704525899156771,0.4735400460173112,6.987003058103976,19.68883164512749,0.3877890073376713,0.5570491157349174,0.1355635727560949,0.4868469350299768,0.4442160373873801,-0.1954745754319948,0.4148923444976076,0.6496540362438221,-0.0089007127138962,-0.0262057247418638,0.2325253553667228,0.3435547037746854,GVDICRVSASWSYTAFVTRGGR,chromosomes,RCCD1_HUMAN
RCCD1_HUMAN_nonidr_2,0.1628250255478596,0.4067219257408879,7.032926829268293,20.51217641418984,0.7941488555403972,0.4362279091827686,0.2319966699042597,0.564680289021832,0.3039226339237205,-0.0624591236102027,0.5479843025330003,0.5953469261979354,0.0250304403446309,0.0118678811978853,0.274795943606233,0.6860485615834602,CKDAWASEGLLAVLRAGPGPEAL,chromosomes,RCCD1_HUMAN
RCCD1_HUMAN_nonidr_3,0.1074629005663488,0.2254641909814323,6.846876276031033,16.230518303733238,0.7819895650168631,0.1481700118063754,0.1125475285171102,0.4395437262357414,-0.056912659638296,-0.0992826331582895,0.431437125748503,0.5809354437133203,0.0268373245251857,0.0100271322401793,0.2240128410914927,0.5530744577774466,AESALRGE,chromosomes,RCCD1_HUMAN
RCCD1_HUMAN_nonidr_4,0.2166752444673186,0.2728921434437448,7.359048428207306,20.91649312786339,0.5992596885457366,0.3273450091329107,0.2433454938521821,0.4588569112282124,0.4627772395192333,-0.084487291849255,0.4356908488086444,0.7077097505668934,0.0226771653543307,-0.0813911088152177,0.232010227687812,0.3909570817057495,PLLPCARAYVSPRAPFYRPLA,chromosomes,RCCD1_HUMAN
RCCD1_HUMAN_nonidr_5,0.1638082673702726,0.2032867053337882,6.495187304890739,17.331878698224852,0.8688660477453581,0.4632555637732804,0.0805475068113999,0.3938502789430437,0.2768052516411378,-0.0738385381508982,0.4430307027809102,0.486538277282744,0.0178361886881013,0.0005654509471303,0.1786840919333032,0.7259124967011279,RARQLELGAEHALLLDAAGQVF,chromosomes,RCCD1_HUMAN
RCCD1_HUMAN_nonidr_6,0.3044631020768891,0.5560554255893467,6.4595676541232985,20.623944742901,0.7941488555403972,0.7484624553039333,0.1475491415775068,0.5491973132621951,0.7329244249726178,-0.0865429889820133,0.6346177221344353,0.5001502629601803,0.0212059064807219,0.0284338362651555,0.2709787415419042,0.5951252538930264,EALQGLVMAEVAAGGWHSVCVSETGDIYIWGWNESGQL,chromosomes,RCCD1_HUMAN
RCCD1_HUMAN_nonidr_7,0.1250980392156862,0.2874509803921569,5.589123867069486,18.75226586102719,0.7254024785730832,0.2342635238869321,0.2168344007319304,0.5147275405007363,0.4292918219688664,-0.092052342378066,0.3957109283196239,0.3478995299647474,-0.0085420719844357,-0.0462062256809338,0.244428772919605,0.5066917853918914,QPFPALLDLP,chromosomes,RCCD1_HUMAN
RCCD1_HUMAN_nonidr_8,0.1398494321806813,0.4558823529411764,6.707320385712346,20.075743665075283,0.4407218121017099,0.3848273626195493,0.1711026615969581,0.4301548606604816,0.3901673640167364,-0.2076103762240164,0.5331404523934771,0.6415368365460787,-0.0059364958335602,0.017972877294265,0.2287892990145162,0.3409245036037031,VTRTGELYTWG,chromosomes,RCCD1_HUMAN
RCCD1_HUMAN_nonidr_9,0.2589895821664613,0.4663380755012882,6.369659326181066,20.74622722454954,0.6513218188227,0.6591115140525838,0.1921539230384807,0.589204969489442,0.5266715650257164,-0.1062632696390658,0.4869890380084007,0.5680002048970393,0.0076847024986518,-0.001707711666367,0.3209475150952159,0.4937388793769094,DKQLQVKAVTCGPWNTYVYAVEKGKS,chromosomes,RCCD1_HUMAN
MEI4_HUMAN_nonidr_0,0.1671990307302566,0.3656790395417997,6.672379843026319,22.301379310344828,0.7960661790811617,0.5065760631302061,0.0685341832211066,0.2568616854859353,0.2658160552897395,-0.075946928652267,0.5260698657568791,0.597167797205632,0.0163895674099755,-0.0166748808937079,0.1508385241974125,0.745035332955073,MDVQKWYLRTSKLALALAII,chromosomes,MEI4_HUMAN
MEI4_HUMAN_nonidr_1,0.1459083890890375,0.3638928067700987,6.3512261054257575,21.339471577261808,0.5251309641795271,0.2685074029611844,0.1011350506354924,0.3226259891711787,0.1151631477927063,-0.183978692890801,0.5091103965702036,0.3790523690773067,-0.0521806853582554,-0.0568535825545171,0.1504555528195026,0.3270289158731545,EQSKWR,chromosomes,MEI4_HUMAN
MEI4_HUMAN_nonidr_2,0.1568600867678958,0.2925704989154013,6.665998281294758,17.748262830671706,0.8165571291338133,0.3895005749619561,0.1574113933132443,0.510690199454728,0.3805903705225669,-0.0562148040001317,0.4558317698561601,0.6231400914470968,0.0100141203966695,0.0010944910616563,0.2513898233065401,0.674706119310067,ILEAEVMQLRQKLLVSRLCSGSFKSGY,chromosomes,MEI4_HUMAN
MEI4_HUMAN_nonidr_3,0.2183443899625036,0.2388231900778771,6.647955671806168,20.682493048633336,0.870701062215478,0.3418459358495427,0.3544536271808999,0.5778688524590164,0.4988868650070835,-0.0647336480107889,0.548099120423132,0.6875562011482327,0.0205757246018399,0.0295776041151449,0.2869418078946673,0.752836474617338,THFPPLPLVKRPCAILQNPLSSHMQFLQYLLELKNLTESG,chromosomes,MEI4_HUMAN
MEI4_HUMAN_nonidr_4,0.2310766115423557,0.3999923218673218,7.234693264435498,22.607461809635723,0.8957104577430999,0.5533944668946223,0.3438722926111046,0.5253412424009045,0.5362530698163958,-0.0612252074834716,0.6003086419753086,0.7030800591996873,0.2948953597110703,0.0411129938464282,0.2402005469462169,0.79155726804651,DSSTVSDSVFQLLDGLITFYRNPKLPFSRFWTEAVGTLASLISDYNLSSHILKKCSKKLEEFEKTLLHAILGNNHINQFQVQHYVSQSLVTLGNCSLLRKSIISLLLSEVNGFADDLGAINQEQASYDVSRYENIFYLFWVLEQLLQKET,chromosomes,MEI4_HUMAN
MEI4_HUMAN_nonidr_5,0.1926783372298568,0.3484293619791667,6.6170399945861815,22.013528633913133,0.7357064731033112,0.5397679167289208,0.1165261109309114,0.4476727213752838,0.3790762070286034,-0.079687725892728,0.6502190454231035,0.6876364559532876,0.0103861603213468,0.0127722329023253,0.1751197753180241,0.6189961435082388,IKKFLQKHDETIFQLSDAFPLFTFYLWRVGILLSSAQIETLRK,chromosomes,MEI4_HUMAN
SYNEM_HUMAN_nonidr_0,0.1762007674326291,0.281956395737661,6.672501372872048,20.47733320883328,0.7953179244027077,0.5219375873311598,0.0792973038916676,0.2796754910333048,0.3864481476380664,-0.0834795563648402,0.3681246625009642,0.5375463872516918,0.2114228456913827,0.0076132706115375,0.2015087180413768,0.6109310726610042,LNARLYDYVCRVRELERENLL,cell_junction,SYNEM_HUMAN
SYNEM_HUMAN_nonidr_1,0.1412599440980434,0.2248978714254998,7.474530831099195,14.906635802469136,0.3878226340172071,0.1697551290536068,0.1412250850753524,0.4112343248004975,-0.0369561367258988,-0.1704350906192809,0.2016019223067681,0.5932599517490953,-0.038637307852098,-0.0901240429699092,0.1971924578453359,0.2515849182515849,LRGRRG,cell_junction,SYNEM_HUMAN
SYNEM_HUMAN_nonidr_3,0.0719602977667493,0.0625,5.742587161942001,16.340582554761717,0.7941488555403972,0.1127001505405775,0.0372064049382016,0.1041722707516316,-0.1894543748133612,-0.0873673836164415,0.1652404704159611,0.2562119617443829,0.0081665871523587,0.0010944910616563,0.0672729050552459,0.6139575620048568,AALEAL,cell_junction,SYNEM_HUMAN
SYNEM_HUMAN_nonidr_4,0.1531451120402123,0.389699038163202,6.528597203428056,21.04070617339481,0.7102925243770314,0.4583987441130298,0.0646283222591362,0.259834289840751,0.1682496607869742,-0.1641113754515816,0.5198660460892269,0.499272823428307,0.0094366246869157,0.0041962787043319,0.1396964197327173,0.5724809260720863,ALLVAESWRETVQLY,cell_junction,SYNEM_HUMAN
SYNEM_HUMAN_nonidr_6,0.1410083329453936,0.1790884968111354,6.544990852137273,17.770046710782406,0.8099230111206159,0.211688661459736,0.0755129294646109,0.2818380478329489,-0.00630124506529,-0.0681782313640907,0.4416162634408602,0.5286248799708619,0.0054251434533124,0.0017288918697369,0.133751041251675,0.70038526128618,GLEQLRARLEDALLR,cell_junction,SYNEM_HUMAN
SYNEM_HUMAN_nonidr_7,0.0927618447315894,0.1097804391217564,5.765801354401806,16.68510158013544,0.6948584905660378,0.2351658997335916,0.0420907430190508,0.1277262051224695,-0.0973165211768509,-0.0927093436792757,0.189829263814944,0.3730493849825592,-0.0163400437870454,-0.0668553425535323,0.0767854082973173,0.5530085959885387,IQAE,cell_junction,SYNEM_HUMAN
SYNEM_HUMAN_nonidr_8,0.2085245901639344,0.2922404371584699,6.993831919814958,20.98108909842144,0.8383187674565277,0.3506164269869773,0.0936113204387507,0.3981542970986283,0.1587552688786601,-0.0738343754815373,0.585522436947265,0.5296342219466832,0.1316415543219667,0.0264869888475836,0.18538588843142,0.6661768997240581,DEKATLTLAMADWLRDYQDLLQVKTGLSLEVA,cell_junction,SYNEM_HUMAN
SYNEM_HUMAN_nonidr_9,0.292247354529982,0.4915992532669571,7.726137789814387,22.29197324414716,0.905772842703698,0.8008488148622678,0.4616603838245373,0.6594096501442965,0.9120598485758924,-0.031334034841576,0.9853420721273368,0.7830100125156445,0.3497082372099335,0.0917012215622548,0.3575438326668717,0.8062401733735606,LEGESNPEIVIWAEHVENMPSEFRNKSYHYTDSLLQRENERNLFSRQKAPLASFNHSSALYSNLSGHRGSQTGTSIGGDARRGFLGSGYSSSATTQQENSYGKAVSSQTNVRTFSPTYGLLRNTEAQVKTFPDRPKAGDTREVPVYIGEDSTIARESYRDRRDKVAAGASESTRSNERTVILGKKTEVKATREQERNRPETIRTKPEEKMFDSKEKASEERNLRWEELTKLDKEARQRESQQMKEKAKEKDSPKEKSVREREVPISLEVSQDRRAEVSPKGLQTPVKDAGGGTGREAEARELRFRLGTSDATGSLQGDSMTETVAENIVTSILKQFTQSPETEASADSFPDTKVTYVDRKELPGERKTKTEIVVESKLTEDVDVSDEAGLDYLLSKDIKEVGLKGKSAEQMIGDIINLGLKGREGRAKVVNVEIVEEPVSYVSGEKPEEFSVPFKVEEVEDVSPGPWGLVKEEEGYGESDVTFSVNQHRRTKQPQENTTHVEEVTEAGDSEGEQSYFVSTPDEHPGGHDRDDGSVYGQIHIEEESTIRYSWQDEIVQGTRRRTQKDGAVGEKVVKPLDVPAPSLEGDLGSTHWKEQARSGEFHAEPTVIEKEIKIPHEFHTSMKGISSKEPRQQLVEVIGQLEETLPERMREELSALTREGQGGPGSVSVDVKKVQGAGGSSVTLVAEVNVSQTVDADRLDLEELSKDEASEMEKAVESVVRESLSRQRSPAPGSPDEEGGAEAPAAGIRFRRWATRELYIPSGESEVAGGASHSSGQRTPQGPVSATVEVSSPTGFAQSQVLEDVSQAARHIKLGPSEVWRTERMSYEGPTAEVVEVSAGGDLSQAASPTGASRSVRHVTLGPGQSPLSREVIFLGPAPACPEAWGSPEPGPAESSADMDGSGRHSTFGCRQFHAEKEIIFQGPISAAGKVGDYFATEESVGTQTSVRQLQLGPKEGFSGQIQFTAPLSDKVELGVIGDSVHMEGLPGSSTSIRHISIGPQRHQTTQQIVYHGLVPQLGESGDSESTVHGEGSADVHQATHSHTSGRQTVMTEKSTFQSVVSESPQEDSAEDTSGAEMTSGVSRSFRHIRLGPTETETSEHIAIRGPVSRTFVLAGSADSPELGKLADSSRTLRHIAPGPKETSFTFQMDVSNVEAIRSRTQEAGALGVSDRGSWRDADSRNDQAVGVSFKASAGEGDQAHREQGKEQAMFDKKVQLQRMVDQRSVISDEKKVALLYLDNEEEENDGHWF,cell_junction,SYNEM_HUMAN
NKRF_HUMAN_nonidr_0,0.2210820895522388,0.2546641791044776,5.959369434733857,20.08686690223793,0.7328982227134762,0.4236111111111111,0.0692715661868167,0.2469964281848685,0.2863591756624141,-0.1173317295120548,0.4375710910840844,0.2460417190248806,0.048661800486618,-0.001198488061215,0.1616791884205611,0.5531760899182562,QYFIEKLTATI,nucleolus,NKRF_HUMAN
NKRF_HUMAN_nonidr_1,0.1853354978354978,0.2847238095238095,6.61025160817523,20.08686690223793,0.7134627921640714,0.4621510532625449,0.1988972036234738,0.575029539188657,0.3602377958157082,-0.0638356164383561,0.794452347083926,0.6012325242161507,0.3115438108484005,0.043115438108484,0.2083164300202839,0.6175657458816003,NYTYMLTRCIQACKTNPEYI,nucleolus,NKRF_HUMAN
NKRF_HUMAN_nonidr_2,0.1346564885496183,0.3427156632786031,6.16452442159383,20.36094477711244,0.5181517838494694,0.5333333333333333,0.1225097597295448,0.4450168133361952,0.3287359561873313,-0.1777659655250968,0.6459590379875925,0.6485344051001316,0.0437912417516496,0.0237899740708729,0.2075530295971924,0.3431328545780969,LTDGYACEVRCQNIYLTT,nucleolus,NKRF_HUMAN
NKRF_HUMAN_nonidr_3,0.1905769659166852,0.2752526818379116,6.773303150899996,19.20876149269876,0.7420424024229956,0.8022292699448841,0.1836825396825396,0.5251834004845687,0.6351766900236931,-0.0621734587251828,0.4719230666106588,0.6139334578299478,0.3537859007832898,0.0443864229765013,0.2339333308307369,0.6419453201715851,KLLQKRIEVRVVRRKFKHTFGEDLVVCQIGMSSYEFPPALK,nucleolus,NKRF_HUMAN
NKRF_HUMAN_nonidr_4,0.1894123783031988,0.3057498057498057,6.682101682101682,21.4785944551902,0.5911858808958613,0.6724615821588427,0.1955867602808425,0.559679037111334,0.5812790580994749,-0.1057807863046624,0.531021897810219,0.5843580914904083,0.0349950478705843,0.0358754264333663,0.240705734089477,0.3474592734437876,ASGQPIFNASAKHWTNFVITENANDAI,nucleolus,NKRF_HUMAN
NKRF_HUMAN_nonidr_5,0.1223965199050883,0.2540864750856841,6.355193328278999,18.12049051761016,0.4650017587055927,0.2618032287541882,0.1023237125828701,0.3237465564738292,0.3345628919218,-0.1584119496855346,0.5128556460062867,0.535826549528492,-0.0310355117875261,-0.0828470295608916,0.1676621944495497,0.3142085289766514,SASFNKMS,nucleolus,NKRF_HUMAN
NKRF_HUMAN_nonidr_6,0.2108415914805502,0.3727998816743085,6.87809187279152,20.927965195064544,0.7144623241862916,0.6137532706343614,0.178273711847719,0.5413058624465015,0.4440656879820851,-0.0744306418219461,0.4903514376996805,0.7113998891420829,0.1885190217391304,-0.0057125899547444,0.215674919164133,0.5310754312616379,KYEMMPNRTWRCRVFLQDHCLAEG,nucleolus,NKRF_HUMAN
NKRF_HUMAN_nonidr_7,0.0482710198350008,0.0810953133228014,4.891696750902527,13.26972860125261,0.237811203319502,0.0883039419087137,0.1505320529457565,0.4375811056319751,0.3229050279329609,-0.2635201573254671,0.4365919955009841,0.2857812353547661,-0.0293264942016057,-0.0906816760475297,0.1761411665257819,0.081149619611158,NSSN,nucleolus,NKRF_HUMAN
NKRF_HUMAN_nonidr_8,0.2439312204989885,0.4231741086881274,6.988471673254282,21.40813099473608,0.9174974585793012,0.7304367771687954,0.2757995262066923,0.5345633309619456,0.5184031549346948,-0.0376018848700967,0.8999233496215387,0.7024681579297306,0.1658351810790835,0.0649217053377528,0.3348167699957031,0.7780239759104597,QFNRMTVEYVYERMTGLRWKCKVILESEVIAEAVGVKKTVKYEAAGEAVKTLKKTQPTVINNLKKGAVEDVISRNEIQGRSAEEAYKQQIKEDNIGNQLLRKMGWTGGGLGKSGEGIREPISVKEQHKREGLGLDVERVNKIAKRDIEQIIRNYARSESHTDLTFSRELTNDERKQIHQIAQKYGLKSKSHGVGHDRYLVVGRKRRKEDLLDQLKQEGQVGHYELVMPQAN,nucleolus,NKRF_HUMAN
ZN185_HUMAN_nonidr_0,0.2256872496201132,0.2925086852277732,7.237498970261142,20.34406639004149,0.7156578065668975,0.5864478670514203,0.2699756132549132,0.6162188809465122,0.5681970106152571,-0.0593187906620742,0.5180210954293236,0.7357732905002294,0.3713200379867046,0.1282051282051282,0.2674812157314019,0.548568705132406,YSERTTGGICTYCNREIRDCPKITLEHLGICCHEYCFKCGICSKPMGDLLDQIFIHRDTIHCGKCYEKLF,cell_junction,ZN185_HUMAN
NPHP1_HUMAN_nonidr_0,0.0626316713483146,0.0411253511235955,6.2776918316831685,16.335026425972956,0.5652769763416041,0.7117828924768121,0.2271739130434782,0.5880434782608696,0.5415354004311059,-0.3224963715529753,0.1473808819177271,0.2799644865344776,0.0090452910645446,-0.0028643421704391,0.195542684462352,0.3610363491171512,LVIEKKP,cell_junction,NPHP1_HUMAN
NPHP1_HUMAN_nonidr_1,0.1718380062305295,0.2910187168265201,6.812064965197216,20.668565169769987,0.7224475401163816,0.6461573825760478,0.0743147448015122,0.3127878415719988,0.5078336514136079,-0.1428790394686422,0.4303548680618744,0.6632105996551806,0.0903790087463556,0.0071901875088115,0.208543093860844,0.5306944308024752,QKAISEAGIFCLVNHVSFCYLIVLMRNRM,cell_junction,NPHP1_HUMAN
NPHP1_HUMAN_nonidr_2,0.1956507237675938,0.3756389999070545,7.250671626369084,20.52962759126766,0.8885737999723337,0.6950779390309453,0.3293874974985761,0.6320702231563331,0.6336436528009471,-0.0418910187378849,0.6833089752407153,0.8229967563671312,0.089012369082034,0.0623562676720075,0.2641939028103199,0.7848937885502483,NVQSRGRIFLVSKPVLQINTVDVLTTMGAIPAGFRPSTLSQLLEEGNQFRANYFLQPELMPSQLAFRDLMWDATEGTIRSRPSRISLILTLWSCKMIPLPGMSIQVLSRHVRLCLFDGNKVLSNIHT,cell_junction,NPHP1_HUMAN
NPHP1_HUMAN_nonidr_3,0.3170103092783505,0.3964421855146124,6.131147540983607,20.71640560593569,0.4412213740458015,0.3155216284987277,0.2408163265306122,0.4877551020408163,0.2315175097276264,-0.2957198443579766,0.2847682119205298,0.4768211920529801,-0.4375,-0.1597222222222222,0.2494226327944572,0.2486602357984994,TWQP,cell_junction,NPHP1_HUMAN
NPHP1_HUMAN_nonidr_4,0.2236923878831619,0.5381175944556226,6.874742339511023,20.764198831529548,0.5953557880216117,0.6402941424594359,0.2678344442722059,0.5774774774774775,0.6056110931957434,-0.0783117198274076,0.6646933459625859,0.7228879537629628,0.1369158878504673,0.0675436125975381,0.2487066827297852,0.5430551040312094,WTFSPQVTRILPCLLDGDCFIRSNSASPDLGILFELGISYIRNSTGERGELSCGWVFLKLFDASGVPIPAKTYELFLNGGTPYEK,cell_junction,NPHP1_HUMAN
NPHP1_HUMAN_nonidr_5,0.1772451147619475,0.2998740581983694,7.070377562028048,21.625133120340788,0.8539236632405589,0.5859046704286229,0.1332542506919731,0.5509094503756425,0.4015091556642803,-0.0421610099862436,0.6734809805127109,0.6971426869465073,0.0456419459669205,0.0427392054644611,0.2292602377807133,0.708649932749917,SISRRAHGSVFYQIMTMRRQPQLLVKLRSLNRRSRNVLSLLPETLIGNMCSIHLLIFYRQILGDVLLKDRMSLQSTDLISHPMLATFPMLLEQPDVMDA,cell_junction,NPHP1_HUMAN
NPHP1_HUMAN_nonidr_6,0.1705272446503419,0.2405756988652089,6.667828000366737,20.584027218193214,0.7502246181491464,0.6409802021320781,0.2653578214059531,0.5731475617479417,0.4997996499145876,-0.0860060635072602,0.4347731307028744,0.6159974840129993,0.3822485207100591,0.0118343195266272,0.2105658693533424,0.5827298050139276,DKEFLKSTFLLVYHDCVLPLLHSTRLPP,cell_junction,NPHP1_HUMAN
NPHP1_HUMAN_nonidr_7,0.1439108061749571,0.1799313893653516,6.907534246575342,16.617906066536204,0.6661697538695762,0.1370926895154482,0.093695314019055,0.2839782228271437,0.0378689991054567,-0.1155635910963573,0.4958620689655172,0.5431835786212239,0.0202317136434376,0.0251887716871289,0.1356656948493683,0.4410088517036498,EETETARW,cell_junction,NPHP1_HUMAN
NPHP1_HUMAN_nonidr_8,0.1472340425531915,0.1336170212765957,5.69892952720785,15.124858372988896,0.5251309641795271,0.0915032679738562,0.097631426920855,0.326768578442312,0.1029836381135707,-0.1759439470611132,0.4256384576865298,0.3960941412118177,-0.0588406359053896,-0.0796586059743954,0.141148218970961,0.3142857142857143,KQNQE,cell_junction,NPHP1_HUMAN
NPHP1_HUMAN_nonidr_9,0.13140625,0.2290625,6.4405014231211775,18.897261499910503,0.6602053325160895,0.2003034901365705,0.0760935163076277,0.3288551861667235,0.1684877622377622,-0.0804911323328785,0.3091394586721689,0.6267731798290699,0.0144408502772643,0.0260801756007393,0.145649853215906,0.4239162059935991,DFLGEMRKNAV,cell_junction,NPHP1_HUMAN
MSH4_HUMAN_nonidr_0,0.1335761991499696,0.2457867512097447,7.085967130214918,17.00775255754476,0.6164611796067977,0.796446128635805,0.1440842338597949,0.5698162729658792,0.6990547032388037,-0.1310905220233276,0.4849650349650349,0.6032029244092432,0.0201626378522891,-0.0184686216548512,0.240604699168235,0.4640194257963148,ISAHSPSVIVAVVEGRGLARGE,chromosomes,MSH4_HUMAN
MSH4_HUMAN_nonidr_1,0.2273164587961586,0.3026920551543007,7.107203961272921,20.569095270572188,0.9368439110325216,0.7043823630991213,0.2287798408488063,0.5497347480106101,0.6126292069156464,-0.0450116384089524,0.728422444496577,0.6654726331900007,0.257555544153112,0.0365250146786332,0.262384011420414,0.874762014479221,ASIDLKNPQIILSQFADNTTYAKVITKLKILSPLEIIMSNTACAVGNSTKLFTLITENFKNVNFTTIQRKYFNETKGLEYIEQLCIAEFSTVLMEVQSKYYCLAAVAALLKYVEFIQNSVYAPKSLKICFQGSEQTAMIDSSSAQNLELLINNQDYRNNHTLFGVLNYTKTPGGSR,chromosomes,MSH4_HUMAN
MSH4_HUMAN_nonidr_2,0.2684911064577466,0.3665922376376728,7.105693909893593,20.909172288814656,0.9026732025607128,0.8375777952643251,0.3044570203931286,0.5806950208142563,0.7821824146256059,-0.0448589282332891,0.8726982249748426,0.7777030892448512,0.3636094674556213,0.0370962583946274,0.3203404834865509,0.7689572372858492,SNILEPLVDIETINMRLDCVQELLQDEELFFGLQSVISRFLDTEQLLSVLVQIPKQDTVNAAESKITNLIYLKHTLELVDPLKIAMKNCNTPLLRAYYGSLEDKRFGIILEKIKTVINDDARYMKGCLNMRTQKCYAVRSNINEFLDIARRTYTEIVDDIAGMISQLGEKYSLPLRTSFSSARGFFIQMTTDCIALPSDQLPSEFIKISKVKNSYSFTSADLIKMNERCQESLREIYHMTYMIVCKLLSEIYEHIHCLYKLSDTVSMLDMLLSFAHACTLSDYVRPEFTDTLAIKQGWHPILEKISAEKPIANNTYVTEGSNFLIITGPNMSGKSTYLKQIALCQIMAQIGSYVPAEYSSFRIAKQIFTRISTDDD,chromosomes,MSH4_HUMAN
MSH4_HUMAN_nonidr_3,0.1292488893480731,0.250971523920346,6.40911133075748,20.255991926667228,0.8068951200817578,0.5065760631302061,0.1144336529918196,0.4521378988508429,0.2658160552897395,-0.0540175557056043,0.7193467667588569,0.488197597655621,0.0347497299243788,-0.0146589259796806,0.1582423733557234,0.7012205139107662,FMKEMKEIAYILHNANDKSLIL,chromosomes,MSH4_HUMAN
MSH4_HUMAN_nonidr_4,0.1179312398663181,0.3016242721422004,7.5436507936507935,20.886223124480946,0.8820437578216027,0.5582356225572306,0.1646650403452805,0.5166072433852505,0.4446392053754017,-0.0559542611662139,0.6359338061465721,0.6251226692836114,0.2206176544136034,0.0292391559508594,0.2388980263157894,0.7480084212780003,GRGTNTEEGIGICYAVCEYLLSLKAFTLFATHFLELCHIDALYPNVENM,chromosomes,MSH4_HUMAN
MSH4_HUMAN_nonidr_5,0.1278432360909835,0.2347724011999478,7.09952,20.47219735402368,0.7775456344842754,0.4853230815847284,0.1270084162203519,0.4274270019291763,0.2073720498541501,-0.1355403634590575,0.5588101725703906,0.6299613045881702,0.0338122073180411,0.0249976681279731,0.1628474830954169,0.7081216124661247,TSRNKEAILYTYKLSKGLTEE,chromosomes,MSH4_HUMAN
MSH4_HUMAN_nonidr_6,0.0672259751579864,0.0501681395166966,5.386869234943028,15.260953608247425,0.3171653883547585,0.2696825396825397,0.2871674491392801,0.5480769230769231,0.357391304347826,-0.0815154994259471,0.3694029850746269,0.2746380196170014,-0.0135599882087059,-0.0785103665127247,0.2083798882681564,0.1684378048154422,VSSLPPS,chromosomes,MSH4_HUMAN
MSH4_HUMAN_nonidr_7,0.2297072023936738,0.2341343395560263,6.963676148796499,21.36837713808928,0.8626971227002351,0.6862471684127042,0.1870424253801389,0.6298532494758909,0.5071654705438322,-0.0334163476192246,0.9248257863158178,0.6024786339663365,0.1172897196261682,0.0249976681279731,0.2262539833447772,0.7571731197941506,KEITTQITRQILQNQRSTPEMERQRAVYHLATRLVQTARNSQLDPDSLRIYLSNLKKKYKEDFPRTEQVPEKTEE,chromosomes,MSH4_HUMAN
RRP8_HUMAN_nonidr_0,0.1949630571224279,0.3223627655655164,7.026985854189336,20.30972903471594,0.762549537648613,0.372681694044756,0.1223054027239108,0.4268893291819983,0.1771712624273119,-0.1256419529837251,0.5795266923500275,0.628125820117722,0.0096206706981858,0.0086586036283672,0.2029074395479636,0.6784418098233729,PEAFLLYHRGFQSQVK,nucleolus,RRP8_HUMAN
RRP8_HUMAN_nonidr_1,0.2497717192799373,0.3213603912236198,7.106493125419182,20.481394023288004,0.9195336621356108,0.6684969316146461,0.3519278983314602,0.597159301594467,0.8440512133296737,-0.0417092820165845,0.8879447765442642,0.6733100778491513,0.2228891556622649,0.0233147181787665,0.2869588891913966,0.7819056852018559,RQRPASLVVADFGCGDCRLASSIRNPVHCFDLASLDPRVTVCDMAQVPLEDESVDVAVFCLSLMGTNIRDFLEEANRVLKPGGLLKVAEVSSRFEDVRTFLRAVTKLGFKIVSKDLTNSHFFLFDFQKTGPPLVGPKAQLSGLQLQPCLYKRR,nucleolus,RRP8_HUMAN
U3IP2_HUMAN_nonidr_0,0.1358239212279177,0.3933360422592442,6.886486486486486,20.339927121290994,0.7152046326003599,0.7919599448516073,0.1393295956101634,0.5953715853513062,0.7226726118092149,-0.0585490609503728,0.8980348828032515,0.5932599517490953,0.0212903546734318,0.0042824503271648,0.2776683318089073,0.5476085726855634,LRGHQLSITCLVVTPDDSAIFSAAKDCSIIKWSVESGRKL,nucleolus,U3IP2_HUMAN
U3IP2_HUMAN_nonidr_1,0.2554130092279991,0.4413991934748097,7.509811616954474,22.221909717339333,0.8587719688193778,0.7931632104225184,0.1844684029410418,0.5986641134363744,0.7039028995993858,-0.0457788976644715,0.8884930530815818,0.7527426775194122,0.0427560432980431,0.0197294789978111,0.2780026990553306,0.7267080592671248,MAISSDGKYLASGDRSKLILIWEAQSCQHLYTFTGHRDAVSGLAFRRGTHQLYSTSHDRSVKVWNVAENSYVETLFGHQDAVAALDALSRECCVTAGGRDGTVRVWKIPEESQLVFYGHQGSIDCIHLINEEHMVSGADDGSVALWGLSKKRPLAL,nucleolus,U3IP2_HUMAN
U3IP2_HUMAN_nonidr_2,0.2153715189103733,0.409689895551078,6.991246112582891,22.232953978237,0.8149000348041301,0.7093220257404965,0.2705098154116613,0.5948757125227714,0.6632415432261782,-0.0704753961634695,0.5966668068345878,0.6979648473635522,0.0567758850748714,0.0393142983743665,0.2962896090999368,0.552897055561903,GEPGLEQPFWISSVAALLNTDLVATGSHSSCVRLWQCGEGFRQLDLLCDIPLVGFINSLKFSSSGDFLVAGVGQEHRLGRWWRIKEARNSVCIIPLRRVPVPPAAGS,nucleolus,U3IP2_HUMAN
PGRP1_HUMAN_nonidr_0,0.1363263392333841,0.3513069980072676,6.977975878342947,20.3902273498473,0.8360029628257951,0.158424568814933,0.127508854781582,0.3411268498427481,0.407557354925776,-0.0872528773809695,0.5438496583143508,0.5946438898527514,0.0377489493879042,0.01919795221843,0.1891666666666666,0.7354135444286465,MSRRSMLLAWALPSLLRLGAAQETED,stress_granule,PGRP1_HUMAN
PGRP1_HUMAN_nonidr_1,0.1602466708374296,0.3663419429797122,7.1313206424747175,21.60507042253521,0.8974351104426915,0.8090630221712347,0.1730814639905549,0.5261078483715964,0.7522167487684729,-0.055692137875671,0.511360525595401,0.7026404642984954,0.188551373593126,0.0360949453998561,0.2469312018270054,0.7773390586183637,IVPRNEWKALASECAQHLSLPLRYVVVSHTAGSS,stress_granule,PGRP1_HUMAN
PGRP1_HUMAN_nonidr_2,0.3314849044978435,0.6275988960441582,7.23927002365664,20.715217318229183,0.8990975705714567,0.7108969267428362,0.3198271204754186,0.5411749364282454,0.688401200171453,-0.0504219451107895,0.7010865169448114,0.7749117010368007,0.3298483108720614,0.0096489171526536,0.3069931892614712,0.7675657012336826,VQHYHMKTLGWCDVGYNFLIGEDGLVYEGRGWNFTGAHSGHLWNPMSIGISFMGNYMDRVPTPQAIRAAQGLLACGVAQGALRSNYV,stress_granule,PGRP1_HUMAN
PGRP1_HUMAN_nonidr_3,0.2288170282439623,0.3258288988948015,7.033086724208796,21.802120141342755,0.5867948213516198,0.3710791635548917,0.2711416490486258,0.5123034859876965,0.4521337946943483,-0.0851322590453025,0.5449936628643853,0.6465781409601634,0.0041564792176039,-0.0638141809290953,0.2420122365737593,0.4488907610221848,SPGNQLYHLIQNWPHYRSP,stress_granule,PGRP1_HUMAN
RPP40_HUMAN_nonidr_0,0.142156862745098,0.1873042983205237,6.61572856391373,17.139400315623355,0.7450214633831456,0.392500308375478,0.1598478323284524,0.4984926787252368,0.2628119429590018,-0.0539717083786724,0.2608695652173913,0.5431835786212239,0.0087892032082993,0.0016209596080879,0.2146182999458581,0.6004542317027008,LRRLREAPRHLLV,nucleolus,RPP40_HUMAN
RPP40_HUMAN_nonidr_1,0.1734028683181225,0.292831616565062,5.912218268090154,16.415857605177994,0.3214013709063214,0.2083015993907083,0.1687268232385661,0.488380716934487,0.2653061224489796,-0.2300814447592068,0.5576363636363636,0.498,-0.0167533217793183,-0.0689816987329892,0.2357135140974397,0.221058495821727,NFGNHK,nucleolus,RPP40_HUMAN
RPP40_HUMAN_nonidr_2,0.3227091633466135,0.3414562751555067,6.6293391188251,20.570886075949367,0.8609020366691044,0.5565933910884104,0.1835899219169854,0.5900796284007963,0.7499590007106544,-0.0458159214983296,0.8951911220715166,0.7136044752166537,0.1505392699115044,0.0565098248897206,0.276460726243833,0.6647019547994704,LVQTHYYNYRVSFLIPECGILSEELKNLVMNTGPYYFVKNLPLHELITPEFISTFIKKGSCYALTYNTHIDEDNTVALLPNGKLILSLDKDT,nucleolus,RPP40_HUMAN
RPP40_HUMAN_nonidr_3,0.1834044689932212,0.3812612612612612,7.10069090497225,21.42693018398008,0.7672627962294071,0.6297029050021433,0.166716723549488,0.534625671989619,0.5380325236582283,-0.0789703556223588,0.618343616317715,0.6110358022255206,0.1479897348160821,0.0172462910612933,0.2173478454020435,0.6564046155127155,SQFSGRKIMKFIVSIDLMELSLNLDSKKYERISWSFKEKKPLKFDFLLAWHKTGSEESTMM,nucleolus,RPP40_HUMAN
RPP40_HUMAN_nonidr_4,0.2433324560249155,0.4507026789635485,6.813768902999415,21.3554946192053,0.8912580464196403,0.6907952605163761,0.3138640199078973,0.6407609795587937,0.7056545636242505,-0.0407308717167872,0.745600301897569,0.6348478764478764,0.1025664444241483,0.0824320286824021,0.2650146523685312,0.7933095789321372,KYQIQEHQPKVALSTLRDLQCPVLQSSELEGTPEVSCRALELFDWLGAVFSNVDLNNEPNNFISTYCCPEPSTVVAKAYLCTITGFILPEKICLLLEHLCHYFDEPKLAPWVTLSVQGFADSPVSW,nucleolus,RPP40_HUMAN
RPP40_HUMAN_nonidr_5,0.2074702456318055,0.366620335721159,6.690114068441065,22.83139050791008,0.7197284292399974,0.6832198347792738,0.2555555555555555,0.5594594594594594,0.5993772497843182,-0.0375,0.5996380726015558,0.6408650596981302,0.1169831285638704,0.0223184543637574,0.2338709677419354,0.6073907142308381,HGFRKGGEHLYNFVIFNNQDYWLQMAVGANDHCPP,nucleolus,RPP40_HUMAN
PIAS1_HUMAN_nonidr_0,0.0749334347660707,0.2174947932163046,6.196051502145923,17.362832618025752,0.6244880416645598,0.4088879127315323,0.0569959288622241,0.1899647887323943,0.2654663857498563,-0.1925494304046091,0.4219161778457876,0.6046098306026104,0.0055092995319166,0.027836460792842,0.1429538453037147,0.4482117310443491,VMSLRVSELQV,nuclear_speckle,PIAS1_HUMAN
PIAS1_HUMAN_nonidr_1,0.0700902934537246,0.1107223476297968,6.313336120401337,17.274233896185116,0.763284529538241,0.4440842787682333,0.1428571428571428,0.5348958333333333,0.4639278557114228,-0.0943570767807585,0.4362275106000993,0.4492321290465142,-0.0002162006341885,-0.077709751342477,0.1996553209823352,0.513743472844382,LLKAGCSPAVQMKI,nuclear_speckle,PIAS1_HUMAN
PIAS1_HUMAN_nonidr_2,0.1407865288287328,0.2503463710966642,4.757696127110228,19.0317775571003,0.0749279538904899,0.1435158501440922,0.1815440289505428,0.51145958986731,-0.3378891419893697,-0.1617312072892938,0.0615925058548009,0.1121779859484777,-1.5147058823529411,-1.531512605042017,0.1919084939631434,0.1167125608981148,RFP,nuclear_speckle,PIAS1_HUMAN
PIAS1_HUMAN_nonidr_3,0.1566260129327985,0.2451678535096643,6.062548451589212,20.038223994553324,0.698707449869417,0.3672472637401436,0.1707075705096487,0.5209090909090909,0.2945104433574035,-0.0685400959561343,0.6370565045992116,0.4339009790728969,0.0094551243397091,0.0072360645456957,0.1839561309288258,0.5684770541674476,HPDIKLQKLPFYDLLDELI,nuclear_speckle,PIAS1_HUMAN
PIAS1_HUMAN_nonidr_4,0.1619828259172521,0.2503463710966642,6.713855421686747,18.897261499910503,0.5854397506925207,0.283008356545961,0.0806893219520051,0.1867718902668169,0.0611484863046612,-0.2269341662662181,0.1717451523545706,0.616035703293321,-0.9209809264305178,-0.4659400544959128,0.1458912940218497,0.3223487118034751,QRFR,nuclear_speckle,PIAS1_HUMAN
PIAS1_HUMAN_nonidr_5,0.1300893743793446,0.2750413643884434,6.039437719640765,18.91992396340739,0.5770720371804803,0.2785437645236251,0.1376269886908185,0.4544953875808894,0.3763066202090592,-0.077341873498799,0.6933835395373857,0.365814696485623,0.0200289780959686,-0.089751273599041,0.2016151804371152,0.5199806248486316,FAFALTPQQV,nuclear_speckle,PIAS1_HUMAN
PIAS1_HUMAN_nonidr_6,0.1484335321347206,0.2714578567396535,6.363332508046546,18.46129994036971,0.523230150697256,0.5840801265155509,0.251349267540478,0.4988434849653045,0.3857761348963212,-0.0758078476630121,0.5784894151417295,0.6304907310654437,0.1344603381014304,0.0390117035110533,0.237395607794618,0.49128533658735,SGTKCDFTVQVQLRFCLSETSCPQED,nuclear_speckle,PIAS1_HUMAN
PIAS1_HUMAN_nonidr_7,0.0617403398439862,0.104492955191389,6.514627111660486,15.934662818157964,0.2555420447105042,0.3536619586568141,0.2138540213854021,0.5132496513249651,0.3923342348223445,-0.114293238527882,0.3944596176355833,0.5327740928599297,-0.0334805381534353,-0.0782581904077231,0.2610794207985958,0.1729905314810975,KVNTKPC,nuclear_speckle,PIAS1_HUMAN
PIAS1_HUMAN_nonidr_8,0.1985249909816024,0.4059812353401094,7.323665223665223,21.054621586150866,0.6822357153977892,0.7996668959774068,0.1677740863787375,0.5439848437006631,0.7709712174849931,-0.125064632885212,0.4356676557863501,0.5930185028748944,0.0472953427827596,0.0085044163284793,0.2806933333333333,0.6032908432429349,RLSTTVPNTIVVSWTAEIGRNYSMAVYLVKQLSSTVLLQR,nuclear_speckle,PIAS1_HUMAN
PIAS1_HUMAN_nonidr_9,0.2304245786217196,0.3827996198382373,6.736582555593962,21.375672293811604,0.7603196009044544,0.5758370895738886,0.2421323529411764,0.5778983221899836,0.6371069253711032,-0.0671447374702484,0.7058408245870005,0.7119949481878695,0.1026744284147473,0.0135196962071647,0.2531562335612835,0.7224484730886815,EIATTSLRVSLLCPLGKMRLTIPCRALTCSHLQCFDATLYIQMNEKKPTWVCPVCDKKAPYEHLIIDGLFMEILKYCTDCDEIQFK,nuclear_speckle,PIAS1_HUMAN
PIAS1_HUMAN_nonidr_10,0.0508109897384971,0.1306818181818181,5.853215077605322,14.422867513611616,0.300648607401755,0.2418924074780618,0.0956740442655935,0.3793762575452716,-0.0239643084767367,-0.1707746478873239,0.5787762341117352,0.4141294708838309,-0.001694197373994,-0.0369335027530707,0.2380348652931854,0.2531853678586108,VDGCL,nuclear_speckle,PIAS1_HUMAN
PIAS1_HUMAN_nonidr_11,0.2533333333333333,0.2966666666666667,6.401266551525619,19.490534979423867,0.4415539766215906,0.251478069572391,0.1748618972925049,0.5394736842105263,0.2566525739865705,-0.1970374510899944,0.7059419837804117,0.6110292569985266,0.004093886462882,0.0226528384279476,0.2613221816887623,0.2313908974904296,LSGDNQHYN,nuclear_speckle,PIAS1_HUMAN
PIAS1_HUMAN_nonidr_12,0.0893409995577178,0.062140645731977,5.685953559192996,14.794822992006091,0.376,0.028,0.1136518191091465,0.3452057123427405,0.1059121087575087,-0.7173569396142903,0.5972716488730724,0.2775800711743772,-0.001694197373994,-0.0369335027530707,0.1515550239234449,0.1456937799043062,DDQ,nuclear_speckle,PIAS1_HUMAN
PIAS1_HUMAN_nonidr_13,0.1916316392816201,0.3119984715322889,5.867459269044474,19.82824427480916,0.6016131164881661,0.3590361445783132,0.2166739036039948,0.4662704618913564,0.6378698224852071,-0.1187249343106071,0.4371022036151735,0.4224026811033771,-0.0307143478639171,-0.0707255274569994,0.2465533824943892,0.5,FFPYTSSQMFL,nuclear_speckle,PIAS1_HUMAN
PIAS1_HUMAN_nonidr_14,0.08195211786372,0.2941988950276243,5.684520194351655,17.59377646062659,0.5128858746492049,0.5357627447179686,0.1090190060205406,0.3732419335775913,0.4349317866187403,-0.1288568806043917,0.4891193878161057,0.4099061397740181,0.0071033938437253,-0.030890712679815,0.210055707341305,0.3292682926829268,ASIFGIIPDIISLD,nuclear_speckle,PIAS1_HUMAN
RL1D1_HUMAN_nonidr_0,0.109574975246617,0.3579054975011358,6.76,21.02172717271727,0.7183915411727011,0.5893048338457609,0.154083885209713,0.5144691952638972,0.3718149813517376,-0.0749940534846579,0.6188970705938851,0.6349754590074532,0.0805617147080561,0.033535278217914,0.2239263803680981,0.6282643214852816,CKSRKNNYGLLLNENESLFLMVVLWKIPSKELRVR,nucleolus,RL1D1_HUMAN
RL1D1_HUMAN_nonidr_1,0.1088966509143209,0.2135298952126566,6.456819414316703,16.84639370932755,0.4666752832708629,0.3147869674185464,0.1488131324907895,0.4717157114209765,0.2271018895124337,-0.1915680473372781,0.6445837063563116,0.6112692088787707,-0.001593710157246,-0.0165745856353591,0.1747716208084896,0.3650699196667658,HSIRSDSE,nucleolus,RL1D1_HUMAN
RL1D1_HUMAN_nonidr_2,0.2488011138039498,0.3197668864048915,7.177939712601138,21.737986114262377,0.8587628789065705,0.7081220044441344,0.1815948115768121,0.6060208361520768,0.6986035327846111,-0.0405559658900154,0.6784434203789043,0.7543643574648874,0.4646053702196908,0.0319130442340956,0.290898830980696,0.738902897016142,LLNKHGIKTVSQIISLQTLKKEYKSYEAKLRLLSSFDFFLTDARIRRLLPSLIGRHFYQRKKVPVSVNLLSKNLSREINDCIGGTVLNISKSGSCSAIRIGHVGMQIEHIIENIVAVTKGLSEKLPEKWESVKLLFVKTEKSAALPIF,nucleolus,RL1D1_HUMAN
RL1D1_HUMAN_nonidr_3,0.2444782939832444,0.4554455445544554,7.1749698303400296,21.615384615384617,0.8963334846583171,0.6159732334789543,0.4237672119571613,0.644435403104657,0.8138727896932334,-0.0413073423216596,0.8141763098410985,0.7458445767934982,0.0790744817319417,0.0501978475713493,0.2914452411795306,0.7715833494560446,SNWDEATKRSLLNKKKKEARRKRRERNFEKQKERKKKRQQARKTASVLSKDDVAPESGDTTVKKPESKKEQTPEHGKKKRGRGKAQVKATNESEDEIPQLVPIGKKTPANEKVEIQKHATGKKSPAKSPNPSTPRGKKRKALPASETPKAAESETPGKSPEKKPKIKEEAVKEKSPSLGKKDARQTPKKPEAKFFTTPSKSVRKASHTPKKWPKKPKVPQST,nucleolus,RL1D1_HUMAN
NOL4_HUMAN_nonidr_0,0.2483185364541296,0.3389830508474576,6.542934502320784,20.774349192100537,0.7106524022053032,0.3303146298198114,0.1297016861219196,0.324254215304799,0.30567081604426,-0.1113256468251779,0.4808760024676126,0.6102197735666284,0.0184653043848446,-0.0561409110259685,0.2116461366181411,0.5420112411842624,RDMYRQFQDWCLRTYG,nucleolus,NOL4_HUMAN
NOL4_HUMAN_nonidr_1,0.2043551088777219,0.359181433275835,6.411386470194239,22.367263526664072,0.5927243330638642,0.5613879003558719,0.1536665109761793,0.4700607192900514,0.3471049565833563,-0.1032748208270888,0.6771025765678172,0.4833709839357429,-0.0076244514384502,-0.015027261846713,0.2326053834433722,0.5319545685709443,SSTDNAKFKFWVKSKGFQ,nucleolus,NOL4_HUMAN
NOL4_HUMAN_nonidr_2,0.1681830867987719,0.2858219369243651,6.463605223720831,19.859480709453283,0.735432812564071,0.6299944095498043,0.0692616959064327,0.2711168450955825,0.6173365370613078,-0.0982385794071316,0.5533376521715658,0.5735312513030063,0.0031476176115802,0.0011196021506776,0.1932171144587668,0.4738454357149109,SLRRVAVVEDFFDIIYSMHV,nucleolus,NOL4_HUMAN
NOL4_HUMAN_nonidr_3,0.1499336576735957,0.2450243255196815,7.09453896816685,18.96745391705069,0.7328705101116813,0.3463054187192118,0.139860349426114,0.4201204710959274,0.1857288481141692,-0.08600583090379,0.4295009124811553,0.6150257093886878,0.0134122343023823,0.0113187534019064,0.1903442395822231,0.4483501530785803,YAFLPREAVTRFL,nucleolus,NOL4_HUMAN
NOL4_HUMAN_nonidr_4,0.128268261226404,0.2565905096660808,6.257716894977169,19.791501234037987,0.6578387953941541,0.532070707070707,0.0742219568624524,0.231675249260436,0.3662170087976539,-0.146845560947759,0.3770200674835731,0.5900119311402762,0.0381194409148665,-0.0877659574468085,0.194899440182459,0.475656485968669,KAFNMFVRLFVD,nucleolus,NOL4_HUMAN
NOL4_HUMAN_nonidr_5,0.1883308714918759,0.3219962399589813,6.919249455520188,18.941692681234827,0.8356413725249047,0.2834122626880684,0.0962585700293829,0.3665426052889324,0.0876852108859722,-0.0570689149168912,0.5818506362641792,0.625920612147298,0.013726768829475,0.0277469840234757,0.1585881319646484,0.704352236498889,AGYRESAAFLLRSADELENLILQQN,nucleolus,NOL4_HUMAN
RPP14_HUMAN_nonidr_0,0.2621082621082621,0.3763175906913073,6.674352366743523,21.346771037181995,0.9234658830712869,0.5891891366094705,0.197318492284341,0.6133748349368043,0.5957380327459068,-0.0612512030798845,0.7613334871380782,0.6960936729787734,0.2150688424273329,0.0219913309535951,0.2539222596392304,0.8488401217679473,MPAPAATYERVVYKNPSEYHYMKVCLEFQDCGVGLNAAQFKQLLISAVKDLFGEVDAALPLDILTYEEKTLSAILRICSSGLVKLWSSLTLLGSYKGKKCAFRVIQVSPFLLALSGNSRELVLD,nucleolus,RPP14_HUMAN
LC7L3_HUMAN_nonidr_0,0.0813402464180186,0.1042537771087695,5.685953559192996,16.620541155439994,0.7971407276915781,0.3605062136586478,0.0723846424797464,0.2728660326406011,0.1630452540434569,-0.0817611374012383,0.5099179206566348,0.3552859618717504,-0.0066217669364423,-0.0572873940388296,0.1336405529953917,0.6846817075735272,MISAAQLLDE,nuclear_speckle,LC7L3_HUMAN
LC7L3_HUMAN_nonidr_1,0.3548387096774194,0.3117913228639872,6.245180136319377,21.084004834810635,0.6713082741459717,0.50927927000789,0.1662995594713656,0.5234030837004405,0.46875,-0.0754013697092174,0.594515931372549,0.5978037062457103,0.0359955005624297,0.0215351678105912,0.2383275656663073,0.4102689157599098,WDHESVCKYYLCGFCPAELFTNT,nuclear_speckle,LC7L3_HUMAN
LC7L3_HUMAN_nonidr_2,0.1779190602207448,0.2987403452387123,6.686539013489688,20.65867600958879,0.8533398496456756,0.4875255623721881,0.0875558727416143,0.3323467784180199,0.4045265475899192,-0.0865466175345894,0.418998364496309,0.6324252907532639,0.1263922847052431,0.0073900026528214,0.2109828982004205,0.7376863253402463,FMKVGYERDFLRYLQSLLAEVERRIR,nuclear_speckle,LC7L3_HUMAN
LC7L3_HUMAN_nonidr_3,0.2442061256021085,0.295479738884099,7.040344876060166,19.33356142623231,0.9174838683712756,0.7431570272422542,0.2212970751392157,0.6069214048735843,0.6641046286192539,0.0106344410876132,0.7786324688416423,0.6494223509744882,0.0943716850615355,0.0706210692835003,0.2828642294834466,0.7778520952685608,TDKIDVLLQQIEELGSEGKVEEAQGMMKLVEQLKEERELLRSTTSTIESFAAQEKQMEVCEVCGAFLIVGDAQSRVDDHLMGKQHMGYAKIKATVEELKEKLRKRTEEPDRDERLKKEKQEREEREKEREREREERERKRRREEEEREKERARDRERRKRSRSRSRHSSRTSDRRCSRSRDHKRSRSRERRRSRSRDRRRSRSHDRSERKHRSRSRDRRRSKSRDRKSYKHRSKSRDREQDRKSKEKEKRGSDDKKSSVKSGSREKQSEDTNTESKESDTKNEVNGTSEDIKSEGDTQSN,nuclear_speckle,LC7L3_HUMAN
RPP29_HUMAN_nonidr_1,0.1925655689213173,0.2841376325470677,6.422533158431715,22.349492671927848,0.8385946156089027,0.2619593477445804,0.2307692307692307,0.515079365079365,0.2581677419354838,-0.0511070272162422,0.6117977528089887,0.61291258915243,0.0149299893156385,0.018135297756284,0.2089190153407064,0.6255890517074431,DIKPEQQRYSLFLPLHELWKQYIRDLCSGLKPDT,nucleolus,RPP29_HUMAN
RPP29_HUMAN_nonidr_2,0.2029298690856094,0.2952986406010503,6.700690202014741,19.48811851079543,0.7603948431847963,0.7317078754578754,0.1918328584995251,0.6564282580078982,0.6763623392836876,-0.0613760578279266,0.7006277300471521,0.6721745811355078,0.091456553286926,0.0313805713744105,0.2875423523717328,0.6728923377331457,LLKADLHGAIISVTKSKCPSYVGITGILLQETKHIFKIITKEDRLKVIPKLNCVFTVETDGFISYIYGSKFQLRSSERSAKKFKAKGTIDL,nucleolus,RPP29_HUMAN
IF2A_HUMAN_nonidr_0,0.2613393130160024,0.3191412592458957,7.061460592913956,20.661292538817385,0.886968680848753,0.919409282700422,0.192,0.5647577092511014,0.8419986495611074,-0.0526485115724532,0.6675362887406826,0.7627361070211602,0.0794119293867332,0.0627969427804172,0.2550629785132131,0.7337948689201562,MPGLSCRFYQHKFPEVEDVVMVNVRSIAEMGAYVSLLEYNNIEGMILLSELSRRRIRSINKLIRIGRNECVVVIRVDKEKGYID,stress_granule,IF2A_HUMAN
IF2A_HUMAN_nonidr_1,0.0865895953757225,0.0546820809248554,5.021968616262482,16.596610169491527,0.5406370943733254,0.4259114243452536,0.1433126095966842,0.4582858228810338,0.3662170087976539,-0.0524539080758244,0.5595180722891566,0.2640963855421687,-0.0409482758620689,-0.1078744346900771,0.2166395840103997,0.2380851514509638,RVSPE,stress_granule,IF2A_HUMAN
IF2A_HUMAN_nonidr_2,0.2422930930504807,0.4526588385540459,7.144500320992938,20.255289808230984,0.8416559265768404,0.5849655230762723,0.3146482122260668,0.5580185478398553,0.4773787907872501,-0.0404646040605792,0.7914289182954959,0.7357457338432368,0.051847302582668,0.0185852802224342,0.318091095951622,0.7044221771355224,DKFTKSKTVYSILRHVAEVLEYTKDEQLESLFQRTAWVFDDKYKRPGYGAYDAFKHAVSDPSI,stress_granule,IF2A_HUMAN
IF2A_HUMAN_nonidr_3,0.1062459755312298,0.076297335203366,6.057351407716372,14.88601261692408,0.555229716520039,0.060756447853222,0.1460081515224167,0.3768880364421002,0.3782608695652174,-0.5517179670722978,0.6143024618991794,0.2860492379835873,0.0268373245251857,0.0100271322401793,0.1493498887196907,0.1398617781422045,NEDER,stress_granule,IF2A_HUMAN
IF2A_HUMAN_nonidr_4,0.1739879414298019,0.3286821705426356,6.397081813444502,17.83918094572017,0.7551774578489491,0.5821041939164556,0.1431290195563722,0.4739154310818231,0.5188080117244749,-0.0763610981852024,0.6756311745334797,0.5986785956031666,0.1434535104364326,-0.0003783807025841,0.2478219727868959,0.5878936788027697,RLTPQAVKIRADIEVACYGYEGIDAVKEA,stress_granule,IF2A_HUMAN
IF2A_HUMAN_nonidr_5,0.2164251207729468,0.2378063816146372,6.598739495798319,18.851630255790976,0.9018532936294535,0.6614139978819523,0.138704533701086,0.5220940643598252,0.7135953608247423,-0.0356865787432117,0.922648779791637,0.5886381240757693,0.028859707693449,0.026362281088021,0.2933846713558088,0.805220278718512,KEKIEEKRGVFNVQMEPKVVTDTDETELARQMERLERENAEVDGDDDAEEMEAKAED,stress_granule,IF2A_HUMAN
PERE_HUMAN_nonidr_0,0.1181117533718689,0.1978805394990366,5.319906069364162,17.222908305032416,0.8054446643631118,0.4800408669634387,0.1369213255755122,0.3589678725018972,0.3044906386373234,-0.1011566121317234,0.3995895362372113,0.3159466454310173,-0.0056483903689071,-0.0649529042386185,0.1690140845070422,0.5838483842661478,MHLLPALAGVLATLVLA,stress_granule,PERE_HUMAN
PERE_HUMAN_nonidr_1,0.2263197026022304,0.3778438661710037,6.569385670509266,20.34157650695517,0.8456553790545039,0.392500308375478,0.1235019973368841,0.3091718610863758,0.2628119429590018,-0.0536311151625645,0.4708415575094204,0.5649405772495756,0.012449000941521,-0.0014227429647452,0.1650430561558666,0.7016145067006004,VLRDCIAEAKLLVDAAYNWTQKS,stress_granule,PERE_HUMAN
PERE_HUMAN_nonidr_2,0.0571020699500356,0.07209136331192,4.988769780500255,15.911654135338344,0.2797488823361552,0.1387446908919301,0.1469194312796208,0.4958540630182421,0.441077441077441,-0.0814730555950519,0.5602693602693603,0.2794612794612794,-0.0246826516220028,-0.115549215406562,0.1859225026661926,0.0867469879518072,ASPMD,stress_granule,PERE_HUMAN
PERE_HUMAN_nonidr_3,0.1885389326334208,0.2541677810466257,6.94070796460177,19.744341031828107,0.7057308736773106,0.3936608879064081,0.1290564678334484,0.4392843204947315,0.373791170287316,-0.1343019282764358,0.4218907802871738,0.7049924357034796,0.0934825543120474,-0.0161290322580645,0.2901631240731587,0.5304509530450953,YFKQPVAATRTVVRAADYMHVALGLL,stress_granule,PERE_HUMAN
PERE_HUMAN_nonidr_4,0.1045277796085151,0.1685889408818295,6.260695311771833,17.36359399757666,0.6305513543242128,0.2797641293966197,0.097631426920855,0.2451376853456576,0.2621776504297994,-0.1507360563964337,0.4755980861244019,0.5330694252530156,-0.0363873552775642,-0.1213768115942029,0.1514536849222447,0.5807303570521611,PQLRLLS,stress_granule,PERE_HUMAN
PERE_HUMAN_nonidr_5,0.0153281994866153,0.0272827282728272,2.953881536475145,16.494593285990963,0.7420424024229956,0.1106920395451168,0.0303794691818381,0.0936608905461724,-0.137151424287856,-0.1324737631184407,0.0567634317178833,0.0560346572735738,-0.0504193310623717,-0.1269945616446542,0.0662630966239813,0.5865890570430733,ALR,stress_granule,PERE_HUMAN
PERE_HUMAN_nonidr_6,0.2200509770603228,0.3196686491079014,7.082394263134787,21.01773765268189,0.8743905024379902,0.1762338487608557,0.1168069173164517,0.4329109405675531,0.6135328002751268,-0.0568554137917742,0.60074200913242,0.5058828302499189,0.3606831882116544,0.0174146014735432,0.1939404563648581,0.7434386716657739,NQALARWLPAEYEDGLS,stress_granule,PERE_HUMAN
PERE_HUMAN_nonidr_7,0.1440048815214075,0.2849837817210456,6.991649085794656,17.184909312797206,0.595977773184344,0.3684312810945274,0.185941893158388,0.4169982002462821,0.5310199789695058,-0.0838645856232138,0.4221987720644666,0.613763936947328,0.0207870742193036,-0.0593709453715717,0.2233852438090375,0.435144553433144,TPSRRRNGFLLPLVRAVSNQI,stress_granule,PERE_HUMAN
PERE_HUMAN_nonidr_8,0.2632233460454319,0.3661590863554398,7.112094395280236,19.770382250735096,0.6854579388815183,0.3440495318300183,0.1995884773662551,0.565843621399177,0.3843008994276369,-0.0511358493981355,0.6226108956906746,0.6362011743681388,0.0876589893434169,0.0239229384989943,0.2244444444444444,0.605720620842572,DRGRALMFMQWGQFIDHDLDFSPESP,stress_granule,PERE_HUMAN
PERE_HUMAN_nonidr_9,0.1106347554630593,0.1892425482737034,6.398264809902741,17.099524756852343,0.6252634992703097,0.39807493984187,0.2653578214059531,0.5731475617479417,0.301572617946346,-0.088527551942186,0.5461647422414904,0.5557092787308615,0.0140508346615216,0.012058552134888,0.2254303164908384,0.4230863291758376,GVDCERTCAQLPP,stress_granule,PERE_HUMAN
PERE_HUMAN_nonidr_10,0.2155720338983051,0.3185282118389654,6.917239623121976,20.659538751581827,0.7267704316749741,0.432028868288434,0.1579667198541144,0.5168680191474812,0.3445874827949154,-0.1220705457913853,0.5652987401771236,0.658364009081491,0.0509356549584709,0.0112348362900147,0.215578619248344,0.5642243328810493,LTSFVDASMVYGSEVSLSLRLRNRTNYLGLLAINQRFQDNGR,stress_granule,PERE_HUMAN
PERE_HUMAN_nonidr_11,0.1992551210428305,0.3165735567970205,6.934615180326127,18.15363349131121,0.4948185579845472,0.4472415554562288,0.2581721147431621,0.5516586292561741,0.6487876561351947,-0.0830507197226618,0.889978494623656,0.6574639469923347,0.0122778083195895,-0.0104452996151731,0.2535211267605634,0.4076158940397351,PFDNLHDDPCLLTNRSARIPC,stress_granule,PERE_HUMAN
PERE_HUMAN_nonidr_12,0.0448478376935397,0.0413240790176187,4.894083272461651,14.060701616081989,0.3619114546732255,0.1672522839072382,0.1173391990291262,0.333131067961165,0.1479028697571744,-0.2159676232523914,0.3883445074780814,0.2699973658793573,-0.0244269836746325,-0.0618002686968204,0.1623152983001888,0.1821180674867706,RSTE,stress_granule,PERE_HUMAN
PERE_HUMAN_nonidr_13,0.1636453935932456,0.2021508854208781,6.747700394218134,17.03909329829172,0.697439272466196,0.1883817427385892,0.0953749534301985,0.3293948586939166,0.0069184202940328,-0.1540940106141015,0.4179542122476599,0.589827450095861,0.0267877050485746,0.0041089345437171,0.12734850037576,0.549618565292647,FMREHNRL,stress_granule,PERE_HUMAN
PERE_HUMAN_nonidr_14,0.3643916913946587,0.4097593142103528,7.483759430008382,23.208995664739884,0.8810363085856904,0.7039098475755651,0.2709668997128021,0.645246946362188,0.7507418397626113,-0.0360803032430155,0.954882747990752,0.7350936182952948,0.1267682560489376,0.0401041666666666,0.2761776177617762,0.7297070164453087,WNGDKLYNEARKIMGAMVQIITYRDFLPLVLGKARARRTLGHYRGYCSNVDPRVANVFTLAFRFGHTMLQPFMFRLDSQYRASAPNSHVPLSSAFFASWRIVYEGGIDPILRGLMATPAKLNRQDAMLVDELRDRLFRQVRRIGLDLAALNMQRSRDHGLPGYNAWRRFCGLSQPRNLAQLSRVLKNQDLARKFLNLYGTPDNIDIWIGAIAEPLLPGARVGPLLACLFENQFRRARDGDRFWWQKRGVFTKRQRKALSRISLSRIICDNTGITTVSRDIFRANIYPRGFVNCSRIPRLNLSAWRGT,stress_granule,PERE_HUMAN
GRAA_HUMAN_nonidr_0,0.1712223923026459,0.3458923084672342,7.087231784524928,21.113025973388325,0.7917244269641187,0.5640869722418526,0.2260297592438853,0.5486085204804895,0.8835215812827754,-0.0534129147190036,0.779108914868828,0.7448465027956536,0.0831628354796004,0.0097366083512193,0.2833386401134686,0.6650033358009121,MRNSYRFLASSLSVVVSLLLIPEDVCEKIIGGNEVTPHSRPYMVLLSLDRKTICAGALIAKDWVLTAAHCNLNKRSQV,stress_granule,GRAA_HUMAN
GRAA_HUMAN_nonidr_1,0.1403369672943508,0.0666005946481665,5.751050126015122,15.74964995799496,0.7551774578489491,0.0552005543151897,0.2145178764897074,0.5308775731310943,-0.0767272408041436,-0.3759476223294279,0.3670024116896013,0.2686905944105547,0.0098491264389448,0.0040776638123019,0.1891666666666666,0.3352674780639683,REEP,stress_granule,GRAA_HUMAN
GRAA_HUMAN_nonidr_2,0.3504637753823013,0.3175525220253655,6.538528515454941,20.147235546579147,0.8561450509496245,0.6567367975691373,0.3219264892268694,0.5670886075949367,0.6621893888515782,-0.0343353464070027,0.9250642090950296,0.5893847940472264,0.3938679245283019,0.0177238659396948,0.2812425895186151,0.7579648749134125,MLVKKEFPYPCYDPATREGDLKLLQLMEKAKINKYVTILHLPKKGDDV,stress_granule,GRAA_HUMAN
GRAA_HUMAN_nonidr_3,0.302720357557265,0.3019610504173169,6.939742979533556,18.61968857218264,0.7254541273856059,0.678237940127191,0.2569817400644468,0.4467518997046156,0.6748684678982555,-0.2228285584356525,0.6936275335466846,0.7253187370669515,0.0094551243397091,0.0072360645456957,0.2744773033117799,0.5522905898180274,LREVNITIIDRKVCNDRNHYNFNPVIGMNMVCAGSLRG,stress_granule,GRAA_HUMAN
GRAA_HUMAN_nonidr_4,0.2024245485541103,0.3470890542302677,7.31664656212304,21.232713563533544,0.543952707734256,0.7934715664134675,0.3891785059578369,0.5491188127160807,0.6402014871671864,-0.0689486850936603,0.9579301768327824,0.6332230797500918,0.0841809132222462,0.0343132530120481,0.317817195797085,0.5031498332441223,DSGSPLLCEGVFRGVTSFGLENKCGDPRGPGVYILLSKKHLNWIIMTIKGAV,stress_granule,GRAA_HUMAN
EPCAM_HUMAN_nonidr_0,0.1741259075277035,0.2995735607675906,6.701958011530512,20.770125936553484,0.8848802232450259,0.4709938770283798,0.2592461197339246,0.5387112448179967,0.4727672679278487,-0.050732200336164,0.6998112621544783,0.6422844175491679,0.0227983588035916,0.0058035135785556,0.2630457330378549,0.7955962743872137,MAPPQVLAFGLLLAAATATFAAAQEECVCENYKLAVNCFVNNNRQCQCTSVGAQNTVICSKLAAKCLVMKAEMN,cell_junction,EPCAM_HUMAN
EPCAM_HUMAN_nonidr_1,0.1667968580479972,0.4869417108251325,6.780652561814938,20.726555541417483,0.6912683694618897,0.6746905089408528,0.2528891910265126,0.5723397071145405,0.5901432386501578,-0.0524539080758244,0.6752439408246773,0.6746931067044382,0.0319041892654674,0.0181117628291653,0.2576436902018297,0.5615104004967402,DPDCDESGLFKAKQCNGTSMCWCVNTAGVRRTD,cell_junction,EPCAM_HUMAN
EPCAM_HUMAN_nonidr_2,0.1526591760299625,0.4159550561797753,6.306313328137178,22.15908124202467,0.6926703579847596,0.5493375837159653,0.112733644859813,0.3250865107855503,0.4825870646766169,-0.119152841169794,0.4162174500886727,0.6158105322717536,0.0097463451205797,0.0309883793577408,0.2196664749856239,0.5651199634614561,TCSERVRTYWIIIELKHKAR,cell_junction,EPCAM_HUMAN
EPCAM_HUMAN_nonidr_3,0.1469539771215748,0.2415029684822887,6.948786039453718,19.548578673428533,0.526148894883809,0.6871859296482412,0.1474749939009514,0.5517611805280714,0.633551673944687,-0.0663123491859861,0.7718398284970522,0.6567350765704761,0.1956094364351245,0.0050786369593709,0.2027964389098257,0.3743071707108226,TTRYQLDPKFITSILYENNVITIDLV,cell_junction,EPCAM_HUMAN
EPCAM_HUMAN_nonidr_4,0.2225517257111572,0.2758435418009886,6.279125059438897,20.805781916957702,0.6672161625042357,0.4805336688075217,0.1236809259049132,0.4636176420113266,0.3770032208008971,-0.1296248382923674,0.6720708674577971,0.4689662403019501,0.0451220734110417,0.0363751418346862,0.216866894360983,0.4782844671293463,QKTQNDVDIADVAYYFEKDVKGESLFHSKKMDLT,cell_junction,EPCAM_HUMAN
EPCAM_HUMAN_nonidr_5,0.2110344508242267,0.2824597147619929,6.766854705558613,20.454357561143645,0.8549018534234949,0.9027521808575992,0.1573984190819581,0.5975592844265705,0.8303538854432689,-0.0300900004147484,0.7885618166526492,0.5811265059849288,0.3138581000688835,0.0126043000309037,0.2722791779163503,0.666402507114297,QLDLDPGQTLIYYVDEKAPEFSMQGLKAGVIAVIVVVVIAVVAGIVVLVISRKKRMAKYEKAEIKEMGEMHRELNA,cell_junction,EPCAM_HUMAN
UBF1_HUMAN_nonidr_0,0.2220812182741116,0.3975258257875271,6.747700394218134,21.523171553758004,0.6883731128234041,0.5102372330704931,0.1394508956227181,0.5264864437385494,0.3226233912396304,-0.1214556897082464,0.675539389931388,0.6302018953440461,0.0247898712629003,0.0120387138912804,0.214207731015178,0.5184035400658616,DWEKVAFKDFSGDMCKLKWVEISNEVRKFRT,nucleolus,UBF1_HUMAN
UBF1_HUMAN_nonidr_1,0.2081941661099977,0.2872549019607843,6.427613532459616,20.0937019969278,0.7546167623988635,0.4049508946589533,0.1880561259411362,0.4813483915126625,0.6512370311252993,-0.0820922484043193,0.5255905511811023,0.6433557987293765,0.0060245548171071,-0.0002917152858809,0.2106082036775106,0.6297735014641725,KPLTPYFRFFMEKRAKYA,nucleolus,UBF1_HUMAN
UBF1_HUMAN_nonidr_2,0.0332136445242369,0.0301840215439856,4.259501965923985,16.33289646133683,0.1304026597709641,0.1156261544144809,0.1692546583850931,0.4173136645962733,-0.0687601515971846,-0.1315646995127233,0.0721153846153846,0.1201923076923077,-0.0704894083272461,-0.1720233747260774,0.1719828390225704,0.1425107256108934,ELP,nucleolus,UBF1_HUMAN
UBF1_HUMAN_nonidr_3,0.2210374058127018,0.3979953224189776,7.137962609690958,22.7539169604387,0.9381498624807136,0.5641550926174728,0.5969980175587652,0.6429013963684888,1.0179948586118253,-0.032854395586607,0.8649205414949971,0.7276558403001466,0.4355867346938775,0.0981882234524408,0.2882573075756043,0.8385813542603813,QRKEYEEIMRDYIQKHPELNISEEGITKSTLTKAERQLKDKFDGRPTKPPPNSYSLYCAELMANMKDVPSTERMVLCSQQWKLLSQKEKDAYHKKCDQKKKDYEVELLRFLESLPEEEQQRVLGEEKMLNINKKQATSPASKKPAQEGGKGGSEKPKRPVSAMFIFSEEKRRQLQEERPELSESELTRLLARMWNDLSEKKKAKYKAREAALKAQSERKPGGEREERGKLPESPKRAEEIWQQSVIGDYLARFKNDRVKALKAMEMTWNNMEKKEKLMWIKKAAEDQKRYERELSEMRAPPAATNSSKKMKFQGEPKKPPMNGYQKFSQELLSNGELNHLPLKERMVEIGSRWQRISQSQKEHYKKLAEEQQKQYKVHLDLWVKSLSPQDRAAYKEYISNKRKSMTKLRGPNPKSSRTTLQSKSESEEDDEEDEDDEDEDEEEEDDENGDSSEDGGDSSESSSEDESEDGDENEEDDEDEDDDEDDDEDEDNESEGSSSSSSSSGDSSDSDSN,nucleolus,UBF1_HUMAN
MMP8_HUMAN_nonidr_0,0.117136258660508,0.2861607142857142,6.473291626564004,18.982734054144665,0.7934732636852201,0.3947837150127226,0.1049135152424771,0.3671973033486701,0.2697894224755021,-0.1397662408263115,0.4249161475802587,0.4207750623911098,0.0713653789442642,-0.066201400202545,0.1516620656612899,0.5318844079529904,MFSLKTLPFLLLLHVQISKAF,stress_granule,MMP8_HUMAN
MMP8_HUMAN_nonidr_2,0.1619828259172521,0.2084309133489461,6.713855421686747,17.639558232931726,0.8194758977677127,0.18756314870947,0.0655491959662033,0.1715726355955301,0.0019516589100735,-0.0773770491803278,0.2217913553390712,0.616035703293321,0.0203619909502262,-0.0024964893119051,0.1165368484122229,0.5791258477769404,KLKEMQRF,stress_granule,MMP8_HUMAN
MMP8_HUMAN_nonidr_3,0.1202150187326926,0.3941005190530446,6.714039649008774,21.45868534926849,0.7009232090460173,0.4763669678923916,0.1082060892807766,0.4137761528772005,0.3813080568720379,-0.1001468619066131,0.477933368258598,0.6980425625636649,0.0154726888202834,0.022026663856247,0.2193333040537573,0.5360365350763815,AIKDAFELWSVASPLIFTRISQGEAD,stress_granule,MMP8_HUMAN
MMP8_HUMAN_nonidr_4,0.1940673404700675,0.2991949454804851,6.654911515773275,20.525539160045405,0.7183520492908758,0.4888474970896391,0.2196514068728036,0.6171654432523997,0.3410641345286722,-0.0726589140508874,0.8537718181137164,0.6165247207167349,0.2879753792042207,0.0260130431596687,0.2329365492072196,0.614282137939667,TNTSANYNLFLVAAHEFGHSLGLAHSSDPGALMYPNYAFRETS,stress_granule,MMP8_HUMAN
MMP8_HUMAN_nonidr_5,0.0717628705148206,0.0888591521225407,5.957428016251546,15.625509372453138,0.4730092712936487,0.2427081958558796,0.1005498821681068,0.3682843091769509,0.2398782343987823,-0.1687975646879756,0.5799689440993789,0.378408277477712,-0.001694197373994,-0.0273991766257644,0.2023533503361929,0.2433084434233199,DDIDGIQ,stress_granule,MMP8_HUMAN
MMP8_HUMAN_nonidr_6,0.3521996174578334,0.4408798469831333,7.586943921170845,22.05238161754435,0.8725904118886235,0.690860706290831,0.3616811689377771,0.6253727297370562,0.6190574192220621,-0.0593558719641956,0.789379116423692,0.7212478066472354,0.2308231843397309,0.04885533664764,0.2978684971098266,0.7406009879253568,FDAITTLRGEILFFKDRYFWRRHPQLQRVEMNFISLFWPSLPTGIQAAYEDFDRDLIFLFKGNQYWALSGYDILQGYPKDISNYGFPSSVQAIDAAVFYRSKTYFFVNDQFWRYDNQRQFMEPGYPKSISGAFPGIESKVDAVFQQEHFFHVFSGPRYYAFDLIAQRVTRVARGNKWLNCRYG,stress_granule,MMP8_HUMAN
CMA1_HUMAN_nonidr_0,0.0804573912143633,0.2177006260671599,6.866555152866834,19.38875655073845,0.760740972835427,0.3432452973589208,0.1288135593220339,0.397882387663248,0.1931883512082945,-0.0857934662627116,0.5376577374363516,0.6172865429538833,0.0428394596630967,0.013418903150525,0.1893603546548448,0.6204887785178824,MLLLPLPLLLFLLCSRAEAGEII,stress_granule,CMA1_HUMAN
CMA1_HUMAN_nonidr_1,0.1857859623973093,0.3115331285174411,7.263786581724069,20.81402142161636,0.7044762088617689,0.6900722853641811,0.3555804823331464,0.6224364496087093,0.5981235340109461,-0.093469493950826,0.5689133794771857,0.7312966498871724,0.0240092343208926,-0.0061319993545263,0.3106484399621809,0.5506116317333143,CKPHSRPYMAYLEIVTSNGPSKFCGGFLIRRNFVLTAAHCAGRSITVT,stress_granule,CMA1_HUMAN
CMA1_HUMAN_nonidr_2,0.1074288690669965,0.0608700636212529,5.479113384484228,15.071969696969695,0.7079303675048356,0.1461857093545046,0.1173391990291262,0.356006160164271,0.6225457007447529,-0.2331982840800762,0.5611865618298785,0.3273052180128663,0.0293985435583925,0.007596871347658,0.1701119157340355,0.3352674780639683,EEEDTW,stress_granule,CMA1_HUMAN
CMA1_HUMAN_nonidr_3,0.30567081604426,0.2888498143275213,7.190468625893566,19.00630557801132,0.8612010681211295,0.5929286250174846,0.31427304964539,0.5505154639175258,0.6708860759493671,-0.0521571152607855,0.5857400722021661,0.71485279523652,0.0201061578257802,-0.0207109305966794,0.2792798690671031,0.7206771000657824,KQFRHPKYNTSTLHHDIMLLKLKEKASLTLAVGTLPFPSQFNFVPPGRMCRVAG,stress_granule,CMA1_HUMAN
CMA1_HUMAN_nonidr_4,0.2245392822502424,0.275731151717043,7.034123315960271,19.33177053554412,0.5096884165141754,0.2190503216042376,0.1737430167597765,0.5279421433267587,0.2669322709163346,-0.0495485065987497,0.8174347981421937,0.612653116166375,0.1195160861473012,-0.0071227741330834,0.1735887767550183,0.339856815914559,MDPQACSHFRDFDHNLQ,stress_granule,CMA1_HUMAN
CMA1_HUMAN_nonidr_5,0.1306750237103624,0.3535004321521175,7.507079646017699,17.057190219643598,0.5697354497354498,0.6412528257857507,0.1900452488687782,0.5001508295625943,0.5989910123791758,-0.1059995318960809,0.5840296013368346,0.6891242070800082,0.0126093989796341,-0.0138990490124359,0.2695214105793451,0.4139278809783979,GGPLLCAGVAQGIVSYGRSDAK,stress_granule,CMA1_HUMAN
CMA1_HUMAN_nonidr_6,0.2315882874889086,0.3734015345268542,6.66023166023166,21.175780630844823,0.7456673761021587,0.2887480505690679,0.177599662518456,0.4918793503480278,0.2661316737635113,-0.0970571904497501,0.3762118362031544,0.7055503292568204,-0.0265839724123732,-0.0636889991728701,0.2444059976931949,0.6333965659808356,ISHYRPWINQILQAN,stress_granule,CMA1_HUMAN
RPB9_HUMAN_nonidr_0,0.3539823008849557,0.3066320415501398,6.598141653711269,20.469050399784383,0.7096828093235679,0.6716374552144863,0.2182890855457227,0.5124427632888712,0.6097044206120847,-0.0613248607242339,0.7530087020922052,0.6729102029498093,0.2825396825396825,0.0160924600990643,0.294516129032258,0.6602064139117322,YEPGFVGIRFCQECNNMLYPKEDKENRILLYACRNCDYQQEADNSCIYVNKITHEVDE,nucleolus,RPB9_HUMAN
RPB9_HUMAN_nonidr_1,0.2532756200280767,0.3877144988808754,7.116788321167883,21.732649442755825,0.8143415406008008,0.6184772885399066,0.2231678486997635,0.5104061280531869,0.6556971656838501,-0.052059943375964,0.4654693954779099,0.6289168517147792,0.0329572205536163,0.0288266885278814,0.3031267765776009,0.7394913935950762,QKCGHKEAVFFQSHSARAEDAMRLYYVCTAPHCGHRWTE,nucleolus,RPB9_HUMAN
NOP2_HUMAN_nonidr_0,0.0927618447315894,0.1097804391217564,5.797872340425532,15.93394617836756,0.4500955109837631,0.5530011184292283,0.0742932281393819,0.225290379136533,0.4784475356345526,-0.2944658182894347,0.3912068840841709,0.4026340545625588,-0.0020682523267838,-0.0279214064115822,0.2066754667169526,0.2932735426008969,IQDIVG,nucleolus,NOP2_HUMAN
NOP2_HUMAN_nonidr_1,0.2114353195886434,0.3136840033459627,6.277306609872975,21.61613958560524,0.7780340834196403,0.5828566034173511,0.1096314953731588,0.4296703734704452,0.4356170895478043,-0.0813156011450381,0.4771566651666047,0.3867224950595785,0.0764040732179671,0.0127343592500504,0.2285959812429714,0.6210460485171654,RLKKDLAIYYSYGDFLLGKLMDLFPLSELVEFLEA,nucleolus,NOP2_HUMAN
NOP2_HUMAN_nonidr_2,0.2381213488833118,0.3969682835820896,7.252852852852853,20.485508256113704,0.8127409949136534,0.8440500338066261,0.2832974687128376,0.5214834545640815,0.7609618699289528,-0.0475134621476084,0.7902665121668598,0.6504513105363652,0.1116716031099592,0.0562291743798593,0.2844131942805908,0.4838946887873793,LINRGVNLDPLGKWSKTGLVVYDSSVPIGATPEYLAGHYMLQGASSMLP,nucleolus,NOP2_HUMAN
NOP2_HUMAN_nonidr_3,0.1504468718967229,0.1737835153922542,5.789755218326647,16.336969490369864,0.63782804215048,0.1042810098792535,0.1410864410433283,0.3870446216857081,0.3173007896625987,-0.09032131661442,0.3220942053541172,0.3370044052863436,0.0219072772720841,0.0040776638123019,0.1975884869700505,0.3927678399692249,LAPQEHER,nucleolus,NOP2_HUMAN
NOP2_HUMAN_nonidr_4,0.3405528865086241,0.2926930596285435,7.458178543284927,19.95374134710472,0.8150766983199416,0.7060855888096563,0.2537775323996048,0.5704680630980088,0.6287611188617451,-0.0454715097860521,0.9981860585643948,0.7686386503763665,0.1107317797239127,0.0277571619415169,0.2753585675568684,0.670485290174763,APGGKTSYMAQLMKNTGVILANDANAERLKSVVGNLHRLGVTNTIISHYDGRQFPKVVGGFDRVLLDAPCSGT,nucleolus,NOP2_HUMAN
NOP2_HUMAN_nonidr_5,0.2283238401246287,0.423056326371647,6.752118821851137,20.4136623570363,0.867132546683469,0.8316566268130344,0.1815087048528404,0.5472492125559432,0.7414088411464779,-0.0728326913148802,0.5133143649230321,0.6062963389804464,0.1834580438268305,0.0297083280722956,0.2742086095807265,0.7684057699512926,LRCAHLQKELLLSAIDSVNATSKTGGYLVYCTCSITVEENEWVVDYALKKRNVRLV,nucleolus,NOP2_HUMAN
NOP2_HUMAN_nonidr_6,0.2152645273200347,0.3030330303303033,7.599118942731278,20.26140171936471,0.8773765523737369,0.4851038971876825,0.5812261863526151,0.5712116610993015,0.6674977305563013,-0.0313136456211812,0.7733234267993281,0.7541744568370834,0.1031123782371109,0.030829861502083,0.3168880455407969,0.7625784679284466,NMDGFFIAKFKKFSNSIPQSQTGNSETATPTNVDLPQVIPKSENSSQPAKKAKGAAKTKQQLQKQQHPKKASFQKLNGISKGADSELSTVPSVTKTQASSSFQDSSQPAGKAEGIREPKVTGKLKQRSPKLQSSKKVAFLRQNAPPKGTDTQTPAVLSPSKTQATLKPKDHHQPLGRAKGVEKQQLPEQPFEKAAFQKQNDTPKGPQPPTVSPIRSSRPPPAKRKKSQSRGNSQLLLS,nucleolus,NOP2_HUMAN
GRAK_HUMAN_nonidr_0,0.1741205193652203,0.2745836940469522,6.45142797581822,20.04550930996714,0.5797907128842381,0.7107650260349174,0.1952461799660441,0.4584040747028862,0.5183429734361611,-0.0825023191094619,0.5377358490566038,0.5898716338347477,0.0183047029005913,0.0109891584370974,0.2548672006078065,0.5015783171873299,MTKFSSFSLFFLIVGAYMTHVCFNMEIIGGKEVSPHS,stress_granule,GRAK_HUMAN
GRAK_HUMAN_nonidr_1,0.2827562797012898,0.4542617046818727,6.784584592441427,20.83228990540602,0.7156679817877101,0.6167639699749792,0.2821100917431192,0.57080078125,0.5963178832454437,-0.0733646247994771,0.8046011080963998,0.6834098686193507,0.0044862287486363,-0.0302826801335947,0.2958480729845466,0.5171179939314136,MASIQYGGHHVCGGVLIDPQWVLTAAHCQYRFTKGQSPT,stress_granule,GRAK_HUMAN
GRAK_HUMAN_nonidr_2,0.086483997236933,0.0968915496200782,6.156047516198704,16.372421028091853,0.6338824686501107,0.2880697035789759,0.0786508659981768,0.3109936189608022,0.1195774525932981,-0.1012186602499417,0.521484375,0.3161471760018748,0.0037373764147692,-0.0062024544755745,0.1251764561468115,0.5021040402736543,EASKQTLEIKKF,stress_granule,GRAK_HUMAN
GRAK_HUMAN_nonidr_3,0.1170168932838895,0.2204753199268738,6.564656738103887,17.154826958105648,0.4206264649477946,0.4245853489979267,0.2197776748494673,0.5729504400185271,0.4366029302210082,-0.0454237288135593,0.8459357277882797,0.6309963099630996,-0.0090084854120655,-0.0268801580843891,0.2159302708036399,0.1716556003047785,SRVTSDPQ,stress_granule,GRAK_HUMAN
GRAK_HUMAN_nonidr_4,0.0640563564875491,0.0948558322411533,6.289546867331915,15.682190120214162,0.7206412603317246,0.1274984953593715,0.0714766355140186,0.2959252336448598,0.0514463632743202,-0.0865155965869352,0.4121527777777777,0.4470486111111111,-0.0161805275719909,-0.0722544248473388,0.1028243601059135,0.5729091991591839,TAAKLNK,stress_granule,GRAK_HUMAN
GRAK_HUMAN_nonidr_6,0.3014005602240896,0.3521008403361345,6.692314518991835,19.279173290938,0.670125196217313,0.4632555637732804,0.2124858784812613,0.6125118934348239,0.4678540399652476,-0.1261480627109231,0.8303,0.5448508276340569,0.004061944656004,-0.0329107842412595,0.3157775768535262,0.4428243420923524,TVLSRKLCNSQSYYNGDPFITKD,stress_granule,GRAK_HUMAN
GRAK_HUMAN_nonidr_7,0.1744988679662046,0.3465680048594621,6.585201503174809,21.357308584686773,0.6597392479185281,0.6724915803520366,0.2136383254208027,0.5326839955000297,0.6317017388606039,-0.0558858501783591,0.5709762416137103,0.578692714989958,0.0473229706390328,0.0316315314254308,0.3287805861452007,0.4799947852494133,SGGPLICKGVFHAIVSGGHECGVATKPGIYTLLTKKYQTWIKSNLVPPHTN,stress_granule,GRAK_HUMAN
GRAM_HUMAN_nonidr_0,0.0984933663143692,0.3315343677385503,7.165813060179257,17.59725400457666,0.7965901417960837,0.6296228343773753,0.1642168484273747,0.4411972063715878,0.5850814821357594,-0.1439618309179547,0.3973137231068433,0.6869435000809454,0.0095567303782025,0.0083427686073535,0.2456066357373822,0.5566851100454937,MEACVSSLLVLALGALSVGSSFGTQIIGGREVIPH,stress_granule,GRAM_HUMAN
GRAM_HUMAN_nonidr_1,0.2419255042692736,0.4377786952931461,7.456081435617588,21.06573584251149,0.8845915884124125,0.6562889362037694,0.2026117269491119,0.5923193541845712,0.6405042700284669,-0.0486815415821501,0.7241324627508843,0.7148548662492885,0.022363360793492,0.0028899027333663,0.2806003075071863,0.8404799594203406,LQRNGSHLCGGVLVHPKWVLTAAHCLAQRMAQLRLVLGLHTLDSPGLTFHIKAAIQHPRYKPVPALENDLA,stress_granule,GRAM_HUMAN
GRAM_HUMAN_nonidr_2,0.0190013370358942,0.0152987760979121,3.02875,14.959583333333333,0.3971188475390156,0.3549819927971188,0.0610026312145132,0.1902091123113142,0.3345773653419407,-0.2454105305628404,0.04,0.0698401420959147,-0.0612418142129517,-0.0988357991753577,0.1602898182280412,0.2882610906317528,KVK,stress_granule,GRAM_HUMAN
GRAM_HUMAN_nonidr_3,0.3210564930300807,0.5114060555785981,7.249310752264671,21.168793468400363,0.7697571784306092,0.5673965104344851,0.1943116281362449,0.5383208500261278,0.3992496589358799,-0.0837943842697212,0.5589411764705883,0.7113455913079816,0.0078156047158564,0.0130302907752659,0.2512705473809614,0.6452420240337134,QVVAAGTRCSMAGWGLTHQGGRLSRVLRELDLQVLDTRMCNNSRFWNGSLSPSMVCL,stress_granule,GRAM_HUMAN
GRAM_HUMAN_nonidr_4,0.1882109617373319,0.3853807106598985,7.172503920543649,21.156412834811224,0.5763095034976966,0.4851223275292043,0.1466761433689676,0.5274952578809502,0.433972653023768,-0.058913672739656,0.5640904354940777,0.6496523388116309,0.0001707040767237,-0.0115919183375305,0.264367816091954,0.4727992912536592,LVCGKGRVLARVLSFSSRVCTDIFKPPVATAVAPYVSWIRKVTGRSA,stress_granule,GRAM_HUMAN
AFF2_HUMAN_nonidr_0,0.2490566037735849,0.3764150943396226,6.9945837202104615,20.33801073049938,0.7181684410975504,0.2658515658515658,0.1014815272712287,0.3764455515779402,0.1486757337151037,-0.0925803465150112,0.5685564209382358,0.5829727733220769,0.143716814159292,-0.0099477428697349,0.1466516467554027,0.5090129837388125,MDLFDFFRDWDLEQ,nuclear_speckle,AFF2_HUMAN
AFF2_HUMAN_nonidr_1,0.0852395672333848,0.0705564142194744,5.607577807848444,16.420443327649647,0.5657205841829706,0.2542199085029184,0.0967826657912015,0.3407747866053841,0.0772584160813756,-0.1324737631184407,0.4292452830188679,0.3320683111954459,0.0041404505784453,-0.0078343819768621,0.1623152983001888,0.4374912619187428,HLEMTS,nuclear_speckle,AFF2_HUMAN
AFF2_HUMAN_nonidr_2,0.1789401238816242,0.3504308859014133,6.924600827912478,21.218669778296384,0.889690457917626,0.2925032993208227,0.1032405484004985,0.4043761251904168,0.3754227733934611,-0.0622141310431778,0.4798079076364179,0.5875255244106181,0.0475086906141367,0.0403225806451612,0.1962883654532476,0.7659977281332828,VHNADYYMQEAKKLKHKADALFEKFGKAVNYADAALSFTEC,nuclear_speckle,AFF2_HUMAN
AFF2_HUMAN_nonidr_3,0.1646574778852088,0.2874768661320173,6.719290222262874,21.470321189422314,0.8633113989342537,0.3521467503451024,0.1667361400583576,0.5664767063514454,0.2769074637881723,-0.059184271226156,0.8113718819154861,0.586936817953459,0.2544796539853473,0.0345079868308742,0.1795509778960768,0.7582480091012515,TMYSETVELLRYAMRLKNFASPLASDGDKKLAVLCYRCLSLLYLRMFKLKKDHAMKYSRSLMEYFKQNASKVA,nuclear_speckle,AFF2_HUMAN
AFF2_HUMAN_nonidr_4,0.2414644621000644,0.3786475760641195,6.945095398428732,21.529219063721865,0.6958808063102542,0.5560999510044096,0.1143929996312066,0.4270153222951333,0.5704653622421999,-0.0655271146681385,0.635387811634349,0.6241239510984004,0.0562883635888729,0.0194593182708632,0.2170483231157591,0.4005270605340707,SHVNITSNVLRGYEHWDMADKLTRE,nuclear_speckle,AFF2_HUMAN
AFF2_HUMAN_nonidr_5,0.1658901902730004,0.3914778288037341,6.6025930101465615,21.156857593273777,0.6464250734573947,0.4649777522606574,0.0617424162014138,0.3613900269598998,0.1950045283378616,-0.0908771868255277,0.5019847236422686,0.6753257671290458,-0.0038099681206749,-0.0244148977528963,0.1702892734452756,0.4472403052359333,NLVRYVRQGLCWLRIDAHLL,nuclear_speckle,AFF2_HUMAN
HNRPM_HUMAN_nonidr_0,0.1992551210428305,0.3165735567970205,5.451925948044193,17.39344262295082,0.4061594202898551,0.2503623188405797,0.2581721147431621,0.4156104069379586,0.5352020860495437,-0.2026467203682393,0.5205519244734931,0.4178649237472767,0.0255972696245733,0.0117320819112627,0.2535211267605634,0.2882610906317528,PFDVK,nucleolus,HNRPM_HUMAN
HNRPM_HUMAN_nonidr_3,0.1481787367298129,0.3706288674629443,7.123723373212722,20.263724238555536,0.7386840646285443,0.816753078418665,0.0965270089155643,0.4377240572819815,0.7175609756097561,-0.1091036803502295,0.5903289631030809,0.5878815608863325,0.0964964119881806,-0.0111331555735281,0.2254479927920712,0.5809928448162762,QAGRLGSTVFVANLDYKVGWKKLKEVFSMAGVVVR,nucleolus,HNRPM_HUMAN
HNRPM_HUMAN_nonidr_4,0.1407865288287328,0.2503463710966642,5.848443097271976,18.51272577996716,0.7375085893786198,0.3015978537002303,0.0925156138015767,0.3920208152645273,0.2164502164502164,-0.1422955974842767,0.4740030141432877,0.5387781126825876,0.0081294312063542,0.0072498534036995,0.1863160542559161,0.6591233708266381,SIEAVQAISMFNGQLLFD,nucleolus,HNRPM_HUMAN
HNRPM_HUMAN_nonidr_6,0.2607284357248556,0.3700779695298992,6.91433261516364,21.51384456542144,0.7676852777381122,0.5803049622781851,0.1612138066415835,0.5987217135947487,0.5254975856789542,-0.0747486979385662,0.6389893737282387,0.5994007736586667,0.0681244010802334,0.0146834253494655,0.2493870723827418,0.6526613798738712,GVARKACQIFVRNLPFDFTWKMLKDKFNECGHVLYADIKMENGKSK,nucleolus,HNRPM_HUMAN
HNRPM_HUMAN_nonidr_7,0.0865895953757225,0.061527693824961,5.984406010774029,15.289351623408663,0.6578387953941541,0.1890168290522586,0.1433126095966842,0.3585206440299697,0.1978696862105364,-0.0524539080758244,0.5834559905799235,0.2543420665292905,-0.0063839489284085,0.0182398540811673,0.1459272097053726,0.4473183888225671,SPEVAE,nucleolus,HNRPM_HUMAN
HNRPM_HUMAN_nonidr_8,0.1175913503275195,0.2175400768725977,6.9376246083736826,17.546998791459647,0.464976120081874,0.6385897701387451,0.0987766950031101,0.4725896744764669,0.5738682569802115,-0.138682389130992,0.6323576201081769,0.6185059696676347,0.0138624269101898,0.0163425530517048,0.2023164120256284,0.5163593099345628,MKLSGREIDVRIDRNA,nucleolus,HNRPM_HUMAN
RPAB3_HUMAN_nonidr_0,0.1740593388919456,0.2584595845051256,6.188220230473752,19.198632838175364,0.6714380408104768,0.3806856125250427,0.2257468432399137,0.5337234370187866,0.5389275976976674,-0.0428692699490662,0.8951423068692489,0.371420355554052,0.0734683915059799,0.009953242905421,0.2060270127596019,0.4039437106374959,MAGILFEDIFDVKDIDPEGK,nucleolus,RPAB3_HUMAN
RPAB3_HUMAN_nonidr_1,0.1459449473489747,0.2627932609037947,6.3671847246891655,20.30765329746654,0.5675042121456304,0.6566505786496445,0.1457318533897628,0.504913613304553,0.6934729235187844,-0.0935696838826153,0.7362240289069557,0.6614047716988893,0.1191850594227504,0.0351887396033269,0.277984061841791,0.4187575660379311,LHCESESFKMDLILDVNIQIYPVDLGDKFRLVIASTLYEDG,nucleolus,RPAB3_HUMAN
RPAB3_HUMAN_nonidr_2,0.2045502422582683,0.3195299384443201,6.534099447513812,20.77791075397504,0.4898965007392804,0.6601576495879613,0.1278525453481568,0.4534815681685196,0.47663139329806,-0.1612589227774172,0.5742092457420924,0.6117950186086458,0.3584558823529412,0.0220588235294117,0.2645528614901344,0.4076786067682564,QFEYVMYGKVYRIEGDE,nucleolus,RPAB3_HUMAN
RPAB3_HUMAN_nonidr_3,0.1721632781058903,0.3354430379746835,6.894736842105263,21.704248366013072,0.7559331022595981,0.4859641803498525,0.1889792478188569,0.4843744416252725,0.4669315155072006,-0.0744322703066658,0.6651978181644952,0.6244069042292186,0.0463141567403106,0.0330105196173961,0.238266096466258,0.7257546700007417,RLSAYVSYGGLLMRLQGDANNLHGFEVDSRVYLLMKKLAF,nucleolus,RPAB3_HUMAN
RRP1_HUMAN_nonidr_0,0.0875738840953869,0.2270732777534006,6.422353437368199,16.740868831716575,0.5318471337579618,0.4067055393586006,0.1791115761438219,0.5495101303148483,0.325928098345431,-0.0599156118143459,0.5618504860878311,0.6475609756097561,0.003713445768219,0.0309453814018257,0.2086187326314141,0.4647590361445783,MVSRVQLPPEIQ,nucleolus,RRP1_HUMAN
RRP1_HUMAN_nonidr_1,0.310999441652708,0.4017308766052485,7.164476565922032,22.203813141972702,0.9167473378509196,0.4439527705225894,0.125036116729269,0.5473135786388799,0.3913837722636626,-0.0447921368889948,0.697993133670137,0.6307675592148152,0.2812312066043409,0.0456917706425189,0.2218253244708183,0.7966913705782279,VTRDRAVRKLRKYIVARTQRAAGGFTHDELLKVWKGLFYCMWMQDKPLLQEELGRTISQLVHAFQTTEAQHLFLQAFWQTMNREWTGIDRLRLDKFYMLMRMVLNESLKVLKMQGWEERQIEELLELLMTEILH,nucleolus,RRP1_HUMAN
RRP1_HUMAN_nonidr_2,0.1450990058335387,0.2140111063648013,6.35479736328125,19.92625368731564,0.6881342701014832,0.5059580102137318,0.212655601659751,0.5643153526970954,0.4392430278884462,-0.1536294405071092,0.5752448797862867,0.4930246363906204,0.0681996855345912,0.0040444893832153,0.220823534836538,0.5012199921290831,PNGVKSHFIEIFLE,nucleolus,RRP1_HUMAN
RRP1_HUMAN_nonidr_3,0.2304210436416431,0.2941513272503563,7.266318537859008,21.03866969746171,0.908247946982271,0.6032969315807267,0.5022398782858591,0.6392461270269382,0.9294423120343192,-0.0288543796308379,0.9253653970768234,0.6662217596848938,0.2056141862301672,0.061929924574636,0.2694700460829493,0.8366656108955578,KVGAEELTADQNLKFIDPFCRIAARTKDSLVLNNITRGIFETIVEQAPLAIEDLLNELDTQDEEVASDSDESSEGGERGDALSQKRSEKPPAGSICRAEPEAGEEQAGDDRDSGGPVLQFDYEAVANRLFEMASRQSTPSQNRKRLYKVIRKLQDLAGGIFPEDEIPEKACRRLLEGRRQKKTKKQKRLLRLQQERGKGEKEPPSPGMERKRSRRRGVGADPEARAEAGEQPGTAERALLRDQPRGRGQRGARQRRRTPRPLTSARAKAANVQEPEKKKKRRE,nucleolus,RRP1_HUMAN
NOP14_HUMAN_nonidr_1,0.213379705400982,0.4099369268273807,7.194418127269857,21.440455421908,0.9099638906704388,0.6025544586703476,0.2961210660712114,0.5962231997780684,0.6411344256813242,-0.0297586351739959,0.8720766228228425,0.6769417167974529,0.1656215595232396,0.0638983847188244,0.267019017933776,0.7284048481209778,KAKLEKLFGFLLEYVGDLATDDPPDLTVIDKLVVHLYHLCQMFPESASDAIKFVLRDAMHEMEEMIETKGRAALPGLDVLIYLKITGLLFPTSDFWHPVVTPALVCLSQLLTKCPILSLQDVVKGLFVCCLFLEYVALSQRFIPELINFLLGILYIATPNKASQGSTLVHPFRALGKNSELLVVSAREDVATWQQSSLSLRWASRLRAPTSTEANHIRLSCLAVGLALLKRCVLMYGSLPSFHAIMGPLQALLT,nucleolus,NOP14_HUMAN
NOP14_HUMAN_nonidr_2,0.1292662623379712,0.2213105006540611,5.688195991091314,17.71714922048998,0.2705536141254368,0.1727559765448804,0.2118181818181818,0.5827272727272728,0.3783287419651056,-0.0668252080856123,0.6317780580075663,0.3152585119798234,-0.0217871802968108,-0.0704662667087675,0.2023381294964028,0.1407894736842105,DCSHPQ,nucleolus,NOP14_HUMAN
NOP14_HUMAN_nonidr_3,0.1064516129032258,0.0888563049853372,5.880407124681934,14.072700836059616,0.5953557880216117,0.1187492815266122,0.0798432019806065,0.2715081493707448,-0.0767272408041436,-0.613817926433149,0.1738372093023255,0.3744186046511628,0.0098491264389448,0.0040776638123019,0.1063655641950965,0.3589047211577811,MES,nucleolus,NOP14_HUMAN
NOP14_HUMAN_nonidr_4,0.1881603355109283,0.3891538356724349,7.109219095417338,21.559262766809937,0.9022774741028732,0.6095574526543028,0.195071395670198,0.5665105871092082,0.6257579432452098,-0.0467394346487545,0.6946248196248196,0.6202357473742146,0.2336854723907994,0.0320578618575342,0.2857875833760903,0.7940161259876494,KSKPVPLKLFTPRLVKVLEFGRKQGSSKEEQERKRLIHKHKREFKGAVREIRKDNQFLARMQLSEIMERDAERKRKVKQLFNSLATQEGEWKALKRKKFKK,nucleolus,NOP14_HUMAN
RPP38_HUMAN_nonidr_0,0.2086324997936783,0.3826035658101731,6.361646961211367,21.1001825650388,0.7845764142977766,0.570746940799614,0.1396512974187836,0.54973485457175,0.4512282853537438,-0.0934779506208077,0.6570053843510139,0.664157610668732,0.0524375,0.03925,0.2184777037416709,0.6366918045677115,TSLNNPYIIRWSALESEDMHFILQTLEDRLKA,nucleolus,RPP38_HUMAN
RPP38_HUMAN_nonidr_1,0.0510261456283384,0.0554913294797687,5.418367346938775,14.097297297297295,0.5245612314932837,0.2341962673088501,0.1475463113422164,0.36041598960026,0.2842438638163104,-0.1995249406175772,0.1805555555555555,0.2093495934959349,-0.0725346373268133,-0.1426242868785656,0.1947354284179425,0.2599577017976736,EKCS,nucleolus,RPP38_HUMAN
RPP38_HUMAN_nonidr_2,0.1906313473256601,0.2985939497230507,7.253082061586922,20.107487004894065,0.8687217950860772,0.6775690516493952,0.3232311389882173,0.6115706341417824,0.7211775483797849,-0.0465869456900847,0.7371953024770551,0.6770930371431984,0.0555598485433892,0.015138685501197,0.2681895342829729,0.7812820620932945,HVRKQLAIGVNEVTRALERRELLLVLVCKSVKPAMITSHLIQLSLSRSVPACQVPRLSERIAPVIGLKCVLALAFKKNTTDFVDEVRAIIPRVPSLSVPWLQDRIEDSGENLETEPLESQDRELLDTSFEDLSKPKRKLADGRQASVTLQPLKIKKLIPNPNKIRKPPKSKKATPK,nucleolus,RPP38_HUMAN
RPP30_HUMAN_nonidr_0,0.2389037108901285,0.3438866902728598,7.134023593924745,19.982324080051647,0.8327062699558683,0.8129023553448209,0.2691215287961347,0.6310168294692244,0.7850628119084495,-0.0552055800293685,1.0236872016367355,0.7400501569409613,0.0590085954655027,0.049862583431488,0.3295475270671331,0.6665408425184961,MAVFADLDLRAGSDLKALRGLVETAAHLGYSVVAINHIVDFKEKKQEIEKPVAVSELFTTLPIVQGKSRPIKILTRLTIIVSDPSHCNVLRATSSRARLYDVVAVFPKTEKLFHIACTHLDVDLVCITVTEKLPFYFKRPPINVAIDRGLAFELVYSPAIKDSTMRRYTISSALNLMQICKGKNVIISSAAERPLEIRGPYDVANLGLLFGLSESDAKAAVST,nucleolus,RPP30_HUMAN
RPP30_HUMAN_nonidr_1,0.1272906403940886,0.2537931034482759,6.452431087289433,16.919314701378255,0.7102925243770314,0.3113136516742619,0.1111491767124167,0.4565614302015975,0.0902530070510161,-0.1641113754515816,0.5080670453357494,0.6357545839210155,0.0099447141316073,0.0304409385113268,0.20519349297767,0.5724809260720863,ALLHGETRKTA,nucleolus,RPP30_HUMAN
RPP30_HUMAN_nonidr_2,0.0962343096234309,0.1098326359832636,6.5285714285714285,15.123486682808716,0.3607353451266042,0.2396808879639264,0.1319648093841642,0.4413489736070381,0.3468882602545969,-0.1606942889137738,0.2614913176710929,0.3428571428571428,0.028859707693449,-0.0057125899547444,0.2594458438287154,0.2601713062098501,KCEG,nucleolus,RPP30_HUMAN
AK17A_HUMAN_nonidr_0,0.1413519543839352,0.2838729959132348,6.335208345800171,20.35360356558,0.7835650702567498,0.6356468820065538,0.2357512953367875,0.5656303972366149,0.5190169419463366,-0.0780178088836532,0.7168975650713686,0.3782675270698895,-0.0021443298969072,0.012041237113402,0.2961702127659574,0.6111111111111112,MAAATIVHDTSEAVELCPAYGLYLKPITKMTISVALPQLKQPGK,nuclear_speckle,AK17A_HUMAN
AK17A_HUMAN_nonidr_1,0.3035398230088496,0.3924778761061946,6.931493526229408,21.06029654036244,0.7928099931918421,0.6537805856397915,0.2218057921635434,0.5757270218637232,0.6930995342283456,-0.0970133912309617,0.6432320750502568,0.6655269075562948,0.3387144770123493,0.0350743824127466,0.3208709942481512,0.6530106884782477,RLKGMVQNHQFSTLRISKSTMDFIRFEGEVENKSLVKSFLACLDGKTIKLSGFSDILKVRAAEFKIDFPTRHDWDSFF,nuclear_speckle,AK17A_HUMAN
AK17A_HUMAN_nonidr_2,0.1350386674598453,0.3663894555154558,6.250474116738077,22.637372392365734,0.7314617455687682,0.7030293829121316,0.2129450089195687,0.5838223827307424,0.5487442876208194,-0.0594668489405331,0.4615281343872191,0.6086019850734785,0.0682061711386647,0.0178721629418511,0.223093147594055,0.567136738121503,IHLEGLPCKWFALKESGSEKPSEDVLVKVFEKFGEIRNVDI,nuclear_speckle,AK17A_HUMAN
AK17A_HUMAN_nonidr_3,0.1964040710175496,0.3135039147630963,6.54173835821724,21.15909090909091,0.712689764936337,0.359263629926835,0.1352814450643539,0.4028614041871513,0.3448136142625608,-0.1200396825396825,0.5137384140061791,0.6425175959022736,0.2964892176268361,0.0151057401812688,0.2279433905450165,0.6386537270287013,SFGGHLNFEAYVQYREYMGFIQAMSA,nuclear_speckle,AK17A_HUMAN
AK17A_HUMAN_nonidr_4,0.1538218072479822,0.1949675581579363,6.734839108910891,16.83029084158416,0.650801021592756,0.323087235468735,0.0710158064698883,0.2964987819387004,0.2461538461538461,-0.1069384942628598,0.4016136261766024,0.5607419582061517,-0.0290758500435919,-0.0655187445510026,0.1342284195630414,0.5530085959885387,AQRNLQSIR,nuclear_speckle,AK17A_HUMAN
AK17A_HUMAN_nonidr_5,0.2460431654676259,0.4774330042313117,7.204398343585414,20.27140077821012,0.9342816007967178,0.6991788753837322,0.543823584376752,0.6723245496101102,0.8075835978605905,-0.0309085847371887,0.962429489702217,0.7518786090727992,0.0513033854902942,0.0402651644643945,0.3140995446694928,0.7888783112767773,LLSRAKAVKLREQEQKEEKLRLQQQEERRRLQEAELRRVEEEKERALGLQRKERELRERLLSILLSKKPDDSHTHDELGVAHADLLQPVLDILQTVSSGCVSATTLHPLGGQPPAGAPKESPAHPEADGAPKSVNGSVAEEAPCKEVQSSCRVVPEDGSPEKRCPGGVLSCIPDNNQQPKGIPACEQNVSRKDTRSEQDKCNREPSKGRGRATGDGLADRHKRERSRARRASSREDGRPRKERRPHKKHAYKDDSPRRRSTSPDHTRSRRSHSKDRHRRERSRERRGSASRKHSRHRRRSERSRSRSPSRHRSTWNR,nuclear_speckle,AK17A_HUMAN
SRSF4_HUMAN_nonidr_0,0.0720937218383899,0.2267948332832682,6.865216077364763,17.012239347234814,0.35342666109486,0.5091934809862098,0.1841722432353797,0.463873533119969,0.3428666444961756,-0.0831218274111675,0.2311148553777029,0.6821117663577647,-0.0503914178022615,-0.1050739344737605,0.2116251482799525,0.2380851514509638,MPRVY,nuclear_speckle,SRSF4_HUMAN
SRSF4_HUMAN_nonidr_1,0.2610296300694733,0.3340916173262698,6.975074610368078,20.65971037492561,0.7459441832658497,0.6882188256658596,0.1726903497578177,0.5621023905300279,0.6735560002760334,-0.0740076697046665,0.7294455616202241,0.549193293261626,0.1876355407486563,0.0109737306926227,0.2650493510249828,0.5578923805056922,LSYQARERDVERFFKGYGKILEVDLKNGYGFVEFDDLRDADDAVYELNGKDLCG,nuclear_speckle,SRSF4_HUMAN
SRSF4_HUMAN_nonidr_2,0.200531611923296,0.4560810810810811,7.236781811773,20.636616902726384,0.8529896734876865,0.8108310510099281,0.3746015924711118,0.6595213791539072,0.6850176988276556,-0.0330951763965498,0.7915583024814123,0.6723115008021242,0.2493221993276217,0.0858416945373467,0.2651569261795722,0.8240733268000231,NLSSRCSWQDLKDYMRQAGEVTYADAHKGRKNEGVIEFVSYSDMKRALEKLDGTEVNGRKIRLVEDKPGSRRRRSYSRSRSHSRSRSRSRHSRKSRSRSGSSKSSHSKSRSRSRSGSRSRSKSRSRSQSRSRSKKEKSRSPSKEKSRSRSHSAGKSRSKSKDQAEEKIQNNDNVGKPKSRSPSRHKSKSKSRSRSQERRVEEEKRGSVSRGRSQEKSLRQSRSRSRSKGGSRSRSRSRSKSKDKRKGRKRSREESRSRSRSRSKSERSRKRGSKRDSKAGSSKKKKKEDTDRSQSRSPSRSVSKEREHAKSESSQREGRGESENAGTNQETRSRSRSNSKSKPNLPSESRSRSKSASKTRSRSKSRSRSASRSPSRSRSRSHSRS,nuclear_speckle,SRSF4_HUMAN
BRME1_HUMAN_nonidr_0,0.2318356867779204,0.4156611039794608,7.175438596491228,20.865591397849464,0.8744758135963617,0.4632555637732804,0.4268677656962469,0.5490018148820327,0.5826972010178118,-0.0506024096385542,0.8959731543624161,0.6861873990306947,0.0247798920761147,0.0179718322781906,0.3160742528926996,0.718129884285617,IVELSNLNRLIMGTHRDLEAFKRLNYRKTKLGGKAPLPYPSKGPGNIPRGDPPWREL,chromosomes,BRME1_HUMAN
CGNL1_HUMAN_nonidr_1,0.1998851234922458,0.2062033314187248,5.265200961868773,16.716592236344898,0.4011891279728199,0.2785956964892412,0.0546572534730129,0.2006376679571851,0.1842042471963731,-0.4545454545454545,0.2386457473162675,0.3133773740710157,-0.0556915544675642,-0.0752753977968176,0.1571030640668523,0.221058495821727,QHV,cell_junction,CGNL1_HUMAN
CGNL1_HUMAN_nonidr_2,0.2852062588904694,0.3504575606449426,7.866507177033493,21.26088535754824,0.9477607864554888,0.7406646231015744,0.4224551950333841,0.6127395479515243,1.1120976692563818,-0.0244760787546368,0.9114152527741592,0.7074459447643554,0.2807178766419806,0.0623276933888318,0.2972771100699395,0.8431941775360837,DDQECAIHADNVNRHENRRYIPFLPGTGRDIDTGSIPGVDQLIEKFDQKPGLQRRGRSGKRNRINTDDRKRSRSVDSAFPFGLQGNSEYLIEFSRNLGKSSEHLLRPSQVCPQRPLSQERRGKQSVGRTFAKLQGAAHGASCAHSRPPQPNIDGKVLETEGSQESTVIRAPSLGAQSKKEEEVKTATATLMLQNRATATSPDSGAKKISVKTFPSASNTQATPDLLKGQQELTQQTNEETAKQILYNYLKEGSTDNDDATKRKVNLVFEKIQTLKSRAAGSAQGNNQACNSTSEVKDLLEQKSKLTIEVAELQRQLQLEVKNQQNIKEERERMRANLEELRSQHNEKVEENSTLQQRLEESEGELRKNLEELFQVKMEREQHQTEIRDLQDQLSEMHDELDSAKRSEDREKGALIEELLQAKQDLQDLLIAKEEQEDLLRKRERELTALKGALKEEVSSHDQEMDKLKEQYDAELQALRESVEEATKNVEVLASRSNTSEQDQAGTEMRVKLLQEENEKLQGRSEELERRVAQLQRQIEDLKGDEAKAKETLKKYEGEIRQLEEALVHARKEEKEAVSARRALENELEAAQGNLSQTTQEQKQLSEKLKEESEQKEQLRRLKNEMENERWHLGKTIEKLQKEMADIVEASRTSTLELQNQLDEYKEKNRRELAEMQRQLKEKTLEAEKSRLTAMKMQDEMRLMEEELRDYQRAQDEALTKRQLLEQTLKDLEYELEAKSHLKDDRSRLVKQMEDKVSQLEMELEEERNNSDLLSERISRSREQMEQLRNELLQERAARQDLECDKISLERQNKDLKSRIIHLEGSYRSSKEGLVVQMEARIAELEDRLESEERDRANLQLSNRRLERKVKELVMQVDDEHLSLTDQKDQLSLRLKAMKRQVEEAEEEIDRLESSKKKLQRELEEQMDMNEHLQGQLNSMKKDLRLKKLPSKVLDDMDDDDDLSTDGGSLYEAPVSYTFSKDSTVASQI,cell_junction,CGNL1_HUMAN
NEXN_HUMAN_nonidr_0,0.0522219946754044,0.0784353880810976,3.815057608263806,11.514633823334655,0.2000961076405574,0.0903411821239788,0.1125475285171102,0.4395437262357414,-0.056912659638296,-0.1722807919773721,0.0625,0.1017587939698492,-0.0647016534867002,-0.095854301461778,0.2240128410914927,0.1180096308186195,RGE,cell_junction,NEXN_HUMAN
NEXN_HUMAN_nonidr_1,0.0501072024140395,0.1133661930994491,4.739135943240846,13.210186240973014,0.5697354497354498,0.1242155593186572,0.1344700298822288,0.4772807171734927,0.1290944123314065,-0.1215918584339637,0.4397777203411734,0.3073145515637115,-0.0161805275719909,-0.0665890423891493,0.215578619248344,0.475656485968669,KGSAA,cell_junction,NEXN_HUMAN
NEXN_HUMAN_nonidr_2,0.0543820224719101,0.0319101123595505,6.449081803005009,11.782136894824708,0.3035806064759294,0.071098166866541,0.1198511166253101,0.3853598014888337,-0.0328071804394924,-0.719900959455277,0.1123998895332781,0.2676056338028169,-0.1589802130898021,-0.3314307458143075,0.1484339536995007,0.1141625056740808,SKN,cell_junction,NEXN_HUMAN
NU160_HUMAN_nonidr_1,0.3284417549167927,0.3975656653606153,6.9953426273791415,20.743698480011435,0.8410109541608013,0.7404735883424408,0.2395978477566507,0.6437840100460444,0.6577924337079671,-0.0556552962298025,0.958461205964988,0.7529451447274726,0.1288914882130646,0.0629985597163749,0.3095393662201894,0.6365309166902153,TVCSIGTANAVAGAVKYSESAGGFYYVESGKLFSVTRNRFIHWKTSGDTLELMEESLDINLLNNAIRLKFQNCSVLPGGVYVSETQNRVIILMLTNQTVHRLLLPHPSRMYRSELVVDSQMQSIFTDIGKVDFTDPCNYQLIPAVPGISPNS,nuclear_pore_complex,NU160_HUMAN
NU160_HUMAN_nonidr_2,0.2272962617790204,0.4850361197110423,6.519473684210526,20.6,0.8090037671105144,0.745641129265054,0.2591687041564792,0.6006475096486255,0.5880420845555302,-0.0806791759043962,0.8704919361374504,0.6171787546154746,0.083625525946704,0.0274404375637341,0.2819394068700661,0.6165480797237133,AWLSSDGEALFALPCASGGIFVLKLPPYDIPGMVSVVELKQSSVMQRLLTGWM,nuclear_pore_complex,NU160_HUMAN
NU160_HUMAN_nonidr_3,0.3397626112759644,0.4377978216473792,7.380002650410813,22.33844867238135,0.8657878237645852,0.71010380717238,0.3295154185022026,0.5482911254625934,0.6321995906831693,-0.0538711236963878,0.7844052625487095,0.7230155896703558,0.1456530128452505,0.0582870465610642,0.2704591005300916,0.7039645431521527,SLAVHCVEHDAFIFALCQDHKLRMWSYKEQMCLMVADMLEYVPVKKDLRLTAGTGHKLRLAYSPTMGLYLGIYMHAPKRGQFCIFQLVSTESNRYSLDHISSLFTSQETLIDFALTSTDIWALWHDAENQTVVKYINFEHNVAGQWNPVFMQPLP,nuclear_pore_complex,NU160_HUMAN
NU160_HUMAN_nonidr_4,0.0890012401030239,0.2070018124582657,7.051485551485552,16.255799755799757,0.6892515923566879,0.1576144834930777,0.1918074160357212,0.397980974568045,0.0420091324200913,-0.0593607305936073,0.309192425958893,0.5635528330781011,0.0081294312063542,0.0072498534036995,0.1636020744931636,0.4544456038222856,DPREMY,nuclear_pore_complex,NU160_HUMAN
NU160_HUMAN_nonidr_5,0.2183926119269998,0.4055299539170507,6.998133748055988,22.804623068881405,0.9216651567493304,0.5781376011024374,0.2179737402413059,0.5693520200116506,0.8456152977933359,-0.0309013123663062,0.8506479964248473,0.6830460814791183,0.4086294416243655,0.0800501432664756,0.2823277636019425,0.8607520564042304,LFTPGQFTNEALCKALQIFCRGTERNLDLSWSELKKEVTLAVENELQGSVTEYEFSQEEFRNLQQEFWCKFYACCLQYQEALSHPLALHLNPHTNMVCLLKKGYLSFLIPSSLVDHLYLLPYENLLTEDETTISDDVDIARDVICLIKCLRLIEESVTVDMSVIMEMSCYNLQSPEKAAEQILEDMITIDVENVMEDICSKLQEIRNPIHAIGLLIREMDYETE,nuclear_pore_complex,NU160_HUMAN
NU160_HUMAN_nonidr_6,0.2313872733717556,0.4401970993878743,7.0408272644156495,22.363297522473143,0.9257588330859406,0.8217203762863073,0.3500015487707922,0.6307408262174014,0.7314123322979313,-0.0387544323076557,0.8382396891811118,0.7884888720965798,0.1257928352007779,0.0628743176644787,0.2664538912283047,0.8276127841470897,PAQPLNIRMNLTQLYGSNTAGYIVCRGVHKIASTRFLICRDLLILQQLLMRLGDAVIWGTGQLFQAQQDLLHRTAPLLLSYYLIKWGSECLATDVPLDTLESNLQHLSVLELTDSGALMANRFVSSPQTIVELFFQEVARKHIISHLFSQPKAPLSQTGLNWPEMITAITSYLLQLLWPSNPGCLFLECLMGNCQYVQLQDYIQLLHPWCQVNVGSCRFMLGRCYLVTGEGQKALECFCQAASEVGKEEFLDRLIRSEDGEIVSTPRLQYYDKVLRLLDVIGLPELVIQLATSAITEAGDDWKSQATLRTCIFKHHLDLGHNSQA,nuclear_pore_complex,NU160_HUMAN
NU160_HUMAN_nonidr_7,0.2591002307100743,0.4375257731958762,7.144575311751761,21.91955325348009,0.8632369599508781,0.7539762959252218,0.1771235521235521,0.5614551635693092,0.6416470607390281,-0.0424519727420649,0.6708178767002296,0.740785880683133,0.3379061014263074,0.0540877710467611,0.3022861981371719,0.7636799393497214,QIPDSSRQLDCLRQLVVVLCERSQLQDLVEFPYVNLHNEVVGIIESRARAVDLMTHNYYELLYAFHIYRHNYRKAGTVMFEYGMRLGREVRTLRGLEKQGNCYLAALNCLRLIRPEYAWIVQPVSGAV,nuclear_pore_complex,NU160_HUMAN
NU160_HUMAN_nonidr_8,0.2112705344146392,0.213765855687253,6.208857233805507,18.38,0.8510441088272177,0.4451038575667655,0.2271325796505652,0.5834189791024323,0.2779155874949841,-0.0668252080856123,0.8390625,0.5693420542098553,0.0496297115065767,0.0088607594936708,0.2156351791530944,0.6650878443704406,QIEILELEDLEKECSLARIRLTLAQHDPS,nuclear_pore_complex,NU160_HUMAN
NU160_HUMAN_nonidr_9,0.2428524482418665,0.4115902964959568,6.743444514369624,22.46640262223436,0.9409397075735172,0.5543525335643136,0.3039583553535567,0.5789734761168335,0.661372827833281,-0.0324320038062009,0.7300623443234241,0.6270658716418016,0.3273361732982869,0.0366751864795785,0.2618694156168489,0.8429257755383808,SSAEEMVTLLVQAGLFDTAISLCQTFKLPLTPVFEGLAFKCIKLQFGGEAAQAEAWAWLAANQLSSVITTKESSATDEAWRLLSTYLERYKVQNNLYHHCVINKLLSHGVPLPNWLINSYKKVDAAELLRLYLNYDLLEEAVDLVSEYVDAVLGKGHQYFGIEFPLSATAPMVWLPYSSIDQLLQALGENSANSHNIALSQKILDKLEDYQQKVDKATRDLLYRRTL,nuclear_pore_complex,NU160_HUMAN
SNTA1_HUMAN_nonidr_0,0.0403830141548709,0.0370524562864279,6.2291515591007975,14.357142857142858,0.4727658571091723,0.1316073354908306,0.1687170474516696,0.4903339191564148,-0.1231019522776572,-0.1415401301518438,0.1445856019358741,0.3022786852187941,-0.0831858407079646,-0.1867256637168141,0.1526479750778816,0.2599577017976736,NKMP,cell_junction,SNTA1_HUMAN
SNTA1_HUMAN_nonidr_1,0.1165955176093916,0.1172892209178228,5.9152966607884405,16.416775542200156,0.7181684410975504,0.1437922758018765,0.0972730089866749,0.3664267700067663,0.1239002932551319,-0.1202904774918986,0.5863823126589709,0.4565893079154579,0.003544445480832,0.0249976681279731,0.1479251210891478,0.4941410968833051,KGLAADQTEA,cell_junction,SNTA1_HUMAN
SNTA1_HUMAN_nonidr_2,0.09375,0.2637810559006211,6.3023255813953485,19.387101692331147,0.5299863979225918,0.7117828924768121,0.0815167331900521,0.3147067853853239,0.5415354004311059,-0.1256954982296408,0.1352536629123891,0.291836938104256,0.0006056201550387,0.0051477713178294,0.1650285714285714,0.3699014726136243,VVLEVKYMKD,cell_junction,SNTA1_HUMAN
SNTA1_HUMAN_nonidr_3,0.1220612853919499,0.237135162675595,5.513056547059929,20.56677937447168,0.8330357551618367,0.437129143202691,0.0670940942748781,0.2515351273252664,0.3011974209395149,-0.1083320915624534,0.5741574566789467,0.2489754098360656,0.0194871368259052,0.0178367812347287,0.1437033557747508,0.723986856516977,LLTEKELLLYLSL,cell_junction,SNTA1_HUMAN
SNTA1_HUMAN_nonidr_4,0.0945850914205344,0.2197609001406469,6.564656738103887,16.44733018525245,0.5012628388617613,0.2228571428571428,0.1385917195527349,0.4824304538799414,0.178328173374613,-0.2681114551083591,0.4133692343713416,0.6193638587906326,-0.0275265825300606,-0.0540925502666534,0.2371693954659949,0.2424573544588114,TGTRH,cell_junction,SNTA1_HUMAN
SNTA1_HUMAN_nonidr_5,0.1123403284671532,0.099566605839416,5.842359767891683,16.593157991539453,0.8241255312193527,0.1058128349594613,0.1558730158730158,0.4011111111111111,0.3594890510948905,-0.0668252080856123,0.382339553937187,0.3363677742375967,0.0085490083150354,0.0068752024765127,0.1930805056553559,0.6770976768977924,SPQELAAW,cell_junction,SNTA1_HUMAN
SNTA1_HUMAN_nonidr_6,0.144562799953178,0.2282114105705285,6.908912702561421,17.419498170412965,0.8045000542829226,0.1810838101649276,0.1303106633081444,0.3949622166246851,0.0990694851825629,-0.0806458797327394,0.5787762341117352,0.5961016233178444,0.028859707693449,-0.0057125899547444,0.2449986107252014,0.5823134035676129,VDGCHRAAEG,cell_junction,SNTA1_HUMAN
SNTA1_HUMAN_nonidr_7,0.2625899280575539,0.5035971223021583,7.177875049741345,21.29395965483742,0.8628700949142938,0.8254416961130742,0.1968283582089552,0.618848167539267,0.7687007874015748,-0.0650803501437157,0.9999180103853512,0.6774325475717126,0.1107636290529748,0.0088682385265767,0.2796976241900648,0.7622390331447784,CTWNGRPCSLSVHIDKGFTLWAAEPGAARAVLLRQPFEKLQMSSDDGASLLFLDFGGAEGEIQLDLHSCPKTIVFIIHSFLSAKVTRLGLLA,cell_junction,SNTA1_HUMAN
TCOF_HUMAN_nonidr_0,0.1915164369034994,0.232237539766702,6.801540832049307,20.35554098360656,0.7145325351632842,0.5387709137709138,0.0879507475813544,0.3383705125129927,0.3541763882407839,-0.1558807134894091,0.2428571428571428,0.5488381552855036,0.0455580865603644,-0.0661107802263251,0.1713825465751506,0.5974891151340557,LIYHHLLRAG,nucleolus,TCOF_HUMAN
TCOF_HUMAN_nonidr_1,0.2463290662650602,0.4780057730923694,7.656616947000952,21.04326033312769,0.9561091697794916,0.7847957486511703,0.6070866141732284,0.6404820716050053,0.94863327829756,-0.0214811298362212,0.9312789309732452,0.8568203873254293,0.107154829749533,0.1150211020626523,0.3635192127460169,0.8928911792735872,VTLLDIYTHWQQTSELGRKRKAEEDAALQAKKTRVSDPISTSESSEEEEEAEAETAKATPRLASTNSSVLGADLPSSMKEKAKAETEKAGKTGNSMPHPATGKTVANLLSGKSPRKSAEPSANTTLVSETEEEGSVPAFGAAAKPGMVSAGQADSSSEDTSSSSDETDVEGKPSVKPAQVKASSVSTKESPARKAAPAPGKVGDVTPQVKGGALPPAKRAKKPEEESESSEEGSESEEEAPAGTRSQVKASEKILQVRAASAPAKGTPGKGATPAPPGKAGAVASQTKAGKPEEDSESSSEESSDSEEETPAAKALLQAKASGKTSQVGAASAPAKESPRKGAAPAPPGKTGPAVAKAQAGKREEDSQSSSEESDSEEEAPAQAKPSGKAPQVRAASAPAKESPRKGAAPAPPRKTGPAAAQVQVGKQEEDSRSSSEESDSDREALAAMNAAQVKPLGKSPQVKPASTMGMGPLGKGAGPVPPGKVGPATPSAQVGKWEEDSESSSEESSDSSDGEVPTAVAPAQEKSLGNILQAKPTSSPAKGPPQKAGPVAVQVKAEKPMDNSESSEESSDSADSEEAPAAMTAAQAKPALKIPQTKACPKKTNTTASAKVAPVRVGTQAPRKAGTATSPAGSSPAVAGGTQRPAEDSSSSEESDSEEEKTGLAVTVGQAKSVGKGLQVKAASVPVKGSLGQGTAPVLPGKTGPTVTQVKAEKQEDSESSEEESDSEEAAASPAQVKTSVKKTQAKANPAAARAPSAKGTISAPGKVVTAAAQAKQRSPSKVKPPVRNPQNSTVLARGPASVPSVGKAVATAAQAQTGPEEDSGSSEEESDSEEEAETLAQVKPSGKTHQIRAALAPAKESPRKGAAPTPPGKTGPSAAQAGKQDDSGSSSEESDSDGEAPAAVTSAQVIKPPLIFVDPNRSPAGPAATPAQAQAASTPRKARASESTARSSSSESEDEDVIPATQCLTPGIRTNVVTMPTAHPRIAPKASMAGASSSKESSRISDGKKQEGPATQVSKKNPASLPLTQAALKVLAQKASEAQPPVARTQPSSGVDSAVGTLPATSPQSTSVQAKGTNKLRKPKLPEVQQATKAPESSDDSEDSSDSSSGSEEDGEGPQGAKSAHTLGPTPSRTETLVEETAAESSEDDVVAPSQSLLSGYMTPGLTPANSQASKATPKLDSSPSVSSTLAAKDDPDGKQEAKPQQAAGMLSPKTGGKEAASGTTPQKSRKPKKGAGNPQASTLALQSNITQCLLGQPWPLNEAQVQASVVKVLTELLEQERKKVVDTTKESSRKGWESRKRKLSGDQPAARTPRSKKKKKLGAGEGGEASVSPEKTSTTSKGKAKRDKASGDVKEKKGKGSLGSQGAKDEPEEELQKGMGTVEGGDQSNPKSKKEKKKSDKRKKDKEKKEKKKKAKKASTKDSESPSQKKKKKKKKTAEQTV,nucleolus,TCOF_HUMAN
