seqid,srpipi,lrpipi,Water,Carbon,ssH,ssE,disL,disS,srELEC,lrELEC,sr_hb,lr_hb,srCATPI,lrCATPI,larkSIM,larkFAR
A0A024R2Q3_HUMAN_0,0.34685819320580025,0.3735371999658324,7.141564960379137,22.035574958201746,0.8646137230027896,0.63851895756543,0.35894852537094707,0.5683412191172148,0.928189854866922,-0.044724539056814415,0.7629228452270621,0.7277525781096577,0.2440891880521666,0.06150610012620951,0.2735277750499198,0.6710807335267419
A0A024R2Q3_HUMAN_1,0.08960692871419054,0.18978683256184214,7.067763287240317,17.836091831286705,0.8074974284734656,0.2263120492709375,0.09861450692746536,0.3522264206860784,0.046192740423252075,-0.056370153144346694,0.5742092457420924,0.5579256707116257,0.0077404534407564006,0.01814121340604923,0.15155502392344497,0.6366569557998935
A0A024R2Q3_HUMAN_2,0.15746658919233003,0.2335851249273678,7.277781236381747,18.01867016049787,0.8095834492995639,0.5629007510296374,0.11038808527099653,0.529809275521405,0.37646407616517213,-0.0733575911336627,0.6821575838626992,0.6556165906550547,0.024403486212316045,0.02049637331011119,0.2081731297374492,0.6399105154992293
A0A024R2Q3_HUMAN_3,0.13588565903184868,0.1988406257444612,6.823194654020263,17.129311869803644,0.8709818118375714,0.4044750430292599,0.0805744888023369,0.3298841469452421,0.48243243243243245,-0.03929618768328446,0.5713114754098361,0.5518839712918661,0.014192835081900229,0.005960750381560131,0.19557984790874525,0.6677326743467674
A0A024R2Q3_HUMAN_4,0.20904207699194272,0.24550155118924508,6.871098915630785,19.407037457434733,0.5911858808958613,0.33880332037810085,0.1517468625843476,0.5437236975765491,0.2932965178708391,-0.13221638087751192,0.5726616600019506,0.67486572265625,0.02707667731629393,-0.0081291633736028,0.28091773922775604,0.44319450407900385
A0A024R2Q3_HUMAN_5,0.1092722257585402,0.20942075111394018,6.003194888178914,17.546450082131777,0.8459673865138828,0.1740511620130413,0.12883913705763578,0.49295051188494104,0.19456440977059533,-0.06466530804201286,0.4667228306655434,0.3500741451500349,0.011617995849392233,0.03787753299099995,0.20308437721578823,0.6701941616967849
A0A024R2Q3_HUMAN_6,0.1159957627118644,0.23490466101694915,3.0193931811072883,19.552332608170172,0.6578387953941541,0.48728751997675435,0.05098572399728076,0.1257647858599592,0.2197398783301867,-0.25109601994326486,0.06761430246189917,0.0758736971183323,-0.02395165987186954,-0.07352941176470588,0.11832606544761626,0.5126701419055893
A0A024R2Q3_HUMAN_7,0.2582697201017812,0.4534276519521525,7.022508451790198,20.970562518216262,0.723546959777364,0.5630438807628217,0.4515643592076713,0.5655584609637654,0.7027027027027027,-0.05819817212320914,0.9752846379629456,0.7572922559215584,0.1642652694901276,0.022366354884959378,0.29987983908886684,0.5394381067648649
RCCD1_HUMAN_0,0.1965674873686743,0.29856115107913667,7.559726962457338,17.03909329829172,0.6901825357671436,0.4181027985730794,0.19253302699597932,0.5439402642159679,0.4418491484184915,-0.07113958192852327,0.4815456884017448,0.6238828364537804,-0.014221073044602456,-0.07473452213985174,0.25370117454247476,0.5522905898180274
RCCD1_HUMAN_1,0.05891296085138731,0.1468738438771735,5.528391425298642,15.780232367861235,0.5982653262369406,0.23634930021683423,0.11596294399702062,0.43419536551017796,0.28452549575070823,-0.13636251328045856,0.5057680631451124,0.32857459871292255,0.009849126438944826,0.004077663812301998,0.19470991791251932,0.5090129837388125
RCCD1_HUMAN_2,0.17461167648634174,0.40010712372790574,5.213963963963964,21.559585492227978,0.48906560636182905,0.41238643518934964,0.043143762256750644,0.11768566116154434,0.18597612813275752,-0.280953514469344,0.17986829727187206,0.4026340545625588,-0.019638648860958365,-0.10903377847604084,0.16647081864473168,0.43206939974814607
RCCD1_HUMAN_3,0.17076502732240437,0.3827088212334114,6.85570987654321,21.052754982415006,0.7939435899971976,0.342067682906579,0.18992440069783972,0.5220064322393788,0.9446401610468043,-0.05633256791817016,0.8348464488217364,0.5862271924661565,0.01378017100486865,0.027626257876422457,0.25624766878030586,0.5342146521800135
RCCD1_HUMAN_4,0.06984895800140208,0.06003441463259193,5.794439274080968,14.814099581200558,0.555229716520039,0.06075644785322205,0.10853478046373952,0.21361618154908732,0.11263062830602504,-0.5471552057798994,0.5795266923500275,0.23307649972482114,0.0031996587030716723,0.019197952218430035,0.12332439678284182,0.14075067024128687
RCCD1_HUMAN_5,0.12714776632302405,0.44329896907216493,7.198121027908262,17.825581395348838,0.8205555881834733,0.2695100010583131,0.2069747660901616,0.4788993052395255,0.38134519177320736,-0.07788977614871057,0.4387255861286156,0.68,0.01270338066416588,0.00952753549812441,0.2654302064173309,0.513743472844382
RCCD1_HUMAN_6,0.14434404666590414,0.3016127187464257,7.063309200443904,19.08473533032417,0.8655944143133221,0.6308358642545887,0.1961491838863361,0.5755119989948486,0.5091457482000389,-0.08678004763342391,0.8143485211830536,0.6854715073229605,0.06749884419787332,0.028185515960739236,0.2644756039158472,0.7333774622811623
RCCD1_HUMAN_7,0.11245569001344578,0.23416455527403654,7.252871621621622,16.575428963623885,0.6096132020490169,0.38940092165898615,0.13992222942320157,0.5291744392867989,0.2882053503736597,-0.17071283789011124,0.5187039890429721,0.6838060639932932,-0.0060202633253389455,-0.0036708922715481375,0.21411149825783973,0.4411066546615372
RCCD1_HUMAN_8,0.1910747957259585,0.32157554379776604,6.994326490027491,20.04464401926331,0.5031977656954933,0.5431266846361186,0.19861880440256097,0.5097324470492935,0.5689960898426843,-0.08526745159509093,0.7597697882620434,0.6291721255224905,0.17802400738688828,0.031946321020450225,0.25893937357171665,0.32182874755193114
MEI4_HUMAN_0,0.15969636207390434,0.22790747636780292,6.716686065598233,20.29478366356652,0.7949936690367196,0.21230204268992425,0.20632452047693106,0.4753493788819876,0.5768421052631579,-0.07409702001115173,0.6821956814047299,0.5192897497982244,0.33610188261351054,0.037467700258397935,0.2210813209101857,0.7179174647396831
MEI4_HUMAN_1,0.028113087674714106,0.03303684879288437,6.096757852077001,14.87835534725181,0.4705039933902506,0.3399063618837786,0.07731984829329962,0.25926675094816687,0.27848101265822783,-0.20264672036823936,0.11379556826304503,0.2934953538241601,-0.05485340899320781,-0.09891668816094919,0.17002487562189056,0.28826109063175287
MEI4_HUMAN_2,0.19248719408081957,0.2371656232214001,6.181223832528181,19.46027811620384,0.753418128742069,0.40006200431253874,0.19554568238778766,0.5755237045203969,0.6615278442547223,-0.06397562833206398,0.6668056713928273,0.5931721194879089,0.05782697086062796,0.03003562619895862,0.23607843137254902,0.584987909954705
MEI4_HUMAN_3,0.15911282545805208,0.24770973963355833,6.894834404349975,18.98853439680957,0.5953557880216117,0.21681074405680767,0.0840941367417326,0.3233030993423032,0.17583124652198107,-0.1568663257852447,0.6005357705641349,0.5263859275053305,0.08678304239401496,-0.013192757783175094,0.15164209115281502,0.3927678399692249
MEI4_HUMAN_4,0.22448979591836735,0.2506467375682667,6.364197530864198,15.584715800924666,0.6245631552670994,0.37549167927382754,0.16146200203490646,0.5131877592549111,0.518205222508275,-0.17509920634920634,0.6551229508196721,0.4851855403202608,0.028859707693449067,-0.005712589954744417,0.2416297390448055,0.3142857142857143
SYNEM_HUMAN_0,0.15972934180848883,0.3863030551568587,6.236322908589644,20.54774774774775,0.7842631409222831,0.2868191992041781,0.12777958563835556,0.5910619373033952,0.1447754930759547,-0.05203593513008984,0.6138136511375948,0.6109779594905775,0.009607645013786371,0.010566696922470928,0.21141399982105044,0.572131980584906
SYNEM_HUMAN_1,0.10122501611863315,0.0481514279388975,5.480493630573249,14.956608280254777,0.7181684410975504,0.0814507054444733,0.06358010275572162,0.15489257356375524,0.28906595838866755,-0.482514386896857,0.2750161394448031,0.2309290590679727,0.020811824159104493,0.002934304189534315,0.09651853948485706,0.44921471124021467
SYNEM_HUMAN_2,0.17347130761994356,0.43800564440263406,6.620391491167577,20.898318190605064,0.8496871255491946,0.2643816177273223,0.1074676219344172,0.3699366216588592,0.03828351012536162,-0.06239339564713106,0.45041454081632654,0.542344217510082,0.020811824159104493,0.010183415580340588,0.17574072093272008,0.7
SYNEM_HUMAN_3,0.21944877795111806,0.4315536670977277,7.0999053709173285,20.727272727272727,0.9038699668369888,0.18920821114369502,0.08795074758135445,0.42082110061624756,-0.002833691616181356,-0.03798642513757704,0.576267243820543,0.5103668261562998,0.012756790245138762,0.011092781159337846,0.17877659097028992,0.7877566803020127
SYNEM_HUMAN_4,0.18521909744931328,0.27723366948569655,7.289870190078813,19.5100466778499,0.8840334619788796,0.30339943342776204,0.48074343744012266,0.4525352924229329,0.498971898560658,-0.0457792973947272,0.6244250029690036,0.6671249494541043,0.01612121212121212,0.02565262598122088,0.28649653889864657,0.7844327865051302
SYNEM_HUMAN_5,0.1662351575752165,0.17914605571465764,6.971993410214168,17.586852453410838,0.8953877287163776,0.2132740552556367,0.1018512628029773,0.45933670855296865,0.25960307298335467,-0.053739195791055995,0.6151451474822943,0.5391801831958857,0.024476519114936986,0.007701767679904598,0.158207656612529,0.8261312289187297
SYNEM_HUMAN_6,0.08493171132174043,0.06724382416598254,5.907663146493366,15.364202545356079,0.7941488555403972,0.08814612702743671,0.037723846791449,0.10376467413304548,-0.1894543748133612,-0.08839213344140609,0.22195169458511882,0.22604207245812233,0.009849126438944826,0.004077663812301998,0.07487709567628892,0.5951252538930264
SYNEM_HUMAN_7,0.13494167550371156,0.3187274909963986,6.530520995334371,17.46581586144029,0.7675574891236793,0.1826151837343779,0.10819112627986348,0.2392491467576792,0.1853504856917826,-0.34733525859805725,0.32892944701716154,0.5269280482550625,0.35842642059252067,0.001890705050012198,0.1677071509648127,0.5522905898180274
SYNEM_HUMAN_8,0.1676190476190476,0.20864661654135339,6.301551206042395,17.28400877121741,0.6948813268515871,0.45242152712879996,0.058804347826086956,0.22799611351224577,0.2843364284268981,-0.1568663257852447,0.26712833357890087,0.5885407725321888,-0.012212250339229177,-0.04013616778156021,0.15009727626459143,0.5047081902893575
SYNEM_HUMAN_9,0.15912117177097204,0.2661451398135819,6.814725198755617,20.086866902237926,0.7026939829004678,0.3319805194805195,0.07921684279511755,0.1826820676660932,0.1563199105145414,-0.14501063534634237,0.1396020714091033,0.5464159171436359,-0.015318845742785893,-0.0818489490559316,0.17985874330248416,0.5475315576033357
NKRF_HUMAN_0,0.27958579881656803,0.3821836099585062,7.309942710452995,19.99424017003188,0.7741453390622081,0.7927381277558825,0.4579516663418437,0.5915687629578438,0.7457755959958603,-0.04498269896193772,0.9277114386889566,0.7114085257804734,0.09480355318522624,0.023957848533110164,0.3208181563463155,0.6866173042643631
NKRF_HUMAN_1,0.10394195701094126,0.11853940923259611,6.504787234042553,16.16209874225643,0.5019050917907862,0.24925833629998814,0.20427568602425017,0.5922546182951257,0.46473837409181545,-0.053112033195020746,0.6967172954434101,0.38640684410646386,0.020558608917484195,0.02367241282286958,0.2342236257560349,0.2622298580341803
NKRF_HUMAN_2,0.16227180527383367,0.08326080649840441,6.20276836990134,16.424177701836822,0.5914920237722865,0.1498299421206516,0.26616915422885573,0.5211442786069652,0.6415751406375569,-0.07161078717201166,0.5246068220133484,0.39539257169722614,0.014259240193555029,-0.010038093277051375,0.2149985742800114,0.4127959658038845
NKRF_HUMAN_3,0.15013227513227514,0.35119047619047616,7.247183187745284,18.060606060606062,0.742557944708182,0.3807416772018542,0.17812682357517992,0.4917521470775584,0.3560897435897436,-0.0869172388868811,0.6127315175097277,0.6468707499224547,0.011399832355406538,0.04618608549874267,0.2248447204968944,0.49821857793082286
NKRF_HUMAN_4,0.10631905408024811,0.07260791724686692,6.401234567901234,16.681840466735306,0.5093514695166383,0.7470775770456961,0.2056818181818182,0.4357900248723655,0.576489480238579,-0.0695807314897413,0.5786379225869672,0.34611683848797253,0.005073315597351977,0.02988306626245128,0.19626146495704638,0.27551804497071236
NKRF_HUMAN_5,0.08822316888827814,0.09811735605331867,5.566328201768752,16.02850551140733,0.40626853865928414,0.36519735375009293,0.07147663551401869,0.2959252336448598,0.23900315846236808,-0.24048231946890666,0.3429796355841372,0.4531975705609146,-0.03433260760341651,-0.08223078211354883,0.14321987905101566,0.29214929214929214
NKRF_HUMAN_6,0.08347396335583414,0.060691899710703955,5.686995515695068,16.123766816143497,0.42662116040955633,0.3763574309649395,0.037723846791449,0.10376467413304548,0.08394607843137254,-0.8237336601307189,0.16238962472406182,0.31346578366445915,0.1553153153153153,0.024144144144144144,0.11284221324613708,0.3927678399692249
NKRF_HUMAN_7,0.18435701834948362,0.2956260170619853,7.413032191069575,20.587735119814482,0.8897138178705668,0.6744847192608386,0.3753249350129974,0.5648310967144841,0.5612771837951851,-0.048730075571089215,0.5657754010695187,0.70378231292517,0.006897261684167181,-0.0007125354095340714,0.29362645717181957,0.8047506680084672
NKRF_HUMAN_8,0.0873083880795963,0.11925164238788917,5.747991052936791,15.575896262395117,0.44980421561276346,0.5130860897650072,0.23404255319148937,0.371314674860892,0.6605461393596986,-0.20065235690235692,0.48870979452552094,0.473652872878833,-0.009263870903476442,-0.03867528637858682,0.2496785806119825,0.2554684949396017
ZN185_HUMAN_0,0.28928743469077706,0.46393980629152326,7.813651361011823,23.153944155430512,0.8914836227481601,0.8779514996809189,0.5906591082155851,0.656940441882805,0.9492989020930137,-0.04226790089844813,0.9796166033665191,0.8909668313338038,0.19571763872282008,0.0722885098044479,0.3433380217894009,0.7498673054153
NPHP1_HUMAN_0,0.2363391050146166,0.4442999566536628,6.960406210560301,21.316532258064516,0.9254434351775392,0.7023561277310584,0.17952603611058493,0.5319424273648512,0.7865590538596772,-0.03548441260424246,0.7595295786301046,0.6433554403199135,0.33845262242828167,0.034843990538054294,0.2621732127369595,0.8087343618082738
NPHP1_HUMAN_1,0.2243012243012243,0.49162011173184356,6.9568730824078475,21.991353220925205,0.7438151305995399,0.4741909601497727,0.19643997349557255,0.5771986387247,0.827004467434752,-0.06737460013850873,0.9225128330481545,0.6217043451308576,0.07832175423360833,0.02857918274393194,0.2444180263615551,0.6263760937757966
NPHP1_HUMAN_2,0.1500805152979066,0.30861070911722144,6.92474263400781,17.632577409507196,0.6584433634468381,0.3233163624322199,0.19024254767635623,0.5384292607874677,0.5058297020374514,-0.13221638087751192,0.6893794252394836,0.5921066015664734,0.024814530570478385,0.04553594269634178,0.22770424779987528,0.4473183888225671
NPHP1_HUMAN_3,0.1031778119188162,0.20215088542087814,6.550850283427809,17.413137712570858,0.47483253588516744,0.3311004784688995,0.03490136570561457,0.09070982970831226,-0.38799016435874206,-1.209525042060308,0.13447593935398813,0.5666446934739617,-0.12654387865655473,-0.5462621885157096,0.11482963501879472,0.4410088517036498
NPHP1_HUMAN_4,0.055848513902205174,0.035974842767295595,6.300919842312746,13.827660891089108,0.2548823948681397,0.12900926585887385,0.22717391304347825,0.5880434782608696,0.18401937046004843,-0.0946617008069522,0.22340425531914893,0.3191489361702128,-0.08890438420639762,-0.2067462738603678,0.2328374655647383,0.08776126920171241
NPHP1_HUMAN_5,0.07398932112890923,0.07805746249682176,5.595942028985507,18.026578073089702,0.2937352726090843,0.5670807453416149,0.13873626373626374,0.4807692307692308,0.45698596705308114,-0.17512629299975943,0.8515299026425591,0.34666203059805284,-0.0031458411979363283,0.02466339499182081,0.23667570009033423,0.24330844342331992
NPHP1_HUMAN_6,0.18031564558220456,0.4165527525786007,6.549630655586334,19.659449706811007,0.6293513893225101,0.22023996124141468,0.13243036855431856,0.48770145894457617,0.29962495426271496,-0.1287805242326936,0.45420570871472676,0.5932599517490953,0.05740057400574006,0.020577709611451944,0.1885740589198036,0.4796062547098719
NPHP1_HUMAN_7,0.21772639691714837,0.37572254335260113,6.692426584234931,21.25750452079566,0.7295130777334983,0.26422331131472404,0.06554919596620333,0.17157263559553013,-0.1621129326047359,-0.08839213344140609,0.16605166051660517,0.6309963099630996,-0.039237206749897106,-0.06626423377692413,0.1549601737871108,0.475656485968669
NPHP1_HUMAN_8,0.13140625,0.2290625,5.815099381994321,18.897261499910506,0.6040628593330778,0.5933023807171787,0.08282240465551284,0.2703418892237348,0.5074709463198672,-0.16125892277741727,0.540450627551792,0.34061696658097684,0.09090909090909091,-0.04329004329004329,0.1851453876461203,0.4239162059935991
NPHP1_HUMAN_9,0.19226299186451934,0.3077167859984089,6.330338040222507,17.321017083829958,0.8652447495301135,0.31794621026894865,0.23947259991759373,0.5707943670172119,0.5172230652503793,-0.072656,0.7352825165171087,0.4832881662149955,0.02734523357387011,0.022261169018848198,0.2822964455687519,0.6921518987341773
MSH4_HUMAN_0,0.2757169022169979,0.4210016395886123,7.52413975882327,20.5564263322884,0.6757429922323539,0.835887861429884,0.5227177990829512,0.6038026721479959,0.7470064152020207,-0.054388133498145856,0.7672868494622175,0.8868718175780386,0.028474422023486587,0.04860829914966286,0.30191802717205163,0.5865890570430733
MSH4_HUMAN_1,0.025095471903982543,0.08019639934533551,2.1105121293800537,13.884097035040432,0.3216374269005848,0.2719298245614035,0.03303509979353063,0.2050929112181693,-0.041935483870967745,-0.3032258064516129,0.06340674883814912,0.09339260456657911,-0.013986013986013986,-0.2062937062937063,0.13388324873096447,0.29378172588832485
MSH4_HUMAN_2,0.025473380317568142,0.024539356372590644,2.953881536475145,16.494593285990963,0.6202629543696829,0.21458201504605218,0.044562221751113,0.1501377994488022,-0.006756756756756757,-0.1568663257852447,0.054796192335855504,0.07151574322675128,-0.0515353718579943,-0.11965535112723504,0.10556469453740995,0.4776220999489478
MSH4_HUMAN_3,0.06984895800140208,0.16036866359447005,5.610814927646611,15.91251763757307,0.46579804560260585,0.2683224755700326,0.16784605834885163,0.4871530684525726,0.2775389318811503,-0.2343242267420869,0.5944194657498016,0.5227453054747422,0.009620670698185816,0.008658603628367234,0.19997469475548807,0.2850467289719626
MSH4_HUMAN_4,0.06984895800140208,0.06003441463259193,5.6067325136061275,15.91251763757307,0.63782804215048,0.14206128133704735,0.06385734969138154,0.25043816200563895,-0.023964308476736775,-0.6795877557298877,0.5334773218142549,0.30334773218142547,0.009620670698185816,0.008658603628367234,0.13281688559559895,0.3214519293655984
MSH4_HUMAN_5,0.19408866995073892,0.27060755336617404,6.194539249146757,18.897261499910506,0.454003059663437,0.5329626687847498,0.08068932195200515,0.2042569622086008,0.329815849368922,-0.1949379411048917,0.2315410342166195,0.43710621896078866,0.020368355902321916,0.0076522000075021565,0.18537376902417188,0.327683615819209
MSH4_HUMAN_6,0.12170166935918147,0.31610123855681205,6.269414048711613,17.211702127659574,0.7835650702567498,0.16314076484947113,0.09464113514258163,0.3338831800973499,0.17943465792707908,-0.07583845301641656,0.35873925501432663,0.3616045845272206,-0.011541895166432854,-0.0645963525060579,0.19015340706386016,0.5697737378377935
MSH4_HUMAN_7,0.054371002132196165,0.07155399473222125,5.88132530120482,16.340582554761717,0.4935064935064935,0.5580243931892284,0.05815846599131693,0.24927641099855283,0.4731369150779896,-0.39827524254401725,0.4363138130518624,0.3492337359179945,-0.013467322942302434,-0.05728739403882964,0.17626895187870797,0.38702092640489066
RRP8_HUMAN_0,0.28978209119208936,0.41127108912640226,7.766977850997621,21.605847639484978,0.9184183321847003,0.5704269065958271,0.5040590405904058,0.6566532935433507,0.7348913043478261,-0.0343021011415651,0.8312955516930124,0.7790263305152675,0.14488504860361057,0.05974568695807634,0.30433330151761,0.8459170704583366
RRP8_HUMAN_1,0.14433474377056887,0.3638928067700987,6.904327535002121,20.763157894736842,0.672,0.24054643891383726,0.25274725274725274,0.46153846153846156,0.6024096385542169,-0.09300553664854981,0.5480559767170318,0.6275698694266618,-0.011234814879243861,-0.026144185484844824,0.24994560881862354,0.5602214921576939
RRP8_HUMAN_2,0.03435510143639864,0.03361468976751074,6.804953560371517,13.089783281733746,0.46483771251931993,0.0812403400309119,0.13383545770567787,0.3146002317497103,-0.09060109289617486,-0.820327868852459,0.16620111731843576,0.26955307262569833,-0.12402588825782591,-0.302734117025492,0.1484339536995007,0.1141625056740808
U3IP2_HUMAN_0,0.1979837731475242,0.25320577646535336,7.339565943238731,20.943908851884313,0.9522541373406886,0.6461538461538462,0.28821315646158974,0.5190661114490245,0.7433071930773391,-0.03770427677329624,0.6880061637566475,0.7190087943323039,0.04298564024037588,0.020549823039728826,0.24071555575053613,0.8333416411616338
U3IP2_HUMAN_1,0.22326001807773427,0.24630912925579995,7.270990990990991,17.6964586846543,0.6295907366180815,0.6550701186623517,0.3696399908277918,0.5444291609353508,0.72264631043257,-0.0706930997387429,0.3447942408939508,0.6152739528957212,0.03923990498812351,-0.022422802850356294,0.2585015940488842,0.33605277964317476
U3IP2_HUMAN_2,0.15207060420909707,0.23372615039281705,6.530520995334371,16.6146967340591,0.7716077026421854,0.18991548074839268,0.0755129294646109,0.3648206315093404,0.021819737592698233,-0.11018893387314439,0.23250823435472603,0.5078932261768083,0.012947757827303077,0.008458901019579535,0.13375104125167506,0.5663613784538963
PGRP1_HUMAN_0,0.07207207207207207,0.09009009009009009,4.428571428571429,16.34817170111288,0.4404216315307058,0.25221953188054885,0.18220793140407288,0.5702036441586281,0.6427973199329984,-0.16289782244556114,0.5120385232744783,0.3162118780096308,-0.02385496183206107,-0.08284702956089161,0.23213194868662188,0.22003231017770597
PGRP1_HUMAN_1,0.18059701492537314,0.20005278437582474,6.972277889111557,16.537297402851006,0.7748434061283224,0.1534696228044918,0.2299154334038055,0.5764482431149098,0.6395206651993153,-0.08210609269566074,0.5791015625,0.7467105263157895,-0.012108917517149072,-0.06627488706709052,0.2243068451046936,0.6563491588337425
PGRP1_HUMAN_2,0.1789319678127286,0.2254572055596196,7.076253524580115,16.78262161894382,0.5719054956343091,0.2865260522007127,0.1405175899716943,0.4282248281439547,0.017828909745349345,-0.1446496451037777,0.5311830481613007,0.6287454651319031,-0.0021875394388119977,-0.01034874426822599,0.21736999460863599,0.4347158680471948
RPP40_HUMAN_0,0.029143835616438355,0.04202054794520548,3.1029232643118148,13.683922046285018,0.5256882722740083,0.20030349013657056,0.0659848559347035,0.24614023011112204,0.06164734844599446,-0.19899476869422505,0.05069984447900466,0.09237947122861587,-0.031433823529411764,-0.09393382352941176,0.12131956220132573,0.30237397872668415
RPP40_HUMAN_1,0.07567533844906107,0.06276124524299707,6.108487555839183,13.84,0.5266720201904325,0.1025582195709533,0.07731984829329962,0.25926675094816687,-0.21929190751445088,-0.44039017341040465,0.20213713268032057,0.25383405426661426,0.009849126438944826,0.004077663812301998,0.125,0.39805825242718446
RPP40_HUMAN_2,0.1480565371024735,0.2156510006746121,7.054416403785489,16.891653290529696,0.45213877664762436,0.14894802842413266,0.10082541009298923,0.3695809248554913,0.02928772258669166,-0.327319587628866,0.30207612456747407,0.616035703293321,-0.047989031078610606,-0.08165752589884218,0.15498087780003642,0.2515849182515849
RPP40_HUMAN_3,0.15201654601861428,0.24820512820512822,5.970443349753695,16.45320197044335,0.63782804215048,0.1897001303780965,0.18651685393258427,0.5775280898876405,0.17881902940473343,-0.15796615011069057,0.652813590171394,0.46839701994712807,0.1369158878504673,0.020021117608836906,0.2210796915167095,0.3927678399692249
RPP40_HUMAN_4,0.18888888888888888,0.2993557294063507,4.752382212811011,19.691768131286395,0.43080357142857145,0.3452847805788982,0.07908068701346843,0.22192017793154578,0.35421785421785423,-0.30814905814905813,0.09104972375690608,0.28994475138121545,-0.7758843666793458,-1.6491441612780524,0.17673361121636982,0.24860675722744688
RPP40_HUMAN_5,0.08842405514618493,0.09246493938673639,6.108487555839183,14.609477124183007,0.46483771251931993,0.0812403400309119,0.09099203715992037,0.36139681486396813,-0.04035567715458276,-0.1853625170998632,0.4764749813293503,0.3330843913368185,-0.06031396309556596,-0.07463508675296061,0.12568984547461368,0.2599577017976736
PIAS1_HUMAN_0,0.08373205741626795,0.08851674641148326,5.957210980796495,16.78761892000536,0.7584328063949528,0.10346979530703944,0.08795074758135445,0.3383705125129927,0.06812021213906895,-0.07767957715969154,0.4863005846612404,0.4248538346899003,0.009427974506122233,0.007669320075106445,0.13117193069460373,0.6141080513607365
PIAS1_HUMAN_1,0.1548195013025679,0.3306661704503163,7.251839738348324,18.049382716049383,0.7748814301349872,0.23189306807584706,0.17355566784571333,0.5068262077836972,0.2767028567962637,-0.09221016543493378,0.6002229831966234,0.6561141828468561,0.004517983923018248,0.027671779838770817,0.20100098863074642,0.6612825424826693
PIAS1_HUMAN_2,0.16686531585220502,0.22852336897753214,6.539638812366085,20.66947723440135,0.7162557781201849,0.285835333992374,0.06554919596620333,0.17157263559553013,-0.020169851380042462,-0.12262806813030244,0.2621448212648946,0.5689906814864714,0.020811824159104493,0.002934304189534315,0.1189192786317961,0.49871800638747693
PIAS1_HUMAN_3,0.2907598586309524,0.28018043154761907,6.574854325414612,18.623157894736842,0.5421792618629174,0.5181342069488089,0.341541755888651,0.5823706680060271,0.6703939446069155,-0.06227616394747314,0.7790697674418605,0.6278930614394103,0.04085108568200686,0.012216773757186338,0.29841808919474483,0.4339194077563725
PIAS1_HUMAN_4,0.09114651344998694,0.13201880386523895,6.366071428571429,15.812707894915484,0.520561869132491,0.21559963294981294,0.18154761904761904,0.5115546218487395,0.4620557156580211,-0.11429323852788202,0.6326295244854506,0.4829340682637269,-0.012339983854226733,0.00438242417252912,0.26107942079859586,0.3172934415217461
PIAS1_HUMAN_5,0.03306581059390048,0.03317281968967362,4.236263736263736,14.280219780219781,0.4475909053599278,0.16555856521382253,0.08819891142998515,0.2342899554675903,0.025381315538608198,-0.23319828408007626,0.47732585320243104,0.19448340345956056,-0.05618830675778284,-0.05087319665907365,0.12210251387528567,0.2554684949396017
PIAS1_HUMAN_6,0.12787895018746653,0.11355115158007499,5.341798215511325,16.58579272477694,0.6097968629467729,0.2881417208966016,0.09767388366543028,0.3666135599221101,0.29486408138708087,-0.18863302302792748,0.44549732892393795,0.40441363520732637,-0.011592802801594011,-0.026144185484844824,0.18793447085703174,0.39922380336351876
PIAS1_HUMAN_7,0.18853893263342084,0.22440944881889763,5.762779552715655,19.0317775571003,0.3891264185801003,0.5098934550989346,0.26811594202898553,0.5800865800865801,0.3356536266184046,-0.05855018587360595,0.524121609320954,0.5340433278718368,-0.028345598255655493,-0.08814384910353404,0.21790722761596548,0.35056446821152704
PIAS1_HUMAN_8,0.2317024661893397,0.30031821797931585,7.195273887973641,18.06966618287373,0.45439093484419263,0.4168187347931874,0.3585963996869293,0.5206837339993756,0.6992140266021766,-0.06261212773591676,0.43991595890532914,0.7362893081761006,0.04903078677309008,-0.035550878477306,0.28315637065637067,0.30471311475409835
PIAS1_HUMAN_9,0.14589978897776906,0.2179985370759806,6.870897393959219,17.517587939698494,0.8011000220555801,0.22209302325581395,0.19855014095851792,0.5540945284535028,0.34446878422782035,-0.05351071692535107,0.8613002042205582,0.6322197791805565,0.016273087261901322,0.017560870502046973,0.19466802779850015,0.6814920416092242
PIAS1_HUMAN_10,0.21330589849108367,0.4646078163432632,7.068187274909964,20.491091822750114,0.6502872725758775,0.4252013808975834,0.22106308991554893,0.5157852670840549,0.3390220879743251,-0.10471480382459611,0.7362240289069557,0.5675751252984577,0.00558909889556257,0.01081608715845489,0.25423465423465424,0.4679984752928131
PIAS1_HUMAN_11,0.22066971080669712,0.32189138391532296,7.31491737449432,19.905923344947734,0.6368423494478983,0.7882262088630153,0.3522979742975387,0.5857468807169726,0.776848348049304,-0.06356302020137514,0.7172686230248307,0.8043056683875364,0.261864406779661,0.03053709449643911,0.282553516146544,0.5441185866717781
PIAS1_HUMAN_12,0.028298215377772835,0.06395550921098367,4.1746570063203325,16.783652730133348,0.8473670538464393,0.3399063618837786,0.07877366684036825,0.25586242834809797,0.1818926893235712,-0.04959585933068633,0.4048935298935299,0.2451883701883702,-0.006088511739411697,-0.05767247787822834,0.13804192472606003,0.7271624114163674
PIAS1_HUMAN_13,0.13640945234628737,0.21368574308433194,5.503431708991077,16.515109265601794,0.5993688918844399,0.24821543457614656,0.11815644049450237,0.37811200364610037,0.16489535111169068,-0.15381019167835436,0.4294483355630755,0.34492269724903823,-0.03214543246423014,-0.07356948228882834,0.16177582296749365,0.44606286712176535
PIAS1_HUMAN_14,0.14991874322860238,0.2619589977220957,7.156684491978609,16.66008947828102,0.6390482855143457,0.5928495197438634,0.3657167530224525,0.5293976481881449,0.5783090491258889,-0.12262806813030244,0.6304347826086957,0.6754266211604095,0.01455566661906802,0.028673425674710838,0.2897959183673469,0.44911708607641665
RL1D1_HUMAN_0,0.12171973077213945,0.16320515969204155,6.516634689178818,17.973330050878058,0.8257009010731614,0.25646422128683105,0.20692591972989827,0.519446189279732,0.4265867611005176,-0.06208232445520581,0.564486865977755,0.6181210337717454,0.023048343434564845,0.009326742873425907,0.24501075556561924,0.6623672937232259
RL1D1_HUMAN_1,0.02979480933195915,0.03307411224585403,4.262502323852017,15.928480610298791,0.39429886685552407,0.34277620396600567,0.19060523938572718,0.42140921409214094,0.1275520942959377,-0.22391577624135764,0.45799224472210254,0.1956053425247738,-0.026455026455026454,-0.06305114638447971,0.19102486355366888,0.34113273562212987
RL1D1_HUMAN_2,0.17922606924643583,0.2630772178578272,6.539638812366085,21.165610142630744,0.6993060909791827,0.505647047116772,0.3261687264911338,0.5511202678341488,0.4043035107587769,-0.04829910141206675,0.6506861063464837,0.5689906814864714,0.06355177192635121,0.02450760408875592,0.24755069491911597,0.46793166223218036
RL1D1_HUMAN_3,0.1524812863875797,0.2672581092320488,4.613045273152608,18.52231631952392,0.3878871300757054,0.4255388634879164,0.10984594775619558,0.2592096450100469,0.3053977272727273,-0.32925989672977624,0.33707865168539325,0.3061797752808989,-0.09841269841269841,-0.1,0.17673361121636982,0.20075786282682834
NOL4_HUMAN_0,0.1064516129032258,0.08885630498533724,5.880407124681934,14.072700836059616,0.5953557880216117,0.11874928152661225,0.08394110361910004,0.3079675244254851,0.03654970760233918,-0.16228070175438597,0.4421553090332805,0.3744186046511628,0.009849126438944826,0.004077663812301998,0.12682594701658825,0.35890472115778116
NOL4_HUMAN_1,0.10067831723861397,0.21949947862356622,6.427023945267959,19.93980625060851,0.7351019341348667,0.5295008280104093,0.1519434628975265,0.5277577505407354,0.435804542702576,-0.14325693145673216,0.43659199550098415,0.6012588362663723,0.0997341211225997,0.05129990714948932,0.21316464256530193,0.6810107387119735
NOL4_HUMAN_2,0.21414112615823236,0.3002993585174626,6.874723328906596,19.724101732118147,0.657335771557181,0.7449925140614252,0.21095890410958903,0.5799614643545279,0.710418680746635,-0.07039231235713952,0.8302014558997799,0.6568279187926543,0.11139455782312925,0.012590698842897043,0.30029707350989193,0.4127959658038845
NOL4_HUMAN_3,0.18488104374520337,0.23894630192502533,6.822848370486455,20.213447077964908,0.7379593617098615,0.3550412679261839,0.22340343579077113,0.5705583756345177,0.4506405425772419,-0.085985506632199,0.6308150353554149,0.6469348013880145,0.016713091922005572,0.05129990714948932,0.27468290208016233,0.5909646739130435
NOL4_HUMAN_4,0.2556110747051114,0.3184040562564133,7.230628956785026,20.729544227654817,0.8775401381401898,0.6834795760362026,0.3528089079167491,0.6111699271192942,0.9915154371906669,-0.04579640306341967,0.9393558788242351,0.7394831579477368,0.4218812756044662,0.060736368031347805,0.27830511373353856,0.7489041627340054
NOL4_HUMAN_5,0.3178778910446125,0.4060067960100844,7.482054074530044,20.7840184930651,0.8795196056104063,0.7928453559641678,0.3178082191780822,0.6234654157101507,0.6886883144627216,-0.03608355007545837,0.8436440182434803,0.7451445608583367,0.15475694154923705,0.03870017531036529,0.30773980003087004,0.8176966292134832
LC7L3_HUMAN_0,0.10851916812828864,0.24227033769936737,7.2926829268292686,16.514147606696532,0.507330031812666,0.3113217373190293,0.16037179899282117,0.4287184177432263,0.18233711163663052,-0.06500051958848592,0.6495111731843576,0.6289964638458725,0.013011258862202064,0.009357569093678773,0.1791193713359112,0.2680595091036038
LC7L3_HUMAN_1,0.18751452250019363,0.25037707390648567,6.239133126934984,19.62146074646075,0.8095220078193972,0.2737708802274612,0.1512656297651723,0.4413113936674146,0.41308089500860584,-0.06418309596367934,0.5830011243994685,0.5056258244742764,0.16107799304520615,0.020351931245088578,0.21300910809417425,0.5989233805849632
LC7L3_HUMAN_2,0.18868801052998335,0.2617836554764327,6.491467944232115,17.08564353770792,0.779448934810988,0.47426597582038,0.29445778156379876,0.49650558175075016,0.5019311502938707,-0.08473755047106325,0.5445544554455446,0.5876772616136919,0.025061074359748567,0.01773215118992067,0.27769844940972993,0.6778451317917141
RPP29_HUMAN_0,0.19561933534743203,0.24954983279503815,7.314688414147682,20.740037194473963,0.9100000808479332,0.6781569965870308,0.25201023391812866,0.6203367360466658,0.5246011273526321,-0.03567414561045665,0.618834851349029,0.6676728615952903,0.10468941382327208,0.011576255216045227,0.19122685906232373,0.7834933667635592
RPP29_HUMAN_1,0.11674849972722313,0.10756652773324783,5.716860034559368,16.72972972972973,0.7135162150155486,0.19307577454273983,0.17744344857020913,0.4284037558685446,0.3131229235880399,-0.06682520808561236,0.42044198895027624,0.39171270718232043,-0.02648458514380302,-0.07517759845506587,0.24442877291960508,0.6092762270047588
IF2A_HUMAN_0,0.028113087674714106,0.035136028196937986,6.250075323892739,14.07048872180451,0.4839667458432304,0.10604004071937563,0.10363877430760166,0.3084119033588686,-0.09060109289617486,-0.18570281124497992,0.5311410064773293,0.25383405426661426,-0.03425534009252879,-0.07067624766217147,0.14222482044429596,0.33214135464871686
IF2A_HUMAN_1,0.03969526864474739,0.04290296712109062,5.62751228226887,16.312488344626097,0.7026939829004678,0.28708946772366933,0.09830007390983,0.2355259916235526,0.18868980963045912,-0.12758407898796667,0.26149131767109296,0.27266914438716383,-0.016743067069800707,-0.07444168734491315,0.15631691648822268,0.5795447756735767
IF2A_HUMAN_2,0.054371002132196165,0.07155399473222125,5.752436647173489,15.563223198104001,0.45027981058975464,0.22543910441999615,0.09297686660202244,0.3196736174070716,0.09808107187464517,-0.1939593505166345,0.5063713230915803,0.3492337359179945,-0.006519471488178025,-0.042839657282741736,0.14678463676734804,0.31567759078830826
IF2A_HUMAN_3,0.09589483891822002,0.10322163559961212,5.272610027406094,16.867986328681287,0.5522959183673469,0.4736858446921477,0.1271891418563923,0.3626935436751388,0.3351595424443107,-0.15305847480463486,0.41133169752397947,0.5380168963983993,-0.035893965694783606,-0.08149222643755114,0.15918071415624432,0.43750641617903707
IF2A_HUMAN_4,0.20592296511627908,0.2302688953488372,7.7040347610180016,19.195465343767466,0.7410467115423842,0.6347534774281021,0.20091515012222896,0.6111127121819072,0.5610398735288952,-0.0828916306623313,0.5229258037623691,0.7002026184538653,0.04194094414143314,0.051404131697869594,0.2691044989164709,0.5880253882827811
PERE_HUMAN_0,0.10771144278606966,0.13208955223880597,6.4238578680203045,17.64294094642159,0.4282033898305085,0.3502287635742241,0.27686937350725704,0.543541526751735,0.6518852264643111,-0.06743276111248193,0.8843087692008555,0.4085164300991639,0.021963454890442647,0.007224923269141973,0.3394327538883806,0.30438802361140743
PERE_HUMAN_1,0.11696185611304721,0.21482789898314794,6.569446451799393,17.245555555555555,0.6449491406524027,0.21753769579856536,0.14559636009099772,0.4666883327916802,0.29962825278810407,-0.16601684086366764,0.4233028522981893,0.5953486771940689,-0.03243574051407589,-0.07473452213985174,0.237395607794618,0.5400555976750063
PERE_HUMAN_2,0.019594508437114803,0.029668040974199856,3.234400184204467,15.596361961777573,0.5287207951465083,0.22014973538143798,0.044562221751113,0.1501377994488022,0.04483936250948647,-0.24532001011889704,0.04414560304161093,0.10075336196578187,-0.05041933106237176,-0.12699456164465428,0.10726865193723983,0.3697299605080585
PERE_HUMAN_3,0.20115709835336004,0.3393413440142412,7.126485827491618,16.898519321054533,0.6834514985497905,0.4874195331585799,0.26773500097713504,0.5170769385767539,0.6227897838899804,-0.06439754935330157,0.5708947021323367,0.6825018832162905,0.020811824159104493,0.002934304189534315,0.3007831811203913,0.4514831449582943
PERE_HUMAN_4,0.05518967334035827,0.1332096474953618,4.636595744680851,12.9081458273996,0.5316508313539192,0.15666558546869933,0.13447002988222886,0.4772807171734927,0.17420342284680673,-0.14846250173925143,0.43128100379340534,0.2970528158739422,-0.02285485164394547,-0.07352941176470588,0.215578619248344,0.3402825468458746
PERE_HUMAN_5,0.1463718467767051,0.2817047144797258,7.030185979971388,19.466159432820337,0.7403612833647883,0.609706233580129,0.20964368019854634,0.44669829800200234,0.5487289478689009,-0.08019209262548517,0.5367202169831004,0.6687433011789925,0.014012327981651376,0.004766341743119266,0.24877544513897612,0.5729091991591839
PERE_HUMAN_6,0.10914714980114892,0.3224815724815725,5.855421686746988,15.22289156626506,0.22575862409805278,0.23941798941798942,0.2366175329712956,0.43526881720430105,0.5595446584938704,-0.14994775339602925,0.09660377358490566,0.17132075471698113,-0.09868421052631579,-0.13157894736842105,0.21728318308983524,0.17032187670485543
PERE_HUMAN_7,0.1303743961352657,0.2504830917874396,6.456819414316703,18.74044412085912,0.5772707572286546,0.5190811411633939,0.18431409295352325,0.5464767616191905,0.2043020270868372,-0.07348294146001821,0.5362245755589174,0.6175160122528544,0.015661190891921747,0.011206927270783594,0.21254846669016567,0.3878728953500934
PERE_HUMAN_8,0.10926573426573427,0.27867132867132866,6.530520995334371,18.56607326258131,0.5862869437209829,0.3670363780898664,0.07031032885595183,0.22658638258452987,0.1961461210143108,-0.27446623514636265,0.4291164352205097,0.5666446934739617,0.013574660633484163,-0.07013574660633484,0.15263484190948542,0.44587322268169716
PERE_HUMAN_9,0.2055086329322072,0.30250766126018386,7.090718479172491,19.183961138332375,0.5484353428439944,0.4663760896637609,0.36688741721854307,0.5697674418604651,0.6547314578005116,-0.054253472222222224,0.9259137034898111,0.737101778282255,0.004020806973147758,-0.01840597189049432,0.2590335219851981,0.41185535683278346
PERE_HUMAN_10,0.011471648639790232,0.023762700753851198,2.7705984388551603,16.415763226366003,0.7102925243770314,0.1828819068255688,0.027144927089434903,0.0668989117365971,-0.13106881663582695,-0.16411137545158164,0.05676343171788332,0.05603465727357383,-0.04031341821743389,-0.11929480901077374,0.06419363325440673,0.5724809260720863
PERE_HUMAN_11,0.07280035730236713,0.1223760607414024,6.027019258407589,16.92323049001815,0.7102925243770314,0.1828819068255688,0.13873626373626374,0.4807692307692308,0.198356940509915,-0.16411137545158164,0.5232080833596463,0.4193242816545627,0.0584958217270195,-0.011882998171846435,0.215071215634316,0.5417526740476637
PERE_HUMAN_12,0.10262371305214214,0.24510129525074725,6.189053896212248,16.72604223064429,0.7822669229713031,0.34277620396600567,0.185941893158388,0.4149953139643861,0.16589192330040675,-0.08386458562321389,0.44002686366689053,0.41147235452474634,-0.013628693189943655,-0.06180026869682042,0.21817728462785188,0.6402700715288455
PERE_HUMAN_13,0.14540317322321233,0.16608631423446238,6.661436994104127,17.358472998137803,0.7319569120287253,0.1857808243255119,0.18784946236559139,0.4681381957773513,0.18046364176738658,-0.06854009595613433,0.5894824360839742,0.5357377637004721,0.02064940894807721,0.04952865479575041,0.21817728462785188,0.6406057621275548
GRAA_HUMAN_0,0.11259512346637676,0.2407206087901848,5.697412823397076,15.79302587176603,0.371373771277871,0.40357852882703776,0.09331939560961702,0.38848237194716334,0.4239533651298357,-0.21431872092665044,0.33975084937712347,0.36813037573562696,-0.011657252734046388,-0.07767808456848263,0.19125164305535272,0.30371616455115463
GRAA_HUMAN_1,0.07493343476607076,0.1093571700266261,6.096757852077001,16.221647058823528,0.6097968629467729,0.18462329647724351,0.09210344350712212,0.24892822569492462,-0.1174681833539813,-0.27435522018245295,0.22346966051857792,0.3475006682705159,-0.06271314892004547,-0.11045850701023115,0.12272353424979439,0.3842001651108148
GRAA_HUMAN_2,0.21530531324345759,0.5071779744346117,7.467337602927722,19.682771773680866,0.42930591259640105,0.5162866274252387,0.22240830681627868,0.5618311533888228,0.4144859813084112,-0.09190938511326861,0.594515931372549,0.7071523682708769,-0.010218483599616102,-0.04013377926421405,0.27857589006870703,0.3145058493612441
GRAA_HUMAN_3,0.09193776520509193,0.2376237623762376,7.389154704944179,14.679425837320574,0.32810963973862256,0.1941972920696325,0.16412889518413598,0.46802865481560096,0.4269293924466338,-0.20987654320987653,0.495582848524025,0.6571254567600487,-0.0032952806873014005,-0.021360480169471577,0.2353272079504969,0.1706953871727386
EPCAM_HUMAN_0,0.11662436918409615,0.20547825325982322,7.046771672478057,15.987675844655525,0.5413776213420816,0.24781478856602882,0.14220051709278944,0.48410865500934785,0.16789194235369626,-0.05320391839669273,0.614537564415514,0.5780631560832903,0.014892227302416721,0.006165904637491835,0.20550692924872355,0.33378748281457077
EPCAM_HUMAN_1,0.07079646017699115,0.061946902654867256,5.5755517826825125,15.780232367861235,0.46579804560260585,0.2683224755700326,0.12348942598187311,0.4106495468277946,0.014091646390916463,-0.20660989456609893,0.4895414320193081,0.2820562686373655,0.0031996587030716723,0.019197952218430035,0.15155502392344497,0.2850467289719626
EPCAM_HUMAN_2,0.18880261544748672,0.30554420378695,6.426514072938342,18.433004231311706,0.7825808790599476,0.18125978561965556,0.20305121685434072,0.46543807016469724,0.48301329394387,-0.06975764553904912,0.6317919975089522,0.6530091326471417,0.0427013533044278,-0.005255551175929575,0.24059166834373114,0.6575185264427285
EPCAM_HUMAN_3,0.09114651344998694,0.13201880386523895,5.566328201768752,14.348509662626924,0.23781120331950206,0.0883039419087137,0.15053205294575656,0.4375811056319751,0.18141592920353983,-0.23256997455470738,0.4477225672877847,0.38146997929606624,-0.050031269543464665,-0.07800537968135733,0.1761411665257819,0.148884801103702
EPCAM_HUMAN_4,0.06376704754883893,0.13006720138738348,5.770949720670391,13.253258845437616,0.1673015873015873,0.17809523809523808,0.13447002988222886,0.4772807171734927,0.5004878048780488,-0.1550954120990662,0.3901675277908251,0.5749178017848755,-0.022922636103151862,-0.080994455994456,0.2575599582898853,0.08376781369482099
UBF1_HUMAN_0,0.1819383879589253,0.3535237023491349,6.758656965021478,19.856445993031357,0.8976858732113286,0.3246057846361413,0.3199256604274525,0.567800963527566,0.5110032362459547,-0.04494812205674031,0.8180718455793404,0.5470201792804225,0.09709497206703911,0.0445869153431444,0.23170731707317074,0.7445407578204954
UBF1_HUMAN_1,0.15359382537385433,0.24069927661040302,6.275691699604743,18.83112124982718,0.7595845524329811,0.34653512648400736,0.2527743526510481,0.603755868544601,0.3725600812366016,-0.06283367556468172,0.5708947021323367,0.4073830620776694,0.14583333333333334,0.03777942753443867,0.23633256948492132,0.6288674109870577
UBF1_HUMAN_2,0.12586478941619128,0.20924869523000364,6.188515560451666,19.691768131286395,0.7274181294733896,0.2820642733063115,0.1172321768966832,0.4636913767019667,0.19028991678514978,-0.05300043802014893,0.6112547329938635,0.4534557907845579,0.01537525354969574,0.012352941176470587,0.16096263856735496,0.5239233776827656
UBF1_HUMAN_3,0.23503110419906686,0.45827577194489044,6.832699122566135,22.582979460958487,0.9014926115314807,0.6440758734512657,0.4025889334507157,0.6290064855719523,0.6038572824649817,-0.04940376196820616,0.7361309438811938,0.651824091606313,0.3338576158940397,0.014889991259962246,0.2581636250692544,0.7786051470777908
MMP8_HUMAN_0,0.1388172521120498,0.2248999555357937,6.133267382702091,20.2598581092229,0.7330794484569928,0.37401230973966565,0.14187400741132875,0.4653448896519259,0.7283807312826466,-0.1267881695579674,0.461094289134568,0.41113796133567665,0.10672679443818113,0.007474554707379135,0.25566750629722923,0.5866489951583673
MMP8_HUMAN_1,0.28459989934574736,0.28459989934574736,6.835976488854386,19.385522883566516,0.441180522074523,0.6563254050327473,0.21326288383490313,0.5252920056355952,0.5054545454545455,-0.10875036298519021,0.5694812570995835,0.6505042213883677,-0.01010910200656138,-0.059739070725566494,0.24729559057712372,0.3314793025992085
MMP8_HUMAN_2,0.23879715239417482,0.37547632410716925,7.065033732450009,20.20390941186601,0.7513198692700913,0.5687724137931034,0.41022088817055335,0.583370736086176,0.5850335125580025,-0.06323324378549325,0.8115190391701924,0.7964428489842539,0.06794556590752243,0.024639799540613908,0.28944307316934775,0.49186818194764875
MMP8_HUMAN_3,0.2718340611353712,0.349647266313933,7.15774481878008,20.84050233117762,0.6845235840121235,0.4878671775223499,0.35903529618871577,0.5493869139618753,0.572775486152033,-0.09060764456060111,0.7843904484077768,0.6931142579180629,0.04768676526355707,0.011965245563655106,0.34228727682161814,0.48822918469794013
MMP8_HUMAN_4,0.1697216564833673,0.2970128988458927,5.763001974983542,18.8110599078341,0.3056471262720367,0.26737852945392004,0.16421684842737475,0.46978243352135374,0.2566525739865705,-0.10131367545600604,0.3847014283255894,0.32637141419224963,0.0111731843575419,-0.06778398510242085,0.18601561202458064,0.20575845746297824
MMP8_HUMAN_5,0.17132762738853502,0.2896860986547085,6.977625854568054,18.372990353697748,0.5424964073085609,0.37550254623425355,0.38979963570127507,0.5742345465049105,0.6993345432546885,-0.06983189733084293,0.9430072756669361,0.5314267951507616,-0.0056461124968578994,-0.03708645126360771,0.2955832389580974,0.41992683985367973
CMA1_HUMAN_0,0.03817463799912242,0.12848551120831056,5.029685681024447,13.229336437718278,0.2008463049720417,0.15770890545311886,0.1427141427141427,0.48243045387994143,0.037800252844500636,-0.20065235690235692,0.4291164352205097,0.2388982145582176,-0.03348850135482526,-0.048495796567776,0.23716939546599497,0.11506622516556292
CMA1_HUMAN_1,0.1379757785467128,0.2309688581314879,5.755568697023458,15.869184086311531,0.33948852661670403,0.40357852882703776,0.09477568459895125,0.3904641677995727,0.3538239538239538,-0.17021485654395388,0.33437202458235954,0.5429758504284602,-0.016913319238900635,-0.07044524370581669,0.19881287846993226,0.27560137457044676
CMA1_HUMAN_2,0.053951493152945056,0.05287906286091404,5.8128240580712065,16.01301690610366,0.6094867611996486,0.5580243931892284,0.04813493832664586,0.16109377322038937,0.3923342348223445,-0.19057983632247955,0.1539319131992833,0.2681664344017519,0.002047257527936535,0.004350422246865137,0.13804192472606003,0.44243238426846154
CMA1_HUMAN_3,0.10936093609360936,0.24790656676950198,7.097302504816955,17.097235166200683,0.7363985852683377,0.3877324451845684,0.21660453838080418,0.6399841017488076,0.4343280331082553,-0.08878207393793737,0.5081957333976136,0.6762820512820513,0.0076269673239292915,0.002831415963064051,0.27993286087280866,0.5522905898180274
CMA1_HUMAN_4,0.15552735476593343,0.26381790399915694,7.210560344827586,18.053731859018658,0.5338083181220437,0.5098934550989346,0.270123058301392,0.5429073614557486,0.46493726083474235,-0.07605881881988738,0.7306417595661344,0.6570071258907363,-0.0033763945977686436,-0.02554315913094539,0.28153540701522173,0.35056446821152704
CMA1_HUMAN_5,0.15430919166825913,0.25090770112746036,5.86986301369863,19.304737516005122,0.4422539355598058,0.5008445945945946,0.27479224376731304,0.4481994459833795,0.5116279069767442,-0.08513225904530253,0.45075987841945286,0.2404255319148936,-0.018942383583267563,-0.07800511508951406,0.19550333868650158,0.23519038076152304
RPB9_HUMAN_0,0.13680781758957655,0.11009771986970684,6.127226463104326,15.993865030674847,0.16323529411764706,0.1159351145038168,0.23459426479560708,0.5854179377669311,0.293488160291439,-0.06643700787401575,0.8973966309341501,0.3465045592705167,-0.004916256978585118,-0.008415965336221982,0.22534687809712586,0.10443508424182359
RPB9_HUMAN_1,0.1245766299745978,0.22325364310532594,7.171384665156907,18.508379888268156,0.5861772297103527,0.4185253025895198,0.2762634866553095,0.5755464987032234,0.47420728821580693,-0.08587705952804843,0.8187941843404029,0.5750278396436526,0.007540379589563429,0.026862602287819715,0.23112180588976738,0.4261404281076322
NOP2_HUMAN_0,0.23584374413414813,0.4897822535286713,7.055504587155963,19.78990512069206,0.9321119519171585,0.6000061128430834,0.41353459835033113,0.6264004888979425,0.9906583629893239,-0.038185628501188895,0.8121432384706994,0.7279030479363664,0.08040929878652897,0.06730829914799621,0.29353683003725994,0.8283259110581447
NOP2_HUMAN_1,0.17995218380080472,0.2764564202920367,6.75204476969436,19.888443821349888,0.7428131169644147,0.306698512647921,0.149553971267868,0.5150342496219198,0.1706915477497256,-0.10850629563617548,0.3971298732360679,0.6099482690011938,0.2837209302325581,0.03986710963455149,0.17623106988492232,0.4645367412140575
NOP2_HUMAN_2,0.12376077834647485,0.2084285856276712,7.165465838509316,17.098136645962732,0.854257284156587,0.5904861748132617,0.20098159509202454,0.481881390593047,0.6318175526024363,-0.07814363019352472,0.5441524394142848,0.6492642140468228,0.009849126438944826,0.004077663812301998,0.2892478152309613,0.5994014148376564
NOP2_HUMAN_3,0.014889457061212212,0.02647014588659949,2.372106824925816,14.25519287833828,0.5681159420289855,0.3105590062111801,0.03091128061019671,0.07935233507292921,0.03350083752093802,-0.23394751535455052,0.0495394573064476,0.0639780931043067,-0.06018586812214191,-0.1596105620297979,0.08631262293185236,0.3334490339002661
NOP2_HUMAN_4,0.0490953877516351,0.08220720720720721,5.578703703703703,16.06683870967742,0.4866708981275785,0.31101237702316725,0.08405003909304144,0.23924941360437843,0.17995674116798846,-0.19833087874324987,0.3932291666666667,0.3760258838383838,-0.03310562270099842,-0.05622700998423542,0.13375104125167506,0.49047619047619045
NOP2_HUMAN_5,0.0949959388353286,0.10214736593711285,6.5353584447144595,17.27376137512639,0.4730092712936487,0.4971474595610444,0.1416807497311415,0.5120498239913349,0.477753325040666,-0.07961125824841765,0.7961242793081358,0.4117709102415357,0.01354780697372365,0.007053651713457888,0.20113240418118467,0.24516867551006666
NOP2_HUMAN_6,0.20500894454382826,0.30337281618538875,7.012984569062853,21.013247691690083,0.5971959905182654,0.3982948798227446,0.25014442518775276,0.5122011490702415,0.504930966469428,-0.0813448562123502,0.537385306175571,0.652706656912948,0.08023900981647461,0.02230354923353128,0.25461803381340015,0.3714465937762826
GRAK_HUMAN_0,0.06852986217457886,0.0490684022460439,5.225262488068724,12.443843461660833,0.20252265055960206,0.16041925741694796,0.18784946236559139,0.43526881720430105,0.026885880077369438,-0.1230174081237911,0.052838857893009517,0.07253035772891368,-0.30465264499681327,-0.17654557042702357,0.24442877291960508,0.09887165021156559
GRAK_HUMAN_1,0.09966297544535388,0.2408521906596052,6.449081803005009,15.718035071420276,0.5229182389937107,0.7117828924768121,0.11985111662531017,0.38535980148883375,0.5415354004311059,-0.172242206235012,0.5250857983330609,0.3653682418050234,-0.006588855421686747,-0.062224804988712815,0.18250885288121044,0.28826109063175287
GRAK_HUMAN_2,0.06722597515798649,0.031706254085857484,5.262684649967887,13.338471419396274,0.1603883495145631,0.20951456310679611,0.15587301587301589,0.4011111111111111,0.07388404309902515,-0.17068582178895159,0.027493942905298642,0.0685768460971242,-0.27210526315789474,-0.21736842105263157,0.2106082036775106,0.12192362093352192
GRAK_HUMAN_3,0.09114651344998694,0.13201880386523895,5.854747727984957,17.350779106486513,0.5657205841829706,0.387029501525941,0.14818254178827275,0.46802865481560096,0.20694752402069475,-0.1568663257852447,0.5569217723129107,0.4829340682637269,-0.010905164657189131,-0.04365664927118949,0.18109005665168978,0.45495337346611975
GRAK_HUMAN_4,0.12124022022602145,0.201796580701246,6.302027200410572,17.355601659751038,0.5857203933304831,0.3999484934329127,0.12135262610920138,0.40906547285954115,0.3345773653419407,-0.16809320019020446,0.4551946441854699,0.6321443371266456,-0.006982990152193375,-0.05888330942132951,0.1708310700706138,0.4691049286235282
GRAK_HUMAN_5,0.14142685195316773,0.5499569336778639,7.07809583074051,17.951355661881976,0.6000360490266763,0.724476439790576,0.2916950306330837,0.5445881552076243,0.6365313653136532,-0.055266405537371895,0.9618320610687023,0.5641025641025641,0.008152233624118306,0.009690390911687798,0.27435212199965675,0.40396780612396427
GRAK_HUMAN_6,0.1406520128426772,0.16084218325512473,6.933333333333334,15.915796564499832,0.43459669972296944,0.5356849876948319,0.21171592884846863,0.5202185792349727,0.35543130990415334,-0.1213975155279503,0.6651210364814183,0.46717138323194923,0.007536382536382537,-0.008669893793801026,0.2808632180260235,0.3288848158542872
GRAM_HUMAN_0,0.11865793780687398,0.3187297171998146,7.05241935483871,19.610192372595343,0.5700995807127882,0.20374737945492663,0.23624047417442845,0.5004233700254022,0.2949067510088341,-0.1030369462892514,0.2717391304347826,0.6273291925465838,-0.02328863796753705,-0.07111665626949469,0.26461211477151964,0.3402825468458746
GRAM_HUMAN_1,0.07931088002483315,0.10010864504112992,6.070599613152805,16.494593285990963,0.6757429922323539,0.2068921397193671,0.09567404426559356,0.37937625754527166,0.14437727578039383,-0.16411137545158164,0.5475913427973005,0.39019470948723917,-0.006519471488178025,-0.04789638386648122,0.17084521843567033,0.513743472844382
GRAM_HUMAN_2,0.09054778778011875,0.2255819260611593,7.033986405437825,18.412366230677765,0.4770533779791215,0.3625950277378262,0.18045381454350545,0.4869572985527961,0.4925053533190578,-0.09399630242288605,0.426760394136025,0.6534983341266064,-0.01575237270113811,-0.05040726817042607,0.20494735251146154,0.39485661542378814
GRAM_HUMAN_3,0.12245992172001502,0.20750293083235638,6.60360102886539,15.443903795356597,0.5070062764559918,0.25836665965059985,0.26423244630995557,0.5241028800246419,0.5414634146341464,-0.07557168976390471,0.667064280980782,0.4160371106693174,-0.0008172605426610003,-0.028564269606614883,0.2930049579650787,0.37108677538388285
AFF2_HUMAN_0,0.29579625652040503,0.46205492156941813,7.621949835432981,22.243365098883082,0.906940987921352,0.8699008434157689,0.5921266968325792,0.6774962096599524,0.9197283277180598,-0.03294925644227495,1.037094064949608,0.7962477856092872,0.47196787148594377,0.10268257670913332,0.32867154844589713,0.8000849691986655
AFF2_HUMAN_1,0.18662244333886124,0.2892205638474295,6.584151775020361,17.845454545454544,0.7941488555403972,0.41207161687170474,0.205171355149751,0.5055163682401881,0.4024607551972847,-0.08839213344140609,0.6365159128978225,0.6655856854181604,0.09740007760962359,-0.008537058595265812,0.25558941223980325,0.5475315576033357
AFF2_HUMAN_2,0.12387263022271305,0.1902231668437832,6.998078565328779,18.043303929430632,0.7050247637523331,0.13107151574322676,0.185941893158388,0.4643368320610687,0.1597715173025732,-0.06589471570563234,0.6155413503795445,0.5837943377806704,0.012003356561713306,0.003696176523137395,0.19308050565535595,0.46346587573763404
AFF2_HUMAN_3,0.24016763378465505,0.4951644100580271,7.028985507246377,20.391845627139745,0.7835650702567498,0.5040317911712805,0.350375234521576,0.5555555555555556,0.7076401725200246,-0.08566876310272536,0.6085488273118379,0.7124919836635502,0.011980939414567734,-0.06310327424137278,0.3507167235494881,0.6004055683437466
AFF2_HUMAN_4,0.20007785130400935,0.29621921609434615,6.067334379148063,19.088929219600725,0.6151625541274315,0.29092131113638714,0.19631741382016007,0.43157416910081314,0.55330409798881,-0.11425276863574123,0.6472849490599727,0.4706579727326615,0.35526315789473684,-0.0010121457489878543,0.22508347667712233,0.31885695834678723
HNRPM_HUMAN_0,0.24520393358052556,0.3297354373203496,7.012141565486954,20.76296186670613,0.873143495254048,0.4583406873992493,0.4732515925748339,0.572609049038201,0.6168863674286668,-0.02764571227328755,0.5982564475118053,0.742089629342632,0.05933806146572104,0.040119165839126114,0.30832752613240416,0.7566454951776053
HNRPM_HUMAN_1,0.20847457627118643,0.15084745762711865,6.229832572298326,16.648826830126485,0.665457897971727,0.2607122221208527,0.097631426920855,0.2451376853456576,0.06230389959659346,-0.13062845303867404,0.4398987206823028,0.47733423545331527,0.028859707693449067,-0.005712589954744417,0.14107775009833487,0.543382955147661
HNRPM_HUMAN_2,0.14345103931880793,0.25559729526671676,5.880407124681934,20.37131601984243,0.7930658794172949,0.6499422346921935,0.0743202416918429,0.3661631419939577,0.4443270652862878,-0.09838834101286409,0.4320688502673797,0.35461229946524064,0.0626985808091506,0.019197952218430035,0.22534687809712586,0.6651982903337182
HNRPM_HUMAN_3,0.23129283635339404,0.24326622265339715,7.093415007656968,18.51702148859145,0.9046452853820004,0.6064810523688995,0.43852298022783814,0.584012830611796,0.6457931490564404,-0.0401272407965804,0.9093278992491417,0.6617428003972194,0.17515187815521518,0.06025703861024887,0.3287878787878788,0.7762129252345304
HNRPM_HUMAN_4,0.13013254240430067,0.2670312355176569,7.194163424124514,18.96098297046777,0.663552491016801,0.6296232359414786,0.16529078935163713,0.589359985101496,0.5969780559100828,-0.12005062375700597,0.7249716231555051,0.6423066542717486,0.07402234636871509,0.002793296089385475,0.2482839444165411,0.5179239311813107
HNRPM_HUMAN_5,0.2828804347826087,0.42862985685071575,7.683319995427004,19.380165289256198,0.8455335885954597,0.669984868997372,0.47500407099820874,0.5697038617917841,0.6807710960232783,-0.036164116979296175,0.778316973640675,0.749968382445934,0.0796665230604427,0.04290480364160706,0.32981251650382887,0.6917958501732263
HNRPM_HUMAN_6,0.17084282460136674,0.3202955236853542,5.896434634974533,18.176248699271593,0.3283309336582124,0.3556318529183741,0.16658044490429386,0.49490835030549896,0.4012285564461757,-0.18159722222222222,0.3221663874930207,0.3814143477150881,-0.0028854080791426216,-0.059452411994784876,0.23994577496610936,0.25369107764752047
HNRPM_HUMAN_7,0.14679276315789475,0.23273026315789475,5.859589041095891,18.474930362116993,0.4329501915708812,0.6101309567115315,0.18933823529411764,0.4788602941176471,0.5335703748534252,-0.1917914300464636,0.2182741116751269,0.27266914438716383,-0.026085970284677327,-0.0706855161376367,0.25674325674325676,0.3176358824726878
HNRPM_HUMAN_8,0.12982988680199836,0.2137481818756719,6.4475885140786175,17.28331474770003,0.7065059604979546,0.20407904737775526,0.10971365290302168,0.4103781047302642,0.2537270642201835,-0.12834224598930483,0.45232005845816586,0.6034334763948498,-0.015703473155549267,-0.09825281177053123,0.17654751525719267,0.5356199455439509
RPAB3_HUMAN_0,0.17191097467382963,0.25940138142747504,6.7292151760032874,17.947860962566846,0.39142066420664207,0.3257380073800738,0.09740195594191445,0.3268203637347035,0.2788647981667548,-0.240006746500253,0.5250456561440126,0.6280193236714976,0.032436928195176046,-0.05932908233989465,0.1823598981077147,0.25966668664948145
RPAB3_HUMAN_1,0.28306490971205467,0.27825120414968507,7.2335173757713545,18.66539851626403,0.5090199325723074,0.2952529369455766,0.3421875,0.5136937926704858,0.5025062656641605,-0.06918457923592376,0.8446652719665272,0.6421348314606742,0.33233308327081773,0.020630157539384845,0.2585835589465912,0.3197054834334431
RPAB3_HUMAN_2,0.075,0.09594827586206897,5.9201629942650165,15.730908542106851,0.7699230147291455,0.24907591697469433,0.13656181874805357,0.3611024602927437,0.24251290877796902,-0.09179764892352398,0.43659199550098415,0.2857812353547661,0.003163917872770111,0.03318747896331201,0.20550692924872355,0.5231668155588285
RRP1_HUMAN_0,0.135,0.17743495279760535,6.5589463994901935,17.038023082914396,0.7384771397830846,0.12903624738749211,0.11850273889227024,0.42455475745350785,0.11222008957133717,-0.08839213344140609,0.5579326012873912,0.5819372811805895,0.020811824159104493,0.002934304189534315,0.1741975910325141,0.5951252538930264
RRP1_HUMAN_1,0.1028703525332306,0.12367559237141205,5.930526315789474,15.004912280701754,0.650801021592756,0.09105488239486814,0.2080536912751678,0.436241610738255,0.5501369863013699,-0.22750294872684382,0.411969696969697,0.39164894645273535,-0.027200991085615793,-0.068352589480488,0.19305019305019305,0.3842001651108148
RRP1_HUMAN_2,0.025473380317568142,0.024539356372590644,3.153462365591398,16.06683870967742,0.49207665376819604,0.20186106504514464,0.057393520560701856,0.2138901141988923,0.17400835073068893,-0.1782359081419624,0.061258716568099565,0.08729808456174419,-0.05997420464316423,-0.12252794496990542,0.12772137785341237,0.339856815914559
NOP14_HUMAN_0,0.2685397744285857,0.3367496339677892,7.455216535433071,21.92007487462033,0.9461647905594844,0.5841509231189465,0.30590848100680146,0.6310127796084175,0.9050437629872174,-0.02579303047064765,0.9946070878274268,0.7048886024673172,0.3458333333333333,0.056187702990256466,0.30525884405901327,0.8404635888639365
NOP14_HUMAN_1,0.13589519650655021,0.20550218340611354,6.1200515558828945,18.546264855687607,0.7345677127854439,0.5278297028192118,0.15279858368514232,0.6045643153526971,0.35410303400529425,-0.10286496528796324,0.5952813067150635,0.6006374906562487,0.02814927290778485,-0.0006409278193193957,0.22843761046306116,0.6286815943510173
NOP14_HUMAN_2,0.11811175337186898,0.1978805394990366,5.255844728716365,16.494593285990963,0.6757429922323539,0.16941067207024654,0.06238171495123016,0.21087494540690058,-0.006160164271047228,-0.16411137545158164,0.32690453230472516,0.3153326904532305,-0.04248131845634149,-0.08869565217391304,0.13383072977384006,0.513743472844382
NOP14_HUMAN_3,0.10768250500637175,0.10581649371927908,5.819852941176471,16.494593285990963,0.8070897992204162,0.2697229085774797,0.08175005677087276,0.28559533721898417,0.14387147957159857,-0.08715228318352244,0.5708947021323367,0.36160434510131606,0.00992982054344092,0.002764645258387999,0.13829449152542372,0.599515674443687
NOP14_HUMAN_4,0.11774891774891776,0.20368767035433702,6.701078919984665,16.986581959581578,0.7224475401163816,0.31254237288135595,0.15765948801300284,0.41981365973327767,0.6019509125235998,-0.09751580185212406,0.46484461097641616,0.5511005187158279,-0.019539714563251886,-0.05768512291713368,0.23861816517959278,0.5306944308024752
RPP38_HUMAN_0,0.12831739790903404,0.2557858993834331,7.44616234124793,17.179444133557173,0.7835650702567498,0.6073706591070163,0.27529668956901937,0.5357085281315492,0.5883991894630193,-0.07035803497085762,0.3791513453569136,0.6819639550115182,-0.015486125756982315,-0.05172996438690894,0.27323871627669094,0.6004055683437466
RPP38_HUMAN_1,0.09196244561483856,0.2461186168994733,6.05861416972528,18.509675555983442,0.6446074414030487,0.34212454212454213,0.15771272709561152,0.4469628286491387,0.3265617064499746,-0.09777315857343573,0.630901287553648,0.3895256166982922,0.02854663774403471,0.007630140792886255,0.19141800076069293,0.4665621734587252
RPP38_HUMAN_2,0.22311827956989247,0.49551971326164873,6.01499538911832,18.80329218106996,0.7389800697607778,0.505352798053528,0.17233560090702948,0.5370910268869452,0.40007541478129716,-0.09366793113510359,0.6208183776022972,0.4322535168101995,0.026533742331288343,0.03579500132943366,0.237823381165458,0.5400686595458275
RPP30_HUMAN_0,0.1308688613059903,0.2236913113869401,6.812064965197216,17.122389791183295,0.6516088128071009,0.21016166281755197,0.11273364485981309,0.303446261682243,0.18868980963045912,-0.1606942889137738,0.2413108242303873,0.5922758134203333,-0.08482142857142858,-0.15178571428571427,0.1549527332511303,0.4410088517036498
RPP30_HUMAN_1,0.12930267182366934,0.22823961604550572,7.198667350076883,16.069117907017855,0.7000820008200082,0.5785200221443071,0.37771739130434784,0.4805319003597614,0.6860610924411897,-0.07220076063845716,0.7560796324655437,0.6729722726094843,0.024734982332155476,0.030416999075586624,0.27565664771188736,0.4127959658038845
AK17A_HUMAN_0,0.16394757956672906,0.38446108585183203,5.542454728370221,20.95061255742726,0.6203410475030451,0.4046221297466003,0.09041072784009446,0.43164375474403305,0.2971202303815695,-0.1720258584501721,0.5331030997304582,0.4964622641509434,0.0077404534407564006,0.004660918200885575,0.17961810770220982,0.5683814303638645
AK17A_HUMAN_1,0.12667336010709504,0.24364123159303883,6.983191850594228,17.014261460101867,0.5624267978449285,0.24696987411824312,0.24540356683213826,0.5179054054054054,0.3636697247706422,-0.06305046833496435,0.6117977528089887,0.6704242672678827,0.017973900539895275,0.00945945945945946,0.24305555555555555,0.38702092640489066
AK17A_HUMAN_2,0.2111716621253406,0.28082453934058726,7.354052407068861,19.54169914263445,0.7058875054745667,0.3677600472813239,0.14436296975252064,0.4963989944943942,0.3814492753623188,-0.07462773722627737,0.6366813211588321,0.6223373632700058,0.03726915684799866,0.009492771789086654,0.19628300177798652,0.35051995702499444
AK17A_HUMAN_3,0.20819987187700192,0.3202016722512761,6.85570987654321,19.271925272444214,0.9222071376764427,0.6375701563679695,0.12796399297423888,0.5408957708380295,0.6565844947045991,0.023465123754419802,0.7784890340042532,0.6343093134295593,0.08790005273191903,0.025786640284719456,0.24754739395139336,0.8348941766033444
AK17A_HUMAN_4,0.028868578632209266,0.035549952726126696,3.26284266298088,16.7784469778447,0.6578387953941541,0.29885399613037655,0.029402829962427053,0.08272443840434887,0.061394005055976884,-0.1651419989077007,0.04648191039054388,0.06213561217155179,-0.016743067069800707,-0.07861113820345265,0.09630339231376085,0.5348034214863062
SRSF4_HUMAN_0,0.03170384432842904,0.0861888941623161,2.9036991745643532,13.469275450932436,0.3050605844618674,0.2066999287241625,0.081661222585161,0.32594493700419974,0.020684736091298145,-0.2635520684736091,0.07158100658011737,0.09932420416147963,-0.034984934717107466,-0.12671576832942752,0.1923130873895357,0.20998737550848645
SRSF4_HUMAN_1,0.21728430804863927,0.4130879345603272,7.5269219694788365,20.388566073102155,0.6325643403663344,0.6525250349951545,0.3459982409850484,0.5443246917176425,0.5022647206844489,-0.06115702479338843,0.712286140369418,0.7352642373823535,0.2780603594438793,0.05561207188877586,0.3133179979376537,0.46509298998569387
BRME1_HUMAN_0,0.29421984317039956,0.4650043490866918,7.631771595900439,20.068434179507328,0.908162264964806,0.8346108431564833,0.6198561725928885,0.6479171163393049,1.1582978723404256,-0.04136898508089935,1.0835630463889108,0.8637380756094688,0.16879505508621861,0.10532764375343276,0.34682678900733144,0.7745929182759653
CGNL1_HUMAN_0,0.14713216957605985,0.2774674115456238,6.176400476758046,20.570902915369373,0.34990791896869244,0.42173112338858193,0.11428571428571428,0.3699366216588592,0.21689167974882262,-0.23271555197421434,0.2855268911237429,0.3410581547879318,0.31001589825119236,0.02702702702702703,0.22534687809712586,0.3629531042041807
CGNL1_HUMAN_1,0.22284933818064956,0.45317414211021856,7.301517944516511,22.1161838513692,0.7616108642880044,0.8523301873575077,0.6252369347414026,0.6727761485826002,0.8668035688995893,-0.0235344458707745,0.9165933485834946,0.7994276341046312,0.377431906614786,0.07219855409243481,0.30504882114789234,0.6984585601229649
NEXN_HUMAN_0,0.3514609018746833,0.415408426483233,6.975367446924333,21.00865418911562,0.93632320938594,0.7807303624583052,0.29198898960656827,0.6356626506024097,0.902975978873597,-0.026629707666055134,0.9264214046822743,0.6952968153835907,0.37667359466383105,0.03921313183949974,0.33496687539704145,0.8945780916648275
NEXN_HUMAN_1,0.17542383848841725,0.2993557294063507,6.606824644549763,20.014426865490694,0.6716663180853925,0.48286508181537513,0.275,0.5206570100023417,0.601029601029601,-0.05219030609713747,0.8737326470129465,0.531950745301361,0.3209013209013209,0.06604506604506605,0.2345206313521615,0.5665425698479524
NEXN_HUMAN_2,0.03415010611614895,0.05788153579008296,4.788296041308089,16.40504769615263,0.4953448603458104,0.6370017548257708,0.11716171617161716,0.27970297029702973,0.3972662498182347,-0.23184311118497591,0.4779462102689487,0.34417344173441733,-0.004243881737162258,-0.052907058989956145,0.17011191573403556,0.3233542838240159
NU160_HUMAN_0,0.1451566265060241,0.27040963855421685,7.416610398379473,17.37343456822446,0.778582334705964,0.511700703248453,0.4035867237687366,0.5297679735533105,0.49657751299277475,-0.05820836621941594,0.8512919068972881,0.7088722084945686,0.001793484652475597,0.03975265017667844,0.25294666327482407,0.5661741999447397
NU160_HUMAN_1,0.1725370086778969,0.2580579076754985,6.950447479981158,19.267760066341104,0.6753820505696027,0.43707295911252964,0.16786758036884006,0.5088178978131613,0.29980342871874194,-0.07318012581846194,0.6057925351429957,0.565406976744186,0.2800658978583196,0.006600157388368492,0.23199259751901224,0.4280558262086758
NU160_HUMAN_2,0.03952991452991453,0.06481481481481481,4.613045273152608,13.908903261318288,0.39965660034339967,0.21395973154362416,0.10232371258287015,0.3089801111631956,0.33456289192180005,-0.21099225378089265,0.4063314711359404,0.2797020484171322,-0.036129294159435735,-0.07068554320799716,0.16766219444954972,0.2393220338983051
NU160_HUMAN_3,0.17406620103249318,0.23596792668957617,6.948786039453718,17.672610015174506,0.5683614552385223,0.38597748208802457,0.24201824401368302,0.5570724307925673,0.5224518888096935,-0.07616627039435928,0.7681319258442308,0.7036516853932584,0.013253878557484845,-0.0006678310901058255,0.2654912204324481,0.2924525840703347
NU160_HUMAN_4,0.10122501611863315,0.18595988538681948,6.611700417872067,16.74374799099968,0.7079303675048356,0.6462262038073908,0.11365181910914655,0.34520571234274056,0.5079917052161429,-0.2594255560441595,0.5972716488730724,0.5654584068248083,0.02442244224422442,0.0036886041545331006,0.17688279452718247,0.42818496526742933
NU160_HUMAN_5,0.10891377053947943,0.10644176239639377,5.69892952720785,14.952720785013382,0.535139230914946,0.1426406516385679,0.06030701754385965,0.20770676691729323,-0.01537090666072622,-0.32746714190242815,0.16324786324786325,0.42279202279202277,-0.08461057241163591,-0.11166718798873944,0.11424398298088524,0.3842001651108148
NU160_HUMAN_6,0.2020033388981636,0.3005008347245409,6.121841890790546,16.37118320610687,0.7139044943820225,0.3763574309649395,0.10176002508721728,0.4315001371957195,0.1735112936344969,-0.09118214975327182,0.16238962472406182,0.31346578366445915,0.010664172123479887,0.03855421686746988,0.19270959902794654,0.39805825242718446
NU160_HUMAN_7,0.11860658003870611,0.07824163671551009,6.081799591002045,15.993865030674847,0.778846937943407,0.18756314870947002,0.05101916269986574,0.1501377994488022,0.014456995258105555,-0.10404489127893383,0.1787974683544304,0.29736286919831223,0.1369158878504673,-0.001869158878504673,0.10627606115684807,0.49957204782020487
NU160_HUMAN_8,0.21362765102331047,0.2627450980392157,7.198595848595849,17.3491720662347,0.39643337819650065,0.3161621858745378,0.23512393742410173,0.5573339703774486,0.4054699090498613,-0.07467962881131242,0.7618600168654379,0.7112299465240641,0.09213917525773196,0.06344563243897519,0.2867616544473648,0.27703618729794555
NU160_HUMAN_9,0.0423327791277657,0.11906893464637422,4.05644873168989,15.232816711590296,0.6325852036575229,0.4892839746712129,0.11254752851711027,0.43954372623574145,0.27548186867036917,-0.20473357475426798,0.07302690039583165,0.13005897083770904,-0.016287943504755396,-0.07305753380811394,0.19416413373860184,0.543577034283354
SNTA1_HUMAN_0,0.19069377808240043,0.38365422226085444,7.172253091951963,22.254113028921086,0.9004959996959389,0.6518820674342954,0.5814315999501185,0.5444589929770265,0.723109258750612,-0.03903103080724811,0.842966573816156,0.6830350991161244,0.025202039882757567,0.030869322128661707,0.33102652825836215,0.7934196985289667
SNTA1_HUMAN_1,0.026856705341892925,0.024330760623188823,6.2684968496849685,17.299196787148595,0.5089128132721497,0.5847457627118644,0.05946807127064638,0.22353361945636624,0.38296488946684004,-0.2825015216068168,0.3995361223262606,0.2701708411026558,-0.029839904698259583,-0.07295813115611471,0.13903673326934823,0.42059565875820293
SNTA1_HUMAN_2,0.14679276315789475,0.23273026315789475,6.31844968268359,19.552332608170172,0.7745231176251223,0.5644179681210755,0.150449054120045,0.48825986980600444,0.5200280227478777,-0.09404880046626655,0.7951118774560911,0.5822983043525218,0.04108910891089109,0.029080213476715865,0.26100209563726423,0.6437573575237172
SNTA1_HUMAN_3,0.24584717607973422,0.5545152521896708,7.169944742023585,21.148198757763975,0.9133640026287968,0.5322155073951451,0.5387177352206495,0.6027232185216814,0.665195126258167,-0.02847712828346199,0.9358383071079761,0.6880033304144356,0.11990935577856912,0.048959379598701266,0.2949189619170727,0.8791240282130213
SNTA1_HUMAN_4,0.1720910526518507,0.31664098613251157,7.294959551960174,19.206084142394822,0.8322570332480819,0.5888774017360773,0.2922575387123064,0.6193488336752526,0.58076524729838,-0.0673969337947155,0.6659260367039118,0.6729303810093756,0.04727319609781254,0.019197952218430035,0.31884223121189675,0.6060547575064105
SNTA1_HUMAN_5,0.1335201860576063,0.2771268057784912,5.643755341228177,18.492574257425744,0.4335686607569404,0.3804780876494024,0.1174934725848564,0.41220626631853785,0.33419925577476656,-0.20264672036823936,0.4819976771196283,0.4058072009291521,0.008480403392161356,-0.02616328138187138,0.2131542699724518,0.28826109063175287
SNTA1_HUMAN_6,0.10427997162449752,0.18917001655237645,6.530520995334371,16.6146967340591,0.6822357153977892,0.1284054693122237,0.07431474480151229,0.22388941398865783,-0.23509933774834438,-0.2496206373292868,0.22346966051857792,0.616035703293321,-0.05434782608695652,-0.1213768115942029,0.1165368484122229,0.47666205490424524
SNTA1_HUMAN_7,0.10848577235772358,0.10429369918699187,5.607577807848444,16.221647058823528,0.6097968629467729,0.4035608308605341,0.09162292672685282,0.28036951501154733,0.2490234375,-0.2002993552348787,0.42924528301886794,0.38224852071005916,0.008393089960886571,-0.0016568883094306823,0.16942189181257947,0.43206939974814607
TCOF_HUMAN_0,0.14909762100082036,0.1628780149369465,6.58975476839237,17.356494637455313,0.8370494551550712,0.1703417861080485,0.10901900602054067,0.3148388619997639,-0.031703243575844586,-0.0726063537429922,0.22514998235501707,0.5244942724835486,0.011658539319544869,0.008368358557777485,0.13848469643753136,0.6738101069475059
TCOF_HUMAN_1,0.15119435396308362,0.2325654041390082,6.797332531087044,19.359004237288136,0.7942369707687507,0.4039507586601775,0.1314664386489953,0.5180714426238723,0.23660910518053374,-0.07958933785438448,0.5078895463510849,0.5816987240525614,0.040375862575245926,0.0008033718330849478,0.19839449541284404,0.6723155588020453
SHRM2_HUMAN_0,0.15688645029294152,0.22340301636289525,7.184495298917864,17.579522978475858,0.8986659587177275,0.5205803571428571,0.1882480550568522,0.5175704903069627,0.42811937705528325,-0.03720639986905639,0.5609108998452355,0.5677541769883518,0.024726388325901905,0.018838304552590265,0.21916163170338124,0.7695842667018052
SHRM2_HUMAN_1,0.18782681447395944,0.45032419995816775,7.274959083469722,18.601910828025478,0.787471497864931,0.721828317536775,0.21779141104294478,0.5182625863770978,0.6035694089005186,-0.09510180577400751,0.5197082160225237,0.5989346271194919,0.020786760246079197,0.008812377118247354,0.28969957081545067,0.6047191417550627
SHRM2_HUMAN_2,0.3931806073521577,0.598910310142498,7.805262088581877,22.937001209189845,0.9187666943994395,0.7077785975692571,0.6580935251798561,0.6571304724750758,0.9568142700672821,-0.033281154291159055,1.0088214923632122,0.8416159761276254,0.2737103676775114,0.07594835988939945,0.3414781906300485,0.7827902546439657
SHRM2_HUMAN_3,0.1958019548149335,0.2939400172789731,7.391555027980329,20.488525995048562,0.933334904743104,0.5413317022020273,0.4310742277547257,0.6142373646209386,0.842156402868056,-0.020277189868232404,0.7510070620754749,0.652608082706767,0.03545440034553017,0.04612305478096609,0.28783233933448527,0.8385489438645517
SHRM2_HUMAN_4,0.12436868686868686,0.1764936422226093,6.526566109525751,16.67710599354887,0.7915206548151937,0.265598852498207,0.07768059604794299,0.2476838354389375,0.11957745259329812,-0.09012092174309834,0.4860778681985001,0.5141316474525846,0.018938687553096703,0.010691862994964878,0.12955826800053152,0.5711931324253839
SHRM2_HUMAN_5,0.14551498728943765,0.20007863305988863,6.377202930088577,17.73285928831949,0.85694381817537,0.38787640475050716,0.25632587232744153,0.5463045984372998,0.3420208302482847,-0.05220336869668222,0.8996479960476749,0.7620062447341032,0.09100152516522624,0.01692387981808693,0.23485235144002917,0.7177364871101004
NOG2_HUMAN_0,0.26509695710841913,0.34670939035728515,7.116584988393088,20.77050743990843,0.8370478844851749,0.7081592880218484,0.28582826368804226,0.5923240699238009,0.666879687867882,-0.049715234931181775,0.8093766736703333,0.8007655401114796,0.20472478372468866,0.024873663917502252,0.26555916696761767,0.6872694721856734
NOG2_HUMAN_1,0.1578590785907859,0.2515146807519031,7.175566069618114,20.127777777777776,0.48830409356725146,0.3820091324200913,0.2724602856761447,0.4844487157085445,0.353204172876304,-0.06363472134405203,0.7549848787738992,0.7028355819803339,0.006655809672165971,0.01051476315230475,0.23587038432554636,0.3887342393974128
NOG2_HUMAN_2,0.17455439459127228,0.21650276582667485,5.534176130276409,16.86855730760179,0.6472058660148873,0.3389768319530349,0.1018512628029773,0.2957567275271964,0.17361571618037136,-0.19749357326478148,0.5398822813070834,0.30716860232278737,0.003808314820691844,-0.009947742869734938,0.1687475614514241,0.513377141516076
NOG2_HUMAN_3,0.14329643296432965,0.23407134071340713,6.039416058394161,19.69503965905055,0.3696632591701744,0.4800447594181276,0.08819891142998515,0.2342899554675903,0.23620603433905651,-0.23015254426010467,0.44002686366689053,0.30601092896174864,0.004166666666666667,-0.058333333333333334,0.1699110122358176,0.2559142434696895
NOG2_HUMAN_4,0.11190030837672514,0.10944873722968418,6.338475923328658,16.29712038687932,0.5738423028785983,0.38604930847865304,0.23793838403410192,0.5864978902953587,0.1821705426356589,-0.09711779448621553,0.7176183290978398,0.38744052662451933,0.016541702094766946,-0.003613072754146822,0.27242554718335127,0.4528272414870353
SNTB1_HUMAN_0,0.1478405315614618,0.28851509412944193,7.435130739396972,16.601256944054768,0.8496411031356252,0.3763574309649395,0.19201465907994986,0.4246459487247521,0.3384893366550771,-0.054336468129571575,0.3881088039669106,0.6730793047929654,-0.007503880311358517,0.028946482665769102,0.2262748185078282,0.6517491058187211
SNTB1_HUMAN_1,0.1679368779700529,0.3282524881197884,7.51518302828619,19.31420532965283,0.750232648732876,0.6294608959757023,0.5453173833387218,0.4918053587666801,0.6990867368225859,-0.04737828421939655,0.7244074187466766,0.757102795145274,0.012186677745464617,0.026568678085497295,0.31755725190839695,0.5685707431495896
SNTB1_HUMAN_2,0.03462816253513928,0.1364681829798109,6.4002079002079,15.425234115396234,0.30995619863182244,0.516224735768589,0.13178294573643412,0.4878664609342124,0.38691781705586376,-0.2019353097652184,0.34124095593071696,0.29229077197025244,-0.023171330387825234,-0.08519181077320612,0.23716939546599497,0.3098092416733575
SNTB1_HUMAN_3,0.027602070155261643,0.025067101226993866,6.2776918316831685,15.989396876068863,0.4706778922920598,0.3605062136586478,0.07731984829329962,0.25926675094816687,0.21228777329913276,-0.27193110494818273,0.4183583406884378,0.29767203012666893,-0.026354065660063722,-0.06988502562681811,0.14703712810425376,0.3433250740315465
SNTB1_HUMAN_4,0.2101534828807556,0.588093322606597,7.376929029908499,19.023576590276,0.8930847604595707,0.6013870778225171,0.5062358276643991,0.6049491626794259,0.7124436189970814,-0.04083378889073753,0.9252560819462228,0.6333700845277471,0.06229903978052126,0.02534922477717025,0.28210172548055246,0.8009585621567649
SNTB1_HUMAN_5,0.1975775927327782,0.31794095382286147,6.886382416129566,19.642857142857142,0.684755326750087,0.7085157182650219,0.11692023513847459,0.5436663401893569,0.5135823429541596,-0.03428306694463748,0.8082138098597069,0.6777916281314086,0.07408975444538526,0.0072642127639170806,0.21166180758017492,0.5464215635650108
SNTB1_HUMAN_6,0.17641103518096685,0.3955960516324981,4.586916380902137,21.496966499604326,0.6130088124213177,0.26813575679588225,0.07877366684036825,0.25586242834809797,0.1994650022291574,-0.08839213344140609,0.43659199550098415,0.31977047470005215,0.002163331530557058,-0.06685534255353233,0.15522830415856256,0.4779970620169892
SNTB1_HUMAN_7,0.18298780081327912,0.38597426838210785,7.146952150674472,19.239756367663343,0.8799927312375068,0.553232550659376,0.1987295825771325,0.5026088929219601,0.4444539103765548,-0.06932705259592435,0.42569111162271767,0.6413456321215409,0.016917451598227374,0.021121257212593537,0.2956475583864119,0.6078795688613184
SNTB1_HUMAN_8,0.23832684824902725,0.3005836575875486,6.767123287671233,21.01823763091369,0.5824436536180309,0.22448478900883218,0.15326691380908247,0.41774791473586653,0.1888355865678151,-0.08386458562321389,0.3077967943493616,0.37409376510391495,-0.048592992918374954,-0.09535684598028737,0.2112887112887113,0.36321787458597654
SNTB1_HUMAN_9,0.16608717248230473,0.3278865374242472,7.125671477104445,19.37608146390016,0.6910173763690304,0.564617958126484,0.3547583457897359,0.551030519223147,0.47516483516483515,-0.09701961770623742,0.5072655217965654,0.7124065701887907,0.019222870286700073,0.02037295654316931,0.295492899773616,0.46050789085266625
SNTB1_HUMAN_10,0.268188302425107,0.38516405135520687,6.863612147043154,20.922214897824652,0.3878226340172071,0.37420718816067655,0.13449503006503866,0.35059516505092647,0.3463541666666667,-0.27032721331212106,0.44309713275230517,0.6485461441213654,-0.07433768287860815,-0.09568999604586793,0.19723865877712032,0.2291904218928164
SNTB1_HUMAN_11,0.13948105200502633,0.3192441571357534,6.485544490844844,19.212538503352057,0.6805644961624164,0.5217843522477753,0.21208576998050682,0.5534838076545633,0.5375944924406048,-0.06557716177079023,0.6456953642384106,0.3854460093896714,0.14098532494758909,0.009456233244861757,0.27981570086833246,0.4127959658038845
CDK13_HUMAN_0,0.28708699829994827,0.481942775884473,7.507430997876858,21.014579278952404,0.9184757747874814,0.8338870130341648,0.5683308119011599,0.6368789168609501,0.7213213064686644,-0.022747952684258416,0.8348408436613104,0.7820718889361635,0.13596989141164856,0.07035553329994992,0.3167699847457077,0.8439770081152379
CDK13_HUMAN_1,0.14652122024245723,0.2708450399827102,7.2618068359098,17.25760036721867,0.7919196716306524,0.4882827506723012,0.3608496565759349,0.5391116165924241,0.6239960912449996,-0.041254125412541254,0.8652686403508771,0.7016441739055087,0.031047830441490946,0.026650248471788558,0.31584241408214586,0.6282934450678219
CDK13_HUMAN_2,0.1529038112522686,0.2073502722323049,7.0943252265140675,20.77050743990843,0.7631915233480645,0.4632555637732804,0.11466393809554262,0.4918036281469165,0.3345773653419407,-0.12892741061755147,0.6544020356234097,0.5601669679889397,0.0021721061672300107,0.010306422120019948,0.1802585625880767,0.6558005003126954
CDK13_HUMAN_3,0.2426582958159514,0.3620668291272562,7.359637993741013,22.20483193277311,0.8344501646980786,0.5422404955494926,0.5383001049317944,0.5936450257926191,0.6562295594801354,-0.04550616482803375,0.8844153700111437,0.7618290760851494,0.29512893982808025,0.04297994269340974,0.3120996691771662,0.6704715784618932
RBM39_HUMAN_0,0.28386750863815086,0.30252259222886846,7.1572962478703595,19.492488954344623,0.8633053906871443,0.4901367605178331,0.4024901728450789,0.6185672514619883,0.6265790152101057,-0.04386921881715098,0.8410245194527473,0.7215304675140473,0.11920529801324503,0.03191039090606766,0.2932824153574083,0.6740531751489406
RBM39_HUMAN_1,0.18728403593642018,0.2722874913614375,5.5598689797403855,19.73053251271073,0.7315718686277062,0.3452847805788982,0.07908068701346843,0.22192017793154578,0.35421785421785423,-0.17149489322191272,0.30340926008634805,0.2309290590679727,0.2985799701046338,0.02092675635276532,0.17673361121636982,0.44921471124021467
RBM39_HUMAN_2,0.10920917494008901,0.2218418349880178,7.033986405437825,17.588026081802017,0.4905649620888205,0.45568052832525024,0.1483098162623084,0.4103781047302642,0.20576977825578086,-0.17885597548518897,0.6770078841099929,0.615403976843695,-0.004311152764761012,-0.016674880893707902,0.16928544706322485,0.32951676354882276
RBM39_HUMAN_3,0.17573609376888066,0.19482821122165384,6.630992996947388,18.061590949901237,0.8887028430836522,0.78875,0.13447002988222886,0.4772807171734927,0.6063157894736843,-0.04995684517693477,0.49642025360131115,0.5847999172784614,0.008171069182389938,0.007667924528301887,0.215578619248344,0.7670173363627875
RBM39_HUMAN_4,0.07974756167527251,0.09982788296041308,5.841417023300048,16.716087178365772,0.7337048703658832,0.38027332144979203,0.09567404426559356,0.37937625754527166,0.0794163510804188,-0.16120218579234974,0.5475913427973005,0.39105219552609777,0.002112676056338028,-0.04131455399061033,0.13281688559559895,0.49821857793082286
RBM39_HUMAN_5,0.1653179190751445,0.34009546539379476,5.72552783109405,17.248062015503876,0.25140712945590993,0.37398373983739835,0.14097527155072798,0.4298590247284493,0.17423200366804217,-0.2178676780446692,0.07716695918020722,0.3128925795805387,-0.038257575757575754,-0.1171437002065506,0.22585285655569257,0.20075786282682834
RBM39_HUMAN_6,0.2225877192982456,0.3120132694135971,7.284021739130435,17.966420872058787,0.8293482397986718,0.5246430097225638,0.16285362259319208,0.5424419602917122,0.6093403794728129,-0.060836501901140684,0.8818980507001006,0.667955829219887,0.04304559129831058,0.029345751969132743,0.2757171683551414,0.7464940551369714
RBM39_HUMAN_7,0.05409048782542759,0.07113579267486447,4.3403497195645,16.534581265975042,0.8576531716821822,0.11305967752296525,0.06022925325110605,0.213509828928273,0.11957745259329812,-0.09986013986013986,0.43694173563877736,0.2534622633778579,-0.013508660932610592,-0.06540936985481216,0.12341803198273325,0.698860366064234
RBM39_HUMAN_8,0.24805577902923034,0.5092545423671252,6.251963048498845,19.06974595842956,0.6087629819100743,0.45400803972570347,0.2163528591352859,0.5191771269177127,0.6161162820349356,-0.06646953736216349,0.7248052274440814,0.4808269650655022,0.026053065507420176,0.03603565633363539,0.21193228360790026,0.3398826979472141
BMS1_HUMAN_0,0.25440962855364185,0.2642497678135597,7.082105352905233,18.259320768800148,0.8485507877099835,0.8688775510204082,0.2751844755187737,0.6136123441132952,0.7983237297014144,-0.04755825087775295,0.6907760381211708,0.6385620854053348,0.017719680464778505,0.01002814730781168,0.2832818109293977,0.7263891198699115
BMS1_HUMAN_1,0.09278051609162076,0.20527689185271092,6.865384615384615,15.494871794871795,0.28783000643915,0.35828025477707004,0.1635949696444059,0.4559843885516045,0.6605461393596986,-0.2096551724137931,0.157755499860763,0.6175160122528544,-0.046150079569102706,-0.10076857386848848,0.33691756272401435,0.18087201125175809
BMS1_HUMAN_2,0.07931088002483315,0.10010864504112992,6.2776918316831685,16.658097388686237,0.7172863030088182,0.1354656632173095,0.10363877430760166,0.3084119033588686,-0.1402090072157253,-0.10033808258874669,0.25691699604743085,0.2868906455862978,-0.06522535727372664,-0.10309026505435447,0.12272353424979439,0.572131980584906
BMS1_HUMAN_3,0.12557410104178335,0.21972745887170797,6.57920030757401,17.666858900422913,0.7042537587092043,0.33113578533425864,0.1521393892644857,0.5730155524136538,0.17659520379628846,-0.04990044798407168,0.7549019607843137,0.6160380074863231,0.00651552145099407,0.011968085106382979,0.16761276465173366,0.41463752075262866
BMS1_HUMAN_4,0.13503866745984533,0.19393218322427128,5.419201520912548,17.012048192771083,0.521654501216545,0.29843608633837404,0.06694040064700758,0.21087494540690058,0.17108294930875576,-0.22060559893353646,0.28068043742405835,0.4422843256379101,-0.024305555555555556,-0.1232638888888889,0.13893339436942093,0.3785557986870897
BMS1_HUMAN_5,0.17717901612573994,0.16196349083186998,5.987989018531229,16.95744680851064,0.7268133628251087,0.2584992959163146,0.1546235177288393,0.3601261755943688,0.05441416659503138,-0.06450065939335811,0.40639684705169016,0.5103489501606516,0.028859707693449067,0.011350609813391465,0.13915446255871788,0.5934914936787888
BMS1_HUMAN_6,0.3597414857308837,0.43623497184598997,6.875763101561881,20.903980099502487,0.9387336737700088,0.6574993580438416,0.34300579830192585,0.6174123056258718,1.1728555514296324,-0.03161768346012311,0.8142689758705284,0.8058403230817024,0.29920949813732317,0.09826388888888889,0.29209428377848307,0.9110145739910314
BMS1_HUMAN_7,0.03128654970760234,0.11617933723196881,3.76130286825474,14.625170377101318,0.371373771277871,0.2952529369455766,0.1034618410700236,0.39614476789929187,0.17995674116798846,-0.2178676780446692,0.06307021023403411,0.12990876636255455,-0.04189560439560439,-0.11950549450549451,0.17051936355448813,0.18661270236612704
RRS1_HUMAN_0,0.1567989590110605,0.18282368249837344,6.387878787878788,17.650116765593072,0.9088470382130734,0.6631363805276849,0.12093435836782969,0.45155006768133643,0.5392317793827971,-0.03704115684093437,0.4880983750548968,0.5857265226996078,0.024726388325901905,0.005520663904355982,0.20499181669394434,0.8305875210420288
RRS1_HUMAN_1,0.1910747957259585,0.2752985543683218,7.1977698295813175,17.947860962566846,0.8907560849300881,0.4746220389683887,0.37110537805120064,0.6570188133140377,0.5260603502848702,-0.04573832337328481,0.7160229703862178,0.7138900746509521,0.005266773528738264,0.01686195789178843,0.257841554978598,0.778125
RRS1_HUMAN_2,0.1965506020175724,0.40579238529124634,5.223415682062298,21.559585492227978,0.6844472386110843,0.482739420935412,0.04885760913912689,0.16901264789881681,0.23389618511569732,-0.1285049077082845,0.31323150168617336,0.525953845136547,-0.043199481865284974,-0.08270031854937515,0.13038632986627044,0.5333904738582099
RRS1_HUMAN_3,0.2351920693928129,0.4328033472803347,7.020817363940775,21.996985724847864,0.847888153053716,0.46279713128187644,0.39099929838628844,0.5303089942924621,0.6209949409780776,-0.058957173690787235,0.6899752253060931,0.6596041816295587,0.026015954362374034,0.012051702166393593,0.27648849628187855,0.7387367282652545
PGM5_HUMAN_0,0.17773075905845015,0.3220488406947016,7.172137977003833,19.16093578269744,0.4517898896288031,0.6177376960029004,0.2752392543010455,0.5691666666666667,0.6913345983554712,-0.07369620384276762,0.576231820613843,0.6659351982597412,0.1069182389937107,0.044659365666334806,0.31931143168868953,0.3126406418158693
PGM5_HUMAN_1,0.01948051948051948,0.03506493506493506,4.285345717234262,14.859133126934985,0.38552567237163815,0.6983440662373505,0.07031032885595183,0.22658638258452987,0.5661403741541727,-0.3330316742081448,0.38,0.26,-0.013910761154855643,-0.08293963254593176,0.22831727205337288,0.2670550847457627
PGM5_HUMAN_2,0.15092412948024098,0.2350658633717962,6.485612788632327,17.993836671802775,0.3522001419446416,0.5074626865671642,0.09232701769077777,0.34282424369308073,0.5011593242795628,-0.2165086022017824,0.3476990504017531,0.5615412710007305,-0.011821764170960897,-0.06479481641468683,0.19882808620518422,0.19342093962037277
PGM5_HUMAN_3,0.12669592976855545,0.283220271348763,5.995835812016657,16.40103016924209,0.5206053975200583,0.2470230554851786,0.1550547532137756,0.39810999005257924,0.4964131994261119,-0.14994775339602925,0.5106309676149228,0.316911113298553,0.0506108202443281,0.006426686048735702,0.2119395203336809,0.1950348212030455
PGM5_HUMAN_4,0.14167012879102617,0.31948483589530535,5.583298538622129,19.44782825761358,0.4355125922157212,0.3724243195115747,0.24237109786039987,0.4805331462644686,0.32989818723615594,-0.0593607305936073,0.5356271351878965,0.4707174231332357,-0.011916167664670659,-0.06915381408920383,0.18090311757304628,0.2822811864671845
PGM5_HUMAN_5,0.10624597553122987,0.3104247104247104,5.534176130276409,16.28297501452644,0.555229716520039,0.21409421677518192,0.16590535355380961,0.5192764480175407,0.20125427594070697,-0.22223489167616875,0.38317487755690005,0.32008066839527516,0.026837324525185797,0.010027132240179308,0.2321867321867322,0.28161481771342856
PGM5_HUMAN_6,0.07398932112890923,0.07805746249682176,5.558139534883721,18.026578073089702,0.2593105183694011,0.11635944700460829,0.13873626373626374,0.4807692307692308,0.09506879978932121,-0.11429323852788202,0.8515299026425591,0.34666203059805284,-0.013467322942302434,-0.05728739403882964,0.23667570009033423,0.050118439097369405
PGM5_HUMAN_7,0.2162504524068042,0.27808896210873146,7.108163999280705,20.127777777777776,0.6683439122908251,0.2630590645271424,0.3404712041884817,0.5077041602465331,0.34824046920821117,-0.06543448625685572,0.9772100275878614,0.5822884699693117,0.16629044394281414,0.008591460260904545,0.22851981483572315,0.4584615384615385
LIN41_HUMAN_0,0.12319814317126802,0.20958512160228898,6.40594315245478,14.519638242894057,0.7699230147291455,0.3717728055077453,0.24972730189284567,0.49188171621303634,0.46731128884644463,-0.07953198485833365,0.5527534233080484,0.5433947394345384,-0.00615104879067596,-0.0610600116304784,0.293173386956974,0.6111111111111112
LIN41_HUMAN_1,0.09644697294976384,0.20357449549162732,6.2677922077922075,17.04077922077922,0.6139022711631108,0.25620207487595853,0.2077922077922078,0.535064935064935,0.5021264530762688,-0.09624218450937859,0.2301283880171184,0.5947622329427981,0.00312854730197403,-0.0011351366316896924,0.22917831190609278,0.3706293706293706
LIN41_HUMAN_2,0.25569010145488086,0.42688130333591934,7.895085588072888,17.951211734693878,0.8301202110359901,0.43054066744035646,0.6172409170130044,0.5487087583861777,0.5574604875435307,-0.040935185955570344,0.5665159447881961,0.8131911273964536,0.01042298768516866,0.00083733140219064,0.2683377850832135,0.6726254035651923
LIN41_HUMAN_3,0.2675702360649852,0.3044349070100143,7.242612752721618,20.019930467109567,0.9038259091045808,0.5162989792558446,0.45498547918683446,0.5831049007153841,0.6268282490597576,-0.04327942887119951,0.6273714016045304,0.6688928846647829,0.03957425125969541,0.00366583708885451,0.3130434782608696,0.819657227516078
LIN41_HUMAN_4,0.07974756167527251,0.09982788296041308,5.149097815764482,16.628679962013294,0.42602495543672014,0.38027332144979203,0.03231179213857428,0.09127248500999334,0.016743508857073527,-0.4227129337539432,0.2007042253521127,0.39105219552609777,-0.03224744981901941,-0.15366897005593946,0.1021931160523911,0.4716722509899482
LIN41_HUMAN_5,0.07974756167527251,0.09982788296041308,5.528391425298642,16.628679962013294,0.6297121522341322,0.38027332144979203,0.05461893293056293,0.2116993917622566,0.206398605751276,-0.18105413742232554,0.45583827562017726,0.39105219552609777,0.009002641270786057,0.002752873777017224,0.14321987905101566,0.4716722509899482
LIN41_HUMAN_6,0.055475435054321696,0.05480242284395731,5.28139534883721,16.225581395348836,0.42662116040955633,0.3763574309649395,0.037723846791449,0.10376467413304548,0.09922680412371133,-0.9579037800687286,0.16238962472406182,0.31346578366445915,0.0,0.03855421686746988,0.125,0.39805825242718446
LIN41_HUMAN_7,0.12903225806451613,0.19466893520487735,6.854217546496336,16.28665105386417,0.6208701772909243,0.3433109522778139,0.09333154793786824,0.2816014997321907,0.17055933669555567,-0.12927904564315354,0.4631012116020071,0.5224692747912563,0.0031996587030716723,0.019197952218430035,0.17574072093272008,0.4656786553406832
LIN41_HUMAN_8,0.16823008849557522,0.2594082840236686,6.4674298332268,18.51272577996716,0.5963380716934487,0.4653566328958999,0.1361605452480121,0.441423703142749,0.2994535519125683,-0.05458970792767733,0.5567841273121835,0.6194001518602885,0.009942082923871453,0.009732996006439877,0.22140303391439595,0.4616038318912237
LIN41_HUMAN_9,0.07139434595112602,0.1346782988004362,6.196574225122349,14.774267008255052,0.3585240090235256,0.13221076377699,0.1336297071129707,0.5208652699710441,0.10245128849780012,-0.13247376311844078,0.6940097799511002,0.39009779951100243,-0.0019263323798960948,-0.023524604518125037,0.2808632180260235,0.30799319111948137
LIN41_HUMAN_10,0.22289156626506024,0.3324658425504229,6.976142822832439,17.36420233463035,0.60290202342918,0.44075829383886256,0.2717872968980798,0.513556801281318,0.31956235646272546,-0.1253609239653513,0.8244327297730919,0.6709152234546281,0.09333333333333334,0.0071111111111111115,0.2813790626683426,0.4288
LIN41_HUMAN_11,0.07953667953667953,0.27606177606177607,5.904788914998784,17.117805755395683,0.4528735632183908,0.2922069825436409,0.08394110361910004,0.3356954586700082,0.23472608224598426,-0.18746618131732992,0.3762118362031544,0.3185526982161949,0.01157627656200444,0.007405645417063115,0.17761079979623026,0.2771391358514072
LIN41_HUMAN_12,0.16725471570090922,0.2993557294063507,5.131147540983607,19.807231962238706,0.46495362627337694,0.7663867039950228,0.1334448860071115,0.48243045387994143,0.630441767068273,-0.20822297893807543,0.31925064599483205,0.3024054982817869,0.03348722283633526,-0.058681394546082156,0.24375936095856215,0.24860675722744688
LIN41_HUMAN_13,0.025859985499073552,0.030935309755901072,3.391082802547771,14.023566878980892,0.2609414426172453,0.42591142434525364,0.07422195686245242,0.20486603477871482,0.4959476309226933,-0.3432044887780549,0.05079209537808264,0.09162175404213621,-0.049827349348383024,-0.10076857386848848,0.20113240418118467,0.1353658536585366
LIN41_HUMAN_14,0.10197775030902348,0.2669962917181706,6.839088397790055,17.58977900552486,0.458471840824782,0.25757575757575757,0.1656984785615491,0.5468879668049793,0.11054467400053662,-0.15557688846223075,0.8515299026425591,0.6273291925465838,-0.0033763945977686436,-0.02554315913094539,0.22977941176470587,0.3293522267206478
LIN41_HUMAN_15,0.2381483547127719,0.31146025878003697,7.332899022801303,17.621987737059747,0.371373771277871,0.2952529369455766,0.3043536146984423,0.5232253938724493,0.6289506953223767,-0.08214556801889179,0.47670894600965313,0.6965307892454466,0.06220683493410766,-0.037971856153674335,0.27151828592537863,0.20799613479888876
LIN41_HUMAN_16,0.18461538461538463,0.275781910397295,5.767967145790554,20.010266940451746,0.2727570399476097,0.28945645055664704,0.2138364779874214,0.5345911949685535,0.14486839420526423,-0.1230174081237911,0.3967318808359271,0.5380168963983993,-0.03135048231511254,-0.11816720257234727,0.2386593470095348,0.21713021491782553
LIN41_HUMAN_17,0.05377930808329234,0.09378586653549763,5.841417023300048,14.841422924901186,0.35155490767735664,0.4067055393586006,0.12785254534815682,0.4534815681685196,0.29929689996804093,-0.3212382815134552,0.594515931372549,0.38863357843137253,-0.013377926421404682,-0.04013377926421405,0.1776364649090234,0.28826109063175287
LIN41_HUMAN_18,0.21945807054426536,0.23524620510921881,6.87664775207333,18.408554304395206,0.42181535873714177,0.3493693806193806,0.20559706383536505,0.49248678230219833,0.45854145854145856,-0.06989501560578833,0.6010758350887752,0.6328199198909856,0.04819654992158913,0.019654992158912702,0.2736217271100992,0.2791647913302092
