seqid,AA_A,AA_C,AA_D,AA_E,AA_F,AA_G,AA_H,AA_I,AA_K,AA_L,AA_M,AA_N,AA_P,AA_Q,AA_R,AA_S,AA_T,AA_V,AA_W,AA_Y,CLV_C14_Caspase3-7,DEG_APCC_KENBOX_2,DEG_Kelch_Keap1_1,DEG_SCF_TRCP1_1,DOC_ANK_TNKS_1,DOC_CYCLIN_RxL_1,DOC_MAPK_JIP1_4,DOC_MAPK_MEF2A_6,DOC_MAPK_NFAT4_5,DOC_MAPK_gen_1,DOC_PP1_RVXF_1,DOC_PP2A_B56_1,DOC_PP4_FxxP_1,DOC_WW_Pin1_4,D_repeats,ED_ratio,ELASTIN_LIKE,E_repeats,FG_repeats,FG_rich,FGxF,FRG,G_repeats,KAP_repeats,KL_hydropathy,K_repeats,LIG_14-3-3_CanoR_1,LIG_CaM_IQ_9,LIG_CtBP_PxDLS_1,LIG_EF_ALG2_ABM_1,LIG_EH_1,LIG_HCF-1_HBM_1,LIG_HOMEOBOX,LIG_KEPE_2,LIG_KLC1_WD_1,LIG_LIR_Gen_1,LIG_PAM2_1,LIG_PCNA_PIPBox_1,LIG_PDZ_Class_1,LIG_PDZ_Wminus1_1,LIG_PTAP_UEV_1,LIG_PTB_Apo_2,LIG_PTB_Phospho_1,LIG_Rb_LxCxE_1,LIG_SH2_CRK,LIG_SH2_GRB2like,LIG_SH2_NCK_1,LIG_SH2_SRC,LIG_SH2_STAP1,LIG_SH2_STAT5,LIG_SH3_2,LIG_SUMO_SIM_anti_2,LIG_SUMO_SIM_par_1,MOD_CDK_SPK_2,MOD_CDK_SPxK_1,MOD_CDK_SPxxK_3,MOD_CK1_1,MOD_CK2_1,MOD_DYRK1A_RPxSP_1,MOD_GSK3_1,MOD_N-GLC_1,MOD_NMyristoyl,MOD_PIKK_1,MOD_PKA_1,MOD_PKA_2,MOD_PKB_1,MOD_Plk_1,MOD_ProDKin_1,MOD_SUMO_for_1,MOD_SUMO_rev_2,N_repeats,PG_rich,PR_repeats,PTS_repeats,PY,P_repeats,QN_repeats,Q_repeats,REP_RGG,RG_repeats,RK_ratio,R_plus_Y,R_repeats,SGFYSG,SG_repeats,SR_repeats,S_repeats,TRG_ER_FFAT_1,TRG_ER_diArg_1,TRG_LysEnd_APsAcLL_1,TRG_NES_CRM1_1,TRG_NLS_MonoExtN_4,acidic,aliphatic,aromatic,basic,chain_expanding,complexity,custom_kappa,custom_omega,disorder_promoting,fcr,isoelectric_point,net_charge,polar_fraction,scd,srpipi,lrpipi,Water,Carbon,ssH,ssE,disL,disS,srELEC,lrELEC,sr_hb,lr_hb,srCATPI,lrCATPI,larkSIM,larkFAR,sequence,label,entry
A0A024R2Q3_HUMAN_0,0.1126760563380281,0.0,0.0704225352112676,0.0774647887323943,0.028169014084507,0.0492957746478873,0.028169014084507,0.028169014084507,0.0211267605633802,0.0633802816901408,0.056338028169014,0.028169014084507,0.0492957746478873,0.1056338028169014,0.0352112676056338,0.0774647887323943,0.0704225352112676,0.056338028169014,0.0140845070422535,0.028169014084507,1.0,0.0,0.0,1.0,0.0,0.0,0.0,0.0,0.0,0.0,0.0,0.0,0.0,0.0,10.0,0.0870113769896297,0.0,11.0,11.0,0.0,0.0,0.0,7.0,26.0,-0.5830985915492959,3.0,0.0,0.0,0.0,0.0,0.0,0.0,0.0,0.0,0.0,0.0,0.0,0.0,0.0,0.0,0.0,0.0,0.0,0.0,0.0,0.0,0.0,1.0,0.0,1.0,0.0,0.0,0.0,0.0,0.0,0.0,1.0,1.0,0.0,3.0,0.0,0.0,4.0,0.0,0.0,0.0,1.0,0.0,0.0,1.0,4.0,0.0,12.0,28.0,0.0,7.0,19.0,15.0,0.0,12.0,0.4054651081081644,9.0,5.0,3.0,18.0,16.0,11.0,0.0,0.0,0.0,0.0,0.0,0.1478873239436619,0.3169014084507042,0.0704225352112676,0.056338028169014,0.2535211267605634,2.5853259522186014,1.5649875365686663,0.925929205346992,0.6971830985915493,0.204225352112676,4.393558502197266,-13.0,0.3591549295774648,2.7274419575238675,0.0754632180147906,0.0889285578017958,4.711777744042194,14.9689738464462,0.4396523454217149,0.1566156867708011,0.0845956428932928,0.2458614580813569,0.010471790143642,-0.3512819201430785,0.2220672873256123,0.2345778655645488,-0.1118080627523949,-0.231874496958082,0.1368702576828517,0.2728856371344169,MATQADLMELDMAMEPDRKAAVSHWQQQSYLDSGIHSGATTTAPSLSGKGNPEEEDVDTSQVLYEWEQGFSQSFTQEQVADIDGQYAMTRAQRVRAAMFPETLDEGMQIPSTQFDAAHPTNVQRLAEPSQMLKHAVVNLINY,cell_junction,A0A024R2Q3_HUMAN
A0A024R2Q3_HUMAN_1,0.15,0.0,0.15,0.15,0.0,0.0,0.0,0.05,0.05,0.2,0.0,0.05,0.05,0.0,0.05,0.0,0.1,0.0,0.0,0.0,0.0,0.0,0.0,0.0,0.0,0.0,0.0,0.0,0.0,0.0,0.0,0.0,0.0,0.0,3.0,0.0,0.0,3.0,0.0,0.0,0.0,0.0,0.0,5.0,-0.54,1.0,0.0,0.0,0.0,0.0,0.0,0.0,0.0,0.0,0.0,0.0,0.0,0.0,0.0,0.0,0.0,0.0,0.0,0.0,0.0,0.0,0.0,0.0,0.0,0.0,0.0,0.0,0.0,0.0,0.0,0.0,0.0,0.0,0.0,0.0,0.0,0.0,0.0,0.0,0.0,0.0,0.0,0.0,0.0,0.0,1.0,0.0,2.0,3.0,0.0,1.0,1.0,0.0,0.0,1.0,0.0,1.0,1.0,0.0,0.0,1.0,0.0,0.0,0.0,1.0,0.0,0.0,0.3,0.4,0.0,0.1,0.45,1.6544568521080714,-1.1528279516981796,-0.8340798192710221,0.7,0.4,4.017688751220703,-4.0,0.15,0.7452936642344359,0.0406111053376452,0.049857260302255,4.452280708785184,15.326669980218533,0.5858646932735684,0.0992435627525562,0.0480741400407303,0.1725857003553684,-0.2127411801325773,-0.3229657072676399,0.2163205779586136,0.1811748241802256,-0.0305703907487017,-0.115342672114981,0.096209223059428,0.3956916222269452,DDAELATRAIPELTKLLNDE,cell_junction,A0A024R2Q3_HUMAN
A0A024R2Q3_HUMAN_2,0.1372549019607843,0.0196078431372549,0.0196078431372549,0.0392156862745098,0.0,0.0196078431372549,0.0588235294117647,0.0392156862745098,0.0588235294117647,0.0392156862745098,0.0784313725490196,0.0588235294117647,0.0196078431372549,0.0588235294117647,0.0784313725490196,0.0784313725490196,0.0980392156862745,0.0980392156862745,0.0,0.0,0.0,0.0,0.0,0.0,0.0,0.0,0.0,0.0,0.0,0.0,0.0,0.0,0.0,1.0,1.0,0.4054651081081644,0.0,2.0,1.0,0.0,0.0,0.0,1.0,11.0,-0.3764705882352941,3.0,1.0,0.0,0.0,0.0,0.0,0.0,0.0,0.0,0.0,0.0,0.0,0.0,0.0,0.0,0.0,0.0,0.0,0.0,0.0,0.0,0.0,0.0,0.0,0.0,0.0,0.0,0.0,0.0,0.0,0.0,0.0,1.0,0.0,2.0,0.0,0.0,0.0,0.0,1.0,0.0,0.0,1.0,0.0,0.0,3.0,0.0,5.0,10.0,0.0,1.0,6.0,3.0,0.0,5.0,0.2231435513142097,4.0,4.0,0.0,5.0,8.0,4.0,0.0,0.0,0.0,0.0,0.0,0.0588235294117647,0.392156862745098,0.0,0.1372549019607843,0.2156862745098039,2.2652707221221946,-0.5539012344320814,-0.4852972900404654,0.6666666666666666,0.196078431372549,10.28512191772461,4.0,0.392156862745098,0.2220553483020842,0.0516479421951641,0.070798443131823,4.26394827271242,14.908685106494186,0.4812086485087844,0.2006267252980548,0.0527824827308871,0.2150183659828451,-0.0548437687719783,-0.3418853982155246,0.2241609735573625,0.2176471587906247,-0.031379560818499,-0.1309136710644968,0.1249078164689246,0.3237071368960703,KAAVMVHQLSKKEASRHAIMRSPQMVSAIVRTMQNTNDVETARCTAGTLHN,cell_junction,A0A024R2Q3_HUMAN
A0A024R2Q3_HUMAN_3,0.1904761904761904,0.0476190476190476,0.0,0.0952380952380952,0.0,0.0,0.0952380952380952,0.0476190476190476,0.0,0.0952380952380952,0.0476190476190476,0.0476190476190476,0.0476190476190476,0.0952380952380952,0.0952380952380952,0.0476190476190476,0.0476190476190476,0.0,0.0,0.0,0.0,0.0,0.0,0.0,0.0,0.0,0.0,0.0,0.0,0.0,0.0,0.0,0.0,0.0,0.0,1.0986122886681098,0.0,2.0,0.0,0.0,0.0,0.0,0.0,5.0,-0.5857142857142857,0.0,0.0,0.0,0.0,0.0,0.0,0.0,0.0,0.0,0.0,0.0,0.0,0.0,0.0,0.0,0.0,0.0,0.0,0.0,0.0,0.0,0.0,0.0,0.0,0.0,0.0,0.0,0.0,0.0,0.0,0.0,0.0,0.0,0.0,0.0,0.0,0.0,0.0,0.0,0.0,0.0,0.0,0.0,0.0,0.0,1.0,0.0,3.0,3.0,0.0,1.0,3.0,2.0,0.0,2.0,1.0986122886681098,2.0,2.0,0.0,1.0,3.0,1.0,0.0,0.0,0.0,0.0,0.0,0.0952380952380952,0.3809523809523809,0.0,0.0952380952380952,0.238095238095238,1.8445880554918683,0.7415664082649763,-0.7332833289278615,0.7142857142857143,0.1904761904761904,6.916019439697266,0.0,0.3809523809523809,-0.3004067633385882,0.0597600165707617,0.0802062266811185,4.231561251680359,15.616209567126711,0.639263652892695,0.1230131706000927,0.0396503557336585,0.1548820721687959,-0.1742846141981532,-0.3129682045866087,0.1998256193422124,0.2146196431546205,-0.0405825095708728,-0.1250786733915473,0.0884746621387128,0.4784945290614943,PAICALRHLTSRHQEAEMAQN,cell_junction,A0A024R2Q3_HUMAN
A0A024R2Q3_HUMAN_4,0.0434782608695652,0.0,0.0434782608695652,0.0434782608695652,0.0434782608695652,0.1304347826086956,0.0434782608695652,0.0,0.0,0.0,0.0434782608695652,0.0,0.0,0.217391304347826,0.1304347826086956,0.0434782608695652,0.1304347826086956,0.0869565217391304,0.0,0.0,0.0,0.0,0.0,0.0,0.0,0.0,0.0,0.0,0.0,0.0,0.0,0.0,0.0,0.0,1.0,0.0,0.0,1.0,4.0,0.0,0.0,0.0,3.0,1.0,-1.3217391304347823,0.0,1.0,0.0,0.0,0.0,0.0,0.0,0.0,0.0,0.0,0.0,0.0,0.0,0.0,0.0,0.0,0.0,0.0,0.0,0.0,0.0,0.0,0.0,0.0,0.0,0.0,0.0,0.0,0.0,0.0,0.0,0.0,0.0,0.0,1.0,0.0,0.0,2.0,1.0,1.0,0.0,0.0,0.0,0.0,0.0,0.0,0.0,3.0,4.0,0.0,0.0,5.0,5.0,0.0,6.0,1.3862943611198906,3.0,3.0,0.0,4.0,4.0,1.0,0.0,0.0,0.0,0.0,0.0,0.0869565217391304,0.1739130434782608,0.0434782608695652,0.1304347826086956,0.217391304347826,1.771772097249488,-0.7761832861947044,-0.5225442237352453,0.8260869565217391,0.217391304347826,9.51688003540039,1.0,0.5652173913043478,-0.2956374442330182,0.0931181380676652,0.1133432405654843,4.962332401357965,14.538315200585938,0.3703656371556918,0.1889441267514053,0.1001698946228918,0.2965647842053034,0.0028212340828232,-0.3674796387852995,0.2386302312601568,0.283915781737818,-0.0958764715101723,-0.2044193520473887,0.1622207405862048,0.2269434475834743,RAHQDTQRRTSMGGTQQQFVEGV,cell_junction,A0A024R2Q3_HUMAN
A0A024R2Q3_HUMAN_5,0.2727272727272727,0.0,0.0,0.2272727272727272,0.0,0.0454545454545454,0.0454545454545454,0.0454545454545454,0.0,0.1363636363636363,0.0,0.0,0.0454545454545454,0.0,0.0454545454545454,0.0454545454545454,0.0909090909090909,0.0,0.0,0.0,0.0,0.0,0.0,0.0,0.0,0.0,0.0,0.0,0.0,0.0,0.0,0.0,0.0,0.0,0.0,1.791759469228055,0.0,5.0,1.0,0.0,0.0,0.0,1.0,7.0,-0.1227272727272727,0.0,0.0,0.0,0.0,0.0,0.0,0.0,0.0,0.0,0.0,0.0,0.0,0.0,0.0,0.0,0.0,0.0,0.0,0.0,0.0,0.0,0.0,0.0,0.0,0.0,0.0,0.0,0.0,0.0,0.0,0.0,0.0,0.0,0.0,1.0,0.0,0.0,0.0,0.0,0.0,0.0,0.0,0.0,0.0,0.0,0.0,0.0,2.0,4.0,0.0,1.0,0.0,0.0,0.0,2.0,0.6931471805599453,1.0,1.0,0.0,2.0,2.0,1.0,0.0,0.0,0.0,0.0,0.0,0.2272727272727272,0.4545454545454545,0.0,0.0454545454545454,0.3181818181818182,1.5736150794206851,-0.3730291450398283,0.0335178655129251,0.8181818181818182,0.2727272727272727,4.318256378173828,-4.0,0.2272727272727272,0.3385789591669202,0.0413969161315739,0.0571330359308986,4.246803230270702,14.633392318061812,0.581825618233743,0.0977571750536759,0.049109003994584,0.1919812571637307,-0.0974127115133402,-0.2496017382145079,0.1452387928787973,0.1464686007013512,-0.0188577474935397,-0.0699661678053038,0.1022654831293249,0.4060163773345573,EAAEAIEAEGATAPLTELLHSR,cell_junction,A0A024R2Q3_HUMAN
A0A024R2Q3_HUMAN_6,0.3333333333333333,0.0,0.0,0.0,0.1666666666666666,0.0,0.0,0.0,0.0,0.1666666666666666,0.0,0.0,0.0,0.0,0.1666666666666666,0.0,0.0,0.1666666666666666,0.0,0.0,0.0,0.0,0.0,0.0,0.0,0.0,0.0,0.0,0.0,0.0,0.0,0.0,0.0,0.0,0.0,0.0,0.0,0.0,1.0,0.0,0.0,0.0,0.0,2.0,1.65,0.0,0.0,0.0,0.0,0.0,0.0,0.0,0.0,0.0,0.0,0.0,0.0,0.0,0.0,0.0,0.0,0.0,0.0,0.0,0.0,0.0,0.0,0.0,0.0,0.0,0.0,0.0,0.0,0.0,0.0,0.0,0.0,0.0,0.0,0.0,0.0,0.0,0.0,0.0,0.0,0.0,0.0,0.0,0.0,0.0,0.0,0.0,1.0,0.0,0.0,0.0,0.0,0.0,0.0,1.0,0.6931471805599453,1.0,1.0,0.0,0.0,1.0,0.0,0.0,0.0,0.0,0.0,0.0,0.0,0.6666666666666666,0.1666666666666666,0.1666666666666666,0.1666666666666666,0.9810173385750264,0.0,0.0,0.5,0.1666666666666666,9.750049591064451,1.0,0.0,0.0,0.0414146777246454,0.0779095747496435,2.639139139215744,16.552186348507465,0.5460998359506264,0.3179214624192574,0.0330720020496289,0.0826325537002154,0.1173081766736172,-0.3109158186093563,0.0518558237943285,0.0589772469860565,-0.2308116395734306,-0.4877975987469231,0.1040054139073083,0.4564906619280659,AAVLFR,cell_junction,A0A024R2Q3_HUMAN
A0A024R2Q3_HUMAN_7,0.0608695652173913,0.0,0.1304347826086956,0.0521739130434782,0.0260869565217391,0.1304347826086956,0.0434782608695652,0.008695652173913,0.0260869565217391,0.1043478260869565,0.0521739130434782,0.017391304347826,0.0869565217391304,0.0521739130434782,0.0347826086956521,0.0608695652173913,0.0347826086956521,0.017391304347826,0.017391304347826,0.0434782608695652,1.0,0.0,0.0,0.0,0.0,0.0,0.0,1.0,0.0,1.0,0.0,0.0,0.0,0.0,15.0,-0.8266785731844679,0.0,6.0,18.0,0.0,0.0,0.0,15.0,20.0,-0.8260869565217392,3.0,1.0,0.0,0.0,0.0,0.0,0.0,0.0,0.0,0.0,0.0,0.0,0.0,0.0,0.0,0.0,0.0,0.0,0.0,0.0,0.0,0.0,0.0,0.0,0.0,0.0,0.0,0.0,0.0,0.0,0.0,1.0,0.0,0.0,1.0,1.0,0.0,0.0,1.0,1.0,0.0,0.0,0.0,0.0,0.0,2.0,10.0,14.0,21.0,0.0,10.0,8.0,6.0,0.0,19.0,0.2231435513142097,9.0,4.0,3.0,22.0,11.0,7.0,0.0,0.0,0.0,0.0,0.0,0.1826086956521739,0.2434782608695652,0.0869565217391304,0.0608695652173913,0.3304347826086956,2.475539358035118,-0.4405270944917045,-0.8965766114416718,0.7130434782608696,0.2434782608695652,4.296627044677734,-14.0,0.3391304347826087,3.326457701097545,0.0846753455652385,0.1210528767147484,4.899182906268135,14.548952289522672,0.2978864037757718,0.1671755610083218,0.1568939436014766,0.3146561074545085,0.0903498687903818,-0.4107348350413878,0.2037200023177094,0.2594685351230884,-0.130745166603369,-0.2971440064347792,0.1786007021554399,0.1482675496901604,KPQDYKKRLSVELTSSLFRTEPMAWNETADLGLDIGAQGEPLGYRQDDPSYRSFHSGGYGQDALGMDPMMEHEMGGHHPGADYPVDGLPDLGHAQDLMDGLPPGDSNQLAWFDTD,cell_junction,A0A024R2Q3_HUMAN
RCCD1_HUMAN_0,0.0666666666666666,0.0,0.0,0.0,0.0,0.1333333333333333,0.0666666666666666,0.0,0.0,0.0666666666666666,0.0,0.0,0.1333333333333333,0.0666666666666666,0.2,0.2,0.0,0.0666666666666666,0.0,0.0,0.0,0.0,0.0,0.0,0.0,0.0,0.0,0.0,0.0,0.0,0.0,0.0,0.0,1.0,0.0,0.0,0.0,0.0,2.0,0.0,0.0,2.0,2.0,3.0,-1.12,0.0,0.0,0.0,0.0,0.0,0.0,0.0,0.0,0.0,0.0,0.0,0.0,0.0,0.0,0.0,0.0,0.0,0.0,0.0,0.0,0.0,0.0,0.0,0.0,0.0,0.0,0.0,0.0,0.0,1.0,0.0,0.0,0.0,0.0,0.0,0.0,0.0,0.0,0.0,0.0,0.0,0.0,1.0,0.0,0.0,0.0,0.0,5.0,5.0,0.0,2.0,1.0,1.0,0.0,5.0,1.3862943611198906,3.0,3.0,0.0,5.0,6.0,3.0,0.0,0.0,0.0,0.0,0.0,0.0,0.2,0.0,0.2,0.3333333333333333,1.5286305389509929,-1.2509220877138525,-0.451727857091014,0.8666666666666667,0.2,12.301029205322266,3.0,0.4666666666666667,0.515389223515233,0.0846504737203647,0.122075725473388,5.182989450172958,14.28641404338916,0.2475596003202776,0.1632201708572222,0.124954677158972,0.3612292624794669,0.031173948725958,-0.4391147007084489,0.1802971905598892,0.2915861529090585,-0.0742133197314479,-0.2058033574631094,0.1930566019124077,0.1374404205674617,SGRGRQVHSPSPLRA,chromosomes,RCCD1_HUMAN
RCCD1_HUMAN_1,0.2307692307692307,0.0,0.0,0.0769230769230769,0.0,0.2307692307692307,0.0,0.0,0.0,0.1538461538461538,0.0,0.0,0.0,0.0,0.0769230769230769,0.2307692307692307,0.0,0.0,0.0,0.0,0.0,0.0,0.0,0.0,0.0,0.0,0.0,0.0,0.0,0.0,0.0,0.0,0.0,0.0,0.0,0.6931471805599453,0.0,1.0,3.0,0.0,0.0,0.0,3.0,3.0,0.1076923076923076,0.0,0.0,0.0,0.0,0.0,0.0,0.0,0.0,0.0,0.0,0.0,0.0,0.0,0.0,0.0,0.0,0.0,0.0,0.0,0.0,0.0,0.0,0.0,0.0,0.0,0.0,0.0,0.0,0.0,0.0,0.0,0.0,0.0,0.0,1.0,0.0,0.0,0.0,0.0,0.0,0.0,0.0,0.0,0.0,0.0,0.0,0.0,1.0,3.0,0.0,0.0,0.0,0.0,0.0,4.0,0.6931471805599453,1.0,1.0,0.0,6.0,4.0,3.0,0.0,0.0,0.0,0.0,0.0,0.0769230769230769,0.3846153846153846,0.0,0.0769230769230769,0.1538461538461538,1.2679798665291775,-0.888747834812696,-1.615820168227906,0.8461538461538461,0.1538461538461538,6.002140045166016,0.0,0.4615384615384615,-0.2551249838734923,0.035289463240333,0.0958717638104053,4.291529081472416,12.587483959970202,0.3467240243454234,0.1375798440651677,0.0933785026704757,0.3331011178558913,0.0576738714642932,-0.2528592378951212,0.1813846264478743,0.1762660158351426,-0.0294128814567509,-0.076400731029822,0.1610158640738075,0.206509776840165,LELSGSASGAAGR,chromosomes,RCCD1_HUMAN
RCCD1_HUMAN_2,0.2,0.0,0.0,0.0,0.0,0.0,0.0,0.0,0.0,0.2,0.0,0.0,0.0,0.2,0.0,0.0,0.0,0.2,0.2,0.0,0.0,0.0,0.0,0.0,0.0,0.0,0.0,0.0,0.0,0.0,0.0,0.0,0.0,0.0,0.0,0.0,0.0,0.0,0.0,0.0,0.0,0.0,0.0,1.0,1.08,0.0,0.0,0.0,0.0,0.0,0.0,0.0,0.0,0.0,0.0,0.0,0.0,0.0,0.0,1.0,0.0,0.0,0.0,0.0,0.0,0.0,0.0,0.0,0.0,0.0,0.0,0.0,0.0,0.0,0.0,0.0,0.0,0.0,0.0,0.0,0.0,0.0,0.0,0.0,0.0,0.0,0.0,0.0,0.0,0.0,0.0,0.0,0.0,0.0,0.0,0.0,1.0,1.0,0.0,0.0,0.0,0.0,0.0,0.0,0.0,0.0,0.0,0.0,0.0,0.0,0.0,0.0,0.0,0.6,0.2,0.0,0.0,0.9574983485564094,0.0,0.0,0.4,0.0,5.525012969970703,0.0,0.2,0.0,0.099808441674919,0.1769471760761312,4.211366789888733,17.665628117644797,0.4429153992901839,0.380346566926995,0.0389439124615412,0.1039916327236512,0.1502930635400684,-0.383274272711756,0.1075024460690887,0.2619040811451465,-0.362545597974619,-0.921634747502861,0.1484196329069724,0.3537450742365554,LQVWA,chromosomes,RCCD1_HUMAN
RCCD1_HUMAN_3,0.1923076923076923,0.0,0.0769230769230769,0.1538461538461538,0.0,0.1153846153846153,0.0,0.0,0.0,0.0769230769230769,0.0,0.0384615384615384,0.1153846153846153,0.0769230769230769,0.0384615384615384,0.0,0.0,0.0769230769230769,0.0384615384615384,0.0,0.0,0.0,0.0,0.0,0.0,0.0,0.0,0.0,0.0,0.0,0.0,0.0,0.0,0.0,2.0,0.5108256237659907,0.0,4.0,3.0,0.0,0.0,0.0,3.0,8.0,-0.6884615384615386,0.0,0.0,0.0,0.0,0.0,0.0,0.0,0.0,0.0,0.0,0.0,0.0,0.0,0.0,0.0,0.0,0.0,0.0,0.0,0.0,0.0,0.0,0.0,0.0,0.0,0.0,0.0,0.0,0.0,0.0,0.0,0.0,0.0,0.0,0.0,0.0,0.0,0.0,0.0,0.0,0.0,0.0,0.0,0.0,0.0,1.0,0.0,4.0,3.0,0.0,3.0,3.0,2.0,0.0,4.0,0.6931471805599453,1.0,1.0,0.0,3.0,1.0,0.0,0.0,0.0,0.0,0.0,0.0,0.2307692307692307,0.3461538461538461,0.0384615384615384,0.0384615384615384,0.3846153846153846,1.8053864818144665,0.6288465128186933,-1.2457456358101302,0.7692307692307693,0.2692307692307692,3.768657684326172,-5.0,0.2307692307692307,0.3901156411720653,0.0759597531084679,0.0913294900344885,4.9595826456228655,14.023602225739689,0.3830211708518421,0.1167390555457559,0.1041400061180102,0.2877027510568019,0.0867347628630209,-0.3541089023764449,0.1679869677825805,0.2266389435461254,-0.0786445019480776,-0.1859085857995921,0.160187650564686,0.2147364784959471,PLWAQNVVPEAEGEDDPAGEAQAGRL,chromosomes,RCCD1_HUMAN
RCCD1_HUMAN_4,0.0,0.0,0.0,0.3333333333333333,0.0,0.0,0.0,0.0,0.0,0.3333333333333333,0.0,0.0,0.3333333333333333,0.0,0.0,0.0,0.0,0.0,0.0,0.0,0.0,0.0,0.0,0.0,0.0,0.0,0.0,0.0,0.0,0.0,0.0,0.0,0.0,0.0,0.0,0.6931471805599453,0.0,1.0,0.0,0.0,0.0,0.0,0.0,1.0,-0.4333333333333334,0.0,0.0,0.0,0.0,0.0,0.0,0.0,0.0,0.0,0.0,0.0,0.0,0.0,0.0,0.0,0.0,0.0,0.0,0.0,0.0,0.0,0.0,0.0,0.0,0.0,0.0,0.0,0.0,0.0,0.0,0.0,0.0,0.0,0.0,0.0,0.0,0.0,0.0,0.0,0.0,0.0,0.0,0.0,0.0,0.0,0.0,0.0,1.0,1.0,0.0,1.0,0.0,0.0,0.0,0.0,0.0,0.0,0.0,0.0,0.0,0.0,0.0,0.0,0.0,0.0,0.0,0.0,0.3333333333333333,0.3333333333333333,0.0,0.0,0.6666666666666666,0.5972531564093518,0.0,-10.954545454545327,0.6666666666666666,0.3333333333333333,3.9996376037597656,-1.0,0.0,0.0,0.069848958001402,0.0600344146325919,5.794439274080968,14.814099581200558,0.555229716520039,0.060756447853222,0.1085347804637395,0.2136161815490873,0.112630628306025,-0.5471552057798994,0.5795266923500275,0.2330764997248211,0.0031996587030716,0.01919795221843,0.1233243967828418,0.1407506702412868,PEL,chromosomes,RCCD1_HUMAN
RCCD1_HUMAN_5,0.0416666666666666,0.0,0.0,0.125,0.0,0.25,0.0833333333333333,0.0,0.0,0.2083333333333333,0.0,0.0,0.0416666666666666,0.0416666666666666,0.0833333333333333,0.0416666666666666,0.0416666666666666,0.0,0.0416666666666666,0.0,0.0,0.0,0.0,0.0,0.0,0.0,0.0,0.0,0.0,0.0,0.0,0.0,0.0,0.0,0.0,1.3862943611198906,0.0,3.0,6.0,0.0,0.0,0.0,6.0,2.0,-0.625,0.0,0.0,0.0,0.0,0.0,0.0,0.0,0.0,0.0,0.0,0.0,0.0,0.0,0.0,0.0,0.0,0.0,0.0,0.0,0.0,0.0,0.0,0.0,0.0,0.0,0.0,0.0,0.0,0.0,0.0,0.0,0.0,0.0,0.0,0.0,0.0,0.0,0.0,0.0,0.0,0.0,0.0,0.0,0.0,0.0,0.0,0.0,3.0,3.0,0.0,1.0,1.0,1.0,0.0,8.0,1.0986122886681098,2.0,2.0,0.0,7.0,3.0,1.0,0.0,0.0,0.0,0.0,0.0,0.125,0.25,0.0416666666666666,0.0833333333333333,0.25,1.6766638588738427,0.1944697235707646,-0.5529014548664108,0.75,0.2083333333333333,6.022808074951172,-1.0,0.4583333333333333,-0.3084713684370899,0.0682747308745095,0.1338320889703862,4.659639233450708,14.300715877822542,0.3606899283861093,0.1579983359807686,0.105250026905017,0.3014586296819606,0.0197455904177439,-0.3969955961808264,0.1490243868219389,0.2451207387355803,-0.1021892475103248,-0.2328275709670454,0.1751583138952784,0.2005508542441392,SWGGGRHGQLGHGTLEAELEPRLL,chromosomes,RCCD1_HUMAN
RCCD1_HUMAN_6,0.1777777777777777,0.0,0.0666666666666666,0.1333333333333333,0.0222222222222222,0.1111111111111111,0.0,0.0222222222222222,0.0222222222222222,0.0666666666666666,0.0,0.0444444444444444,0.0666666666666666,0.0222222222222222,0.0666666666666666,0.0222222222222222,0.0888888888888888,0.0666666666666666,0.0,0.0,0.0,0.0,0.0,0.0,0.0,0.0,0.0,0.0,0.0,0.0,0.0,0.0,0.0,0.0,3.0,0.5596157879354227,0.0,6.0,6.0,0.0,0.0,0.0,5.0,12.0,-0.5355555555555556,1.0,0.0,0.0,0.0,0.0,0.0,0.0,0.0,0.0,0.0,0.0,0.0,0.0,0.0,0.0,0.0,0.0,0.0,0.0,0.0,0.0,0.0,0.0,0.0,0.0,0.0,0.0,0.0,0.0,0.0,0.0,0.0,0.0,0.0,0.0,0.0,0.0,1.0,0.0,0.0,0.0,0.0,0.0,0.0,0.0,2.0,0.0,6.0,8.0,0.0,3.0,3.0,1.0,0.0,8.0,0.6931471805599453,3.0,3.0,0.0,6.0,4.0,1.0,0.0,0.0,0.0,0.0,0.0,0.2,0.3333333333333333,0.0222222222222222,0.0888888888888888,0.3555555555555555,2.0960575427675923,0.4975222421375067,0.619165895829601,0.7777777777777778,0.2888888888888888,4.250965118408203,-5.0,0.2888888888888888,0.4473681629155444,0.0561222697698716,0.0799912386837954,4.772922331391671,14.006159284588843,0.3685826546549813,0.1596173858742456,0.0906654865725857,0.2830766531356251,0.000454368280651,-0.3759209517821629,0.1939117053632255,0.2116840986132564,-0.0578166783050198,-0.145840275141438,0.1521909716665654,0.2289922178582032,ALPTRNLAEDGETVAREATELNEDGSQVKRTGGAEDGAPAPFIAV,chromosomes,RCCD1_HUMAN
RCCD1_HUMAN_7,0.1764705882352941,0.0588235294117647,0.0588235294117647,0.0,0.0,0.1176470588235294,0.0588235294117647,0.0,0.0588235294117647,0.0,0.0588235294117647,0.0,0.0,0.0,0.0588235294117647,0.1764705882352941,0.0588235294117647,0.1176470588235294,0.0,0.0,0.0,0.0,0.0,0.0,0.0,0.0,0.0,0.0,0.0,0.0,0.0,0.0,0.0,0.0,1.0,-0.6931471805599453,0.0,0.0,2.0,0.0,0.0,0.0,2.0,4.0,-0.0470588235294117,1.0,0.0,0.0,0.0,0.0,0.0,0.0,0.0,0.0,0.0,0.0,0.0,0.0,1.0,0.0,0.0,0.0,0.0,0.0,0.0,0.0,0.0,0.0,0.0,0.0,0.0,0.0,0.0,0.0,0.0,0.0,1.0,0.0,0.0,0.0,0.0,0.0,0.0,0.0,0.0,0.0,0.0,0.0,0.0,0.0,0.0,0.0,1.0,4.0,0.0,0.0,0.0,0.0,0.0,3.0,0.0,1.0,1.0,0.0,5.0,4.0,3.0,0.0,0.0,0.0,0.0,0.0,0.0588235294117647,0.3529411764705882,0.0,0.1176470588235294,0.1764705882352941,1.6785447147388757,-1.2573697006144584,-1.027905177389966,0.7647058823529411,0.1764705882352941,8.230976104736328,1.0,0.4705882352941176,-0.1342682979285705,0.0460688255447271,0.088678850888825,4.504123492203998,13.753028325973553,0.360137858345325,0.1857454939470301,0.0896741794421959,0.3053336814352113,0.0316782648018318,-0.4056840294810563,0.218943233206101,0.2409310410943567,-0.043329280482472,-0.1247440836064262,0.16270792234126,0.208780208558369,MGSDAVKASCGSRHTAV,chromosomes,RCCD1_HUMAN
RCCD1_HUMAN_8,0.0,0.0,0.08,0.08,0.04,0.12,0.04,0.0,0.04,0.08,0.0,0.0,0.04,0.04,0.12,0.04,0.08,0.08,0.04,0.08,0.0,0.0,0.0,0.0,0.0,0.0,0.0,0.0,0.0,0.0,0.0,0.0,0.0,0.0,2.0,0.0,0.0,2.0,4.0,0.0,0.0,0.0,3.0,2.0,-1.112,1.0,0.0,0.0,0.0,0.0,0.0,0.0,0.0,0.0,0.0,0.0,0.0,0.0,0.0,0.0,0.0,0.0,0.0,0.0,1.0,0.0,0.0,0.0,0.0,0.0,0.0,0.0,0.0,0.0,0.0,0.0,0.0,0.0,0.0,0.0,0.0,0.0,0.0,0.0,0.0,0.0,1.0,0.0,0.0,0.0,0.0,0.0,4.0,4.0,0.0,1.0,1.0,1.0,0.0,6.0,0.6931471805599453,5.0,3.0,0.0,4.0,4.0,1.0,0.0,1.0,0.0,0.0,0.0,0.16,0.16,0.16,0.16,0.36,2.010448128046589,0.4156512537780403,-1.1129103595279186,0.68,0.32,6.761463165283203,0.0,0.32,-0.388486255907822,0.0888932059141479,0.1211347295863399,5.105483779103936,14.947676361659308,0.2837065461008053,0.2017889087768879,0.1154647267160403,0.3184380049037605,0.0065314976910577,-0.482106897184005,0.2199420960547699,0.2723915311556932,-0.2072307252038507,-0.3552852668218494,0.179557474689394,0.1466210177702857,WGKYGQLGHEDTTSLDRPRRVEYFV,chromosomes,RCCD1_HUMAN
MEI4_HUMAN_0,0.0909090909090909,0.0,0.0454545454545454,0.1363636363636363,0.0,0.0,0.0454545454545454,0.0,0.0909090909090909,0.1363636363636363,0.0454545454545454,0.0,0.0454545454545454,0.0,0.0909090909090909,0.1818181818181818,0.0454545454545454,0.0,0.0,0.0454545454545454,0.0,0.0,0.0,0.0,0.0,0.0,0.0,0.0,0.0,0.0,0.0,0.0,0.0,0.0,1.0,0.6931471805599453,0.0,3.0,0.0,0.0,0.0,0.0,0.0,5.0,-1.0863636363636364,2.0,0.0,0.0,0.0,0.0,0.0,0.0,0.0,0.0,0.0,0.0,0.0,0.0,0.0,0.0,0.0,0.0,0.0,0.0,0.0,0.0,0.0,0.0,1.0,1.0,0.0,0.0,0.0,0.0,0.0,0.0,0.0,1.0,0.0,1.0,0.0,0.0,0.0,0.0,0.0,0.0,0.0,0.0,0.0,0.0,0.0,0.0,3.0,6.0,0.0,1.0,0.0,0.0,0.0,2.0,0.0,3.0,2.0,0.0,4.0,6.0,4.0,0.0,0.0,0.0,0.0,0.0,0.1818181818181818,0.2727272727272727,0.0454545454545454,0.1818181818181818,0.4090909090909091,1.8013712291523332,-0.414198705074164,-1.74245030293921,0.7727272727272727,0.3636363636363636,6.766109466552734,0.0,0.2727272727272727,-0.6191912408183052,0.0536614068684703,0.0666483212988894,4.623128226409928,14.944643289765926,0.5076353358705218,0.1045168415834498,0.0836853119418073,0.2446619651551425,-0.1972760572812147,-0.2926619508961575,0.2485095174067624,0.1981521257491627,-0.0775218047830653,-0.2004059398036491,0.1115368269831892,0.3467332154763161,RSKPADKSSREYTEHLAMLLSE,chromosomes,MEI4_HUMAN
MEI4_HUMAN_1,0.0,0.0,0.0,0.25,0.0,0.0,0.0,0.0,0.25,0.0,0.0,0.0,0.0,0.0,0.0,0.25,0.0,0.25,0.0,0.0,0.0,0.0,0.0,0.0,0.0,0.0,0.0,0.0,0.0,0.0,0.0,0.0,0.0,0.0,0.0,0.6931471805599453,0.0,1.0,0.0,0.0,0.0,0.0,0.0,1.0,-1.0,1.0,0.0,0.0,0.0,0.0,0.0,0.0,0.0,0.0,0.0,0.0,0.0,0.0,0.0,0.0,0.0,0.0,0.0,0.0,0.0,0.0,0.0,0.0,0.0,0.0,0.0,0.0,0.0,0.0,0.0,0.0,0.0,0.0,0.0,0.0,0.0,0.0,0.0,0.0,0.0,0.0,0.0,0.0,0.0,0.0,0.0,0.0,0.0,1.0,0.0,0.0,0.0,0.0,0.0,0.0,-0.6931471805599453,0.0,0.0,0.0,1.0,1.0,1.0,0.0,0.0,0.0,0.0,0.0,0.25,0.25,0.0,0.25,0.5,0.7945134575869862,-1.370688833684684,-3.810003810005715,0.75,0.5,6.001392364501953,0.0,0.25,-0.3535533905932738,0.0235572123553041,0.0241678124453982,4.715187617985667,14.12648770402104,0.4423219102850703,0.2858997638169875,0.0673493763874827,0.2062517548312586,0.1229422672882746,-0.6048827457217743,0.0768977841315225,0.1816677479600374,-0.1035032595205273,-0.2335093807630902,0.1651573469249658,0.2220534308880157,SKVE,chromosomes,MEI4_HUMAN
MEI4_HUMAN_2,0.0208333333333333,0.0416666666666666,0.0625,0.1458333333333333,0.0208333333333333,0.0208333333333333,0.0208333333333333,0.0,0.0208333333333333,0.0833333333333333,0.0208333333333333,0.0208333333333333,0.0416666666666666,0.0833333333333333,0.0208333333333333,0.25,0.0833333333333333,0.0416666666666666,0.0,0.0,0.0,0.0,0.0,1.0,0.0,0.0,0.0,0.0,0.0,0.0,0.0,0.0,0.0,0.0,3.0,0.6931471805599453,0.0,7.0,2.0,0.0,0.0,0.0,1.0,4.0,-0.9375,1.0,0.0,0.0,0.0,0.0,0.0,0.0,0.0,0.0,0.0,0.0,0.0,0.0,0.0,0.0,0.0,0.0,0.0,0.0,0.0,0.0,0.0,0.0,0.0,0.0,0.0,0.0,0.0,0.0,0.0,0.0,2.0,1.0,0.0,2.0,0.0,0.0,1.0,0.0,0.0,0.0,1.0,0.0,0.0,1.0,1.0,0.0,3.0,18.0,0.0,2.0,5.0,4.0,0.0,2.0,0.0,1.0,1.0,0.0,13.0,13.0,12.0,0.0,0.0,0.0,0.0,0.0,0.2083333333333333,0.1666666666666666,0.0208333333333333,0.0416666666666666,0.2916666666666667,2.0574205268657337,-0.9343909102977936,-0.3516119912569611,0.7708333333333334,0.25,4.000812530517578,-8.0,0.5208333333333334,2.120725820736848,0.0664997901404657,0.0696423176461945,4.867342932201956,14.307179805716236,0.3858428175599253,0.1614244852489071,0.1053958085298401,0.3046424067910163,0.0768983332160187,-0.3421312726606659,0.3128273763970691,0.2334432557055858,-0.0424657138872559,-0.1229150849151909,0.147732009512106,0.2044734318355731,VSSQLEAQEPKSSESTLTSMEDSGCDLSNEQRTESSDLSQHFVESCTP,chromosomes,MEI4_HUMAN
MEI4_HUMAN_3,0.0,0.0,0.0909090909090909,0.0909090909090909,0.0909090909090909,0.0,0.0909090909090909,0.0,0.1818181818181818,0.1818181818181818,0.0,0.0909090909090909,0.0,0.0,0.0909090909090909,0.0,0.0909090909090909,0.0,0.0,0.0,0.0,0.0,0.0,0.0,0.0,0.0,0.0,0.0,0.0,0.0,0.0,0.0,0.0,0.0,1.0,0.0,0.0,1.0,1.0,0.0,0.0,0.0,0.0,2.0,-1.481818181818182,2.0,0.0,0.0,0.0,0.0,0.0,0.0,0.0,0.0,0.0,0.0,0.0,0.0,0.0,0.0,0.0,0.0,0.0,0.0,0.0,0.0,0.0,0.0,0.0,0.0,0.0,0.0,0.0,0.0,0.0,0.0,0.0,1.0,0.0,0.0,0.0,0.0,0.0,0.0,0.0,0.0,1.0,0.0,0.0,0.0,1.0,0.0,1.0,1.0,0.0,0.0,1.0,0.0,0.0,1.0,-0.4054651081081644,1.0,1.0,0.0,0.0,1.0,0.0,0.0,0.0,0.0,0.0,0.0,0.1818181818181818,0.1818181818181818,0.0909090909090909,0.2727272727272727,0.4545454545454545,1.465092134977636,-0.4243961878658783,-1.58259335607645,0.6363636363636364,0.4545454545454545,8.597339630126953,1.0,0.2727272727272727,-0.2044270859721337,0.0734097101772542,0.0930327117646269,4.980485525608732,15.827568172298417,0.4798274304924892,0.1466764639493081,0.0748344745749999,0.2488980212186181,-0.2149300436381451,-0.4226753214318506,0.2241463284904581,0.240046014144839,-0.1338453567838586,-0.297865834066462,0.1285268860831995,0.3052532713003313,NLKRDLTHFEK,chromosomes,MEI4_HUMAN
MEI4_HUMAN_4,0.0,0.0,0.1428571428571428,0.2142857142857142,0.0,0.1428571428571428,0.0714285714285714,0.0714285714285714,0.0,0.0,0.0,0.0714285714285714,0.0,0.0714285714285714,0.0,0.1428571428571428,0.0714285714285714,0.0,0.0,0.0,0.0,0.0,0.0,0.0,0.0,0.0,0.0,0.0,0.0,0.0,0.0,0.0,0.0,0.0,2.0,0.2876820724517808,0.0,3.0,2.0,0.0,0.0,0.0,2.0,0.0,-1.8785714285714288,0.0,0.0,0.0,0.0,0.0,0.0,0.0,0.0,0.0,0.0,0.0,0.0,0.0,0.0,0.0,0.0,0.0,0.0,0.0,0.0,0.0,0.0,0.0,0.0,0.0,0.0,0.0,0.0,0.0,0.0,0.0,0.0,0.0,0.0,0.0,1.0,0.0,0.0,0.0,0.0,0.0,1.0,0.0,0.0,0.0,1.0,0.0,0.0,3.0,0.0,0.0,2.0,1.0,0.0,2.0,0.0,0.0,0.0,0.0,4.0,2.0,2.0,0.0,0.0,0.0,0.0,0.0,0.3571428571428571,0.0714285714285714,0.0,0.0,0.3571428571428571,1.5228585837021995,-2.0756872706851897,-2.0756872706851897,0.8571428571428571,0.3571428571428571,3.831676483154297,-5.0,0.5714285714285714,1.775506955088277,0.0931399580674746,0.0951725467047173,5.002576743295015,13.55531811002802,0.2431213847440004,0.1540299383710131,0.1307478605081886,0.3931761323714586,0.230524932164341,-0.3967377360461662,0.3286366245281758,0.2803608042751021,-0.0260263641927177,-0.0765524041434756,0.1914491133774642,0.1106633890036337,EEGNTSSIGHDDQE,chromosomes,MEI4_HUMAN
SYNEM_HUMAN_0,0.0588235294117647,0.0,0.0,0.1764705882352941,0.0,0.0588235294117647,0.0,0.0,0.0588235294117647,0.1764705882352941,0.0588235294117647,0.0,0.0588235294117647,0.1176470588235294,0.0588235294117647,0.0588235294117647,0.0588235294117647,0.0,0.0588235294117647,0.0,0.0,0.0,0.0,0.0,0.0,0.0,0.0,0.0,0.0,0.0,0.0,0.0,0.0,0.0,0.0,1.3862943611198906,0.0,3.0,1.0,0.0,0.0,0.0,1.0,3.0,-0.8941176470588236,1.0,0.0,0.0,0.0,0.0,0.0,0.0,0.0,0.0,0.0,0.0,0.0,0.0,0.0,0.0,0.0,0.0,0.0,0.0,0.0,0.0,0.0,0.0,0.0,0.0,0.0,0.0,0.0,0.0,0.0,0.0,0.0,1.0,0.0,0.0,0.0,0.0,0.0,0.0,0.0,0.0,0.0,0.0,0.0,0.0,0.0,0.0,2.0,3.0,0.0,1.0,2.0,2.0,0.0,2.0,0.0,1.0,1.0,0.0,2.0,2.0,1.0,0.0,0.0,0.0,0.0,0.0,0.1764705882352941,0.2941176470588235,0.0588235294117647,0.1176470588235294,0.3529411764705882,1.7193180783012256,-1.0340516081106017,-0.4112343546447056,0.7058823529411765,0.2941176470588235,4.785984039306641,-1.0,0.2941176470588235,-0.2943841311063702,0.0624893011931571,0.0885395503203666,4.790301782569072,15.072197268415676,0.5086702469640971,0.1400063165047767,0.0706457248682057,0.2342505404210168,-0.1015130871518466,-0.341888370345877,0.2027322363591373,0.2225667825494368,-0.1504160136944854,-0.2843540440704019,0.1285478829475452,0.307883579204861,MLSWRLQTGPEKAELQE,cell_junction,SYNEM_HUMAN
SYNEM_HUMAN_1,0.0,0.0,0.0,0.75,0.0,0.0,0.0,0.0,0.0,0.25,0.0,0.0,0.0,0.0,0.0,0.0,0.0,0.0,0.0,0.0,0.0,0.0,0.0,0.0,0.0,0.0,0.0,0.0,0.0,0.0,0.0,0.0,0.0,0.0,0.0,1.3862943611198906,0.0,3.0,0.0,0.0,0.0,0.0,0.0,0.0,-1.675,0.0,0.0,0.0,0.0,0.0,0.0,0.0,0.0,0.0,0.0,0.0,0.0,0.0,0.0,0.0,0.0,0.0,0.0,0.0,0.0,0.0,0.0,0.0,0.0,0.0,0.0,0.0,0.0,0.0,0.0,0.0,0.0,0.0,0.0,0.0,0.0,0.0,0.0,0.0,0.0,0.0,0.0,0.0,0.0,0.0,0.0,0.0,0.0,0.0,0.0,0.0,0.0,0.0,0.0,0.0,0.0,0.0,0.0,0.0,0.0,0.0,0.0,0.0,0.0,0.0,0.0,0.0,0.75,0.25,0.0,0.0,0.75,0.3465735902799723,-18.430083288547795,-18.430083288547795,0.75,0.75,3.672954559326172,-3.0,0.0,0.8535533905932737,0.0948896831755441,0.0440628190629368,5.362548973560006,14.776415650918755,0.713049404301193,0.0636138117809084,0.0589652779639635,0.1534432656338413,0.1634674787470621,-0.5457994854671144,0.2385766360625618,0.2035858981589056,0.0120743626241596,-0.0035067193401003,0.089493083931784,0.3922410946520914,LEEE,cell_junction,SYNEM_HUMAN
SYNEM_HUMAN_2,0.1904761904761904,0.0476190476190476,0.0,0.1904761904761904,0.0,0.0952380952380952,0.0,0.0,0.0,0.0952380952380952,0.0,0.0,0.0,0.0952380952380952,0.1904761904761904,0.0476190476190476,0.0,0.0,0.0476190476190476,0.0,0.0,0.0,0.0,0.0,0.0,0.0,0.0,0.0,0.0,0.0,0.0,0.0,0.0,0.0,0.0,1.6094379124341005,0.0,4.0,2.0,0.0,0.0,0.0,2.0,4.0,-1.1523809523809525,0.0,0.0,0.0,0.0,0.0,0.0,0.0,0.0,0.0,0.0,0.0,0.0,0.0,0.0,0.0,0.0,0.0,0.0,0.0,0.0,0.0,0.0,0.0,0.0,0.0,0.0,0.0,0.0,0.0,0.0,0.0,0.0,0.0,0.0,0.0,0.0,0.0,0.0,0.0,0.0,0.0,0.0,0.0,0.0,0.0,0.0,0.0,4.0,1.0,0.0,0.0,2.0,2.0,0.0,6.0,1.6094379124341005,4.0,4.0,0.0,3.0,5.0,1.0,0.0,0.0,0.0,0.0,0.0,0.1904761904761904,0.2857142857142857,0.0476190476190476,0.1904761904761904,0.3809523809523809,1.6079302793215828,-0.451840456636656,-0.3353789701107618,0.8095238095238095,0.3809523809523809,6.285350799560547,0.0,0.2857142857142857,-0.3695908482762177,0.0801027150563277,0.1052276596370649,4.583735395223291,15.203438486303767,0.620397684084849,0.0982913114034806,0.0478233482754255,0.1700277708154311,-0.3019977228975143,-0.3327236426665613,0.1486012410991614,0.2227467114285077,-0.1090463150240779,-0.2497466914914754,0.0957259937431452,0.4666886132973346,REGLWAEGQARCAEEARSLRQ,cell_junction,SYNEM_HUMAN
SYNEM_HUMAN_3,0.1964285714285714,0.0,0.0714285714285714,0.1785714285714285,0.0,0.0714285714285714,0.0,0.0,0.0,0.1785714285714285,0.0,0.0,0.0,0.0714285714285714,0.1785714285714285,0.0178571428571428,0.0178571428571428,0.0,0.0178571428571428,0.0,0.0,0.0,0.0,0.0,0.0,0.0,0.0,0.0,0.0,0.0,0.0,0.0,0.0,0.0,4.0,0.7884573603642703,0.0,10.0,4.0,0.0,0.0,2.0,4.0,11.0,-0.9678571428571427,0.0,0.0,0.0,0.0,0.0,0.0,0.0,0.0,0.0,0.0,0.0,0.0,0.0,0.0,0.0,0.0,0.0,0.0,0.0,0.0,0.0,0.0,0.0,0.0,0.0,0.0,0.0,0.0,0.0,0.0,0.0,1.0,0.0,0.0,0.0,0.0,0.0,0.0,0.0,0.0,0.0,1.0,0.0,0.0,0.0,0.0,0.0,10.0,2.0,0.0,0.0,4.0,4.0,0.0,14.0,2.3978952727983707,10.0,10.0,0.0,5.0,11.0,1.0,0.0,2.0,0.0,0.0,0.0,0.25,0.375,0.0178571428571428,0.1785714285714285,0.4285714285714285,1.7857694657681886,-1.0546967872975157,-1.3122789397708323,0.8035714285714286,0.4285714285714285,4.759441375732422,-4.0,0.1785714285714285,0.1261989344675901,0.0714054883969544,0.0786682725123994,4.679204402394692,15.361802775371562,0.7116526644819309,0.0676277482483549,0.0313604028662274,0.1408695011460172,-0.5195687361806876,-0.2859968161264991,0.1422785500222345,0.2001307777731244,-0.0508086649545347,-0.1535429973615419,0.0703895757619182,0.5548335154304309,DELSWATALAEGERDALRRELRELQRLDAEERAARGRLDAELGAQQRELQEALGAR,cell_junction,SYNEM_HUMAN
SYNEM_HUMAN_4,0.1851851851851851,0.0,0.0555555555555555,0.074074074074074,0.0185185185185185,0.0555555555555555,0.0555555555555555,0.0,0.0,0.1111111111111111,0.0185185185185185,0.0,0.074074074074074,0.0185185185185185,0.2037037037037037,0.037037037037037,0.037037037037037,0.037037037037037,0.0,0.0185185185185185,0.0,0.0,0.0,0.0,0.0,0.0,0.0,0.0,0.0,0.0,0.0,0.0,0.0,0.0,3.0,0.2231435513142097,0.0,4.0,4.0,0.0,0.0,2.0,3.0,14.0,-0.8351851851851853,0.0,1.0,0.0,0.0,0.0,0.0,0.0,0.0,0.0,0.0,0.0,0.0,0.0,0.0,0.0,0.0,0.0,0.0,0.0,0.0,0.0,0.0,0.0,0.0,0.0,0.0,0.0,0.0,0.0,0.0,0.0,0.0,0.0,0.0,0.0,0.0,0.0,0.0,0.0,1.0,1.0,0.0,0.0,0.0,0.0,0.0,0.0,15.0,8.0,0.0,4.0,1.0,1.0,0.0,14.0,2.4849066497880004,12.0,11.0,0.0,5.0,13.0,2.0,0.0,3.0,0.0,0.0,0.0,0.1296296296296296,0.3518518518518518,0.037037037037037,0.2037037037037037,0.4074074074074074,2.0615428337439954,-1.0415501974288175,-0.3213658189940128,0.7962962962962963,0.3333333333333333,11.35788345336914,4.0,0.2037037037037037,0.1596690169431296,0.0717052857822967,0.0963028205680541,4.896413543010367,14.96029381111624,0.544687037390291,0.1076633617536282,0.0826483452246387,0.2058529995976353,-0.2606917489724015,-0.3774059034451303,0.1501054293513408,0.2425657287077931,-0.0620926912080618,-0.1846014099084473,0.1132344789358676,0.3912020259290634,LGRLQAERRGLDAAHERDVRELRARAASLTMHFRARATGPAAPPPRLREVHDSY,cell_junction,SYNEM_HUMAN
SYNEM_HUMAN_5,0.1428571428571428,0.0285714285714285,0.0285714285714285,0.3142857142857143,0.0,0.0285714285714285,0.0,0.0,0.0,0.1428571428571428,0.0,0.0,0.0,0.0857142857142857,0.1428571428571428,0.0285714285714285,0.0285714285714285,0.0285714285714285,0.0,0.0,0.0,0.0,0.0,0.0,0.0,0.0,0.0,0.0,0.0,0.0,0.0,0.0,0.0,0.0,1.0,1.791759469228055,0.0,11.0,1.0,0.0,0.0,2.0,1.0,5.0,-1.2057142857142855,0.0,0.0,0.0,0.0,0.0,0.0,0.0,0.0,0.0,0.0,0.0,0.0,0.0,0.0,0.0,0.0,0.0,0.0,0.0,0.0,0.0,0.0,0.0,0.0,0.0,0.0,0.0,0.0,0.0,0.0,0.0,0.0,0.0,0.0,0.0,0.0,0.0,0.0,0.0,0.0,0.0,1.0,0.0,0.0,0.0,0.0,0.0,5.0,2.0,0.0,0.0,3.0,3.0,0.0,6.0,1.791759469228055,5.0,5.0,0.0,2.0,6.0,1.0,0.0,1.0,0.0,0.0,0.0,0.3428571428571428,0.3142857142857143,0.0,0.1428571428571428,0.4857142857142857,1.670846658863972,-0.7744403269997618,-0.5058176261000725,0.8,0.4857142857142857,4.292942047119141,-7.0,0.2,1.948595184551149,0.0683748058273291,0.0681236211362214,4.615863232814678,15.586278341793038,0.7108758250254779,0.0814069723619271,0.0350436360236164,0.1338363795564852,-0.3334664597174915,-0.369906007408858,0.1943558384386956,0.2141960769538129,-0.0345465206181824,-0.1079544631051831,0.0736856792735937,0.5414699665872856,EDEVRELEEALRRGQESRLQAEEETRLCAQEAEAL,cell_junction,SYNEM_HUMAN
SYNEM_HUMAN_6,0.25,0.0,0.0,0.25,0.0,0.0,0.0,0.0,0.0,0.25,0.0,0.0,0.0,0.0,0.25,0.0,0.0,0.0,0.0,0.0,0.0,0.0,0.0,0.0,0.0,0.0,0.0,0.0,0.0,0.0,0.0,0.0,0.0,0.0,0.0,0.6931471805599453,0.0,1.0,0.0,0.0,0.0,0.0,0.0,1.0,-0.6000000000000001,0.0,0.0,0.0,0.0,0.0,0.0,0.0,0.0,0.0,0.0,0.0,0.0,0.0,0.0,0.0,0.0,0.0,0.0,0.0,0.0,0.0,0.0,0.0,0.0,0.0,0.0,0.0,0.0,0.0,0.0,0.0,0.0,0.0,0.0,0.0,0.0,0.0,0.0,0.0,0.0,0.0,0.0,0.0,0.0,0.0,0.0,0.0,1.0,0.0,0.0,0.0,0.0,0.0,0.0,1.0,0.6931471805599453,1.0,1.0,0.0,0.0,1.0,0.0,0.0,0.0,0.0,0.0,0.0,0.25,0.5,0.0,0.25,0.5,0.7945134575869862,-1.370688833684684,-3.810003810005715,0.75,0.5,6.002140045166016,0.0,0.0,-0.25,0.0569001449769748,0.0513968884460546,4.460101330886304,14.92014131482767,0.7746631566946731,0.0716733406713132,0.033563338376938,0.0932445562686971,-0.3865288320615523,-0.2471614292923452,0.1567486822220208,0.1341826055834016,-0.003165700566523,-0.0340883805175184,0.0608813372761945,0.5520691188159195,REAL,cell_junction,SYNEM_HUMAN
SYNEM_HUMAN_7,0.0,0.0,0.0,0.3333333333333333,0.0,0.1666666666666666,0.0,0.0,0.0,0.0,0.1666666666666666,0.0,0.0,0.0,0.1666666666666666,0.0,0.0,0.0,0.0,0.1666666666666666,0.0,0.0,0.0,0.0,0.0,0.0,0.0,0.0,0.0,0.0,0.0,0.0,0.0,0.0,0.0,1.0986122886681098,0.0,2.0,1.0,0.0,0.0,0.0,1.0,0.0,-1.8833333333333333,0.0,0.0,0.0,0.0,0.0,0.0,0.0,0.0,0.0,0.0,0.0,0.0,0.0,0.0,0.0,0.0,0.0,0.0,0.0,0.0,0.0,0.0,0.0,0.0,0.0,0.0,0.0,0.0,0.0,0.0,0.0,0.0,0.0,0.0,0.0,0.0,0.0,0.0,0.0,0.0,0.0,0.0,0.0,0.0,0.0,0.0,0.0,1.0,0.0,0.0,0.0,0.0,0.0,0.0,2.0,0.6931471805599453,2.0,1.0,0.0,1.0,1.0,0.0,0.0,0.0,0.0,0.0,0.0,0.3333333333333333,0.1666666666666666,0.1666666666666666,0.1666666666666666,0.5,0.9810173385750264,-0.7117393369924548,-3.0071599147182333,0.6666666666666666,0.5,4.531398773193359,-1.0,0.1666666666666666,-0.2357022603955158,0.1194073380935412,0.1489376893235489,5.7800086352299775,15.958673163935067,0.6330470865132454,0.1047485773395177,0.0721647691569955,0.1821712534571022,-0.2421478793624045,-0.5239154758755242,0.1993468615178882,0.3096206671076085,-0.1085367270989879,-0.531546693231395,0.1092869630810119,0.3400818996267345,MREEYG,cell_junction,SYNEM_HUMAN
SYNEM_HUMAN_8,0.0,0.1,0.1,0.2,0.0,0.0,0.0,0.1,0.0,0.1,0.0,0.0,0.0,0.1,0.2,0.0,0.0,0.1,0.0,0.0,0.0,0.0,0.0,0.0,0.0,0.0,0.0,0.0,0.0,0.0,0.0,0.0,0.0,0.0,1.0,0.4054651081081644,0.0,2.0,0.0,0.0,0.0,0.0,0.0,0.0,-0.8,0.0,0.0,0.0,0.0,0.0,0.0,0.0,0.0,0.0,0.0,0.0,0.0,0.0,0.0,0.0,0.0,0.0,0.0,0.0,0.0,0.0,0.0,0.0,0.0,0.0,0.0,0.0,0.0,0.0,0.0,0.0,0.0,0.0,0.0,0.0,0.0,0.0,0.0,0.0,0.0,0.0,0.0,0.0,0.0,0.0,0.0,0.0,2.0,0.0,0.0,0.0,1.0,1.0,0.0,2.0,1.0986122886681098,2.0,2.0,0.0,0.0,2.0,0.0,0.0,1.0,0.0,0.0,0.0,0.3,0.3,0.0,0.2,0.5,1.3718118211955623,-0.4639971554347228,-2.1686921880367467,0.6,0.5,4.679119110107422,-1.0,0.2,-0.3382332347441762,0.0676384729943438,0.0806462381790754,4.224927756661989,16.257563599323618,0.5243340222773432,0.2578536265948083,0.046545980507608,0.1437661802868838,-0.1364385374152363,-0.5014639581031815,0.1395456994559814,0.2665348402221963,-0.09113064906107,-0.1927307679947692,0.118785049577735,0.3854741623321612,ERQRVIDCLE,cell_junction,SYNEM_HUMAN
SYNEM_HUMAN_9,0.2,0.0,0.0,0.0,0.0,0.0,0.0,0.0,0.0,0.2,0.0,0.0,0.0,0.0,0.2,0.0,0.2,0.0,0.0,0.2,0.0,0.0,0.0,0.0,0.0,0.0,0.0,0.0,0.0,0.0,0.0,0.0,0.0,0.0,0.0,0.0,0.0,0.0,0.0,0.0,0.0,0.0,0.0,1.0,-0.18,0.0,0.0,0.0,0.0,0.0,0.0,0.0,0.0,0.0,0.0,0.0,0.0,0.0,0.0,0.0,0.0,0.0,0.0,0.0,0.0,0.0,0.0,0.0,0.0,0.0,0.0,0.0,0.0,0.0,0.0,0.0,0.0,0.0,0.0,0.0,0.0,0.0,0.0,0.0,0.0,0.0,0.0,0.0,0.0,0.0,0.0,0.0,1.0,1.0,0.0,0.0,0.0,0.0,0.0,1.0,0.6931471805599453,2.0,1.0,0.0,0.0,1.0,0.0,0.0,0.0,0.0,0.0,0.0,0.0,0.4,0.2,0.2,0.2,0.9574983485564094,0.0,0.0,0.6,0.2,8.747623443603516,1.0,0.2,0.0,0.1115614569515632,0.1698303004339651,4.828900235820185,17.28738374562734,0.6010387985881507,0.2193430904065974,0.048669789049296,0.1239429591235151,-0.1341406357421727,-0.5462027099546628,0.1016937141847588,0.298048956273107,-0.3567627828773214,-0.7690961038662336,0.1148506332676483,0.435950601267205,TYRAL,cell_junction,SYNEM_HUMAN
NKRF_HUMAN_0,0.0529411764705882,0.0117647058823529,0.0705882352941176,0.0647058823529411,0.0470588235294117,0.0529411764705882,0.0235294117647058,0.0352941176470588,0.0647058823529411,0.0294117647058823,0.0294117647058823,0.0352941176470588,0.0941176470588235,0.0941176470588235,0.0294117647058823,0.1294117647058823,0.0588235294117647,0.0411764705882352,0.0,0.0352941176470588,1.0,0.0,0.0,0.0,0.0,0.0,0.0,0.0,0.0,1.0,0.0,0.0,0.0,1.0,12.0,-0.0800427076735363,0.0,11.0,17.0,0.0,0.0,0.0,9.0,36.0,-0.9929411764705884,11.0,1.0,0.0,0.0,0.0,0.0,0.0,0.0,0.0,0.0,1.0,0.0,0.0,0.0,0.0,0.0,0.0,0.0,0.0,1.0,0.0,0.0,0.0,1.0,3.0,0.0,0.0,0.0,0.0,0.0,0.0,3.0,3.0,0.0,3.0,0.0,0.0,4.0,0.0,0.0,0.0,1.0,1.0,0.0,0.0,6.0,5.0,21.0,48.0,2.0,16.0,22.0,16.0,0.0,14.0,-0.6931471805599453,11.0,5.0,3.0,31.0,27.0,22.0,0.0,1.0,0.0,0.0,0.0,0.1352941176470588,0.188235294117647,0.0823529411764705,0.0941176470588235,0.3235294117647059,2.611512169541457,0.443311933289674,-0.8541074631903581,0.7352941176470589,0.2294117647058823,5.037151336669922,-7.0,0.4058823529411764,0.0306624145017829,0.0917892690033595,0.0991857111674939,5.081578190685213,14.338448812049236,0.2464541705130598,0.2224067207825829,0.1650922586401257,0.3179801825390201,0.1716870886734322,-0.4048419675631221,0.2370780009727647,0.2546638936136098,-0.148106207538151,-0.2883043585828491,0.1978842984308147,0.1205037831938419,MEKILQMAEGIDIGEMPSYDLVLSKPSKGQKRHLSTCDGQNPPKKQAGSKFHARPRFEPVHFVASSSKDERQEDPYGPQTKEVNEQTHFASMPRDIYQDYTQDSFSIQDGNSQYCDSSGFILTKDQPVTANMYFDSGNPAPSTTSQQANSQSTPEPSPSQTFPESVVAEK,nucleolus,NKRF_HUMAN
NKRF_HUMAN_1,0.0,0.0,0.0625,0.0625,0.0,0.0625,0.0,0.0625,0.125,0.0625,0.0625,0.125,0.0625,0.0,0.0,0.1875,0.0625,0.0,0.0625,0.0,0.0,0.0,0.0,0.0,0.0,0.0,0.0,0.0,0.0,0.0,0.0,0.0,0.0,0.0,1.0,0.0,0.0,1.0,1.0,0.0,0.0,0.0,1.0,3.0,-1.1,2.0,0.0,0.0,0.0,0.0,0.0,0.0,0.0,0.0,0.0,0.0,0.0,0.0,0.0,0.0,0.0,0.0,0.0,0.0,0.0,0.0,0.0,0.0,0.0,0.0,0.0,0.0,0.0,0.0,0.0,0.0,0.0,1.0,0.0,0.0,1.0,0.0,0.0,0.0,0.0,0.0,0.0,0.0,0.0,0.0,2.0,0.0,1.0,5.0,0.0,1.0,2.0,0.0,0.0,1.0,-1.0986122886681098,0.0,0.0,0.0,4.0,3.0,3.0,0.0,0.0,0.0,0.0,0.0,0.125,0.1875,0.0625,0.125,0.3125,1.7183628922332954,-1.570244226149336,-1.528167211087335,0.625,0.25,6.069004058837891,0.0,0.4375,-0.2190188531711472,0.0540997707270716,0.0648775274492937,5.101761775817359,13.528829547744214,0.2689215902480141,0.1173997017565712,0.1341742177327086,0.3922951837871059,0.0342436659273338,-0.3641335741050344,0.3186641278041978,0.2406603417596806,-0.0620481177195654,-0.1188809612698063,0.1747111517037955,0.1200350152852618,WKNLSNPEMTSGSDKI,nucleolus,NKRF_HUMAN
NKRF_HUMAN_2,0.1111111111111111,0.0,0.0555555555555555,0.0555555555555555,0.0,0.0,0.0,0.1111111111111111,0.2222222222222222,0.1111111111111111,0.0,0.0555555555555555,0.2222222222222222,0.0,0.0,0.0,0.0,0.0,0.0,0.0555555555555555,0.0,0.0,0.0,0.0,0.0,0.0,0.0,0.0,0.0,0.0,0.0,0.0,0.0,0.0,1.0,0.0,0.0,1.0,0.0,0.0,0.0,0.0,0.0,10.0,-0.7555555555555555,4.0,0.0,0.0,0.0,0.0,0.0,0.0,0.0,0.0,0.0,0.0,0.0,0.0,0.0,0.0,0.0,0.0,0.0,0.0,1.0,0.0,0.0,0.0,0.0,0.0,0.0,0.0,0.0,0.0,0.0,0.0,0.0,0.0,0.0,0.0,0.0,0.0,0.0,0.0,0.0,0.0,0.0,0.0,0.0,0.0,1.0,0.0,4.0,4.0,0.0,4.0,1.0,0.0,0.0,0.0,-1.6094379124341005,1.0,0.0,0.0,0.0,0.0,0.0,0.0,0.0,0.0,0.0,0.0,0.1111111111111111,0.3333333333333333,0.0555555555555555,0.2222222222222222,0.5555555555555556,1.5533275558698516,0.0862952540157368,-2.0023609036474816,0.6666666666666666,0.3333333333333333,9.404621124267578,2.0,0.0555555555555555,-0.167298282942782,0.0546095487199794,0.0378093716995119,5.209895441707298,13.775177568717035,0.2959136570367074,0.0880457056901942,0.1359479844096647,0.3488162215083189,-0.0494282733912537,-0.3252917297828281,0.1199765385629314,0.1697703098322321,-0.0673353002142311,-0.165545526676422,0.1594296362750838,0.1729842488219596,YAPLKEIPPADIPKNKKL,nucleolus,NKRF_HUMAN
NKRF_HUMAN_3,0.1666666666666666,0.0,0.0555555555555555,0.0555555555555555,0.0,0.1666666666666666,0.0,0.0,0.0555555555555555,0.0555555555555555,0.0,0.0555555555555555,0.0,0.0,0.1111111111111111,0.1111111111111111,0.0555555555555555,0.0555555555555555,0.0,0.0555555555555555,0.0,0.0,0.0,0.0,0.0,0.0,0.0,0.0,0.0,1.0,0.0,0.0,0.0,0.0,1.0,0.0,0.0,1.0,3.0,0.0,0.0,0.0,3.0,4.0,-0.8222222222222223,1.0,1.0,0.0,0.0,0.0,0.0,0.0,0.0,0.0,0.0,0.0,0.0,0.0,0.0,0.0,0.0,0.0,0.0,0.0,0.0,0.0,0.0,0.0,0.0,0.0,0.0,0.0,0.0,0.0,0.0,0.0,0.0,0.0,0.0,1.0,1.0,0.0,0.0,0.0,1.0,0.0,0.0,0.0,0.0,0.0,1.0,0.0,2.0,3.0,0.0,0.0,1.0,0.0,0.0,5.0,0.4054651081081644,3.0,2.0,0.0,5.0,4.0,2.0,0.0,0.0,0.0,0.0,0.0,0.1111111111111111,0.2777777777777778,0.0555555555555555,0.1666666666666666,0.2777777777777778,1.745868439358725,-0.9875591511827762,-0.0197173593071698,0.7777777777777778,0.2777777777777778,8.588794708251953,1.0,0.3888888888888889,-0.1855824143006769,0.0623066914292783,0.1080086477214964,4.926727194881639,14.10274441140455,0.3849717087432326,0.136521918092099,0.1048876890172713,0.3011086287355401,-0.0880469266256631,-0.4005600655583511,0.2364741671142378,0.2594631473131888,-0.1030605123333219,-0.2539476986434649,0.1609165093613472,0.2226503344453413,GYAGSKNGSRDRATELAV,nucleolus,NKRF_HUMAN
NKRF_HUMAN_4,0.0,0.0,0.1818181818181818,0.0909090909090909,0.0,0.0909090909090909,0.0,0.0,0.0909090909090909,0.1818181818181818,0.0,0.0,0.1818181818181818,0.0,0.0,0.0,0.0,0.1818181818181818,0.0,0.0,0.0,0.0,0.0,0.0,0.0,0.0,0.0,0.0,0.0,0.0,0.0,0.0,0.0,0.0,2.0,-0.4054651081081644,0.0,1.0,1.0,0.0,0.0,0.0,1.0,3.0,-0.1818181818181818,1.0,0.0,0.0,1.0,0.0,0.0,0.0,0.0,0.0,0.0,0.0,0.0,0.0,0.0,0.0,0.0,0.0,0.0,0.0,0.0,0.0,0.0,0.0,0.0,0.0,0.0,1.0,0.0,0.0,0.0,0.0,0.0,0.0,0.0,0.0,0.0,0.0,0.0,0.0,0.0,0.0,0.0,0.0,0.0,0.0,0.0,0.0,2.0,2.0,0.0,2.0,0.0,0.0,0.0,1.0,-0.6931471805599453,0.0,0.0,0.0,1.0,0.0,0.0,0.0,0.0,0.0,0.0,0.0,0.2727272727272727,0.3636363636363636,0.0,0.0909090909090909,0.5454545454545454,1.339065374875828,-1.2480555405546612,-5.574673144066823,0.6363636363636364,0.3636363636363636,4.028049468994141,-2.0,0.0909090909090909,0.0344488529057284,0.043925528979391,0.036201569719441,4.212256967115447,13.92385978083324,0.3340763436983477,0.2739765319841757,0.0882574061589007,0.2331711135571218,0.1702536066011982,-0.4445279292572375,0.1631646194796817,0.1293115904511791,-0.0393961971686717,-0.1065918572103922,0.1645935171129567,0.1331247191521326,PPEDLVVLGKD,nucleolus,NKRF_HUMAN
NKRF_HUMAN_5,0.0,0.0,0.0,0.0,0.0,0.2,0.0,0.2,0.0,0.2,0.0,0.4,0.0,0.0,0.0,0.0,0.0,0.0,0.0,0.0,0.0,0.0,0.0,0.0,0.0,0.0,0.0,0.0,0.0,0.0,0.0,0.0,0.0,0.0,0.0,0.0,0.0,0.0,1.0,0.0,0.0,0.0,1.0,0.0,0.1799999999999999,0.0,0.0,0.0,0.0,0.0,0.0,0.0,0.0,0.0,0.0,0.0,0.0,0.0,0.0,0.0,0.0,0.0,0.0,0.0,0.0,0.0,0.0,0.0,0.0,0.0,0.0,0.0,0.0,0.0,0.0,0.0,0.0,0.0,0.0,0.0,0.0,0.0,0.0,0.0,0.0,0.0,0.0,0.0,0.0,0.0,2.0,0.0,0.0,0.0,0.0,0.0,2.0,0.0,0.0,1.0,0.0,0.0,0.0,0.0,1.0,0.0,0.0,0.0,0.0,0.0,0.0,0.0,0.0,0.4,0.0,0.0,0.0,0.8188689124444203,0.0,0.0,0.2,0.0,5.525012969970703,0.0,0.6,0.0,0.0451690547554816,0.0603404642593305,4.023914308837523,14.90631239320176,0.3642673849343037,0.2712297388010423,0.0584796287575422,0.190732700360283,0.1182820043924366,-0.2775497242594361,0.1447526148167615,0.2108509182681157,-0.0390868095625742,-0.1126672640590002,0.128246613451915,0.273224213237373,GILNN,nucleolus,NKRF_HUMAN
NKRF_HUMAN_6,0.0,0.0,0.0,0.3333333333333333,0.0,0.0,0.0,0.3333333333333333,0.0,0.0,0.0,0.0,0.0,0.0,0.0,0.0,0.0,0.0,0.0,0.3333333333333333,0.0,0.0,0.0,0.0,0.0,0.0,0.0,0.0,0.0,0.0,0.0,0.0,0.0,0.0,0.0,0.6931471805599453,0.0,1.0,0.0,0.0,0.0,0.0,0.0,0.0,-0.1,0.0,0.0,0.0,0.0,0.0,0.0,0.0,0.0,0.0,0.0,0.0,0.0,0.0,0.0,0.0,0.0,0.0,0.0,0.0,0.0,0.0,0.0,0.0,0.0,0.0,0.0,0.0,0.0,0.0,0.0,0.0,0.0,0.0,0.0,0.0,0.0,0.0,0.0,0.0,0.0,0.0,0.0,0.0,0.0,0.0,0.0,0.0,0.0,0.0,0.0,0.0,0.0,0.0,0.0,0.0,0.0,1.0,0.0,0.0,0.0,0.0,0.0,0.0,0.0,0.0,0.0,0.0,0.3333333333333333,0.3333333333333333,0.3333333333333333,0.0,0.3333333333333333,0.5972531564093518,0.0,0.0,0.3333333333333333,0.3333333333333333,3.9996376037597656,-1.0,0.0,0.0,0.0834739633558341,0.0606918997107039,5.686995515695068,16.123766816143497,0.4266211604095563,0.3763574309649395,0.037723846791449,0.1037646741330454,0.0839460784313725,-0.8237336601307189,0.1623896247240618,0.3134657836644591,0.1553153153153153,0.0241441441441441,0.112842213246137,0.3927678399692249,IEY,nucleolus,NKRF_HUMAN
NKRF_HUMAN_7,0.0714285714285714,0.0178571428571428,0.0535714285714285,0.0357142857142857,0.0,0.0714285714285714,0.0357142857142857,0.0357142857142857,0.1785714285714285,0.0535714285714285,0.0,0.0,0.0535714285714285,0.0535714285714285,0.0178571428571428,0.125,0.0892857142857142,0.0535714285714285,0.0,0.0535714285714285,0.0,0.0,0.0,0.0,0.0,0.0,0.0,0.0,0.0,1.0,0.0,0.0,0.0,1.0,3.0,-0.2876820724517809,0.0,2.0,4.0,0.0,0.0,2.0,4.0,17.0,-0.975,10.0,0.0,0.0,0.0,0.0,0.0,0.0,0.0,0.0,0.0,0.0,0.0,0.0,0.0,0.0,0.0,0.0,0.0,0.0,0.0,0.0,0.0,0.0,0.0,0.0,0.0,0.0,0.0,1.0,0.0,0.0,1.0,0.0,0.0,2.0,0.0,0.0,2.0,1.0,1.0,0.0,0.0,1.0,0.0,1.0,0.0,0.0,4.0,15.0,0.0,3.0,3.0,3.0,0.0,5.0,-1.7047480922384253,4.0,1.0,0.0,11.0,8.0,7.0,0.0,0.0,1.0,0.0,0.0,0.0892857142857142,0.2142857142857142,0.0535714285714285,0.1964285714285714,0.3392857142857143,2.227671882937425,0.2865583698709094,0.2713120551960155,0.7857142857142857,0.2857142857142857,9.675228118896484,6.0,0.3928571428571428,0.8110435602751325,0.0500413971386811,0.0729105569942711,4.831865840246359,14.043765249214696,0.3449028229493041,0.186430680054295,0.1377680474595813,0.2919481268244286,0.0548930977803269,-0.4074057363207182,0.1876227410178602,0.2216889221546827,-0.1014299127813685,-0.2103513290881007,0.1775536205266409,0.2245787881351808,YGTKKTSKHAAADEALKILQKTQPTYPSVKSSQCHTGSSPRGSGKKKDIKDLVVYE,nucleolus,NKRF_HUMAN
NKRF_HUMAN_8,0.1111111111111111,0.1111111111111111,0.1111111111111111,0.0,0.0,0.0,0.0,0.0,0.0,0.1111111111111111,0.0,0.1111111111111111,0.1111111111111111,0.0,0.0,0.0,0.2222222222222222,0.1111111111111111,0.0,0.0,0.0,0.0,0.0,0.0,0.0,0.0,0.0,0.0,0.0,0.0,0.0,0.0,0.0,0.0,1.0,-0.6931471805599453,0.0,0.0,0.0,0.0,0.0,0.0,0.0,2.0,0.2555555555555555,0.0,0.0,0.0,0.0,0.0,0.0,0.0,0.0,0.0,0.0,0.0,0.0,0.0,0.0,0.0,0.0,0.0,0.0,0.0,0.0,0.0,0.0,0.0,0.0,0.0,0.0,0.0,0.0,0.0,0.0,0.0,0.0,0.0,0.0,1.0,0.0,0.0,0.0,0.0,0.0,0.0,0.0,0.0,0.0,0.0,1.0,0.0,1.0,3.0,0.0,1.0,1.0,0.0,0.0,0.0,0.0,0.0,0.0,0.0,0.0,0.0,0.0,0.0,0.0,0.0,0.0,0.0,0.1111111111111111,0.3333333333333333,0.0,0.0,0.2222222222222222,1.345408922169058,0.0,-2.242033688239658,0.5555555555555556,0.1111111111111111,3.799793243408203,-1.0,0.4444444444444444,0.0,0.0414123602828324,0.0529814148904095,4.373486049974972,14.90163993455056,0.3114805390204145,0.2875531646635216,0.1034629401680993,0.2634132365265932,0.1905423636242744,-0.3756841448746487,0.2859354060015507,0.228857542876578,-0.0311411422489483,-0.0959679788941133,0.1750621228816005,0.1637401300200975,PVCTLNDTA,nucleolus,NKRF_HUMAN
ZN185_HUMAN_0,0.098546042003231,0.0096930533117932,0.0468497576736672,0.0840064620355412,0.0161550888529886,0.0840064620355412,0.0032310177705977,0.0274636510500807,0.0533117932148626,0.0403877221324717,0.011308562197092,0.0210016155088853,0.0969305331179321,0.0468497576736672,0.0759289176090468,0.1389337641357027,0.0646203554119547,0.0597738287560581,0.0064620355411954,0.0145395799676898,1.0,0.0,0.0,0.0,0.0,1.0,0.0,1.0,0.0,1.0,1.0,0.0,2.0,10.0,29.0,0.5690945318899664,0.0,52.0,62.0,0.0,0.0,10.0,52.0,154.0,-0.8287560581583199,33.0,8.0,0.0,0.0,0.0,0.0,1.0,0.0,0.0,0.0,1.0,0.0,0.0,0.0,0.0,0.0,0.0,0.0,0.0,2.0,2.0,1.0,2.0,0.0,4.0,1.0,0.0,2.0,2.0,1.0,1.0,17.0,11.0,1.0,21.0,4.0,0.0,5.0,5.0,13.0,2.0,3.0,8.0,0.0,6.0,13.0,0.0,107.0,186.0,2.0,60.0,42.0,29.0,6.0,99.0,0.3448404862917296,56.0,47.0,3.0,138.0,133.0,86.0,0.0,4.0,0.0,0.0,0.0,0.1308562197092084,0.2374798061389337,0.0371567043618739,0.1292407108239095,0.3570274636510501,2.6411231529889863,-0.1052489934910019,0.4916549523506537,0.7932148626817448,0.2600969305331179,6.460521697998047,-1.0,0.3683360258481422,-2.4135474557307743,0.0650406867748903,0.0878457899867845,4.996235610816276,13.98031231732086,0.2883608281910259,0.1990355567296324,0.1406458422440858,0.3061216347941402,0.083215019020633,-0.4126650448255486,0.2140925703208365,0.2468030147761968,-0.0797920605501173,-0.2075875913460572,0.1862130895219071,0.1531174979853126,MSISALGGRTKGKPLPPGEEERNNVLKQMKVRTTLKGDKSWITKQDESEGRTIELPSGRSRATSFSSAGEVPKPRPPSTRAPTGYIIRGVFTKPIDSSSQPQQQFPKANGTPKSAASLVRTANAGPPRPSSSGYKMTTEDYKKLAPYNIRRSSTSGDTEEEEEEEVVPFSSDEQKRRSEAASGVLRRTAPREHSYVLSAAKKSTGPTQETQAPFIAKRVEVVEEDGPSEKSQDPPALARSTPGSNSADGGRTKASRAIWIECLPSMPSPAGSQELSSRGEEIVRLQILTPRAGLRLVAPDVEGMRSSPGNKDKEAPCSRELQRDLAGEEAFRAPNTDAARSSAQLSDGNVGSGATGSRPEGLAAVDIGSERGSSSATSVSAVPADRKSNSTAAQEDAKADPKGALADYEGKDVATRVGEAWQERPGAPRGGQGDPAVPAQQPADPSTPERQSSPSGSEQLVRRESCGSSVLTDFEGKDVATKVGEAWQDRPGAPRGGQGDPAVPTQQPADPSTPEQQNSPSGSEQFVRRESCTSRVRSPSSCMVTVTVTATSEQPHIYIPAPASELDSSSTTKGILFVKEYVNASEVSSGKPVSARYSNVSSIEDSFAMEKKPPCGSTP,cell_junction,ZN185_HUMAN
NPHP1_HUMAN_0,0.0726256983240223,0.0055865921787709,0.0558659217877094,0.1899441340782122,0.0111731843575419,0.0446927374301676,0.0167597765363128,0.0391061452513966,0.0726256983240223,0.1005586592178771,0.0055865921787709,0.0446927374301676,0.0223463687150838,0.0949720670391061,0.0558659217877094,0.0670391061452514,0.0446927374301676,0.0335195530726257,0.0055865921787709,0.0167597765363128,0.0,0.0,0.0,0.0,0.0,0.0,0.0,0.0,0.0,0.0,0.0,0.0,0.0,0.0,10.0,1.157452788691043,0.0,34.0,10.0,0.0,0.0,0.0,8.0,30.0,-1.21731843575419,13.0,0.0,0.0,0.0,0.0,0.0,0.0,0.0,0.0,0.0,1.0,0.0,0.0,0.0,0.0,0.0,0.0,0.0,0.0,0.0,0.0,0.0,0.0,0.0,1.0,0.0,0.0,0.0,0.0,0.0,0.0,2.0,3.0,0.0,1.0,2.0,0.0,2.0,0.0,0.0,0.0,2.0,0.0,0.0,1.0,8.0,0.0,14.0,24.0,0.0,4.0,25.0,17.0,0.0,18.0,-0.2411620568168881,13.0,10.0,0.0,20.0,22.0,12.0,0.0,2.0,2.0,0.0,0.0,0.2458100558659217,0.2513966480446927,0.0335195530726257,0.1284916201117318,0.3966480446927374,2.4854776617395613,1.6462178708337027,-0.1413721974012769,0.7374301675977654,0.3743016759776536,4.526592254638672,-21.0,0.3184357541899441,-0.7925661355232847,0.0667450032632136,0.0657446513198227,4.643867692832727,15.01163841933356,0.5772694252187001,0.1165475188461029,0.0470577934427485,0.197149202342677,-0.1147342406135358,-0.3441096751589501,0.2099953761107675,0.1888927516738407,-0.0577454370070024,-0.1575090376387848,0.1034814617250031,0.4097156484899221,MLARRQRDPLQALRRRNQELKQQVDSLLSESQLKEALEPNKRQHIYQRCIQLKQAIDENKNALQKLSKADESAPVANYNQRKEEEHTLLDKLTQQLQGLAVTISRENITEVGAPTEEEEESESEDSEDSGGEEEDAEEEEEEKEENESHKWSTGEEYIAVGDFTAQQVGDLTFKKGEIL,cell_junction,NPHP1_HUMAN
NPHP1_HUMAN_1,0.0923076923076923,0.0,0.0923076923076923,0.2153846153846154,0.0,0.0923076923076923,0.0153846153846153,0.0153846153846153,0.0461538461538461,0.0307692307692307,0.0,0.0153846153846153,0.0461538461538461,0.0307692307692307,0.0307692307692307,0.0769230769230769,0.0461538461538461,0.0769230769230769,0.0461538461538461,0.0307692307692307,1.0,0.0,0.0,0.0,0.0,0.0,0.0,0.0,0.0,0.0,0.0,0.0,0.0,0.0,6.0,0.7621400520468967,0.0,14.0,6.0,0.0,0.0,0.0,6.0,12.0,-1.2169230769230768,3.0,0.0,0.0,0.0,0.0,0.0,0.0,0.0,0.0,0.0,1.0,0.0,0.0,1.0,0.0,0.0,0.0,0.0,0.0,0.0,0.0,0.0,1.0,0.0,1.0,0.0,0.0,0.0,0.0,0.0,0.0,0.0,2.0,0.0,1.0,0.0,0.0,0.0,0.0,0.0,0.0,0.0,0.0,0.0,0.0,1.0,0.0,5.0,11.0,2.0,3.0,3.0,2.0,0.0,8.0,-0.2876820724517809,4.0,2.0,0.0,11.0,7.0,5.0,0.0,0.0,0.0,0.0,0.0,0.3076923076923077,0.2153846153846154,0.0769230769230769,0.0769230769230769,0.4307692307692308,2.229215413062335,0.2061493791127206,-0.2603738385912933,0.7846153846153846,0.3846153846153846,3.975872039794922,-15.0,0.2769230769230769,5.013363747554259,0.0770694513433313,0.0904318660211327,4.8862372042682605,14.456298138098363,0.367024680778983,0.1566266683515922,0.0933042741064789,0.2936050871724847,0.0945880124356909,-0.3989134965903901,0.226840110858785,0.2057245724676827,-0.1306646145996389,-0.2577848748967417,0.157110443417837,0.2026543966867359,DGWWIAKDAKGNEGLVPRTYLEPYSEEEEGQESSEEGSEEDVEAVDETADGAEVKQRTDPHWSAV,cell_junction,NPHP1_HUMAN
NPHP1_HUMAN_2,0.0625,0.0,0.0625,0.1875,0.0625,0.125,0.0,0.0,0.0,0.0,0.0,0.0625,0.0,0.0,0.0625,0.0625,0.1875,0.0625,0.0625,0.0,0.0,0.0,0.0,0.0,0.0,0.0,0.0,0.0,0.0,0.0,0.0,0.0,0.0,0.0,1.0,0.6931471805599453,0.0,3.0,3.0,0.0,0.0,0.0,2.0,1.0,-1.1125,0.0,0.0,0.0,0.0,0.0,0.0,0.0,0.0,0.0,0.0,0.0,0.0,0.0,0.0,0.0,0.0,0.0,0.0,0.0,0.0,0.0,0.0,0.0,0.0,0.0,0.0,0.0,0.0,0.0,0.0,0.0,0.0,0.0,0.0,0.0,1.0,0.0,0.0,0.0,0.0,0.0,0.0,0.0,0.0,0.0,1.0,0.0,1.0,4.0,0.0,0.0,1.0,0.0,0.0,3.0,0.6931471805599453,1.0,1.0,0.0,3.0,2.0,1.0,0.0,0.0,0.0,0.0,0.0,0.25,0.125,0.125,0.0625,0.3125,1.6496996241915385,0.1105748444696932,-0.2878210677546131,0.75,0.3125,4.001987457275391,-3.0,0.4375,0.0406112245137171,0.0713806866978575,0.1011545082824171,4.829634641567461,14.184566759719988,0.3118042378046026,0.1694571780636435,0.1164553285907223,0.3290555311662854,0.048481521962148,-0.3770307199795226,0.2898375772329738,0.2462368432668327,-0.0850790138930879,-0.2161620504117598,0.1762189778993158,0.170137210861293,ETVEDTNGSETGFRAW,cell_junction,NPHP1_HUMAN
NPHP1_HUMAN_3,0.3333333333333333,0.0,0.0,0.0,0.0,0.0,0.0,0.0,0.0,0.0,0.0,0.0,0.0,0.0,0.3333333333333333,0.0,0.0,0.3333333333333333,0.0,0.0,0.0,0.0,0.0,0.0,0.0,0.0,0.0,0.0,0.0,0.0,0.0,0.0,0.0,0.0,0.0,0.0,0.0,0.0,0.0,0.0,0.0,0.0,0.0,1.0,0.5000000000000001,0.0,0.0,0.0,0.0,0.0,0.0,0.0,0.0,0.0,0.0,0.0,0.0,0.0,0.0,0.0,0.0,0.0,0.0,0.0,0.0,0.0,0.0,0.0,0.0,0.0,0.0,0.0,0.0,0.0,0.0,0.0,0.0,0.0,0.0,0.0,0.0,0.0,0.0,0.0,0.0,0.0,0.0,0.0,0.0,0.0,0.0,0.0,1.0,0.0,0.0,0.0,0.0,0.0,0.0,1.0,0.6931471805599453,1.0,1.0,0.0,0.0,1.0,0.0,0.0,0.0,0.0,0.0,0.0,0.0,0.6666666666666666,0.0,0.3333333333333333,0.3333333333333333,0.5972531564093518,0.0,0.0,0.6666666666666666,0.3333333333333333,9.750049591064451,1.0,0.0,0.0,0.1031778119188162,0.2021508854208781,6.550850283427809,17.413137712570858,0.4748325358851674,0.3311004784688995,0.0349013657056145,0.0907098297083122,-0.387990164358742,-1.209525042060308,0.1344759393539881,0.5666446934739617,-0.1265438786565547,-0.5462621885157096,0.1148296350187947,0.4410088517036498,VRA,cell_junction,NPHP1_HUMAN
NPHP1_HUMAN_4,0.0,0.0,0.0,0.0,0.0,0.0,0.0,0.0,0.6,0.0,0.0,0.0,0.2,0.0,0.0,0.0,0.2,0.0,0.0,0.0,0.0,0.0,0.0,0.0,0.0,0.0,0.0,0.0,0.0,0.0,0.0,0.0,0.0,0.0,0.0,0.0,0.0,0.0,0.0,0.0,0.0,0.0,0.0,4.0,-2.8,3.0,0.0,0.0,0.0,0.0,0.0,0.0,0.0,0.0,0.0,0.0,0.0,0.0,0.0,0.0,0.0,0.0,0.0,0.0,0.0,0.0,0.0,0.0,0.0,0.0,0.0,0.0,0.0,0.0,0.0,0.0,0.0,0.0,0.0,0.0,0.0,0.0,0.0,0.0,0.0,0.0,0.0,0.0,0.0,0.0,0.0,0.0,1.0,2.0,0.0,1.0,0.0,0.0,0.0,0.0,-1.3862943611198906,0.0,0.0,0.0,0.0,0.0,0.0,0.0,0.0,0.0,0.0,0.0,0.0,0.0,0.0,0.6,0.8,0.5991464547107983,-5.558705897652906,-27.919540114948788,1.0,0.6,10.302051544189451,3.0,0.2,0.8292528739883945,0.0444651879470234,0.0343760075521256,5.911033703538545,12.879358813190178,0.1834613697228068,0.1074962016784716,0.2119376385157115,0.4968646452039839,-0.014712905614154,-0.5721096475209961,0.1310380062353304,0.2178597329995044,-0.1689221892708797,-0.281275674915598,0.2115468155224842,0.0543039588897428,KKPKT,cell_junction,NPHP1_HUMAN
NPHP1_HUMAN_5,0.0,0.0,0.1666666666666666,0.1666666666666666,0.0,0.1666666666666666,0.0,0.1666666666666666,0.0,0.0,0.0,0.0,0.1666666666666666,0.0,0.0,0.0,0.0,0.1666666666666666,0.0,0.0,0.0,0.0,0.0,0.0,0.0,0.0,0.0,0.0,0.0,0.0,0.0,0.0,0.0,0.0,1.0,0.0,0.0,1.0,1.0,0.0,0.0,0.0,1.0,1.0,-0.0499999999999999,0.0,0.0,0.0,0.0,0.0,0.0,0.0,0.0,0.0,0.0,0.0,0.0,0.0,0.0,0.0,0.0,0.0,0.0,0.0,0.0,0.0,0.0,0.0,0.0,0.0,0.0,0.0,0.0,0.0,0.0,0.0,0.0,0.0,0.0,0.0,0.0,0.0,0.0,0.0,0.0,0.0,0.0,0.0,0.0,0.0,0.0,0.0,1.0,1.0,0.0,1.0,0.0,0.0,0.0,1.0,0.0,0.0,0.0,0.0,1.0,0.0,0.0,0.0,0.0,0.0,0.0,0.0,0.3333333333333333,0.3333333333333333,0.0,0.0,0.5,1.0965418686683504,-1.5403585244631397,-3.0071599147182333,0.6666666666666666,0.3333333333333333,3.665958404541016,-2.0,0.1666666666666666,0.2357022603955158,0.046403454086648,0.0536980704575052,4.677276032516899,15.551168738535162,0.2179743519088624,0.3111056352808012,0.0853161399863079,0.2754709030269192,-0.0600617154988965,-0.523175136607229,0.2728760442166255,0.2041791959628048,-0.0211345350135986,-0.0573686039949513,0.1882049847727757,0.1716708238652537,GIEVDP,cell_junction,NPHP1_HUMAN
NPHP1_HUMAN_6,0.0555555555555555,0.0,0.0,0.1111111111111111,0.0,0.0555555555555555,0.0,0.0,0.1666666666666666,0.1111111111111111,0.0,0.0,0.0,0.0,0.1666666666666666,0.2222222222222222,0.0555555555555555,0.0,0.0555555555555555,0.0,0.0,0.0,0.0,0.0,0.0,0.0,0.0,0.0,0.0,0.0,0.0,0.0,0.0,0.0,0.0,1.0986122886681098,0.0,2.0,1.0,0.0,0.0,0.0,1.0,4.0,-1.5555555555555556,3.0,1.0,0.0,0.0,0.0,0.0,0.0,0.0,0.0,0.0,0.0,0.0,0.0,0.0,0.0,0.0,0.0,0.0,0.0,0.0,0.0,0.0,0.0,0.0,0.0,0.0,0.0,0.0,0.0,0.0,0.0,0.0,0.0,0.0,1.0,0.0,0.0,0.0,0.0,1.0,0.0,1.0,0.0,0.0,0.0,0.0,0.0,3.0,5.0,0.0,0.0,0.0,0.0,0.0,4.0,0.0,3.0,3.0,0.0,5.0,7.0,4.0,0.0,0.0,0.0,0.0,0.0,0.1111111111111111,0.1666666666666666,0.0555555555555555,0.3333333333333333,0.4444444444444444,1.5693098932282838,-1.967753006936945,-2.489838817063181,0.8333333333333334,0.4444444444444444,11.00027847290039,4.0,0.3333333333333333,0.8180053396623657,0.0620792095743161,0.0905461043898709,5.1343471605888205,14.338158833416887,0.4662413735968183,0.1219007258605919,0.0851292159549013,0.2815185316707127,-0.1461079802328638,-0.4324787968452147,0.2207846254125332,0.2592100911048446,-0.1457673057858105,-0.285925076529053,0.1372014653958122,0.2791599085219198,LRSSWAGKESTLKRSEKR,cell_junction,NPHP1_HUMAN
NPHP1_HUMAN_7,0.2,0.0,0.0,0.2,0.2,0.0,0.0,0.0,0.0,0.0,0.0,0.0,0.0,0.0,0.2,0.0,0.0,0.0,0.2,0.0,0.0,0.0,0.0,0.0,0.0,0.0,0.0,0.0,0.0,0.0,0.0,0.0,0.0,0.0,0.0,0.6931471805599453,0.0,1.0,1.0,0.0,0.0,0.0,0.0,1.0,-0.86,0.0,0.0,0.0,0.0,0.0,0.0,0.0,0.0,0.0,0.0,0.0,0.0,0.0,0.0,0.0,0.0,0.0,0.0,0.0,0.0,0.0,0.0,0.0,0.0,0.0,0.0,0.0,0.0,0.0,0.0,0.0,0.0,0.0,0.0,0.0,0.0,0.0,0.0,0.0,0.0,0.0,0.0,0.0,0.0,0.0,0.0,0.0,1.0,0.0,0.0,0.0,0.0,0.0,0.0,1.0,0.6931471805599453,1.0,1.0,0.0,0.0,1.0,0.0,0.0,0.0,0.0,0.0,0.0,0.2,0.2,0.4,0.2,0.4,0.9574983485564094,-1.3082054216284793,-2.229842903820651,0.6,0.4,6.002140045166016,0.0,0.0,-0.3464101615137754,0.1622605905033274,0.2056300568379045,4.982316994400448,17.913009529772467,0.60352271907668,0.1807958298225551,0.0543984981802699,0.1462441306387522,-0.1977044003793013,-0.5220142606004788,0.1022897401725311,0.3323986452037243,-0.518315946276272,-0.954101462989812,0.1261160729448898,0.3991474907654262,FRWAE,cell_junction,NPHP1_HUMAN
NPHP1_HUMAN_8,0.0,0.0,0.1428571428571428,0.0,0.1428571428571428,0.0,0.0,0.1428571428571428,0.1428571428571428,0.1428571428571428,0.0,0.0,0.0,0.0,0.0,0.0,0.1428571428571428,0.1428571428571428,0.0,0.0,0.0,0.0,0.0,0.0,0.0,0.0,0.0,0.0,0.0,0.0,0.0,0.0,0.0,0.0,1.0,-0.6931471805599453,0.0,0.0,1.0,0.0,0.0,0.0,0.0,1.0,1.0285714285714287,1.0,0.0,0.0,0.0,0.0,0.0,0.0,0.0,0.0,0.0,0.0,0.0,0.0,0.0,0.0,0.0,0.0,0.0,0.0,0.0,0.0,0.0,0.0,0.0,0.0,0.0,0.0,0.0,0.0,0.0,0.0,0.0,0.0,0.0,0.0,0.0,0.0,0.0,0.0,0.0,0.0,0.0,0.0,0.0,0.0,0.0,0.0,0.0,1.0,0.0,0.0,0.0,0.0,0.0,0.0,-0.6931471805599453,0.0,0.0,0.0,0.0,0.0,0.0,0.0,0.0,0.0,0.0,0.0,0.1428571428571428,0.4285714285714285,0.1428571428571428,0.1428571428571428,0.2857142857142857,1.2178801944379165,-1.1716943928991017,-1.141630912416173,0.4285714285714285,0.2857142857142857,5.835674285888672,0.0,0.1428571428571428,-0.2857142857142857,0.0455951616676769,0.0669920056793147,3.836325366954185,16.076079656983303,0.3759098792428406,0.3704796077066834,0.0498490678653689,0.1627699016963761,0.1983401067628488,-0.4331189067389236,0.2237327854298959,0.1572040199881104,-0.1554546546087731,-0.3762653837798489,0.1500103386025327,0.2551136954702533,KVITDFL,cell_junction,NPHP1_HUMAN
NPHP1_HUMAN_9,0.08,0.0,0.08,0.08,0.04,0.08,0.04,0.0,0.0,0.16,0.0,0.04,0.08,0.12,0.0,0.08,0.04,0.04,0.0,0.04,0.0,0.0,0.0,0.0,0.0,0.0,0.0,0.0,0.0,0.0,0.0,0.0,0.0,1.0,2.0,0.0,0.0,2.0,3.0,0.0,0.0,0.0,2.0,4.0,-0.52,0.0,0.0,0.0,0.0,0.0,0.0,0.0,0.0,0.0,0.0,0.0,0.0,0.0,0.0,0.0,0.0,0.0,0.0,0.0,0.0,0.0,0.0,0.0,0.0,0.0,0.0,0.0,0.0,0.0,0.0,0.0,0.0,0.0,0.0,0.0,0.0,0.0,0.0,0.0,0.0,0.0,0.0,1.0,0.0,0.0,1.0,0.0,2.0,5.0,0.0,2.0,4.0,3.0,0.0,2.0,0.0,1.0,0.0,0.0,4.0,2.0,2.0,0.0,0.0,0.0,0.0,0.0,0.16,0.28,0.08,0.0,0.24,1.9549963536017936,0.6820342827322464,0.4892053301959657,0.68,0.16,3.913013458251953,-4.0,0.4,0.5488648131661561,0.0759085505490051,0.0877529914024269,4.707503827530448,14.434602294596084,0.3638521984829618,0.1261348167422541,0.1060737386417922,0.3015846731369389,0.0431764460027397,-0.2939444423917057,0.2256975861148729,0.2031257463040372,-0.0898305508675239,-0.1641409088445185,0.151681673575436,0.2298343654456554,NQGALQALLSPDGVHEPFDLSEQTY,cell_junction,NPHP1_HUMAN
MSH4_HUMAN_0,0.0945945945945946,0.0135135135135135,0.0135135135135135,0.027027027027027,0.027027027027027,0.081081081081081,0.0,0.0067567567567567,0.0202702702702702,0.0337837837837837,0.0067567567567567,0.0472972972972973,0.1148648648648648,0.054054054054054,0.0608108108108108,0.2297297297297297,0.081081081081081,0.0405405405405405,0.0067567567567567,0.0405405405405405,0.0,0.0,1.0,0.0,0.0,0.0,0.0,0.0,0.0,0.0,0.0,0.0,0.0,6.0,2.0,0.5108256237659907,0.0,4.0,16.0,4.0,0.0,6.0,12.0,34.0,-0.7432432432432432,3.0,1.0,0.0,0.0,0.0,0.0,0.0,0.0,0.0,0.0,0.0,0.0,0.0,1.0,0.0,1.0,0.0,0.0,0.0,0.0,0.0,0.0,0.0,0.0,1.0,0.0,0.0,0.0,0.0,0.0,1.0,8.0,1.0,0.0,8.0,1.0,0.0,0.0,0.0,3.0,0.0,1.0,6.0,0.0,0.0,7.0,0.0,26.0,63.0,0.0,17.0,15.0,8.0,0.0,21.0,0.9162907318741552,15.0,9.0,3.0,46.0,43.0,34.0,0.0,0.0,0.0,0.0,0.0,0.0405405405405405,0.1824324324324324,0.0743243243243243,0.081081081081081,0.2364864864864864,2.353663687035452,-1.4798599973002158,0.0313799045162173,0.777027027027027,0.1216216216216216,9.753253936767578,6.0,0.5067567567567568,0.5711239853027059,0.0775077640483826,0.1183739969328744,5.187801627466384,13.747126294928105,0.1866029901880152,0.2219900710237003,0.2128412449469318,0.3396726341822797,0.2441853478339297,-0.4005766468375215,0.2265616535147583,0.2923373588354578,-0.1407865229359451,-0.2997994841186011,0.2256900714749742,0.0794271167896061,MLRPEISSTSPSAPAVSPSSGETRSPQGPRYNFGLQETPQSRPSVQVVSASTCPGTSGAAGDRSSSSSSLPCPAPNSRPAQGSYFGNKRAYAENTVASNFTFGASSSSARDTNYPQTLKTPLSTGNPQRSGYKSWTPQVGYSASSSSA,chromosomes,MSH4_HUMAN
MSH4_HUMAN_1,0.0,0.0,0.0,0.0,0.0,0.3333333333333333,0.0,0.3333333333333333,0.0,0.0,0.3333333333333333,0.0,0.0,0.0,0.0,0.0,0.0,0.0,0.0,0.0,0.0,0.0,0.0,0.0,0.0,0.0,0.0,0.0,0.0,0.0,0.0,0.0,0.0,0.0,0.0,0.0,0.0,0.0,1.0,0.0,0.0,0.0,1.0,0.0,2.0,0.0,0.0,0.0,0.0,0.0,0.0,0.0,0.0,0.0,0.0,0.0,0.0,0.0,0.0,0.0,0.0,0.0,0.0,0.0,0.0,0.0,0.0,0.0,0.0,0.0,0.0,0.0,0.0,0.0,0.0,0.0,0.0,0.0,0.0,0.0,0.0,0.0,0.0,0.0,0.0,0.0,0.0,0.0,0.0,0.0,0.0,0.0,0.0,0.0,0.0,0.0,0.0,0.0,0.0,1.0,0.0,0.0,0.0,0.0,1.0,0.0,0.0,0.0,0.0,0.0,0.0,0.0,0.0,0.6666666666666666,0.0,0.0,0.0,0.5972531564093518,0.0,0.0,0.3333333333333333,0.0,5.525012969970703,0.0,0.3333333333333333,0.0,0.0250954719039825,0.0801963993453355,2.1105121293800537,13.884097035040432,0.3216374269005848,0.2719298245614035,0.0330350997935306,0.2050929112181693,-0.0419354838709677,-0.3032258064516129,0.0634067488381491,0.0933926045665791,-0.0139860139860139,-0.2062937062937063,0.1338832487309644,0.2937817258883248,IGM,chromosomes,MSH4_HUMAN
MSH4_HUMAN_2,0.0,0.0,0.0,0.0,0.0,0.0,0.0,0.0,0.0,0.3333333333333333,0.0,0.0,0.0,0.0,0.6666666666666666,0.0,0.0,0.0,0.0,0.0,0.0,0.0,0.0,0.0,0.0,0.0,0.0,0.0,0.0,0.0,0.0,0.0,0.0,0.0,0.0,0.0,0.0,0.0,0.0,0.0,0.0,0.0,0.0,0.0,-1.7333333333333334,0.0,0.0,0.0,0.0,0.0,0.0,0.0,0.0,0.0,0.0,0.0,0.0,0.0,0.0,0.0,0.0,0.0,0.0,0.0,0.0,0.0,0.0,0.0,0.0,0.0,0.0,0.0,0.0,0.0,0.0,0.0,0.0,0.0,0.0,0.0,0.0,0.0,0.0,0.0,0.0,0.0,0.0,0.0,0.0,0.0,0.0,0.0,2.0,0.0,0.0,0.0,0.0,0.0,0.0,2.0,1.0986122886681098,2.0,2.0,0.0,0.0,2.0,0.0,0.0,0.0,0.0,0.0,0.0,0.0,0.3333333333333333,0.0,0.6666666666666666,0.6666666666666666,0.3662040962227035,-10.954545454545327,-10.954545454545327,0.6666666666666666,0.6666666666666666,12.00003433227539,2.0,0.0,0.4714045207910317,0.0254733803175681,0.0245393563725906,2.953881536475145,16.494593285990963,0.6202629543696829,0.2145820150460521,0.044562221751113,0.1501377994488022,-0.0067567567567567,-0.1568663257852447,0.0547961923358555,0.0715157432267512,-0.0515353718579943,-0.119655351127235,0.1055646945374099,0.4776220999489478,RLR,chromosomes,MSH4_HUMAN
MSH4_HUMAN_3,0.0,0.0,0.0,0.1428571428571428,0.0,0.0,0.0,0.1428571428571428,0.0,0.0,0.0,0.1428571428571428,0.0,0.0,0.0,0.2857142857142857,0.2857142857142857,0.0,0.0,0.0,0.0,0.0,0.0,0.0,0.0,0.0,0.0,0.0,0.0,0.0,0.0,0.0,0.0,0.0,0.0,0.6931471805599453,0.0,1.0,0.0,0.0,0.0,0.0,0.0,0.0,-0.7857142857142857,0.0,0.0,0.0,0.0,0.0,0.0,0.0,0.0,0.0,0.0,0.0,0.0,0.0,0.0,0.0,0.0,0.0,0.0,0.0,0.0,0.0,0.0,0.0,0.0,0.0,0.0,0.0,0.0,0.0,0.0,0.0,0.0,0.0,0.0,0.0,0.0,0.0,0.0,0.0,0.0,0.0,0.0,0.0,0.0,0.0,1.0,0.0,0.0,4.0,0.0,0.0,1.0,0.0,0.0,0.0,0.0,0.0,0.0,0.0,2.0,2.0,2.0,0.0,0.0,0.0,0.0,0.0,0.1428571428571428,0.1428571428571428,0.0,0.0,0.1428571428571428,1.0198381428493606,0.0,0.0,0.7142857142857143,0.1428571428571428,3.9996376037597656,-1.0,0.7142857142857143,0.0,0.0531381665226727,0.0829362375919226,5.075878000046074,14.193279482177935,0.2759967102018428,0.1558093464996459,0.1239273042928919,0.3581525851087986,0.2167150280048477,-0.3789188922814835,0.4007308350016705,0.3310751054276087,-0.0289843463728302,-0.0650937002113631,0.1749757792027123,0.145402855918535,IETNSST,chromosomes,MSH4_HUMAN
MSH4_HUMAN_4,0.0,0.0,0.25,0.25,0.0,0.0,0.0,0.25,0.0,0.25,0.0,0.0,0.0,0.0,0.0,0.0,0.0,0.0,0.0,0.0,0.0,0.0,0.0,0.0,0.0,0.0,0.0,0.0,0.0,0.0,0.0,0.0,0.0,0.0,1.0,0.0,0.0,1.0,0.0,0.0,0.0,0.0,0.0,0.0,0.3249999999999999,0.0,0.0,0.0,0.0,0.0,0.0,0.0,0.0,0.0,0.0,0.0,0.0,0.0,0.0,0.0,0.0,0.0,0.0,0.0,0.0,0.0,0.0,0.0,0.0,0.0,0.0,0.0,0.0,0.0,0.0,0.0,0.0,0.0,0.0,0.0,0.0,0.0,0.0,0.0,0.0,0.0,0.0,0.0,0.0,0.0,0.0,0.0,0.0,0.0,0.0,0.0,0.0,0.0,0.0,0.0,0.0,0.0,0.0,0.0,0.0,0.0,0.0,0.0,0.0,0.0,0.0,0.0,0.5,0.5,0.0,0.0,0.5,0.7945134575869862,-3.810003810005715,-3.810003810005715,0.5,0.5,3.665958404541016,-2.0,0.0,0.25,0.0637436989963916,0.0548502174434237,5.52484139942735,15.769013505013104,0.5265380796742289,0.1169733213853503,0.0637187262235515,0.2026653677846971,-0.028902628011634,-0.7703866120905652,0.4502398667519281,0.2860191632959901,-0.0025547091788267,-0.0170905268271872,0.1092468993053207,0.2740918566778593,IDEL,chromosomes,MSH4_HUMAN
MSH4_HUMAN_5,0.0,0.0,0.0,0.1111111111111111,0.1111111111111111,0.0,0.2222222222222222,0.0,0.1111111111111111,0.0,0.0,0.1111111111111111,0.0,0.1111111111111111,0.0,0.0,0.0,0.2222222222222222,0.0,0.0,0.0,0.0,0.0,0.0,0.0,0.0,0.0,0.0,0.0,0.0,0.0,0.0,0.0,0.0,0.0,0.6931471805599453,0.0,1.0,1.0,0.0,0.0,0.0,0.0,1.0,-1.0666666666666669,1.0,0.0,0.0,0.0,0.0,0.0,0.0,0.0,0.0,0.0,0.0,0.0,0.0,0.0,0.0,0.0,0.0,0.0,0.0,0.0,0.0,0.0,0.0,0.0,0.0,0.0,0.0,0.0,0.0,0.0,0.0,0.0,0.0,0.0,0.0,0.0,0.0,0.0,0.0,0.0,0.0,0.0,0.0,0.0,0.0,1.0,0.0,0.0,0.0,0.0,0.0,2.0,1.0,0.0,0.0,-0.6931471805599453,0.0,0.0,0.0,0.0,0.0,0.0,0.0,0.0,0.0,0.0,0.0,0.1111111111111111,0.2222222222222222,0.1111111111111111,0.1111111111111111,0.2222222222222222,1.2683925687735085,-1.055339673573801,-0.674993215998008,0.5555555555555556,0.2222222222222222,6.920879364013672,0.0,0.4444444444444444,-0.2484519974999766,0.0969101133325636,0.0990555254530388,4.554941628599054,16.142881361635066,0.3946717472555866,0.3433474559503267,0.0574853606215274,0.1644600913252966,0.1343682908525753,-0.5052537164779883,0.1182661153079207,0.2172835440117939,-0.1478679264527726,-0.3311785821892612,0.1587057502144091,0.2785071592126028,HFEVQHVKN,chromosomes,MSH4_HUMAN
MSH4_HUMAN_6,0.2222222222222222,0.0,0.0,0.1111111111111111,0.0,0.1111111111111111,0.0,0.0,0.2222222222222222,0.1111111111111111,0.0,0.1111111111111111,0.0,0.0,0.0,0.0,0.0,0.0,0.0,0.1111111111111111,0.0,0.0,0.0,0.0,0.0,0.0,0.0,0.0,0.0,0.0,0.0,0.0,0.0,0.0,0.0,0.6931471805599453,0.0,1.0,1.0,0.0,0.0,0.0,1.0,4.0,-1.011111111111111,2.0,0.0,0.0,0.0,0.0,0.0,0.0,0.0,0.0,0.0,0.0,0.0,0.0,0.0,0.0,0.0,0.0,0.0,0.0,0.0,0.0,0.0,0.0,0.0,0.0,0.0,0.0,0.0,0.0,0.0,0.0,0.0,0.0,0.0,0.0,0.0,0.0,0.0,0.0,0.0,0.0,0.0,0.0,0.0,0.0,1.0,0.0,0.0,0.0,0.0,0.0,1.0,0.0,0.0,1.0,-1.0986122886681098,1.0,0.0,0.0,1.0,0.0,0.0,0.0,0.0,0.0,0.0,0.0,0.1111111111111111,0.3333333333333333,0.1111111111111111,0.2222222222222222,0.3333333333333333,1.2683925687735085,-0.5166884865296214,-1.0328576976992936,0.6666666666666666,0.3333333333333333,8.497577667236328,1.0,0.2222222222222222,-0.2582677727572531,0.0478769085411584,0.098327341490648,4.501100115297464,14.421556319611357,0.5127943433173044,0.1125377774095229,0.0634187181466905,0.2193426046205279,-0.1305319181582863,-0.2821706495047255,0.1103139428175402,0.1729953683198951,-0.1672907379098491,-0.3651832855159432,0.1200189976679896,0.3674440767062161,KNYGLKAAE,chromosomes,MSH4_HUMAN
MSH4_HUMAN_7,0.2,0.0,0.2,0.0,0.0,0.0,0.0,0.2,0.0,0.2,0.0,0.0,0.0,0.0,0.0,0.0,0.0,0.2,0.0,0.0,0.0,0.0,0.0,0.0,0.0,0.0,0.0,0.0,0.0,0.0,0.0,0.0,0.0,0.0,1.0,-0.6931471805599453,0.0,0.0,0.0,0.0,0.0,0.0,0.0,1.0,2.16,0.0,0.0,0.0,0.0,0.0,0.0,0.0,0.0,0.0,0.0,0.0,0.0,0.0,0.0,0.0,0.0,0.0,0.0,0.0,0.0,0.0,0.0,0.0,0.0,0.0,0.0,0.0,0.0,0.0,0.0,0.0,0.0,0.0,0.0,0.0,0.0,0.0,0.0,0.0,0.0,0.0,0.0,0.0,0.0,0.0,0.0,0.0,0.0,0.0,0.0,0.0,0.0,0.0,0.0,0.0,0.0,0.0,0.0,0.0,0.0,0.0,0.0,0.0,0.0,0.0,0.0,0.0,0.2,0.8,0.0,0.0,0.2,0.9574983485564094,0.0,0.0,0.4,0.2,3.799793243408203,-1.0,0.0,0.0,0.0283946735002121,0.0320706779103553,3.694640337614265,15.68191070910685,0.4033353148663898,0.3773314977657057,0.0369111338779602,0.1347245564138973,0.1869318771381602,-0.599791630878244,0.1686556967738097,0.1580026806083749,-0.0289891910699584,-0.0920602081893808,0.1378507416035897,0.327626677874571,IVLDA,chromosomes,MSH4_HUMAN
RRP8_HUMAN_0,0.1135531135531135,0.0256410256410256,0.0402930402930402,0.0879120879120879,0.0183150183150183,0.0476190476190476,0.0219780219780219,0.0109890109890109,0.1135531135531135,0.0549450549450549,0.0073260073260073,0.0293040293040293,0.0989010989010989,0.0695970695970696,0.0769230769230769,0.0989010989010989,0.0329670329670329,0.0329670329670329,0.0109890109890109,0.0073260073260073,0.0,0.0,0.0,0.0,0.0,1.0,0.0,0.0,0.0,0.0,0.0,0.0,2.0,2.0,11.0,0.7339691750802005,0.0,24.0,18.0,0.0,0.0,0.0,13.0,89.0,-1.2227106227106228,31.0,0.0,0.0,0.0,0.0,0.0,0.0,0.0,0.0,0.0,0.0,0.0,0.0,0.0,0.0,0.0,0.0,0.0,0.0,1.0,1.0,0.0,0.0,0.0,1.0,0.0,0.0,0.0,1.0,0.0,1.0,3.0,2.0,0.0,3.0,0.0,0.0,2.0,1.0,0.0,0.0,0.0,2.0,0.0,0.0,8.0,0.0,48.0,63.0,0.0,27.0,27.0,19.0,0.0,34.0,-0.3746934494414107,23.0,21.0,0.0,40.0,48.0,27.0,0.0,2.0,0.0,0.0,6.0,0.1282051282051282,0.2197802197802197,0.0366300366300366,0.1904761904761904,0.4175824175824176,2.5944387705525576,3.986282737023806,-1.6331978508691394,0.8021978021978022,0.3186813186813186,9.650341033935549,17.0,0.326007326007326,1.901494626492204,0.0731570448315397,0.0790482254256808,4.950474765106854,14.360482747116343,0.4297238506358151,0.11905802409866,0.1199263037266512,0.2683125447538184,-0.0213040892192112,-0.3677833621076152,0.1918567188389048,0.222077166075874,-0.1072573684237984,-0.2120422617857796,0.1438221424958428,0.277133219389863,MFEEPEWAEAAPVAAGLGPVISRPPPAASSQNKGSKRRQLLATLRALEAASLSQHPPSLCISDSEEEEEERKKKCPKKASFASASAEVGKKGKKKCQKQGPPCSDSEEEVERKKKCHKQALVGSDSAEDEKRKRKCQKHAPINSAQHLDNVDQTGPKAWKGSTTNDPPKQSPGSTSPKPPHTLSRKQWRNRQKNKRRCKNKFQPPQVPDQAPAEAPTEKTEVSPVPRTDSHEARAGALRARMAQRLDGARFRYLNEQLYSGPSSAAQRLFQED,nucleolus,RRP8_HUMAN
RRP8_HUMAN_1,0.0714285714285714,0.0,0.1428571428571428,0.0,0.0,0.0,0.0,0.0714285714285714,0.0714285714285714,0.1428571428571428,0.0,0.0,0.1428571428571428,0.0714285714285714,0.1428571428571428,0.0,0.0,0.0714285714285714,0.0714285714285714,0.0,0.0,0.0,0.0,0.0,0.0,0.0,0.0,0.0,0.0,0.0,0.0,0.0,0.0,0.0,2.0,-1.0986122886681098,0.0,0.0,0.0,0.0,0.0,0.0,0.0,4.0,-0.6714285714285715,1.0,0.0,0.0,0.0,0.0,0.0,0.0,0.0,0.0,0.0,0.0,0.0,0.0,0.0,0.0,0.0,0.0,0.0,0.0,0.0,0.0,0.0,0.0,0.0,0.0,0.0,0.0,0.0,0.0,0.0,0.0,0.0,0.0,0.0,0.0,0.0,0.0,0.0,0.0,0.0,0.0,0.0,0.0,0.0,0.0,0.0,0.0,4.0,2.0,0.0,2.0,1.0,1.0,0.0,2.0,0.4054651081081644,2.0,2.0,0.0,0.0,2.0,0.0,0.0,0.0,0.0,0.0,0.0,0.1428571428571428,0.3571428571428571,0.0714285714285714,0.2142857142857142,0.5,1.601330890035636,-1.1790087374835134,-1.6971105832553268,0.6428571428571429,0.3571428571428571,8.745433807373047,1.0,0.0714285714285714,-0.142620159002292,0.0694474785116123,0.0958685354558916,5.065372450143425,15.707445812935395,0.4110157351423185,0.1378719998933667,0.109074936178964,0.2706403224685308,-0.1981673637333924,-0.3948386316302401,0.1637467099181328,0.259325822148638,-0.1868682599971549,-0.3503858226045486,0.1607253130042576,0.2418168111324575,KWPLQPVDRIARDL,nucleolus,RRP8_HUMAN
RRP8_HUMAN_2,0.3333333333333333,0.0,0.0,0.0,0.0,0.0,0.0,0.0,0.3333333333333333,0.0,0.0,0.0,0.3333333333333333,0.0,0.0,0.0,0.0,0.0,0.0,0.0,0.0,0.0,0.0,0.0,0.0,0.0,0.0,0.0,0.0,0.0,0.0,0.0,0.0,0.0,0.0,0.0,0.0,0.0,0.0,0.0,0.0,0.0,0.0,3.0,-1.2333333333333334,1.0,0.0,0.0,0.0,0.0,0.0,0.0,0.0,0.0,0.0,0.0,0.0,0.0,0.0,0.0,0.0,0.0,0.0,0.0,0.0,0.0,0.0,0.0,0.0,0.0,0.0,0.0,0.0,0.0,0.0,0.0,0.0,0.0,0.0,0.0,0.0,0.0,0.0,0.0,0.0,0.0,0.0,0.0,0.0,0.0,0.0,0.0,1.0,1.0,0.0,1.0,0.0,0.0,0.0,0.0,-0.6931471805599453,0.0,0.0,0.0,0.0,0.0,0.0,0.0,0.0,0.0,0.0,0.0,0.0,0.3333333333333333,0.0,0.3333333333333333,0.6666666666666666,0.5972531564093518,0.0,-10.954545454545327,1.0,0.3333333333333333,8.75002670288086,1.0,0.0,0.0,0.0343551014363986,0.0336146897675107,6.804953560371517,13.089783281733746,0.4648377125193199,0.0812403400309119,0.1338354577056778,0.3146002317497103,-0.0906010928961748,-0.820327868852459,0.1662011173184357,0.2695530726256983,-0.1240258882578259,-0.302734117025492,0.1484339536995007,0.1141625056740808,PKA,nucleolus,RRP8_HUMAN
U3IP2_HUMAN_0,0.1560283687943262,0.0,0.0425531914893617,0.1702127659574468,0.0070921985815602,0.0921985815602836,0.0,0.0212765957446808,0.1063829787234042,0.0780141843971631,0.0141843971631205,0.0070921985815602,0.0283687943262411,0.0567375886524822,0.0992907801418439,0.0709219858156028,0.0141843971631205,0.0283687943262411,0.0,0.0070921985815602,0.0,0.0,0.0,0.0,0.0,0.0,0.0,0.0,0.0,1.0,0.0,0.0,0.0,0.0,6.0,1.2729656758128876,0.0,24.0,14.0,0.0,0.0,6.0,13.0,41.0,-1.148936170212766,15.0,0.0,0.0,0.0,0.0,0.0,0.0,0.0,0.0,0.0,0.0,0.0,0.0,0.0,0.0,0.0,0.0,0.0,0.0,0.0,0.0,0.0,0.0,0.0,1.0,0.0,0.0,0.0,0.0,0.0,0.0,1.0,2.0,0.0,1.0,0.0,0.0,0.0,0.0,0.0,0.0,0.0,0.0,0.0,2.0,1.0,0.0,18.0,16.0,0.0,4.0,9.0,8.0,0.0,27.0,-0.0645385211375711,15.0,14.0,0.0,23.0,24.0,10.0,0.0,2.0,1.0,0.0,1.0,0.2127659574468085,0.2978723404255319,0.0141843971631205,0.2056737588652482,0.4468085106382978,2.283303197467191,2.7281212050653547,0.7183835434937595,0.8368794326241135,0.4184397163120567,5.847583770751953,-1.0,0.2411347517730496,-3.129269604636794,0.0567618971008856,0.0714318589937226,4.72241650311371,14.548954430584214,0.5789335739283376,0.098484287879347,0.0598918206554099,0.1999156705224885,-0.1889860269707781,-0.3897080408742226,0.1549545975891331,0.2024046462072595,-0.0499918171869095,-0.1416887465978774,0.1057753479179379,0.4089150234554231,MSATAAARKRGKPASGAGAGAGAGKRRRKADSAGDRGKSKGGGKMNEEISSDSESESLAPRKPEEEEEEELEETAQEKKLRLAKLYLEQLRQQEEEKAEARAFEEDQVAGRLKEDVLEQRGRLQKLVAKEIQAPASADIRV,nucleolus,U3IP2_HUMAN
U3IP2_HUMAN_1,0.0869565217391304,0.0434782608695652,0.0,0.0434782608695652,0.0,0.1304347826086956,0.1304347826086956,0.0434782608695652,0.1304347826086956,0.0434782608695652,0.0,0.0,0.1304347826086956,0.0,0.0434782608695652,0.0869565217391304,0.0,0.0869565217391304,0.0,0.0,0.0,0.0,0.0,0.0,0.0,0.0,0.0,0.0,0.0,0.0,0.0,0.0,0.0,0.0,0.0,0.6931471805599453,0.0,1.0,3.0,0.0,0.0,0.0,3.0,8.0,-0.6130434782608696,3.0,0.0,0.0,0.0,0.0,0.0,0.0,0.0,0.0,0.0,0.0,0.0,0.0,0.0,0.0,0.0,0.0,0.0,0.0,0.0,0.0,0.0,0.0,0.0,0.0,0.0,0.0,0.0,0.0,0.0,0.0,0.0,0.0,0.0,0.0,0.0,0.0,0.0,0.0,0.0,0.0,0.0,0.0,0.0,0.0,0.0,5.0,4.0,5.0,0.0,3.0,0.0,0.0,0.0,4.0,-0.6931471805599453,1.0,1.0,0.0,5.0,3.0,2.0,0.0,0.0,0.0,0.0,0.0,0.0434782608695652,0.2608695652173913,0.0,0.1739130434782608,0.3478260869565217,1.841747658659666,-0.3596896987803148,-0.0615301936154705,0.782608695652174,0.217391304347826,9.787273406982422,3.0,0.391304347826087,0.1767171783585208,0.0571730991153553,0.077104550146477,4.748455846481489,13.27196983180931,0.2592959614290917,0.1855665157388247,0.1484306625059313,0.3344869439015927,0.1337761434639345,-0.4021314031980957,0.117451906487782,0.1977386878398575,-0.0624330425452575,-0.1555238352609471,0.188093178125675,0.1397210909532725,HVIPRAKKGAEGKPPGHSSHVLC,nucleolus,U3IP2_HUMAN
U3IP2_HUMAN_2,0.125,0.0,0.0,0.125,0.0,0.125,0.125,0.0,0.0,0.125,0.0,0.0,0.0,0.125,0.25,0.0,0.0,0.0,0.0,0.0,0.0,0.0,0.0,0.0,0.0,0.0,0.0,0.0,0.0,0.0,0.0,0.0,0.0,0.0,0.0,0.6931471805599453,0.0,1.0,1.0,0.0,0.0,0.0,1.0,1.0,-1.75,0.0,0.0,0.0,0.0,0.0,0.0,0.0,0.0,0.0,0.0,0.0,0.0,0.0,0.0,0.0,0.0,0.0,0.0,0.0,0.0,0.0,0.0,0.0,0.0,0.0,0.0,0.0,0.0,0.0,0.0,0.0,0.0,0.0,0.0,0.0,0.0,0.0,0.0,0.0,0.0,0.0,0.0,0.0,0.0,0.0,0.0,0.0,2.0,0.0,0.0,0.0,1.0,1.0,0.0,3.0,1.0986122886681098,2.0,2.0,0.0,1.0,2.0,0.0,0.0,0.0,0.0,0.0,0.0,0.125,0.25,0.0,0.25,0.375,1.238931965273163,-1.7409892531613471,-1.4032634243995268,0.875,0.375,9.60537338256836,1.0,0.375,-0.0983222793395764,0.0709271182041084,0.1113807477627379,4.687839020542261,14.764704067251468,0.53452299403953,0.1060640547384414,0.0596536435586861,0.2262658621930446,-0.2852268262755608,-0.3257245079935483,0.1322785453820851,0.2194542008792988,-0.0575502087499164,-0.1349278674585761,0.1060822200521083,0.3912244513468533,QREAHGLR,nucleolus,U3IP2_HUMAN
PGRP1_HUMAN_0,0.1666666666666666,0.3333333333333333,0.0,0.0,0.0,0.0,0.0,0.0,0.0,0.0,0.0,0.0,0.3333333333333333,0.0,0.0,0.1666666666666666,0.0,0.0,0.0,0.0,0.0,0.0,0.0,0.0,0.0,0.0,0.0,0.0,0.0,0.0,0.0,0.0,0.0,0.0,0.0,0.0,0.0,0.0,0.0,0.0,0.0,0.0,0.0,3.0,0.4666666666666666,0.0,0.0,0.0,0.0,0.0,0.0,0.0,0.0,0.0,0.0,0.0,0.0,0.0,0.0,0.0,0.0,0.0,0.0,0.0,0.0,0.0,0.0,0.0,0.0,0.0,0.0,0.0,0.0,0.0,0.0,0.0,0.0,0.0,0.0,0.0,0.0,0.0,0.0,0.0,0.0,0.0,0.0,0.0,0.0,0.0,0.0,0.0,2.0,3.0,0.0,2.0,0.0,0.0,0.0,0.0,0.0,0.0,0.0,0.0,1.0,1.0,1.0,0.0,0.0,0.0,0.0,0.0,0.0,0.1666666666666666,0.0,0.0,0.3333333333333333,0.8654928084817021,0.0,-1.5403585244631397,0.6666666666666666,0.0,5.511394500732422,0.0,0.5,0.0,0.0519562974273405,0.0730772014907754,3.816539647762891,14.238124257531211,0.2596757156924365,0.1531717860797349,0.137701831218291,0.353789091339281,0.1991440991408978,-0.2116674066626565,0.2513111444968834,0.1732039379555267,-0.0459630558168561,-0.1356093319937906,0.2011577537691779,0.0970502265092607,PACCSP,stress_granule,PGRP1_HUMAN
PGRP1_HUMAN_1,0.1538461538461538,0.1538461538461538,0.0,0.0,0.0,0.0,0.0,0.0,0.0,0.0,0.0,0.1538461538461538,0.0769230769230769,0.2307692307692307,0.0769230769230769,0.0769230769230769,0.0769230769230769,0.0,0.0,0.0,0.0,0.0,0.0,0.0,0.0,0.0,0.0,0.0,0.0,0.0,0.0,0.0,0.0,0.0,0.0,0.0,0.0,0.0,0.0,0.0,0.0,0.0,0.0,3.0,-1.2692307692307692,0.0,0.0,0.0,0.0,0.0,0.0,0.0,0.0,0.0,0.0,0.0,0.0,0.0,0.0,0.0,0.0,0.0,0.0,0.0,0.0,0.0,0.0,0.0,0.0,0.0,0.0,0.0,0.0,0.0,0.0,0.0,0.0,0.0,0.0,0.0,0.0,0.0,0.0,0.0,0.0,0.0,0.0,0.0,0.0,0.0,2.0,0.0,2.0,3.0,0.0,1.0,5.0,3.0,0.0,1.0,0.6931471805599453,1.0,1.0,0.0,1.0,2.0,1.0,0.0,0.0,0.0,0.0,0.0,0.0,0.1538461538461538,0.0,0.0769230769230769,0.1538461538461538,1.4369971417088871,0.0,-1.615820168227906,0.6923076923076923,0.0769230769230769,8.072093963623047,1.0,0.6923076923076923,0.0,0.0892347111723891,0.0983936885528813,4.992502268109835,14.841348709196229,0.4700584567029203,0.0922028896457957,0.1048414428335534,0.2833313243836107,-0.0866484227843047,-0.2445027813403788,0.2507876432148518,0.2939003169172459,-0.0573764656458099,-0.1462054721130303,0.1309677193486589,0.3258142980887344,CNTPASCQQQARN,stress_granule,PGRP1_HUMAN
PGRP1_HUMAN_2,0.0,0.0,0.0909090909090909,0.0,0.0,0.0909090909090909,0.0909090909090909,0.0,0.0909090909090909,0.1818181818181818,0.0,0.0,0.0,0.0909090909090909,0.1818181818181818,0.0,0.0909090909090909,0.0909090909090909,0.0,0.0,0.0,0.0,0.0,0.0,0.0,0.0,0.0,0.0,0.0,0.0,0.0,0.0,0.0,0.0,1.0,-0.6931471805599453,0.0,0.0,1.0,0.0,0.0,0.0,1.0,1.0,-1.1272727272727272,1.0,0.0,0.0,0.0,0.0,0.0,0.0,0.0,0.0,0.0,0.0,0.0,0.0,0.0,0.0,0.0,0.0,0.0,0.0,0.0,0.0,0.0,0.0,0.0,0.0,0.0,0.0,0.0,0.0,0.0,0.0,0.0,0.0,0.0,0.0,0.0,0.0,0.0,0.0,0.0,0.0,0.0,0.0,0.0,0.0,0.0,0.0,2.0,1.0,0.0,0.0,1.0,1.0,0.0,3.0,0.4054651081081644,2.0,2.0,0.0,1.0,2.0,0.0,0.0,0.0,0.0,0.0,0.0,0.0909090909090909,0.2727272727272727,0.0,0.2727272727272727,0.3636363636363636,1.465092134977636,-1.2480555405546612,-0.9527640045752296,0.7272727272727273,0.3636363636363636,10.835041046142578,2.0,0.3636363636363636,0.1496137555513264,0.0834321769683731,0.1089453145942526,5.284863932446683,14.850007376199612,0.3895328994818433,0.1730134030250991,0.0853332317832477,0.2879268545815099,-0.2270322166799465,-0.508923557581438,0.2389930754899265,0.3248136660284866,-0.0769431275688508,-0.1855133747028541,0.1567730592619411,0.2523926328817011,LKGHRDVQRTL,stress_granule,PGRP1_HUMAN
RPP40_HUMAN_0,0.3333333333333333,0.0,0.0,0.0,0.0,0.0,0.0,0.0,0.0,0.0,0.3333333333333333,0.0,0.0,0.0,0.0,0.0,0.3333333333333333,0.0,0.0,0.0,0.0,0.0,0.0,0.0,0.0,0.0,0.0,0.0,0.0,0.0,0.0,0.0,0.0,0.0,0.0,0.0,0.0,0.0,0.0,0.0,0.0,0.0,0.0,1.0,1.0,0.0,0.0,0.0,0.0,0.0,0.0,0.0,0.0,0.0,0.0,0.0,0.0,0.0,0.0,0.0,0.0,0.0,0.0,0.0,0.0,0.0,0.0,0.0,0.0,0.0,0.0,0.0,0.0,0.0,0.0,0.0,0.0,0.0,0.0,0.0,0.0,0.0,0.0,0.0,0.0,0.0,0.0,0.0,0.0,0.0,0.0,0.0,0.0,1.0,0.0,0.0,0.0,0.0,0.0,0.0,0.0,0.0,0.0,0.0,0.0,0.0,0.0,0.0,0.0,0.0,0.0,0.0,0.0,0.6666666666666666,0.0,0.0,0.0,0.5972531564093518,0.0,0.0,0.6666666666666666,0.0,5.525012969970703,0.0,0.3333333333333333,0.0,0.0291438356164383,0.0420205479452054,3.1029232643118148,13.683922046285018,0.5256882722740083,0.2003034901365705,0.0659848559347035,0.246140230111122,0.0616473484459944,-0.198994768694225,0.0506998444790046,0.0923794712286158,-0.0314338235294117,-0.0939338235294117,0.1213195622013257,0.3023739787266841,MAT,nucleolus,RPP40_HUMAN
RPP40_HUMAN_1,0.0,0.25,0.0,0.25,0.0,0.0,0.0,0.0,0.25,0.0,0.0,0.0,0.0,0.0,0.0,0.25,0.0,0.0,0.0,0.0,0.0,0.0,0.0,0.0,0.0,0.0,0.0,0.0,0.0,0.0,0.0,0.0,0.0,0.0,0.0,0.6931471805599453,0.0,1.0,0.0,0.0,0.0,0.0,0.0,1.0,-1.425,1.0,0.0,0.0,0.0,0.0,0.0,0.0,0.0,0.0,0.0,0.0,0.0,0.0,0.0,0.0,0.0,0.0,0.0,0.0,0.0,0.0,0.0,0.0,0.0,0.0,0.0,0.0,0.0,0.0,0.0,0.0,0.0,0.0,0.0,0.0,0.0,0.0,0.0,0.0,0.0,0.0,0.0,0.0,0.0,0.0,0.0,0.0,0.0,1.0,0.0,0.0,0.0,0.0,0.0,0.0,-0.6931471805599453,0.0,0.0,0.0,1.0,1.0,1.0,0.0,0.0,0.0,0.0,0.0,0.25,0.0,0.0,0.25,0.5,0.7945134575869862,-1.370688833684684,-3.810003810005715,0.75,0.5,5.994289398193359,0.0,0.5,-0.25,0.0650286804604856,0.0473356788012738,5.459243777919591,13.34724952137843,0.4957548663548762,0.0918992798009326,0.0720727592687733,0.2366737005480642,-0.3665248845748354,-0.5286659986548878,0.1616269619359133,0.2423815566672935,-0.1084729849416484,-0.138285161088595,0.1238617671248971,0.329007977112429,CEKS,nucleolus,RPP40_HUMAN
RPP40_HUMAN_2,0.0,0.0,0.0,0.0,0.0,0.0,0.4,0.0,0.0,0.0,0.0,0.0,0.0,0.0,0.4,0.2,0.0,0.0,0.0,0.0,0.0,0.0,0.0,0.0,0.0,0.0,0.0,0.0,0.0,0.0,0.0,0.0,0.0,0.0,0.0,0.0,0.0,0.0,0.0,0.0,0.0,0.0,0.0,0.0,-3.24,0.0,0.0,0.0,0.0,0.0,0.0,0.0,0.0,0.0,0.0,0.0,0.0,0.0,0.0,0.0,0.0,0.0,0.0,0.0,0.0,0.0,0.0,0.0,0.0,0.0,0.0,0.0,0.0,0.0,0.0,0.0,0.0,0.0,0.0,0.0,0.0,0.0,0.0,0.0,0.0,0.0,0.0,0.0,0.0,0.0,0.0,0.0,2.0,1.0,0.0,0.0,0.0,0.0,0.0,2.0,1.0986122886681098,2.0,2.0,0.0,1.0,3.0,1.0,0.0,0.0,0.0,0.0,0.0,0.0,0.0,0.0,0.4,0.4,0.6802394763324313,-2.229842903820651,-2.229842903820651,1.0,0.4,12.00003433227539,2.0,0.6,0.282842712474619,0.1313103115604909,0.2102671931390465,6.39499050937174,16.24393755328171,0.3988133037024919,0.1329899398658122,0.0970514434948907,0.3139205402277441,-0.1892463467659379,-0.8176822493974468,0.2204261725049917,0.5113875118290204,-0.1414433523067766,-0.3438676410936956,0.1452263515415873,0.2439942825711345,SRHRH,nucleolus,RPP40_HUMAN
RPP40_HUMAN_3,0.0,0.0,0.0,0.2,0.0,0.2,0.1,0.0,0.0,0.1,0.0,0.0,0.1,0.1,0.0,0.0,0.1,0.0,0.0,0.1,0.0,0.0,0.0,0.0,0.0,0.0,0.0,0.0,0.0,0.0,0.0,0.0,0.0,0.0,0.0,1.0986122886681098,0.0,2.0,2.0,0.0,0.0,0.0,2.0,1.0,-1.4300000000000002,0.0,0.0,0.0,0.0,0.0,0.0,0.0,0.0,0.0,0.0,0.0,0.0,0.0,0.0,0.0,0.0,0.0,0.0,0.0,0.0,0.0,0.0,0.0,0.0,0.0,0.0,0.0,0.0,0.0,0.0,0.0,0.0,0.0,0.0,0.0,0.0,0.0,0.0,0.0,0.0,0.0,0.0,0.0,0.0,0.0,0.0,0.0,1.0,2.0,0.0,1.0,1.0,1.0,0.0,2.0,0.0,1.0,0.0,0.0,2.0,0.0,0.0,0.0,0.0,0.0,0.0,0.0,0.2,0.1,0.1,0.0,0.3,1.3718118211955623,-0.5192036070228843,-2.309518818227944,0.8,0.2,4.507205963134766,-2.0,0.5,0.1,0.0855001103726432,0.0991102072920065,4.872460615498214,13.88205418093336,0.3044217109941621,0.117194327923358,0.115592133508297,0.3674081113290812,-0.024307698151045,-0.325167921072675,0.2644832755967823,0.237378001795445,-0.0172501426829981,-0.0778752755378544,0.161286533268851,0.1866077157452453,YEETGLQGHP,nucleolus,RPP40_HUMAN
RPP40_HUMAN_4,0.0,0.0,0.0,0.0,0.25,0.0,0.0,0.0,0.0,0.0,0.0,0.0,0.0,0.0,0.0,0.5,0.0,0.0,0.0,0.25,0.0,0.0,0.0,0.0,0.0,0.0,0.0,0.0,0.0,0.0,0.0,0.0,0.0,0.0,0.0,0.0,0.0,0.0,1.0,0.0,0.0,0.0,0.0,0.0,-0.025,0.0,0.0,0.0,0.0,0.0,0.0,0.0,0.0,0.0,0.0,0.0,0.0,0.0,0.0,0.0,0.0,0.0,0.0,0.0,0.0,0.0,0.0,0.0,0.0,0.0,0.0,0.0,0.0,0.0,0.0,0.0,0.0,0.0,0.0,0.0,0.0,0.0,0.0,0.0,0.0,0.0,0.0,0.0,0.0,0.0,0.0,0.0,0.0,2.0,0.0,0.0,0.0,0.0,0.0,0.0,0.0,1.0,0.0,0.0,2.0,2.0,2.0,0.0,0.0,0.0,0.0,0.0,0.0,0.0,0.5,0.0,0.0,0.621226662447,0.0,0.0,0.5,0.0,5.524318695068359,0.0,0.5,0.0,0.1757836068926727,0.2889498953545163,4.236515408540153,19.10224695562677,0.3850563141923436,0.3386326500297089,0.0752121627695166,0.1831624935106269,0.2825490853680765,-0.3717797714088515,0.0696697310937447,0.2073466211634447,-0.8197900617524367,-1.7323500876536744,0.1729192263675022,0.2246823100271376,SYFS,nucleolus,RPP40_HUMAN
RPP40_HUMAN_5,0.0,0.0,0.0,0.5,0.0,0.0,0.0,0.0,0.25,0.0,0.0,0.25,0.0,0.0,0.0,0.0,0.0,0.0,0.0,0.0,0.0,0.0,0.0,0.0,0.0,0.0,0.0,0.0,0.0,0.0,0.0,0.0,0.0,0.0,0.0,1.0986122886681098,0.0,2.0,0.0,0.0,0.0,0.0,0.0,1.0,-3.6,1.0,0.0,0.0,0.0,0.0,0.0,0.0,0.0,0.0,0.0,0.0,0.0,0.0,0.0,0.0,0.0,0.0,0.0,0.0,0.0,0.0,0.0,0.0,0.0,0.0,0.0,0.0,0.0,0.0,0.0,0.0,0.0,0.0,0.0,0.0,0.0,0.0,0.0,0.0,0.0,0.0,0.0,0.0,0.0,0.0,1.0,0.0,0.0,0.0,0.0,0.0,1.0,0.0,0.0,0.0,-0.6931471805599453,0.0,0.0,0.0,0.0,0.0,0.0,0.0,0.0,0.0,0.0,0.0,0.5,0.0,0.0,0.25,0.75,0.621226662447,-1.9343656065818704,-18.430083288547795,0.75,0.75,4.531398773193359,-1.0,0.25,-0.1705406887010545,0.0725305200145917,0.0585538612858304,5.738067307331356,13.731988083469933,0.4157926099648607,0.0753816898214381,0.0841559427266099,0.3103317829060675,-0.2770567693949014,-0.4011521704996171,0.2885986463629095,0.2744876210295649,-0.1088410117054252,-0.1919097298055413,0.124206689862204,0.2526333762851502,EKNE,nucleolus,RPP40_HUMAN
PIAS1_HUMAN_0,0.2,0.0,0.1,0.1,0.0,0.0,0.0,0.0,0.1,0.1,0.2,0.0,0.0,0.1,0.0,0.1,0.0,0.0,0.0,0.0,0.0,0.0,0.0,0.0,0.0,0.0,0.0,0.0,0.0,0.0,0.0,0.0,0.0,0.0,1.0,0.0,0.0,1.0,0.0,0.0,0.0,0.0,0.0,3.0,-0.4,1.0,0.0,0.0,0.0,0.0,0.0,0.0,0.0,0.0,0.0,0.0,0.0,0.0,0.0,0.0,0.0,0.0,0.0,0.0,0.0,0.0,0.0,0.0,0.0,0.0,0.0,0.0,0.0,0.0,0.0,0.0,0.0,0.0,0.0,0.0,0.0,0.0,0.0,0.0,0.0,0.0,0.0,0.0,0.0,1.0,0.0,0.0,0.0,1.0,0.0,0.0,1.0,1.0,0.0,0.0,-0.6931471805599453,0.0,0.0,0.0,1.0,1.0,1.0,0.0,0.0,0.0,0.0,0.0,0.2,0.5,0.0,0.1,0.3,1.3718118211955623,-0.4476316456284508,-0.7655060769822183,0.7,0.3,4.370273590087891,-1.0,0.2,-0.1918230732304007,0.0431557570766259,0.0549018511667617,4.730354191746646,14.524593120893702,0.6048794608660666,0.0867074288892349,0.0540129727849869,0.1988336878803434,-0.2654460640924078,-0.3463180588880202,0.2218667798724246,0.2113270971481478,-0.0375116044064142,-0.0935485344070027,0.0956103674157056,0.408239487762963,MADSAELKQM,nuclear_speckle,PIAS1_HUMAN
PIAS1_HUMAN_1,0.0909090909090909,0.0,0.0,0.0454545454545454,0.0,0.1363636363636363,0.1363636363636363,0.0,0.1363636363636363,0.2272727272727272,0.0,0.0454545454545454,0.0,0.0,0.0909090909090909,0.0,0.0454545454545454,0.0,0.0,0.0454545454545454,0.0,0.0,0.0,0.0,0.0,0.0,0.0,0.0,0.0,0.0,0.0,0.0,0.0,0.0,0.0,0.6931471805599453,0.0,1.0,3.0,0.0,0.0,0.0,3.0,5.0,-0.8136363636363637,3.0,0.0,0.0,0.0,0.0,0.0,0.0,0.0,0.0,0.0,0.0,0.0,0.0,0.0,0.0,0.0,0.0,0.0,0.0,0.0,0.0,0.0,0.0,0.0,0.0,0.0,0.0,0.0,0.0,0.0,0.0,0.0,0.0,0.0,0.0,0.0,0.0,0.0,0.0,0.0,0.0,0.0,0.0,0.0,0.0,1.0,0.0,2.0,1.0,0.0,0.0,1.0,0.0,0.0,5.0,-0.2876820724517809,3.0,2.0,0.0,3.0,2.0,0.0,0.0,0.0,1.0,0.0,0.0,0.0454545454545454,0.3181818181818182,0.0454545454545454,0.2272727272727272,0.2727272727272727,1.6782780381931417,-0.3730291450398283,0.2238927162574854,0.6818181818181818,0.2727272727272727,10.446834564208984,4.0,0.3636363636363636,0.5513300537230683,0.0604497972635454,0.101607108646389,4.699331276011113,14.707162536827752,0.4502098578054717,0.140101502688589,0.0816245522797369,0.2649260980677727,-0.1055851409986264,-0.4257242236215219,0.165498493765916,0.2385248549804388,-0.11287707044635,-0.2509088166441483,0.1380056792658907,0.3005262791844493,LLGYAGRNKHGRKHELLTKALH,nuclear_speckle,PIAS1_HUMAN
PIAS1_HUMAN_2,0.0,0.0,0.0,0.1666666666666666,0.0,0.0,0.0,0.0,0.1666666666666666,0.1666666666666666,0.0,0.0,0.0,0.0,0.3333333333333333,0.0,0.0,0.0,0.0,0.1666666666666666,0.0,0.0,0.0,0.0,0.0,0.0,0.0,0.0,0.0,0.0,0.0,0.0,0.0,0.0,0.0,0.6931471805599453,0.0,1.0,0.0,0.0,0.0,0.0,0.0,1.0,-2.316666666666667,1.0,0.0,0.0,0.0,0.0,0.0,0.0,0.0,0.0,0.0,0.0,0.0,0.0,0.0,0.0,0.0,0.0,0.0,0.0,0.0,0.0,0.0,0.0,0.0,0.0,0.0,0.0,0.0,0.0,0.0,0.0,0.0,0.0,0.0,0.0,0.0,0.0,0.0,0.0,0.0,0.0,0.0,0.0,0.0,0.0,0.0,0.0,2.0,0.0,0.0,0.0,0.0,0.0,0.0,2.0,0.4054651081081644,3.0,2.0,0.0,0.0,2.0,0.0,0.0,1.0,0.0,0.0,0.0,0.1666666666666666,0.1666666666666666,0.1666666666666666,0.5,0.6666666666666666,0.9810173385750264,-1.536483308714116,-7.681750941071949,0.6666666666666666,0.6666666666666666,9.986156463623049,2.0,0.0,0.0840028616551521,0.0905487590957278,0.1236084151766728,4.590486810911382,17.42889145285617,0.6188282408351442,0.1827957124997393,0.0447584591309238,0.1165797140277952,-0.2037839526155669,-0.5173825755193608,0.1283044760360646,0.2726061245507117,-0.3030561610058851,-0.6054578489090399,0.1013852033162271,0.4482868755831373,KELYRR,nuclear_speckle,PIAS1_HUMAN
PIAS1_HUMAN_3,0.0606060606060606,0.0,0.0303030303030303,0.0303030303030303,0.0,0.0303030303030303,0.0757575757575757,0.0454545454545454,0.0303030303030303,0.1666666666666666,0.0303030303030303,0.0151515151515151,0.1818181818181818,0.0303030303030303,0.0,0.1363636363636363,0.0757575757575757,0.0454545454545454,0.0,0.0151515151515151,0.0,0.0,0.0,0.0,0.0,0.0,0.0,0.0,0.0,0.0,0.0,0.0,0.0,4.0,2.0,0.0,0.0,2.0,2.0,0.0,0.0,0.0,2.0,18.0,-0.0212121212121212,2.0,0.0,0.0,0.0,0.0,0.0,0.0,0.0,0.0,0.0,0.0,0.0,0.0,0.0,0.0,0.0,0.0,0.0,0.0,0.0,0.0,0.0,0.0,0.0,0.0,0.0,0.0,0.0,0.0,0.0,0.0,1.0,0.0,0.0,1.0,0.0,0.0,0.0,0.0,0.0,0.0,1.0,4.0,1.0,0.0,1.0,0.0,12.0,26.0,0.0,12.0,3.0,2.0,0.0,2.0,-1.0986122886681098,1.0,0.0,0.0,11.0,9.0,9.0,0.0,0.0,0.0,0.0,0.0,0.0606060606060606,0.3484848484848485,0.0151515151515151,0.0303030303030303,0.2727272727272727,2.1628098838669425,-0.2639279143830625,-0.1976939729911554,0.6818181818181818,0.0909090909090909,6.160381317138672,-2.0,0.3636363636363636,-0.0091526329549829,0.0507005741396297,0.0655153935186227,4.783780485777546,14.1821500231862,0.236846049724591,0.1657800806187869,0.1575182836569513,0.3237313281610428,0.1244555845530611,-0.2947596086122405,0.202444227758118,0.1990699869923607,-0.0475724706922248,-0.1666846991987164,0.1855261968761086,0.1218992253478418,QKIMTPADLSIPNVHSSPMPATLSPSTIPQLTYDGHPASSPLLPVSLLGPKHELELPHLTSALHPV,nuclear_speckle,PIAS1_HUMAN
PIAS1_HUMAN_4,0.1,0.0,0.1,0.0,0.0,0.0,0.0,0.0,0.1,0.1,0.0,0.1,0.1,0.0,0.0,0.3,0.1,0.0,0.0,0.0,0.0,0.0,0.0,0.0,0.0,0.0,0.0,0.0,0.0,0.0,0.0,0.0,0.0,0.0,1.0,-0.6931471805599453,0.0,0.0,0.0,0.0,0.0,0.0,0.0,3.0,-1.0,1.0,0.0,0.0,0.0,0.0,0.0,0.0,0.0,0.0,0.0,0.0,0.0,0.0,0.0,0.0,0.0,0.0,0.0,0.0,0.0,0.0,0.0,0.0,0.0,0.0,0.0,0.0,0.0,0.0,0.0,0.0,1.0,0.0,0.0,0.0,0.0,0.0,0.0,0.0,0.0,0.0,0.0,0.0,0.0,0.0,1.0,0.0,1.0,5.0,0.0,1.0,1.0,0.0,0.0,0.0,-0.6931471805599453,0.0,0.0,0.0,3.0,3.0,3.0,0.0,0.0,0.0,0.0,0.0,0.1,0.2,0.0,0.1,0.3,1.331265310384746,-1.006366813070057,-2.309518818227944,0.8,0.2,5.835674285888672,0.0,0.5,-0.2645751311064591,0.0464835976613307,0.0645525422802194,4.877690129948656,13.664643342943265,0.3176847218453569,0.1294803939811528,0.1207677649138194,0.3612588674642443,0.1219158842873852,-0.2700279988563397,0.3236718918090757,0.2317622344606902,-0.0473084420900847,-0.0879337910847388,0.1688822163270316,0.1466620262928664,KPTSLASDNS,nuclear_speckle,PIAS1_HUMAN
PIAS1_HUMAN_5,0.0,0.3333333333333333,0.0,0.3333333333333333,0.0,0.0,0.0,0.0,0.0,0.0,0.0,0.0,0.0,0.0,0.0,0.0,0.3333333333333333,0.0,0.0,0.0,0.0,0.0,0.0,0.0,0.0,0.0,0.0,0.0,0.0,0.0,0.0,0.0,0.0,0.0,0.0,0.6931471805599453,0.0,1.0,0.0,0.0,0.0,0.0,0.0,0.0,-0.5666666666666667,0.0,0.0,0.0,0.0,0.0,0.0,0.0,0.0,0.0,0.0,0.0,0.0,0.0,0.0,0.0,0.0,0.0,0.0,0.0,0.0,0.0,0.0,0.0,0.0,0.0,0.0,0.0,0.0,0.0,0.0,0.0,0.0,0.0,0.0,0.0,0.0,0.0,0.0,0.0,0.0,0.0,0.0,0.0,0.0,0.0,0.0,0.0,0.0,1.0,0.0,0.0,0.0,0.0,0.0,0.0,0.0,0.0,0.0,0.0,0.0,0.0,0.0,0.0,0.0,0.0,0.0,0.0,0.3333333333333333,0.0,0.0,0.0,0.3333333333333333,0.5972531564093518,0.0,0.0,0.6666666666666666,0.3333333333333333,3.9996376037597656,-1.0,0.6666666666666666,0.0,0.0330658105939004,0.0331728196896736,4.236263736263736,14.28021978021978,0.4475909053599278,0.1655585652138225,0.0881989114299851,0.2342899554675903,0.0253813155386081,-0.2331982840800762,0.477325853202431,0.1944834034595605,-0.0561883067577828,-0.0508731966590736,0.1221025138752856,0.2554684949396017,ETC,nuclear_speckle,PIAS1_HUMAN
PIAS1_HUMAN_6,0.0,0.0,0.1111111111111111,0.0,0.0,0.0,0.0,0.2222222222222222,0.0,0.0,0.1111111111111111,0.0,0.0,0.2222222222222222,0.0,0.3333333333333333,0.0,0.0,0.0,0.0,0.0,0.0,0.0,0.0,0.0,0.0,0.0,0.0,0.0,0.0,0.0,0.0,0.0,0.0,1.0,-0.6931471805599453,0.0,0.0,0.0,0.0,0.0,0.0,0.0,0.0,-0.2222222222222222,0.0,0.0,0.0,0.0,0.0,0.0,0.0,0.0,0.0,0.0,0.0,0.0,0.0,0.0,0.0,0.0,0.0,0.0,0.0,0.0,0.0,0.0,0.0,0.0,0.0,0.0,0.0,0.0,0.0,0.0,0.0,0.0,0.0,0.0,0.0,0.0,0.0,0.0,0.0,0.0,0.0,0.0,0.0,0.0,0.0,0.0,0.0,0.0,3.0,0.0,0.0,2.0,2.0,0.0,0.0,0.0,0.0,0.0,0.0,3.0,3.0,3.0,0.0,0.0,0.0,0.0,0.0,0.1111111111111111,0.3333333333333333,0.0,0.0,0.1111111111111111,1.0693081833037246,0.0,0.0,0.6666666666666666,0.1111111111111111,3.799793243408203,-1.0,0.5555555555555556,0.0,0.0460553627714972,0.0638560877683074,4.443815484013523,14.320501141122111,0.3562693077083571,0.2121278342860651,0.0726197803280424,0.2676430912935925,0.111606747660471,-0.3706415172069842,0.2751969294967634,0.2503849649214116,-0.03648720252951,-0.0960728725758435,0.1462923866245509,0.2340751543441105,QQISSSMDI,nuclear_speckle,PIAS1_HUMAN
PIAS1_HUMAN_7,0.0,0.125,0.0,0.0,0.125,0.0,0.125,0.0,0.0,0.125,0.0,0.125,0.25,0.0,0.0,0.0,0.0,0.125,0.0,0.0,0.0,0.0,0.0,0.0,0.0,0.0,0.0,0.0,0.0,0.0,0.0,0.0,0.0,0.0,0.0,0.0,0.0,0.0,1.0,0.0,0.0,0.0,0.0,2.0,0.4249999999999999,0.0,0.0,0.0,0.0,0.0,0.0,0.0,0.0,0.0,0.0,0.0,0.0,0.0,0.0,0.0,0.0,0.0,0.0,0.0,0.0,0.0,0.0,0.0,0.0,0.0,0.0,0.0,0.0,0.0,0.0,0.0,0.0,0.0,0.0,0.0,0.0,0.0,0.0,0.0,0.0,0.0,0.0,0.0,0.0,0.0,1.0,0.0,2.0,2.0,0.0,2.0,1.0,0.0,0.0,0.0,0.0,0.0,0.0,0.0,0.0,0.0,0.0,0.0,0.0,0.0,0.0,0.0,0.0,0.25,0.125,0.0,0.25,1.238931965273163,0.0,-0.8732500598935039,0.375,0.0,6.731876373291016,0.0,0.375,0.0,0.090012454755473,0.0871204620235707,4.428129172500273,14.962495959933584,0.1964412080813865,0.1625877885642752,0.1708523868007788,0.3974876859422889,0.0814775677844069,-0.2165155174694806,0.1595846841629677,0.1768199216690204,-0.2257275400908634,-0.4257959319988573,0.1788161366545795,0.1258481050573245,HFPPNLCV,nuclear_speckle,PIAS1_HUMAN
PIAS1_HUMAN_8,0.0,0.0,0.0,0.0357142857142857,0.0,0.0714285714285714,0.0,0.0714285714285714,0.0714285714285714,0.1071428571428571,0.0,0.0714285714285714,0.2142857142857142,0.0,0.0714285714285714,0.1071428571428571,0.0714285714285714,0.0714285714285714,0.0,0.0357142857142857,0.0,0.0,0.0,0.0,0.0,0.0,0.0,0.0,0.0,1.0,0.0,0.0,0.0,0.0,0.0,0.6931471805599453,0.0,1.0,2.0,0.0,0.0,0.0,2.0,8.0,-0.5000000000000001,2.0,0.0,0.0,0.0,0.0,0.0,0.0,0.0,0.0,0.0,0.0,0.0,0.0,1.0,0.0,0.0,0.0,0.0,0.0,0.0,0.0,0.0,1.0,0.0,1.0,1.0,0.0,0.0,0.0,0.0,0.0,0.0,0.0,0.0,0.0,1.0,0.0,0.0,1.0,1.0,0.0,1.0,0.0,0.0,0.0,2.0,5.0,8.0,11.0,0.0,6.0,2.0,0.0,0.0,4.0,0.0,3.0,2.0,0.0,5.0,5.0,3.0,0.0,0.0,0.0,0.0,0.0,0.0357142857142857,0.25,0.0357142857142857,0.1428571428571428,0.3928571428571428,1.8883908115284176,-0.1161938728538268,-0.1013701828174058,0.6428571428571429,0.1785714285714285,10.278072357177734,3.0,0.3214285714285714,0.1926362646021384,0.0676736020113559,0.0717525076079921,5.130304650703436,13.74520258022822,0.1594398131259936,0.1705294491960393,0.1973576636245217,0.3772710914534848,0.2038432617138455,-0.3665421274385819,0.1545102894525074,0.2332122695928596,-0.0890613921059774,-0.2632104004244931,0.214905732477747,0.0805462451826802,SLPGYLPPTKNGVEPKRPSRPINITSLV,nuclear_speckle,PIAS1_HUMAN
