seqid,srpipi,lrpipi,Water,Carbon,ssH,ssE,disL,disS,srELEC,lrELEC,sr_hb,lr_hb,srCATPI,lrCATPI,larkSIM,larkFAR,sequence,label,entry
A0A024R2Q3_HUMAN_0,0.3468581932058002,0.3735371999658324,7.141564960379137,22.035574958201742,0.8646137230027896,0.63851895756543,0.358948525370947,0.5683412191172148,0.928189854866922,-0.0447245390568144,0.7629228452270621,0.7277525781096577,0.2440891880521666,0.0615061001262095,0.2735277750499198,0.6710807335267419,MATQADLMELDMAMEPDRKAAVSHWQQQSYLDSGIHSGATTTAPSLSGKGNPEEEDVDTSQVLYEWEQGFSQSFTQEQVADIDGQYAMTRAQRVRAAMFPETLDEGMQIPSTQFDAAHPTNVQRLAEPSQMLKHAVVNLINY,cell_junction,A0A024R2Q3_HUMAN
A0A024R2Q3_HUMAN_1,0.0896069287141905,0.1897868325618421,7.067763287240317,17.836091831286705,0.8074974284734656,0.2263120492709375,0.0986145069274653,0.3522264206860784,0.046192740423252,-0.0563701531443466,0.5742092457420924,0.5579256707116257,0.0077404534407564,0.0181412134060492,0.1515550239234449,0.6366569557998935,DDAELATRAIPELTKLLNDE,cell_junction,A0A024R2Q3_HUMAN
A0A024R2Q3_HUMAN_2,0.15746658919233,0.2335851249273678,7.277781236381747,18.01867016049787,0.8095834492995639,0.5629007510296374,0.1103880852709965,0.529809275521405,0.3764640761651721,-0.0733575911336627,0.6821575838626992,0.6556165906550547,0.024403486212316,0.0204963733101111,0.2081731297374492,0.6399105154992293,KAAVMVHQLSKKEASRHAIMRSPQMVSAIVRTMQNTNDVETARCTAGTLHN,cell_junction,A0A024R2Q3_HUMAN
A0A024R2Q3_HUMAN_3,0.1358856590318486,0.1988406257444612,6.823194654020263,17.129311869803644,0.8709818118375714,0.4044750430292599,0.0805744888023369,0.3298841469452421,0.4824324324324324,-0.0392961876832844,0.5713114754098361,0.5518839712918661,0.0141928350819002,0.0059607503815601,0.1955798479087452,0.6677326743467674,PAICALRHLTSRHQEAEMAQN,cell_junction,A0A024R2Q3_HUMAN
A0A024R2Q3_HUMAN_4,0.2090420769919427,0.245501551189245,6.871098915630785,19.407037457434733,0.5911858808958613,0.3388033203781008,0.1517468625843476,0.5437236975765491,0.2932965178708391,-0.1322163808775119,0.5726616600019506,0.67486572265625,0.0270766773162939,-0.0081291633736028,0.280917739227756,0.4431945040790038,RAHQDTQRRTSMGGTQQQFVEGV,cell_junction,A0A024R2Q3_HUMAN
A0A024R2Q3_HUMAN_5,0.1092722257585402,0.2094207511139401,6.003194888178914,17.546450082131777,0.8459673865138828,0.1740511620130413,0.1288391370576357,0.492950511884941,0.1945644097705953,-0.0646653080420128,0.4667228306655434,0.3500741451500349,0.0116179958493922,0.0378775329909999,0.2030843772157882,0.6701941616967849,EAAEAIEAEGATAPLTELLHSR,cell_junction,A0A024R2Q3_HUMAN
A0A024R2Q3_HUMAN_6,0.1159957627118644,0.2349046610169491,3.0193931811072883,19.55233260817017,0.6578387953941541,0.4872875199767543,0.0509857239972807,0.1257647858599592,0.2197398783301867,-0.2510960199432648,0.0676143024618991,0.0758736971183323,-0.0239516598718695,-0.0735294117647058,0.1183260654476162,0.5126701419055893,AAVLFR,cell_junction,A0A024R2Q3_HUMAN
A0A024R2Q3_HUMAN_7,0.2582697201017812,0.4534276519521525,7.022508451790198,20.970562518216266,0.723546959777364,0.5630438807628217,0.4515643592076713,0.5655584609637654,0.7027027027027027,-0.0581981721232091,0.9752846379629456,0.7572922559215584,0.1642652694901276,0.0223663548849593,0.2998798390888668,0.5394381067648649,KPQDYKKRLSVELTSSLFRTEPMAWNETADLGLDIGAQGEPLGYRQDDPSYRSFHSGGYGQDALGMDPMMEHEMGGHHPGADYPVDGLPDLGHAQDLMDGLPPGDSNQLAWFDTD,cell_junction,A0A024R2Q3_HUMAN
RCCD1_HUMAN_0,0.1965674873686743,0.2985611510791366,7.559726962457338,17.03909329829172,0.6901825357671436,0.4181027985730794,0.1925330269959793,0.5439402642159679,0.4418491484184915,-0.0711395819285232,0.4815456884017448,0.6238828364537804,-0.0142210730446024,-0.0747345221398517,0.2537011745424747,0.5522905898180274,SGRGRQVHSPSPLRA,chromosomes,RCCD1_HUMAN
RCCD1_HUMAN_1,0.0589129608513873,0.1468738438771735,5.528391425298642,15.780232367861236,0.5982653262369406,0.2363493002168342,0.1159629439970206,0.4341953655101779,0.2845254957507082,-0.1363625132804585,0.5057680631451124,0.3285745987129225,0.0098491264389448,0.0040776638123019,0.1947099179125193,0.5090129837388125,LELSGSASGAAGR,chromosomes,RCCD1_HUMAN
RCCD1_HUMAN_2,0.1746116764863417,0.4001071237279057,5.213963963963964,21.559585492227978,0.489065606361829,0.4123864351893496,0.0431437622567506,0.1176856611615443,0.1859761281327575,-0.280953514469344,0.179868297271872,0.4026340545625588,-0.0196386488609583,-0.1090337784760408,0.1664708186447316,0.432069399748146,LQVWA,chromosomes,RCCD1_HUMAN
RCCD1_HUMAN_3,0.1707650273224043,0.3827088212334114,6.85570987654321,21.052754982415006,0.7939435899971976,0.342067682906579,0.1899244006978397,0.5220064322393788,0.9446401610468044,-0.0563325679181701,0.8348464488217364,0.5862271924661565,0.0137801710048686,0.0276262578764224,0.2562476687803058,0.5342146521800135,PLWAQNVVPEAEGEDDPAGEAQAGRL,chromosomes,RCCD1_HUMAN
RCCD1_HUMAN_4,0.069848958001402,0.0600344146325919,5.794439274080968,14.814099581200558,0.555229716520039,0.060756447853222,0.1085347804637395,0.2136161815490873,0.112630628306025,-0.5471552057798994,0.5795266923500275,0.2330764997248211,0.0031996587030716,0.01919795221843,0.1233243967828418,0.1407506702412868,PEL,chromosomes,RCCD1_HUMAN
RCCD1_HUMAN_5,0.127147766323024,0.4432989690721649,7.198121027908262,17.825581395348838,0.8205555881834733,0.2695100010583131,0.2069747660901616,0.4788993052395255,0.3813451917732073,-0.0778897761487105,0.4387255861286156,0.68,0.0127033806641658,0.0095275354981244,0.2654302064173309,0.513743472844382,SWGGGRHGQLGHGTLEAELEPRLL,chromosomes,RCCD1_HUMAN
RCCD1_HUMAN_6,0.1443440466659041,0.3016127187464257,7.063309200443904,19.08473533032417,0.8655944143133221,0.6308358642545887,0.1961491838863361,0.5755119989948486,0.5091457482000389,-0.0867800476334239,0.8143485211830536,0.6854715073229605,0.0674988441978733,0.0281855159607392,0.2644756039158472,0.7333774622811623,ALPTRNLAEDGETVAREATELNEDGSQVKRTGGAEDGAPAPFIAV,chromosomes,RCCD1_HUMAN
RCCD1_HUMAN_7,0.1124556900134457,0.2341645552740365,7.252871621621622,16.575428963623885,0.6096132020490169,0.3894009216589861,0.1399222294232015,0.5291744392867989,0.2882053503736597,-0.1707128378901112,0.5187039890429721,0.6838060639932932,-0.0060202633253389,-0.0036708922715481,0.2141114982578397,0.4411066546615372,MGSDAVKASCGSRHTAV,chromosomes,RCCD1_HUMAN
RCCD1_HUMAN_8,0.1910747957259585,0.321575543797766,6.994326490027491,20.04464401926331,0.5031977656954933,0.5431266846361186,0.1986188044025609,0.5097324470492935,0.5689960898426843,-0.0852674515950909,0.7597697882620434,0.6291721255224905,0.1780240073868882,0.0319463210204502,0.2589393735717166,0.3218287475519311,WGKYGQLGHEDTTSLDRPRRVEYFV,chromosomes,RCCD1_HUMAN
MEI4_HUMAN_0,0.1596963620739043,0.2279074763678029,6.716686065598233,20.29478366356652,0.7949936690367196,0.2123020426899242,0.206324520476931,0.4753493788819876,0.5768421052631579,-0.0740970200111517,0.6821956814047299,0.5192897497982244,0.3361018826135105,0.0374677002583979,0.2210813209101857,0.7179174647396831,RSKPADKSSREYTEHLAMLLSE,chromosomes,MEI4_HUMAN
MEI4_HUMAN_1,0.0281130876747141,0.0330368487928843,6.096757852077001,14.87835534725181,0.4705039933902506,0.3399063618837786,0.0773198482932996,0.2592667509481668,0.2784810126582278,-0.2026467203682393,0.113795568263045,0.2934953538241601,-0.0548534089932078,-0.0989166881609491,0.1700248756218905,0.2882610906317528,SKVE,chromosomes,MEI4_HUMAN
MEI4_HUMAN_2,0.1924871940808195,0.2371656232214001,6.181223832528181,19.46027811620384,0.753418128742069,0.4000620043125387,0.1955456823877876,0.5755237045203969,0.6615278442547223,-0.0639756283320639,0.6668056713928273,0.5931721194879089,0.0578269708606279,0.0300356261989586,0.236078431372549,0.584987909954705,VSSQLEAQEPKSSESTLTSMEDSGCDLSNEQRTESSDLSQHFVESCTP,chromosomes,MEI4_HUMAN
MEI4_HUMAN_3,0.159112825458052,0.2477097396335583,6.894834404349975,18.98853439680957,0.5953557880216117,0.2168107440568076,0.0840941367417326,0.3233030993423032,0.175831246521981,-0.1568663257852447,0.6005357705641349,0.5263859275053305,0.0867830423940149,-0.013192757783175,0.151642091152815,0.3927678399692249,NLKRDLTHFEK,chromosomes,MEI4_HUMAN
MEI4_HUMAN_4,0.2244897959183673,0.2506467375682667,6.364197530864198,15.584715800924666,0.6245631552670994,0.3754916792738275,0.1614620020349064,0.5131877592549111,0.518205222508275,-0.1750992063492063,0.6551229508196721,0.4851855403202608,0.028859707693449,-0.0057125899547444,0.2416297390448055,0.3142857142857143,EEGNTSSIGHDDQE,chromosomes,MEI4_HUMAN
SYNEM_HUMAN_0,0.1597293418084888,0.3863030551568587,6.236322908589644,20.54774774774775,0.7842631409222831,0.2868191992041781,0.1277795856383555,0.5910619373033952,0.1447754930759547,-0.0520359351300898,0.6138136511375948,0.6109779594905775,0.0096076450137863,0.0105666969224709,0.2114139998210504,0.572131980584906,MLSWRLQTGPEKAELQE,cell_junction,SYNEM_HUMAN
SYNEM_HUMAN_1,0.1012250161186331,0.0481514279388975,5.480493630573249,14.956608280254777,0.7181684410975504,0.0814507054444733,0.0635801027557216,0.1548925735637552,0.2890659583886675,-0.482514386896857,0.2750161394448031,0.2309290590679727,0.0208118241591044,0.0029343041895343,0.096518539484857,0.4492147112402146,LEEE,cell_junction,SYNEM_HUMAN
SYNEM_HUMAN_2,0.1734713076199435,0.438005644402634,6.620391491167577,20.898318190605064,0.8496871255491946,0.2643816177273223,0.1074676219344172,0.3699366216588592,0.0382835101253616,-0.062393395647131,0.4504145408163265,0.542344217510082,0.0208118241591044,0.0101834155803405,0.17574072093272,0.7,REGLWAEGQARCAEEARSLRQ,cell_junction,SYNEM_HUMAN
SYNEM_HUMAN_3,0.219448777951118,0.4315536670977277,7.0999053709173285,20.727272727272727,0.9038699668369888,0.189208211143695,0.0879507475813544,0.4208211006162475,-0.0028336916161813,-0.037986425137577,0.576267243820543,0.5103668261562998,0.0127567902451387,0.0110927811593378,0.1787765909702899,0.7877566803020127,DELSWATALAEGERDALRRELRELQRLDAEERAARGRLDAELGAQQRELQEALGAR,cell_junction,SYNEM_HUMAN
SYNEM_HUMAN_4,0.1852190974493132,0.2772336694856965,7.289870190078813,19.5100466778499,0.8840334619788796,0.303399433427762,0.4807434374401226,0.4525352924229329,0.498971898560658,-0.0457792973947272,0.6244250029690036,0.6671249494541043,0.0161212121212121,0.0256526259812208,0.2864965388986465,0.7844327865051302,LGRLQAERRGLDAAHERDVRELRARAASLTMHFRARATGPAAPPPRLREVHDSY,cell_junction,SYNEM_HUMAN
SYNEM_HUMAN_5,0.1662351575752165,0.1791460557146576,6.971993410214168,17.586852453410838,0.8953877287163776,0.2132740552556367,0.1018512628029773,0.4593367085529686,0.2596030729833546,-0.0537391957910559,0.6151451474822943,0.5391801831958857,0.0244765191149369,0.0077017676799045,0.158207656612529,0.8261312289187297,EDEVRELEEALRRGQESRLQAEEETRLCAQEAEAL,cell_junction,SYNEM_HUMAN
SYNEM_HUMAN_6,0.0849317113217404,0.0672438241659825,5.907663146493366,15.36420254535608,0.7941488555403972,0.0881461270274367,0.037723846791449,0.1037646741330454,-0.1894543748133612,-0.088392133441406,0.2219516945851188,0.2260420724581223,0.0098491264389448,0.0040776638123019,0.0748770956762889,0.5951252538930264,REAL,cell_junction,SYNEM_HUMAN
SYNEM_HUMAN_7,0.1349416755037115,0.3187274909963986,6.530520995334371,17.46581586144029,0.7675574891236793,0.1826151837343779,0.1081911262798634,0.2392491467576792,0.1853504856917826,-0.3473352585980572,0.3289294470171615,0.5269280482550625,0.3584264205925206,0.0018907050500121,0.1677071509648127,0.5522905898180274,MREEYG,cell_junction,SYNEM_HUMAN
SYNEM_HUMAN_8,0.1676190476190476,0.2086466165413533,6.301551206042395,17.28400877121741,0.6948813268515871,0.4524215271287999,0.0588043478260869,0.2279961135122457,0.2843364284268981,-0.1568663257852447,0.2671283335789008,0.5885407725321888,-0.0122122503392291,-0.0401361677815602,0.1500972762645914,0.5047081902893575,ERQRVIDCLE,cell_junction,SYNEM_HUMAN
SYNEM_HUMAN_9,0.159121171770972,0.2661451398135819,6.814725198755617,20.08686690223793,0.7026939829004678,0.3319805194805195,0.0792168427951175,0.1826820676660932,0.1563199105145414,-0.1450106353463423,0.1396020714091033,0.5464159171436359,-0.0153188457427858,-0.0818489490559316,0.1798587433024841,0.5475315576033357,TYRAL,cell_junction,SYNEM_HUMAN
NKRF_HUMAN_0,0.279585798816568,0.3821836099585062,7.309942710452995,19.99424017003188,0.7741453390622081,0.7927381277558825,0.4579516663418437,0.5915687629578438,0.7457755959958603,-0.0449826989619377,0.9277114386889566,0.7114085257804734,0.0948035531852262,0.0239578485331101,0.3208181563463155,0.6866173042643631,MEKILQMAEGIDIGEMPSYDLVLSKPSKGQKRHLSTCDGQNPPKKQAGSKFHARPRFEPVHFVASSSKDERQEDPYGPQTKEVNEQTHFASMPRDIYQDYTQDSFSIQDGNSQYCDSSGFILTKDQPVTANMYFDSGNPAPSTTSQQANSQSTPEPSPSQTFPESVVAEK,nucleolus,NKRF_HUMAN
NKRF_HUMAN_1,0.1039419570109412,0.1185394092325961,6.504787234042553,16.16209874225643,0.5019050917907862,0.2492583362999881,0.2042756860242501,0.5922546182951257,0.4647383740918154,-0.0531120331950207,0.6967172954434101,0.3864068441064638,0.0205586089174841,0.0236724128228695,0.2342236257560349,0.2622298580341803,WKNLSNPEMTSGSDKI,nucleolus,NKRF_HUMAN
NKRF_HUMAN_2,0.1622718052738336,0.0832608064984044,6.20276836990134,16.424177701836822,0.5914920237722865,0.1498299421206516,0.2661691542288557,0.5211442786069652,0.6415751406375569,-0.0716107871720116,0.5246068220133484,0.3953925716972261,0.014259240193555,-0.0100380932770513,0.2149985742800114,0.4127959658038845,YAPLKEIPPADIPKNKKL,nucleolus,NKRF_HUMAN
NKRF_HUMAN_3,0.1501322751322751,0.3511904761904761,7.247183187745284,18.060606060606062,0.742557944708182,0.3807416772018542,0.1781268235751799,0.4917521470775584,0.3560897435897436,-0.0869172388868811,0.6127315175097277,0.6468707499224547,0.0113998323554065,0.0461860854987426,0.2248447204968944,0.4982185779308228,GYAGSKNGSRDRATELAV,nucleolus,NKRF_HUMAN
NKRF_HUMAN_4,0.1063190540802481,0.0726079172468669,6.401234567901234,16.681840466735306,0.5093514695166383,0.7470775770456961,0.2056818181818182,0.4357900248723655,0.576489480238579,-0.0695807314897413,0.5786379225869672,0.3461168384879725,0.0050733155973519,0.0298830662624512,0.1962614649570463,0.2755180449707123,PPEDLVVLGKD,nucleolus,NKRF_HUMAN
NKRF_HUMAN_5,0.0882231688882781,0.0981173560533186,5.566328201768752,16.02850551140733,0.4062685386592841,0.3651973537500929,0.0714766355140186,0.2959252336448598,0.239003158462368,-0.2404823194689066,0.3429796355841372,0.4531975705609146,-0.0343326076034165,-0.0822307821135488,0.1432198790510156,0.2921492921492921,GILNN,nucleolus,NKRF_HUMAN
NKRF_HUMAN_6,0.0834739633558341,0.0606918997107039,5.686995515695068,16.123766816143497,0.4266211604095563,0.3763574309649395,0.037723846791449,0.1037646741330454,0.0839460784313725,-0.8237336601307189,0.1623896247240618,0.3134657836644591,0.1553153153153153,0.0241441441441441,0.112842213246137,0.3927678399692249,IEY,nucleolus,NKRF_HUMAN
NKRF_HUMAN_7,0.1843570183494836,0.2956260170619853,7.413032191069575,20.58773511981448,0.8897138178705668,0.6744847192608386,0.3753249350129974,0.5648310967144841,0.5612771837951851,-0.0487300755710892,0.5657754010695187,0.70378231292517,0.0068972616841671,-0.000712535409534,0.2936264571718195,0.8047506680084672,YGTKKTSKHAAADEALKILQKTQPTYPSVKSSQCHTGSSPRGSGKKKDIKDLVVYE,nucleolus,NKRF_HUMAN
NKRF_HUMAN_8,0.0873083880795963,0.1192516423878891,5.747991052936791,15.575896262395116,0.4498042156127634,0.5130860897650072,0.2340425531914893,0.371314674860892,0.6605461393596986,-0.2006523569023569,0.4887097945255209,0.473652872878833,-0.0092638709034764,-0.0386752863785868,0.2496785806119825,0.2554684949396017,PVCTLNDTA,nucleolus,NKRF_HUMAN
ZN185_HUMAN_0,0.289287434690777,0.4639398062915232,7.813651361011823,23.153944155430512,0.8914836227481601,0.8779514996809189,0.5906591082155851,0.656940441882805,0.9492989020930136,-0.0422679008984481,0.9796166033665192,0.8909668313338038,0.19571763872282,0.0722885098044479,0.3433380217894009,0.7498673054153,MSISALGGRTKGKPLPPGEEERNNVLKQMKVRTTLKGDKSWITKQDESEGRTIELPSGRSRATSFSSAGEVPKPRPPSTRAPTGYIIRGVFTKPIDSSSQPQQQFPKANGTPKSAASLVRTANAGPPRPSSSGYKMTTEDYKKLAPYNIRRSSTSGDTEEEEEEEVVPFSSDEQKRRSEAASGVLRRTAPREHSYVLSAAKKSTGPTQETQAPFIAKRVEVVEEDGPSEKSQDPPALARSTPGSNSADGGRTKASRAIWIECLPSMPSPAGSQELSSRGEEIVRLQILTPRAGLRLVAPDVEGMRSSPGNKDKEAPCSRELQRDLAGEEAFRAPNTDAARSSAQLSDGNVGSGATGSRPEGLAAVDIGSERGSSSATSVSAVPADRKSNSTAAQEDAKADPKGALADYEGKDVATRVGEAWQERPGAPRGGQGDPAVPAQQPADPSTPERQSSPSGSEQLVRRESCGSSVLTDFEGKDVATKVGEAWQDRPGAPRGGQGDPAVPTQQPADPSTPEQQNSPSGSEQFVRRESCTSRVRSPSSCMVTVTVTATSEQPHIYIPAPASELDSSSTTKGILFVKEYVNASEVSSGKPVSARYSNVSSIEDSFAMEKKPPCGSTP,cell_junction,ZN185_HUMAN
NPHP1_HUMAN_0,0.2363391050146166,0.4442999566536628,6.960406210560301,21.31653225806452,0.9254434351775392,0.7023561277310584,0.1795260361105849,0.5319424273648512,0.7865590538596772,-0.0354844126042424,0.7595295786301046,0.6433554403199135,0.3384526224282816,0.0348439905380542,0.2621732127369595,0.8087343618082738,MLARRQRDPLQALRRRNQELKQQVDSLLSESQLKEALEPNKRQHIYQRCIQLKQAIDENKNALQKLSKADESAPVANYNQRKEEEHTLLDKLTQQLQGLAVTISRENITEVGAPTEEEEESESEDSEDSGGEEEDAEEEEEEKEENESHKWSTGEEYIAVGDFTAQQVGDLTFKKGEIL,cell_junction,NPHP1_HUMAN
NPHP1_HUMAN_1,0.2243012243012243,0.4916201117318435,6.956873082407848,21.991353220925205,0.7438151305995399,0.4741909601497727,0.1964399734955725,0.5771986387247,0.827004467434752,-0.0673746001385087,0.9225128330481543,0.6217043451308576,0.0783217542336083,0.0285791827439319,0.2444180263615551,0.6263760937757966,DGWWIAKDAKGNEGLVPRTYLEPYSEEEEGQESSEEGSEEDVEAVDETADGAEVKQRTDPHWSAV,cell_junction,NPHP1_HUMAN
NPHP1_HUMAN_2,0.1500805152979066,0.3086107091172214,6.92474263400781,17.632577409507196,0.6584433634468381,0.3233163624322199,0.1902425476763562,0.5384292607874677,0.5058297020374514,-0.1322163808775119,0.6893794252394836,0.5921066015664734,0.0248145305704783,0.0455359426963417,0.2277042477998752,0.4473183888225671,ETVEDTNGSETGFRAW,cell_junction,NPHP1_HUMAN
NPHP1_HUMAN_3,0.1031778119188162,0.2021508854208781,6.550850283427809,17.413137712570858,0.4748325358851674,0.3311004784688995,0.0349013657056145,0.0907098297083122,-0.387990164358742,-1.209525042060308,0.1344759393539881,0.5666446934739617,-0.1265438786565547,-0.5462621885157096,0.1148296350187947,0.4410088517036498,VRA,cell_junction,NPHP1_HUMAN
NPHP1_HUMAN_4,0.0558485139022051,0.0359748427672955,6.300919842312746,13.827660891089108,0.2548823948681397,0.1290092658588738,0.2271739130434782,0.5880434782608696,0.1840193704600484,-0.0946617008069522,0.2234042553191489,0.3191489361702128,-0.0889043842063976,-0.2067462738603678,0.2328374655647383,0.0877612692017124,KKPKT,cell_junction,NPHP1_HUMAN
NPHP1_HUMAN_5,0.0739893211289092,0.0780574624968217,5.595942028985507,18.026578073089706,0.2937352726090843,0.5670807453416149,0.1387362637362637,0.4807692307692308,0.4569859670530811,-0.1751262929997594,0.8515299026425591,0.3466620305980528,-0.0031458411979363,0.0246633949918208,0.2366757000903342,0.2433084434233199,GIEVDP,cell_junction,NPHP1_HUMAN
NPHP1_HUMAN_6,0.1803156455822045,0.4165527525786007,6.549630655586334,19.659449706811007,0.6293513893225101,0.2202399612414146,0.1324303685543185,0.4877014589445761,0.2996249542627149,-0.1287805242326936,0.4542057087147267,0.5932599517490953,0.05740057400574,0.0205777096114519,0.1885740589198036,0.4796062547098719,LRSSWAGKESTLKRSEKR,cell_junction,NPHP1_HUMAN
NPHP1_HUMAN_7,0.2177263969171483,0.3757225433526011,6.692426584234931,21.25750452079566,0.7295130777334983,0.264223311314724,0.0655491959662033,0.1715726355955301,-0.1621129326047359,-0.088392133441406,0.1660516605166051,0.6309963099630996,-0.0392372067498971,-0.0662642337769241,0.1549601737871108,0.475656485968669,FRWAE,cell_junction,NPHP1_HUMAN
NPHP1_HUMAN_8,0.13140625,0.2290625,5.815099381994321,18.897261499910503,0.6040628593330778,0.5933023807171787,0.0828224046555128,0.2703418892237348,0.5074709463198672,-0.1612589227774172,0.540450627551792,0.3406169665809768,0.0909090909090909,-0.0432900432900432,0.1851453876461203,0.4239162059935991,KVITDFL,cell_junction,NPHP1_HUMAN
NPHP1_HUMAN_9,0.1922629918645193,0.3077167859984089,6.330338040222507,17.321017083829958,0.8652447495301135,0.3179462102689486,0.2394725999175937,0.5707943670172119,0.5172230652503793,-0.072656,0.7352825165171087,0.4832881662149955,0.0273452335738701,0.0222611690188481,0.2822964455687519,0.6921518987341773,NQGALQALLSPDGVHEPFDLSEQTY,cell_junction,NPHP1_HUMAN
MSH4_HUMAN_0,0.2757169022169979,0.4210016395886123,7.52413975882327,20.5564263322884,0.6757429922323539,0.835887861429884,0.5227177990829512,0.6038026721479959,0.7470064152020207,-0.0543881334981458,0.7672868494622175,0.8868718175780386,0.0284744220234865,0.0486082991496628,0.3019180271720516,0.5865890570430733,MLRPEISSTSPSAPAVSPSSGETRSPQGPRYNFGLQETPQSRPSVQVVSASTCPGTSGAAGDRSSSSSSLPCPAPNSRPAQGSYFGNKRAYAENTVASNFTFGASSSSARDTNYPQTLKTPLSTGNPQRSGYKSWTPQVGYSASSSSA,chromosomes,MSH4_HUMAN
MSH4_HUMAN_1,0.0250954719039825,0.0801963993453355,2.1105121293800537,13.884097035040432,0.3216374269005848,0.2719298245614035,0.0330350997935306,0.2050929112181693,-0.0419354838709677,-0.3032258064516129,0.0634067488381491,0.0933926045665791,-0.0139860139860139,-0.2062937062937063,0.1338832487309644,0.2937817258883248,IGM,chromosomes,MSH4_HUMAN
MSH4_HUMAN_2,0.0254733803175681,0.0245393563725906,2.953881536475145,16.494593285990963,0.6202629543696829,0.2145820150460521,0.044562221751113,0.1501377994488022,-0.0067567567567567,-0.1568663257852447,0.0547961923358555,0.0715157432267512,-0.0515353718579943,-0.119655351127235,0.1055646945374099,0.4776220999489478,RLR,chromosomes,MSH4_HUMAN
MSH4_HUMAN_3,0.069848958001402,0.16036866359447,5.610814927646611,15.91251763757307,0.4657980456026058,0.2683224755700326,0.1678460583488516,0.4871530684525726,0.2775389318811503,-0.2343242267420869,0.5944194657498016,0.5227453054747422,0.0096206706981858,0.0086586036283672,0.199974694755488,0.2850467289719626,IETNSST,chromosomes,MSH4_HUMAN
MSH4_HUMAN_4,0.069848958001402,0.0600344146325919,5.606732513606128,15.91251763757307,0.63782804215048,0.1420612813370473,0.0638573496913815,0.2504381620056389,-0.0239643084767367,-0.6795877557298877,0.5334773218142549,0.3033477321814254,0.0096206706981858,0.0086586036283672,0.1328168855955989,0.3214519293655984,IDEL,chromosomes,MSH4_HUMAN
MSH4_HUMAN_5,0.1940886699507389,0.270607553366174,6.194539249146757,18.897261499910503,0.454003059663437,0.5329626687847498,0.0806893219520051,0.2042569622086008,0.329815849368922,-0.1949379411048917,0.2315410342166195,0.4371062189607886,0.0203683559023219,0.0076522000075021,0.1853737690241718,0.327683615819209,HFEVQHVKN,chromosomes,MSH4_HUMAN
MSH4_HUMAN_6,0.1217016693591814,0.316101238556812,6.269414048711613,17.211702127659574,0.7835650702567498,0.1631407648494711,0.0946411351425816,0.3338831800973499,0.179434657927079,-0.0758384530164165,0.3587392550143266,0.3616045845272206,-0.0115418951664328,-0.0645963525060579,0.1901534070638601,0.5697737378377935,KNYGLKAAE,chromosomes,MSH4_HUMAN
MSH4_HUMAN_7,0.0543710021321961,0.0715539947322212,5.88132530120482,16.340582554761717,0.4935064935064935,0.5580243931892284,0.0581584659913169,0.2492764109985528,0.4731369150779896,-0.3982752425440172,0.4363138130518624,0.3492337359179945,-0.0134673229423024,-0.0572873940388296,0.1762689518787079,0.3870209264048906,IVLDA,chromosomes,MSH4_HUMAN
RRP8_HUMAN_0,0.2897820911920893,0.4112710891264022,7.766977850997621,21.605847639484978,0.9184183321847004,0.5704269065958271,0.5040590405904058,0.6566532935433507,0.7348913043478261,-0.0343021011415651,0.8312955516930124,0.7790263305152675,0.1448850486036105,0.0597456869580763,0.30433330151761,0.8459170704583366,MFEEPEWAEAAPVAAGLGPVISRPPPAASSQNKGSKRRQLLATLRALEAASLSQHPPSLCISDSEEEEEERKKKCPKKASFASASAEVGKKGKKKCQKQGPPCSDSEEEVERKKKCHKQALVGSDSAEDEKRKRKCQKHAPINSAQHLDNVDQTGPKAWKGSTTNDPPKQSPGSTSPKPPHTLSRKQWRNRQKNKRRCKNKFQPPQVPDQAPAEAPTEKTEVSPVPRTDSHEARAGALRARMAQRLDGARFRYLNEQLYSGPSSAAQRLFQED,nucleolus,RRP8_HUMAN
RRP8_HUMAN_1,0.1443347437705688,0.3638928067700987,6.904327535002121,20.76315789473684,0.672,0.2405464389138372,0.2527472527472527,0.4615384615384615,0.6024096385542169,-0.0930055366485498,0.5480559767170318,0.6275698694266618,-0.0112348148792438,-0.0261441854848448,0.2499456088186235,0.5602214921576939,KWPLQPVDRIARDL,nucleolus,RRP8_HUMAN
RRP8_HUMAN_2,0.0343551014363986,0.0336146897675107,6.804953560371517,13.089783281733746,0.4648377125193199,0.0812403400309119,0.1338354577056778,0.3146002317497103,-0.0906010928961748,-0.820327868852459,0.1662011173184357,0.2695530726256983,-0.1240258882578259,-0.302734117025492,0.1484339536995007,0.1141625056740808,PKA,nucleolus,RRP8_HUMAN
U3IP2_HUMAN_0,0.1979837731475242,0.2532057764653533,7.339565943238731,20.94390885188432,0.9522541373406886,0.6461538461538462,0.2882131564615897,0.5190661114490245,0.7433071930773391,-0.0377042767732962,0.6880061637566475,0.7190087943323039,0.0429856402403758,0.0205498230397288,0.2407155557505361,0.8333416411616338,MSATAAARKRGKPASGAGAGAGAGKRRRKADSAGDRGKSKGGGKMNEEISSDSESESLAPRKPEEEEEEELEETAQEKKLRLAKLYLEQLRQQEEEKAEARAFEEDQVAGRLKEDVLEQRGRLQKLVAKEIQAPASADIRV,nucleolus,U3IP2_HUMAN
U3IP2_HUMAN_1,0.2232600180777342,0.2463091292557999,7.270990990990991,17.6964586846543,0.6295907366180815,0.6550701186623517,0.3696399908277918,0.5444291609353508,0.72264631043257,-0.0706930997387429,0.3447942408939508,0.6152739528957212,0.0392399049881235,-0.0224228028503562,0.2585015940488842,0.3360527796431747,HVIPRAKKGAEGKPPGHSSHVLC,nucleolus,U3IP2_HUMAN
U3IP2_HUMAN_2,0.152070604209097,0.233726150392817,6.530520995334371,16.6146967340591,0.7716077026421854,0.1899154807483926,0.0755129294646109,0.3648206315093404,0.0218197375926982,-0.1101889338731443,0.232508234354726,0.5078932261768083,0.012947757827303,0.0084589010195795,0.133751041251675,0.5663613784538963,QREAHGLR,nucleolus,U3IP2_HUMAN
PGRP1_HUMAN_0,0.072072072072072,0.09009009009009,4.428571428571429,16.34817170111288,0.4404216315307058,0.2522195318805488,0.1822079314040728,0.5702036441586281,0.6427973199329984,-0.1628978224455611,0.5120385232744783,0.3162118780096308,-0.023854961832061,-0.0828470295608916,0.2321319486866218,0.2200323101777059,PACCSP,stress_granule,PGRP1_HUMAN
PGRP1_HUMAN_1,0.1805970149253731,0.2000527843758247,6.972277889111557,16.537297402851006,0.7748434061283224,0.1534696228044918,0.2299154334038055,0.5764482431149098,0.6395206651993153,-0.0821060926956607,0.5791015625,0.7467105263157895,-0.012108917517149,-0.0662748870670905,0.2243068451046936,0.6563491588337425,CNTPASCQQQARN,stress_granule,PGRP1_HUMAN
PGRP1_HUMAN_2,0.1789319678127286,0.2254572055596196,7.076253524580115,16.78262161894382,0.5719054956343091,0.2865260522007127,0.1405175899716943,0.4282248281439547,0.0178289097453493,-0.1446496451037777,0.5311830481613007,0.6287454651319031,-0.0021875394388119,-0.0103487442682259,0.2173699946086359,0.4347158680471948,LKGHRDVQRTL,stress_granule,PGRP1_HUMAN
RPP40_HUMAN_0,0.0291438356164383,0.0420205479452054,3.1029232643118148,13.683922046285018,0.5256882722740083,0.2003034901365705,0.0659848559347035,0.246140230111122,0.0616473484459944,-0.198994768694225,0.0506998444790046,0.0923794712286158,-0.0314338235294117,-0.0939338235294117,0.1213195622013257,0.3023739787266841,MAT,nucleolus,RPP40_HUMAN
RPP40_HUMAN_1,0.075675338449061,0.062761245242997,6.108487555839183,13.84,0.5266720201904325,0.1025582195709533,0.0773198482932996,0.2592667509481668,-0.2192919075144508,-0.4403901734104046,0.2021371326803205,0.2538340542666142,0.0098491264389448,0.0040776638123019,0.125,0.3980582524271844,CEKS,nucleolus,RPP40_HUMAN
RPP40_HUMAN_2,0.1480565371024735,0.2156510006746121,7.054416403785489,16.891653290529696,0.4521387766476243,0.1489480284241326,0.1008254100929892,0.3695809248554913,0.0292877225866916,-0.327319587628866,0.302076124567474,0.616035703293321,-0.0479890310786106,-0.0816575258988421,0.1549808778000364,0.2515849182515849,SRHRH,nucleolus,RPP40_HUMAN
RPP40_HUMAN_3,0.1520165460186142,0.2482051282051282,5.970443349753695,16.45320197044335,0.63782804215048,0.1897001303780965,0.1865168539325842,0.5775280898876405,0.1788190294047334,-0.1579661501106905,0.652813590171394,0.468397019947128,0.1369158878504673,0.0200211176088369,0.2210796915167095,0.3927678399692249,YEETGLQGHP,nucleolus,RPP40_HUMAN
RPP40_HUMAN_4,0.1888888888888888,0.2993557294063507,4.752382212811011,19.691768131286395,0.4308035714285714,0.3452847805788982,0.0790806870134684,0.2219201779315457,0.3542178542178542,-0.3081490581490581,0.091049723756906,0.2899447513812154,-0.7758843666793458,-1.6491441612780524,0.1767336112163698,0.2486067572274468,SYFS,nucleolus,RPP40_HUMAN
RPP40_HUMAN_5,0.0884240551461849,0.0924649393867363,6.108487555839183,14.609477124183009,0.4648377125193199,0.0812403400309119,0.0909920371599203,0.3613968148639681,-0.0403556771545827,-0.1853625170998632,0.4764749813293503,0.3330843913368185,-0.0603139630955659,-0.0746350867529606,0.1256898454746136,0.2599577017976736,EKNE,nucleolus,RPP40_HUMAN
PIAS1_HUMAN_0,0.0837320574162679,0.0885167464114832,5.957210980796495,16.78761892000536,0.7584328063949528,0.1034697953070394,0.0879507475813544,0.3383705125129927,0.0681202121390689,-0.0776795771596915,0.4863005846612404,0.4248538346899003,0.0094279745061222,0.0076693200751064,0.1311719306946037,0.6141080513607365,MADSAELKQM,nuclear_speckle,PIAS1_HUMAN
PIAS1_HUMAN_1,0.1548195013025679,0.3306661704503163,7.251839738348324,18.049382716049383,0.7748814301349872,0.231893068075847,0.1735556678457133,0.5068262077836972,0.2767028567962637,-0.0922101654349337,0.6002229831966234,0.6561141828468561,0.0045179839230182,0.0276717798387708,0.2010009886307464,0.6612825424826693,LLGYAGRNKHGRKHELLTKALH,nuclear_speckle,PIAS1_HUMAN
PIAS1_HUMAN_2,0.166865315852205,0.2285233689775321,6.539638812366085,20.66947723440135,0.7162557781201849,0.285835333992374,0.0655491959662033,0.1715726355955301,-0.0201698513800424,-0.1226280681303024,0.2621448212648946,0.5689906814864714,0.0208118241591044,0.0029343041895343,0.1189192786317961,0.4987180063874769,KELYRR,nuclear_speckle,PIAS1_HUMAN
PIAS1_HUMAN_3,0.2907598586309524,0.280180431547619,6.574854325414612,18.62315789473684,0.5421792618629174,0.5181342069488089,0.341541755888651,0.5823706680060271,0.6703939446069155,-0.0622761639474731,0.7790697674418605,0.6278930614394103,0.0408510856820068,0.0122167737571863,0.2984180891947448,0.4339194077563725,QKIMTPADLSIPNVHSSPMPATLSPSTIPQLTYDGHPASSPLLPVSLLGPKHELELPHLTSALHPV,nuclear_speckle,PIAS1_HUMAN
PIAS1_HUMAN_4,0.0911465134499869,0.1320188038652389,6.366071428571429,15.812707894915484,0.520561869132491,0.2155996329498129,0.181547619047619,0.5115546218487395,0.4620557156580211,-0.114293238527882,0.6326295244854506,0.4829340682637269,-0.0123399838542267,0.0043824241725291,0.2610794207985958,0.3172934415217461,KPTSLASDNS,nuclear_speckle,PIAS1_HUMAN
PIAS1_HUMAN_5,0.0330658105939004,0.0331728196896736,4.236263736263736,14.28021978021978,0.4475909053599278,0.1655585652138225,0.0881989114299851,0.2342899554675903,0.0253813155386081,-0.2331982840800762,0.477325853202431,0.1944834034595605,-0.0561883067577828,-0.0508731966590736,0.1221025138752856,0.2554684949396017,ETC,nuclear_speckle,PIAS1_HUMAN
PIAS1_HUMAN_6,0.1278789501874665,0.1135511515800749,5.341798215511325,16.58579272477694,0.6097968629467729,0.2881417208966016,0.0976738836654302,0.3666135599221101,0.2948640813870808,-0.1886330230279274,0.4454973289239379,0.4044136352073263,-0.011592802801594,-0.0261441854848448,0.1879344708570317,0.3992238033635187,QQISSSMDI,nuclear_speckle,PIAS1_HUMAN
PIAS1_HUMAN_7,0.1885389326334208,0.2244094488188976,5.762779552715655,19.0317775571003,0.3891264185801003,0.5098934550989346,0.2681159420289855,0.5800865800865801,0.3356536266184046,-0.0585501858736059,0.524121609320954,0.5340433278718368,-0.0283455982556554,-0.088143849103534,0.2179072276159654,0.350564468211527,HFPPNLCV,nuclear_speckle,PIAS1_HUMAN
PIAS1_HUMAN_8,0.2317024661893397,0.3003182179793158,7.195273887973641,18.06966618287373,0.4543909348441926,0.4168187347931874,0.3585963996869293,0.5206837339993756,0.6992140266021766,-0.0626121277359167,0.4399159589053291,0.7362893081761006,0.04903078677309,-0.035550878477306,0.2831563706563706,0.3047131147540983,SLPGYLPPTKNGVEPKRPSRPINITSLV,nuclear_speckle,PIAS1_HUMAN
PIAS1_HUMAN_9,0.145899788977769,0.2179985370759806,6.870897393959219,17.517587939698494,0.8011000220555801,0.2220930232558139,0.1985501409585179,0.5540945284535028,0.3444687842278203,-0.053510716925351,0.8613002042205582,0.6322197791805565,0.0162730872619013,0.0175608705020469,0.1946680277985001,0.6814920416092242,LRAKGIRNPDHSRALIKEKLTADPDS,nuclear_speckle,PIAS1_HUMAN
PIAS1_HUMAN_10,0.2133058984910836,0.4646078163432632,7.068187274909964,20.49109182275012,0.6502872725758775,0.4252013808975834,0.2210630899155489,0.5157852670840549,0.3390220879743251,-0.1047148038245961,0.7362240289069557,0.5675751252984577,0.0055890988955625,0.0108160871584548,0.2542346542346542,0.4679984752928131,EDGTWAPMRSKKEVQEVSASYNG,nuclear_speckle,PIAS1_HUMAN
PIAS1_HUMAN_11,0.2206697108066971,0.3218913839153229,7.31491737449432,19.90592334494773,0.6368423494478983,0.7882262088630153,0.3522979742975387,0.5857468807169726,0.776848348049304,-0.0635630202013751,0.7172686230248307,0.8043056683875364,0.261864406779661,0.0305370944964391,0.282553516146544,0.5441185866717781,SSTLEHQVASHHQSSNKNKKVEVIDLTIDSSSDEEEEEPSAKRTCPSLSPTSPLNNKGILSLPHQASPVSRTPSLPAVDTSYINTSLIQDYRHPFHMTPMPYDLQGLDFFPF,nuclear_speckle,PIAS1_HUMAN
PIAS1_HUMAN_12,0.0282982153777728,0.0639555092109836,4.1746570063203325,16.783652730133348,0.8473670538464393,0.3399063618837786,0.0787736668403682,0.2558624283480979,0.1818926893235712,-0.0495958593306863,0.4048935298935299,0.2451883701883702,-0.0060885117394116,-0.0576724778782283,0.13804192472606,0.7271624114163674,TSLLAAAAAAVS,nuclear_speckle,PIAS1_HUMAN
PIAS1_HUMAN_13,0.1364094523462873,0.2136857430843319,5.503431708991077,16.515109265601794,0.5993688918844399,0.2482154345761465,0.1181564404945023,0.3781120036461003,0.1648953511116906,-0.1538101916783543,0.4294483355630755,0.3449226972490382,-0.0321454324642301,-0.0735694822888283,0.1617758229674936,0.4460628671217653,DLLHSSR,nuclear_speckle,PIAS1_HUMAN
PIAS1_HUMAN_14,0.1499187432286023,0.2619589977220957,7.156684491978609,16.66008947828102,0.6390482855143457,0.5928495197438634,0.3657167530224525,0.5293976481881449,0.5783090491258889,-0.1226280681303024,0.6304347826086957,0.6754266211604095,0.014555666619068,0.0286734256747108,0.2897959183673469,0.4491170860764166,DQLSAGGSTSLPTTNGSSSGSNSSLVSSNSLRESHSHTVTNRSSTDT,nuclear_speckle,PIAS1_HUMAN
RL1D1_HUMAN_0,0.1217197307721394,0.1632051596920415,6.516634689178818,17.973330050878058,0.8257009010731614,0.256464221286831,0.2069259197298982,0.519446189279732,0.4265867611005176,-0.0620823244552058,0.564486865977755,0.6181210337717454,0.0230483434345648,0.0093267428734259,0.2450107555656192,0.6623672937232259,MEDSASASLSSAAATGTSTSTPAAPTARKQLDKEQVRKAVDALLTH,nucleolus,RL1D1_HUMAN
RL1D1_HUMAN_1,0.0297948093319591,0.033074112245854,4.262502323852017,15.928480610298791,0.394298866855524,0.3427762039660056,0.1906052393857271,0.4214092140921409,0.1275520942959377,-0.2239157762413576,0.4579922447221025,0.1956053425247738,-0.0264550264550264,-0.0630511463844797,0.1910248635536688,0.3411327356221298,LTLP,nucleolus,RL1D1_HUMAN
RL1D1_HUMAN_2,0.1792260692464358,0.2630772178578272,6.539638812366085,21.165610142630744,0.6993060909791827,0.505647047116772,0.3261687264911338,0.5511202678341488,0.4043035107587769,-0.0482991014120667,0.6506861063464837,0.5689906814864714,0.0635517719263512,0.0245076040887559,0.2475506949191159,0.4679316622321803,DICLFTKDEPNSTPEKTEQFYRK,nucleolus,RL1D1_HUMAN
RL1D1_HUMAN_3,0.1524812863875797,0.2672581092320488,4.613045273152608,18.52231631952392,0.3878871300757054,0.4255388634879164,0.1098459477561955,0.2592096450100469,0.3053977272727273,-0.3292598967297762,0.3370786516853932,0.3061797752808989,-0.0984126984126984,-0.1,0.1767336112163698,0.2007578628268283,SSFV,nucleolus,RL1D1_HUMAN
NOL4_HUMAN_0,0.1064516129032258,0.0888563049853372,5.880407124681934,14.072700836059616,0.5953557880216117,0.1187492815266122,0.0839411036191,0.3079675244254851,0.0365497076023391,-0.1622807017543859,0.4421553090332805,0.3744186046511628,0.0098491264389448,0.0040776638123019,0.1268259470165882,0.3589047211577811,MESE,nucleolus,NOL4_HUMAN
NOL4_HUMAN_1,0.1006783172386139,0.2194994786235662,6.427023945267959,19.93980625060851,0.7351019341348667,0.5295008280104093,0.1519434628975265,0.5277577505407354,0.435804542702576,-0.1432569314567321,0.4365919955009841,0.6012588362663723,0.0997341211225997,0.0512999071494893,0.2131646425653019,0.6810107387119735,DSGKTKTVTRKKYERIVQLLNGSES,nucleolus,NOL4_HUMAN
NOL4_HUMAN_2,0.2141411261582323,0.3002993585174626,6.874723328906596,19.724101732118147,0.657335771557181,0.7449925140614252,0.210958904109589,0.5799614643545279,0.710418680746635,-0.0703923123571395,0.8302014558997799,0.6568279187926543,0.1113945578231292,0.012590698842897,0.3002970735098919,0.4127959658038845,LGQPDEVRGGGGGAKQVLYVPVKTTDGVGVDEKL,nucleolus,NOL4_HUMAN
NOL4_HUMAN_3,0.1848810437452033,0.2389463019250253,6.822848370486455,20.213447077964908,0.7379593617098615,0.3550412679261839,0.2234034357907711,0.5705583756345177,0.4506405425772419,-0.085985506632199,0.6308150353554149,0.6469348013880145,0.0167130919220055,0.0512999071494893,0.2746829020801623,0.5909646739130435,ETGPNGEQIRKHAGQKRTYKAISES,nucleolus,NOL4_HUMAN
NOL4_HUMAN_4,0.2556110747051114,0.3184040562564133,7.230628956785026,20.729544227654817,0.8775401381401898,0.6834795760362026,0.3528089079167491,0.6111699271192942,0.9915154371906668,-0.0457964030634196,0.9393558788242352,0.7394831579477368,0.4218812756044662,0.0607363680313478,0.2783051137335385,0.7489041627340054,MSCSECQKRMHLNPDGTDHKDNGKPPTLVTSMIDYNMPITMAYMKHMKLQLLNSQQDEDESSIESDEFDMSDSTRMSAVNSDLSSNLEERMQSPQNLHGQQDDDSAAESFNGNETLGHSSIASGGTHSREMGDSNSDGKTGLEQDEQPLNLSDSPLSAQLTSEYRIDDHNSNGKNKYKNLLISDLKMEREARENGSKSPAHSYSSYDSGKNESVDRGAEDLSLNRGDEDEDDHEDHDDSEKVNETDGVEAERL,nucleolus,NOL4_HUMAN
NOL4_HUMAN_5,0.3178778910446125,0.4060067960100844,7.482054074530044,20.7840184930651,0.8795196056104063,0.7928453559641678,0.3178082191780822,0.6234654157101507,0.6886883144627216,-0.0360835500754583,0.8436440182434803,0.7451445608583367,0.154756941549237,0.0387001753103652,0.30773980003087,0.8176966292134832,ENLDRMVPISKQPKEKIQAIIDSCRRQFPEYQERARKRIRTYLKSCRRMKRSGFEMSRPIPSHLTSAVAESILASACESESRNAAKRMRLERQQDESAPADKQCKPEATQATYSTSAVPGSQDVLYINGNGTYSYHSYRGLGGGLLNLNDASSSGPTDLSMKRQLATSSGSSSSSNSRPQLSPTEINAVRQLV,nucleolus,NOL4_HUMAN
LC7L3_HUMAN_0,0.1085191681282886,0.2422703376993673,7.292682926829267,16.514147606696532,0.507330031812666,0.3113217373190293,0.1603717989928211,0.4287184177432263,0.1823371116366305,-0.0650005195884859,0.6495111731843576,0.6289964638458725,0.013011258862202,0.0093575690936787,0.1791193713359112,0.2680595091036038,LMGRDRNLAPDEKRSNVR,nuclear_speckle,LC7L3_HUMAN
LC7L3_HUMAN_1,0.1875145225001936,0.2503770739064856,6.239133126934984,19.62146074646075,0.8095220078193972,0.2737708802274612,0.1512656297651723,0.4413113936674146,0.4130808950086058,-0.0641830959636793,0.5830011243994685,0.5056258244742764,0.1610779930452061,0.0203519312450885,0.2130091080941742,0.5989233805849632,RSDLGPCEKIHDENLRKQYEKSSR,nuclear_speckle,LC7L3_HUMAN
LC7L3_HUMAN_2,0.1886880105299833,0.2617836554764327,6.491467944232115,17.08564353770792,0.779448934810988,0.47426597582038,0.2944577815637987,0.4965055817507501,0.5019311502938707,-0.0847375504710632,0.5445544554455446,0.5876772616136919,0.0250610743597485,0.0177321511899206,0.2776984494097299,0.6778451317917141,RGHARLALSQNQQSSGAAGPTGKNEEKIQVL,nuclear_speckle,LC7L3_HUMAN
RPP29_HUMAN_0,0.195619335347432,0.2495498327950381,7.314688414147682,20.740037194473963,0.9100000808479332,0.6781569965870308,0.2520102339181286,0.6203367360466658,0.5246011273526321,-0.0356741456104566,0.618834851349029,0.6676728615952903,0.104689413823272,0.0115762552160452,0.1912268590623237,0.7834933667635592,SVIYHALSQKEANDSDVQPSGAQRAEAFVRAFLKRSTPRMSPQAREDQLQRKAVVLEYFTRHKRKEKKKKAKGLSARQRRELRLF,nucleolus,RPP29_HUMAN
RPP29_HUMAN_1,0.1167484997272231,0.1075665277332478,5.716860034559368,16.72972972972973,0.7135162150155486,0.1930757745427398,0.1774434485702091,0.4284037558685446,0.3131229235880399,-0.0668252080856123,0.4204419889502762,0.3917127071823204,-0.026484585143803,-0.0751775984550658,0.244428772919605,0.6092762270047588,QPQMIQAK,nucleolus,RPP29_HUMAN
IF2A_HUMAN_0,0.0281130876747141,0.0351360281969379,6.250075323892739,14.07048872180451,0.4839667458432304,0.1060400407193756,0.1036387743076016,0.3084119033588686,-0.0906010928961748,-0.1857028112449799,0.5311410064773293,0.2538340542666142,-0.0342553400925287,-0.0706762476621714,0.1422248204442959,0.3321413546487168,LSKR,stress_granule,IF2A_HUMAN
IF2A_HUMAN_1,0.0396952686447473,0.0429029671210906,5.62751228226887,16.312488344626097,0.7026939829004678,0.2870894677236693,0.09830007390983,0.2355259916235526,0.1886898096304591,-0.1275840789879666,0.2614913176710929,0.2726691443871638,-0.0167430670698007,-0.0744416873449131,0.1563169164882226,0.5795447756735767,EAIKCE,stress_granule,IF2A_HUMAN
IF2A_HUMAN_2,0.0543710021321961,0.0715539947322212,5.752436647173489,15.563223198104,0.4502798105897546,0.2254391044199961,0.0929768666020224,0.3196736174070716,0.0980810718746451,-0.1939593505166345,0.5063713230915803,0.3492337359179945,-0.006519471488178,-0.0428396572827417,0.146784636767348,0.3156775907883082,LDSLDL,stress_granule,IF2A_HUMAN
IF2A_HUMAN_3,0.09589483891822,0.1032216355996121,5.272610027406094,16.867986328681287,0.5522959183673469,0.4736858446921477,0.1271891418563923,0.3626935436751388,0.3351595424443107,-0.1530584748046348,0.4113316975239794,0.5380168963983993,-0.0358939656947836,-0.0814922264375511,0.1591807141562443,0.437506416179037,EVLINNINR,stress_granule,IF2A_HUMAN
IF2A_HUMAN_4,0.205922965116279,0.2302688953488372,7.7040347610180016,19.195465343767463,0.7410467115423842,0.6347534774281021,0.2009151501222289,0.6111127121819072,0.5610398735288952,-0.0828916306623313,0.5229258037623691,0.7002026184538653,0.0419409441414331,0.0514041316978695,0.2691044989164709,0.5880253882827811,LRAGLNCSTENMPIKINLIAPPRYVMTTTTLERTEGLSVLSQAMAVI,stress_granule,IF2A_HUMAN
PERE_HUMAN_0,0.1077114427860696,0.1320895522388059,6.4238578680203045,17.64294094642159,0.4282033898305085,0.3502287635742241,0.276869373507257,0.543541526751735,0.6518852264643111,-0.0674327611124819,0.8843087692008555,0.4085164300991639,0.0219634548904426,0.0072249232691419,0.3394327538883806,0.3043880236114074,QPCEGTDPASPGAVETS,stress_granule,PERE_HUMAN
PERE_HUMAN_1,0.1169618561130472,0.2148278989831479,6.569446451799393,17.245555555555555,0.6449491406524027,0.2175376957985653,0.1455963600909977,0.4666883327916802,0.299628252788104,-0.1660168408636676,0.4233028522981893,0.5953486771940689,-0.0324357405140758,-0.0747345221398517,0.237395607794618,0.5400555976750063,IKQRLRSGS,stress_granule,PERE_HUMAN
PERE_HUMAN_2,0.0195945084371148,0.0296680409741998,3.234400184204467,15.596361961777571,0.5287207951465083,0.2201497353814379,0.044562221751113,0.1501377994488022,0.0448393625094864,-0.245320010118897,0.0441456030416109,0.1007533619657818,-0.0504193310623717,-0.1269945616446542,0.1072686519372398,0.3697299605080585,LLS,stress_granule,PERE_HUMAN
PERE_HUMAN_3,0.20115709835336,0.3393413440142412,7.126485827491618,16.898519321054533,0.6834514985497905,0.4874195331585799,0.267735000977135,0.5170769385767539,0.6227897838899804,-0.0643975493533015,0.5708947021323367,0.6825018832162905,0.0208118241591044,0.0029343041895343,0.3007831811203913,0.4514831449582943,EEKLQPQRSGPFNVTDVLTE,stress_granule,PERE_HUMAN
PERE_HUMAN_4,0.0551896733403582,0.1332096474953618,4.636595744680851,12.9081458273996,0.5316508313539192,0.1566655854686993,0.1344700298822288,0.4772807171734927,0.1742034228468067,-0.1484625017392514,0.4312810037934053,0.2970528158739422,-0.0228548516439454,-0.0735294117647058,0.215578619248344,0.3402825468458746,QASGC,stress_granule,PERE_HUMAN
PERE_HUMAN_5,0.1463718467767051,0.2817047144797258,7.030185979971388,19.466159432820337,0.7403612833647883,0.609706233580129,0.2096436801985463,0.4466982980020023,0.5487289478689009,-0.0801920926254851,0.5367202169831004,0.6687433011789925,0.0140123279816513,0.0047663417431192,0.2487754451389761,0.5729091991591839,DQAERCSDKYRTITGRCNNKRRPLLGAS,stress_granule,PERE_HUMAN
PERE_HUMAN_6,0.1091471498011489,0.3224815724815725,5.855421686746988,15.22289156626506,0.2257586240980527,0.2394179894179894,0.2366175329712956,0.435268817204301,0.5595446584938704,-0.1499477533960292,0.0966037735849056,0.1713207547169811,-0.0986842105263157,-0.131578947368421,0.2172831830898352,0.1703218767048554,LPFGW,stress_granule,PERE_HUMAN
PERE_HUMAN_7,0.1303743961352657,0.2504830917874396,6.456819414316703,18.74044412085912,0.5772707572286546,0.5190811411633939,0.1843140929535232,0.5464767616191905,0.2043020270868372,-0.0734829414600182,0.5362245755589174,0.6175160122528544,0.0156611908919217,0.0112069272707835,0.2125484666901656,0.3878728953500934,VRFPNERLTS,stress_granule,PERE_HUMAN
PERE_HUMAN_8,0.1092657342657342,0.2786713286713286,6.530520995334371,18.56607326258131,0.5862869437209829,0.3670363780898664,0.0703103288559518,0.2265863825845298,0.1961461210143108,-0.2744662351463626,0.4291164352205097,0.5666446934739617,0.0135746606334841,-0.0701357466063348,0.1526348419094854,0.4458732226816971,ARVAFTA,stress_granule,PERE_HUMAN
PERE_HUMAN_9,0.2055086329322072,0.3025076612601838,7.090718479172491,19.18396113833237,0.5484353428439944,0.4663760896637609,0.366887417218543,0.5697674418604651,0.6547314578005116,-0.0542534722222222,0.9259137034898112,0.737101778282255,0.0040208069731477,-0.0184059718904943,0.2590335219851981,0.4118553568327834,CFPIKIPPNDPRIKNQRDCIPFFRSAPSCPQNKNRVRNQINA,stress_granule,PERE_HUMAN
PERE_HUMAN_10,0.0114716486397902,0.0237627007538511,2.7705984388551603,16.415763226366003,0.7102925243770314,0.1828819068255688,0.0271449270894349,0.0668989117365971,-0.1310688166358269,-0.1641113754515816,0.0567634317178833,0.0560346572735738,-0.0403134182174338,-0.1192948090107737,0.0641936332544067,0.5724809260720863,ALL,stress_granule,PERE_HUMAN
PERE_HUMAN_11,0.0728003573023671,0.1223760607414024,6.027019258407589,16.92323049001815,0.7102925243770314,0.1828819068255688,0.1387362637362637,0.4807692307692308,0.198356940509915,-0.1641113754515816,0.5232080833596463,0.4193242816545627,0.0584958217270195,-0.0118829981718464,0.215071215634316,0.5417526740476637,FLAGDT,stress_granule,PERE_HUMAN
PERE_HUMAN_12,0.1026237130521421,0.2451012952507472,6.189053896212248,16.72604223064429,0.7822669229713031,0.3427762039660056,0.185941893158388,0.4149953139643861,0.1658919233004067,-0.0838645856232138,0.4400268636668905,0.4114723545247463,-0.0136286931899436,-0.0618002686968204,0.2181772846278518,0.6402700715288455,TPKLAAMHTL,stress_granule,PERE_HUMAN
PERE_HUMAN_13,0.1454031732232123,0.1660863142344623,6.661436994104127,17.358472998137803,0.7319569120287253,0.1857808243255119,0.1878494623655913,0.4681381957773513,0.1804636417673865,-0.0685400959561343,0.5894824360839742,0.5357377637004721,0.0206494089480772,0.0495286547957504,0.2181772846278518,0.6406057621275548,ATELRRLNPR,stress_granule,PERE_HUMAN
GRAA_HUMAN_0,0.1125951234663767,0.2407206087901848,5.697412823397076,15.79302587176603,0.371373771277871,0.4035785288270377,0.093319395609617,0.3884823719471633,0.4239533651298357,-0.2143187209266504,0.3397508493771234,0.3681303757356269,-0.0116572527340463,-0.0776780845684826,0.1912516430553527,0.3037161645511546,ILGAHSIT,stress_granule,GRAA_HUMAN
GRAA_HUMAN_1,0.0749334347660707,0.1093571700266261,6.096757852077001,16.221647058823528,0.6097968629467729,0.1846232964772435,0.0921034435071221,0.2489282256949246,-0.1174681833539813,-0.2743552201824529,0.2234696605185779,0.3475006682705159,-0.0627131489200454,-0.1104585070102311,0.1227235342497943,0.3842001651108148,TKQI,stress_granule,GRAA_HUMAN
GRAA_HUMAN_2,0.2153053132434575,0.5071779744346117,7.467337602927722,19.682771773680862,0.429305912596401,0.5162866274252387,0.2224083068162786,0.5618311533888228,0.4144859813084112,-0.0919093851132686,0.594515931372549,0.7071523682708769,-0.0102184835996161,-0.040133779264214,0.278575890068707,0.3145058493612441,KPGTMCQVAGWGRTHNSASWSDT,stress_granule,GRAA_HUMAN
GRAA_HUMAN_3,0.0919377652050919,0.2376237623762376,7.389154704944179,14.679425837320574,0.3281096397386225,0.1941972920696325,0.1641288951841359,0.4680286548156009,0.4269293924466338,-0.2098765432098765,0.495582848524025,0.6571254567600487,-0.0032952806873014,-0.0213604801694715,0.2353272079504969,0.1706953871727386,GRDSCNG,stress_granule,GRAA_HUMAN
EPCAM_HUMAN_0,0.1166243691840961,0.2054782532598232,7.046771672478057,15.987675844655524,0.5413776213420816,0.2478147885660288,0.1422005170927894,0.4841086550093478,0.1678919423536962,-0.0532039183966927,0.614537564415514,0.5780631560832903,0.0148922273024167,0.0061659046374918,0.2055069292487235,0.3337874828145707,GSKLGRRAKPEGALQNNDGLY,cell_junction,EPCAM_HUMAN
EPCAM_HUMAN_1,0.0707964601769911,0.0619469026548672,5.5755517826825125,15.780232367861236,0.4657980456026058,0.2683224755700326,0.1234894259818731,0.4106495468277946,0.0140916463909164,-0.2066098945660989,0.4895414320193081,0.2820562686373655,0.0031996587030716,0.01919795221843,0.1515550239234449,0.2850467289719626,KDTEI,cell_junction,EPCAM_HUMAN
EPCAM_HUMAN_2,0.1888026154474867,0.30554420378695,6.426514072938342,18.433004231311703,0.7825808790599476,0.1812597856196555,0.2030512168543407,0.4654380701646972,0.48301329394387,-0.0697576455390491,0.6317919975089522,0.6530091326471417,0.0427013533044278,-0.0052555511759295,0.2405916683437311,0.6575185264427285,EKPYDSKSLRTALQKEI,cell_junction,EPCAM_HUMAN
EPCAM_HUMAN_3,0.0911465134499869,0.1320188038652389,5.566328201768752,14.348509662626924,0.237811203319502,0.0883039419087137,0.1505320529457565,0.4375811056319751,0.1814159292035398,-0.2325699745547073,0.4477225672877847,0.3814699792960662,-0.0500312695434646,-0.0780053796813573,0.1761411665257819,0.148884801103702,QNSS,cell_junction,EPCAM_HUMAN
EPCAM_HUMAN_4,0.0637670475488389,0.1300672013873834,5.770949720670391,13.253258845437616,0.1673015873015873,0.178095238095238,0.1344700298822288,0.4772807171734927,0.5004878048780488,-0.1550954120990662,0.3901675277908251,0.5749178017848755,-0.0229226361031518,-0.080994455994456,0.2575599582898853,0.0837678136948209,VNGE,cell_junction,EPCAM_HUMAN
UBF1_HUMAN_0,0.1819383879589253,0.3535237023491349,6.758656965021478,19.85644599303136,0.8976858732113286,0.3246057846361413,0.3199256604274525,0.567800963527566,0.5110032362459547,-0.0449481220567403,0.8180718455793404,0.5470201792804225,0.0970949720670391,0.0445869153431444,0.2317073170731707,0.7445407578204954,MNGEADCPTDLEMAAPKGQDRWSQEDMLTLLECMKNNLPSNDSSKFKTTESHM,nucleolus,UBF1_HUMAN
UBF1_HUMAN_1,0.1535938253738543,0.240699276610403,6.275691699604743,18.83112124982718,0.7595845524329811,0.3465351264840073,0.2527743526510481,0.603755868544601,0.3725600812366016,-0.0628336755646817,0.5708947021323367,0.4073830620776694,0.1458333333333333,0.0377794275344386,0.2363325694849213,0.6288674109870577,LTELILDAQEHVKNPYKGKKLKKHPDFPK,nucleolus,UBF1_HUMAN
UBF1_HUMAN_2,0.1258647894161912,0.2092486952300036,6.188515560451666,19.691768131286395,0.7274181294733896,0.2820642733063115,0.1172321768966832,0.4636913767019667,0.1902899167851497,-0.0530004380201489,0.6112547329938635,0.4534557907845579,0.0153752535496957,0.0123529411764705,0.1609626385673549,0.5239233776827656,KLHPEMSNLDLTKILSKKYK,nucleolus,UBF1_HUMAN
UBF1_HUMAN_3,0.2350311041990668,0.4582757719448904,6.832699122566135,22.582979460958487,0.9014926115314807,0.6440758734512657,0.4025889334507157,0.6290064855719523,0.6038572824649817,-0.0494037619682061,0.7361309438811938,0.651824091606313,0.3338576158940397,0.0148899912599622,0.2581636250692544,0.7786051470777908,EKKKMKYIQDFQREKQEFERNLARFREDHPDLIQNAKKSDIPEKPKTPQQLWYTHEKKVYLKVRPDATTKEVKDSLGKQWSQLSDKKRLKWIHKALE,nucleolus,UBF1_HUMAN
MMP8_HUMAN_0,0.1388172521120498,0.2248999555357937,6.133267382702091,20.2598581092229,0.7330794484569928,0.3740123097396656,0.1418740074113287,0.4653448896519259,0.7283807312826466,-0.1267881695579674,0.461094289134568,0.4111379613356766,0.1067267944381811,0.0074745547073791,0.2556675062972292,0.5866489951583673,PVSSKEKNTKTVQDYLEK,stress_granule,MMP8_HUMAN
MMP8_HUMAN_1,0.2845998993457473,0.2845998993457473,6.835976488854386,19.38552288356652,0.441180522074523,0.6563254050327473,0.2132628838349031,0.5252920056355952,0.5054545454545455,-0.1087503629851902,0.5694812570995835,0.6505042213883677,-0.0101091020065613,-0.0597390707255664,0.2472955905771237,0.3314793025992085,QLPSNQYQSTRKNGTNVIVE,stress_granule,MMP8_HUMAN
MMP8_HUMAN_2,0.2387971523941748,0.3754763241071692,7.065033732450009,20.20390941186601,0.7513198692700913,0.5687724137931034,0.4102208881705533,0.583370736086176,0.5850335125580025,-0.0632332437854932,0.8115190391701924,0.7964428489842539,0.0679455659075224,0.0246397995406139,0.2894430731693477,0.4918681819476487,FGLNVTGKPNEETLDMMKKPRCGVPDSGGFMLTPGNPKWERTNLTYRIRNYTPQLSEAEVER,stress_granule,MMP8_HUMAN
MMP8_HUMAN_3,0.2718340611353712,0.349647266313933,7.15774481878008,20.84050233117762,0.6845235840121235,0.4878671775223499,0.3590352961887157,0.5493869139618753,0.572775486152033,-0.0906076445606011,0.7843904484077768,0.6931142579180629,0.047686765263557,0.0119652455636551,0.3422872768216181,0.4882291846979401,INIAFYQRDHGDNSPFDGPNGILAHAFQPGQGIGGDAHFDAEETW,stress_granule,MMP8_HUMAN
MMP8_HUMAN_4,0.1697216564833673,0.2970128988458927,5.763001974983542,18.8110599078341,0.3056471262720367,0.26737852945392,0.1642168484273747,0.4697824335213537,0.2566525739865705,-0.101313675456006,0.3847014283255894,0.3263714141922496,0.0111731843575419,-0.0677839851024208,0.1860156120245806,0.2057584574629782,NYSLPQ,stress_granule,MMP8_HUMAN
MMP8_HUMAN_5,0.171327627388535,0.2896860986547085,6.977625854568054,18.372990353697748,0.5424964073085609,0.3755025462342535,0.389799635701275,0.5742345465049105,0.6993345432546885,-0.0698318973308429,0.943007275666936,0.5314267951507616,-0.0056461124968578,-0.0370864512636077,0.2955832389580974,0.4199268398536797,AIYGLSSNPIQPTGPSTPKPCDPSLT,stress_granule,MMP8_HUMAN
CMA1_HUMAN_0,0.0381746379991224,0.1284855112083105,5.029685681024447,13.229336437718278,0.2008463049720417,0.1577089054531188,0.1427141427141427,0.4824304538799414,0.0378002528445006,-0.2006523569023569,0.4291164352205097,0.2388982145582176,-0.0334885013548252,-0.048495796567776,0.2371693954659949,0.1150662251655629,GGTE,stress_granule,CMA1_HUMAN
CMA1_HUMAN_1,0.1379757785467128,0.2309688581314879,5.755568697023458,15.869184086311533,0.339488526616704,0.4035785288270377,0.0947756845989512,0.3904641677995727,0.3538239538239538,-0.1702148565439538,0.3343720245823595,0.5429758504284602,-0.0169133192389006,-0.0704452437058166,0.1988128784699322,0.2756013745704467,LGAHNIT,stress_granule,CMA1_HUMAN
CMA1_HUMAN_2,0.053951493152945,0.052879062860914,5.812824058071207,16.01301690610366,0.6094867611996486,0.5580243931892284,0.0481349383266458,0.1610937732203893,0.3923342348223445,-0.1905798363224795,0.1539319131992833,0.2681664344017519,0.0020472575279365,0.0043504222468651,0.13804192472606,0.4424323842684615,QKLEVI,stress_granule,CMA1_HUMAN
CMA1_HUMAN_3,0.1093609360936093,0.2479065667695019,7.097302504816955,17.097235166200683,0.7363985852683377,0.3877324451845684,0.2166045383808041,0.6399841017488076,0.4343280331082553,-0.0887820739379373,0.5081957333976136,0.6762820512820513,0.0076269673239292,0.002831415963064,0.2799328608728086,0.5522905898180274,WGRTGVLKPGSDTLQEVKLRL,stress_granule,CMA1_HUMAN
CMA1_HUMAN_4,0.1555273547659334,0.2638179039991569,7.210560344827586,18.05373185901865,0.5338083181220437,0.5098934550989346,0.270123058301392,0.5429073614557486,0.4649372608347423,-0.0760588188198873,0.7306417595661344,0.6570071258907363,-0.0033763945977686,-0.0255431591309453,0.2815354070152217,0.350564468211527,LCVGNPRKTKSAFKGDS,stress_granule,CMA1_HUMAN
CMA1_HUMAN_5,0.1543091916682591,0.2509077011274603,5.86986301369863,19.30473751600512,0.4422539355598058,0.5008445945945946,0.274792243767313,0.4481994459833795,0.5116279069767442,-0.0851322590453025,0.4507598784194528,0.2404255319148936,-0.0189423835832675,-0.078005115089514,0.1955033386865015,0.235190380761523,PPAVFTR,stress_granule,CMA1_HUMAN
RPB9_HUMAN_0,0.1368078175895765,0.1100977198697068,6.127226463104326,15.993865030674849,0.163235294117647,0.1159351145038168,0.234594264795607,0.5854179377669311,0.293488160291439,-0.0664370078740157,0.8973966309341501,0.3465045592705167,-0.0049162569785851,-0.0084159653362219,0.2253468780971258,0.1044350842418235,MEPDGT,nucleolus,RPB9_HUMAN
RPB9_HUMAN_1,0.1245766299745978,0.2232536431053259,7.171384665156907,18.50837988826816,0.5861772297103527,0.4185253025895198,0.2762634866553095,0.5755464987032234,0.4742072882158069,-0.0858770595280484,0.8187941843404029,0.5750278396436526,0.0075403795895634,0.0268626022878197,0.2311218058897673,0.4261404281076322,LTQIIADVSQDPTLPRTEDHPC,nucleolus,RPB9_HUMAN
NOP2_HUMAN_0,0.2358437441341481,0.4897822535286713,7.055504587155963,19.78990512069206,0.9321119519171585,0.6000061128430834,0.4135345983503311,0.6264004888979425,0.990658362989324,-0.0381856285011888,0.8121432384706994,0.7279030479363664,0.0804092987865289,0.0673082991479962,0.2935368300372599,0.8283259110581447,MGRKLDPTKEKRGPGRKARKQKGAETELVRFLPAVSDENSKRLSSRARKRAAKRRLGSVEAPKTNKSPEAKPLPGKLPKGISAGAVQTAGKKGPQSLFNAPRGKKRPAPGSDEEEEEEDSEEDGMVNHGDLWGSEDDADTVDDYGADSNSEDEEEGEALLPIERAARKQKAREAAAGIQWSEEETEDEEEEKEVTPESGPPKVEEADGGLQINVDEEPFVLPPAGEMEQDAQAPDLQRVHKR,nucleolus,NOP2_HUMAN
NOP2_HUMAN_1,0.1799521838008047,0.2764564202920367,6.75204476969436,19.888443821349888,0.7428131169644147,0.306698512647921,0.149553971267868,0.5150342496219198,0.1706915477497256,-0.1085062956361754,0.3971298732360679,0.6099482690011938,0.2837209302325581,0.0398671096345514,0.1762310698849223,0.4645367412140575,ILRDFGAQREEGRSRSEYLN,nucleolus,NOP2_HUMAN
NOP2_HUMAN_2,0.1237607783464748,0.2084285856276712,7.165465838509316,17.098136645962732,0.854257284156587,0.5904861748132617,0.2009815950920245,0.481881390593047,0.6318175526024363,-0.0781436301935247,0.5441524394142848,0.6492642140468228,0.0098491264389448,0.0040776638123019,0.2892478152309613,0.5994014148376564,NEVPRPVTLRTNTLKTRRRDLAQA,nucleolus,NOP2_HUMAN
NOP2_HUMAN_3,0.0148894570612122,0.0264701458865994,2.372106824925816,14.25519287833828,0.5681159420289855,0.3105590062111801,0.0309112806101967,0.0793523350729292,0.033500837520938,-0.2339475153545505,0.0495394573064476,0.0639780931043067,-0.0601858681221419,-0.1596105620297979,0.0863126229318523,0.3334490339002661,VMA,nucleolus,NOP2_HUMAN
NOP2_HUMAN_4,0.0490953877516351,0.0822072072072072,5.578703703703703,16.06683870967742,0.4866708981275785,0.3110123770231672,0.0840500390930414,0.2392494136043784,0.1799567411679884,-0.1983308787432498,0.3932291666666667,0.3760258838383838,-0.0331056227009984,-0.0562270099842354,0.133751041251675,0.4904761904761904,ILDMCC,nucleolus,NOP2_HUMAN
NOP2_HUMAN_5,0.0949959388353286,0.1021473659371128,6.53535844471446,17.27376137512639,0.4730092712936487,0.4971474595610444,0.1416807497311415,0.5120498239913349,0.477753325040666,-0.0796112582484176,0.7961242793081358,0.4117709102415357,0.0135478069737236,0.0070536517134578,0.2011324041811846,0.2451686755100666,GVISKDPAVKTNKDEKDI,nucleolus,NOP2_HUMAN
NOP2_HUMAN_6,0.2050089445438282,0.3033728161853887,7.012984569062853,21.013247691690083,0.5971959905182654,0.3982948798227446,0.2501444251877527,0.5122011490702415,0.504930966469428,-0.0813448562123502,0.537385306175571,0.652706656912948,0.0802390098164746,0.0223035492335312,0.2546180338134001,0.3714465937762826,PTGLDFGQEGFTRFRERRFHPSLRSTRRFYPHTH,nucleolus,NOP2_HUMAN
GRAK_HUMAN_0,0.0685298621745788,0.0490684022460439,5.225262488068724,12.443843461660832,0.202522650559602,0.1604192574169479,0.1878494623655913,0.435268817204301,0.0268858800773694,-0.1230174081237911,0.0528388578930095,0.0725303577289136,-0.3046526449968132,-0.1765455704270235,0.244428772919605,0.0988716502115655,RPF,stress_granule,GRAK_HUMAN
GRAK_HUMAN_1,0.0996629754453538,0.2408521906596052,6.449081803005009,15.718035071420276,0.5229182389937107,0.7117828924768121,0.1198511166253101,0.3853598014888337,0.5415354004311059,-0.172242206235012,0.5250857983330609,0.3653682418050234,-0.0065888554216867,-0.0622248049887128,0.1825088528812104,0.2882610906317528,VVLGAHSLSKN,stress_granule,GRAK_HUMAN
GRAK_HUMAN_2,0.0672259751579864,0.0317062540858574,5.262684649967887,13.338471419396274,0.1603883495145631,0.2095145631067961,0.1558730158730158,0.4011111111111111,0.0738840430990251,-0.1706858217889515,0.0274939429052986,0.0685768460971242,-0.2721052631578947,-0.2173684210526315,0.2106082036775106,0.1219236209335219,IPF,stress_granule,GRAK_HUMAN
GRAK_HUMAN_3,0.0911465134499869,0.1320188038652389,5.854747727984957,17.350779106486513,0.5657205841829706,0.387029501525941,0.1481825417882727,0.4680286548156009,0.2069475240206947,-0.1568663257852447,0.5569217723129107,0.4829340682637269,-0.0109051646571891,-0.0436566492711894,0.1810900566516897,0.4549533734661197,SNDIMLVKLQ,stress_granule,GRAK_HUMAN
GRAK_HUMAN_4,0.1212402202260214,0.201796580701246,6.302027200410572,17.355601659751038,0.5857203933304831,0.3999484934329127,0.1213526261092013,0.4090654728595411,0.3345773653419407,-0.1680932001902044,0.4551946441854699,0.6321443371266456,-0.0069829901521933,-0.0588833094213295,0.1708310700706138,0.4691049286235282,HVKMLHIRSKTS,stress_granule,GRAK_HUMAN
GRAK_HUMAN_5,0.1414268519531677,0.5499569336778639,7.07809583074051,17.951355661881976,0.6000360490266763,0.724476439790576,0.2916950306330837,0.5445881552076243,0.6365313653136532,-0.0552664055373718,0.9618320610687024,0.5641025641025641,0.0081522336241183,0.0096903909116877,0.2743521219996567,0.4039678061239642,SGTKCKVTGWGATDPDSLRPSDTLREVTV,stress_granule,GRAK_HUMAN
GRAK_HUMAN_6,0.1406520128426772,0.1608421832551247,6.933333333333334,15.915796564499832,0.4345966997229694,0.5356849876948319,0.2117159288484686,0.5202185792349727,0.3554313099041533,-0.1213975155279503,0.6651210364814183,0.4671713832319492,0.0075363825363825,-0.008669893793801,0.2808632180260235,0.3288848158542872,MVCAGDAKGQKDSCKGD,stress_granule,GRAK_HUMAN
GRAM_HUMAN_0,0.1186579378068739,0.3187297171998146,7.05241935483871,19.610192372595343,0.5700995807127882,0.2037473794549266,0.2362404741744284,0.5004233700254022,0.2949067510088341,-0.1030369462892514,0.2717391304347826,0.6273291925465838,-0.023288637967537,-0.0711166562694946,0.2646121147715196,0.3402825468458746,SRPYMAS,stress_granule,GRAM_HUMAN
GRAM_HUMAN_1,0.0793108800248331,0.1001086450411299,6.070599613152805,16.494593285990963,0.6757429922323539,0.2068921397193671,0.0956740442655935,0.3793762575452716,0.1443772757803938,-0.1641113754515816,0.5475913427973005,0.3901947094872391,-0.006519471488178,-0.0478963838664812,0.1708452184356703,0.513743472844382,LLQLDG,stress_granule,GRAM_HUMAN
GRAM_HUMAN_2,0.0905477877801187,0.2255819260611593,7.033986405437825,18.412366230677765,0.4770533779791215,0.3625950277378262,0.1804538145435054,0.4869572985527961,0.4925053533190578,-0.093996302422886,0.426760394136025,0.6534983341266064,-0.0157523727011381,-0.050407268170426,0.2049473525114615,0.3948566154237881,PSRTIRPLALPSKR,stress_granule,GRAM_HUMAN
GRAM_HUMAN_3,0.122459921720015,0.2075029308323563,6.60360102886539,15.443903795356595,0.5070062764559918,0.2583666596505998,0.2642324463099555,0.5241028800246419,0.5414634146341464,-0.0755716897639047,0.667064280980782,0.4160371106693174,-0.000817260542661,-0.0285642696066148,0.2930049579650787,0.3710867753838828,AADSKDQAPCKGDSGGP,stress_granule,GRAM_HUMAN
AFF2_HUMAN_0,0.295796256520405,0.4620549215694181,7.621949835432981,22.24336509888308,0.906940987921352,0.8699008434157689,0.5921266968325792,0.6774962096599524,0.9197283277180598,-0.0329492564422749,1.037094064949608,0.7962477856092872,0.4719678714859437,0.1026825767091333,0.3286715484458971,0.8000849691986655,QCHYEQDRSALKKREWERRNQEVQQEDDLFSSGFDLFGEPYKVAEYTNKGDALANRVQNTLGNYDEMKNLLTNHSNQNHLVGIPKNSVPQNPNNKNEPSFFPEQKNRIIPPHQDNTHPSAPMPPPSVVILNSTLIHSNRKSKPEWSRDSHNPSTVLASQASGQPNKMQTLTQDQSQAKLEDFFVYPAEQPQIGEVEESNPSAKEDSNPNSSGEDAFKEIFQSNSPEESEFAVQAPGSPLVASSLLAPSSGLSVQNFPPGLYCKTSMGQQKPTAYVRPMDGQDQAPDISPTLKPSIEFENSFGNLSFGTLLDGKPSAASSKTKLPKFTILQTSEVSLPSDPSCVEEILREMTHSWPTPLTSMHTAGHSEQSTFSIPGQESQHLTPGFTLQKWNDPTTRASTKSVSFKSMLEDDLKLSSDEDDLEPVKTLTTQCTATELYQAVEKAKPRNNPVNPPLATPQPPPAVQASGGSGSSSESESSSESDSDTESSTTDSESNEAPRVATPEPEPPSTNKWQLDKWLNKVTSQNKSFICGQNETPMETISLPPPIIQPMEVQMKVKTNASQVPAEPKERPLLSLIREKARPRPTQKIPETKALKHKLSTTSETVSQRTIGKKQPKKVEKNTSTDEFTWPKPNITSSTPKEKESVELHDPPRGRNKATAHKPAPRKEPRPNIPLAPEKKKYRGPGKIVPKSREFIETDSSTSDSNTDQEETLQIKVLPPCIISGGNTAKSKEICGASLTLSTLMSSSGSNNNLSISNEEPTFSPIPVMQTEILSPLRDHENLKNLWVKIDLDLLSRVPGHSSLHAAPAKPDHKETATKPKRQTAVTAVEKPAPKGKRKHKPIEVAEKIPEKKQRLEEATTICLLPPCISPAPPHKPPNTRENNSSRRANRRKEEKLFPPPLSPLPEDPPRRRNVSGNNGPFGQDKNIAMTGQITSTKPKRTEGKFCATFKGISVNEGDTPKKASSATITVTNTAIATATVTATAIVTTTVTATATATATTTTTTTTISTITSTITTGLMDSS,nuclear_speckle,AFF2_HUMAN
AFF2_HUMAN_1,0.1866224433388612,0.2892205638474295,6.584151775020361,17.845454545454544,0.7941488555403972,0.4120716168717047,0.205171355149751,0.5055163682401881,0.4024607551972847,-0.088392133441406,0.6365159128978225,0.6655856854181604,0.0974000776096235,-0.0085370585952658,0.2555894122398032,0.5475315576033357,WAALPLLSSSSTNVRRPKLTFDDS,nuclear_speckle,AFF2_HUMAN
AFF2_HUMAN_2,0.123872630222713,0.1902231668437832,6.998078565328779,18.043303929430632,0.7050247637523331,0.1310715157432267,0.185941893158388,0.4643368320610687,0.1597715173025732,-0.0658947157056323,0.6155413503795445,0.5837943377806704,0.0120033565617133,0.0036961765231373,0.1930805056553559,0.463465875737634,GNAMERDPLEAKSPY,nuclear_speckle,AFF2_HUMAN
AFF2_HUMAN_3,0.240167633784655,0.4951644100580271,7.028985507246377,20.391845627139745,0.7835650702567498,0.5040317911712805,0.350375234521576,0.5555555555555556,0.7076401725200246,-0.0856687631027253,0.6085488273118379,0.7124919836635502,0.0119809394145677,-0.0631032742413727,0.3507167235494881,0.6004055683437466,QIPSPWVSNGKNTPSPVSLNNVSPINAMGNCNNGPVTIPQRIHHMAA,nuclear_speckle,AFF2_HUMAN
AFF2_HUMAN_4,0.2000778513040093,0.2962192160943461,6.067334379148063,19.088929219600725,0.6151625541274315,0.2909213111363871,0.19631741382016,0.4315741691008131,0.55330409798881,-0.1142527686357412,0.6472849490599727,0.4706579727326615,0.3552631578947368,-0.0010121457489878,0.2250834766771223,0.3188569583467872,NKEFFGDLDTLMGPLTQHSSMT,nuclear_speckle,AFF2_HUMAN
HNRPM_HUMAN_0,0.2452039335805255,0.3297354373203496,7.012141565486954,20.76296186670613,0.873143495254048,0.4583406873992493,0.4732515925748339,0.572609049038201,0.6168863674286668,-0.0276457122732875,0.5982564475118053,0.742089629342632,0.059338061465721,0.0401191658391261,0.3083275261324041,0.7566454951776053,MAAGVEAAAEVAATEIKMEEESGAPGVPSGNGAPGPKGEGERPAQNEKRKEKNIKRGGNRFEPYANPTKRYRAFITNI,nucleolus,HNRPM_HUMAN
HNRPM_HUMAN_1,0.2084745762711864,0.1508474576271186,6.229832572298326,16.648826830126485,0.665457897971727,0.2607122221208527,0.097631426920855,0.2451376853456576,0.0623038995965934,-0.130628453038674,0.4398987206823028,0.4773342354533152,0.028859707693449,-0.0057125899547444,0.1410777500983348,0.543382955147661,WQSLKDLVKEK,nucleolus,HNRPM_HUMAN
HNRPM_HUMAN_2,0.1434510393188079,0.2555972952667167,5.880407124681934,20.37131601984243,0.7930658794172949,0.6499422346921935,0.0743202416918429,0.3661631419939577,0.4443270652862878,-0.098388341012864,0.4320688502673797,0.3546122994652406,0.0626985808091506,0.01919795221843,0.2253468780971258,0.6651982903337182,GEVTYVELLMDAE,nucleolus,HNRPM_HUMAN
HNRPM_HUMAN_3,0.231292836353394,0.2432662226533971,7.093415007656968,18.51702148859145,0.9046452853820004,0.6064810523688995,0.4385229802278381,0.584012830611796,0.6457931490564404,-0.0401272407965804,0.9093278992491416,0.6617428003972194,0.1751518781552151,0.0602570386102488,0.3287878787878788,0.7762129252345304,KSRGCAVVEFKMEESMKKAAEVLNKHSLSGRPLKVKEDPDGEHARRAMQKVMATTGGMGMGPGGPGMITIPPSILNNPNIPNEIIHAL,nucleolus,HNRPM_HUMAN
HNRPM_HUMAN_4,0.1301325424043006,0.2670312355176569,7.194163424124514,18.96098297046777,0.663552491016801,0.6296232359414786,0.1652907893516371,0.589359985101496,0.5969780559100828,-0.1200506237570059,0.7249716231555051,0.6423066542717486,0.074022346368715,0.0027932960893854,0.2482839444165411,0.5179239311813107,ADILEDKDGKSRGIGTVTFEQ,nucleolus,HNRPM_HUMAN
HNRPM_HUMAN_5,0.2828804347826087,0.4286298568507157,7.683319995427004,19.3801652892562,0.8455335885954597,0.669984868997372,0.4750040709982087,0.5697038617917841,0.6807710960232783,-0.0361641169792961,0.778316973640675,0.749968382445934,0.0796665230604427,0.042904803641607,0.3298125165038288,0.6917958501732263,RPMHVKMDERALPKGDFFPPERPQQLPHGLGGIGMGLGPGGQPIDANHLNKGIGMGNIGPAGMGMEGIGFGINKMGGMEGPFGGGMENMGRFGSGMNMGRINEILSNALKRGEIIAKQGGGGGGGSVPGIERMGPGIDRLGGAGMERMGAGLGHGMDRVGSEIERMGLVMDRMGSVERMGSGIERMGPLGLDHMASSIERMGQTMERIGSGVERMGAGMGFGLERMAAPIDRVGQTIERMGSGVERMGPAIERMGLSMERMVPAGMGAGLERMGPVMDRMATGLERMGANNLERMGLERMGANSLERMGLERMGANSLERMGPAMGPALGAGIERMGLAMGGGGGASFDRAIEMERG,nucleolus,HNRPM_HUMAN
HNRPM_HUMAN_6,0.1708428246013667,0.3202955236853542,5.896434634974533,18.1762486992716,0.3283309336582124,0.3556318529183741,0.1665804449042938,0.4949083503054989,0.4012285564461757,-0.1815972222222222,0.3221663874930207,0.3814143477150881,-0.0028854080791426,-0.0594524119947848,0.2399457749661093,0.2536910776475204,GGSFAGSFGGAGGHAP,nucleolus,HNRPM_HUMAN
HNRPM_HUMAN_7,0.1467927631578947,0.2327302631578947,5.859589041095891,18.474930362117,0.4329501915708812,0.6101309567115315,0.1893382352941176,0.4788602941176471,0.5335703748534252,-0.1917914300464636,0.2182741116751269,0.2726691443871638,-0.0260859702846773,-0.0706855161376367,0.2567432567432567,0.3176358824726878,GCGVVKFE,nucleolus,HNRPM_HUMAN
HNRPM_HUMAN_8,0.1298298868019983,0.2137481818756719,6.4475885140786175,17.28331474770003,0.7065059604979546,0.2040790473777552,0.1097136529030216,0.4103781047302642,0.2537270642201835,-0.1283422459893048,0.4523200584581658,0.6034334763948498,-0.0157034731555492,-0.0982528117705312,0.1765475152571926,0.5356199455439509,RACRMMNG,nucleolus,HNRPM_HUMAN
RPAB3_HUMAN_0,0.1719109746738296,0.259401381427475,6.729215176003288,17.947860962566846,0.391420664206642,0.3257380073800738,0.0974019559419144,0.3268203637347035,0.2788647981667548,-0.240006746500253,0.5250456561440126,0.6280193236714976,0.032436928195176,-0.0593290823398946,0.1823598981077147,0.2596666866494814,KFDRVSR,nucleolus,RPAB3_HUMAN
RPAB3_HUMAN_1,0.2830649097120546,0.278251204149685,7.233517375771354,18.66539851626403,0.5090199325723074,0.2952529369455766,0.3421875,0.5136937926704858,0.5025062656641605,-0.0691845792359237,0.8446652719665272,0.6421348314606742,0.3323330832708177,0.0206301575393848,0.2585835589465912,0.3197054834334431,TLDDGEYNPTDDRPSRAD,nucleolus,RPAB3_HUMAN
RPAB3_HUMAN_2,0.075,0.0959482758620689,5.9201629942650165,15.730908542106851,0.7699230147291455,0.2490759169746943,0.1365618187480535,0.3611024602927437,0.242512908777969,-0.0917976489235239,0.4365919955009841,0.2857812353547661,0.0031639178727701,0.033187478963312,0.2055069292487235,0.5231668155588285,TSTEAAT,nucleolus,RPAB3_HUMAN
RRP1_HUMAN_0,0.135,0.1774349527976053,6.5589463994901935,17.038023082914396,0.7384771397830846,0.1290362473874921,0.1185027388922702,0.4245547574535078,0.1122200895713371,-0.088392133441406,0.5579326012873912,0.5819372811805895,0.0208118241591044,0.0029343041895343,0.1741975910325141,0.5951252538930264,LAQRLAGNEQ,nucleolus,RRP1_HUMAN
RRP1_HUMAN_1,0.1028703525332306,0.123675592371412,5.930526315789474,15.004912280701754,0.650801021592756,0.0910548823948681,0.2080536912751678,0.436241610738255,0.5501369863013699,-0.2275029487268438,0.411969696969697,0.3916489464527353,-0.0272009910856157,-0.068352589480488,0.193050193050193,0.3842001651108148,PSSQA,nucleolus,RRP1_HUMAN
RRP1_HUMAN_2,0.0254733803175681,0.0245393563725906,3.153462365591398,16.06683870967742,0.492076653768196,0.2018610650451446,0.0573935205607018,0.2138901141988923,0.1740083507306889,-0.1782359081419624,0.0612587165680995,0.0872980845617441,-0.0599742046431642,-0.1225279449699054,0.1277213778534123,0.339856815914559,ELT,nucleolus,RRP1_HUMAN
NOP14_HUMAN_0,0.2685397744285857,0.3367496339677892,7.455216535433071,21.92007487462033,0.9461647905594844,0.5841509231189465,0.3059084810068014,0.6310127796084175,0.9050437629872174,-0.0257930304706476,0.9946070878274268,0.7048886024673172,0.3458333333333333,0.0561877029902564,0.3052588440590132,0.8404635888639365,MAKAKKVGARRKASGAPAGARGGPAKANSNPFEVKVNRQKFQILGRKTRHDVGLPGVSRARALRKRTQTLLKEYKERDKSNVFRDKRFGEYNSNMSPEEKMMKRFALEQQRHHEKKSIYNLNEDEELTHYGQSLADIEKHNDIVDSDSDAEDRGTLSAELTAAHFGGGGGLLHKKTQQEGEEREKPKSRKELIEELIAKSKQEKRERQAQREDALELTEKLDQDWKEIQTLLSHKTPKSENRDKKEKPKPDAYDMMVRELGFEMKAQPSNRMKTEAELAKEEQEHLRKLEAERLRRMLGKDEDENVKKPKHMSADDLNDGFVLDKDDRRLLSYKDGKMNVEEDVQEEQSKEASDPESNEEEGDSSGGEDTEESDSPDSHLDLESNVESEEENEKPAKEQRQTPGKGLISGKERAGKATRDELPYTFAAPESYEELRSLLLGRS,nucleolus,NOP14_HUMAN
NOP14_HUMAN_1,0.1358951965065502,0.2055021834061135,6.120051555882895,18.546264855687607,0.7345677127854439,0.5278297028192118,0.1527985836851423,0.6045643153526971,0.3541030340052942,-0.1028649652879632,0.5952813067150635,0.6006374906562487,0.0281492729077848,-0.0006409278193193,0.2284376104630611,0.6286815943510173,EQLLVVERIQKCNHPSLAEGN,nucleolus,NOP14_HUMAN
NOP14_HUMAN_2,0.1181117533718689,0.1978805394990366,5.255844728716365,16.494593285990963,0.6757429922323539,0.1694106720702465,0.0623817149512301,0.2108749454069005,-0.0061601642710472,-0.1641113754515816,0.3269045323047251,0.3153326904532305,-0.0424813184563414,-0.088695652173913,0.13383072977384,0.513743472844382,DHLA,nucleolus,NOP14_HUMAN
NOP14_HUMAN_3,0.1076825050063717,0.105816493719279,5.819852941176471,16.494593285990963,0.8070897992204162,0.2697229085774797,0.0817500567708727,0.2855953372189841,0.1438714795715985,-0.0871522831835224,0.5708947021323367,0.361604345101316,0.0099298205434409,0.0027646452583879,0.1382944915254237,0.599515674443687,ELQELCQSTLTE,nucleolus,NOP14_HUMAN
NOP14_HUMAN_4,0.1177489177489177,0.203687670354337,6.701078919984665,16.986581959581578,0.7224475401163816,0.3125423728813559,0.1576594880130028,0.4198136597332776,0.6019509125235998,-0.097515801852124,0.4648446109764161,0.5511005187158279,-0.0195397145632518,-0.0576851229171336,0.2386181651795927,0.5306944308024752,QKQLCRPLTCE,nucleolus,NOP14_HUMAN
RPP38_HUMAN_0,0.128317397909034,0.2557858993834331,7.44616234124793,17.179444133557173,0.7835650702567498,0.6073706591070163,0.2752966895690193,0.5357085281315492,0.5883991894630193,-0.0703580349708576,0.3791513453569136,0.6819639550115182,-0.0154861257569823,-0.0517299643869089,0.2732387162766909,0.6004055683437466,MAAAPQAPGRGSLRKTRPLVVK,nucleolus,RPP38_HUMAN
RPP38_HUMAN_1,0.0919624456148385,0.2461186168994733,6.05861416972528,18.50967555598344,0.6446074414030487,0.3421245421245421,0.1577127270956115,0.4469628286491387,0.3265617064499746,-0.0977731585734357,0.630901287553648,0.3895256166982922,0.0285466377440347,0.0076301407928862,0.1914180007606929,0.4665621734587252,IGLQKIEDKKKKNKTPFLKKESR,nucleolus,RPP38_HUMAN
RPP38_HUMAN_2,0.2231182795698924,0.4955197132616487,6.01499538911832,18.80329218106996,0.7389800697607778,0.505352798053528,0.1723356009070294,0.5370910268869452,0.4000754147812971,-0.0936679311351035,0.6208183776022972,0.4322535168101995,0.0265337423312883,0.0357950013294336,0.237823381165458,0.5400686595458275,IAVDISENLKEKKTDAKQQVSGWTPA,nucleolus,RPP38_HUMAN
RPP30_HUMAN_0,0.1308688613059903,0.2236913113869401,6.812064965197216,17.122389791183295,0.6516088128071009,0.2101616628175519,0.112733644859813,0.303446261682243,0.1886898096304591,-0.1606942889137738,0.2413108242303873,0.5922758134203333,-0.0848214285714285,-0.1517857142857142,0.1549527332511303,0.4410088517036498,NCRA,nucleolus,RPP30_HUMAN
RPP30_HUMAN_1,0.1293026718236693,0.2282396160455057,7.198667350076883,16.069117907017855,0.7000820008200082,0.5785200221443071,0.3777173913043478,0.4805319003597614,0.6860610924411897,-0.0722007606384571,0.7560796324655437,0.6729722726094843,0.0247349823321554,0.0304169990755866,0.2756566477118873,0.4127959658038845,FGIISTVKKPRPSEGDEDCLPASKKA,nucleolus,RPP30_HUMAN
AK17A_HUMAN_0,0.163947579566729,0.384461085851832,5.542454728370221,20.95061255742726,0.6203410475030451,0.4046221297466003,0.0904107278400944,0.431643754744033,0.2971202303815695,-0.1720258584501721,0.5331030997304582,0.4964622641509434,0.0077404534407564,0.0046609182008855,0.1796181077022098,0.5683814303638645,SISNWEVME,nuclear_speckle,AK17A_HUMAN
AK17A_HUMAN_1,0.126673360107095,0.2436412315930388,6.983191850594228,17.014261460101867,0.5624267978449285,0.2469698741182431,0.2454035668321382,0.5179054054054054,0.3636697247706422,-0.0630504683349643,0.6117977528089887,0.6704242672678827,0.0179739005398952,0.0094594594594594,0.2430555555555555,0.3870209264048906,RDAKDMNETLPGERPDT,nuclear_speckle,AK17A_HUMAN
AK17A_HUMAN_2,0.2111716621253406,0.2808245393405872,7.354052407068861,19.54169914263445,0.7058875054745667,0.3677600472813239,0.1443629697525206,0.4963989944943942,0.3814492753623188,-0.0746277372262773,0.6366813211588321,0.6223373632700058,0.0372691568479986,0.0094927717890866,0.1962830017779865,0.3505199570249944,PMLDPYREEMTGRNFHTF,nuclear_speckle,AK17A_HUMAN
AK17A_HUMAN_3,0.2081998718770019,0.3202016722512761,6.85570987654321,19.27192527244421,0.9222071376764428,0.6375701563679695,0.1279639929742388,0.5408957708380295,0.6565844947045991,0.0234651237544198,0.7784890340042532,0.6343093134295593,0.087900052731919,0.0257866402847194,0.2475473939513933,0.8348941766033444,LRGMKLMYKGEDGKAVACNIKVSFDSTKHLSDASIKKRQLERQKLQELEQQREEQKRREKEAEERQRAEERKQKELEELERERKREEKLRKREQKQRDRELRRNQKKLEKLQAEEQKQLQEKIKLEERKLLL,nuclear_speckle,AK17A_HUMAN
AK17A_HUMAN_4,0.0288685786322092,0.0355499527261266,3.26284266298088,16.7784469778447,0.6578387953941541,0.2988539961303765,0.029402829962427,0.0827244384043488,0.0613940050559768,-0.1651419989077007,0.0464819103905438,0.0621356121715517,-0.0167430670698007,-0.0786111382034526,0.0963033923137608,0.5348034214863062,LIAE,nuclear_speckle,AK17A_HUMAN
SRSF4_HUMAN_0,0.031703844328429,0.0861888941623161,2.903699174564353,13.469275450932436,0.3050605844618674,0.2066999287241625,0.081661222585161,0.3259449370041997,0.0206847360912981,-0.2635520684736091,0.0715810065801173,0.0993242041614796,-0.0349849347171074,-0.1267157683294275,0.1923130873895357,0.2099873755084864,IGR,nuclear_speckle,SRSF4_HUMAN
SRSF4_HUMAN_1,0.2172843080486392,0.4130879345603272,7.526921969478836,20.388566073102155,0.6325643403663344,0.6525250349951545,0.3459982409850484,0.5443246917176425,0.5022647206844489,-0.0611570247933884,0.712286140369418,0.7352642373823535,0.2780603594438793,0.0556120718887758,0.3133179979376537,0.4650929899856938,ERVIVEHARGPRRDGSYGSGRSGYGYRRSGRDKYGPPTRTEYRLIVE,nuclear_speckle,SRSF4_HUMAN
BRME1_HUMAN_0,0.2942198431703995,0.4650043490866918,7.631771595900439,20.068434179507328,0.908162264964806,0.8346108431564833,0.6198561725928885,0.6479171163393049,1.1582978723404256,-0.0413689850808993,1.0835630463889108,0.8637380756094688,0.1687950550862186,0.1053276437534327,0.3468267890073314,0.7745929182759653,MTKRKKLRTSGEGLCPPKPLKNPRLGDFYGDPQSSMLGCLHHPEEPEGKLGPVPSTQQHGEEPGKAVSSSPDEETGSPCRLLRQPEKEPAPLPPSQNSFGRFVPQFAKSRKTVTRKEEMKDEDRGSGAFSLETIAESSAQSPGCQLLVETLGVPLQEATELGDPTQADSARPEQSSQSPVQAVPGSGDSQPDDPPDRGTGLSASQRASQDHLSEQGADDSKPETDRVPGDGGQKEHLPSIDSEGEKPDRGAPQEGGAQRTAGAGLPGGPQEEGDGVPCTPASAPTSGPAPGLGPASWCLEPGSVAQGSPDPQQTPSRMGREGEGTHSSLGCSSLGMVVIADLSTDPTELEERALEVAGPDGQASAISPASPRRKAADGGHRRALPGCTSLTGETTGESGEAGQDGKPPGDVLVGPTASLALAPGSGESMMGAGDSGHASPDTGPCVNQKQEPGPAQEEAELGGQNLERDLEGFRVSPQASVVLEHREIADDPLQEPGAQQGIPDTTSELAGQRDHLPHSADQGTWADSLAVELDFLLDSQIQDALDASDFEAPPEQLFPSGNKPGPCWPGPSSHANGDPVAVAKAQPRTFVGIQASEASRMEDATNVVRGL,chromosomes,BRME1_HUMAN
CGNL1_HUMAN_0,0.1471321695760598,0.2774674115456238,6.176400476758046,20.570902915369373,0.3499079189686924,0.4217311233885819,0.1142857142857142,0.3699366216588592,0.2168916797488226,-0.2327155519742143,0.2855268911237429,0.3410581547879318,0.3100158982511923,0.027027027027027,0.2253468780971258,0.3629531042041807,LYFGEY,cell_junction,CGNL1_HUMAN
CGNL1_HUMAN_1,0.2228493381806495,0.4531741421102185,7.301517944516511,22.1161838513692,0.7616108642880044,0.8523301873575077,0.6252369347414026,0.6727761485826002,0.8668035688995893,-0.0235344458707745,0.9165933485834946,0.7994276341046312,0.377431906614786,0.0721985540924348,0.3050488211478923,0.6984585601229649,QQEYGVHLRLASDDTQKSRSSQNSKAGSYGVSIRVQGIDGHPYIVLNNTERCLAGTSFSENGPPFPPPVINNLPLHSSNGSVPKENSEELQLPENPYAQPSPIRNLKQPLLHEGKNGVLDRKDGSVKPSHLLNFQRHPELLQPYDPEKNELNLQNHQPSESNWLKTLTEEGINNKKPWTCFPKPSNSQPTSPSLEDPAKSGVTAIRLCSSVVIEDPKKQTSVCVNVQSCTKERVGEEALFTSGRPLTAHSPHAHPETKKTRPDVLPFRRQDSAGPVLDGARSRRSSSSSTTPTSANSLYRFLL,cell_junction,CGNL1_HUMAN
NEXN_HUMAN_0,0.3514609018746833,0.415408426483233,6.975367446924333,21.00865418911562,0.93632320938594,0.7807303624583052,0.2919889896065682,0.6356626506024097,0.902975978873597,-0.0266297076660551,0.9264214046822744,0.6952968153835907,0.376673594663831,0.0392131318394997,0.3349668753970414,0.8945780916648275,MNDISQKAEILLSSSKPVPKTYVPKLGKGDVKDKFEAMQRAREERNQRRSRDEKQRRKEQYIREREWNRRKQEIKEMLASDDEEDVSSKVEKAYVPKLTGTVKGRFAEMEKQRQEEQRKRTEEERKRRIEQDMLEKRKIQRELAKRAEQIEDINNTGTESASEEGDDSLLITVVPVKSYKTSGKMKKNFEDLEKEREEKERIKYEEDKRIRYEEQRPSLKEAKCLSLVMDDEIESEAKKESLSPGKLKLTFEELERQRQENRKKQAEEEARKRLEEEKRAFEEARRQMVNEDEENQDTAKIFKGYRPGKLKLSFEEMERQRREDEKRKAEEEARRRIEEEKKAFAEARRNMVVDDDSPEMYKTISQEFLTPGKLEINFEELLKQKMEEEKRRTEEERKHKLEMEKQEFEQLRQEMGEEEEENETFGLSREYEELIKLKRSGSIQAKNLKSKFEKIGQLSEKEIQKKIEEERARRRAIDLEIKEREAENFHEEDDVDVRPARKSEAPFTHKVNMKARFEQMAKAREEEEQRRIEEQKLLRMQFEQREIDAALQKKREEEEEEEGSIMNGSTAEDEEQTRSGAPWFKKPLKNTSVVDSEPVRFTVKVTGEPKPEITWWFEGEILQDGEDYQYIE,cell_junction,NEXN_HUMAN
NEXN_HUMAN_1,0.1754238384884172,0.2993557294063507,6.606824644549763,20.01442686549069,0.6716663180853925,0.4828650818153751,0.275,0.5206570100023417,0.601029601029601,-0.0521903060971374,0.8737326470129465,0.531950745301361,0.3209013209013209,0.066045066045066,0.2345206313521615,0.5665425698479524,TYCLYLPETFPEDGGEYMCKAVNN,cell_junction,NEXN_HUMAN
NEXN_HUMAN_2,0.0341501061161489,0.0578815357900829,4.788296041308089,16.40504769615263,0.4953448603458104,0.6370017548257708,0.1171617161716171,0.2797029702970297,0.3972662498182347,-0.2318431111849759,0.4779462102689487,0.3441734417344173,-0.0042438817371622,-0.0529070589899561,0.1701119157340355,0.3233542838240159,STCILTIE,cell_junction,NEXN_HUMAN
NU160_HUMAN_0,0.1451566265060241,0.2704096385542168,7.416610398379473,17.37343456822446,0.778582334705964,0.511700703248453,0.4035867237687366,0.5297679735533105,0.4965775129927747,-0.0582083662194159,0.8512919068972881,0.7088722084945686,0.0017934846524755,0.0397526501766784,0.252946663274824,0.5661741999447397,MLHLSAAPPAPPPEVTATARPCLCSVGRRGDGGKMAAAGA,nuclear_pore_complex,NU160_HUMAN
NU160_HUMAN_1,0.1725370086778969,0.2580579076754985,6.950447479981158,19.267760066341104,0.6753820505696027,0.4370729591125296,0.16786758036884,0.5088178978131613,0.2998034287187419,-0.0731801258184619,0.6057925351429957,0.565406976744186,0.2800658978583196,0.0066001573883684,0.2319925975190122,0.4280558262086758,ERSFVELSGAERERPRHFREF,nuclear_pore_complex,NU160_HUMAN
NU160_HUMAN_2,0.0395299145299145,0.0648148148148148,4.613045273152608,13.908903261318288,0.3996566003433996,0.2139597315436241,0.1023237125828701,0.3089801111631956,0.3345628919218,-0.2109922537808926,0.4063314711359404,0.2797020484171322,-0.0361292941594357,-0.0706855432079971,0.1676621944495497,0.2393220338983051,TAST,nuclear_pore_complex,NU160_HUMAN
NU160_HUMAN_3,0.1740662010324931,0.2359679266895761,6.948786039453718,17.672610015174506,0.5683614552385223,0.3859774820880245,0.242018244013683,0.5570724307925673,0.5224518888096935,-0.0761662703943592,0.7681319258442308,0.7036516853932584,0.0132538785574848,-0.0006678310901058,0.2654912204324481,0.2924525840703347,PTAIRGDQSPSDRPL,nuclear_pore_complex,NU160_HUMAN
NU160_HUMAN_4,0.1012250161186331,0.1859598853868194,6.611700417872067,16.74374799099968,0.7079303675048356,0.6462262038073908,0.1136518191091465,0.3452057123427405,0.5079917052161429,-0.2594255560441595,0.5972716488730724,0.5654584068248083,0.0244224422442244,0.0036886041545331,0.1768827945271824,0.4281849652674293,EEEIVIRDDQ,nuclear_pore_complex,NU160_HUMAN
NU160_HUMAN_5,0.1089137705394794,0.1064417623963937,5.69892952720785,14.952720785013382,0.535139230914946,0.1426406516385679,0.0603070175438596,0.2077067669172932,-0.0153709066607262,-0.3274671419024281,0.1632478632478632,0.4227920227920227,-0.0846105724116359,-0.1116671879887394,0.1142439829808852,0.3842001651108148,LQS,nuclear_pore_complex,NU160_HUMAN
NU160_HUMAN_6,0.2020033388981636,0.3005008347245409,6.121841890790546,16.37118320610687,0.7139044943820225,0.3763574309649395,0.1017600250872172,0.4315001371957195,0.1735112936344969,-0.0911821497532718,0.1623896247240618,0.3134657836644591,0.0106641721234798,0.0385542168674698,0.1927095990279465,0.3980582524271844,VEMEKGFN,nuclear_pore_complex,NU160_HUMAN
NU160_HUMAN_7,0.1186065800387061,0.07824163671551,6.081799591002045,15.993865030674849,0.778846937943407,0.18756314870947,0.0510191626998657,0.1501377994488022,0.0144569952581055,-0.1040448912789338,0.1787974683544304,0.2973628691983122,0.1369158878504673,-0.0018691588785046,0.106276061156848,0.4995720478202048,YEALT,nuclear_pore_complex,NU160_HUMAN
NU160_HUMAN_8,0.2136276510233104,0.2627450980392157,7.198595848595849,17.3491720662347,0.3964333781965006,0.3161621858745378,0.2351239374241017,0.5573339703774486,0.4054699090498613,-0.0746796288113124,0.7618600168654379,0.7112299465240641,0.0921391752577319,0.0634456324389751,0.2867616544473648,0.2770361872979455,YDRPGASPKRNHDGECTAAPTNR,nuclear_pore_complex,NU160_HUMAN
NU160_HUMAN_9,0.0423327791277657,0.1190689346463742,4.05644873168989,15.232816711590296,0.6325852036575229,0.4892839746712129,0.1125475285171102,0.4395437262357414,0.2754818686703691,-0.2047335747542679,0.0730269003958316,0.130058970837709,-0.0162879435047553,-0.0730575338081139,0.1941641337386018,0.543577034283354,AVAVAGS,nuclear_pore_complex,NU160_HUMAN
SNTA1_HUMAN_0,0.1906937780824004,0.3836542222608544,7.172253091951963,22.254113028921086,0.9004959996959389,0.6518820674342954,0.5814315999501185,0.5444589929770265,0.723109258750612,-0.0390310308072481,0.842966573816156,0.6830350991161244,0.0252020398827575,0.0308693221286617,0.3310265282583621,0.7934196985289667,MASGRRAPRTGLLELRAGAGSGAGGERWQRVLLSLAEDVLTVSPADGDPGPEPGAPREQEPAQLNGAAEPGAGPPQLPEALLLQRRRVTVRKADAGGLGISIKGGRE,cell_junction,SNTA1_HUMAN
SNTA1_HUMAN_1,0.0268567053418929,0.0243307606231888,6.2684968496849685,17.299196787148595,0.5089128132721497,0.5847457627118644,0.0594680712706463,0.2235336194563662,0.38296488946684,-0.2825015216068168,0.3995361223262606,0.2701708411026558,-0.0298399046982595,-0.0729581311561147,0.1390367332693482,0.4205956587582029,ILISKIF,cell_junction,SNTA1_HUMAN
SNTA1_HUMAN_2,0.1467927631578947,0.2327302631578947,6.31844968268359,19.55233260817017,0.7745231176251223,0.5644179681210755,0.150449054120045,0.4882598698060044,0.5200280227478777,-0.0940488004662665,0.7951118774560911,0.5822983043525218,0.041089108910891,0.0290802134767158,0.2610020956372642,0.6437573575237172,LFVGDAILSVNGEDLSSATHDEAVQVLKKTGKE,cell_junction,SNTA1_HUMAN
SNTA1_HUMAN_3,0.2458471760797342,0.5545152521896708,7.169944742023585,21.14819875776397,0.9133640026287968,0.5322155073951451,0.5387177352206495,0.6027232185216814,0.665195126258167,-0.0284771282834619,0.935838307107976,0.6880033304144356,0.1199093557785691,0.0489593795987012,0.2949189619170727,0.8791240282130213,VSPYFKNSTGGTSVGWDSPPASPLQRQPSSPGPTPRNFSEAKHMSLKMAYVSKRCTPNDPEPRYLEICSADGQDTLFLRAKDEASARSWATAIQAQVNTLTPRVKDELQALLAATSTAGSQDIKQIGWLTEQLPSGGTAPTLA,cell_junction,SNTA1_HUMAN
SNTA1_HUMAN_4,0.1720910526518507,0.3166409861325115,7.294959551960174,19.206084142394825,0.8322570332480819,0.5888774017360773,0.2922575387123064,0.6193488336752526,0.58076524729838,-0.0673969337947155,0.6659260367039118,0.6729303810093756,0.0472731960978125,0.01919795221843,0.3188422312118967,0.6060547575064105,PETREALSRPARTAPLIATRLVHSGPSKGSVPYDAELSFALR,cell_junction,SNTA1_HUMAN
SNTA1_HUMAN_5,0.1335201860576063,0.2771268057784912,5.643755341228177,18.492574257425744,0.4335686607569404,0.3804780876494024,0.1174934725848564,0.4122062663185378,0.3341992557747665,-0.2026467203682393,0.4819976771196283,0.4058072009291521,0.0084804033921613,-0.0261632813818713,0.2131542699724518,0.2882610906317528,GVDTHLFSVE,cell_junction,SNTA1_HUMAN
SNTA1_HUMAN_6,0.1042799716244975,0.1891700165523764,6.530520995334371,16.6146967340591,0.6822357153977892,0.1284054693122237,0.0743147448015122,0.2238894139886578,-0.2350993377483443,-0.2496206373292868,0.2234696605185779,0.616035703293321,-0.0543478260869565,-0.1213768115942029,0.1165368484122229,0.4766620549042452,TRQL,cell_junction,SNTA1_HUMAN
SNTA1_HUMAN_7,0.1084857723577235,0.1042936991869918,5.607577807848444,16.221647058823528,0.6097968629467729,0.4035608308605341,0.0916229267268528,0.2803695150115473,0.2490234375,-0.2002993552348787,0.4292452830188679,0.3822485207100591,0.0083930899608865,-0.0016568883094306,0.1694218918125794,0.432069399748146,VQEVSTA,cell_junction,SNTA1_HUMAN
TCOF_HUMAN_0,0.1490976210008203,0.1628780149369465,6.58975476839237,17.356494637455313,0.8370494551550712,0.1703417861080485,0.1090190060205406,0.3148388619997639,-0.0317032435758445,-0.0726063537429922,0.225149982355017,0.5244942724835486,0.0116585393195448,0.0083683585577774,0.1384846964375313,0.6738101069475059,MAEARKRRELLP,nucleolus,TCOF_HUMAN
TCOF_HUMAN_1,0.1511943539630836,0.2325654041390082,6.797332531087044,19.359004237288136,0.7942369707687507,0.4039507586601775,0.1314664386489953,0.5180714426238723,0.2366091051805337,-0.0795893378543844,0.5078895463510849,0.5816987240525614,0.0403758625752459,0.0008033718330849,0.198394495412844,0.6723155588020453,YVRAAREVKEQSGQKCFLAQP,nucleolus,TCOF_HUMAN
SHRM2_HUMAN_0,0.1568864502929415,0.2234030163628952,7.184495298917864,17.579522978475858,0.8986659587177275,0.5205803571428571,0.1882480550568522,0.5175704903069627,0.4281193770552832,-0.0372063998690563,0.5609108998452355,0.5677541769883518,0.0247263883259019,0.0188383045525902,0.2191616317033812,0.7695842667018052,MEGAEPRARPERLAEAETRAADGGRLVEVQL,cell_junction,SHRM2_HUMAN
SHRM2_HUMAN_1,0.1878268144739594,0.4503241999581677,7.274959083469722,18.60191082802548,0.787471497864931,0.721828317536775,0.2177914110429447,0.5182625863770978,0.6035694089005186,-0.0951018057740075,0.5197082160225237,0.5989346271194919,0.0207867602460791,0.0088123771182473,0.2896995708154506,0.6047191417550627,GAPWGFTLKGGREHGEPLVITKIEEGSKAAAVDKLLAG,cell_junction,SHRM2_HUMAN
SHRM2_HUMAN_2,0.3931806073521577,0.598910310142498,7.805262088581877,22.937001209189845,0.9187666943994396,0.7077785975692571,0.6580935251798561,0.6571304724750758,0.956814270067282,-0.033281154291159,1.0088214923632122,0.8416159761276254,0.2737103676775114,0.0759483598893994,0.3414781906300485,0.7827902546439657,KLVVKRRSELGWRPHSWHATKFSDSHPELAASPFTSTSGCPSWSGRHHASSSSHDLSSSWEQTNLQRTLDHFSSLGSVDSLDHPSSRLSVAKSNSSIDHLGSHSKRDSAYGSFSTSSSTPDHTLSKADTSSAENILYTVGLWEAPRQGGRQAQAAGDPQGSEEKLSCFPPRVPGDSGKGPRPEYNAEPKLAAPGRSNFGPVWYVPDKKKAPSSPPPPPPPLRSDSFAATKSHEKAQGPVFSEAAAAQHFTALAQAQPRGDRRPELTDRPWRSAHPGSLGKGSGGPGCPQEAHADGSWPPSKDGASSRLQASLSSSDVRFPQSPHSGRHPPLYSDHSPLCADSLGQEPGAASFQNDSPPQVRGLSSCDQKLGSGWQGPRPCVQGDLQAAQLWAGCWPSDTALGALESLPPPTVGQSPRHHLPQPEGPPDARETGRCYPLDKGAEGCSAGAQEPPRASRAEKASQRLAASITWADGESSRICPQETPLLHSLTQEGKRRPESSPEDSATRPPPFDAHVGKPTRRSDRFATTLRNEIQMHRAKLQKSRSTVALTAAGEAEDGTGRWRAGLGGGTQEGPLAGTYKDHLKEAQARVLRATSFKRRDLDPNPGDLYPESLEHRMGDPDTVPHFWEAGLAQPPSSTSGGPHPPRIGGRRRFTAEQKLKSYSEPEKMNEVGLTRGYSPHQHPRTSEDTVGTFADRWKFFEETSKPVPQRPAQKQALHGIPRDKPERPRTAGRTCEGTEPWSRTTSLGDSLNAHSAAEKAGTSDLPRRLGTFAEYQASWKEQRKPLEARSSGRCHSADDILDVSLDPQERPQHVHGRSRSSPSTDHYKQEASVELRRQAGDPGEPREELPSAVRAEEGQSTPRQADAQCREGSPGSQQHPPSQKAPNPPTFSELSHCRGAPELPREGRGRAGTLPRDYRYSEESTPADLGPRAQSPGSPLHARGQDSWPVSSALLSKRPAPQRPPPPKREPRRYRATDGAPADAPVGVLGRPFPTPSPASLDVYVARLSLSHSPSVFSSAQPQDTPKATVCERGSQHVSGDASRPLPEALLPPKQQHLRLQTATMETSRSPSPQFAPQKLTDKPPLLIQDEDSTRIERVMDNNTTVKMVPIKIVHSESQPEKESRQSLACPAEPPALPHGLEKDQIKTLSTSE,cell_junction,SHRM2_HUMAN
SHRM2_HUMAN_3,0.1958019548149335,0.2939400172789731,7.391555027980329,20.48852599504856,0.933334904743104,0.5413317022020273,0.4310742277547257,0.6142373646209386,0.842156402868056,-0.0202771898682324,0.7510070620754749,0.652608082706767,0.0354544003455301,0.046123054780966,0.2878323393344852,0.8385489438645517,YSRFCLYTRQGAEPEAPHRAQPAEPQPLGTQVPPEKDRCTSPPGLSYMKAKEKTVEDLKSEELAREIVGKDKSLADILDPSVKIKTTMDLMEGIFPKDEHLLEEAQQRRKLLPKIPSPRSTEERKEEPSVPAAVSLATNSTYYSTSAPKAELLIKMKDLQEQQEHEEDSGSDLDHDLSVKKQE,cell_junction,SHRM2_HUMAN
SHRM2_HUMAN_4,0.1243686868686868,0.1764936422226093,6.526566109525751,16.67710599354887,0.7915206548151937,0.265598852498207,0.0776805960479429,0.2476838354389375,0.1195774525932981,-0.0901209217430983,0.4860778681985001,0.5141316474525846,0.0189386875530967,0.0106918629949648,0.1295582680005315,0.5711931324253839,REARESLLEDVQAN,cell_junction,SHRM2_HUMAN
SHRM2_HUMAN_5,0.1455149872894376,0.2000786330598886,6.377202930088577,17.73285928831949,0.85694381817537,0.3878764047505071,0.2563258723274415,0.5463045984372998,0.3420208302482847,-0.0522033686966822,0.8996479960476749,0.7620062447341032,0.0910015251652262,0.0169238798180869,0.2348523514400291,0.7177364871101004,NALNNLDDGASPGDRQSLLEKQRVLIQQHEDAKELKEN,cell_junction,SHRM2_HUMAN
NOG2_HUMAN_0,0.2650969571084191,0.3467093903572851,7.116584988393088,20.77050743990843,0.8370478844851749,0.7081592880218484,0.2858282636880422,0.5923240699238009,0.666879687867882,-0.0497152349311817,0.8093766736703333,0.8007655401114796,0.2047247837246886,0.0248736639175022,0.2655591669676176,0.6872694721856734,MVKPKYKGRSTINPSKASTNPDRVQGAGGQNMRDRATIRRLNMYRQKERRNSRGKIIKPLQYQSTVASGTVARVEPNIKWFGNTRVIKQSSLQKFQEEMDTVMKDPYKVVMKQSKLPMSLLHDRIRPHNLKVHILDTESFETTFGPKSQRKRPNLFASDMQSLIENAEMSTESYDQGKDRDLVTEDTGVRNEAQEEIYKK,nucleolus,NOG2_HUMAN
NOG2_HUMAN_1,0.1578590785907859,0.2515146807519031,7.175566069618114,20.127777777777776,0.4883040935672514,0.3820091324200913,0.2724602856761447,0.4844487157085445,0.353204172876304,-0.063634721344052,0.7549848787738992,0.7028355819803339,0.0066558096721659,0.0105147631523047,0.2358703843255463,0.3887342393974128,QVLDARDPMGTRSPHIETYL,nucleolus,NOG2_HUMAN
NOG2_HUMAN_2,0.1745543945912722,0.2165027658266748,5.534176130276409,16.86855730760179,0.6472058660148873,0.3389768319530349,0.1018512628029773,0.2957567275271964,0.1736157161803713,-0.1974935732647814,0.5398822813070834,0.3071686023227873,0.0038083148206918,-0.0099477428697349,0.1687475614514241,0.513377141516076,EDHIGAVLER,nucleolus,NOG2_HUMAN
NOG2_HUMAN_3,0.1432964329643296,0.2340713407134071,6.039416058394161,19.69503965905055,0.3696632591701744,0.4800447594181276,0.0881989114299851,0.2342899554675903,0.2362060343390565,-0.2301525442601046,0.4400268636668905,0.3060109289617486,0.0041666666666666,-0.0583333333333333,0.1699110122358176,0.2559142434696895,KTYKI,nucleolus,NOG2_HUMAN
NOG2_HUMAN_4,0.1119003083767251,0.1094487372296841,6.338475923328658,16.29712038687932,0.5738423028785983,0.386049308478653,0.2379383840341019,0.5864978902953587,0.1821705426356589,-0.0971177944862155,0.7176183290978398,0.3874405266245193,0.0165417020947669,-0.0036130727541468,0.2724255471833512,0.4528272414870353,TGKLLKGGEPDLQTVGKMVL,nucleolus,NOG2_HUMAN
SNTB1_HUMAN_0,0.1478405315614618,0.2885150941294419,7.435130739396972,16.601256944054768,0.8496411031356252,0.3763574309649395,0.1920146590799498,0.4246459487247521,0.3384893366550771,-0.0543364681295715,0.3881088039669106,0.6730793047929654,-0.0075038803113585,0.0289464826657691,0.2262748185078282,0.6517491058187211,VAAAAAAAGPAGAGGGRAQRSGLLEV,cell_junction,SNTB1_HUMAN
SNTB1_HUMAN_1,0.1679368779700529,0.3282524881197884,7.51518302828619,19.31420532965283,0.750232648732876,0.6294608959757023,0.5453173833387218,0.4918053587666801,0.6990867368225859,-0.0473782842193965,0.7244074187466766,0.757102795145274,0.0121866777454646,0.0265686780854972,0.3175572519083969,0.5685707431495896,EGAAAYNGIGTATNGSFCRGAGAGHPGAGGAQPPDSPAGVRTAFTDLPEQVPESISNQKRGVKVLKQ,cell_junction,SNTB1_HUMAN
SNTB1_HUMAN_2,0.0346281625351392,0.1364681829798109,6.4002079002079,15.425234115396234,0.3099561986318224,0.516224735768589,0.1317829457364341,0.4878664609342124,0.3869178170558637,-0.2019353097652184,0.3412409559307169,0.2922907719702524,-0.0231713303878252,-0.0851918107732061,0.2371693954659949,0.3098092416733575,GLGISIKGG,cell_junction,SNTB1_HUMAN
SNTB1_HUMAN_3,0.0276020701552616,0.0250671012269938,6.2776918316831685,15.989396876068865,0.4706778922920598,0.3605062136586478,0.0773198482932996,0.2592667509481668,0.2122877732991327,-0.2719311049481827,0.4183583406884378,0.2976720301266689,-0.0263540656600637,-0.0698850256268181,0.1470371281042537,0.3433250740315465,LISKI,cell_junction,SNTB1_HUMAN
SNTB1_HUMAN_4,0.2101534828807556,0.588093322606597,7.376929029908499,19.023576590276,0.8930847604595707,0.6013870778225171,0.5062358276643991,0.6049491626794259,0.7124436189970814,-0.0408337888907375,0.9252560819462228,0.6333700845277471,0.0622990397805212,0.0253492247771702,0.2821017254805524,0.8009585621567649,VGDAILSVNGADLRDATHDEAVQALKRAGKEVLLEVKYMREATPYVKKGSPVSEIGWETPPPESPRLGGSTSDPPSSQSFSFHRDR,cell_junction,SNTB1_HUMAN
SNTB1_HUMAN_5,0.1975775927327782,0.3179409538228614,6.886382416129566,19.642857142857142,0.684755326750087,0.7085157182650219,0.1169202351384745,0.5436663401893569,0.5135823429541596,-0.0342830669446374,0.8082138098597069,0.6777916281314086,0.0740897544453852,0.007264212763917,0.2116618075801749,0.5464215635650108,CYVTRSMALADPENRQLEIHSPDAKHTVILRSK,cell_junction,SNTB1_HUMAN
SNTB1_HUMAN_6,0.1764110351809668,0.3955960516324981,4.586916380902137,21.496966499604326,0.6130088124213177,0.2681357567958822,0.0787736668403682,0.2558624283480979,0.1994650022291574,-0.088392133441406,0.4365919955009841,0.3197704747000521,0.002163331530557,-0.0668553425535323,0.1552283041585625,0.4779970620169892,QAWFSA,cell_junction,SNTB1_HUMAN
SNTB1_HUMAN_7,0.1829878008132791,0.3859742683821078,7.146952150674472,19.239756367663343,0.8799927312375068,0.553232550659376,0.1987295825771325,0.5026088929219601,0.4444539103765548,-0.0693270525959243,0.4256911116227176,0.6413456321215409,0.0169174515982273,0.0211212572125935,0.2956475583864119,0.6078795688613184,TRVIAEVREQLGKTGIAGSREIRHLGWLAEKVPG,cell_junction,SNTB1_HUMAN
SNTB1_HUMAN_8,0.2383268482490272,0.3005836575875486,6.767123287671233,21.01823763091369,0.5824436536180309,0.2244847890088321,0.1532669138090824,0.4177479147358665,0.1888355865678151,-0.0838645856232138,0.3077967943493616,0.3740937651039149,-0.0485929929183749,-0.0953568459802873,0.2112887112887113,0.3632178745859765,SKKQWKPA,cell_junction,SNTB1_HUMAN
SNTB1_HUMAN_9,0.1660871724823047,0.3278865374242472,7.125671477104445,19.37608146390016,0.6910173763690304,0.564617958126484,0.3547583457897359,0.551030519223147,0.4751648351648351,-0.0970196177062374,0.5072655217965654,0.7124065701887907,0.0192228702867,0.0203729565431693,0.295492899773616,0.4605078908526662,ATRLVHSGPGKGSPQAGVDLSFATRTGTRQGIETHLFRAET,cell_junction,SNTB1_HUMAN
SNTB1_HUMAN_10,0.268188302425107,0.3851640513552068,6.863612147043154,20.92221489782465,0.3878226340172071,0.3742071881606765,0.1344950300650386,0.3505951650509264,0.3463541666666667,-0.270327213312121,0.4430971327523051,0.6485461441213654,-0.0743376828786081,-0.0956899960458679,0.1972386587771203,0.2291904218928164,HWTRS,cell_junction,SNTB1_HUMAN
SNTB1_HUMAN_11,0.1394810520050263,0.3192441571357534,6.485544490844844,19.212538503352057,0.6805644961624164,0.5217843522477753,0.2120857699805068,0.5534838076545633,0.5375944924406048,-0.0655771617707902,0.6456953642384106,0.3854460093896714,0.140985324947589,0.0094562332448617,0.2798157008683324,0.4127959658038845,ENGFSITTEPQEGAFPKTIIQSPYEKL,cell_junction,SNTB1_HUMAN
